1782 100
beer -0.24766 -0.095326 0.048737 -0.042152 0.13278 0.0001439 0.10201 -0.12445 0.011551 0.071808 0.082819 0.029967 -0.15095 -0.22742 0.16912 -0.26903 0.13589 0.055879 -0.083059 0.34223 0.21906 -0.028848 -0.33443 -0.39916 -0.18564 0.01119 0.083739 -0.37437 0.074305 0.048926 -0.23363 -0.19483 0.030806 -0.060763 -0.07106 0.15141 -0.14794 -0.051936 -0.093641 -0.078455 0.027117 0.099344 0.020679 0.2491 0.57855 -0.40534 -0.05424 0.091341 0.025496 -0.12613 0.10513 -0.0041119 0.085681 -0.028641 0.1631 0.058479 -0.13916 0.18013 0.17339 0.045904 -0.0309 0.05369 -0.044761 0.045368 -0.069667 -0.077174 0.009703 -0.23477 -0.095667 -0.052198 0.18255 -0.019899 0.12777 -0.12085 -0.11753 0.11147 -0.21903 -0.185 0.05583 0.2924 -0.079946 -0.062875 -0.07808 -0.15586 0.17851 -0.069115 -0.027284 -0.22504 -0.14759 -0.06687 -0.1139 0.086376 0.14415 -0.17719 -0.19607 0.1368 -0.035945 -0.12671 -0.12003 -0.087204 
</s> -0.2277 -0.10022 0.069447 -0.031999 0.13406 -0.041442 0.13675 -0.12135 0.010375 0.12012 0.10518 -0.00085156 -0.15088 -0.17607 0.081188 -0.28749 0.14892 0.018642 -0.096037 0.32981 0.22589 -0.028472 -0.27715 -0.34497 -0.18249 -0.0053036 0.024275 -0.33361 0.044353 0.060314 -0.18352 -0.18186 0.066069 -0.070232 -0.065599 0.17905 -0.14072 -0.024676 -0.12136 -0.12115 0.014533 0.05883 0.0034098 0.26726 0.58319 -0.37509 -0.0040337 0.10913 -0.07529 -0.10197 0.064463 -0.058957 0.085613 -0.016643 0.13464 0.073295 -0.15375 0.16774 0.20058 0.017195 -0.028601 0.073483 -0.045883 0.058714 -0.057407 -0.056491 0.0053802 -0.18052 -0.059828 -0.03746 0.15077 0.034312 0.061895 -0.17341 -0.11416 0.12453 -0.21927 -0.13828 0.075202 0.28534 -0.08325 -0.069027 -0.091367 -0.17188 0.20051 -0.010371 -0.050187 -0.22278 -0.20618 -0.091267 -0.10417 0.088601 0.18727 -0.14325 -0.14487 0.087351 -0.069109 -0.12802 -0.092632 -0.087881 
tast -0.18926 -0.14568 0.080287 0.049041 0.10491 -0.18088 0.26008 -0.11505 0.026107 0.2664 0.12837 -0.081514 -0.10817 -0.013376 -0.15366 -0.32914 0.19198 -0.117 -0.13608 0.30731 0.29199 -0.066109 -0.12221 -0.21177 -0.14821 -0.040356 -0.086143 -0.23072 -0.039634 0.12589 -0.0045678 -0.1769 0.11137 -0.090743 -0.047996 0.24951 -0.07298 0.015726 -0.18244 -0.21726 0.027709 -0.081294 -0.02978 0.30739 0.53649 -0.26539 0.1068 0.15608 -0.38093 -0.031534 -0.065391 -0.19781 0.096963 0.00036035 0.093577 0.13453 -0.16132 0.11173 0.25541 -0.055185 -0.030799 0.14733 -0.076309 0.061586 -0.027495 0.010317 0.021881 0.032934 0.089762 0.0060791 0.060376 0.1591 -0.14283 -0.31659 -0.13961 0.17914 -0.22399 -0.015898 0.1024 0.2688 -0.11689 -0.047429 -0.11717 -0.23305 0.25328 0.11819 -0.065689 -0.21391 -0.37614 -0.18896 -0.087908 0.11842 0.31527 -0.035445 -0.016949 -0.051469 -0.1232 -0.11848 0.062321 -0.063666 
not -0.20656 -0.12616 0.0739 -0.00045322 0.12136 -0.10831 0.21054 -0.10848 0.0091019 0.1992 0.10643 -0.043149 -0.13023 -0.098477 -0.028374 -0.3065 0.16842 -0.050881 -0.10092 0.30929 0.25887 -0.047473 -0.18945 -0.26223 -0.17405 -0.0078502 -0.028365 -0.28646 -0.0095218 0.10399 -0.085432 -0.17609 0.079691 -0.093645 -0.053727 0.20474 -0.090827 -0.010165 -0.14792 -0.15489 0.030891 -0.022061 0.0030213 0.29085 0.53705 -0.31834 0.056739 0.13263 -0.21184 -0.065973 0.0026858 -0.12131 0.08748 -0.0097847 0.11683 0.096562 -0.14324 0.1284 0.22297 -0.013075 -0.024166 0.10117 -0.061666 0.043639 -0.037405 -0.016633 0.013419 -0.073567 0.010688 -0.010289 0.094712 0.081075 -0.048736 -0.24721 -0.12103 0.16015 -0.21072 -0.074523 0.079025 0.27678 -0.10779 -0.045775 -0.10463 -0.18409 0.22115 0.056232 -0.034954 -0.20731 -0.29914 -0.12452 -0.092615 0.093244 0.24471 -0.069634 -0.069166 0.024227 -0.07576 -0.13318 -0.012855 -0.085294 
s -0.24205 -0.10188 0.060445 -0.026419 0.13191 -0.028712 0.14514 -0.13477 0.022443 0.12975 0.095592 0.012611 -0.15197 -0.18979 0.11535 -0.27438 0.14087 0.010259 -0.098492 0.3354 0.21803 -0.03647 -0.29998 -0.35709 -0.18814 0.0078426 0.053023 -0.34501 0.052325 0.078779 -0.18233 -0.18708 0.037626 -0.067468 -0.060456 0.18863 -0.13261 -0.033973 -0.10788 -0.10041 0.0088477 0.045884 0.024157 0.26474 0.56316 -0.38656 -0.031215 0.11376 -0.041733 -0.11426 0.060697 -0.03266 0.083423 -0.013629 0.1541 0.066156 -0.14459 0.16632 0.16104 0.022662 -0.016692 0.070246 -0.055787 0.033534 -0.042592 -0.043154 0.016315 -0.1915 -0.067979 -0.031912 0.15285 0.01456 0.058191 -0.15499 -0.11179 0.1233 -0.2276 -0.15097 0.069512 0.26667 -0.085435 -0.056328 -0.088983 -0.15102 0.17789 -0.028426 -0.029085 -0.19853 -0.18721 -0.095316 -0.10178 0.083523 0.18453 -0.14846 -0.15187 0.097388 -0.055139 -0.14464 -0.091971 -0.097577 
drink -0.25985 -0.08457 0.040721 -0.050133 0.14363 0.0098016 0.096824 -0.12766 0.011698 0.081401 0.074181 0.04784 -0.16155 -0.25644 0.20024 -0.26079 0.12059 0.062888 -0.074383 0.35127 0.2067 -0.027652 -0.36426 -0.42403 -0.21238 0.029588 0.086434 -0.40319 0.071557 0.051111 -0.24412 -0.19758 0.026267 -0.057014 -0.061418 0.16432 -0.14869 -0.049244 -0.1065 -0.078855 0.02086 0.10199 0.036869 0.25201 0.59606 -0.43356 -0.045896 0.093681 0.062539 -0.14505 0.11636 0.0064595 0.074997 -0.0099308 0.18022 0.036425 -0.11647 0.19233 0.1787 0.047384 -0.029298 0.048134 -0.049744 0.034657 -0.079599 -0.070144 0.020695 -0.26483 -0.11683 -0.036893 0.21022 -0.020162 0.12804 -0.1102 -0.094267 0.12101 -0.20622 -0.1947 0.064729 0.28817 -0.066834 -0.068755 -0.089299 -0.14485 0.17044 -0.074682 -0.02697 -0.21069 -0.14448 -0.07068 -0.11805 0.068809 0.12654 -0.16894 -0.19227 0.13067 -0.027274 -0.14554 -0.13253 -0.10771 
t -0.24012 -0.078041 0.038478 -0.046624 0.12342 0.045943 0.088583 -0.12645 0.02707 0.059204 0.063719 0.056311 -0.17447 -0.28133 0.21008 -0.24128 0.13369 0.042384 -0.080209 0.37239 0.20904 -0.0053306 -0.3634 -0.43004 -0.20322 0.035053 0.10046 -0.39707 0.09187 0.042604 -0.24377 -0.20049 0.02932 -0.045903 -0.046951 0.17691 -0.15104 -0.035164 -0.10448 -0.077263 -0.0017098 0.10181 0.052107 0.24182 0.60939 -0.46333 -0.045644 0.069432 0.067699 -0.14629 0.12716 0.01628 0.059731 -0.0051683 0.19011 0.048959 -0.13598 0.21039 0.17831 0.047601 -0.036669 0.068428 -0.057093 0.020838 -0.078733 -0.071582 0.010468 -0.24913 -0.12097 -0.018522 0.19309 -0.003503 0.14047 -0.11293 -0.072653 0.12479 -0.22958 -0.21576 0.047396 0.27954 -0.05522 -0.060193 -0.067758 -0.16016 0.18003 -0.092969 -0.021879 -0.1752 -0.1284 -0.075471 -0.12785 0.048919 0.14583 -0.1937 -0.21926 0.11738 -0.030637 -0.16021 -0.12293 -0.13562 
light -0.15601 -0.17405 0.08852 0.060808 0.077485 -0.24903 0.31841 -0.12892 0.039606 0.32831 0.18748 -0.10377 -0.12002 0.03425 -0.25048 -0.37445 0.23032 -0.16615 -0.16822 0.3081 0.3374 -0.068879 -0.085915 -0.16835 -0.13555 -0.067103 -0.11899 -0.18888 -0.064377 0.15276 0.033359 -0.17687 0.15403 -0.118 -0.0595 0.30099 -0.06203 0.0087124 -0.22402 -0.27977 0.048169 -0.13944 -0.057656 0.34243 0.55611 -0.23051 0.12413 0.19432 -0.49717 -0.023076 -0.10333 -0.25289 0.11363 -0.023348 0.066854 0.17004 -0.19932 0.11159 0.24331 -0.077876 -0.029485 0.1639 -0.094407 0.074389 -0.0039742 0.030025 0.043427 0.097247 0.13124 -0.0029978 0.017515 0.21225 -0.23295 -0.37423 -0.16524 0.19163 -0.25877 0.010371 0.12478 0.29763 -0.14292 -0.072088 -0.13618 -0.28433 0.30447 0.168 -0.093216 -0.23367 -0.44148 -0.23649 -0.085638 0.14085 0.38805 -0.032191 0.0070425 -0.083745 -0.17599 -0.12772 0.090179 -0.047544 
flavor -0.16173 -0.16209 0.094939 0.05289 0.095302 -0.22208 0.27975 -0.12122 0.030712 0.29323 0.15864 -0.086629 -0.1118 0.0076019 -0.20186 -0.35707 0.21199 -0.14445 -0.14544 0.30396 0.31373 -0.070493 -0.094856 -0.19292 -0.14261 -0.049134 -0.10479 -0.21766 -0.051012 0.13138 0.0082361 -0.17147 0.14132 -0.11399 -0.060507 0.27042 -0.077542 0.016578 -0.20255 -0.24411 0.031642 -0.11135 -0.051262 0.32583 0.55873 -0.25717 0.10999 0.17765 -0.43269 -0.027248 -0.084678 -0.22553 0.10179 -0.014811 0.078306 0.1526 -0.18139 0.11168 0.25457 -0.061199 -0.034981 0.15087 -0.076974 0.079559 -0.017059 0.01352 0.024309 0.066586 0.10648 0.00017893 0.033261 0.18045 -0.18203 -0.34587 -0.15028 0.1854 -0.24621 0.0056648 0.10737 0.28574 -0.13726 -0.059427 -0.11896 -0.26285 0.27903 0.14287 -0.079947 -0.22236 -0.40583 -0.1969 -0.088685 0.12549 0.34521 -0.031315 -0.0062198 -0.067688 -0.15863 -0.12883 0.067971 -0.059419 
no -0.19366 -0.15838 0.089671 0.042702 0.11532 -0.19819 0.28462 -0.11655 0.020544 0.27952 0.15021 -0.079868 -0.10912 -0.013264 -0.17709 -0.3498 0.19556 -0.12125 -0.1349 0.29053 0.29658 -0.071632 -0.11022 -0.20128 -0.15399 -0.040891 -0.097388 -0.22644 -0.05036 0.12507 0.0018801 -0.17348 0.13228 -0.11058 -0.046203 0.26173 -0.08234 0.022862 -0.19335 -0.22638 0.037943 -0.093123 -0.03746 0.31655 0.55039 -0.2675 0.11581 0.17266 -0.39651 -0.035821 -0.070823 -0.21071 0.10911 -0.012764 0.093392 0.13652 -0.16215 0.11262 0.26048 -0.053193 -0.022589 0.13882 -0.082276 0.062363 -0.02373 0.012109 0.029827 0.046156 0.093875 0.010629 0.045124 0.16181 -0.14734 -0.32114 -0.14288 0.18113 -0.22492 -0.006103 0.11865 0.27399 -0.12235 -0.06378 -0.12562 -0.24499 0.25836 0.1304 -0.076976 -0.21426 -0.38454 -0.18668 -0.09139 0.11601 0.33082 -0.039511 -0.012907 -0.063119 -0.13965 -0.11669 0.052633 -0.069898 
aroma -0.12561 -0.18632 0.10699 0.10246 0.07014 -0.34689 0.38525 -0.1367 0.056411 0.39843 0.21813 -0.15142 -0.088931 0.12482 -0.3934 -0.41648 0.25826 -0.23919 -0.19355 0.30363 0.39425 -0.085688 0.0011275 -0.12381 -0.12783 -0.090244 -0.17522 -0.13958 -0.11466 0.17579 0.12686 -0.18784 0.21349 -0.14488 -0.057253 0.36994 -0.067042 0.040434 -0.26488 -0.36783 0.045913 -0.21408 -0.091676 0.37653 0.61723 -0.21417 0.1842 0.24415 -0.70348 0.005256 -0.1886 -0.34599 0.12613 -0.016819 0.047711 0.22438 -0.2316 0.095722 0.28258 -0.12474 -0.034052 0.2169 -0.11335 0.10103 0.01063 0.05433 0.047361 0.20362 0.2122 0.010132 -0.027422 0.29471 -0.33011 -0.48767 -0.18431 0.23947 -0.29906 0.088052 0.15415 0.30813 -0.17038 -0.077466 -0.15077 -0.36022 0.36126 0.25478 -0.13164 -0.25037 -0.549 -0.29626 -0.091289 0.17113 0.48014 0.0020298 0.055002 -0.15701 -0.23574 -0.1207 0.16692 -0.033159 
head -0.12366 -0.17417 0.095508 0.10073 0.069232 -0.35063 0.38005 -0.14012 0.072809 0.39264 0.23102 -0.14414 -0.081998 0.11647 -0.38871 -0.41902 0.2567 -0.22976 -0.2043 0.30801 0.40238 -0.083668 -0.0092005 -0.13838 -0.1282 -0.084616 -0.16014 -0.13615 -0.12188 0.16095 0.12203 -0.18609 0.21933 -0.14461 -0.056632 0.37321 -0.070687 0.03669 -0.2598 -0.36217 0.047142 -0.21418 -0.091981 0.36174 0.60263 -0.20965 0.17113 0.23827 -0.69122 -0.00030859 -0.19251 -0.34653 0.12774 -0.013136 0.047861 0.242 -0.24676 0.10152 0.27095 -0.13058 -0.03516 0.22685 -0.10985 0.094251 0.010065 0.051665 0.053812 0.19362 0.20698 0.0024606 -0.027428 0.28691 -0.322 -0.46972 -0.18317 0.21925 -0.29644 0.080374 0.15936 0.28329 -0.14953 -0.082475 -0.14376 -0.35664 0.3561 0.24582 -0.14091 -0.23272 -0.52332 -0.29445 -0.10395 0.1734 0.47296 -0.010448 0.045384 -0.15809 -0.2507 -0.11217 0.17134 -0.034309 
bud -0.23574 -0.07359 0.02049 -0.059641 0.11878 0.070544 0.047413 -0.12413 -0.00066436 -0.0045936 0.08572 0.053443 -0.16839 -0.28932 0.26319 -0.23035 0.12967 0.094664 -0.071925 0.35466 0.19889 -0.028785 -0.38196 -0.45596 -0.18129 -0.0016402 0.13636 -0.39692 0.1258 0.039259 -0.31435 -0.19045 0.024028 -0.051474 -0.084494 0.13584 -0.16737 -0.074751 -0.075304 -0.062986 0.04093 0.14745 0.023502 0.2448 0.62634 -0.46302 -0.10225 0.077128 0.11666 -0.15865 0.14842 0.031067 0.078566 -0.047978 0.18297 0.044971 -0.14441 0.20413 0.14799 0.075627 -0.026172 0.037811 -0.054037 0.037646 -0.092944 -0.10086 0.010786 -0.31292 -0.12865 -0.075798 0.21024 -0.049188 0.19429 -0.075791 -0.11825 0.10037 -0.23205 -0.25746 0.036937 0.31601 -0.048225 -0.072919 -0.083367 -0.17065 0.17924 -0.12676 -0.039413 -0.23755 -0.090661 -0.04638 -0.11971 0.084827 0.11291 -0.24016 -0.28347 0.17991 -0.03833 -0.13759 -0.17717 -0.089738 
good -0.20782 -0.095717 0.046419 -0.023897 0.11044 -0.043485 0.13105 -0.12022 0.016331 0.12587 0.099634 0.010078 -0.14026 -0.18403 0.086788 -0.27308 0.14174 0.012826 -0.094219 0.3219 0.23082 -0.024299 -0.27888 -0.35121 -0.1815 0.0076415 0.042609 -0.33681 0.046986 0.067575 -0.17401 -0.18825 0.057849 -0.067241 -0.054271 0.18889 -0.12999 -0.036834 -0.11969 -0.12591 0.02387 0.044497 0.012407 0.25808 0.57007 -0.38065 -0.019071 0.11365 -0.065513 -0.10813 0.064188 -0.057908 0.082796 -0.0079879 0.14726 0.076956 -0.13422 0.16968 0.18252 0.018399 -0.025603 0.080779 -0.052716 0.042608 -0.05163 -0.043492 0.019031 -0.17121 -0.062507 -0.031619 0.14697 0.035576 0.048958 -0.17236 -0.10724 0.12757 -0.21259 -0.13641 0.062371 0.26886 -0.08327 -0.065631 -0.0887 -0.1742 0.1973 -0.021271 -0.04503 -0.20819 -0.20037 -0.1072 -0.10651 0.089046 0.18207 -0.13586 -0.15235 0.075253 -0.067017 -0.12411 -0.078118 -0.096973 
water -0.18187 -0.14107 0.070494 0.039897 0.096807 -0.17271 0.23474 -0.11633 0.023531 0.24502 0.13942 -0.067326 -0.11688 -0.031226 -0.13292 -0.32068 0.18776 -0.10377 -0.13186 0.29789 0.27958 -0.064672 -0.13363 -0.21865 -0.14957 -0.033284 -0.063273 -0.23762 -0.022995 0.11542 -0.033757 -0.17062 0.11238 -0.10283 -0.057356 0.24385 -0.080684 0.0019417 -0.17244 -0.21524 0.031011 -0.066954 -0.030466 0.29838 0.54827 -0.2755 0.080997 0.16049 -0.34275 -0.057366 -0.047764 -0.17371 0.1027 -0.02095 0.092986 0.12113 -0.16294 0.12364 0.23021 -0.039759 -0.030686 0.13058 -0.072462 0.065956 -0.03306 -0.002689 0.019259 -0.0050183 0.066978 -0.012856 0.065603 0.14099 -0.12344 -0.29975 -0.1416 0.17421 -0.2274 -0.031009 0.10041 0.2773 -0.12013 -0.067096 -0.1179 -0.23426 0.24694 0.10155 -0.063651 -0.22082 -0.35134 -0.17794 -0.08205 0.11322 0.29875 -0.061179 -0.038755 -0.02992 -0.12736 -0.11454 0.032552 -0.05898 
bottl -0.1328 -0.11606 0.054761 0.034956 0.07226 -0.18715 0.22508 -0.11951 0.045169 0.23013 0.16905 -0.055756 -0.099153 -0.025434 -0.13886 -0.29996 0.18781 -0.092931 -0.14012 0.29075 0.29344 -0.051195 -0.13857 -0.23486 -0.13411 -0.0394 -0.042662 -0.2101 -0.033092 0.099305 -0.021778 -0.17859 0.14116 -0.096992 -0.051773 0.26243 -0.10336 -0.00035469 -0.17976 -0.2283 0.034791 -0.081562 -0.03923 0.27911 0.55794 -0.26794 0.068044 0.15599 -0.35856 -0.056429 -0.057028 -0.18237 0.08981 -0.028709 0.090158 0.15901 -0.19111 0.13015 0.19046 -0.057668 -0.030634 0.13774 -0.079584 0.068629 -0.020946 0.0036083 0.044169 0.0063373 0.067855 -0.014452 0.059966 0.14905 -0.12823 -0.29456 -0.13536 0.155 -0.25272 -0.033999 0.10704 0.25677 -0.10018 -0.069884 -0.108 -0.25647 0.26492 0.10468 -0.095342 -0.19784 -0.31556 -0.19355 -0.10877 0.12338 0.30612 -0.082501 -0.071349 -0.037395 -0.15514 -0.10277 0.046058 -0.039726 
on -0.23152 -0.092884 0.034669 -0.048297 0.12578 0.012382 0.088323 -0.11779 0.011298 0.077196 0.097873 0.039259 -0.15644 -0.24262 0.19032 -0.25879 0.15223 0.054671 -0.079847 0.33885 0.22407 -0.037019 -0.33612 -0.422 -0.18354 0.017398 0.092598 -0.3731 0.073739 0.052751 -0.23253 -0.18207 0.045017 -0.059317 -0.058603 0.16069 -0.1556 -0.047583 -0.10317 -0.085016 0.029919 0.09628 0.016129 0.25834 0.59821 -0.42689 -0.056833 0.093729 0.033182 -0.13198 0.10516 -0.010038 0.075612 -0.041637 0.17043 0.060034 -0.14735 0.18055 0.16479 0.048469 -0.026101 0.060807 -0.04922 0.04037 -0.067553 -0.084103 0.023817 -0.23842 -0.091691 -0.041861 0.18094 -0.013528 0.13675 -0.11104 -0.11273 0.11111 -0.23029 -0.19625 0.050705 0.28804 -0.065628 -0.063641 -0.081716 -0.16474 0.18705 -0.079995 -0.050996 -0.20968 -0.13296 -0.085505 -0.12521 0.073488 0.14689 -0.19585 -0.22727 0.12847 -0.04621 -0.13114 -0.11318 -0.088978 
just -0.2119 -0.10642 0.06103 -0.0075007 0.12178 -0.065933 0.16091 -0.11859 0.015968 0.1551 0.099655 -0.0099307 -0.13815 -0.14079 0.043064 -0.27689 0.1575 -0.016575 -0.10308 0.3209 0.23535 -0.039184 -0.25337 -0.32069 -0.17624 -0.004008 0.016251 -0.3232 0.028882 0.078423 -0.13603 -0.18015 0.069295 -0.065059 -0.053549 0.19702 -0.11573 -0.018929 -0.13275 -0.13159 0.018771 0.026756 0.0042584 0.26625 0.55619 -0.35361 0.0079308 0.10917 -0.1311 -0.088229 0.04041 -0.079265 0.090576 -0.011887 0.13481 0.079438 -0.13554 0.1559 0.19995 0.0094383 -0.026254 0.089915 -0.05262 0.042557 -0.048927 -0.035296 0.014604 -0.12365 -0.02813 -0.01635 0.13205 0.055672 0.00795 -0.19964 -0.11081 0.13763 -0.21197 -0.11565 0.080523 0.26492 -0.090643 -0.056033 -0.10124 -0.17531 0.20139 0.013095 -0.036911 -0.20447 -0.22978 -0.12 -0.094153 0.081735 0.20886 -0.11332 -0.12185 0.049259 -0.066473 -0.12741 -0.048965 -0.082236 
yellow -0.10467 -0.1491 0.083463 0.082107 0.053976 -0.30978 0.33636 -0.12779 0.068272 0.35453 0.21573 -0.12306 -0.076049 0.096158 -0.33923 -0.3755 0.24623 -0.19526 -0.18122 0.2865 0.38405 -0.069891 -0.028689 -0.15125 -0.12375 -0.080235 -0.13513 -0.14576 -0.10491 0.15381 0.094633 -0.18915 0.20435 -0.13304 -0.05719 0.34189 -0.07477 0.035486 -0.24196 -0.3244 0.045323 -0.1878 -0.086672 0.33487 0.58231 -0.21008 0.15096 0.21551 -0.62831 -0.015139 -0.16821 -0.30923 0.107 -0.01764 0.053048 0.23198 -0.23523 0.093968 0.23941 -0.11566 -0.028748 0.19656 -0.10953 0.092083 0.011185 0.049668 0.052171 0.1621 0.17929 -0.0054468 -0.017796 0.25603 -0.28762 -0.42322 -0.17481 0.19187 -0.28321 0.052891 0.14245 0.27312 -0.13987 -0.071686 -0.13867 -0.32832 0.33188 0.21552 -0.13419 -0.22436 -0.47402 -0.27142 -0.1049 0.16341 0.43342 -0.033747 0.014872 -0.12142 -0.22393 -0.094756 0.1463 -0.0265 
pale -0.10616 -0.15354 0.081486 0.089945 0.062061 -0.30715 0.3329 -0.13375 0.062893 0.3486 0.22386 -0.12572 -0.082712 0.087503 -0.33172 -0.3865 0.24705 -0.19953 -0.18514 0.29812 0.37931 -0.06774 -0.035757 -0.16483 -0.12789 -0.070131 -0.12764 -0.15308 -0.092015 0.15499 0.084837 -0.19153 0.21125 -0.12919 -0.056787 0.34505 -0.082007 0.035829 -0.24544 -0.32874 0.048463 -0.174 -0.085194 0.34029 0.60934 -0.22387 0.14522 0.22136 -0.62018 -0.020971 -0.16017 -0.30264 0.115 -0.020192 0.058285 0.23421 -0.22555 0.11183 0.2478 -0.11543 -0.034674 0.20712 -0.10518 0.091296 0.0027448 0.045239 0.052804 0.15048 0.17616 0.0021833 -0.010805 0.25406 -0.27234 -0.42766 -0.1711 0.2029 -0.29499 0.046275 0.13664 0.27773 -0.14181 -0.075296 -0.13432 -0.33383 0.33792 0.20526 -0.13363 -0.22896 -0.47044 -0.27467 -0.11196 0.15485 0.4405 -0.033281 0.0051176 -0.13062 -0.2347 -0.10516 0.14757 -0.030036 
king -0.2312 -0.083108 0.041744 -0.02841 0.12197 -0.011945 0.11626 -0.11993 0.023323 0.08857 0.091792 0.026438 -0.15071 -0.21334 0.14019 -0.25355 0.13957 0.040263 -0.083044 0.34001 0.21556 -0.02713 -0.31426 -0.38482 -0.19072 0.017377 0.073068 -0.36762 0.065009 0.055926 -0.20361 -0.19665 0.044271 -0.051162 -0.060797 0.17705 -0.14242 -0.039613 -0.10523 -0.091801 0.011816 0.079397 0.018205 0.25561 0.57588 -0.40609 -0.038332 0.10117 -0.0079105 -0.12206 0.083532 -0.021941 0.076826 -0.013472 0.15939 0.062722 -0.13514 0.17393 0.17868 0.032036 -0.019194 0.067641 -0.051052 0.032853 -0.061228 -0.060856 0.015055 -0.21063 -0.084933 -0.033625 0.17314 0.0038923 0.095998 -0.13283 -0.10664 0.11903 -0.21625 -0.1729 0.059868 0.2724 -0.079432 -0.064895 -0.083655 -0.16163 0.17838 -0.044661 -0.03684 -0.2007 -0.1602 -0.088449 -0.10645 0.07911 0.15835 -0.16405 -0.1846 0.11085 -0.049756 -0.13639 -0.10535 -0.099634 
sweet -0.1352 -0.19677 0.10816 0.10556 0.074322 -0.35118 0.38419 -0.14075 0.048098 0.41305 0.2139 -0.14608 -0.10453 0.10977 -0.39571 -0.42494 0.25931 -0.24466 -0.19079 0.31585 0.38886 -0.089685 -0.00334 -0.12079 -0.13298 -0.082702 -0.17991 -0.15953 -0.11186 0.17809 0.12359 -0.18972 0.20389 -0.14349 -0.06131 0.36831 -0.055201 0.034851 -0.275 -0.3648 0.040798 -0.21786 -0.095688 0.39096 0.61902 -0.21056 0.1875 0.24303 -0.6915 0.013311 -0.18689 -0.34498 0.13223 -0.0086114 0.039315 0.20962 -0.22148 0.096317 0.29968 -0.12844 -0.034511 0.21726 -0.10915 0.10094 0.0045227 0.049718 0.041039 0.19459 0.21522 0.0092569 -0.016598 0.29086 -0.33134 -0.4755 -0.17431 0.24223 -0.28702 0.084784 0.1532 0.3154 -0.17517 -0.08297 -0.15897 -0.34814 0.3541 0.25725 -0.12133 -0.26355 -0.5627 -0.29052 -0.077306 0.16159 0.47854 0.010419 0.077721 -0.15472 -0.228 -0.1404 0.1655 -0.037942 
so -0.24368 -0.094074 0.055802 -0.023586 0.12781 -0.022742 0.12534 -0.13149 0.014465 0.12058 0.083175 0.037078 -0.15395 -0.21511 0.13918 -0.26792 0.13474 0.023767 -0.093722 0.35053 0.22252 -0.033741 -0.32335 -0.39694 -0.19276 0.028095 0.074955 -0.36776 0.060587 0.067903 -0.19693 -0.19468 0.052964 -0.055797 -0.041615 0.19679 -0.14778 -0.035459 -0.11704 -0.10366 0.018593 0.059104 0.014408 0.26209 0.58948 -0.40472 -0.033139 0.098607 -0.019453 -0.11307 0.084615 -0.035207 0.082292 -0.014066 0.1658 0.059816 -0.14095 0.18083 0.18375 0.028105 -0.033484 0.063461 -0.052268 0.039287 -0.065404 -0.060157 0.026966 -0.19619 -0.073995 -0.031623 0.17252 0.011764 0.073118 -0.1547 -0.10718 0.12412 -0.21245 -0.16958 0.068404 0.27237 -0.073565 -0.066813 -0.093197 -0.1694 0.18157 -0.046257 -0.030315 -0.20412 -0.1767 -0.1051 -0.11966 0.066149 0.1744 -0.16191 -0.16422 0.10046 -0.04287 -0.13999 -0.080053 -0.10247 
better -0.21335 -0.10563 0.052406 -0.010082 0.11669 -0.059162 0.15447 -0.11724 0.0091684 0.14083 0.09586 -0.0068118 -0.13325 -0.14887 0.055733 -0.27396 0.14878 -0.0038258 -0.098618 0.32159 0.23548 -0.040272 -0.26251 -0.32398 -0.17805 -0.0027714 0.022505 -0.31885 0.038023 0.077854 -0.15702 -0.1779 0.059469 -0.072854 -0.062246 0.18924 -0.11554 -0.031049 -0.12744 -0.124 0.022769 0.023493 0.010311 0.26614 0.55842 -0.3504 -0.0046565 0.11855 -0.10354 -0.10389 0.050534 -0.066138 0.087743 -0.022498 0.13285 0.078436 -0.13807 0.15924 0.19342 0.01117 -0.027976 0.085088 -0.056499 0.039683 -0.051358 -0.03465 0.020008 -0.14996 -0.037648 -0.029 0.1421 0.037867 0.022337 -0.19686 -0.12098 0.13532 -0.22026 -0.1306 0.074628 0.28772 -0.097089 -0.064763 -0.096044 -0.17635 0.20403 -0.00084733 -0.037736 -0.21257 -0.22727 -0.10891 -0.094356 0.087659 0.20214 -0.12622 -0.12609 0.074625 -0.068054 -0.1305 -0.065501 -0.081099 
corn -0.15127 -0.17007 0.093593 0.075976 0.084804 -0.26734 0.31844 -0.13582 0.040425 0.32578 0.18425 -0.097714 -0.11431 0.034438 -0.26028 -0.38672 0.22149 -0.16809 -0.15615 0.3008 0.32776 -0.068842 -0.062751 -0.16873 -0.13722 -0.061686 -0.12015 -0.19 -0.069145 0.14982 0.042411 -0.18105 0.16886 -0.10985 -0.057731 0.31169 -0.074478 0.016337 -0.21812 -0.2946 0.034368 -0.14229 -0.066726 0.33461 0.57677 -0.23872 0.12794 0.19344 -0.52291 -0.008678 -0.11587 -0.25869 0.10898 -0.015926 0.057016 0.17525 -0.19636 0.11329 0.25298 -0.091479 -0.026031 0.16788 -0.09001 0.081052 -0.0076727 0.027159 0.037449 0.10209 0.14443 0.00061852 0.015142 0.21885 -0.23337 -0.37859 -0.1556 0.20077 -0.26187 0.028774 0.12719 0.28654 -0.14309 -0.074131 -0.13181 -0.29774 0.29831 0.18617 -0.1011 -0.23019 -0.44767 -0.22607 -0.083575 0.14069 0.38906 -0.031771 0.015441 -0.097888 -0.18642 -0.12053 0.10412 -0.038925 
white -0.11872 -0.1804 0.094296 0.10554 0.069775 -0.35007 0.3739 -0.14322 0.062469 0.39 0.23755 -0.13814 -0.086561 0.11238 -0.38395 -0.41402 0.26355 -0.21942 -0.19822 0.31578 0.40706 -0.079088 -0.0096688 -0.14478 -0.13013 -0.08826 -0.16169 -0.14514 -0.11006 0.17205 0.11245 -0.19472 0.22946 -0.14111 -0.06539 0.36343 -0.072564 0.044811 -0.26364 -0.36091 0.048855 -0.20295 -0.089898 0.37079 0.6223 -0.21279 0.176 0.23959 -0.69842 -0.015309 -0.19279 -0.34497 0.12749 -0.012242 0.050313 0.2479 -0.24834 0.10601 0.28019 -0.12703 -0.034391 0.21537 -0.11468 0.094844 0.0053992 0.047647 0.056619 0.18856 0.20786 0.0052158 -0.017584 0.28921 -0.32043 -0.46591 -0.18789 0.21944 -0.30493 0.071852 0.15412 0.29846 -0.1606 -0.081868 -0.14911 -0.36594 0.35914 0.24457 -0.14749 -0.24721 -0.52714 -0.30305 -0.11152 0.16983 0.47183 -0.017995 0.026537 -0.1461 -0.25207 -0.11298 0.16313 -0.021523 
bad -0.2062 -0.10633 0.051982 -0.0073591 0.11908 -0.077438 0.16033 -0.11766 0.02431 0.15524 0.10639 -0.012536 -0.14591 -0.14683 0.036246 -0.28759 0.14916 -0.021287 -0.10114 0.32053 0.24291 -0.033178 -0.24805 -0.32298 -0.17263 -0.0076949 0.010668 -0.30808 0.022712 0.068193 -0.13481 -0.17894 0.071797 -0.066515 -0.058017 0.20045 -0.10943 -0.022327 -0.13437 -0.1409 0.007389 0.014136 0.0032075 0.26626 0.5498 -0.34565 0.017255 0.11708 -0.13581 -0.10109 0.03807 -0.081116 0.081597 -0.015454 0.13312 0.077205 -0.14055 0.15805 0.20037 -0.00096761 -0.023851 0.09188 -0.061959 0.035769 -0.048847 -0.034269 0.024229 -0.12502 -0.032843 -0.021658 0.13465 0.060922 0.0040966 -0.20242 -0.11379 0.14617 -0.22037 -0.11756 0.080144 0.26593 -0.091744 -0.065988 -0.092968 -0.19367 0.20826 0.0099063 -0.045627 -0.19743 -0.23715 -0.11928 -0.090574 0.085488 0.21915 -0.11068 -0.12668 0.043984 -0.077112 -0.13294 -0.055915 -0.083828 
wateri -0.16534 -0.15628 0.081791 0.062897 0.085751 -0.21596 0.27519 -0.12106 0.030705 0.28995 0.15769 -0.090296 -0.11166 0.014272 -0.20391 -0.3416 0.20941 -0.14337 -0.14721 0.29904 0.31341 -0.074476 -0.099945 -0.1926 -0.1411 -0.047756 -0.087319 -0.21433 -0.049395 0.1339 0.010382 -0.17591 0.13754 -0.10948 -0.057668 0.27872 -0.073743 0.01374 -0.19812 -0.25202 0.032739 -0.10626 -0.052216 0.327 0.56156 -0.25658 0.10588 0.18273 -0.44117 -0.036536 -0.085868 -0.22571 0.10783 -0.021287 0.081056 0.15005 -0.18179 0.11563 0.25019 -0.062192 -0.031494 0.15244 -0.082113 0.076193 -0.020826 0.010506 0.023971 0.056912 0.10973 -0.0033976 0.043614 0.17884 -0.17804 -0.34613 -0.15425 0.19271 -0.24011 0.0051855 0.11357 0.28155 -0.13402 -0.066998 -0.12614 -0.26602 0.27355 0.14047 -0.080262 -0.22816 -0.40125 -0.20951 -0.085053 0.12361 0.34474 -0.040761 -0.012124 -0.062151 -0.15178 -0.11679 0.074885 -0.049202 
it -0.21609 -0.088548 0.042452 -0.038402 0.12426 -0.007494 0.09335 -0.11005 0.0043893 0.073732 0.088038 0.05172 -0.14784 -0.23688 0.16712 -0.24644 0.13185 0.057927 -0.06953 0.33266 0.21304 -0.015194 -0.34417 -0.40261 -0.20476 0.02389 0.078684 -0.37861 0.073319 0.050543 -0.23033 -0.20058 0.038771 -0.053629 -0.062464 0.16274 -0.15273 -0.053437 -0.11167 -0.098025 0.022752 0.08845 0.019518 0.24546 0.58968 -0.41515 -0.04458 0.10393 0.036743 -0.13408 0.1151 -0.016073 0.077553 -0.014235 0.17216 0.059862 -0.13252 0.18859 0.16564 0.035352 -0.021689 0.056712 -0.052355 0.044383 -0.068535 -0.065668 0.01628 -0.23343 -0.11083 -0.036629 0.19409 -0.01156 0.10798 -0.12288 -0.11168 0.11696 -0.20966 -0.18418 0.052546 0.2844 -0.082497 -0.074483 -0.084241 -0.15391 0.18436 -0.064759 -0.036563 -0.21417 -0.14776 -0.077304 -0.11623 0.076253 0.13862 -0.18135 -0.1972 0.12339 -0.051492 -0.14887 -0.121 -0.10284 
pour -0.11796 -0.14339 0.069169 0.067977 0.064913 -0.26569 0.29842 -0.13143 0.06275 0.29885 0.1991 -0.092938 -0.07973 0.048043 -0.25559 -0.34982 0.21893 -0.15497 -0.16743 0.28917 0.34407 -0.05973 -0.075546 -0.18722 -0.12306 -0.058828 -0.094858 -0.16743 -0.069336 0.12979 0.047893 -0.17877 0.18071 -0.11744 -0.049458 0.31503 -0.091955 0.018365 -0.21743 -0.29505 0.046475 -0.1419 -0.074926 0.31762 0.58543 -0.24124 0.11462 0.2028 -0.52641 -0.035879 -0.12843 -0.26014 0.10771 -0.020374 0.065783 0.20695 -0.21693 0.11564 0.21377 -0.095842 -0.031282 0.18014 -0.1009 0.085874 -0.0065942 0.026165 0.054329 0.10728 0.13705 -0.0064237 0.024362 0.21635 -0.21692 -0.37099 -0.15788 0.18065 -0.27484 0.01862 0.12915 0.26265 -0.12781 -0.073052 -0.11885 -0.30842 0.30201 0.16493 -0.12289 -0.21932 -0.41162 -0.24882 -0.10993 0.14871 0.39062 -0.056939 -0.028216 -0.089515 -0.20777 -0.098624 0.10551 -0.030327 
malt -0.16555 -0.19966 0.12055 0.092191 0.09169 -0.3295 0.38937 -0.14823 0.037195 0.40488 0.20936 -0.14517 -0.11449 0.094449 -0.35455 -0.43014 0.25432 -0.21629 -0.18368 0.31844 0.3842 -0.085967 -0.0294 -0.1385 -0.14303 -0.07125 -0.1722 -0.17817 -0.099771 0.17072 0.099516 -0.18714 0.19677 -0.1383 -0.063972 0.34956 -0.067157 0.034899 -0.2597 -0.33548 0.036106 -0.19027 -0.083376 0.38384 0.60467 -0.22518 0.17598 0.22873 -0.65057 0.0043108 -0.16774 -0.32089 0.12515 -0.01493 0.047233 0.21013 -0.22164 0.095741 0.2913 -0.10812 -0.028422 0.20502 -0.097115 0.093865 0.014376 0.046154 0.03253 0.17283 0.19435 0.0085515 -0.0049113 0.26383 -0.30584 -0.46643 -0.17574 0.22561 -0.27582 0.070398 0.14973 0.29907 -0.1736 -0.06392 -0.15066 -0.3229 0.334 0.23716 -0.1077 -0.25619 -0.53442 -0.26917 -0.08005 0.15711 0.45742 0.0036982 0.054606 -0.13456 -0.21442 -0.13788 0.14567 -0.038328 
color -0.13169 -0.1596 0.082592 0.074669 0.076025 -0.27772 0.32229 -0.12189 0.061224 0.33006 0.19922 -0.11125 -0.086974 0.055322 -0.29043 -0.3774 0.23272 -0.17654 -0.16809 0.29747 0.35351 -0.075035 -0.045758 -0.16575 -0.13531 -0.068018 -0.12606 -0.16983 -0.080902 0.15127 0.066476 -0.17972 0.18768 -0.13429 -0.054742 0.32581 -0.076554 0.023853 -0.22767 -0.30852 0.047334 -0.16003 -0.069438 0.33446 0.58679 -0.23356 0.13868 0.20291 -0.56758 -0.022984 -0.13646 -0.27915 0.1099 -0.014363 0.060563 0.20537 -0.21222 0.11176 0.24204 -0.10499 -0.026249 0.18871 -0.094536 0.088301 0.0034086 0.042741 0.045982 0.1294 0.15865 -0.0003185 0.004018 0.23619 -0.24853 -0.40203 -0.16408 0.19553 -0.27351 0.03356 0.13319 0.26498 -0.13541 -0.070886 -0.12595 -0.31086 0.313 0.18716 -0.11902 -0.2195 -0.45639 -0.2466 -0.094735 0.14963 0.41789 -0.028162 0.0026118 -0.11028 -0.21157 -0.1053 0.11338 -0.039104 
carbon -0.15244 -0.16666 0.090457 0.066803 0.082977 -0.25165 0.30605 -0.12735 0.038861 0.31974 0.16811 -0.10837 -0.10735 0.04027 -0.24979 -0.35859 0.22482 -0.16823 -0.15685 0.30667 0.33498 -0.072907 -0.072463 -0.17531 -0.13959 -0.05524 -0.11499 -0.18952 -0.069691 0.13794 0.04173 -0.17544 0.1556 -0.1189 -0.053258 0.30531 -0.072707 0.020014 -0.22196 -0.27498 0.031052 -0.13725 -0.065521 0.33974 0.56962 -0.25417 0.12812 0.19795 -0.50497 -0.017407 -0.11463 -0.25571 0.10475 -0.018307 0.065637 0.1695 -0.19965 0.10817 0.25622 -0.078548 -0.03147 0.17387 -0.087453 0.076756 -0.01104 0.023319 0.030468 0.097946 0.13272 0.0077998 0.018752 0.20739 -0.21649 -0.38402 -0.15391 0.19845 -0.25662 0.026587 0.12172 0.29215 -0.14526 -0.066896 -0.13492 -0.2867 0.29636 0.17254 -0.097123 -0.22952 -0.45091 -0.23807 -0.091308 0.13375 0.38114 -0.031439 0.015307 -0.084066 -0.17657 -0.12888 0.10468 -0.053332 
budweis -0.2386 -0.075676 0.030033 -0.055957 0.12558 0.037603 0.07201 -0.12881 0.0057965 0.0406 0.08582 0.060922 -0.16255 -0.27451 0.23336 -0.23975 0.1253 0.080234 -0.079827 0.35508 0.20182 -0.021158 -0.38443 -0.45124 -0.1989 0.019901 0.12055 -0.40562 0.10297 0.041648 -0.27581 -0.20381 0.025078 -0.04713 -0.064987 0.16468 -0.16881 -0.061128 -0.092484 -0.066952 0.022786 0.11981 0.028877 0.24855 0.62069 -0.45299 -0.083595 0.084332 0.087338 -0.14798 0.13474 0.020622 0.076067 -0.034842 0.18519 0.052221 -0.13616 0.20424 0.15503 0.057778 -0.027785 0.048912 -0.052937 0.032519 -0.080488 -0.082072 0.02404 -0.28872 -0.12651 -0.051577 0.20891 -0.034295 0.16216 -0.095429 -0.11082 0.10894 -0.23058 -0.23139 0.052705 0.2922 -0.060523 -0.074735 -0.082697 -0.16075 0.17568 -0.10534 -0.036584 -0.21282 -0.10541 -0.06291 -0.12438 0.072413 0.12652 -0.21729 -0.25095 0.15531 -0.034682 -0.13739 -0.14985 -0.10021 
hop -0.15205 -0.17767 0.11004 0.074349 0.094193 -0.28573 0.33721 -0.13261 0.024579 0.35336 0.18169 -0.11135 -0.10987 0.060011 -0.28735 -0.37807 0.23177 -0.18217 -0.16749 0.30871 0.34487 -0.084871 -0.059767 -0.16951 -0.14658 -0.063732 -0.14005 -0.19202 -0.07325 0.14768 0.057322 -0.18749 0.16779 -0.1282 -0.05819 0.3208 -0.0672 0.022687 -0.23958 -0.30407 0.028218 -0.15662 -0.064687 0.36087 0.59613 -0.24137 0.14477 0.21101 -0.56013 -0.0094367 -0.12868 -0.27507 0.1194 -0.012947 0.059111 0.17461 -0.20176 0.11155 0.27744 -0.089684 -0.034839 0.17718 -0.091312 0.084932 0.00055644 0.031296 0.032343 0.12405 0.15188 0.013345 0.020549 0.23176 -0.24957 -0.41899 -0.16593 0.2158 -0.26971 0.044139 0.14173 0.30448 -0.16136 -0.066756 -0.14122 -0.29919 0.31748 0.20545 -0.10244 -0.24247 -0.4853 -0.24075 -0.089119 0.14441 0.40634 -0.022886 0.028417 -0.10842 -0.19063 -0.13363 0.10796 -0.043955 
lager -0.1796 -0.12423 0.063718 0.023117 0.10297 -0.16021 0.22409 -0.12024 0.033073 0.21386 0.14225 -0.041791 -0.11799 -0.072232 -0.080452 -0.31225 0.18061 -0.066297 -0.11325 0.29354 0.27575 -0.043754 -0.16882 -0.25192 -0.16327 -0.028366 -0.035749 -0.25247 -0.0098003 0.096086 -0.069367 -0.17551 0.10748 -0.091124 -0.068718 0.22953 -0.10473 -0.0083833 -0.159 -0.18779 0.025844 -0.046209 -0.023246 0.27944 0.54956 -0.29195 0.046458 0.14819 -0.28241 -0.069462 -0.018612 -0.14361 0.095363 -0.0129 0.096064 0.12979 -0.16432 0.13075 0.20097 -0.032338 -0.02225 0.11946 -0.069512 0.056862 -0.024928 -0.0065396 0.023346 -0.037743 0.034568 -0.021919 0.085676 0.11069 -0.078889 -0.26766 -0.12752 0.15041 -0.22836 -0.059596 0.096383 0.27041 -0.10709 -0.06401 -0.10284 -0.22066 0.24368 0.072625 -0.062309 -0.21201 -0.3035 -0.15425 -0.091044 0.11184 0.27222 -0.082359 -0.076427 -0.0029569 -0.12668 -0.11297 0.0058974 -0.06751 
littl -0.1419 -0.14648 0.078608 0.051892 0.079698 -0.21731 0.27573 -0.11086 0.037951 0.2826 0.16198 -0.084916 -0.10019 0.012677 -0.2031 -0.34066 0.20962 -0.14258 -0.14935 0.30256 0.31385 -0.059242 -0.0976 -0.19519 -0.13995 -0.047716 -0.091312 -0.20238 -0.052445 0.12695 0.014376 -0.17593 0.1467 -0.1087 -0.055804 0.28024 -0.082772 0.011776 -0.20304 -0.25295 0.035691 -0.11464 -0.048897 0.31231 0.55677 -0.25322 0.10473 0.17781 -0.43867 -0.033283 -0.086785 -0.22251 0.10145 -0.014406 0.070644 0.15828 -0.19272 0.1175 0.23197 -0.07262 -0.027369 0.15546 -0.080817 0.070692 -0.011557 0.016092 0.032512 0.064053 0.10918 -0.0059458 0.033435 0.18199 -0.1834 -0.34896 -0.14675 0.17915 -0.25424 -0.0017206 0.11395 0.27482 -0.13276 -0.066961 -0.12582 -0.26595 0.2803 0.1511 -0.084626 -0.2181 -0.39458 -0.21073 -0.095236 0.12459 0.34934 -0.046923 -0.018208 -0.063144 -0.16327 -0.12347 0.073755 -0.047983 
american -0.24487 -0.084476 0.032863 -0.042117 0.12911 -0.0049833 0.11269 -0.1289 0.023218 0.079508 0.095328 0.037965 -0.15855 -0.24774 0.17666 -0.26034 0.13555 0.056576 -0.076833 0.33559 0.21808 -0.023279 -0.34753 -0.41609 -0.20468 0.023812 0.09364 -0.38217 0.075325 0.049187 -0.23702 -0.20151 0.040473 -0.053429 -0.066938 0.17342 -0.15887 -0.053574 -0.098556 -0.081901 0.011244 0.083465 0.022924 0.24747 0.58884 -0.42297 -0.052393 0.093764 0.026571 -0.13461 0.10759 -0.00065838 0.079915 -0.014516 0.16769 0.067096 -0.12914 0.1879 0.16956 0.038908 -0.021655 0.063029 -0.049908 0.031993 -0.063757 -0.062524 0.011018 -0.23803 -0.10356 -0.033667 0.18972 -0.016404 0.12211 -0.1217 -0.11198 0.11222 -0.21153 -0.18848 0.058297 0.26549 -0.077571 -0.073883 -0.078636 -0.15867 0.17288 -0.074826 -0.034481 -0.199 -0.13487 -0.069738 -0.11683 0.070028 0.1427 -0.17862 -0.20645 0.12528 -0.04364 -0.13284 -0.1188 -0.10053 
noth -0.19588 -0.13614 0.069688 0.0098124 0.11238 -0.12411 0.22379 -0.11127 0.010591 0.21092 0.11613 -0.038065 -0.12392 -0.082308 -0.057586 -0.30627 0.17489 -0.067553 -0.11715 0.30559 0.26543 -0.040896 -0.17765 -0.25419 -0.16543 -0.018552 -0.035532 -0.26923 -0.014851 0.11361 -0.071603 -0.16797 0.092916 -0.094744 -0.051466 0.22067 -0.090804 -0.0054782 -0.16152 -0.1738 0.030227 -0.03702 -0.0074246 0.29466 0.54464 -0.31112 0.06071 0.13816 -0.24189 -0.058452 -0.013473 -0.13455 0.093324 -0.016287 0.11499 0.1026 -0.15199 0.12697 0.21544 -0.028168 -0.019312 0.10743 -0.064734 0.0524 -0.03962 -0.01168 0.021247 -0.052123 0.022028 -0.0059968 0.082237 0.1008 -0.073183 -0.26031 -0.12712 0.1613 -0.21324 -0.061667 0.089716 0.27605 -0.10608 -0.05393 -0.11134 -0.20331 0.23512 0.072668 -0.045235 -0.21295 -0.31257 -0.14295 -0.09776 0.098827 0.26064 -0.072521 -0.06738 0.0030995 -0.090816 -0.13071 -0.00072114 -0.077704 
rate -0.2107 -0.093981 0.042835 -0.026928 0.10293 -0.01705 0.1056 -0.12784 0.0061501 0.075124 0.1052 0.018431 -0.15554 -0.18477 0.11808 -0.25773 0.14798 0.030952 -0.10217 0.33514 0.22214 -0.036266 -0.30049 -0.37789 -0.14959 -0.0086973 0.057668 -0.33494 0.05954 0.049426 -0.20674 -0.18355 0.0579 -0.050689 -0.059217 0.17146 -0.14738 -0.036946 -0.10925 -0.11342 0.026755 0.064708 -0.013502 0.26488 0.57521 -0.37453 -0.03728 0.10208 -0.043661 -0.11464 0.065113 -0.039301 0.08021 -0.057896 0.14729 0.073413 -0.16154 0.18356 0.18215 0.027872 -0.040528 0.063236 -0.061813 0.058723 -0.085217 -0.083048 0.017998 -0.18328 -0.048926 -0.051077 0.15479 0.0086825 0.079988 -0.13424 -0.12271 0.10758 -0.2339 -0.17392 0.07042 0.30025 -0.074325 -0.06864 -0.087464 -0.20042 0.19994 -0.041435 -0.069804 -0.22962 -0.16651 -0.098958 -0.11996 0.086639 0.17896 -0.17433 -0.20563 0.10292 -0.066868 -0.12397 -0.08983 -0.058698 
rice -0.15544 -0.1355 0.077445 0.039465 0.090039 -0.18731 0.24392 -0.12043 0.029096 0.24962 0.14733 -0.060281 -0.1157 -0.033072 -0.13991 -0.32492 0.18646 -0.10386 -0.12801 0.2922 0.2924 -0.053886 -0.1353 -0.23197 -0.14852 -0.027417 -0.060546 -0.23228 -0.030692 0.11023 -0.020648 -0.16999 0.12493 -0.093632 -0.058132 0.26268 -0.096916 -0.0042588 -0.17925 -0.22713 0.019729 -0.081821 -0.042978 0.30254 0.55497 -0.27908 0.07661 0.16415 -0.35348 -0.05264 -0.054153 -0.18666 0.099649 -0.01714 0.085393 0.13269 -0.17491 0.12487 0.22134 -0.048042 -0.027672 0.13731 -0.076032 0.057187 -0.019182 0.0023918 0.032744 0.013195 0.073644 -0.0074131 0.058054 0.14686 -0.13076 -0.31037 -0.13126 0.1668 -0.23226 -0.025981 0.10425 0.27365 -0.127 -0.067434 -0.11806 -0.24413 0.25383 0.11042 -0.075539 -0.21074 -0.34522 -0.17942 -0.094018 0.11362 0.30767 -0.06838 -0.041736 -0.037976 -0.13788 -0.12521 0.044387 -0.062613 
when -0.23965 -0.085818 0.025046 -0.042575 0.13387 0.0050653 0.085771 -0.12153 0.0055081 0.070392 0.086638 0.057874 -0.15251 -0.26013 0.19464 -0.25413 0.12412 0.069111 -0.087291 0.34713 0.2107 -0.01463 -0.3553 -0.41939 -0.20486 0.028077 0.09286 -0.39037 0.080807 0.047702 -0.24329 -0.19339 0.041536 -0.05157 -0.056788 0.16779 -0.15475 -0.0537 -0.10303 -0.086611 0.023757 0.085313 0.033607 0.24199 0.60556 -0.42296 -0.064158 0.096353 0.059129 -0.14442 0.11731 -0.0041957 0.08078 -0.021371 0.17101 0.050454 -0.12383 0.18896 0.15762 0.036842 -0.024879 0.055947 -0.059394 0.034622 -0.076434 -0.069573 0.028567 -0.26682 -0.11931 -0.041643 0.20164 -0.021022 0.12348 -0.10797 -0.10409 0.11015 -0.21519 -0.19412 0.061339 0.27352 -0.059996 -0.072515 -0.079137 -0.15423 0.17371 -0.074278 -0.040409 -0.20835 -0.12831 -0.079481 -0.12496 0.070789 0.12841 -0.18892 -0.21485 0.12419 -0.042823 -0.13384 -0.12711 -0.10184 
realli -0.21328 -0.10515 0.053523 -0.017925 0.12123 -0.046476 0.14762 -0.11505 0.018096 0.1354 0.097493 0.0093612 -0.1339 -0.17004 0.079445 -0.27338 0.1468 0.00026375 -0.095439 0.32285 0.22901 -0.033046 -0.27556 -0.35141 -0.18594 0.0086032 0.033107 -0.32727 0.0399 0.077039 -0.15362 -0.18007 0.058312 -0.060721 -0.050414 0.1921 -0.12807 -0.029107 -0.12351 -0.11951 0.020087 0.031232 0.010907 0.26693 0.56542 -0.37168 -0.0040608 0.11849 -0.082998 -0.10387 0.052426 -0.060817 0.076531 -0.017448 0.14063 0.077735 -0.13811 0.15918 0.18445 0.015067 -0.028698 0.079259 -0.052813 0.043566 -0.054301 -0.039363 0.020292 -0.1566 -0.046296 -0.022696 0.1456 0.037747 0.036813 -0.17936 -0.11096 0.12813 -0.21866 -0.13833 0.074404 0.26729 -0.090517 -0.058161 -0.095867 -0.17245 0.18959 -0.014531 -0.041099 -0.19892 -0.20736 -0.1142 -0.10723 0.073983 0.19566 -0.14003 -0.14099 0.073886 -0.06487 -0.13654 -0.064981 -0.090237 
sai -0.22506 -0.08493 0.032094 -0.041281 0.12592 0.0090724 0.095154 -0.12435 0.0078492 0.078247 0.085793 0.041926 -0.15322 -0.23724 0.16655 -0.25674 0.13125 0.045726 -0.087933 0.34535 0.21768 -0.024547 -0.33621 -0.40167 -0.20061 0.022309 0.085982 -0.37867 0.073135 0.052508 -0.23296 -0.19718 0.036027 -0.050026 -0.055927 0.17578 -0.1422 -0.054682 -0.10742 -0.091502 0.013944 0.0724 0.021306 0.25276 0.5913 -0.41974 -0.048925 0.10385 0.029833 -0.13018 0.10627 -0.015522 0.074588 -0.020476 0.16559 0.058942 -0.13259 0.19476 0.15886 0.038995 -0.028026 0.07044 -0.056268 0.037752 -0.067413 -0.065967 0.011535 -0.23713 -0.10251 -0.038402 0.18819 -0.0052021 0.1086 -0.13214 -0.10447 0.11545 -0.21853 -0.183 0.05987 0.27781 -0.065429 -0.072427 -0.08462 -0.16229 0.17904 -0.063904 -0.044258 -0.20558 -0.14476 -0.084372 -0.11117 0.070954 0.14747 -0.18115 -0.19498 0.11845 -0.041626 -0.13856 -0.11108 -0.099675 
bodi -0.13483 -0.18757 0.10753 0.093025 0.062714 -0.3369 0.37251 -0.14249 0.048637 0.38465 0.21627 -0.14703 -0.10581 0.11456 -0.36118 -0.409 0.25335 -0.22626 -0.18937 0.30582 0.3927 -0.087179 -0.018034 -0.13816 -0.12579 -0.08119 -0.15736 -0.15136 -0.10584 0.16461 0.093486 -0.19065 0.20221 -0.13738 -0.059453 0.3494 -0.068458 0.029042 -0.25367 -0.3455 0.049232 -0.19487 -0.087078 0.37717 0.61287 -0.22152 0.16738 0.23352 -0.65759 0.0028278 -0.17025 -0.32672 0.12302 -0.024647 0.049922 0.21452 -0.23132 0.10358 0.27888 -0.11599 -0.033292 0.19698 -0.1055 0.10074 -0.0005511 0.047647 0.043623 0.17011 0.1993 0.008688 -0.02196 0.27122 -0.30428 -0.46127 -0.18333 0.22498 -0.2852 0.066828 0.14195 0.31391 -0.16259 -0.075272 -0.15023 -0.35066 0.34951 0.23128 -0.12978 -0.25514 -0.53166 -0.27965 -0.087035 0.16851 0.4522 -0.0033378 0.042647 -0.13482 -0.22933 -0.12528 0.15459 -0.024881 
finish -0.12928 -0.19472 0.11225 0.098168 0.066495 -0.32615 0.35849 -0.13416 0.046006 0.39917 0.20361 -0.14116 -0.098305 0.10489 -0.36116 -0.41123 0.24632 -0.22957 -0.18878 0.30552 0.37894 -0.081305 -0.019646 -0.13738 -0.13274 -0.07689 -0.16278 -0.16521 -0.1036 0.16755 0.1063 -0.18738 0.19155 -0.13961 -0.056743 0.35575 -0.055711 0.032241 -0.25882 -0.34051 0.039765 -0.20085 -0.083613 0.37533 0.6072 -0.22122 0.17432 0.23395 -0.6565 -0.00045329 -0.17137 -0.32786 0.12209 -0.020223 0.050949 0.20627 -0.21991 0.10086 0.28238 -0.11416 -0.032237 0.20343 -0.10206 0.095418 0.0067178 0.046617 0.03626 0.17909 0.19495 0.013184 -0.0054779 0.27127 -0.31485 -0.46589 -0.18297 0.22867 -0.28364 0.075205 0.14487 0.31044 -0.16755 -0.07252 -0.15079 -0.33709 0.34858 0.23804 -0.11571 -0.244 -0.5326 -0.28221 -0.087035 0.16334 0.45506 0.0067137 0.057783 -0.13339 -0.20742 -0.13154 0.15615 -0.039562 
don -0.28575 -0.079779 0.037603 -0.074768 0.14762 0.080132 0.048233 -0.12254 0.004096 0.028404 0.052059 0.068339 -0.18256 -0.32462 0.30687 -0.25226 0.12127 0.10021 -0.056721 0.37319 0.19612 -0.020751 -0.42582 -0.49054 -0.22731 0.039786 0.13793 -0.43933 0.12065 0.0398 -0.29742 -0.18873 0.0070285 -0.037752 -0.0621 0.14433 -0.17583 -0.063116 -0.081558 -0.035033 0.0082195 0.15735 0.057193 0.24441 0.62766 -0.5116 -0.087415 0.074409 0.17044 -0.15978 0.16561 0.052431 0.065215 -0.021459 0.20863 0.021361 -0.12589 0.20834 0.16032 0.087376 -0.02553 0.022177 -0.038543 0.023027 -0.090011 -0.099325 0.0051685 -0.33306 -0.1634 -0.036418 0.23412 -0.068185 0.20411 -0.064043 -0.085384 0.10692 -0.22805 -0.25677 0.047413 0.2906 -0.061337 -0.062022 -0.073923 -0.12579 0.14896 -0.13182 -0.019476 -0.19981 -0.079947 -0.058877 -0.13788 0.047371 0.087161 -0.22706 -0.26679 0.18315 0.0010132 -0.16247 -0.17498 -0.11761 
clear -0.1187 -0.16827 0.089057 0.088634 0.05875 -0.33142 0.35438 -0.14372 0.069857 0.38147 0.23417 -0.12552 -0.0947 0.091224 -0.35188 -0.40882 0.25147 -0.20979 -0.19377 0.30256 0.39452 -0.077224 -0.034654 -0.16565 -0.13317 -0.083879 -0.1388 -0.1613 -0.10031 0.15918 0.102 -0.19808 0.21022 -0.13391 -0.058112 0.3633 -0.078915 0.030728 -0.26047 -0.34897 0.050036 -0.19755 -0.091986 0.35913 0.62026 -0.22941 0.15623 0.23676 -0.6593 -0.01616 -0.17059 -0.31866 0.11303 -0.018169 0.059586 0.24817 -0.23747 0.10906 0.2499 -0.12019 -0.030104 0.2153 -0.10666 0.10028 0.0074709 0.054765 0.05553 0.16246 0.18179 0.0012975 -0.0061366 0.27018 -0.29886 -0.45567 -0.18578 0.21615 -0.30245 0.058396 0.14315 0.29151 -0.15043 -0.078828 -0.13571 -0.3583 0.35541 0.21839 -0.14183 -0.23254 -0.5054 -0.28915 -0.10924 0.17096 0.45821 -0.02859 0.016939 -0.13876 -0.23884 -0.11457 0.15485 -0.031322 
bitter -0.15412 -0.18323 0.10934 0.081905 0.086817 -0.28732 0.33952 -0.12637 0.02671 0.36307 0.17651 -0.13225 -0.11085 0.076465 -0.30648 -0.39289 0.23649 -0.20196 -0.17225 0.30815 0.35189 -0.088456 -0.04528 -0.1402 -0.13742 -0.067786 -0.15277 -0.18825 -0.082032 0.15771 0.068938 -0.17397 0.16816 -0.13353 -0.062046 0.31236 -0.056673 0.027533 -0.23817 -0.30225 0.037126 -0.16422 -0.06468 0.36397 0.58381 -0.23029 0.15206 0.21338 -0.57168 -0.0087379 -0.13683 -0.28667 0.12063 -0.021166 0.049506 0.17472 -0.19904 0.102 0.28735 -0.09448 -0.031943 0.18167 -0.090451 0.077768 -0.0081499 0.039669 0.025755 0.13255 0.1646 0.0036106 0.0030623 0.23745 -0.26753 -0.43507 -0.16822 0.22047 -0.26569 0.049876 0.13326 0.31372 -0.16455 -0.067684 -0.14927 -0.30131 0.31466 0.205 -0.087495 -0.25049 -0.50459 -0.24638 -0.07739 0.14292 0.41727 0.00095188 0.051747 -0.11006 -0.18349 -0.13404 0.11825 -0.044571 
thin -0.12948 -0.16281 0.08613 0.067677 0.074042 -0.25876 0.30169 -0.12368 0.045493 0.32309 0.18055 -0.11158 -0.094894 0.065129 -0.27631 -0.35329 0.22604 -0.17415 -0.17338 0.28862 0.3516 -0.070811 -0.047202 -0.16615 -0.12748 -0.059506 -0.12222 -0.17969 -0.08389 0.14766 0.050849 -0.17563 0.17546 -0.12217 -0.056042 0.30638 -0.064524 0.02584 -0.22577 -0.3005 0.042989 -0.14099 -0.067103 0.32557 0.56664 -0.22625 0.12472 0.19918 -0.5334 -0.014516 -0.13371 -0.27427 0.11178 -0.018697 0.07698 0.1829 -0.19783 0.11001 0.25383 -0.089352 -0.02858 0.16883 -0.088344 0.078334 -0.012794 0.029042 0.033004 0.11146 0.14169 -0.0023581 0.0041044 0.22181 -0.23842 -0.38046 -0.15753 0.18965 -0.2545 0.043856 0.13416 0.28164 -0.13639 -0.073379 -0.1377 -0.29998 0.29562 0.19521 -0.10475 -0.22756 -0.44795 -0.24609 -0.10328 0.14776 0.38602 -0.020698 0.012824 -0.10275 -0.18159 -0.112 0.099669 -0.035821 
down -0.22007 -0.084053 0.056748 -0.0038527 0.12847 -0.06877 0.13573 -0.13405 0.019113 0.12496 0.12015 0.028418 -0.14861 -0.19629 0.10271 -0.26262 0.11257 0.020964 -0.059574 0.31945 0.21814 -0.019702 -0.2924 -0.37665 -0.18951 0.010145 0.047691 -0.33763 0.053824 0.07345 -0.17719 -0.18164 0.066797 -0.038703 -0.047865 0.1889 -0.15463 -0.019184 -0.12619 -0.10558 0.014414 0.056416 0.035707 0.26049 0.59237 -0.39642 -0.034867 0.1035 -0.042256 -0.10835 0.082189 -0.046481 0.08234 -0.0079887 0.15323 0.054353 -0.13654 0.17743 0.17815 0.01913 -0.030337 0.049762 -0.052618 0.05908 -0.064177 -0.055523 0.021282 -0.20356 -0.063547 -0.040175 0.14963 0.031958 0.063192 -0.14115 -0.079831 0.14005 -0.21299 -0.14279 0.064954 0.27305 -0.073891 -0.07208 -0.086476 -0.17618 0.2025 -0.010801 -0.053667 -0.21869 -0.17625 -0.10786 -0.12165 0.076801 0.15292 -0.14635 -0.16031 0.08725 -0.073474 -0.15754 -0.086898 -0.092536 
go -0.23147 -0.08384 0.030911 -0.05002 0.11274 0.0069768 0.094551 -0.12689 0.013308 0.072905 0.097566 0.047188 -0.1514 -0.25238 0.18428 -0.25371 0.12782 0.060915 -0.085737 0.33882 0.20978 -0.014993 -0.34559 -0.41638 -0.1976 0.022633 0.10063 -0.3784 0.083638 0.050793 -0.232 -0.20425 0.045555 -0.046409 -0.060373 0.17777 -0.15907 -0.055906 -0.10195 -0.084276 0.025275 0.086403 0.025477 0.24455 0.58991 -0.42719 -0.061716 0.093168 0.043291 -0.13778 0.10657 -0.0069471 0.073202 -0.015001 0.17829 0.068395 -0.13811 0.1909 0.1444 0.041482 -0.028713 0.061241 -0.051613 0.032972 -0.067324 -0.063879 0.026133 -0.25393 -0.1066 -0.040529 0.19445 -0.00060957 0.11787 -0.11794 -0.11219 0.11824 -0.22113 -0.19806 0.060601 0.26742 -0.057388 -0.075976 -0.076147 -0.15867 0.17758 -0.073204 -0.043724 -0.20471 -0.12572 -0.081004 -0.12165 0.074929 0.14213 -0.18737 -0.21462 0.12633 -0.04321 -0.12972 -0.11784 -0.096617 
smell -0.14849 -0.13262 0.073023 0.043533 0.085176 -0.20255 0.25524 -0.12474 0.045995 0.26668 0.16001 -0.073867 -0.09906 -0.0090047 -0.17265 -0.32973 0.18782 -0.12144 -0.13437 0.29254 0.29717 -0.050477 -0.11043 -0.20621 -0.13907 -0.038302 -0.073486 -0.20648 -0.04083 0.11623 0.0062513 -0.17227 0.13767 -0.095988 -0.051915 0.27065 -0.090759 0.014758 -0.1858 -0.24036 0.031347 -0.091925 -0.040638 0.29761 0.54789 -0.26419 0.088606 0.17034 -0.39691 -0.043044 -0.076256 -0.20427 0.09946 -0.0052713 0.088275 0.14687 -0.18248 0.11542 0.21675 -0.065213 -0.029119 0.14477 -0.080377 0.066755 -0.017781 0.0094691 0.029285 0.040364 0.088411 -0.010295 0.051433 0.16697 -0.15749 -0.3177 -0.12942 0.16838 -0.24338 -0.011334 0.10746 0.25839 -0.11786 -0.06391 -0.11425 -0.25243 0.25675 0.13396 -0.085867 -0.20811 -0.36017 -0.20186 -0.097499 0.11825 0.31992 -0.054809 -0.030818 -0.054558 -0.15221 -0.11471 0.062407 -0.054922 
best -0.25046 -0.086091 0.040918 -0.043363 0.13872 0.0089047 0.10727 -0.11877 0.0063315 0.079577 0.077908 0.032744 -0.15827 -0.22511 0.17627 -0.25108 0.14239 0.058738 -0.08669 0.34254 0.22001 -0.032567 -0.35018 -0.41159 -0.18985 0.014817 0.090719 -0.38919 0.072276 0.054116 -0.23418 -0.20419 0.029773 -0.057456 -0.059886 0.16267 -0.15211 -0.050211 -0.10161 -0.071936 0.019256 0.096915 0.030081 0.24988 0.59391 -0.41539 -0.051385 0.081481 0.027092 -0.12017 0.10918 -0.014412 0.088787 -0.025175 0.18019 0.056382 -0.13145 0.18008 0.18887 0.051945 -0.035581 0.059792 -0.044275 0.031616 -0.071868 -0.068404 0.012382 -0.23126 -0.094151 -0.032796 0.18975 -0.020131 0.12236 -0.1162 -0.1204 0.1169 -0.21053 -0.18935 0.050417 0.28104 -0.079127 -0.060157 -0.082489 -0.14207 0.1731 -0.068411 -0.019455 -0.21066 -0.1394 -0.064123 -0.11563 0.072315 0.13738 -0.17147 -0.19878 0.1326 -0.026079 -0.12815 -0.11179 -0.090557 
even -0.25331 -0.091294 0.037576 -0.035939 0.13013 -0.0015488 0.096724 -0.1276 0.0092697 0.086528 0.093574 0.058717 -0.16014 -0.26074 0.18825 -0.25495 0.12987 0.058353 -0.084295 0.34754 0.20596 -0.028283 -0.36076 -0.42837 -0.19705 0.023459 0.089749 -0.38835 0.083047 0.047039 -0.22946 -0.19621 0.036725 -0.048794 -0.048155 0.18681 -0.1523 -0.052093 -0.10153 -0.085597 0.016847 0.076581 0.025373 0.25427 0.59989 -0.42875 -0.051103 0.098442 0.043895 -0.1402 0.10745 0.00090101 0.079302 -0.024947 0.16816 0.054143 -0.13168 0.191 0.16869 0.038874 -0.025935 0.063537 -0.055027 0.041135 -0.068988 -0.068677 0.01951 -0.24853 -0.1032 -0.036552 0.20858 -0.021599 0.12821 -0.11259 -0.10352 0.11042 -0.22043 -0.19879 0.064432 0.2703 -0.074744 -0.072235 -0.07944 -0.1552 0.17243 -0.072671 -0.038112 -0.20913 -0.14009 -0.087936 -0.12194 0.066059 0.15041 -0.19593 -0.2073 0.12254 -0.039895 -0.13681 -0.11779 -0.098201 
think -0.21582 -0.095667 0.042821 -0.022988 0.12273 -0.034703 0.12204 -0.12645 0.022509 0.11121 0.098641 0.019316 -0.13933 -0.18353 0.10468 -0.26271 0.14305 0.017612 -0.096879 0.33487 0.23484 -0.029498 -0.2972 -0.3759 -0.18462 0.010418 0.055287 -0.35196 0.047498 0.066876 -0.18791 -0.19256 0.062243 -0.060004 -0.054622 0.19321 -0.13545 -0.033372 -0.1267 -0.12433 0.02305 0.053888 0.013542 0.25574 0.59021 -0.39227 -0.027116 0.10804 -0.052672 -0.11246 0.067093 -0.052758 0.083362 -0.017414 0.16421 0.071323 -0.13976 0.18005 0.18277 0.019416 -0.029426 0.072193 -0.053977 0.040921 -0.065593 -0.051526 0.025635 -0.18341 -0.064817 -0.034692 0.1648 0.027636 0.061812 -0.15573 -0.10443 0.12692 -0.21722 -0.14906 0.083357 0.28101 -0.075775 -0.073874 -0.097561 -0.17953 0.19282 -0.019739 -0.046475 -0.20827 -0.1866 -0.11609 -0.1211 0.084025 0.17961 -0.15128 -0.17139 0.084801 -0.062541 -0.13245 -0.085581 -0.084941 
brew -0.21543 -0.088909 0.040259 -0.025481 0.11384 -0.0309 0.12485 -0.1326 0.015603 0.10594 0.1149 0.046664 -0.15013 -0.22116 0.12774 -0.27085 0.1388 0.046986 -0.08172 0.33269 0.23145 -0.027391 -0.33436 -0.40847 -0.19422 0.0052671 0.084035 -0.35396 0.068359 0.063987 -0.21376 -0.20194 0.053022 -0.052457 -0.068777 0.20652 -0.15568 -0.057614 -0.10934 -0.10572 0.0081689 0.062056 0.0044745 0.24917 0.5885 -0.40083 -0.047152 0.10157 -0.021848 -0.1194 0.09639 -0.025875 0.078682 -0.023089 0.15243 0.090651 -0.14101 0.18362 0.14934 0.030475 -0.023362 0.085196 -0.055506 0.035165 -0.051223 -0.052254 0.021911 -0.20573 -0.083842 -0.039955 0.1752 0.0023844 0.07703 -0.15441 -0.11494 0.11402 -0.23582 -0.16601 0.058573 0.26109 -0.077117 -0.066683 -0.082296 -0.17281 0.18945 -0.053191 -0.039044 -0.1999 -0.14999 -0.096161 -0.11821 0.085041 0.16845 -0.18222 -0.19891 0.10249 -0.069265 -0.13976 -0.097496 -0.082321 
golden -0.11202 -0.16848 0.090954 0.092389 0.058009 -0.3298 0.35007 -0.13062 0.059522 0.37494 0.22413 -0.12926 -0.090163 0.097712 -0.35501 -0.39965 0.25026 -0.20786 -0.19125 0.29782 0.39552 -0.077192 -0.016484 -0.14343 -0.12129 -0.085303 -0.15237 -0.14468 -0.10058 0.15525 0.10593 -0.18589 0.21426 -0.13819 -0.060425 0.3503 -0.070246 0.036863 -0.25284 -0.34554 0.049103 -0.19892 -0.091044 0.35201 0.59721 -0.21342 0.16395 0.22587 -0.65169 -0.013529 -0.17416 -0.32405 0.11752 -0.019602 0.047198 0.23449 -0.23425 0.10149 0.24881 -0.12127 -0.029112 0.20845 -0.10996 0.091362 0.011381 0.052079 0.054253 0.17489 0.19068 -0.002006 -0.020474 0.27271 -0.29691 -0.44518 -0.17716 0.20533 -0.2929 0.06282 0.14026 0.27801 -0.14535 -0.076 -0.13687 -0.34019 0.33877 0.22856 -0.1421 -0.23602 -0.49642 -0.2883 -0.10364 0.1644 0.45001 -0.023541 0.025667 -0.13779 -0.24149 -0.10315 0.15268 -0.02522 
time -0.22497 -0.092514 0.038651 -0.030939 0.12455 -0.021636 0.099231 -0.12814 0.011213 0.090235 0.10694 0.04493 -0.15334 -0.23305 0.14786 -0.2578 0.1313 0.043288 -0.088209 0.35337 0.21564 -0.02165 -0.34657 -0.41044 -0.1926 0.016111 0.074073 -0.37495 0.070585 0.061587 -0.2239 -0.20311 0.04613 -0.046373 -0.053753 0.17832 -0.15025 -0.047916 -0.11468 -0.10604 0.020845 0.065716 0.019925 0.25947 0.60818 -0.41297 -0.053337 0.10686 0.0077586 -0.1346 0.10339 -0.020021 0.078537 -0.022563 0.16298 0.059007 -0.14203 0.19312 0.16959 0.031799 -0.027235 0.065714 -0.060235 0.043321 -0.068438 -0.073267 0.030115 -0.23683 -0.08947 -0.047578 0.19186 0.0049076 0.098948 -0.12988 -0.10688 0.12722 -0.2225 -0.19114 0.069908 0.29147 -0.069845 -0.076635 -0.086275 -0.17584 0.20072 -0.052335 -0.048243 -0.22288 -0.15925 -0.093099 -0.11437 0.080524 0.1571 -0.18197 -0.1992 0.11001 -0.057268 -0.14401 -0.11221 -0.095938 
peopl -0.25096 -0.078021 0.036527 -0.046745 0.13135 0.02699 0.079811 -0.12736 0.017714 0.054646 0.077651 0.066032 -0.16825 -0.26885 0.22669 -0.24345 0.12543 0.07932 -0.069699 0.35882 0.20283 -0.01967 -0.38253 -0.44781 -0.20971 0.037759 0.10741 -0.40877 0.091362 0.044082 -0.25684 -0.19812 0.025385 -0.040193 -0.058012 0.16802 -0.16014 -0.052676 -0.099614 -0.069038 0.010736 0.11017 0.037577 0.24844 0.61299 -0.45568 -0.067954 0.0841 0.087198 -0.14312 0.12687 0.013112 0.078924 -0.015034 0.18474 0.042324 -0.12984 0.20065 0.16593 0.052697 -0.028613 0.04907 -0.048464 0.032563 -0.080339 -0.079731 0.019565 -0.27663 -0.12878 -0.03867 0.21251 -0.030516 0.15565 -0.096958 -0.094386 0.11644 -0.22124 -0.21246 0.056609 0.28434 -0.068097 -0.070745 -0.075678 -0.14574 0.16759 -0.089955 -0.0308 -0.20216 -0.11816 -0.066773 -0.12534 0.062711 0.12648 -0.1974 -0.22617 0.14692 -0.027308 -0.14652 -0.13689 -0.10796 
know -0.26986 -0.070321 0.031692 -0.067503 0.14444 0.062791 0.052049 -0.13626 0.013239 0.027338 0.067699 0.084174 -0.17912 -0.32469 0.27871 -0.24322 0.11309 0.10879 -0.070046 0.37537 0.19383 -0.013228 -0.4353 -0.49624 -0.22515 0.038174 0.13868 -0.44415 0.1127 0.040017 -0.30877 -0.21183 0.0090794 -0.04176 -0.060402 0.16078 -0.17556 -0.067145 -0.087886 -0.045694 0.013081 0.13735 0.045122 0.2496 0.64317 -0.49273 -0.093583 0.077726 0.15728 -0.17132 0.1662 0.052359 0.074696 -0.024252 0.20272 0.038426 -0.1229 0.22109 0.15432 0.070157 -0.028009 0.038599 -0.049851 0.030099 -0.080962 -0.094031 0.015724 -0.33523 -0.16077 -0.054015 0.23369 -0.064973 0.19438 -0.066803 -0.0899 0.10275 -0.22282 -0.25305 0.048659 0.29149 -0.057988 -0.069958 -0.075527 -0.1394 0.16672 -0.12886 -0.023644 -0.21119 -0.08059 -0.051495 -0.1316 0.060871 0.095507 -0.22923 -0.26345 0.18137 -0.0095196 -0.15272 -0.17417 -0.12234 
dai -0.2358 -0.083832 0.026654 -0.047172 0.13374 0.014519 0.071219 -0.12954 0.0053141 0.057852 0.095205 0.059061 -0.15599 -0.27279 0.20337 -0.26006 0.11805 0.072224 -0.082605 0.35088 0.21481 -0.009722 -0.3632 -0.43274 -0.21572 0.027918 0.10097 -0.39378 0.079218 0.049414 -0.27022 -0.19711 0.030734 -0.056114 -0.057914 0.16933 -0.15432 -0.065007 -0.10262 -0.084933 0.028571 0.086471 0.037473 0.24199 0.61192 -0.4423 -0.083248 0.11708 0.078861 -0.15623 0.12864 0.0095988 0.079948 -0.02043 0.18161 0.057229 -0.12075 0.20914 0.14325 0.046577 -0.02629 0.056203 -0.049282 0.03836 -0.06073 -0.071045 0.017158 -0.27959 -0.12416 -0.055944 0.2162 -0.019415 0.1233 -0.11127 -0.093924 0.10437 -0.21311 -0.20897 0.053211 0.28467 -0.049028 -0.078379 -0.083881 -0.15051 0.17682 -0.067516 -0.052885 -0.20999 -0.12809 -0.077994 -0.11511 0.081823 0.13076 -0.19894 -0.21514 0.12717 -0.035272 -0.13245 -0.14125 -0.1126 
why -0.2402 -0.07572 0.033162 -0.041923 0.1301 0.0066203 0.090993 -0.12899 0.017565 0.065291 0.083943 0.057446 -0.14803 -0.2534 0.19785 -0.24326 0.12752 0.067222 -0.081078 0.3531 0.20774 -0.024518 -0.36155 -0.42604 -0.20044 0.021832 0.10566 -0.39127 0.077888 0.053256 -0.2412 -0.20413 0.031977 -0.05354 -0.056426 0.16491 -0.15366 -0.042412 -0.1013 -0.078669 0.013413 0.0989 0.032551 0.24058 0.60607 -0.43445 -0.067599 0.08978 0.048086 -0.14425 0.12028 0.00040255 0.07943 -0.017052 0.17906 0.058618 -0.13176 0.19138 0.16501 0.040233 -0.029946 0.055755 -0.054504 0.036539 -0.079235 -0.06811 0.024388 -0.25762 -0.11403 -0.036881 0.19881 -0.020589 0.13505 -0.10508 -0.10174 0.11918 -0.22109 -0.19816 0.066353 0.27542 -0.067353 -0.072665 -0.077203 -0.15477 0.17238 -0.073129 -0.03536 -0.20194 -0.12615 -0.081104 -0.12854 0.073204 0.13477 -0.18861 -0.2198 0.12767 -0.03857 -0.13196 -0.12072 -0.10174 
us -0.23653 -0.065688 0.024707 -0.058701 0.12869 0.033187 0.07008 -0.1324 0.013447 0.043668 0.078466 0.071037 -0.16057 -0.27159 0.22906 -0.23225 0.1144 0.089128 -0.080913 0.34508 0.19248 -0.022316 -0.38442 -0.44864 -0.20262 0.026359 0.12693 -0.40429 0.08986 0.04722 -0.26523 -0.20805 0.027508 -0.035962 -0.061473 0.1726 -0.16766 -0.061453 -0.091402 -0.061351 0.011877 0.113 0.033876 0.24435 0.6066 -0.44783 -0.085909 0.091965 0.090785 -0.15164 0.13543 0.022789 0.071951 -0.024722 0.18198 0.049976 -0.12689 0.19889 0.14341 0.052897 -0.029287 0.058405 -0.055019 0.025108 -0.073307 -0.082915 0.026389 -0.27789 -0.1321 -0.046134 0.212 -0.036315 0.14935 -0.082132 -0.10143 0.10253 -0.22254 -0.21388 0.053731 0.27693 -0.061369 -0.073975 -0.075198 -0.14918 0.15845 -0.10508 -0.029369 -0.20271 -0.098208 -0.058695 -0.12776 0.063934 0.11814 -0.20875 -0.24403 0.15099 -0.027013 -0.13908 -0.14086 -0.10406 
almost -0.17304 -0.15068 0.085217 0.047613 0.099181 -0.20828 0.28304 -0.12582 0.037664 0.27705 0.16368 -0.078569 -0.10414 -0.0046357 -0.18094 -0.34749 0.19986 -0.12344 -0.14791 0.30264 0.31249 -0.061959 -0.11575 -0.21546 -0.14426 -0.045101 -0.07731 -0.21342 -0.044395 0.12303 0.0066192 -0.17845 0.13772 -0.10832 -0.043329 0.2732 -0.084329 0.013926 -0.19125 -0.24425 0.036905 -0.10017 -0.046338 0.31127 0.55686 -0.26671 0.09755 0.16702 -0.41873 -0.03721 -0.079934 -0.21566 0.10273 -0.011537 0.086328 0.15737 -0.18068 0.12113 0.2366 -0.061563 -0.026951 0.15538 -0.08151 0.068691 -0.016605 0.01306 0.029336 0.051345 0.09814 -0.001784 0.046749 0.17423 -0.16111 -0.33718 -0.14844 0.17581 -0.24127 -0.003671 0.11525 0.27153 -0.12243 -0.066019 -0.12714 -0.2557 0.27213 0.13095 -0.083688 -0.21436 -0.38182 -0.20082 -0.093706 0.12434 0.33509 -0.05165 -0.027043 -0.057111 -0.1519 -0.11095 0.068625 -0.054033 
world -0.29448 -0.072327 0.026483 -0.069879 0.15542 0.071347 0.053053 -0.13746 0.012607 0.018194 0.06539 0.092809 -0.18493 -0.33529 0.31626 -0.23557 0.12069 0.12014 -0.071596 0.38198 0.19862 -0.016907 -0.4499 -0.5074 -0.22709 0.050727 0.1535 -0.47295 0.11732 0.025983 -0.32115 -0.22748 -0.001538 -0.046003 -0.063395 0.14838 -0.18866 -0.067043 -0.073456 -0.027452 0.0094804 0.16322 0.048238 0.24434 0.64615 -0.50167 -0.10742 0.065876 0.18105 -0.16922 0.17893 0.057249 0.078018 -0.017456 0.22303 0.031921 -0.1267 0.21821 0.159 0.083165 -0.030659 0.031569 -0.043827 0.023208 -0.09532 -0.09638 0.012064 -0.34761 -0.18239 -0.042336 0.25485 -0.082073 0.22952 -0.049395 -0.10809 0.10324 -0.22383 -0.26266 0.044139 0.29522 -0.060222 -0.080172 -0.07941 -0.12444 0.15464 -0.13692 -0.01363 -0.20876 -0.065732 -0.034941 -0.14097 0.059556 0.082286 -0.23821 -0.27174 0.19697 -0.0054406 -0.15097 -0.18532 -0.12105 
look -0.1734 -0.10848 0.055548 0.016371 0.093519 -0.11762 0.18333 -0.11715 0.029004 0.17977 0.12235 -0.020608 -0.12089 -0.10787 -0.032878 -0.28683 0.15882 -0.046408 -0.10691 0.30089 0.24839 -0.035119 -0.19594 -0.28006 -0.1573 -0.014097 0.00084118 -0.26903 0.008753 0.085968 -0.090169 -0.18058 0.093312 -0.072255 -0.047984 0.21685 -0.10725 -0.022092 -0.14541 -0.17722 0.026083 -0.01571 -0.009859 0.26504 0.54806 -0.31835 0.021228 0.1295 -0.21155 -0.07419 -0.0015882 -0.1134 0.09045 -0.005972 0.11639 0.10164 -0.15344 0.1452 0.18974 -0.023873 -0.026983 0.10814 -0.064777 0.054312 -0.03282 -0.026975 0.024059 -0.078075 0.015008 -0.017544 0.099536 0.096983 -0.036296 -0.22369 -0.11501 0.14165 -0.22143 -0.083681 0.0856 0.25926 -0.087972 -0.064153 -0.10033 -0.20725 0.21991 0.046458 -0.058846 -0.19791 -0.25638 -0.14239 -0.094054 0.10277 0.23855 -0.10842 -0.09842 0.015573 -0.10912 -0.11537 -0.012359 -0.06572 
cheap -0.2281 -0.099748 0.048503 -0.028808 0.13017 -0.03664 0.1336 -0.12297 0.014985 0.10811 0.10093 0.020541 -0.1464 -0.20766 0.11781 -0.27103 0.1434 0.031903 -0.087566 0.32776 0.22286 -0.029082 -0.30472 -0.37655 -0.19056 0.012685 0.049508 -0.35118 0.051147 0.065878 -0.18816 -0.1866 0.0501 -0.062986 -0.056794 0.18258 -0.14115 -0.043433 -0.11346 -0.11114 0.021436 0.054927 0.01602 0.25237 0.57645 -0.38988 -0.02904 0.10425 -0.029762 -0.11647 0.081252 -0.036502 0.081563 -0.012592 0.14707 0.066984 -0.13559 0.17449 0.18039 0.026196 -0.024411 0.069254 -0.05403 0.040191 -0.060483 -0.053877 0.018447 -0.1957 -0.078176 -0.033691 0.15941 0.0099614 0.08138 -0.15408 -0.10682 0.12424 -0.20819 -0.1556 0.065569 0.26909 -0.07648 -0.069788 -0.089831 -0.15949 0.18957 -0.030171 -0.040055 -0.20188 -0.17509 -0.087355 -0.10608 0.083949 0.16489 -0.15861 -0.16737 0.097086 -0.060757 -0.13578 -0.090083 -0.094102 
great -0.22392 -0.097073 0.044603 -0.03266 0.12059 -0.027291 0.12392 -0.12102 0.01475 0.10444 0.09644 0.025709 -0.15254 -0.20412 0.13145 -0.26995 0.1369 0.032748 -0.091278 0.33013 0.21867 -0.029437 -0.30462 -0.3732 -0.18731 0.013083 0.063611 -0.35529 0.055142 0.059757 -0.20015 -0.19016 0.050238 -0.05911 -0.063239 0.18027 -0.14173 -0.045809 -0.11352 -0.10881 0.027051 0.055849 0.016989 0.26131 0.57799 -0.39302 -0.039879 0.10756 -0.023317 -0.11348 0.079869 -0.034612 0.077522 -0.011749 0.15034 0.064578 -0.12919 0.17195 0.17399 0.029352 -0.026067 0.069315 -0.050568 0.042441 -0.067721 -0.056812 0.022488 -0.20357 -0.07739 -0.035797 0.16884 0.019316 0.080422 -0.14878 -0.11465 0.11863 -0.21499 -0.15796 0.060955 0.27432 -0.077298 -0.068911 -0.086261 -0.166 0.1896 -0.041514 -0.047501 -0.20551 -0.17179 -0.089107 -0.11327 0.084998 0.16346 -0.15377 -0.177 0.10118 -0.058116 -0.13623 -0.094142 -0.095883 
grain -0.14961 -0.20092 0.11638 0.10249 0.079406 -0.33972 0.3952 -0.14577 0.045308 0.41262 0.22025 -0.15072 -0.10806 0.097996 -0.37552 -0.44888 0.2553 -0.23876 -0.19423 0.31952 0.39003 -0.089999 -0.010532 -0.13297 -0.13147 -0.075839 -0.16904 -0.16455 -0.10619 0.17162 0.11653 -0.1865 0.20691 -0.14437 -0.05955 0.36581 -0.054843 0.034688 -0.25844 -0.35705 0.033894 -0.20523 -0.09317 0.38474 0.60858 -0.21917 0.17153 0.23958 -0.68205 0.0034778 -0.18387 -0.34289 0.1214 -0.0087195 0.0436 0.21605 -0.22424 0.10057 0.29361 -0.11898 -0.03097 0.21462 -0.1049 0.097492 0.0021871 0.048781 0.033254 0.18777 0.20567 0.0053439 -0.019259 0.28536 -0.32701 -0.47093 -0.18544 0.22798 -0.29397 0.071226 0.1525 0.30601 -0.17108 -0.073438 -0.15424 -0.33797 0.35114 0.25182 -0.12716 -0.24948 -0.54429 -0.28391 -0.088838 0.16244 0.46908 0.0028086 0.065015 -0.14364 -0.22001 -0.12966 0.16444 -0.034748 
ve -0.24721 -0.075841 0.022905 -0.054032 0.13027 0.032861 0.063774 -0.13403 0.0085682 0.047458 0.081273 0.066846 -0.17137 -0.28118 0.23029 -0.23798 0.12706 0.083871 -0.077336 0.35256 0.193 -0.01679 -0.38127 -0.45197 -0.20302 0.024853 0.12453 -0.41487 0.095361 0.039588 -0.26285 -0.2129 0.023557 -0.037627 -0.066252 0.16228 -0.17046 -0.061817 -0.097314 -0.070513 0.017602 0.11961 0.030178 0.24769 0.61738 -0.45071 -0.07653 0.082042 0.11235 -0.15191 0.1406 0.019628 0.083324 -0.020616 0.184 0.044601 -0.13091 0.19629 0.15877 0.06003 -0.020894 0.055419 -0.04207 0.036533 -0.081889 -0.088804 0.022139 -0.2938 -0.13908 -0.046024 0.22463 -0.032034 0.17077 -0.083871 -0.096948 0.11064 -0.21409 -0.22159 0.058476 0.28374 -0.062878 -0.074547 -0.083489 -0.14159 0.1632 -0.098339 -0.037835 -0.20392 -0.097871 -0.058536 -0.12255 0.066248 0.11647 -0.21017 -0.23983 0.15 -0.032248 -0.14123 -0.14903 -0.099374 
bit -0.14023 -0.17668 0.10151 0.081355 0.088862 -0.2792 0.32621 -0.1253 0.024883 0.34223 0.17875 -0.11545 -0.10895 0.062755 -0.29009 -0.38622 0.23117 -0.18743 -0.16474 0.30616 0.34308 -0.072227 -0.051357 -0.14462 -0.13533 -0.066714 -0.14966 -0.18616 -0.074409 0.15046 0.05811 -0.18198 0.17033 -0.12878 -0.057457 0.30689 -0.068273 0.021179 -0.23521 -0.30041 0.039527 -0.15109 -0.074838 0.35597 0.57806 -0.22812 0.14312 0.20819 -0.55609 -0.011587 -0.12424 -0.28172 0.1169 -0.014358 0.055209 0.17879 -0.20366 0.105 0.27391 -0.091997 -0.031914 0.17978 -0.089722 0.07672 -0.010105 0.033889 0.028597 0.13097 0.15568 0.0056375 0.011757 0.23127 -0.25268 -0.41981 -0.16259 0.20836 -0.26264 0.039581 0.12408 0.30617 -0.15101 -0.070342 -0.14369 -0.29936 0.31646 0.198 -0.091205 -0.24655 -0.48149 -0.23552 -0.078018 0.14331 0.40763 -0.0092007 0.031618 -0.10962 -0.18517 -0.13673 0.10858 -0.040955 
actual -0.19619 -0.12069 0.068032 0.0070458 0.10864 -0.10808 0.18426 -0.12124 0.020276 0.17998 0.12434 -0.016006 -0.13159 -0.11609 -0.0063243 -0.29597 0.16281 -0.038327 -0.10931 0.31792 0.25579 -0.042846 -0.22885 -0.30247 -0.16627 -0.014823 0.0012377 -0.2891 0.011527 0.08991 -0.11211 -0.18616 0.088142 -0.07673 -0.047719 0.22174 -0.11701 -0.022911 -0.14827 -0.16338 0.026959 -0.012587 -0.012564 0.27494 0.57018 -0.33394 0.018236 0.13993 -0.19267 -0.084984 0.010502 -0.10693 0.091252 -0.018039 0.11903 0.0996 -0.15794 0.14547 0.19677 -0.015846 -0.029031 0.10598 -0.061102 0.052912 -0.040543 -0.026895 0.027668 -0.090867 -0.0034401 -0.021873 0.11518 0.079171 -0.031509 -0.22606 -0.12305 0.14603 -0.23072 -0.094113 0.086697 0.27283 -0.098437 -0.06441 -0.10279 -0.20384 0.22737 0.034308 -0.057153 -0.21017 -0.25688 -0.14278 -0.10237 0.09338 0.23537 -0.1167 -0.10647 0.034902 -0.096274 -0.1303 -0.024073 -0.077027 
slightli -0.14232 -0.20228 0.10774 0.092021 0.069217 -0.32257 0.38645 -0.13808 0.045351 0.40071 0.21202 -0.14834 -0.1086 0.10273 -0.36052 -0.42333 0.25856 -0.23591 -0.19171 0.32195 0.38711 -0.089873 -0.02662 -0.13618 -0.13663 -0.081401 -0.1718 -0.16913 -0.10265 0.17591 0.10119 -0.18732 0.19531 -0.14265 -0.058441 0.36127 -0.053188 0.026913 -0.26218 -0.3448 0.047545 -0.20103 -0.085361 0.38559 0.60688 -0.22127 0.17387 0.23559 -0.66175 0.0025468 -0.17208 -0.33031 0.12729 -0.020108 0.04842 0.20793 -0.22293 0.10072 0.28969 -0.11343 -0.032124 0.2049 -0.10414 0.095567 0.0090213 0.051565 0.039248 0.17903 0.19774 0.011141 -0.016435 0.27744 -0.32049 -0.46645 -0.19162 0.22961 -0.28392 0.067831 0.14868 0.32027 -0.17556 -0.075044 -0.16182 -0.3393 0.34896 0.23599 -0.11493 -0.25213 -0.54101 -0.28582 -0.086808 0.16108 0.46766 0.0001222 0.058494 -0.13555 -0.21348 -0.13468 0.14783 -0.041714 
will -0.26479 -0.070952 0.022261 -0.07404 0.14367 0.065743 0.051042 -0.13139 0.012163 0.021696 0.070278 0.078556 -0.16444 -0.31417 0.29072 -0.23739 0.10891 0.11524 -0.05983 0.36856 0.18632 -0.012911 -0.42466 -0.48632 -0.22786 0.04686 0.14038 -0.43944 0.11783 0.037473 -0.30564 -0.21067 0.012047 -0.041358 -0.061324 0.15321 -0.17962 -0.066427 -0.079462 -0.043211 0.011835 0.13868 0.049461 0.24191 0.63146 -0.48826 -0.099381 0.084581 0.16839 -0.17106 0.1659 0.05053 0.076902 -0.017749 0.19715 0.029937 -0.12774 0.20683 0.15383 0.070304 -0.02477 0.033792 -0.047753 0.022666 -0.083889 -0.092199 0.020862 -0.33643 -0.16819 -0.049302 0.24516 -0.064428 0.20488 -0.061184 -0.093141 0.10115 -0.21769 -0.25694 0.049169 0.28851 -0.056211 -0.077054 -0.072947 -0.13201 0.15855 -0.12527 -0.02772 -0.20738 -0.070105 -0.053991 -0.11921 0.063454 0.085562 -0.22149 -0.26361 0.18081 -0.014158 -0.14698 -0.18341 -0.11585 
m -0.21683 -0.098319 0.047576 -0.011752 0.1234 -0.050106 0.12319 -0.12124 0.014657 0.12279 0.097095 0.012787 -0.1449 -0.19221 0.099261 -0.27103 0.13843 0.024971 -0.092285 0.33675 0.21716 -0.033532 -0.29531 -0.35967 -0.18285 0.005693 0.053004 -0.34257 0.048267 0.059075 -0.18938 -0.18963 0.052796 -0.058421 -0.064948 0.18197 -0.13494 -0.031879 -0.13128 -0.11161 0.0076885 0.036388 0.0068827 0.24886 0.57255 -0.38269 -0.025658 0.10325 -0.059527 -0.11521 0.079827 -0.050095 0.089235 -0.013601 0.14185 0.070602 -0.14304 0.17261 0.17282 0.022319 -0.019703 0.08286 -0.057462 0.039074 -0.048672 -0.055385 0.014964 -0.17317 -0.059882 -0.029711 0.17191 0.025983 0.062287 -0.1559 -0.10548 0.13529 -0.22523 -0.15365 0.065185 0.27268 -0.083879 -0.076319 -0.079936 -0.17904 0.19463 -0.026938 -0.053083 -0.20233 -0.18968 -0.11292 -0.099171 0.077721 0.18209 -0.14791 -0.16962 0.092155 -0.053762 -0.12891 -0.081062 -0.090767 
piss -0.19677 -0.094526 0.040624 -0.0080535 0.10887 -0.072629 0.13524 -0.11728 0.029205 0.13053 0.1268 0.012317 -0.1308 -0.16949 0.055685 -0.27656 0.15186 0.0044377 -0.099856 0.31776 0.23999 -0.029703 -0.26436 -0.34283 -0.16888 0.0048166 0.036087 -0.31297 0.04082 0.070117 -0.14898 -0.1907 0.082587 -0.062148 -0.053357 0.20821 -0.13489 -0.021805 -0.1291 -0.13249 0.021546 0.033134 0.00043393 0.25445 0.57171 -0.35892 -0.010456 0.12099 -0.10553 -0.099583 0.037079 -0.073672 0.08276 -0.013059 0.13768 0.092789 -0.15711 0.16491 0.17435 -0.0086988 -0.030027 0.090595 -0.063078 0.046899 -0.053512 -0.048719 0.034827 -0.15264 -0.04265 -0.027258 0.13725 0.046114 0.029242 -0.17523 -0.11471 0.13097 -0.22659 -0.12257 0.074114 0.26381 -0.080674 -0.069121 -0.091829 -0.19413 0.19617 -0.0012885 -0.06932 -0.20326 -0.19383 -0.12583 -0.11624 0.087057 0.19682 -0.14905 -0.15295 0.055134 -0.090385 -0.11763 -0.055339 -0.076168 
someth -0.21166 -0.10603 0.04985 -0.011446 0.10974 -0.06659 0.15017 -0.12577 0.017784 0.14645 0.10403 0.0083257 -0.13973 -0.1659 0.062141 -0.28024 0.14645 -0.0081509 -0.098251 0.32217 0.22743 -0.034335 -0.25882 -0.32914 -0.17142 0.0043072 0.029823 -0.31789 0.036646 0.072312 -0.14901 -0.18464 0.065474 -0.063999 -0.045265 0.19804 -0.12506 -0.028999 -0.13405 -0.13058 0.023164 0.02101 0.0044297 0.26039 0.56592 -0.35862 -0.0039996 0.11363 -0.11049 -0.09506 0.046422 -0.072834 0.087557 -0.018728 0.13699 0.076072 -0.14201 0.15906 0.18337 0.00044585 -0.028068 0.082823 -0.057932 0.045296 -0.053262 -0.038893 0.02586 -0.14546 -0.035655 -0.028043 0.13915 0.054048 0.02107 -0.19416 -0.11364 0.13206 -0.2192 -0.12375 0.078373 0.26887 -0.081347 -0.067197 -0.099022 -0.18965 0.19753 0.0015118 -0.047146 -0.20078 -0.21265 -0.11951 -0.10586 0.082264 0.19641 -0.13599 -0.13592 0.054172 -0.068011 -0.12703 -0.054015 -0.083514 
fizzi -0.12852 -0.16193 0.094126 0.084502 0.070573 -0.29082 0.32617 -0.12631 0.046481 0.34953 0.20135 -0.11814 -0.099358 0.071894 -0.30544 -0.38123 0.23212 -0.19078 -0.16717 0.30098 0.35837 -0.073809 -0.052926 -0.16553 -0.13313 -0.069753 -0.13468 -0.17126 -0.082431 0.15026 0.072752 -0.18522 0.1838 -0.12779 -0.057835 0.32819 -0.077606 0.028294 -0.2409 -0.31314 0.038742 -0.16505 -0.070804 0.34728 0.5963 -0.23622 0.14291 0.21517 -0.58223 -0.013751 -0.13891 -0.28691 0.11407 -0.02054 0.059501 0.19918 -0.21539 0.113 0.25687 -0.10124 -0.029911 0.18475 -0.096586 0.09088 0.0011581 0.033152 0.04303 0.13321 0.1609 -0.0016714 0.0011007 0.24576 -0.25959 -0.41122 -0.16767 0.20941 -0.27458 0.047504 0.1347 0.29827 -0.1482 -0.073509 -0.13746 -0.32021 0.32462 0.20141 -0.11527 -0.23847 -0.47235 -0.26308 -0.098049 0.15281 0.41377 -0.022737 0.021285 -0.11058 -0.20953 -0.12077 0.12657 -0.041048 
pretti -0.17399 -0.12648 0.071674 0.030246 0.097886 -0.15574 0.22105 -0.11939 0.027939 0.21998 0.13558 -0.04951 -0.11688 -0.061232 -0.080996 -0.30585 0.18188 -0.079364 -0.11795 0.30743 0.27184 -0.055016 -0.16707 -0.25062 -0.15369 -0.025079 -0.037206 -0.2543 -0.013121 0.10725 -0.059095 -0.17562 0.10868 -0.090169 -0.053894 0.24168 -0.097825 -0.016322 -0.17027 -0.19683 0.028704 -0.056432 -0.025768 0.29589 0.55543 -0.29932 0.056552 0.1542 -0.29329 -0.056793 -0.027016 -0.1522 0.10016 -0.013519 0.096381 0.11811 -0.17077 0.12928 0.21294 -0.040079 -0.028304 0.12303 -0.071908 0.061307 -0.027137 -0.0088256 0.030792 -0.025617 0.044125 -0.0101 0.079608 0.11789 -0.091106 -0.28234 -0.1358 0.16349 -0.23532 -0.052648 0.09718 0.27824 -0.117 -0.063042 -0.11 -0.22018 0.24075 0.0823 -0.064597 -0.21187 -0.31772 -0.16367 -0.090304 0.1095 0.28208 -0.082511 -0.065281 -0.0026836 -0.12199 -0.12429 0.014503 -0.066234 
give -0.23809 -0.072229 0.035873 -0.050975 0.12655 0.026618 0.075284 -0.12835 0.011329 0.05213 0.074365 0.067535 -0.16247 -0.26937 0.22132 -0.23771 0.12404 0.075685 -0.078294 0.35496 0.20706 -0.012715 -0.37616 -0.44714 -0.20934 0.02856 0.11319 -0.40868 0.097886 0.042985 -0.25674 -0.20091 0.024945 -0.0428 -0.057198 0.1649 -0.16789 -0.061568 -0.098276 -0.071831 0.012953 0.10973 0.035665 0.25175 0.61403 -0.45188 -0.074616 0.089345 0.082317 -0.14986 0.1336 0.018237 0.079212 -0.024665 0.18191 0.046165 -0.13061 0.20308 0.16159 0.051658 -0.026732 0.047841 -0.052313 0.033165 -0.076455 -0.081564 0.022267 -0.27537 -0.13043 -0.043763 0.21455 -0.033459 0.14804 -0.096605 -0.097206 0.11028 -0.22752 -0.2218 0.058988 0.29222 -0.068795 -0.076734 -0.07958 -0.15064 0.17329 -0.086266 -0.033088 -0.21064 -0.1109 -0.065213 -0.12501 0.065666 0.12108 -0.20577 -0.22739 0.14329 -0.033728 -0.14261 -0.14048 -0.1077 
thing -0.20526 -0.10083 0.044235 -0.011791 0.11214 -0.06082 0.1458 -0.12392 0.026807 0.13272 0.11117 0.00051409 -0.13734 -0.15599 0.055058 -0.26771 0.15726 -0.00083313 -0.10604 0.32528 0.2436 -0.030949 -0.25852 -0.33857 -0.17508 0.0046138 0.031912 -0.32608 0.031788 0.072979 -0.15734 -0.19048 0.073263 -0.066948 -0.058962 0.20323 -0.12654 -0.029044 -0.13365 -0.13978 0.023526 0.033871 0.003714 0.26354 0.57855 -0.36228 -0.010896 0.1168 -0.11195 -0.098745 0.04006 -0.07741 0.084375 -0.018871 0.15049 0.084952 -0.14629 0.16263 0.18647 0.010104 -0.02319 0.083286 -0.057496 0.041037 -0.056308 -0.040457 0.022497 -0.14799 -0.039967 -0.031421 0.13507 0.051624 0.026151 -0.18053 -0.11407 0.1295 -0.21971 -0.12418 0.083919 0.27716 -0.084518 -0.075575 -0.099534 -0.1918 0.20118 0.0072048 -0.049896 -0.20935 -0.22148 -0.12639 -0.11155 0.095707 0.20773 -0.13425 -0.14619 0.063446 -0.076927 -0.12825 -0.066872 -0.078924 
cold -0.20079 -0.10959 0.047426 -0.0094716 0.11627 -0.074641 0.14198 -0.10926 0.03152 0.13228 0.11445 0.0047472 -0.12859 -0.16608 0.058054 -0.27379 0.14985 -0.0024764 -0.10272 0.3087 0.2408 -0.036936 -0.24476 -0.32977 -0.17742 -0.0038913 0.022403 -0.31857 0.027196 0.077702 -0.15976 -0.18499 0.076675 -0.094097 -0.065533 0.20128 -0.12533 -0.034845 -0.12306 -0.14727 0.030747 0.016705 0.0027284 0.25793 0.57926 -0.35406 0.0028208 0.11753 -0.12404 -0.10217 0.046043 -0.073282 0.079188 -0.022877 0.13951 0.094031 -0.14382 0.16746 0.17425 -0.0042767 -0.022085 0.092436 -0.062596 0.047264 -0.044101 -0.033261 0.03018 -0.1449 -0.033814 -0.029886 0.13992 0.052296 0.019462 -0.18376 -0.12327 0.12981 -0.22253 -0.13013 0.075944 0.25294 -0.077732 -0.077314 -0.089538 -0.17849 0.20684 0.0012199 -0.051428 -0.19908 -0.21309 -0.11591 -0.10698 0.095887 0.2106 -0.13727 -0.15046 0.055261 -0.092087 -0.11755 -0.073548 -0.083552 
lot -0.19677 -0.10707 0.05957 0.00059502 0.10921 -0.089925 0.16395 -0.11592 0.023113 0.16141 0.117 -0.010922 -0.13082 -0.13524 0.02742 -0.2913 0.15221 -0.022329 -0.099851 0.30745 0.24011 -0.037277 -0.23206 -0.30835 -0.17188 -0.00037841 0.014454 -0.29803 0.016808 0.071744 -0.12355 -0.17492 0.071497 -0.080767 -0.05588 0.1991 -0.1093 -0.024985 -0.13858 -0.14809 0.029127 0.0095839 0.0030514 0.26506 0.55031 -0.34391 0.0083137 0.12188 -0.14642 -0.08989 0.031657 -0.085221 0.083679 -0.012719 0.12023 0.092623 -0.14475 0.15311 0.18822 -0.0013538 -0.024649 0.098462 -0.060218 0.050587 -0.041578 -0.027486 0.019701 -0.12116 -0.018344 -0.02536 0.11872 0.058444 -0.00069978 -0.20619 -0.10992 0.13626 -0.21399 -0.10873 0.079097 0.27031 -0.088296 -0.057985 -0.090145 -0.1838 0.20639 0.014488 -0.045509 -0.19198 -0.23559 -0.12437 -0.10351 0.09244 0.21584 -0.1085 -0.10961 0.047194 -0.0857 -0.11901 -0.04554 -0.081297 
bland -0.18323 -0.11987 0.071585 0.024722 0.099835 -0.14016 0.21559 -0.1215 0.026755 0.20989 0.13214 -0.038427 -0.12344 -0.076466 -0.060363 -0.30268 0.17776 -0.069045 -0.11671 0.30248 0.27041 -0.049478 -0.18059 -0.2663 -0.15957 -0.029091 -0.03518 -0.25924 -0.0061741 0.095362 -0.071397 -0.18043 0.10353 -0.091333 -0.055653 0.23288 -0.10458 -0.0080258 -0.16702 -0.18589 0.024897 -0.04009 -0.020489 0.28343 0.55266 -0.29754 0.048848 0.14601 -0.27522 -0.065063 -0.017248 -0.14072 0.088604 -0.0097323 0.10387 0.12165 -0.16021 0.1325 0.20811 -0.028092 -0.027892 0.11791 -0.068073 0.065119 -0.033789 -0.01321 0.020895 -0.045313 0.031166 -0.010882 0.086738 0.10794 -0.070388 -0.26376 -0.12513 0.15438 -0.22282 -0.058928 0.090155 0.26573 -0.10844 -0.067456 -0.10639 -0.2154 0.23251 0.065815 -0.059801 -0.20974 -0.30108 -0.15316 -0.1008 0.10459 0.27291 -0.087098 -0.073531 -0.0022376 -0.11655 -0.11645 0.0053293 -0.061943 
palat -0.14752 -0.17065 0.091515 0.069547 0.078574 -0.27201 0.32241 -0.12998 0.038068 0.33725 0.18801 -0.1117 -0.10733 0.052203 -0.27312 -0.37345 0.22741 -0.17799 -0.16994 0.31117 0.35518 -0.075832 -0.070242 -0.17733 -0.14021 -0.057927 -0.11964 -0.1936 -0.079715 0.14953 0.042846 -0.18829 0.16899 -0.12321 -0.053483 0.31692 -0.076861 0.022863 -0.23096 -0.29233 0.043716 -0.14986 -0.065988 0.3473 0.5881 -0.24278 0.12929 0.2082 -0.53803 -0.022688 -0.1199 -0.27084 0.1131 -0.019939 0.071093 0.1819 -0.20067 0.10993 0.25899 -0.089547 -0.029154 0.1785 -0.093973 0.080943 -0.012504 0.028581 0.033476 0.10666 0.14517 0.003851 0.015772 0.22231 -0.23704 -0.39786 -0.1686 0.20538 -0.26722 0.029032 0.12563 0.29747 -0.14802 -0.068078 -0.13432 -0.30093 0.3112 0.18087 -0.10613 -0.23648 -0.45654 -0.24392 -0.092936 0.14442 0.3943 -0.022959 0.010904 -0.097327 -0.18963 -0.12768 0.11045 -0.046834 
macro -0.21085 -0.1077 0.05243 -0.0095318 0.11771 -0.073436 0.16825 -0.11939 0.018873 0.15068 0.11555 -0.0026434 -0.13886 -0.14755 0.041295 -0.27549 0.15859 -0.0052758 -0.096765 0.31983 0.25032 -0.039808 -0.25765 -0.33106 -0.18329 0.0015304 0.019874 -0.31686 0.02691 0.085035 -0.14644 -0.19054 0.070145 -0.072226 -0.061014 0.20159 -0.12442 -0.030451 -0.13084 -0.12841 0.018937 0.019038 0.0028714 0.26661 0.56301 -0.35698 0.00027751 0.11957 -0.13027 -0.097091 0.051505 -0.072545 0.088842 -0.018532 0.13148 0.096154 -0.14727 0.15421 0.18431 0.0055941 -0.0195 0.093468 -0.05832 0.044112 -0.039956 -0.037736 0.012193 -0.13461 -0.03114 -0.025809 0.1354 0.044708 0.018572 -0.19863 -0.12468 0.13108 -0.22297 -0.1151 0.073261 0.26692 -0.094597 -0.062585 -0.093588 -0.18199 0.20882 0.0085194 -0.045376 -0.20161 -0.22766 -0.11504 -0.098947 0.0922 0.20243 -0.12512 -0.13376 0.061747 -0.08245 -0.12714 -0.057027 -0.082705 
though -0.19359 -0.1214 0.055045 0.01059 0.10388 -0.10024 0.17733 -0.11367 0.020751 0.17629 0.10851 -0.016885 -0.12641 -0.11117 -0.0019512 -0.28562 0.1653 -0.038847 -0.11609 0.31524 0.25678 -0.042079 -0.21937 -0.29648 -0.16265 -0.012081 -0.0011303 -0.29505 0.010707 0.087707 -0.11392 -0.17737 0.084588 -0.076277 -0.055861 0.21396 -0.10922 -0.027588 -0.14799 -0.16155 0.030615 -0.0074888 -0.0054658 0.27541 0.55424 -0.33057 0.026389 0.12664 -0.19016 -0.079669 0.015656 -0.11302 0.098625 -0.017689 0.12337 0.087605 -0.14344 0.14634 0.20422 -0.010965 -0.023788 0.096556 -0.057555 0.046006 -0.044176 -0.026567 0.025296 -0.091902 -3.6178e-05 -0.019096 0.12129 0.084443 -0.027875 -0.22703 -0.12528 0.14656 -0.21936 -0.09863 0.084305 0.26594 -0.097861 -0.061122 -0.10234 -0.19897 0.21983 0.035772 -0.052715 -0.2147 -0.26348 -0.14106 -0.10142 0.098621 0.23119 -0.10075 -0.1073 0.030227 -0.084976 -0.1221 -0.030304 -0.068265 
easi -0.2024 -0.12217 0.065381 0.0056966 0.10948 -0.11131 0.18379 -0.11956 0.017014 0.18554 0.1161 -0.020582 -0.12953 -0.11631 -0.0069566 -0.29616 0.16423 -0.039844 -0.10523 0.30644 0.25438 -0.043456 -0.21112 -0.29146 -0.17368 -0.014244 -0.0092998 -0.29254 0.013044 0.0928 -0.10507 -0.17607 0.082123 -0.081404 -0.059467 0.21002 -0.10695 -0.014665 -0.15413 -0.15818 0.027845 -0.0077043 -0.0069601 0.28232 0.55973 -0.33387 0.025659 0.12713 -0.18795 -0.075606 0.010229 -0.10936 0.088358 -0.012187 0.12149 0.09081 -0.14673 0.14643 0.20434 -0.0081845 -0.031262 0.094991 -0.063541 0.053938 -0.041503 -0.021077 0.025003 -0.092022 -0.004468 -0.021208 0.10871 0.078715 -0.026697 -0.22362 -0.11829 0.15205 -0.21565 -0.091381 0.081649 0.27463 -0.095648 -0.061916 -0.10319 -0.20287 0.21638 0.037948 -0.047695 -0.21396 -0.2738 -0.13235 -0.099854 0.093491 0.234 -0.093685 -0.095986 0.024703 -0.093254 -0.12756 -0.023738 -0.080908 
ever -0.28147 -0.087538 0.042683 -0.051539 0.15015 0.024801 0.087491 -0.12532 0.0048513 0.061376 0.077254 0.059198 -0.16488 -0.28628 0.22899 -0.25403 0.12527 0.08712 -0.069418 0.3623 0.19355 -0.031742 -0.39197 -0.4459 -0.21019 0.025113 0.11314 -0.41562 0.099975 0.036307 -0.26455 -0.20431 0.019541 -0.052313 -0.056557 0.15358 -0.16187 -0.061926 -0.078344 -0.055932 0.02069 0.11058 0.036136 0.24304 0.59211 -0.44613 -0.063695 0.074057 0.099157 -0.1545 0.13513 0.029177 0.081764 -0.021296 0.17736 0.043507 -0.1223 0.19621 0.16903 0.05996 -0.017247 0.045487 -0.043683 0.041695 -0.07779 -0.074438 0.0064438 -0.28375 -0.12814 -0.039536 0.22437 -0.043884 0.17496 -0.094716 -0.1062 0.10289 -0.21406 -0.22202 0.055873 0.27517 -0.068663 -0.068397 -0.073954 -0.13056 0.16811 -0.10428 -0.024018 -0.21185 -0.11419 -0.064303 -0.1211 0.070311 0.12421 -0.20265 -0.21993 0.15708 -0.02265 -0.13251 -0.14533 -0.10553 
hint -0.12854 -0.18309 0.10446 0.090126 0.072223 -0.31168 0.35054 -0.12517 0.040956 0.38056 0.1998 -0.13402 -0.098452 0.098492 -0.3466 -0.39359 0.24082 -0.21286 -0.17665 0.30292 0.36895 -0.078797 -0.024626 -0.13369 -0.12535 -0.076374 -0.16496 -0.15485 -0.094836 0.16132 0.10175 -0.18209 0.1834 -0.13337 -0.055973 0.34005 -0.055076 0.029527 -0.25413 -0.33274 0.039263 -0.18664 -0.083416 0.35936 0.58608 -0.21535 0.16264 0.22453 -0.62891 -0.0010175 -0.16794 -0.31267 0.11797 -0.010999 0.048182 0.20129 -0.21964 0.094615 0.27798 -0.10736 -0.029529 0.19972 -0.099069 0.084214 0.0056933 0.039077 0.044694 0.17331 0.1901 -0.00026362 -0.0076058 0.26194 -0.29795 -0.44451 -0.16445 0.21452 -0.27495 0.068546 0.1495 0.29747 -0.16496 -0.062602 -0.15064 -0.31813 0.33232 0.22922 -0.11182 -0.24087 -0.51014 -0.27094 -0.086369 0.14141 0.43852 0.0045805 0.051148 -0.13687 -0.20883 -0.12507 0.14272 -0.03735 
aftertast -0.18382 -0.14141 0.079333 0.041893 0.10206 -0.17754 0.24411 -0.11804 0.027893 0.2577 0.14107 -0.071788 -0.11192 -0.029403 -0.13341 -0.33008 0.18856 -0.10956 -0.13315 0.30868 0.28995 -0.065393 -0.14219 -0.2334 -0.15503 -0.03338 -0.067387 -0.24178 -0.030701 0.11613 -0.028744 -0.17695 0.11781 -0.096269 -0.053407 0.25437 -0.082881 0.0071117 -0.18165 -0.21701 0.02642 -0.076563 -0.032449 0.30801 0.55583 -0.27823 0.083592 0.16146 -0.35675 -0.045914 -0.057107 -0.1885 0.099698 -0.01252 0.094704 0.13003 -0.16493 0.12203 0.23782 -0.048186 -0.028265 0.13771 -0.073251 0.068167 -0.027406 0.003056 0.024612 0.0086936 0.073762 -0.0070567 0.070379 0.14878 -0.12618 -0.30495 -0.13676 0.178 -0.23453 -0.026184 0.10442 0.2781 -0.11861 -0.057847 -0.11781 -0.23683 0.25348 0.10621 -0.070829 -0.2184 -0.35924 -0.1835 -0.090919 0.11521 0.30305 -0.05161 -0.035038 -0.035627 -0.12557 -0.12137 0.042699 -0.061965 
first -0.23423 -0.095982 0.038932 -0.034746 0.13064 -0.00096752 0.1022 -0.12843 0.013931 0.096207 0.081986 0.035591 -0.14818 -0.2144 0.15007 -0.25491 0.13767 0.036827 -0.093841 0.34307 0.2166 -0.020564 -0.32907 -0.40728 -0.1892 0.0082253 0.070219 -0.37971 0.066056 0.059534 -0.21581 -0.18874 0.037115 -0.057631 -0.048916 0.17146 -0.13998 -0.040727 -0.1164 -0.099054 0.030535 0.078835 0.028828 0.25608 0.58985 -0.40742 -0.042149 0.087955 -0.001288 -0.12693 0.10067 -0.029718 0.084438 -0.02443 0.17399 0.052011 -0.12034 0.18915 0.18042 0.036548 -0.034494 0.067431 -0.052023 0.037846 -0.067123 -0.060682 0.015776 -0.22062 -0.076924 -0.029793 0.18473 0.0086496 0.095461 -0.13589 -0.11019 0.12197 -0.20982 -0.17354 0.061833 0.28107 -0.066746 -0.062604 -0.092596 -0.15834 0.18812 -0.048943 -0.03562 -0.20793 -0.16623 -0.099438 -0.11962 0.082101 0.15979 -0.16593 -0.18999 0.10468 -0.037763 -0.1309 -0.10207 -0.090833 
want -0.22709 -0.088662 0.034842 -0.038334 0.12552 -0.011532 0.099826 -0.12409 0.010931 0.090205 0.097326 0.03923 -0.15451 -0.2294 0.159 -0.2483 0.127 0.046157 -0.084515 0.34677 0.21016 -0.02641 -0.34005 -0.40769 -0.19084 0.016685 0.076977 -0.37614 0.069098 0.051654 -0.22078 -0.19612 0.037055 -0.052051 -0.053087 0.17767 -0.14453 -0.04332 -0.11113 -0.090206 0.016829 0.079681 0.022007 0.24822 0.60102 -0.41844 -0.045833 0.098638 0.016247 -0.13526 0.10595 -0.018827 0.077441 -0.015889 0.1642 0.05295 -0.12962 0.18032 0.17352 0.032963 -0.01873 0.05934 -0.058217 0.036792 -0.067552 -0.062624 0.024192 -0.2361 -0.095764 -0.038658 0.19512 0.0027069 0.10344 -0.12867 -0.096363 0.11898 -0.21583 -0.18248 0.062944 0.26948 -0.067217 -0.070282 -0.089079 -0.1589 0.17709 -0.057845 -0.041298 -0.20208 -0.14985 -0.089332 -0.10907 0.067851 0.15137 -0.17104 -0.19519 0.10785 -0.042935 -0.13754 -0.11523 -0.099278 
stuff -0.22932 -0.084702 0.032375 -0.040409 0.12475 0.0091841 0.080839 -0.12469 0.0099208 0.058964 0.089445 0.052937 -0.15461 -0.2529 0.19907 -0.24245 0.12645 0.072964 -0.082792 0.3419 0.20297 -0.018915 -0.36086 -0.43137 -0.1956 0.021956 0.099203 -0.39191 0.089637 0.046502 -0.24695 -0.20088 0.033415 -0.050609 -0.05926 0.16848 -0.16216 -0.050226 -0.10268 -0.077833 0.01388 0.094893 0.025022 0.24584 0.60798 -0.43156 -0.070538 0.093849 0.05468 -0.13715 0.11602 -0.0022277 0.07631 -0.018453 0.16755 0.053517 -0.13335 0.19385 0.15865 0.040228 -0.032062 0.06111 -0.056075 0.026774 -0.070794 -0.075465 0.022975 -0.25809 -0.11447 -0.042309 0.20427 -0.022082 0.13522 -0.1096 -0.10055 0.11637 -0.22237 -0.20076 0.060947 0.27827 -0.065173 -0.076388 -0.083609 -0.15243 0.16917 -0.074762 -0.037953 -0.20579 -0.12599 -0.073462 -0.11693 0.066075 0.1367 -0.19313 -0.21907 0.12894 -0.046357 -0.13825 -0.13103 -0.094662 
refresh -0.19479 -0.12407 0.067844 0.0074403 0.1038 -0.118 0.19147 -0.11487 0.014618 0.19174 0.11997 -0.025218 -0.13065 -0.10265 -0.02006 -0.30025 0.16164 -0.049596 -0.11524 0.31457 0.26411 -0.04379 -0.20732 -0.29236 -0.16917 -0.016843 -0.012821 -0.28491 0.0011759 0.090096 -0.10208 -0.17866 0.092027 -0.08952 -0.05751 0.22453 -0.11021 -0.012609 -0.15277 -0.16995 0.025126 -0.020752 -0.0084345 0.28702 0.57164 -0.32608 0.031583 0.13815 -0.21317 -0.079198 0.0061572 -0.11968 0.090977 -0.021263 0.11801 0.1071 -0.14799 0.14973 0.20524 -0.018033 -0.030434 0.10536 -0.060144 0.054342 -0.038203 -0.021116 0.022658 -0.08212 0.0083727 -0.017867 0.11124 0.092779 -0.046195 -0.24469 -0.12532 0.15096 -0.22594 -0.080122 0.093387 0.2823 -0.10287 -0.067475 -0.10405 -0.21053 0.23054 0.045854 -0.06336 -0.21454 -0.28397 -0.14163 -0.10044 0.097064 0.24997 -0.096204 -0.094709 0.019335 -0.10155 -0.13507 -0.019536 -0.078051 
bui -0.25632 -0.056393 0.02197 -0.068598 0.13231 0.065515 0.036458 -0.13125 0.0024372 0.0044738 0.07979 0.083239 -0.17479 -0.32516 0.30593 -0.2288 0.11538 0.11878 -0.060898 0.37678 0.18985 -0.020253 -0.44151 -0.5002 -0.21187 0.035017 0.15713 -0.44568 0.12472 0.028012 -0.32771 -0.20661 0.0091921 -0.036831 -0.066223 0.14386 -0.18809 -0.071029 -0.070685 -0.042412 0.017535 0.16417 0.036723 0.2363 0.63855 -0.48978 -0.11586 0.072049 0.17629 -0.17201 0.17019 0.052702 0.080875 -0.035405 0.19837 0.029646 -0.13159 0.22336 0.1468 0.078322 -0.026598 0.032295 -0.049895 0.031296 -0.098002 -0.1033 0.023068 -0.35078 -0.17183 -0.056244 0.25223 -0.071921 0.22172 -0.050157 -0.1029 0.097762 -0.22884 -0.2669 0.04298 0.30608 -0.057093 -0.075518 -0.074521 -0.14699 0.15381 -0.14802 -0.038725 -0.22014 -0.058644 -0.042192 -0.13336 0.069029 0.085092 -0.24324 -0.29296 0.19465 -0.019126 -0.14131 -0.18862 -0.10769 
nice -0.16847 -0.12209 0.068987 0.021904 0.094535 -0.15159 0.20891 -0.1157 0.027022 0.21377 0.13552 -0.036922 -0.11891 -0.06999 -0.079108 -0.29934 0.17318 -0.073863 -0.12003 0.29131 0.27328 -0.044911 -0.16288 -0.24717 -0.15734 -0.023335 -0.038338 -0.25315 -0.014396 0.096481 -0.060775 -0.17239 0.10751 -0.094547 -0.051728 0.23647 -0.10107 -0.0047341 -0.16558 -0.19866 0.028036 -0.049333 -0.024552 0.28891 0.55559 -0.29812 0.056369 0.15087 -0.28101 -0.068574 -0.026042 -0.15444 0.094146 -0.016174 0.10456 0.12134 -0.15618 0.13631 0.2094 -0.025469 -0.029273 0.11917 -0.066172 0.053792 -0.028996 -0.0082859 0.03113 -0.03485 0.036973 -0.011987 0.076501 0.1193 -0.083614 -0.26612 -0.12387 0.1571 -0.22691 -0.053319 0.095082 0.26884 -0.10859 -0.062768 -0.11196 -0.22901 0.23804 0.078364 -0.07255 -0.20552 -0.31539 -0.16099 -0.095078 0.10777 0.26802 -0.080864 -0.071191 -0.01416 -0.12643 -0.12276 0.0050009 -0.069773 
market -0.22954 -0.081046 0.043669 -0.032812 0.12383 -0.016834 0.10824 -0.13126 0.021743 0.0801 0.094186 0.037669 -0.15459 -0.231 0.1667 -0.24918 0.13759 0.054907 -0.078347 0.34208 0.21386 -0.025972 -0.34762 -0.41011 -0.19445 0.019857 0.08559 -0.38522 0.072144 0.052014 -0.22079 -0.20278 0.042122 -0.050629 -0.065742 0.18487 -0.16373 -0.046212 -0.10587 -0.086099 0.014314 0.080438 0.02003 0.25451 0.59211 -0.41431 -0.049029 0.095837 0.015903 -0.12757 0.098847 -0.0091662 0.072518 -0.019714 0.16253 0.074276 -0.14032 0.18425 0.16584 0.031254 -0.025581 0.063594 -0.050746 0.03615 -0.057694 -0.06312 0.020113 -0.23626 -0.099967 -0.035302 0.18925 -0.0060264 0.11169 -0.1262 -0.10401 0.1135 -0.2215 -0.18299 0.060375 0.27364 -0.089852 -0.071642 -0.084787 -0.15741 0.17728 -0.05485 -0.031913 -0.20548 -0.14568 -0.07818 -0.11324 0.071383 0.15528 -0.17645 -0.19934 0.12319 -0.047121 -0.14295 -0.11498 -0.098263 
els -0.20091 -0.11212 0.053038 -0.005557 0.11433 -0.083201 0.17146 -0.11722 0.02178 0.1611 0.11651 -0.0061556 -0.13258 -0.14166 0.021586 -0.29658 0.15839 -0.017038 -0.095312 0.32499 0.24122 -0.037989 -0.24647 -0.32129 -0.17273 -0.0018621 0.0095936 -0.30464 0.019785 0.085812 -0.13668 -0.19082 0.079995 -0.069118 -0.05082 0.21047 -0.11781 -0.023938 -0.14443 -0.15021 0.023865 0.010515 -0.00046299 0.26881 0.56715 -0.3505 0.017353 0.12856 -0.15476 -0.093415 0.03008 -0.090675 0.088904 -0.011738 0.12771 0.088752 -0.14606 0.15265 0.2017 -0.0047444 -0.023214 0.088896 -0.065718 0.053612 -0.052392 -0.035251 0.021865 -0.1207 -0.01961 -0.020666 0.13031 0.070271 -0.0029733 -0.20954 -0.11302 0.15191 -0.22209 -0.10828 0.08104 0.27628 -0.084372 -0.0589 -0.10066 -0.19652 0.21128 0.016278 -0.061233 -0.20523 -0.23905 -0.12715 -0.097611 0.086049 0.21874 -0.11993 -0.12622 0.040431 -0.088979 -0.12566 -0.048643 -0.076981 
mass -0.23003 -0.084325 0.043636 -0.032942 0.13185 -0.025871 0.11762 -0.12995 0.021448 0.086305 0.097752 0.022979 -0.15268 -0.22877 0.15516 -0.2585 0.14155 0.046437 -0.077355 0.34253 0.21975 -0.025087 -0.33093 -0.40087 -0.19826 0.028181 0.073888 -0.38419 0.071344 0.052911 -0.2171 -0.20632 0.045158 -0.049951 -0.070212 0.186 -0.16006 -0.048426 -0.10526 -0.085459 0.0051813 0.081417 0.020678 0.24884 0.58145 -0.40504 -0.035903 0.098036 0.0001225 -0.11761 0.1038 -0.020777 0.070799 -0.013204 0.15819 0.075365 -0.14253 0.17616 0.17251 0.028646 -0.024077 0.068336 -0.046905 0.03597 -0.050676 -0.06607 0.010535 -0.22426 -0.094457 -0.037478 0.18556 -0.00064555 0.10962 -0.12761 -0.098676 0.11936 -0.21163 -0.16471 0.058374 0.26877 -0.092372 -0.064827 -0.086021 -0.15018 0.17328 -0.051608 -0.038979 -0.20243 -0.15005 -0.080642 -0.1014 0.079405 0.16233 -0.15856 -0.19798 0.11693 -0.046595 -0.13468 -0.11209 -0.092664 
worst -0.25519 -0.093264 0.042935 -0.029863 0.13454 -0.0082741 0.11879 -0.12985 0.012752 0.098047 0.083702 0.028779 -0.14878 -0.20444 0.14439 -0.2558 0.13781 0.03618 -0.090044 0.33299 0.21368 -0.033938 -0.31869 -0.38336 -0.18692 0.0095572 0.068008 -0.36462 0.063019 0.056056 -0.20822 -0.19143 0.04098 -0.057241 -0.052669 0.16975 -0.13546 -0.028767 -0.1105 -0.087412 0.019591 0.082241 0.021974 0.24981 0.57081 -0.39515 -0.031353 0.087553 -0.0050143 -0.12274 0.093468 -0.030719 0.081188 -0.016137 0.17036 0.053515 -0.12539 0.17377 0.18996 0.037278 -0.028011 0.063035 -0.048074 0.038051 -0.07362 -0.059188 0.013371 -0.2077 -0.080916 -0.024089 0.17789 0.0017367 0.099056 -0.13409 -0.11541 0.12118 -0.20607 -0.16373 0.062009 0.27629 -0.073671 -0.065985 -0.089044 -0.15057 0.17976 -0.042931 -0.030578 -0.20354 -0.16706 -0.089493 -0.11478 0.078031 0.14823 -0.15688 -0.17973 0.1084 -0.037022 -0.12507 -0.095786 -0.090934 
wors -0.26803 -0.08683 0.039797 -0.04065 0.13691 0.014215 0.099206 -0.13681 0.013728 0.070778 0.082757 0.049794 -0.16111 -0.2519 0.19632 -0.25613 0.13381 0.062367 -0.079398 0.34791 0.20934 -0.028336 -0.36038 -0.42486 -0.19794 0.020497 0.096077 -0.39204 0.083237 0.04312 -0.2432 -0.20362 0.033035 -0.049113 -0.058745 0.16801 -0.15698 -0.044694 -0.10089 -0.073272 0.015974 0.10137 0.02356 0.24913 0.60123 -0.42992 -0.058375 0.091214 0.054389 -0.13842 0.11882 -0.0026898 0.074863 -0.01764 0.1793 0.047756 -0.13473 0.19249 0.18033 0.048185 -0.020868 0.057371 -0.049533 0.040509 -0.082725 -0.076535 0.011705 -0.26027 -0.1167 -0.038333 0.20157 -0.022509 0.14045 -0.111 -0.11597 0.11192 -0.2154 -0.19681 0.060258 0.28974 -0.073139 -0.074549 -0.086045 -0.15034 0.17444 -0.0706 -0.032547 -0.21019 -0.13429 -0.074599 -0.1229 0.068289 0.12771 -0.19274 -0.21141 0.13874 -0.033166 -0.13286 -0.12629 -0.09864 
weak -0.14292 -0.14079 0.077852 0.054079 0.079067 -0.21688 0.26276 -0.12164 0.033914 0.27038 0.16037 -0.074331 -0.10299 0.0025064 -0.18932 -0.33079 0.19951 -0.12963 -0.14317 0.28568 0.30018 -0.054813 -0.10267 -0.19917 -0.13511 -0.045208 -0.081364 -0.20306 -0.047332 0.12021 0.010244 -0.17328 0.14013 -0.10557 -0.052795 0.28012 -0.082669 0.0045126 -0.19671 -0.24717 0.028541 -0.10747 -0.050437 0.30366 0.55795 -0.25259 0.092075 0.17996 -0.4203 -0.034007 -0.080393 -0.21346 0.10096 -0.014018 0.072428 0.14806 -0.18099 0.119 0.22382 -0.067573 -0.027817 0.15059 -0.084854 0.071733 -0.015403 0.0088492 0.035088 0.053296 0.098629 -0.0081472 0.042373 0.17917 -0.17066 -0.33104 -0.13774 0.17885 -0.24717 -0.002469 0.11481 0.26987 -0.12547 -0.066818 -0.11667 -0.25742 0.27073 0.13569 -0.088247 -0.21263 -0.37397 -0.202 -0.091677 0.1203 0.33832 -0.052422 -0.019322 -0.059062 -0.16415 -0.11386 0.067851 -0.046931 
least -0.20518 -0.12432 0.06511 0.014095 0.11439 -0.10855 0.20013 -0.11749 0.012426 0.1993 0.11957 -0.031414 -0.12907 -0.10099 -0.021615 -0.30533 0.1652 -0.045244 -0.11444 0.31539 0.24935 -0.050051 -0.20718 -0.28889 -0.16538 -0.012903 -0.014644 -0.28578 0.0062572 0.097867 -0.096175 -0.18204 0.086067 -0.077135 -0.049008 0.22014 -0.098923 -0.0095481 -0.15362 -0.16055 0.026259 -0.011564 -0.0093591 0.28053 0.54812 -0.31975 0.033561 0.13043 -0.21736 -0.069202 0.003838 -0.11873 0.088764 -0.011161 0.12115 0.099138 -0.14656 0.14135 0.21355 -0.016376 -0.029235 0.108 -0.059542 0.050331 -0.042618 -0.02086 0.020895 -0.070574 0.013901 -0.013159 0.10441 0.089266 -0.043299 -0.23667 -0.12569 0.1603 -0.21969 -0.084357 0.084 0.27425 -0.10033 -0.053434 -0.10317 -0.19762 0.22391 0.041414 -0.049988 -0.21274 -0.28064 -0.13925 -0.09322 0.095702 0.24506 -0.091671 -0.088278 0.018307 -0.08744 -0.12285 -0.0076377 -0.075925 
straw -0.11529 -0.17256 0.093973 0.092596 0.065584 -0.32546 0.35738 -0.1333 0.052978 0.37907 0.22658 -0.13856 -0.082882 0.10567 -0.3601 -0.40343 0.25475 -0.21451 -0.19379 0.3002 0.38888 -0.077128 -0.022163 -0.14873 -0.12582 -0.082911 -0.15592 -0.14975 -0.10355 0.16301 0.10724 -0.18872 0.20801 -0.1406 -0.058172 0.35451 -0.073973 0.032214 -0.26056 -0.34787 0.045062 -0.19774 -0.096602 0.36313 0.60705 -0.21205 0.16443 0.23007 -0.66699 -0.010333 -0.17816 -0.32952 0.1192 -0.015229 0.048601 0.23777 -0.23363 0.10258 0.27111 -0.12336 -0.033813 0.2168 -0.10892 0.087125 0.010472 0.049897 0.04745 0.18401 0.19601 -0.0011671 -0.014127 0.27316 -0.30836 -0.45608 -0.17817 0.21711 -0.29834 0.061965 0.15042 0.28928 -0.15616 -0.074839 -0.14404 -0.34734 0.34707 0.22918 -0.13303 -0.24105 -0.51267 -0.29155 -0.10111 0.1617 0.46514 -0.018269 0.032173 -0.14221 -0.24191 -0.11106 0.15781 -0.023328 
sell -0.26846 -0.065019 0.021193 -0.069692 0.14354 0.067749 0.051968 -0.13636 0.025383 0.021901 0.071691 0.08011 -0.18223 -0.32438 0.28713 -0.22667 0.11808 0.11627 -0.065641 0.36879 0.18362 -0.01939 -0.43249 -0.4924 -0.22118 0.053387 0.15318 -0.45044 0.11404 0.029811 -0.2998 -0.22282 0.0062355 -0.039896 -0.061998 0.15659 -0.18409 -0.068994 -0.07686 -0.038458 0.007189 0.14793 0.052896 0.23823 0.62743 -0.49395 -0.099385 0.072343 0.1573 -0.16152 0.15758 0.050612 0.07777 -0.015768 0.21878 0.038833 -0.13246 0.20098 0.14745 0.07034 -0.021429 0.027981 -0.042834 0.018517 -0.079289 -0.086416 0.01384 -0.33463 -0.17215 -0.04519 0.2408 -0.07609 0.21024 -0.047849 -0.0988 0.098662 -0.22283 -0.25697 0.047627 0.27279 -0.060825 -0.078399 -0.077892 -0.12371 0.14653 -0.12707 -0.022303 -0.2027 -0.059549 -0.044486 -0.13074 0.063889 0.087759 -0.23409 -0.26971 0.18728 -0.014161 -0.13771 -0.18029 -0.12291 
drinkabl -0.21413 -0.1025 0.053521 -0.014363 0.11867 -0.067143 0.15663 -0.12323 0.018822 0.15085 0.10368 0.0030372 -0.14162 -0.16298 0.059607 -0.28339 0.14896 -0.0062444 -0.097268 0.32803 0.24014 -0.038622 -0.27085 -0.34029 -0.1879 0.0019227 0.026581 -0.33129 0.030577 0.076198 -0.15385 -0.18933 0.064087 -0.072939 -0.057869 0.20496 -0.1238 -0.029203 -0.13628 -0.13309 0.022803 0.025822 0.0065804 0.27264 0.575 -0.36742 0.003883 0.12061 -0.10904 -0.104 0.047716 -0.069522 0.083723 -0.011697 0.14324 0.080532 -0.13854 0.16608 0.19482 0.010137 -0.026263 0.084865 -0.058432 0.047178 -0.054041 -0.037157 0.025498 -0.15403 -0.040364 -0.025194 0.14669 0.048189 0.019456 -0.19141 -0.11426 0.14005 -0.2206 -0.12412 0.075841 0.28459 -0.089176 -0.063075 -0.099918 -0.18356 0.20702 -0.0013784 -0.042179 -0.21025 -0.23107 -0.11498 -0.10498 0.093832 0.19834 -0.12741 -0.128 0.067631 -0.071603 -0.13885 -0.061918 -0.088656 
doesn -0.23964 -0.096706 0.052755 -0.032018 0.12856 -0.0012393 0.11411 -0.11664 0.011616 0.10603 0.07549 0.029812 -0.15232 -0.22586 0.15819 -0.26452 0.13762 0.029568 -0.080088 0.34506 0.21346 -0.019917 -0.32611 -0.3948 -0.19691 0.01872 0.070196 -0.36447 0.067891 0.060194 -0.20353 -0.18214 0.043294 -0.054776 -0.05666 0.18327 -0.13888 -0.033753 -0.1075 -0.088957 0.011914 0.075775 0.029542 0.25133 0.58459 -0.4242 -0.035897 0.1011 0.00035236 -0.12704 0.098776 -0.023504 0.070643 -0.011411 0.16359 0.0572 -0.13335 0.1772 0.17241 0.036938 -0.026736 0.059263 -0.044197 0.029261 -0.061898 -0.060725 0.012452 -0.21568 -0.089416 -0.030549 0.1788 -0.00020803 0.088968 -0.14348 -0.095155 0.12381 -0.22477 -0.17288 0.06471 0.27156 -0.076463 -0.057976 -0.084272 -0.14803 0.17396 -0.047343 -0.02976 -0.19636 -0.16021 -0.096776 -0.11105 0.062246 0.16001 -0.16865 -0.17477 0.10631 -0.034243 -0.1476 -0.10135 -0.10187 
alcohol -0.18047 -0.12527 0.059776 0.013602 0.10425 -0.12304 0.19258 -0.11974 0.024812 0.18196 0.12785 -0.023691 -0.12716 -0.1039 -0.028164 -0.29646 0.16467 -0.055397 -0.11191 0.30634 0.25651 -0.040974 -0.20043 -0.28273 -0.16089 -0.012619 -0.014387 -0.27884 0.0079669 0.093484 -0.089793 -0.17996 0.090907 -0.080686 -0.053786 0.23115 -0.10356 -0.020814 -0.15329 -0.17488 0.021908 -0.021019 -0.019798 0.28167 0.55553 -0.32445 0.031682 0.13749 -0.21898 -0.070872 0.0016986 -0.12293 0.085454 -0.014006 0.11712 0.10276 -0.15619 0.14423 0.20206 -0.020627 -0.024084 0.10427 -0.066125 0.057291 -0.03414 -0.019259 0.022587 -0.072272 0.014573 -0.013608 0.10331 0.093964 -0.045337 -0.23112 -0.11476 0.14961 -0.22104 -0.076652 0.082408 0.26653 -0.10081 -0.064298 -0.10927 -0.20797 0.22299 0.05498 -0.058528 -0.20485 -0.27927 -0.14125 -0.093757 0.10015 0.24761 -0.098721 -0.090105 0.018531 -0.10193 -0.12588 -0.0099433 -0.074554 
clean -0.14529 -0.16869 0.091345 0.065484 0.071718 -0.26144 0.30729 -0.13154 0.042384 0.33188 0.18452 -0.099442 -0.10783 0.038359 -0.25611 -0.36903 0.21822 -0.1716 -0.16775 0.2944 0.34374 -0.070545 -0.077888 -0.17853 -0.14195 -0.060861 -0.10905 -0.20022 -0.072876 0.13583 0.044074 -0.18442 0.16445 -0.12121 -0.059327 0.31169 -0.077836 0.022128 -0.22362 -0.28313 0.034485 -0.1449 -0.070581 0.33985 0.57877 -0.24369 0.12195 0.20294 -0.51481 -0.02266 -0.11214 -0.25864 0.10032 -0.017122 0.075354 0.19092 -0.19411 0.11204 0.23957 -0.088449 -0.026552 0.17119 -0.085845 0.080853 -0.0043612 0.036229 0.04041 0.098668 0.13251 0.0031737 0.022138 0.21108 -0.2258 -0.39094 -0.16429 0.19914 -0.25991 0.028877 0.12328 0.28855 -0.14866 -0.071106 -0.12431 -0.29277 0.30463 0.17186 -0.1022 -0.2248 -0.4406 -0.23777 -0.091895 0.14194 0.38623 -0.026108 0.01529 -0.088674 -0.1803 -0.12809 0.10802 -0.053411 
