1759 100
beer 0.435338 0.062429 0.096656 0.042577 -0.189218 -0.162649 -0.244294 -0.571114 -0.182590 0.555903 0.048501 -0.950562 0.369021 0.006961 -0.274257 0.003918 0.019772 0.494882 0.094753 -0.000175 -0.159478 -0.065682 0.129525 0.585672 0.036204 -0.134066 0.066256 0.564314 0.576194 0.143559 -0.934900 0.989766 -0.154900 -0.241778 -0.646521 -0.306513 -0.326608 0.405913 0.163768 -0.076164 -0.912377 -0.584614 -0.693925 0.417762 0.478087 -0.119389 -0.040943 0.899962 0.161757 0.031119 0.352917 -0.485854 0.495444 -0.603469 0.246929 0.576271 -0.453125 0.717300 -0.191335 0.724403 0.366176 0.204089 0.194060 0.731661 -0.947796 0.093656 0.408142 -0.080433 0.131238 0.270045 -0.034416 -0.024631 0.059860 -0.003175 -1.281678 -0.432619 -0.493262 0.451860 0.048505 -0.456106 -0.063657 0.500139 0.303447 0.434659 -0.585044 0.372124 0.364961 0.515102 0.305924 0.183304 -0.607374 -0.152798 0.247429 -0.725706 -0.658877 0.218223 -0.841869 0.110907 -0.074046 0.527114
dark 0.397487 0.265832 -0.578045 0.090934 -0.315501 0.096960 0.175460 0.301626 -0.636194 0.600996 0.195199 0.165995 -0.375369 -0.332808 0.302340 -0.225050 -0.278334 0.535760 0.465040 -0.148506 -0.258347 0.227905 0.392134 0.939791 -0.470643 -0.049208 -0.415224 0.365815 0.593891 0.194137 -0.228939 0.376843 -0.086373 -0.322508 -0.122891 -0.598652 -0.178401 -0.090735 0.018850 0.593792 -0.801081 -0.116626 -0.757558 -0.016833 0.980189 -1.135897 -0.653624 0.017887 0.185821 0.243167 0.504108 -0.159361 -0.331177 -0.508235 -0.804283 0.006486 0.517815 0.218210 0.234012 0.019485 -0.564882 0.375019 0.744847 0.752807 -1.056721 -0.048045 0.360999 -0.165354 0.210091 0.620373 0.258225 0.332646 0.260232 0.215489 -0.330467 -0.129554 0.543034 0.653521 -0.183855 0.039699 -0.060540 0.192630 0.508864 0.900558 0.332012 0.056444 -0.388942 -0.577211 0.667116 -0.571141 -0.215517 -0.631576 -0.089245 -0.770243 -0.840098 -0.016411 0.586777 0.747996 0.449059 0.172035
alcohol 0.552330 0.775446 -0.140700 0.553166 -0.124130 0.057601 0.150214 -0.055299 0.220993 0.001320 0.186539 -0.057969 0.423733 0.078827 0.411917 -0.581016 -0.833886 0.248222 0.340318 -0.057444 0.139166 -0.068911 0.048482 0.461797 -0.187401 0.242896 0.395436 0.258601 0.444124 0.171769 -0.121736 1.078133 0.313842 -0.113960 -0.765675 -0.365678 -0.496262 0.426488 -0.002574 -0.525606 -0.606241 -0.753452 -0.581662 0.149184 1.072020 -0.266964 -0.133385 0.921746 0.737099 0.120091 0.226290 0.230036 0.041377 -0.087507 0.391082 -0.184428 -0.564429 -0.098002 -0.349425 0.809718 -0.112207 0.681799 1.594391 0.893855 -0.498492 0.065155 0.214221 0.052616 -0.129648 0.677295 0.035796 0.141579 0.248594 0.375371 -0.144196 -0.172144 0.565847 0.132667 -0.509889 0.116296 0.218802 0.397515 0.029399 0.732796 0.300987 0.320766 0.024635 0.025122 0.115069 0.327053 -0.822874 -0.708941 0.023601 0.049037 0.705106 0.257742 -0.332523 0.667202 -0.114489 0.090036
brown 0.581048 0.307218 -0.397639 -0.328945 -0.201096 0.148472 0.180485 0.192274 -0.683121 0.679980 0.253043 0.034438 -0.523858 -0.636827 0.267152 -0.227513 -0.072238 0.272034 0.227089 -0.461907 -0.316352 -0.006074 0.800561 0.576973 -0.600924 -0.124199 -0.645024 0.116728 0.217315 0.378487 -0.413339 -0.203038 -0.495574 -0.700066 0.349007 -0.930711 -0.290860 -0.393531 -0.201732 1.044811 -0.504041 0.365597 -0.694077 -0.007863 1.081014 -1.076475 -0.504118 0.076549 0.309284 -0.149088 0.393445 0.032310 -0.441788 -0.794013 -0.664343 -0.122205 0.716378 0.142854 0.230555 0.014857 -0.321379 0.080386 0.559095 0.788209 -0.998914 -0.207330 0.146351 -0.170685 0.194470 0.532335 0.590435 0.615535 0.512332 0.240677 -0.593794 -0.332483 0.339819 0.727692 -0.424619 0.079660 0.355867 0.452987 0.516168 0.716539 0.312592 -0.107182 -0.452665 -0.733402 0.353412 -0.606119 -0.037489 -0.676671 -0.442383 -0.729012 -0.863785 -0.020002 0.276699 0.505772 0.558097 -0.186475
head 0.539705 -0.143405 -0.512415 -0.174342 0.575455 0.374048 0.513349 -0.424328 -0.408341 0.634225 -0.257695 0.025729 -0.037798 -0.106675 0.524790 -0.764481 -0.096071 0.621762 -0.273959 -0.262906 -0.463529 0.293221 0.079223 0.765674 -0.382199 0.468414 -0.576545 0.331945 0.252086 0.605551 -0.460098 -0.018174 -0.608024 -0.840783 -0.165714 -0.701430 0.272658 -0.391510 0.119460 0.570909 0.222558 0.203871 -0.448207 -0.110247 0.957969 -0.183920 -0.309810 -0.143405 0.870337 0.124169 0.518869 0.154533 -0.355235 -0.318576 -0.334171 -0.077346 1.100722 -0.029694 0.435829 0.107405 0.231675 0.184813 0.682400 0.288810 -1.415915 -0.791883 0.523464 0.162545 0.128526 0.475332 0.791661 0.976759 0.567694 -0.279868 -0.267926 -0.540226 0.697944 0.133151 -0.836423 -0.043244 -0.348851 0.940147 -0.247523 0.391122 0.315857 -0.223474 -0.621532 -0.761012 0.095180 -0.440106 0.429174 -0.335556 0.025754 -0.299015 -0.566207 0.214877 -0.078888 0.004406 0.251593 0.040579
tast 0.426254 0.353888 -0.218711 0.453806 -0.366734 -0.051811 0.105391 -0.245005 -0.192999 0.025584 0.150721 -0.052313 -0.019473 -0.010676 0.058660 -0.289407 -0.271961 0.188206 0.443269 0.010932 -0.239978 0.279605 0.089537 0.525602 -0.182566 0.059344 0.070618 0.534971 0.429630 -0.043335 -0.216399 1.092116 0.264251 -0.226219 -0.468605 -0.387024 -0.169861 0.365514 0.291186 -0.179074 -0.534538 -0.521933 -0.501183 -0.028842 0.459015 -0.261976 -0.451114 0.478548 0.316291 0.201867 0.282143 -0.074642 0.474807 -0.031255 0.061815 0.298408 -0.090089 0.279840 0.213992 0.646773 -0.535419 0.456610 1.298845 0.587302 -0.803000 -0.033628 0.257929 -0.253449 -0.197914 0.164654 0.305578 0.255123 0.351739 0.074472 -0.458071 -0.225901 0.474315 0.049054 -0.151866 -0.259835 -0.052150 0.599203 0.061715 0.759411 -0.221332 0.176402 -0.130122 -0.197815 0.343701 0.004437 -0.212149 -0.500024 0.136219 -0.438245 0.020283 -0.030278 -0.493899 0.475680 0.204199 0.372027
aroma 0.321243 0.313856 -0.677655 0.077282 0.010683 0.160505 0.208285 0.081682 -0.085525 0.280365 -0.131814 0.226751 -0.271075 -0.101136 0.292868 -0.555095 -0.127859 0.372382 0.410533 -0.067661 -0.257349 0.444035 0.006954 0.868156 -0.263169 0.119245 -0.123298 0.582561 0.649128 0.155524 -0.217096 0.808892 0.058871 -0.332147 -0.195998 -0.531422 0.099247 -0.054276 0.509579 0.161207 -0.381945 -0.328142 -0.628293 -0.240509 0.790114 -0.444134 -0.324560 -0.073454 0.361673 0.310301 0.383802 0.064472 0.141961 -0.000588 -0.294953 -0.048152 0.465623 0.312221 0.209977 0.403572 -0.542138 0.380348 1.152149 0.270355 -1.168157 -0.280562 0.157919 -0.303064 0.026983 0.077163 0.448367 0.353873 0.381886 0.067952 -0.251340 -0.278752 0.743052 0.105207 -0.201219 -0.182275 -0.169479 0.817480 -0.090266 0.715089 0.108302 0.119216 -0.414025 -0.532254 0.297397 -0.450245 0.158624 -0.306266 0.164089 -0.507450 -0.221709 -0.227923 -0.011229 0.403311 0.277866 0.542341
sweet 0.475498 0.230716 -0.181620 0.331737 -0.178856 0.006451 0.136878 0.051900 -0.174869 0.007150 0.136967 0.249199 -0.155683 -0.010814 0.283007 -0.240650 -0.614686 0.123787 0.678480 -0.230463 -0.033926 0.459514 -0.019243 0.767232 -0.264659 0.289738 -0.131506 0.464651 0.613005 -0.135517 -0.097336 1.134990 0.227279 -0.448430 -0.540192 -0.375732 0.017740 0.210275 0.324101 -0.093323 -0.435392 -0.231671 -0.233876 -0.105008 0.361630 -0.400820 -0.416074 0.102746 0.568213 0.371356 0.419328 0.351088 0.263959 0.022429 0.067019 0.055014 0.170862 0.352678 -0.023190 0.318197 -0.734432 0.846297 1.508401 0.721066 -0.651758 -0.130501 0.360202 -0.143574 -0.419340 0.485010 0.205776 0.419849 0.487356 0.283616 -0.172654 0.127104 0.681521 -0.236074 -0.203873 -0.035876 -0.080871 0.465637 0.171143 0.895723 0.051412 -0.043213 -0.310626 -0.475239 0.148207 0.012345 -0.200665 -0.663987 0.206458 -0.034377 0.385237 0.196787 -0.324170 0.684677 0.245501 0.450375
fruit 0.281809 0.344648 -0.574026 0.309186 -0.561733 -0.315984 -0.024981 0.473418 -0.015079 -0.215533 0.053632 0.679526 -0.453465 0.049148 -0.025128 -0.306268 -0.154411 0.329848 0.278613 -0.082208 0.103081 0.397228 0.017124 0.760617 -0.003460 0.271996 -0.068961 0.454418 0.469368 -0.025910 -0.203436 0.843573 0.034595 -0.208429 -0.226958 -0.186328 -0.162984 0.003928 0.177258 0.124070 -0.692094 -0.693836 -0.339111 -0.261945 0.712788 -0.608203 -0.420415 0.085737 0.222233 0.566966 0.503374 0.044893 0.387142 0.034928 -0.226620 0.222610 0.375512 -0.190749 0.413235 0.443088 -0.899699 0.709661 1.567385 0.544843 -0.934928 0.125419 0.215796 -0.399126 -0.006335 0.337772 0.401917 0.412601 0.119188 0.234696 0.297418 -0.015699 0.665105 0.194877 -0.147205 -0.100522 -0.134779 0.339022 0.187737 0.816699 -0.006538 0.062894 -0.039329 -0.638633 0.341269 -0.574037 -0.262954 -0.751190 -0.224442 -0.446666 0.254224 -0.214901 0.336900 0.636478 0.121508 0.506597
flavor 0.362124 0.362103 -0.210925 0.300078 -0.284750 -0.109397 0.046024 -0.002672 0.014125 -0.038269 0.081979 0.077351 -0.109752 0.058219 0.161816 -0.296545 -0.355507 0.276468 0.538882 -0.023828 -0.046878 0.309148 -0.022983 0.680562 0.004088 0.213481 0.142805 0.432392 0.611790 -0.097628 -0.169997 1.091057 0.350783 -0.271021 -0.358482 -0.280750 -0.117398 0.200807 0.306614 -0.307373 -0.584579 -0.527357 -0.457391 -0.128045 0.372552 -0.268860 -0.447035 0.216663 0.282403 0.387931 0.318366 0.039964 0.321998 0.049627 0.172688 0.072030 -0.177252 0.270939 0.065307 0.552237 -0.602979 0.639058 1.257605 0.546886 -0.897209 0.166534 0.209921 -0.233016 -0.210146 0.100814 0.190446 0.232075 0.375550 0.325642 -0.311716 -0.154859 0.416995 0.163847 -0.084033 -0.309864 -0.141933 0.440452 0.224700 0.614543 -0.218135 0.186317 0.006076 -0.258337 0.154375 -0.088336 -0.331188 -0.559794 0.043959 -0.303029 0.095926 -0.007508 -0.204648 0.665609 0.132229 0.575776
bottl 0.390953 0.097122 -0.540665 0.074660 -0.250612 -0.090361 -0.179120 -0.134830 -0.754599 0.931672 0.352904 -0.533536 0.280526 -0.657122 0.592406 -0.287945 -0.429163 0.167133 0.144894 0.311077 -0.578343 -0.071006 0.650397 0.183778 -0.996039 -0.616946 -0.366880 0.260868 0.163619 -0.196707 -0.291639 -0.042430 -0.060321 0.236338 0.325165 -0.706730 -0.104310 -0.047417 0.334761 0.645234 -0.636415 0.367261 -0.761154 0.512345 0.833425 -0.333051 0.175109 0.268877 0.079472 -0.593427 0.003883 -0.149942 -0.560144 -0.448269 -0.909107 0.005876 0.282453 0.471635 0.028994 0.405468 -0.180667 -0.859185 -0.469539 0.147211 0.082584 -0.433371 -0.149110 -0.144994 0.240846 0.387613 0.180644 0.068929 -0.087931 0.107750 -1.091811 -0.233723 0.130669 0.495300 0.407757 0.133704 0.097360 0.368266 0.285004 0.424522 -0.087172 -0.015521 0.315849 -0.425050 0.895946 -0.126044 0.178919 -0.123668 0.749975 -1.029034 -0.849618 -0.856893 -0.230798 -0.162709 0.613029 -0.055147
pour 0.222156 -0.045425 -0.433871 -0.004445 -0.153543 0.331191 0.054884 0.011531 -0.908779 1.023895 0.179858 -0.269702 0.276313 -0.584724 0.342309 -0.387154 -0.130350 0.253972 0.084549 0.229276 -0.787587 -0.011586 0.806757 0.474361 -0.718341 -0.413622 -0.396339 0.100923 0.186163 -0.004921 -0.210495 -0.143952 -0.082843 -0.294852 0.404858 -0.591028 -0.312935 -0.337792 0.038959 0.488415 -0.568242 0.476761 -0.770959 0.254027 0.842916 -0.678284 -0.386452 0.121308 0.304223 -0.397295 0.105304 -0.014181 -0.753592 -0.589785 -1.163572 0.011202 0.295819 0.473293 0.140419 -0.138294 -0.134231 -0.456177 -0.050189 0.187011 -0.479689 -0.190372 -0.190350 -0.190202 0.429626 0.378552 0.358543 0.236679 0.262068 0.124526 -0.963242 -0.130718 0.463522 0.703538 0.095800 0.056566 -0.025706 0.256027 0.324845 0.169828 0.113259 0.204510 -0.077044 -0.351090 0.692305 -0.333235 0.235369 -0.301470 0.173932 -0.930532 -1.042720 -0.444300 0.383185 0.141933 0.729264 -0.426828
raisin 0.347730 0.305577 -0.514039 0.280565 -0.466559 -0.058774 0.145559 0.280650 -0.173169 -0.201752 0.009877 0.451971 -0.586389 -0.279511 0.074870 -0.337228 -0.274363 0.043700 0.569514 -0.209484 -0.173599 0.440305 0.435018 0.593147 -0.151487 0.155461 0.128229 0.407037 0.263629 0.037248 0.046055 0.846159 0.007662 -0.393459 0.060525 -0.422784 -0.346483 0.120443 0.352611 0.172173 -0.256896 -0.702268 -0.611463 -0.583451 0.767157 -0.694335 -0.321622 0.055285 -0.204908 0.250365 -0.001940 -0.147249 0.364211 0.244210 -0.239878 -0.080980 0.171572 -0.140271 0.142275 0.491247 -1.341460 0.502552 1.776025 0.390137 -0.871355 0.247261 0.017675 -0.235789 -0.253615 -0.180355 0.547924 0.321262 0.486050 0.037653 0.024229 -0.074951 0.821798 -0.033812 -0.033939 -0.055279 -0.106378 0.843357 -0.214409 0.807163 0.100879 0.239820 -0.360850 -0.396615 0.498026 -0.517687 -0.304323 -0.603063 -0.312876 -0.285123 0.238333 -0.252424 0.008818 0.496015 0.307846 0.172315
malt 0.410822 0.495940 -0.303263 0.248713 -0.361550 0.061203 0.073843 0.366335 0.121016 -0.227678 -0.035946 0.586452 -0.246235 -0.025493 0.095041 -0.378704 -0.221374 0.057462 0.697097 -0.262683 0.063454 0.552488 0.098525 0.624019 -0.091078 0.075619 0.091974 0.589592 0.561205 0.020741 0.170893 0.838870 0.187508 -0.086520 -0.359734 -0.460960 0.086314 -0.040341 0.150075 0.034028 -0.646580 -0.326770 -0.320575 -0.162137 0.613571 -0.714268 -0.502875 -0.100619 0.200485 0.411534 0.563904 0.308270 0.376382 0.203162 -0.128868 -0.062999 0.203137 0.087273 0.063185 0.342577 -0.773848 0.690187 1.401467 0.588128 -0.703596 0.049174 0.206005 -0.136229 -0.219353 0.085431 0.220151 0.149144 0.415968 0.128694 0.070338 -0.047679 0.855011 -0.086637 -0.046906 -0.050789 0.082137 0.613198 0.210457 0.784617 0.210031 0.000122 -0.328433 -0.425620 0.278513 -0.339191 -0.236615 -0.692099 -0.325097 -0.109830 0.353338 -0.198681 -0.014636 0.988289 0.219674 0.556469
complex 0.404465 0.240732 -0.201141 0.197443 -0.055385 -0.110518 0.101694 -0.220176 -0.002191 0.119787 0.018362 -0.134215 -0.006866 0.229815 0.218472 -0.355477 -0.216677 0.470821 0.395926 0.121157 -0.058672 0.294544 -0.240928 0.744042 -0.051298 0.209275 0.078968 0.489857 0.722765 -0.049759 -0.329543 1.161907 0.334077 -0.297116 -0.388192 -0.216285 0.038882 0.249650 0.452265 -0.287561 -0.469893 -0.565733 -0.572432 0.007498 0.133705 -0.096517 -0.332019 0.145361 0.206371 0.476668 0.319378 -0.144645 0.353109 0.050347 0.203270 0.172371 0.009008 0.388586 0.185685 0.555448 -0.385726 0.633045 0.932942 0.422533 -1.035255 0.071840 0.281815 -0.376997 -0.097022 0.134418 0.119470 0.276689 0.365377 0.208105 -0.465193 -0.314796 0.273831 0.209427 -0.086421 -0.367976 -0.171791 0.492998 0.151523 0.534924 -0.242582 0.228312 0.027032 -0.208240 0.147359 -0.105237 -0.073851 -0.307443 0.353063 -0.387615 -0.190001 -0.025407 -0.343382 0.493533 0.071231 0.769733
caramel 0.414822 0.388265 -0.397566 0.209035 -0.403548 -0.023716 0.201178 0.354838 -0.154659 -0.168196 0.008544 0.502806 -0.400098 -0.187950 0.048136 -0.280542 -0.197975 0.020764 0.596529 -0.284551 -0.017455 0.446061 0.254647 0.536163 -0.249817 0.011016 -0.027109 0.443748 0.350649 0.052981 0.150160 0.719339 -0.022718 -0.154671 -0.173812 -0.456162 -0.119150 -0.076537 0.099480 0.325027 -0.495621 -0.257643 -0.403702 -0.176400 0.702918 -0.819743 -0.423143 -0.123791 -0.028023 0.236729 0.385644 0.187668 0.262924 0.142626 -0.253804 -0.033351 0.411998 -0.120742 0.124060 0.312103 -0.897625 0.550387 1.395594 0.594788 -0.684720 0.026744 0.067631 -0.223581 -0.173603 0.096102 0.335277 0.200877 0.358587 -0.036050 0.011025 -0.041694 0.790669 -0.027984 -0.085198 -0.040228 0.104530 0.580574 0.169399 0.861609 0.290730 0.085396 -0.378955 -0.443497 0.426054 -0.382887 -0.202960 -0.682284 -0.338137 -0.234670 0.266948 -0.275576 0.054142 0.870523 0.231640 0.368316
not 0.347587 0.177180 0.356075 0.533509 -0.063619 -0.060547 0.176668 -0.546379 -0.048146 0.421105 0.466477 -0.387303 0.373821 0.334248 0.307468 -0.064891 -0.283119 0.347854 -0.037439 0.545425 -0.083740 -0.128326 -0.233044 0.474479 -0.447980 0.070277 0.036744 0.211094 0.362897 0.051311 -0.582723 1.193115 0.517975 -0.248703 -0.587059 -0.195046 -0.412508 0.259989 0.187335 -0.336797 -0.353573 -0.122676 -0.151137 0.316304 0.053801 0.319817 -0.337426 0.614747 0.433841 0.167012 0.131927 0.102708 0.432992 -0.287737 0.465465 0.512814 -0.017997 0.373203 -0.004552 0.485586 -0.014917 0.308344 0.787178 0.342419 -0.251505 -0.161952 0.331230 -0.369952 -0.295048 0.706484 0.069575 0.327546 0.419180 0.236468 -0.999554 -0.209644 0.136162 0.192540 -0.292102 0.030841 -0.161799 0.524418 0.081535 0.495011 -0.476346 0.343751 0.486062 0.008168 0.173402 0.418232 -0.050901 -0.501875 0.231471 -0.415428 0.021293 0.020334 -0.712597 -0.070691 -0.004446 0.462071
finish 0.636279 0.105847 0.103950 0.324984 -0.155729 -0.489609 0.064221 -0.214532 -0.158172 -0.212809 0.323604 -0.214463 0.140364 0.117752 0.360944 -0.032829 -0.859890 -0.173245 0.595765 -0.352218 -0.026759 0.242082 0.089806 0.262895 0.014770 0.444347 -0.235025 0.185326 0.381763 -0.244695 -0.243018 0.979335 -0.029944 -0.421904 -0.587723 -0.132723 -0.055628 0.514805 -0.265412 -0.267797 -0.358593 -0.204388 -0.094273 0.251170 -0.074840 -0.173327 -0.343727 0.265489 0.702082 0.489409 0.322549 0.297526 0.027937 -0.103355 0.504171 0.022783 -0.126008 0.181750 -0.174088 0.341903 -0.225315 0.882020 0.842946 0.813783 -0.329149 0.107543 0.383214 0.034978 -0.737569 0.751456 0.086914 0.404916 0.178847 0.418217 -0.220206 0.208223 0.140253 -0.181741 -0.219025 0.001431 -0.152569 -0.068109 0.272993 0.718274 -0.087830 0.087039 -0.075554 -0.139082 -0.087269 0.293581 -0.778426 -0.731507 0.319379 0.409913 0.729694 0.585230 -0.538336 0.609239 -0.087637 0.292361
plum 0.329799 0.268004 -0.513376 0.226443 -0.440110 -0.053774 0.136379 0.284285 -0.194439 -0.183389 -0.012027 0.435172 -0.604915 -0.259889 0.076274 -0.274354 -0.216023 0.120806 0.523094 -0.195434 -0.161167 0.399926 0.429905 0.633975 -0.115745 0.214696 0.108814 0.388851 0.276506 0.098762 -0.004427 0.768410 -0.051297 -0.450342 0.106005 -0.396373 -0.302336 0.112669 0.343450 0.196581 -0.209138 -0.695511 -0.617614 -0.631803 0.730412 -0.676009 -0.331266 0.031657 -0.205951 0.293802 -0.000535 -0.211737 0.328666 0.222082 -0.247151 -0.082270 0.210224 -0.155279 0.182118 0.450502 -1.266027 0.511037 1.674475 0.350708 -0.944098 0.244597 0.052036 -0.250038 -0.205471 -0.179099 0.544806 0.382909 0.451748 0.015456 0.048196 -0.110594 0.748726 -0.010168 -0.042674 -0.074820 -0.148076 0.822673 -0.249323 0.737911 0.083076 0.243472 -0.373383 -0.401347 0.458138 -0.598710 -0.256649 -0.575323 -0.317507 -0.286022 0.132333 -0.192357 0.060481 0.396085 0.276566 0.134282
on 0.294321 0.193163 0.080846 0.499912 -0.253538 -0.248024 -0.228150 -0.763133 -0.310921 0.112588 0.442893 -0.595831 0.354083 0.123682 0.138355 -0.127617 -0.206217 0.394902 -0.036853 0.528460 -0.370256 0.052369 0.155327 0.238651 -0.164658 -0.089303 -0.007085 0.310251 0.447219 0.166281 -0.564013 0.569412 0.134487 0.128436 -0.328525 -0.438169 -0.357461 0.515114 0.061110 -0.167772 -0.451012 -0.188713 -0.409240 0.726668 -0.028836 0.148967 -0.230957 0.585515 0.299526 0.063958 0.156503 -0.293718 0.324108 -0.450728 0.042477 0.712120 0.002024 0.174081 0.286547 0.786688 0.296970 0.007446 -0.175863 0.298529 -0.358670 -0.039967 0.249450 -0.241177 -0.093802 0.266986 -0.049427 0.122267 0.291803 -0.169323 -1.186853 -0.528010 -0.288020 0.332768 0.047642 -0.013658 -0.012457 0.530737 0.408198 0.330913 -0.768636 0.321146 0.384981 0.344511 0.436417 -0.062878 -0.183483 -0.210927 0.445962 -0.798824 -0.712977 -0.312462 -0.897096 -0.113975 0.126643 0.272910
s 0.190061 0.270759 0.007095 0.426232 -0.438676 -0.268990 0.208969 -0.346423 -0.333453 -0.049498 0.500639 -0.317961 0.272658 0.259676 0.087621 -0.351564 0.152593 0.267422 -0.243419 0.461434 -0.115735 -0.194542 0.024359 0.226617 -0.499843 -0.098907 0.160904 0.176096 0.221201 -0.160842 -0.243271 0.745938 -0.006294 0.021197 -0.101053 0.047641 -0.672327 -0.109130 0.237809 -0.229158 -0.389801 -0.085269 -0.503647 0.629076 0.116239 0.123168 -0.245114 0.382563 -0.040503 0.114917 -0.096588 0.001974 0.286478 0.103586 0.251680 0.451680 0.238587 0.040747 0.170053 0.653322 -0.389789 0.016661 0.550352 0.111963 -0.189733 0.217848 -0.193608 -0.746196 0.208772 0.189010 0.287147 -0.098265 0.119235 0.001240 -0.779357 -0.291750 0.206473 0.508046 -0.147431 -0.129660 0.149159 0.296740 -0.076460 0.397653 -0.098102 0.610290 0.754393 0.023145 0.390730 0.177374 -0.008232 -0.526801 0.324080 -0.732232 0.191974 -0.603531 -0.377499 0.177802 0.190222 0.146579
nice 0.502599 0.031800 -0.122785 0.103967 0.009230 -0.024238 0.280155 -0.195513 -0.457986 0.417071 0.078372 -0.302228 0.136303 -0.040544 0.457498 -0.288198 -0.517859 0.334273 0.351647 -0.176578 -0.206531 0.027249 0.196335 0.653748 -0.267584 0.235450 -0.211241 0.174721 0.484254 0.108252 -0.362252 0.600110 -0.266530 -0.501074 -0.323828 -0.380107 -0.149210 0.139020 0.086712 0.163426 -0.234298 0.030073 -0.549534 0.116763 0.491295 -0.320132 -0.442216 0.228643 0.515416 0.173611 0.252366 0.026437 -0.262960 -0.337098 0.032022 -0.038407 0.265568 0.205482 0.032223 0.272433 -0.085485 0.599690 0.708550 0.642692 -0.812324 -0.068877 0.266130 -0.099062 -0.105150 0.637801 0.210345 0.432228 0.358216 0.142797 -0.574595 -0.170082 0.237685 0.244451 -0.303261 0.012339 -0.114463 0.309558 0.161701 0.590265 0.067368 0.155667 -0.159582 -0.196341 0.169475 0.021217 -0.307680 -0.551324 0.173781 -0.223521 -0.197407 0.283591 -0.160641 0.431646 0.081554 0.153002
color 0.455492 0.129426 -0.263636 -0.366663 -0.007764 0.117086 0.187707 0.043818 -0.582263 0.632275 -0.038720 0.006922 -0.203539 -0.428649 0.039697 -0.171771 0.197102 0.322396 0.078088 -0.262796 -0.424051 -0.079628 0.728146 0.553113 -0.387656 -0.032477 -0.491813 -0.004342 0.077594 0.444748 -0.460363 -0.216164 -0.518093 -0.845299 0.349698 -0.756721 -0.189556 -0.445368 -0.232236 0.801057 -0.211658 0.557395 -0.461351 -0.131277 0.822013 -0.762515 -0.466465 0.057831 0.444004 -0.179698 0.396102 0.146401 -0.374199 -0.674536 -0.499404 0.031704 0.709847 0.070311 0.302288 -0.027177 0.093427 -0.017809 0.359606 0.399717 -1.007544 -0.345799 0.000550 -0.237181 0.122173 0.379772 0.614964 0.792183 0.362681 0.093324 -0.634497 -0.308457 0.201473 0.477175 -0.300078 -0.058234 0.106335 0.574968 0.240513 0.327760 0.148368 -0.058975 -0.444624 -0.378983 0.091591 -0.545411 0.092831 -0.513236 -0.520522 -0.542626 -0.786902 0.040500 0.221521 0.160328 0.320620 -0.228707
chocol 0.437680 0.387252 -0.285222 0.327476 -0.393001 -0.063183 0.130150 0.244357 -0.304780 -0.274859 0.162814 0.352549 -0.444855 -0.243375 0.093912 -0.173516 -0.262430 0.091698 0.683106 -0.342217 -0.041833 0.328516 0.377874 0.499715 -0.135756 0.118765 -0.043366 0.362619 0.273801 0.155229 0.083113 0.669865 -0.042742 -0.185756 -0.180323 -0.462999 -0.227872 0.087110 -0.141060 0.305679 -0.465240 -0.298998 -0.474965 -0.207159 0.581594 -0.804632 -0.455338 0.024865 -0.063278 0.218640 0.308913 0.041925 0.216083 0.080951 -0.135177 -0.047489 0.206806 -0.062695 0.164706 0.251115 -0.837085 0.497015 1.221567 0.684633 -0.614632 0.155161 0.239496 -0.149321 -0.158978 0.177987 0.306650 0.135659 0.309369 -0.056809 0.024310 -0.064324 0.588267 0.016475 -0.187556 -0.019568 0.099769 0.383600 0.204034 0.907735 0.176140 0.117573 -0.365878 -0.365448 0.456880 -0.368985 -0.413022 -0.687357 -0.394712 -0.103831 0.161817 -0.008407 0.026726 0.858289 0.185115 0.216806
bodi 0.596414 -0.143607 0.382350 -0.246989 0.206621 -0.075026 0.027069 -0.375423 -0.097248 0.118754 0.097920 -0.091289 0.227306 0.008780 -0.006386 -0.191957 -0.731522 0.316722 0.574524 -0.629540 -0.070906 -0.183002 0.667425 0.708384 -0.494317 0.242326 -0.201823 0.113147 0.463941 -0.480627 -0.555643 0.300844 -0.362727 -0.935061 -0.038722 -0.496939 0.079865 -0.083374 0.308035 0.196177 -0.155948 0.318822 -0.243826 -0.189100 0.285477 -0.417668 -0.629444 0.182119 0.380148 0.329098 -0.122482 0.207184 -0.422560 -0.426559 0.405346 -0.092498 0.309787 0.462154 -0.330803 0.655252 -0.227381 1.152271 0.639143 1.043479 -0.527444 -0.142143 -0.003767 -0.021877 -0.851118 0.454563 -0.005680 0.752110 0.517419 0.814888 -0.667314 -0.170054 -0.016391 0.186050 -0.262053 -0.322924 -0.172342 -0.026552 0.734868 0.731690 -0.104351 0.033875 0.019098 -0.692792 -0.268578 0.353611 -0.615255 -0.441545 -0.108043 -0.050724 0.377586 0.370457 -0.101690 0.669777 0.402005 0.163308
good 0.522699 -0.119026 0.127498 0.124583 0.024104 -0.077513 0.147131 -0.499611 -0.339582 0.430743 0.095122 -0.393085 0.291124 0.214941 0.416847 -0.361869 -0.271539 0.433087 -0.154985 0.131953 -0.062077 0.003058 -0.265363 0.492092 -0.342838 0.310465 -0.015834 0.320811 0.513140 0.146654 -0.542941 0.815426 -0.102864 -0.394846 -0.334138 -0.080783 -0.059552 0.015093 0.296809 -0.127604 -0.154495 -0.192763 -0.390785 0.218554 0.240466 0.318709 -0.252622 0.391756 0.300544 0.223301 0.208356 -0.241097 -0.014212 -0.175412 0.249355 0.238026 0.158489 0.319858 0.124066 0.552445 -0.000751 0.486313 0.563360 0.460928 -0.713355 -0.099481 0.407026 -0.268567 0.038564 0.447684 0.144391 0.384694 0.472918 0.008833 -0.786448 -0.478783 0.156405 0.325197 -0.250216 -0.121719 -0.136323 0.425124 0.041733 0.303136 -0.256627 0.298796 0.225564 -0.115350 0.203475 0.070041 0.093889 -0.437519 0.334693 -0.414225 -0.217955 0.004975 -0.610554 0.024283 0.044667 0.175759
carbon 0.662698 -0.334678 0.409594 -0.074897 0.169016 -0.043538 0.020772 -0.757383 -0.135150 0.155442 -0.123065 -0.236788 0.595282 -0.058906 0.103054 -0.387057 -0.849914 0.433434 0.217025 -0.411638 0.061329 -0.013779 0.202945 0.606837 -0.382124 0.469236 0.011870 0.318175 0.489782 -0.113832 -0.430001 0.577125 -0.160805 -0.624161 -0.483641 -0.202645 0.181230 0.079050 0.353379 -0.147433 0.044262 -0.153540 -0.260614 -0.177221 0.305339 0.132621 -0.231573 0.323018 0.443448 0.169188 -0.117060 -0.092096 -0.323760 -0.199521 0.430700 -0.125983 0.153659 0.311138 -0.402549 0.649271 0.131493 1.099934 0.713145 0.963385 -0.327132 -0.159069 0.328391 0.149717 -0.569217 0.646800 -0.218735 0.544304 0.404368 0.550254 -0.482865 -0.275070 0.291529 -0.117441 -0.226900 -0.244777 -0.341086 0.220436 0.370765 0.551792 0.179292 0.077133 -0.063803 -0.533230 -0.200434 0.382165 -0.463735 -0.523771 -0.027062 0.019639 0.597624 0.500355 -0.436815 0.342763 -0.074110 -0.122108
t 0.030004 0.099870 0.016054 0.140583 0.104694 -0.538792 0.732455 -0.278561 -0.430704 -0.529166 0.260544 -0.088175 0.518995 0.736475 -0.020401 -0.956086 0.226666 -0.067741 -0.312410 -0.032534 -0.366645 -0.385944 -0.850712 -0.338314 -0.349245 -0.029307 0.297393 0.493281 0.428796 0.168125 -0.416979 0.906528 -0.306102 0.128832 -0.616498 0.956851 -0.497391 -0.302119 0.546259 -0.294867 -0.190320 -0.183246 -0.005100 0.628794 0.193457 0.120763 0.001101 0.863586 -0.180366 0.038870 -0.149060 -0.378092 -0.209701 -0.323034 0.236391 1.050886 0.090048 0.273819 0.640931 0.972222 -0.190177 -0.505781 0.591011 0.380716 -0.826467 0.026647 0.304701 -0.557300 0.369649 -0.443866 0.303864 -0.669433 0.100428 -0.259806 -0.819825 -0.400642 0.020889 0.590700 -1.164022 -0.179650 0.433672 -0.132000 0.313591 0.373518 -0.189966 0.467661 0.927289 -0.302449 0.213452 0.607817 0.723810 -0.896732 0.294453 -0.421210 0.046507 -0.299815 -0.722562 0.740421 0.254400 -0.084396
full 0.473874 -0.057425 0.262401 -0.087302 0.136654 -0.078094 -0.007118 -0.319980 0.043703 -0.047487 0.079605 -0.030630 0.152551 0.148348 -0.089005 -0.226684 -0.628172 0.318406 0.549713 -0.543261 0.033383 -0.038335 0.439941 0.735664 -0.451128 0.211151 -0.036659 0.290434 0.525348 -0.458525 -0.479287 0.538497 -0.209423 -0.728911 -0.154119 -0.334256 0.104588 0.007045 0.505948 0.096418 -0.266465 0.031669 -0.223219 -0.225234 0.271254 -0.334041 -0.518353 0.184474 0.269972 0.376955 -0.103962 0.151745 -0.162002 -0.316808 0.429953 0.026249 0.238869 0.406843 -0.267481 0.707691 -0.420039 1.104681 0.805450 0.998103 -0.630247 -0.074768 0.090995 -0.066261 -0.776621 0.286914 -0.013038 0.540566 0.498790 0.707925 -0.550700 -0.176040 0.079379 0.183742 -0.209295 -0.402889 -0.220278 0.020929 0.656577 0.780512 -0.119296 0.035088 0.047255 -0.581902 -0.149044 0.305482 -0.524235 -0.331553 -0.030868 -0.116586 0.369265 0.289203 -0.154384 0.711960 0.371312 0.384954
great 0.445427 0.034092 0.020135 0.116661 -0.008795 -0.102657 0.023606 -0.413697 -0.164369 0.309487 0.062789 -0.467699 0.244314 0.210441 0.235790 -0.197175 -0.255154 0.381456 0.148574 0.066704 -0.069652 0.089838 -0.115872 0.518104 -0.093106 0.251791 0.029288 0.453939 0.600662 0.173229 -0.594359 0.794592 -0.057140 -0.302446 -0.318892 -0.214154 -0.042897 0.263228 0.182985 -0.097529 -0.346258 -0.335786 -0.486539 0.191036 0.134953 0.055589 -0.337665 0.347803 0.200235 0.392101 0.297137 -0.251177 0.152774 -0.314041 0.199279 0.218309 0.030441 0.292247 0.065698 0.562754 0.134313 0.515773 0.339761 0.430432 -0.819106 -0.026325 0.373528 -0.185823 -0.065260 0.285265 0.054841 0.303964 0.382286 -0.037173 -0.836902 -0.412628 0.016871 0.298862 -0.076604 -0.147996 -0.207376 0.438522 0.184316 0.349782 -0.365069 0.279811 0.115365 0.083166 0.163253 -0.061737 -0.183002 -0.262968 0.275814 -0.401531 -0.418992 0.019306 -0.542007 0.110779 -0.009070 0.459485
note 0.298974 0.376939 -0.352812 0.189941 -0.353946 -0.109912 0.143051 0.333520 0.014745 -0.229430 0.018360 0.363477 -0.206928 -0.006692 0.060363 -0.228120 -0.275328 -0.082850 0.454013 -0.165038 0.090275 0.364757 -0.062731 0.415278 -0.078001 0.102115 0.077263 0.340806 0.382153 -0.034897 0.066448 0.838402 0.040911 -0.078557 -0.197725 -0.191197 -0.145698 0.072567 0.175334 -0.030509 -0.453653 -0.490302 -0.300945 -0.216879 0.471504 -0.437152 -0.228578 -0.006538 0.061107 0.353802 0.294153 0.080385 0.277027 0.161189 -0.035537 -0.029915 0.029079 -0.010001 -0.040311 0.357075 -0.793369 0.599086 1.261925 0.477050 -0.620012 0.170944 0.048568 -0.213885 -0.156064 0.003014 0.229945 0.091659 0.247674 0.114033 0.080354 0.021854 0.631075 -0.028651 0.002066 -0.057417 0.052985 0.370577 0.049114 0.682602 0.164882 0.190412 -0.174783 -0.226325 0.318001 -0.307004 -0.278360 -0.462358 -0.056655 -0.076675 0.443621 -0.114104 -0.009706 0.614949 0.088171 0.385434
smooth 0.503243 -0.099799 0.258592 0.134220 -0.037001 -0.344045 0.146076 -0.420965 -0.198508 -0.011473 0.092089 -0.324599 0.201782 0.163857 0.085381 -0.145070 -0.629134 0.292627 0.562959 -0.187387 -0.142160 -0.018417 0.236011 0.532880 -0.107702 0.309545 -0.001401 0.224000 0.509511 -0.386009 -0.325199 0.833681 0.000141 -0.473105 -0.321154 -0.141559 -0.022486 0.279591 0.202927 -0.216562 -0.238940 -0.183260 -0.373933 0.007700 -0.082199 -0.168034 -0.517203 0.309692 0.154291 0.403940 -0.024670 -0.113952 -0.118361 -0.107057 0.449947 0.104062 -0.011895 0.377935 -0.092342 0.604268 -0.259563 0.901775 0.695489 0.711477 -0.557598 0.088645 0.104894 -0.170958 -0.540899 0.400762 -0.113006 0.348827 0.235894 0.471668 -0.560467 -0.210509 -0.058282 0.132209 -0.174502 -0.332937 -0.219259 -0.018126 0.442770 0.603529 -0.216517 0.232090 0.191775 -0.335569 -0.092040 0.317050 -0.518885 -0.555486 0.144117 -0.053074 0.233888 0.258283 -0.281446 0.613239 0.005764 0.367179
bitter 0.468217 0.057716 0.212003 0.359405 -0.057501 -0.147143 0.150262 -0.063080 -0.172125 -0.262470 0.236857 0.087174 0.071714 0.120061 0.202300 0.045572 -0.814094 -0.021587 0.721103 -0.431431 0.148571 0.186751 0.022907 0.482769 -0.233525 0.438190 -0.185311 0.200750 0.373744 -0.154776 -0.109725 0.897258 -0.016870 -0.425735 -0.674288 -0.181044 -0.031176 0.395345 -0.017920 -0.049184 -0.200220 0.009703 0.046749 0.048283 -0.009460 -0.286421 -0.306614 0.148295 0.552069 0.353900 0.220386 0.414354 0.111742 -0.067217 0.515953 0.041051 0.106037 0.183450 -0.224417 0.182536 -0.417865 1.050583 1.090843 0.970780 -0.130967 -0.047882 0.410450 0.010525 -0.688322 0.713497 -0.081637 0.349471 0.293566 0.304869 -0.080547 0.323822 0.288297 -0.384829 -0.325001 0.073291 -0.014479 -0.021189 0.279138 0.895446 0.122395 -0.065445 -0.211076 -0.258008 -0.055084 0.400424 -0.556099 -0.659590 0.149890 0.479565 0.780788 0.658378 -0.463128 0.716151 0.042697 0.234979
light 0.443658 0.043145 -0.210769 -0.071045 0.140787 0.064819 0.297259 -0.009938 -0.392927 0.141072 -0.052475 0.141064 -0.287549 -0.243380 0.189101 -0.140793 -0.471552 0.285554 0.485811 -0.540566 -0.103691 -0.003299 0.387359 0.614047 -0.422892 0.220144 -0.370363 0.178536 0.226168 0.238553 -0.153448 0.110649 -0.507783 -0.539022 -0.241591 -0.589430 -0.009750 -0.041424 -0.011537 0.694739 -0.032713 0.194613 -0.334041 -0.216592 0.640205 -0.715539 -0.350606 -0.078558 0.264431 0.096074 0.063760 0.130446 -0.290893 -0.263963 0.020454 -0.168469 0.705614 -0.025992 -0.080755 0.079380 -0.301610 0.578065 0.707584 0.804987 -0.527101 -0.227095 0.224466 0.026436 -0.343115 0.454977 0.155541 0.430326 0.257879 0.171971 -0.166868 -0.063699 0.250605 -0.072475 -0.393329 0.082170 -0.013965 0.294402 0.209056 0.892670 0.434450 -0.110665 -0.429018 -0.540010 0.116947 -0.029549 -0.328754 -0.469121 -0.245815 0.051425 0.030942 0.412190 0.076012 0.544082 0.162514 0.005501
yeast 0.338781 0.442855 -0.511664 0.197770 -0.305615 0.199338 0.020522 0.447530 -0.005839 0.089637 -0.140633 0.415837 -0.037625 -0.180820 0.037171 -0.264859 -0.142601 -0.205850 0.431682 -0.253513 0.107208 0.381397 -0.044864 0.429483 -0.174384 0.039034 0.028652 0.375400 0.358422 0.371105 -0.097832 0.472159 0.061853 -0.164207 -0.070204 -0.549487 0.004358 0.007340 0.074284 0.130656 -0.597928 -0.351628 -0.372788 -0.299008 0.737245 -0.602130 -0.443504 0.051749 0.075797 0.367736 0.422482 0.218556 0.268087 -0.061844 -0.275681 -0.411516 0.100731 -0.059057 -0.255330 0.267325 -0.459329 0.553489 1.002788 0.567015 -0.706162 0.039639 -0.044401 0.026148 0.036560 -0.107791 0.256672 0.101798 0.586088 -0.142774 -0.131852 -0.192517 0.981394 0.114205 0.022187 0.295605 0.108408 0.678240 0.090431 0.583161 0.162515 0.274622 -0.465435 -0.077061 0.411386 -0.632091 -0.101857 -0.399507 -0.371511 -0.049147 -0.014080 -0.138540 -0.070878 0.600249 0.186604 0.308301
warm 0.428357 0.105798 0.165997 0.343291 -0.154580 -0.235972 0.130045 -0.263895 -0.137906 -0.225179 0.226656 -0.323780 0.319982 0.247234 0.260092 -0.024718 -0.671298 0.085843 0.446989 -0.122079 0.102049 0.034711 -0.076822 0.292316 -0.078374 0.271850 0.012064 0.162251 0.429225 -0.097712 -0.085163 0.835384 0.064175 -0.022794 -0.612097 -0.048879 -0.121739 0.418782 -0.027055 -0.285940 -0.350962 -0.359699 -0.287538 0.244728 0.141132 -0.025002 -0.218943 0.325486 0.433070 0.314601 0.234982 -0.013374 0.026901 -0.024904 0.448088 0.047391 -0.242284 0.220516 -0.222204 0.536313 -0.117542 0.782477 0.781088 0.679975 -0.296071 0.124655 0.257065 0.013415 -0.289835 0.430341 -0.081730 0.035748 0.017973 0.168523 -0.232109 -0.046550 0.112706 -0.015303 -0.202703 -0.139808 -0.011219 -0.102593 0.150262 0.656688 0.057555 0.173048 0.096256 -0.035874 0.058769 0.262318 -0.632161 -0.543678 0.305642 0.189723 0.406284 0.388312 -0.479411 0.525150 -0.129951 0.278057
medium 0.531200 -0.163687 0.156782 -0.122412 0.228404 0.018312 0.233991 -0.285825 -0.400081 0.253994 0.120545 -0.056698 0.101079 -0.130518 0.185323 -0.214304 -0.791889 0.292335 0.539916 -0.539629 -0.160107 -0.069421 0.648000 0.726758 -0.601184 0.284960 -0.355670 0.153080 0.334554 -0.322021 -0.300222 0.310035 -0.347576 -0.905305 -0.126802 -0.518935 0.074598 -0.063802 0.251492 0.281251 -0.048078 0.552901 -0.106065 -0.223900 0.298304 -0.422594 -0.477177 0.107445 0.572524 0.136549 -0.047001 0.392921 -0.524747 -0.390824 0.240298 -0.093561 0.503148 0.328967 -0.254254 0.224660 -0.309408 0.900047 0.697982 0.964083 -0.347908 -0.228168 0.078043 0.034905 -0.719160 0.688625 0.033810 0.752025 0.467492 0.673224 -0.464103 0.078057 0.207219 0.018498 -0.327678 -0.098724 -0.162000 -0.014255 0.548318 0.794470 0.183120 -0.159913 -0.182428 -0.714952 -0.161789 0.426393 -0.429558 -0.504951 0.001534 0.031221 0.336174 0.479196 0.008746 0.522231 0.385347 0.013863
sugar 0.519323 0.303584 -0.231097 0.158918 -0.758788 0.005752 -0.034849 0.532749 -0.141691 -0.161050 -0.105297 0.530698 -0.248693 -0.371415 -0.053275 -0.067358 -0.256931 -0.396187 0.444246 -0.133085 0.110905 0.502532 0.222244 0.277496 0.013597 0.092661 0.149528 0.100756 0.150476 0.146270 0.256361 0.720697 0.105478 -0.205539 0.102916 -0.382783 -0.167424 -0.170953 0.003467 0.107015 -0.603452 -0.381757 -0.216079 -0.355506 0.579759 -0.666754 -0.491380 -0.050795 0.196631 0.151925 0.544520 0.355625 0.363261 -0.049061 -0.228565 0.005733 0.001535 -0.208145 0.017594 0.253704 -0.841264 0.603941 1.710157 0.631175 -0.592973 0.089742 -0.279401 -0.332280 -0.058269 -0.165256 0.290317 0.442500 0.528256 0.004973 -0.014101 0.023636 0.904458 0.110106 -0.006124 0.077633 0.341887 0.551547 0.208420 0.605529 0.006773 0.038748 -0.402960 -0.365062 0.180861 -0.559385 -0.141566 -0.905138 -0.650399 0.008869 0.520401 -0.198487 -0.229773 0.516346 0.288295 -0.078746
strong 0.389040 0.205311 -0.197216 0.243090 -0.119620 0.079463 0.120730 -0.099325 -0.144877 0.159494 0.038863 0.034793 0.079755 0.095934 0.104352 -0.270121 -0.193844 0.211836 0.226002 0.012095 -0.049877 0.202360 -0.161649 0.589043 -0.226243 0.167722 0.044529 0.454777 0.539611 0.197661 -0.331101 0.813990 0.212974 -0.255924 -0.366753 -0.326991 -0.099999 0.139707 0.288537 -0.137711 -0.465168 -0.399417 -0.461672 -0.051784 0.447237 -0.197993 -0.339625 0.307174 0.292582 0.375516 0.315880 -0.066994 0.293281 -0.109916 0.035141 0.074041 0.041503 0.255146 -0.016926 0.467335 -0.238427 0.535162 0.975005 0.468968 -0.799618 -0.115625 0.252798 -0.140809 0.002974 0.214031 0.246780 0.216870 0.410616 0.000461 -0.455074 -0.263403 0.549959 0.155089 -0.143984 -0.075050 -0.109205 0.550276 0.023374 0.554523 -0.076008 0.257151 -0.083967 -0.136258 0.267619 -0.197257 -0.039920 -0.385887 0.042461 -0.326020 -0.123489 0.042707 -0.356399 0.312123 0.072478 0.355315
bit 0.419284 0.187468 -0.062273 0.490367 -0.218694 0.033355 0.069377 -0.256260 -0.383617 -0.041719 0.289088 -0.006790 0.132301 0.032446 0.291188 -0.050625 -0.421187 0.184677 0.318426 -0.043169 -0.010267 -0.015283 0.082023 0.396524 -0.311328 0.239269 -0.003654 0.078396 0.190123 0.227551 -0.159497 0.736925 0.001819 -0.170427 -0.466987 -0.223559 -0.245798 0.238119 -0.041641 -0.056176 -0.203969 -0.213650 -0.344372 0.058406 0.327177 -0.109946 -0.280032 0.394588 0.342051 0.027321 0.168912 0.139323 0.191140 0.139145 0.204007 0.054264 0.149850 -0.078018 -0.045175 0.436452 -0.253600 0.546190 1.050364 0.565341 -0.319991 0.002539 0.116030 -0.241426 -0.068471 0.324098 0.166334 0.139850 0.274576 -0.274774 -0.281888 -0.116125 0.440302 -0.186597 -0.297050 0.050759 0.105430 0.369771 -0.112480 0.672136 0.034667 0.218522 -0.128161 -0.082699 0.320779 -0.047201 -0.202673 -0.669545 -0.047486 0.076478 0.285470 0.235436 -0.569190 0.288172 0.082958 -0.013755
tan 0.474757 -0.253026 -0.396077 -0.337823 0.578598 0.185444 0.406962 -0.245528 -0.411320 0.550698 -0.434029 0.057070 -0.140242 -0.174526 0.246818 -0.234178 -0.148490 0.600067 0.068507 -0.395508 -0.356477 0.051082 0.224812 0.737269 -0.369301 0.338250 -0.575633 0.077324 0.122937 0.716343 -0.333004 -0.308562 -0.859494 -0.709740 -0.188278 -0.671192 0.351105 -0.330899 -0.041590 0.941069 0.271505 0.445123 -0.214961 -0.233466 0.828314 -0.606448 -0.287584 -0.330936 0.618611 0.118262 0.428780 0.098782 -0.476011 -0.526701 -0.250671 0.082232 1.300048 -0.244141 0.262398 -0.094651 0.388953 0.239944 0.237727 0.397812 -1.021794 -0.834354 0.296640 0.130696 -0.142362 0.414068 0.322392 0.876210 0.149541 -0.228838 -0.229278 -0.258914 0.170203 0.001686 -0.543492 0.108939 -0.334943 0.552261 -0.085158 0.616665 0.490931 -0.372718 -0.719847 -0.513031 -0.019878 -0.330053 0.032731 -0.263423 -0.278565 0.047531 -0.517726 0.486617 0.112627 -0.036774 0.079234 -0.065246
rich 0.402359 0.090253 -0.206722 0.081916 -0.031529 -0.049408 0.125251 -0.079329 -0.233532 0.213649 0.017061 -0.000700 -0.150886 -0.042712 0.178928 -0.255819 -0.394982 0.401498 0.535885 -0.133394 -0.171509 0.236879 0.208552 0.770662 -0.228789 0.128408 -0.137905 0.370057 0.601809 -0.166855 -0.201594 0.674333 0.091216 -0.430669 -0.231514 -0.360334 0.045222 0.095789 0.306729 0.066465 -0.398175 -0.165502 -0.525393 -0.115218 0.310710 -0.525453 -0.487521 -0.003786 0.166991 0.371747 0.197754 -0.037797 -0.038202 -0.062878 -0.071905 0.000302 0.272341 0.344901 0.095509 0.296154 -0.488039 0.593881 0.758005 0.543436 -0.831358 -0.042205 0.220246 -0.176967 -0.240091 0.278569 0.110991 0.350943 0.305278 0.331630 -0.351636 -0.173516 0.274825 0.202571 -0.104450 -0.250303 -0.241042 0.272931 0.346312 0.653119 -0.041135 0.072827 -0.134179 -0.515261 0.177025 -0.082747 -0.185867 -0.397810 0.116403 -0.338751 -0.221552 0.050378 0.068807 0.631416 0.231688 0.496184
creami 0.617924 -0.271872 0.061615 -0.251418 0.404916 -0.164451 0.287052 -0.417300 -0.291041 0.341184 -0.191144 -0.249714 0.090689 -0.017113 0.222087 -0.162109 -0.656641 0.506928 0.547898 -0.422040 -0.227479 -0.120493 0.460630 0.773754 -0.323127 0.384163 -0.316912 0.129966 0.440855 -0.013297 -0.431421 0.194719 -0.578487 -0.780247 -0.213977 -0.502077 0.242884 -0.020931 0.095359 0.420987 0.093274 0.342641 -0.352204 -0.139213 0.381504 -0.501511 -0.607943 -0.036638 0.404094 0.383781 0.093278 0.016338 -0.578222 -0.363515 0.250064 0.005702 0.744968 0.151361 -0.056126 0.408579 0.116136 0.804415 0.370870 0.675966 -0.751618 -0.394198 0.068169 -0.014506 -0.635394 0.541826 -0.022625 0.794613 0.186231 0.391432 -0.578072 -0.254490 -0.113307 0.067219 -0.309456 -0.119270 -0.416320 0.175614 0.356644 0.719627 0.089706 -0.012895 -0.224249 -0.619943 -0.202495 0.172599 -0.483206 -0.430642 -0.050453 0.038896 -0.002719 0.411431 0.032984 0.342945 0.081576 0.197224
fruiti 0.334430 0.291066 -0.434996 0.127355 0.001894 0.053926 0.151442 0.167340 0.008547 0.036971 -0.052320 0.213877 -0.190664 0.080487 0.379676 -0.413274 -0.305859 0.114115 0.486629 -0.173810 -0.054576 0.502520 -0.280138 0.658840 -0.005030 0.327072 -0.112759 0.465890 0.726724 0.042336 -0.123911 0.947892 0.125814 -0.314450 -0.411516 -0.314734 0.210525 0.127449 0.314097 -0.100027 -0.321438 -0.390529 -0.359749 -0.138581 0.440539 -0.256728 -0.298848 -0.062892 0.581767 0.478363 0.519858 0.178983 0.144484 0.100911 -0.024560 -0.096185 0.177055 0.388981 0.073965 0.279936 -0.466915 0.712559 1.178006 0.355845 -0.947109 -0.144938 0.349873 -0.178857 -0.094863 0.225489 0.307652 0.309267 0.360217 0.118930 -0.020585 -0.073072 0.655265 -0.092034 -0.227020 -0.092984 -0.114188 0.481935 -0.032473 0.623455 0.021917 0.059560 -0.441621 -0.364073 0.073513 -0.324602 0.004128 -0.376559 0.287250 -0.049893 0.112325 0.096198 -0.153945 0.511132 0.112679 0.522032
littl 0.404402 0.107156 -0.101458 0.387095 -0.148670 0.032672 0.050611 -0.301062 -0.333561 0.091726 0.201154 -0.077725 0.126797 -0.015525 0.284183 -0.123516 -0.350276 0.228201 0.263575 -0.063170 -0.101536 -0.027351 0.193735 0.424484 -0.224558 0.246832 -0.031152 0.065693 0.195463 0.204995 -0.305504 0.655014 -0.108315 -0.312863 -0.391296 -0.263512 -0.193625 0.165044 -0.042383 -0.034131 -0.152568 -0.148732 -0.357145 0.025876 0.369852 -0.054114 -0.318616 0.415427 0.373729 -0.000642 0.143678 0.139323 0.109944 0.095449 0.171472 0.019064 0.203928 -0.066136 0.012985 0.468468 -0.137137 0.480498 0.918155 0.476974 -0.460878 0.006883 0.076786 -0.238346 -0.130233 0.306922 0.231817 0.303530 0.334740 -0.218828 -0.371708 -0.160528 0.337140 -0.122503 -0.271400 0.009894 -0.013558 0.482607 -0.106258 0.562932 -0.083976 0.179137 -0.119034 -0.101154 0.254865 -0.019164 -0.194489 -0.595251 -0.085319 -0.021350 0.210634 0.182532 -0.491996 0.169666 0.081338 0.007905
spice 0.324338 0.366432 -0.224271 0.317639 -0.427575 -0.021016 0.046103 0.317260 -0.112655 -0.315869 0.071234 0.453770 -0.268159 -0.110071 0.038797 -0.168992 -0.281804 -0.053366 0.564908 -0.264582 0.114045 0.309026 0.111937 0.403590 -0.054163 0.199362 0.142178 0.283104 0.309912 0.099079 0.109651 0.752577 0.103583 -0.194027 -0.135013 -0.244043 -0.150206 0.080173 -0.001390 -0.010277 -0.443351 -0.424936 -0.291261 -0.337911 0.444522 -0.551114 -0.402639 0.047889 0.010718 0.297933 0.239667 0.115505 0.221109 0.176338 -0.033679 -0.163847 -0.031445 -0.047543 -0.000019 0.321970 -0.820159 0.707812 1.377214 0.627467 -0.546688 0.242962 0.081076 -0.156940 -0.146782 -0.013361 0.171561 0.115839 0.405790 0.037400 0.167667 -0.009290 0.715024 -0.034202 -0.113217 -0.020293 0.142664 0.332757 0.158942 0.685466 0.104989 0.176304 -0.294154 -0.300956 0.273127 -0.380804 -0.291887 -0.672938 -0.356113 0.059683 0.386900 -0.000274 -0.062095 0.726820 0.163821 0.174299
so 0.266389 0.031936 0.051970 0.410078 -0.154885 -0.205807 0.097359 -0.580687 -0.309565 0.326062 0.342939 -0.423188 0.246895 0.099273 0.191960 -0.230282 -0.132296 0.297018 0.002951 0.384721 -0.335805 -0.082326 -0.006209 0.284442 -0.304017 -0.106709 -0.015986 0.195143 0.277171 -0.277530 -0.409906 0.876941 0.466784 -0.064405 -0.382342 -0.103632 -0.275564 0.202053 0.318252 -0.415079 -0.518126 -0.154306 -0.421756 0.376481 -0.011384 0.277202 -0.100631 0.516541 0.052211 -0.016952 0.008858 -0.122215 0.313444 -0.106470 0.224805 0.451942 -0.149551 0.440555 0.254755 0.496330 -0.133709 -0.016331 0.382655 0.232373 -0.394905 -0.026393 0.088086 -0.328791 0.001543 0.270301 0.088396 -0.004855 0.162577 0.224384 -0.832812 -0.278697 -0.017226 0.358452 -0.057765 -0.337245 -0.052854 0.220523 0.087200 0.291190 -0.449612 0.180358 0.611248 -0.073958 0.257339 0.413768 0.014726 -0.300372 0.475161 -0.619429 -0.144089 -0.158577 -0.573499 0.184208 0.143169 0.444464
hint 0.380491 0.251460 -0.206072 0.357283 -0.423633 0.000830 0.091879 0.253498 -0.354076 -0.231629 0.094638 0.334168 -0.263945 -0.187648 0.067787 -0.074111 -0.339168 0.043726 0.583678 -0.198455 0.042127 0.267906 0.187412 0.461809 -0.120453 0.249182 0.036423 0.228375 0.281330 0.214854 0.110979 0.715828 0.005430 -0.198212 -0.224729 -0.285713 -0.173373 0.136534 -0.101977 0.138598 -0.366498 -0.355809 -0.334129 -0.313465 0.469319 -0.615203 -0.345014 0.047467 0.038899 0.214778 0.287097 -0.005857 0.120430 0.122063 -0.102077 -0.053512 0.070172 -0.057387 0.029266 0.250870 -0.741567 0.635631 1.285442 0.657957 -0.494992 0.155240 0.157500 -0.162180 -0.050906 0.130127 0.162145 0.144733 0.302249 -0.126894 0.105518 0.024919 0.626349 -0.113805 -0.120540 0.007881 0.103730 0.304385 0.071698 0.750513 0.128867 0.136636 -0.342197 -0.239191 0.389181 -0.393054 -0.329949 -0.683912 -0.283211 0.075816 0.237682 0.122632 -0.119007 0.562859 0.155882 0.005427
balanc 0.452883 0.130316 0.192403 0.238440 -0.162694 -0.159842 -0.056346 -0.169762 -0.043808 -0.032171 0.083777 -0.220523 0.187972 0.191394 0.050214 -0.007629 -0.468943 0.234759 0.541282 -0.055779 0.155964 0.187659 -0.142471 0.567326 -0.060676 0.331350 0.163181 0.400031 0.649613 -0.093926 -0.343640 1.074059 0.144733 -0.292743 -0.483767 -0.070528 0.031206 0.456722 0.218923 -0.274860 -0.378826 -0.365034 -0.309528 0.049663 -0.066379 -0.103052 -0.370555 0.289705 0.152802 0.446535 0.225274 -0.091773 0.289497 -0.046473 0.419675 0.081320 -0.172961 0.310349 -0.106291 0.464028 -0.253016 0.943734 0.765318 0.698728 -0.526902 0.128961 0.346919 -0.247702 -0.334086 0.335942 -0.230719 0.189830 0.347534 0.149894 -0.505305 -0.121724 0.025046 0.010791 -0.022048 -0.144696 -0.022674 0.227145 0.313209 0.511445 -0.251998 0.235290 0.021147 0.023952 0.028195 0.106465 -0.395950 -0.459061 0.169865 -0.009292 0.127231 0.246604 -0.569466 0.514811 -0.073261 0.533038
best 0.023340 0.203456 -0.060340 0.402448 -0.263888 -0.146272 -0.344174 -0.664084 -0.007257 0.281243 0.253897 -0.506799 0.320100 0.009527 -0.308690 0.001294 0.289630 0.313753 -0.211658 0.425748 -0.274472 0.181367 0.194148 0.257173 0.009649 -0.401046 0.006225 0.539465 0.416337 0.032664 -0.672840 0.470653 0.405718 0.188183 -0.391554 -0.471173 -0.266767 0.591606 0.372917 -0.127606 -0.490591 -0.491253 -0.579244 0.519733 0.140102 -0.043801 -0.131639 0.556419 -0.090987 0.115541 0.002519 -0.346022 0.807039 -0.455456 -0.160747 0.620630 -0.087824 0.175269 0.198085 0.657867 0.361374 0.035649 -0.315297 0.238604 -0.456756 -0.241961 0.066980 -0.191610 0.121227 -0.044644 -0.061761 -0.082761 0.188759 -0.322382 -1.146186 -0.613713 -0.267134 0.358073 0.111913 -0.183191 -0.109291 0.630109 0.316894 0.211475 -0.776293 0.420882 0.154763 0.467043 0.360633 -0.102414 -0.004082 0.250098 0.236207 -0.928415 -0.885336 -0.448615 -0.770645 -0.086481 0.043987 0.538894
just 0.295952 0.117613 0.042589 0.365679 -0.241548 -0.184999 0.050025 -0.375699 -0.412738 0.097061 0.370082 -0.278592 0.191969 0.077138 0.277448 -0.242399 -0.209649 0.149800 0.037608 0.235350 -0.235664 -0.064690 0.073233 0.208973 -0.217442 0.104305 0.007905 0.207233 0.281990 -0.058100 -0.377587 0.741781 0.170840 -0.126343 -0.314362 -0.099252 -0.308085 0.162808 0.101701 -0.296139 -0.361662 -0.114397 -0.344345 0.308837 0.017932 0.237227 -0.244522 0.464948 0.213696 -0.007231 0.063509 -0.072929 0.141849 -0.029065 0.202938 0.277586 -0.061034 0.269007 0.192115 0.535288 -0.209880 0.152804 0.529405 0.318394 -0.360531 0.105468 0.181989 -0.261085 -0.012612 0.185005 0.218055 0.112653 0.310841 0.005300 -0.690097 -0.260553 0.123016 0.226281 -0.187791 -0.197193 0.016783 0.268840 0.113418 0.354533 -0.477163 0.207049 0.395667 -0.114930 0.278537 0.184948 0.031107 -0.516495 0.275845 -0.413779 -0.056890 -0.141670 -0.620964 0.147829 0.155552 0.161935
rate 0.285197 -0.211688 -0.102604 -0.126919 0.175702 0.006327 -0.011133 -0.556261 -0.312043 0.772040 0.125050 -0.735402 0.340470 -0.207954 -0.234546 -0.349627 -0.349467 0.144023 -0.353921 0.102840 -0.206572 0.058384 0.021087 0.199488 -0.336935 -0.413883 -0.022168 0.095087 0.236399 -0.100012 -0.692302 0.671745 -0.039525 0.088026 -0.234178 0.158360 -0.487579 0.056665 0.232905 -0.231772 -0.799127 -0.425681 -0.443728 0.418418 0.489495 0.344223 0.565106 0.848259 -0.227748 -0.472415 0.027666 -0.534298 0.109539 -0.184665 0.047432 0.340126 -0.639823 0.412815 -0.290508 0.564189 0.116046 -0.574765 -0.326038 0.197327 -0.178159 0.188115 0.264852 0.101208 0.254711 0.320080 -0.047093 -0.512561 0.037124 0.192367 -0.945529 -0.346979 -0.473879 0.152783 0.444053 -0.173895 0.086356 0.487427 0.032240 0.139148 -0.191458 0.114775 0.852479 0.363486 0.625693 0.315468 -0.388773 0.198289 0.721898 -0.996038 -0.337932 -0.139322 -0.763865 -0.214300 -0.044021 0.353829
palat 0.440897 -0.034121 0.230880 0.117733 -0.011628 -0.212612 0.084307 -0.279360 -0.149568 -0.001470 0.120461 -0.196788 0.139508 0.087194 0.081603 -0.122673 -0.631955 0.183526 0.500045 -0.262130 -0.056175 0.023578 0.336295 0.499947 -0.161084 0.292180 -0.004010 0.213393 0.387516 -0.345064 -0.270998 0.700928 -0.051356 -0.533451 -0.237767 -0.169854 -0.041970 0.237673 0.161843 -0.161676 -0.186167 -0.050469 -0.224974 -0.112420 0.018529 -0.151569 -0.460569 0.304068 0.281079 0.292066 -0.020717 0.077178 -0.142169 -0.112475 0.435722 -0.005720 -0.021474 0.263195 -0.177261 0.448281 -0.315841 0.838465 0.722375 0.718373 -0.376303 0.079056 0.132195 -0.084886 -0.565524 0.432186 -0.058832 0.427976 0.303381 0.505785 -0.416375 -0.068716 0.024728 0.033397 -0.142415 -0.211044 -0.203509 0.015853 0.401993 0.572881 -0.157846 0.134851 0.075185 -0.323837 -0.119526 0.310982 -0.530276 -0.501612 0.034465 0.017518 0.372767 0.314684 -0.184910 0.500764 0.053766 0.244348
malti 0.351290 0.226876 -0.349060 0.139211 -0.013195 0.032234 0.190897 0.111314 -0.038441 0.036735 -0.017286 0.210203 -0.176627 0.072730 0.346414 -0.352659 -0.364488 0.136943 0.524860 -0.178958 -0.053707 0.436344 -0.256390 0.664736 -0.097214 0.272696 -0.148696 0.447417 0.685711 -0.021647 -0.109291 0.908322 0.134693 -0.323940 -0.434802 -0.287420 0.175035 0.094173 0.342916 -0.071629 -0.318720 -0.273313 -0.305633 -0.108246 0.380347 -0.316127 -0.343540 -0.079421 0.516189 0.450914 0.468198 0.184732 0.093640 0.057346 -0.017267 -0.046137 0.238210 0.378953 0.021267 0.290030 -0.475019 0.721472 1.130535 0.413344 -0.852898 -0.184601 0.310042 -0.161042 -0.187971 0.247674 0.234931 0.303364 0.352653 0.158981 -0.075587 -0.038591 0.608778 -0.099905 -0.214604 -0.090899 -0.125527 0.386037 0.065623 0.676294 0.072841 0.032099 -0.371281 -0.408373 0.091745 -0.207454 -0.017403 -0.408188 0.256294 -0.063793 0.125150 0.094595 -0.142836 0.557185 0.144511 0.521213
smell 0.232460 0.211598 -0.412476 0.167044 -0.137693 0.139814 0.186805 -0.015067 -0.185491 0.220831 -0.068219 0.141726 -0.113170 -0.008002 0.198309 -0.412152 0.005357 0.229035 0.138293 0.056567 -0.220026 0.347426 -0.115724 0.577944 -0.102203 0.091097 -0.064165 0.444579 0.434034 0.158956 -0.171576 0.679305 0.122156 -0.285345 -0.238542 -0.342513 -0.030499 -0.036715 0.274754 -0.009588 -0.343052 -0.346408 -0.404983 -0.115252 0.560616 -0.202951 -0.293932 0.083774 0.355455 0.184490 0.411704 0.000016 0.250546 -0.061653 -0.307188 0.077516 0.169744 0.237239 0.252068 0.271711 -0.360505 0.219560 1.012279 0.203205 -0.960333 -0.156586 0.230116 -0.127184 0.152618 0.064259 0.480860 0.265696 0.412675 -0.068167 -0.203347 -0.227655 0.691238 0.098316 -0.179966 -0.122845 -0.149994 0.645300 -0.070719 0.429355 -0.038388 0.079725 -0.270529 -0.253143 0.305051 -0.336500 0.213776 -0.269624 0.110173 -0.409187 -0.282390 -0.142957 -0.095702 0.234774 0.207218 0.326442
de -0.421007 0.235056 -0.277390 0.143367 -0.556497 -0.265907 0.140629 0.626074 0.279478 -0.548755 0.105038 0.639380 -0.200511 0.258224 -0.379451 -0.008254 0.678698 -0.399925 -0.355442 0.330497 0.210794 0.096694 -0.327861 -0.381302 -0.001286 -0.361089 0.191213 0.028144 -0.270799 -0.239333 0.492019 -0.009271 0.154832 0.648655 0.354007 0.463152 -0.327211 -0.345779 0.117540 0.027106 -0.086636 -0.289343 0.126821 0.158702 -0.047968 -0.031517 0.251541 -0.339333 -0.634105 0.059410 -0.021367 0.065166 0.509947 0.435966 -0.352164 0.270257 0.161526 -0.544763 0.265262 -0.035402 -0.640363 -0.311638 0.353864 -0.509943 0.260524 0.320989 -0.435336 -0.459839 0.388239 -0.495627 0.351871 -0.450706 -0.276092 -0.258078 0.532955 0.200089 0.427455 0.027858 0.238824 -0.060710 0.234759 -0.054256 -0.255185 -0.217481 0.303604 0.246533 0.437972 0.020096 0.333743 -0.314018 0.416036 -0.008311 -0.101565 -0.305219 0.411548 -0.926290 0.380332 0.128865 -0.034952 0.182146
thick 0.484874 -0.185815 0.037872 -0.214650 0.289250 0.011892 0.313186 -0.261438 -0.434366 0.435025 -0.067752 -0.186448 0.070474 -0.089989 0.243212 -0.163498 -0.480115 0.400830 0.407000 -0.323716 -0.300818 -0.133124 0.510259 0.665842 -0.368412 0.261178 -0.356547 0.058417 0.319920 0.018599 -0.321932 0.079368 -0.440306 -0.762858 -0.032311 -0.512469 0.092156 -0.124680 -0.003416 0.445336 0.015984 0.421843 -0.308758 -0.133771 0.416426 -0.523363 -0.566007 -0.003043 0.422770 0.190029 0.103735 0.063007 -0.617341 -0.463543 -0.024016 -0.063809 0.614131 0.216733 -0.012019 0.169021 0.042906 0.547835 0.338173 0.567029 -0.670524 -0.298001 0.062068 -0.035681 -0.401554 0.551878 0.131619 0.699971 0.286421 0.365001 -0.544886 -0.168917 0.061664 0.172424 -0.293423 -0.052556 -0.281442 0.165605 0.345635 0.535667 0.158285 -0.036092 -0.249628 -0.529334 -0.100203 0.037752 -0.302445 -0.418369 -0.096429 -0.115036 -0.242149 0.363303 0.186829 0.312932 0.203088 0.019626
lot 0.294485 0.018913 -0.208517 0.119879 -0.180582 0.065569 0.162271 -0.079806 -0.290351 0.272284 -0.066482 0.109258 0.049315 0.003682 0.167125 -0.353190 -0.116319 0.313781 0.030507 0.026508 -0.091163 0.306671 -0.208664 0.606561 -0.196360 0.178772 -0.167028 0.334206 0.478554 0.105675 -0.160312 0.491467 0.038562 -0.259263 -0.276476 -0.275542 0.064574 -0.151283 0.321892 0.066859 -0.271570 -0.234370 -0.310090 -0.074620 0.554964 -0.150905 -0.286511 -0.035591 0.428059 0.196205 0.471502 -0.025553 0.076420 -0.105602 -0.265136 0.040807 0.326241 0.189207 0.117076 0.248796 -0.284898 0.475254 0.914284 0.374085 -0.776176 -0.182209 0.242936 -0.020891 0.147811 0.224658 0.304691 0.344653 0.323713 0.004821 -0.205208 -0.187464 0.678331 0.111293 -0.123592 -0.184634 -0.205561 0.432959 0.048200 0.417057 0.077190 0.029151 -0.171778 -0.336772 0.270834 -0.332102 0.085296 -0.379747 0.068251 -0.402159 -0.201932 -0.079265 -0.049598 0.286108 0.147042 0.224543
drink 0.256088 0.000509 0.266929 0.428170 -0.331638 -0.257953 -0.170576 -0.448558 -0.064388 0.052853 0.266063 -0.663966 0.434210 0.246976 0.033498 0.038050 -0.274883 0.183480 0.087722 0.256594 -0.088903 -0.174920 -0.039370 0.142578 -0.088351 0.016775 0.124223 0.270935 0.208622 -0.037550 -0.325172 0.563760 0.171139 0.134722 -0.241361 -0.012198 -0.287385 0.362008 0.011397 -0.252044 -0.386269 -0.346845 -0.348952 0.437243 -0.140326 0.318234 -0.167838 0.527002 0.198925 0.090787 -0.001611 -0.279081 0.146806 -0.214253 0.264866 0.399503 -0.383165 0.352068 -0.042911 0.468180 0.136367 0.117471 0.196461 0.342287 -0.157803 0.237574 0.171051 -0.212635 -0.041722 0.271485 -0.037971 -0.104303 0.143007 0.071487 -0.795289 -0.163554 -0.153511 0.229803 0.046088 -0.258597 0.042074 -0.002544 0.101009 0.166764 -0.360725 0.305840 0.521496 0.273820 0.182146 0.239540 -0.221873 -0.162237 0.403710 -0.344515 -0.271025 -0.017869 -0.658206 -0.035751 -0.007551 0.013690
deep 0.123437 0.031729 -0.415951 -0.060239 -0.015930 0.319897 0.171230 0.190908 -0.633650 0.710919 0.099642 0.016542 -0.157029 -0.446949 0.219220 -0.161350 -0.112126 0.366911 0.314595 -0.022909 -0.469939 0.082035 0.593670 0.674257 -0.462652 -0.269592 -0.414053 0.074079 0.309731 0.031647 -0.102632 -0.063016 -0.008313 -0.454840 0.265664 -0.552112 -0.231221 -0.225846 0.054163 0.461574 -0.427170 0.269418 -0.673310 -0.063150 0.658986 -0.898119 -0.460897 -0.151960 0.119782 -0.087767 0.075188 -0.071720 -0.534647 -0.418151 -0.871713 -0.119838 0.321851 0.371071 0.062696 -0.269274 -0.358386 0.001858 0.208312 0.321873 -0.653580 -0.023177 -0.003499 -0.125196 0.228293 0.265762 0.264485 0.202232 0.322827 0.239253 -0.416898 -0.036067 0.382204 0.493427 -0.008330 -0.059261 -0.089603 0.127559 0.347441 0.383284 0.260014 0.143777 -0.387962 -0.382619 0.512332 -0.372759 0.026067 -0.209359 -0.031687 -0.662776 -0.937012 -0.101146 0.660097 0.472606 0.555657 -0.126760
realli 0.241504 0.062264 0.113047 0.348514 -0.036463 -0.143767 0.274353 -0.502462 -0.266919 0.160897 0.275749 -0.288348 0.294170 0.267076 0.263343 -0.260273 -0.166284 0.285555 0.005165 0.260482 -0.224687 -0.131458 -0.089621 0.272938 -0.177535 0.063683 0.070097 0.281068 0.388398 -0.098526 -0.388339 0.829004 0.180775 -0.204174 -0.379919 -0.065545 -0.397956 0.114668 0.176551 -0.333043 -0.293812 -0.133151 -0.333095 0.280936 0.079425 0.256696 -0.302533 0.535428 0.253393 0.041883 0.023508 -0.120527 0.125348 -0.186898 0.347484 0.401366 -0.164023 0.392471 0.151778 0.526932 -0.112828 0.169478 0.615987 0.351534 -0.523521 0.084192 0.208468 -0.195588 -0.032552 0.219414 0.188474 0.135852 0.313679 0.181608 -0.700381 -0.289252 0.089689 0.359442 -0.271419 -0.244644 -0.085535 0.213829 0.147721 0.346415 -0.352454 0.308177 0.457937 -0.009647 0.154899 0.455169 -0.040032 -0.409125 0.295834 -0.461439 -0.068616 -0.069089 -0.467370 0.252978 0.127640 0.210018
lace 0.371265 -0.192884 -0.260879 -0.259610 0.401760 0.509350 0.228220 -0.293497 -0.144557 0.520138 -0.368372 -0.103912 0.211442 0.232525 0.528656 -0.608743 -0.023498 0.539456 -0.219172 -0.064681 -0.057106 0.355499 -0.490509 0.796520 -0.094953 0.496554 -0.333903 0.260583 0.592197 0.511749 -0.386991 0.146553 -0.324184 -0.454984 -0.268048 -0.333658 0.554496 -0.256539 0.395337 0.206788 0.250278 -0.103443 -0.331971 -0.085780 0.542560 0.255611 -0.142812 -0.318724 0.832025 0.458802 0.686250 0.041595 -0.103026 -0.211494 -0.285329 -0.241343 0.665710 0.210538 0.187632 0.017583 0.502225 0.574656 0.471365 0.007080 -1.034860 -0.522455 0.514513 0.171293 0.337925 0.382182 0.510481 0.599699 0.504850 -0.248957 -0.138757 -0.384212 0.752485 0.030247 -0.337665 0.026625 -0.415091 0.756388 -0.385330 0.064534 0.250791 -0.116086 -0.503281 -0.288048 0.007967 -0.574972 0.361847 0.089531 0.287292 -0.154498 -0.499811 0.229297 -0.069563 -0.315444 0.012957 0.286821
nose 0.241539 0.287746 -0.442083 0.062795 -0.055816 0.163430 0.208199 0.137434 -0.051747 0.142951 -0.096371 0.242166 -0.194140 -0.054301 0.286903 -0.447360 -0.130003 0.147981 0.279170 -0.067597 -0.142293 0.305242 0.027484 0.526476 -0.056595 0.157627 -0.023000 0.300081 0.369838 0.132614 -0.047228 0.521983 0.029477 -0.358580 -0.081673 -0.350125 -0.003267 -0.061142 0.250579 0.034278 -0.196899 -0.303010 -0.394522 -0.264047 0.592781 -0.331164 -0.328233 -0.022790 0.310421 0.240251 0.290257 0.123095 0.055199 0.019284 -0.231101 -0.129333 0.196799 0.072558 0.137685 0.204955 -0.448026 0.336230 1.054911 0.166361 -0.863707 -0.062343 0.105842 -0.121528 0.021749 0.044392 0.432060 0.329084 0.409681 0.089424 -0.027924 -0.156522 0.690536 0.095344 -0.185371 -0.007648 -0.105032 0.584974 -0.092836 0.400574 0.111590 0.076216 -0.347287 -0.324803 0.143180 -0.351010 0.025976 -0.325646 -0.039542 -0.206001 -0.058181 -0.100086 0.119369 0.338323 0.200767 0.261579
white 0.336337 -0.362670 -0.602039 -0.227358 0.302503 0.045925 0.330045 -0.355384 -0.218992 0.513813 -0.541455 0.117999 -0.172206 -0.238836 0.307051 -0.178696 -0.044880 0.561984 0.199251 -0.246144 -0.341092 -0.018872 0.142112 0.818678 -0.143157 0.278465 -0.331939 0.171922 0.391158 0.879141 -0.367305 -0.089282 -0.962060 -0.590755 -0.267315 -0.569929 0.487698 -0.430883 0.146163 0.660141 0.235304 0.365396 -0.113219 -0.397430 0.702892 -0.497573 -0.143673 -0.342452 0.713182 0.160089 0.537704 0.141950 -0.482789 -0.452843 -0.298337 0.397087 1.468905 -0.385859 0.410907 -0.001000 0.510819 0.287897 0.362037 0.041633 -1.381033 -0.822106 -0.000694 0.072341 -0.081280 0.223195 0.195350 0.697853 0.097796 -0.305235 -0.089921 -0.023271 0.222342 -0.062700 -0.319275 0.233000 -0.505686 0.563994 -0.267225 0.588262 0.461124 -0.325009 -0.685919 -0.310869 -0.080233 -0.487072 0.068179 -0.081498 -0.142936 0.058516 -0.268979 0.289770 0.232078 -0.318097 -0.010619 -0.005821
mouthfeel 0.528175 -0.172466 0.349831 -0.039015 0.119865 -0.212897 0.116229 -0.388992 -0.111580 -0.000192 -0.012718 -0.250115 0.249048 0.123546 0.035118 -0.109859 -0.670178 0.238179 0.471873 -0.354165 -0.002342 -0.067331 0.286516 0.476239 -0.155336 0.398011 0.003360 0.145842 0.409135 -0.266797 -0.328435 0.575646 -0.227471 -0.601807 -0.286196 -0.141610 0.089524 0.179110 0.106469 -0.096272 -0.032520 -0.017806 -0.192612 -0.125147 0.041995 -0.158018 -0.464821 0.239909 0.228539 0.333785 -0.059771 -0.027708 -0.284923 -0.147106 0.511853 -0.037473 0.072418 0.255585 -0.230719 0.524841 -0.119601 0.981090 0.590990 0.760107 -0.379624 0.005569 0.122314 -0.030270 -0.643409 0.432860 -0.168862 0.507692 0.270599 0.489049 -0.430124 -0.141944 -0.077149 -0.025099 -0.195742 -0.210772 -0.255979 0.001098 0.417793 0.545030 -0.098109 0.123724 0.025231 -0.362539 -0.239428 0.373820 -0.562525 -0.483609 -0.004810 0.132354 0.440780 0.408207 -0.249715 0.443850 0.007068 0.135214
long 0.669387 -0.076816 -0.032119 0.090218 0.222048 -0.466928 0.263166 -0.579861 -0.136555 0.041926 0.225843 -0.427807 0.264404 0.184954 0.566116 -0.282570 -0.736923 -0.015528 0.285968 -0.362475 -0.250190 0.233801 -0.130546 0.119650 -0.099282 0.409290 -0.470314 0.294321 0.293964 -0.114921 -0.378812 0.604729 -0.256548 -0.559252 -0.539877 -0.165522 0.310129 0.331271 -0.156592 -0.038518 -0.093303 0.080701 -0.002181 0.476863 -0.092898 0.033246 -0.332530 0.034538 0.876864 0.516632 0.358900 0.225176 -0.272313 -0.399533 0.303903 0.160205 0.333823 0.215171 0.055775 0.341545 0.235826 0.442322 0.172578 0.500431 -0.625130 -0.290470 0.525762 0.186100 -0.746331 0.755241 0.297629 0.543154 0.211339 0.396079 -0.457436 -0.022972 0.102433 -0.087039 -0.361150 -0.005688 -0.417240 0.054501 0.197969 0.488828 0.047721 -0.093811 -0.170574 -0.266435 -0.190990 0.302603 -0.417660 -0.458382 0.604582 0.200752 0.249062 0.523478 -0.571755 0.334244 0.001077 0.345721
off 0.364741 -0.301550 -0.283281 -0.194205 0.079557 -0.097217 0.177415 -0.372533 -0.304755 0.498205 -0.261257 -0.071326 -0.045152 -0.254255 0.255981 -0.063774 -0.141141 0.380102 0.290723 -0.212893 -0.293762 -0.169717 0.372970 0.672705 -0.132362 0.199577 -0.279287 0.083360 0.432763 0.557317 -0.365238 -0.086140 -0.757725 -0.567529 -0.137552 -0.539607 0.349585 -0.329175 -0.015164 0.479778 0.035497 0.451551 -0.102693 -0.217560 0.457148 -0.430221 -0.239204 -0.151461 0.663910 0.067313 0.440097 0.168760 -0.583994 -0.520561 -0.202481 0.336549 1.073595 -0.139694 0.270760 0.037676 0.429497 0.345065 0.173285 0.166360 -1.038171 -0.519078 -0.103661 0.013928 -0.167206 0.362396 0.076183 0.644559 0.139430 0.008004 -0.315712 0.056733 0.032841 0.098117 -0.127006 0.191502 -0.352317 0.283876 0.069129 0.454653 0.280598 -0.213022 -0.400993 -0.218344 -0.157214 -0.317447 -0.104325 -0.145950 -0.040457 -0.038459 -0.202680 0.279166 0.218861 -0.233490 0.043055 -0.083309
dri 0.189869 0.240105 -0.532691 0.262060 -0.524641 -0.132751 -0.021527 0.500009 -0.158857 -0.173375 -0.016678 0.684467 -0.512908 -0.047748 -0.016069 -0.208366 -0.134762 0.235686 0.263007 -0.035916 0.063153 0.455216 -0.034014 0.637586 0.028370 0.252977 -0.063367 0.351337 0.319491 -0.004348 -0.000606 0.605805 0.120746 -0.222228 -0.161710 -0.102546 -0.050201 -0.039602 0.140001 0.060051 -0.511763 -0.483413 -0.199599 -0.359831 0.519320 -0.571865 -0.384598 -0.088957 0.252696 0.453463 0.544128 0.064747 0.233775 0.091908 -0.363481 0.149522 0.298307 -0.156439 0.397902 0.086505 -0.827467 0.547127 1.326900 0.364032 -0.800719 0.016775 0.259002 -0.232726 0.062447 0.246833 0.307387 0.393502 0.101298 0.144687 0.428824 0.113893 0.672363 0.098372 -0.095777 -0.041515 -0.165052 0.197344 0.139250 0.604516 0.035054 -0.092262 -0.242557 -0.570538 0.276405 -0.593993 -0.068677 -0.620089 -0.222855 -0.294874 0.107335 -0.098969 0.438262 0.486903 0.128884 0.298425
belgian 0.227058 0.271552 -0.280270 0.274510 -0.374536 0.100293 -0.215893 0.147078 0.036099 0.314673 -0.025602 0.020190 0.151040 -0.042899 -0.328854 -0.003429 0.214697 -0.159188 0.031251 0.053911 0.074335 0.322110 -0.119644 0.285511 -0.060254 -0.140324 0.162608 0.571759 0.382785 0.349653 -0.521740 0.586409 0.325567 -0.000419 -0.112800 -0.390353 -0.153500 0.253542 0.148380 -0.054281 -0.818108 -0.536245 -0.463948 0.005255 0.334732 -0.336596 -0.437748 0.424212 -0.311299 0.485518 0.282455 -0.121979 0.742720 -0.282958 -0.170313 -0.010556 -0.157025 0.117848 -0.177280 0.414827 -0.073714 0.304952 0.319724 0.453960 -0.649181 0.053079 0.016657 -0.152706 0.200545 -0.164935 0.112877 -0.110755 0.518177 -0.376618 -0.820856 -0.430055 0.486697 0.400516 0.248226 0.197036 0.010550 0.739920 0.153393 0.267339 -0.394755 0.547378 -0.101322 0.380555 0.460733 -0.508213 0.039538 -0.109404 -0.318811 -0.511044 -0.515654 -0.235324 -0.498395 0.271621 0.047775 0.466642
trappist 0.140912 0.109154 -0.159143 -0.088546 -0.032565 0.265804 -0.153486 -0.153345 -0.233182 0.700178 0.066689 -0.526167 0.414497 0.140133 -0.009636 -0.082135 0.207320 0.242898 -0.074621 0.324134 -0.146639 -0.083436 -0.031339 0.377272 -0.316744 -0.239392 0.064337 0.412797 0.547296 0.225801 -0.623155 0.242865 0.183952 0.044279 0.001601 -0.267585 -0.123694 0.165722 0.272022 0.065340 -0.523824 -0.181931 -0.674575 0.412972 0.226327 -0.164470 -0.324271 0.359837 -0.169383 0.390210 0.122640 -0.301664 0.254845 -0.536058 -0.422440 0.126373 -0.005976 0.345447 -0.046914 0.220904 0.462934 -0.103914 -0.400581 0.035952 -0.517013 -0.029432 -0.016203 -0.213616 0.350067 0.093236 0.092291 -0.133029 0.282035 -0.197018 -1.234435 -0.450763 0.144349 0.673135 0.400453 0.082369 -0.183654 0.469241 0.102194 -0.062740 -0.291402 0.522842 0.188057 0.379658 0.463159 -0.259981 0.157870 0.299312 0.247132 -0.828790 -1.091688 -0.406018 -0.197211 -0.206210 0.158774 0.349605
almost 0.338747 0.033588 -0.061268 0.125682 -0.135889 -0.127495 -0.192143 0.000944 -0.420224 0.274711 0.188820 -0.133711 -0.068344 -0.356176 -0.041620 0.046032 -0.184364 0.172887 0.305657 -0.160725 -0.320339 -0.039431 0.649316 0.448381 -0.239820 -0.001957 -0.227366 0.030188 0.065823 0.169592 -0.419109 0.290693 -0.112303 -0.596681 0.186168 -0.387817 -0.347833 -0.018284 -0.256716 0.162466 -0.357364 0.017989 -0.434364 0.101104 0.470610 -0.537231 -0.326709 0.270106 0.404385 0.008880 0.151618 0.049357 -0.225232 -0.360429 -0.167953 0.187552 0.046260 0.209231 0.006083 0.145954 -0.170201 0.192427 0.629942 0.571002 -0.464476 -0.006363 -0.018870 -0.357849 -0.027494 0.372370 0.299717 0.297229 0.361716 0.267356 -0.530486 0.019500 -0.004224 0.207861 -0.145633 -0.082583 0.000706 0.263685 0.166933 0.344632 -0.122689 0.292298 -0.221632 -0.231149 0.168136 -0.231436 -0.308497 -0.646225 -0.201781 -0.203445 -0.333477 0.087475 -0.028219 0.297374 0.347786 -0.338742
quit 0.329666 0.023841 0.053451 0.279401 -0.016512 -0.034679 0.200006 -0.422356 -0.244848 0.143728 0.225754 -0.118518 0.198363 0.143882 0.285982 -0.247613 -0.365775 0.213776 0.149196 0.064619 -0.187508 0.028332 0.030897 0.422745 -0.236778 0.231918 -0.060274 0.208505 0.317465 -0.096477 -0.285129 0.730014 0.174268 -0.404930 -0.314049 -0.208688 -0.142211 0.109857 0.132742 -0.227369 -0.190751 -0.012652 -0.208472 0.093897 0.059036 0.085546 -0.334853 0.314647 0.465072 0.135856 0.108728 0.146230 0.049554 -0.083474 0.223311 0.156936 0.082433 0.280288 0.086759 0.353060 -0.178774 0.395767 0.772976 0.403727 -0.475764 -0.089266 0.158851 -0.149785 -0.227656 0.376873 0.208980 0.366689 0.384585 0.212443 -0.479496 -0.097086 0.284575 0.058595 -0.263691 -0.119931 -0.123524 0.294959 0.152142 0.412712 -0.176461 0.088397 0.121872 -0.264885 -0.004481 0.241727 -0.042733 -0.456288 0.234269 -0.188138 0.151508 0.129499 -0.378476 0.239248 0.145232 0.202957
glass 0.197745 0.107962 -0.447458 -0.273876 0.195476 0.486982 0.045717 -0.143489 -0.307377 0.663985 -0.114764 -0.227985 0.159806 -0.015131 0.397720 -0.469033 0.119472 0.362890 0.010977 0.176629 -0.327528 0.064159 0.007339 0.607369 -0.349000 -0.083273 -0.198841 0.252002 0.483121 0.320268 -0.408957 0.011474 -0.041864 -0.114081 0.018395 -0.478377 0.106126 -0.222989 0.351230 0.255436 -0.214182 0.078750 -0.585023 0.163885 0.532753 -0.059095 -0.122422 -0.056693 0.392759 0.212244 0.339795 0.027902 -0.018921 -0.356450 -0.565049 -0.131294 0.382837 0.362694 0.101511 -0.000182 0.395645 -0.218939 0.008506 -0.223337 -0.637818 -0.270443 0.062004 0.048478 0.362913 0.155770 0.462771 0.167270 0.298077 -0.061820 -0.659213 -0.363399 0.592854 0.416749 0.115025 0.089557 -0.231015 0.655903 -0.243854 0.070186 0.087653 0.041778 -0.072538 -0.121878 0.327783 -0.396387 0.307457 0.256799 0.347331 -0.573006 -0.789667 -0.325421 0.066023 -0.332633 0.274539 0.284954
last 0.584030 -0.120908 -0.289583 -0.053324 0.321707 -0.262042 0.310393 -0.483847 -0.238808 0.273248 0.075726 -0.317536 0.149872 0.105057 0.596856 -0.377078 -0.402112 0.124501 0.015275 -0.240470 -0.374148 0.229374 -0.143734 0.187595 -0.175984 0.334204 -0.597615 0.249400 0.194890 0.225296 -0.376989 0.225381 -0.444242 -0.533919 -0.345054 -0.299171 0.356527 0.039298 -0.158023 0.285162 -0.000990 0.217508 -0.042442 0.404699 0.183095 -0.032035 -0.226591 -0.133100 0.936100 0.370991 0.531656 0.191339 -0.361535 -0.493855 -0.063806 0.208427 0.694478 0.077608 0.268166 0.132639 0.388227 0.092246 0.006846 0.210030 -0.831671 -0.503135 0.498597 0.188260 -0.377023 0.644199 0.485322 0.649707 0.187538 0.124311 -0.382399 -0.107453 0.211081 0.033646 -0.420256 0.086442 -0.397638 0.261176 -0.014722 0.334980 0.191693 -0.219123 -0.318171 -0.304901 -0.064341 -0.059333 -0.079324 -0.289009 0.525081 0.013269 -0.197424 0.370245 -0.339790 0.018334 0.097182 0.212203
time 0.281700 0.125754 -0.165900 0.376683 -0.070824 -0.326473 -0.033949 -0.581791 0.020344 0.172351 0.364775 -0.562376 0.322145 0.160802 0.305673 -0.194674 -0.269289 0.078249 -0.023067 0.210274 -0.240368 0.282319 -0.207180 -0.041372 -0.091891 -0.132748 -0.186811 0.300788 0.217189 -0.006954 -0.305818 0.533959 0.235054 0.234833 -0.395269 -0.124557 0.033648 0.378487 0.120229 -0.099526 -0.363153 -0.292357 -0.269158 0.711398 0.047700 0.285357 -0.037098 0.343742 0.401836 0.140649 0.151121 -0.145606 0.218806 -0.198137 -0.023463 0.344192 -0.090010 0.229372 0.201988 0.585065 0.237788 -0.329954 -0.300746 0.057566 -0.261233 -0.162173 0.283625 0.006109 -0.215625 0.254879 0.239298 -0.106453 0.076407 0.008402 -0.716628 -0.322653 -0.062625 0.114873 0.134299 -0.056574 -0.197598 0.389381 0.090440 0.221659 -0.223105 0.101695 0.103251 0.204291 0.331353 0.115719 -0.087544 0.121273 0.742897 -0.554008 -0.422048 -0.231492 -0.764872 -0.041321 0.014508 0.444974
fig 0.196420 0.249420 -0.402529 0.194522 -0.524024 0.003381 0.057984 0.408064 -0.192672 -0.268420 0.039025 0.495366 -0.571535 -0.282388 -0.013889 -0.197663 -0.081550 -0.103956 0.422954 -0.155828 -0.084849 0.391863 0.394073 0.360034 -0.064286 0.109431 0.136721 0.258052 0.126983 -0.004801 0.166194 0.563887 0.046312 -0.265153 0.213057 -0.268781 -0.300900 0.026515 0.229137 0.166853 -0.202728 -0.580455 -0.462743 -0.580406 0.543652 -0.616345 -0.240304 -0.050245 -0.337271 0.161894 -0.027037 -0.139361 0.340547 0.282111 -0.330936 -0.143467 0.075664 -0.137916 0.138172 0.254048 -1.261986 0.381868 1.461148 0.256092 -0.602540 0.308160 -0.057689 -0.237480 -0.072493 -0.301989 0.463036 0.210615 0.402661 -0.064989 0.191928 -0.007531 0.742265 -0.013946 0.015919 -0.019153 0.035191 0.611747 -0.186171 0.562555 0.073802 0.191430 -0.318230 -0.338042 0.437632 -0.579641 -0.136741 -0.515308 -0.387340 -0.181542 0.216631 -0.267096 0.094914 0.393417 0.304726 0.012750
black 0.330495 0.038602 -0.148601 -0.185134 -0.163837 -0.002124 -0.075435 0.437610 -0.482949 -0.002679 0.034487 0.221320 -0.423756 -0.511591 -0.143390 0.150658 0.050768 0.090349 0.468352 -0.408667 -0.282854 -0.019438 0.929345 0.487308 -0.306488 -0.009884 -0.184930 -0.058495 -0.261273 0.335283 -0.273254 0.004438 -0.433141 -0.877715 0.737979 -0.476993 -0.401625 -0.199371 -0.188355 0.590963 -0.040793 0.072451 -0.464893 -0.463762 0.535660 -0.901075 -0.275925 -0.020894 -0.113357 -0.035679 -0.022576 -0.053990 -0.182206 -0.209398 -0.400085 -0.129135 0.270420 -0.069075 0.057184 -0.055613 -0.664337 0.077571 0.780922 0.372409 -0.562065 0.133746 -0.049695 -0.346185 -0.124569 0.015508 0.544732 0.538113 0.453535 0.096646 -0.204159 0.013950 0.239489 0.007206 -0.107083 -0.050247 0.059074 0.563659 -0.194407 0.330210 0.206341 0.272563 -0.535772 -0.288100 0.262791 -0.796046 -0.095026 -0.611208 -0.586470 -0.143057 -0.360928 0.038259 0.289607 0.242678 0.437529 -0.523875
toffe 0.278804 0.311517 -0.282036 0.189924 -0.365478 0.030116 0.142485 0.369177 -0.138590 -0.302331 -0.014024 0.489777 -0.455714 -0.167885 0.054371 -0.158168 -0.210600 -0.060006 0.584258 -0.287376 0.034472 0.403555 0.154963 0.390428 -0.046842 0.134523 0.062867 0.299512 0.222034 0.049449 0.250136 0.589736 0.063460 -0.195727 -0.075017 -0.293958 -0.083188 -0.014991 0.018998 0.136929 -0.298828 -0.298675 -0.253671 -0.376245 0.431976 -0.657445 -0.381208 -0.167727 -0.081671 0.233352 0.264778 0.103267 0.195174 0.219453 -0.181564 -0.143780 0.145839 -0.092454 0.084413 0.127150 -0.875741 0.524752 1.273573 0.461618 -0.554606 0.143489 0.086983 -0.119520 -0.144030 -0.056758 0.227617 0.135901 0.345298 -0.025293 0.257374 0.051896 0.702010 -0.095317 -0.099589 -0.012661 0.079340 0.338206 0.106920 0.669422 0.216961 0.035801 -0.454130 -0.366614 0.265097 -0.410818 -0.176821 -0.548454 -0.365278 0.037805 0.282063 -0.056497 0.135665 0.720141 0.184032 0.185059
high 0.552083 -0.091616 0.467401 0.187844 0.053326 -0.047025 -0.022960 -0.679636 -0.104435 0.042719 0.105659 -0.372029 0.616193 0.002674 -0.096050 -0.190552 -0.699349 0.325158 0.095135 -0.131332 0.117477 -0.173393 0.107336 0.334611 -0.367780 0.207458 0.201976 0.107696 0.265793 0.015861 -0.231116 0.646162 0.095077 -0.162818 -0.481318 0.009374 -0.149924 0.179113 0.124628 -0.373951 -0.190817 -0.221360 -0.231460 0.030691 0.219312 0.218454 0.100259 0.622694 0.195619 -0.030947 -0.136762 -0.149844 -0.098295 -0.099473 0.529319 0.006485 -0.284801 0.181739 -0.468896 0.682609 0.198941 0.664089 0.494240 0.845260 0.102571 -0.007927 0.186553 0.119320 -0.271963 0.484123 -0.354004 0.065836 0.171890 0.321409 -0.417130 -0.219218 0.046921 -0.094412 -0.122769 -0.245882 0.073699 0.042379 0.198381 0.391979 0.147695 0.144521 0.324251 -0.002699 -0.021318 0.504337 -0.562311 -0.333433 0.101670 0.044947 0.521199 0.462561 -0.728046 0.111260 -0.146846 -0.146163
big 0.425260 -0.036080 -0.011436 -0.054885 0.032176 0.068714 0.122456 -0.151392 -0.381755 0.391245 -0.019514 -0.121854 0.097946 -0.089197 0.130285 -0.063044 -0.211542 0.287169 0.206359 -0.063537 -0.200232 -0.023221 0.262394 0.496550 -0.303972 0.185988 -0.205561 0.110506 0.291059 0.248803 -0.253502 0.212709 -0.223909 -0.480343 -0.029263 -0.411963 0.031051 -0.089928 -0.080434 0.336691 -0.171852 0.158673 -0.283034 -0.050499 0.418168 -0.404303 -0.403687 0.073490 0.351063 0.145819 0.270592 -0.000405 -0.252589 -0.407423 -0.149731 0.079665 0.402865 0.132350 0.068150 0.138587 0.038064 0.325122 0.386288 0.443584 -0.618296 -0.230374 0.122637 -0.155332 -0.098925 0.343012 0.144149 0.506155 0.271597 0.025580 -0.508657 -0.151924 0.184727 0.219242 -0.144251 0.002064 -0.105397 0.335911 0.221377 0.361940 0.056473 0.022462 -0.191723 -0.202341 0.076701 -0.194065 -0.130584 -0.394055 -0.145334 -0.194790 -0.376557 0.195957 -0.099367 0.097834 0.177341 -0.032002
brew 0.252690 0.066913 0.073675 0.090091 -0.022959 -0.073451 -0.076171 -0.330049 -0.081064 0.321195 0.111252 -0.462385 0.339771 0.139437 0.078628 -0.087705 -0.101388 0.299459 0.029570 0.162938 -0.065989 -0.079874 -0.090472 0.302724 -0.135426 0.022455 0.103160 0.289283 0.423945 0.088976 -0.472068 0.544106 0.063823 -0.073104 -0.246010 -0.099267 -0.106444 0.237504 0.197425 -0.144209 -0.342034 -0.257151 -0.421900 0.293858 0.095818 0.045734 -0.181122 0.404955 0.077674 0.180376 0.106763 -0.258760 0.117141 -0.295628 0.120583 0.237233 -0.134146 0.285878 -0.047030 0.437775 0.234709 0.225152 -0.003639 0.302702 -0.414494 0.026950 0.145347 -0.234762 0.069184 0.211403 -0.112123 0.026140 0.123887 0.012273 -0.787488 -0.322137 -0.160531 0.317090 0.026465 -0.097720 -0.031831 0.222751 0.153822 0.168909 -0.299362 0.319768 0.217191 0.188808 0.130573 0.051581 -0.121842 -0.117924 0.260792 -0.392196 -0.382356 -0.043254 -0.462630 0.008004 -0.011244 0.233507
cherri 0.207167 0.274315 -0.330284 0.144492 -0.412790 0.001302 0.100094 0.449274 -0.130685 -0.325526 0.009195 0.543566 -0.545614 -0.220637 -0.033654 -0.142666 -0.050193 -0.021556 0.446291 -0.285179 -0.024673 0.305495 0.333555 0.390671 0.009580 0.190090 0.081764 0.195509 0.115799 0.149863 0.126295 0.478999 -0.062894 -0.353849 0.149032 -0.232878 -0.235832 -0.008446 0.038428 0.180586 -0.182629 -0.475690 -0.355641 -0.557064 0.513608 -0.652724 -0.271402 -0.018983 -0.182259 0.182546 0.094899 -0.061832 0.235877 0.212021 -0.227277 -0.153870 0.110688 -0.164980 0.151137 0.152885 -1.012707 0.446435 1.346797 0.334275 -0.646887 0.281622 0.068942 -0.199350 -0.069281 -0.134400 0.417733 0.229885 0.327981 -0.009976 0.323295 0.027717 0.644493 -0.069948 -0.127995 -0.030879 0.072430 0.467526 -0.137763 0.543458 0.204640 0.146879 -0.410941 -0.313044 0.272403 -0.595479 -0.171971 -0.555627 -0.472815 -0.029699 0.236275 -0.030481 0.207727 0.501406 0.187442 -0.041438
rochefort 0.085338 0.153501 -0.087682 0.114736 -0.105572 0.103632 -0.117889 -0.252882 -0.218365 0.511419 0.180393 -0.513393 0.309933 0.037321 0.104347 -0.171106 0.058472 0.248529 -0.104061 0.373617 -0.251828 -0.118639 0.078204 0.257845 -0.298747 -0.271228 0.054109 0.250350 0.283702 -0.005759 -0.408151 0.311639 0.228149 0.094294 -0.129058 -0.173878 -0.235836 0.188379 0.215118 -0.108432 -0.430491 -0.063311 -0.495897 0.412719 0.152617 0.001024 -0.208407 0.413874 0.017605 0.080555 0.042378 -0.166524 0.176811 -0.240136 -0.143391 0.238501 -0.088871 0.241375 0.052728 0.237097 0.231255 -0.196187 -0.199282 0.009136 -0.238035 0.031291 0.004889 -0.231661 0.206024 0.198130 0.039441 -0.083291 0.094987 -0.027309 -0.921424 -0.275655 -0.023176 0.492456 0.194773 -0.013062 -0.089043 0.243063 0.005833 0.028109 -0.273045 0.348242 0.299491 0.208056 0.365776 0.088767 0.047244 0.099473 0.327998 -0.683134 -0.631942 -0.315831 -0.185990 -0.104343 0.144645 0.227686
feel 0.360425 -0.276996 0.408469 0.166163 0.110163 -0.180387 0.226090 -0.519743 -0.213038 -0.229812 0.086963 -0.429498 0.438879 0.352793 0.215228 0.059654 -0.743614 0.195527 0.380408 -0.162211 0.120283 -0.210475 0.112601 0.221418 -0.074485 0.515527 0.086511 0.102595 0.379855 -0.175713 -0.182516 0.597480 -0.117188 -0.258944 -0.348716 0.039673 0.053805 0.376879 0.076448 -0.306736 0.039819 -0.114837 -0.170441 0.111858 -0.059608 0.171152 -0.376841 0.340623 0.242891 0.362089 -0.017416 -0.136137 -0.231066 -0.067339 0.704462 0.113197 -0.087487 0.181340 -0.203295 0.706075 0.038132 0.862112 0.512415 0.579800 -0.216667 -0.030299 0.027602 -0.051245 -0.505680 0.332254 -0.181562 0.227541 0.035778 0.325885 -0.529985 -0.230971 -0.214606 0.045414 -0.181470 -0.140782 -0.183439 -0.112695 0.248281 0.451523 -0.174661 0.257265 0.167661 -0.229312 -0.304102 0.409016 -0.677196 -0.539020 0.169572 0.222515 0.414082 0.359005 -0.339125 0.333783 -0.149154 0.233168
it 0.249868 0.049717 0.155076 0.270688 -0.003601 -0.050976 -0.096409 -0.512874 -0.134802 0.216534 0.203564 -0.375087 0.301924 0.013273 0.105194 -0.117063 -0.243218 0.305455 -0.016003 0.201810 -0.134876 -0.064127 0.086801 0.279988 -0.148309 0.017606 0.055163 0.117596 0.245836 -0.023556 -0.303915 0.496403 0.265361 -0.093069 -0.333460 -0.137724 -0.257481 0.203606 0.104383 -0.331703 -0.247849 -0.102128 -0.268654 0.216281 0.044213 0.217099 -0.040074 0.431902 0.219220 -0.041284 0.004888 -0.068534 0.149359 -0.083923 0.316436 0.200695 -0.228618 0.240185 -0.069284 0.400150 0.163311 0.150852 0.158874 0.332713 -0.148225 -0.003141 0.158095 -0.054932 -0.034077 0.308115 -0.048628 0.030262 0.109794 0.152062 -0.561848 -0.222918 -0.105159 0.144710 -0.059934 -0.178858 -0.045019 0.164703 0.119377 0.168150 -0.273101 0.175633 0.323426 0.101019 0.068937 0.301980 -0.196005 -0.138904 0.250531 -0.254628 -0.083443 0.087068 -0.468997 0.019345 -0.024945 0.183681
slightli 0.327274 -0.024716 0.022916 0.146574 -0.011843 -0.008005 0.106497 -0.037215 -0.322772 0.088446 0.089086 0.057901 0.008213 -0.054022 0.146804 -0.004263 -0.503660 0.127642 0.500347 -0.229394 -0.110691 0.100504 0.202309 0.504867 -0.251813 0.221535 -0.236243 0.084426 0.296354 -0.097325 -0.074304 0.476550 -0.046500 -0.421118 -0.272348 -0.257359 -0.015247 0.102748 -0.020037 0.086732 -0.206236 0.130909 -0.097048 -0.073660 0.137180 -0.392247 -0.308315 0.028461 0.422978 0.149224 0.178224 0.236628 -0.152764 -0.159698 0.013877 0.022927 0.234583 0.213713 -0.087926 0.046300 -0.295688 0.626189 0.716162 0.612565 -0.323099 -0.115297 0.162404 -0.049815 -0.352236 0.465342 0.010206 0.363363 0.230306 0.239188 -0.129190 0.204357 0.259703 -0.122729 -0.181066 -0.000891 -0.071570 -0.009588 0.268659 0.606381 0.136093 -0.070620 -0.216446 -0.311887 0.033768 0.066201 -0.296148 -0.443785 0.068571 0.145237 0.222108 0.397018 -0.059103 0.473792 0.186139 0.054698
no 0.279145 -0.029750 -0.060597 0.167993 0.128771 0.057088 0.117437 -0.261939 -0.134727 0.190969 0.009373 -0.178697 0.220375 0.079270 0.160737 -0.087942 -0.180531 0.271807 -0.019826 -0.007558 -0.037376 0.017163 -0.118584 0.356972 -0.164811 0.190107 -0.157412 0.060122 0.179348 0.303158 -0.311290 0.357893 -0.192469 -0.205856 -0.364106 -0.156321 -0.031787 0.078064 0.059693 0.050444 -0.011831 -0.100469 -0.237262 0.164326 0.366103 0.033050 -0.031226 0.132374 0.434563 0.080768 0.247647 0.040565 0.058627 -0.155668 0.103897 0.132378 0.222455 -0.014020 -0.015890 0.265318 0.270080 0.295055 0.426125 0.303313 -0.423774 -0.245764 0.190629 -0.110583 0.049282 0.324414 0.178213 0.178436 0.178966 -0.181924 -0.284631 -0.132252 0.086714 -0.085153 -0.287512 0.017142 -0.082638 0.377475 -0.216032 0.294296 0.039001 0.125256 -0.100042 0.027672 0.132266 -0.026541 -0.087555 -0.245040 0.118093 -0.020367 -0.055014 0.222810 -0.395377 -0.027462 -0.038137 0.061238
beig 0.321897 -0.289145 -0.318428 -0.342033 0.449320 0.092582 0.324785 -0.187443 -0.295850 0.393009 -0.387761 0.115903 -0.085540 -0.112570 0.124485 -0.136543 0.003022 0.484296 -0.021755 -0.267491 -0.290816 -0.028073 0.186482 0.560152 -0.304862 0.235945 -0.504191 -0.009955 0.048600 0.583161 -0.201534 -0.378391 -0.752539 -0.531603 -0.051502 -0.446934 0.325534 -0.433630 -0.032513 0.792115 0.289518 0.506260 -0.064396 -0.202238 0.603438 -0.443360 -0.180018 -0.382112 0.520441 0.078436 0.359104 0.131068 -0.477110 -0.449185 -0.267337 0.186030 1.200642 -0.250038 0.247195 -0.129976 0.401917 0.156758 0.091095 0.187950 -0.780170 -0.707381 0.073021 0.005991 -0.061483 0.300168 0.240895 0.724408 0.000920 -0.189366 -0.089334 -0.132988 0.129772 0.014792 -0.402272 0.072094 -0.278466 0.323625 -0.078476 0.403496 0.477455 -0.330931 -0.539785 -0.432540 -0.074512 -0.311964 0.095074 -0.163875 -0.269750 0.047199 -0.354019 0.336567 0.230016 -0.132468 0.054186 -0.142430
first 0.289869 0.154066 -0.172861 0.382651 -0.191024 -0.168552 0.022048 -0.354422 0.037140 0.145123 0.226177 -0.333907 0.143695 0.065160 0.143703 -0.146245 -0.225073 0.019551 0.153225 0.084615 -0.156241 0.317332 -0.095284 0.064767 -0.003127 -0.015291 -0.031141 0.250258 0.203107 0.039237 -0.179733 0.645186 0.281758 0.129431 -0.297558 -0.108901 -0.025422 0.260025 0.083423 -0.055505 -0.441881 -0.395655 -0.289676 0.374707 0.247026 0.097382 -0.159652 0.417323 0.311318 0.139705 0.216754 -0.079596 0.312065 -0.036529 -0.041236 0.232211 -0.212629 0.205590 0.223460 0.543602 -0.045448 -0.158847 0.209231 0.158871 -0.405972 -0.092374 0.199069 -0.042089 -0.168481 0.181662 0.311260 -0.045578 0.122055 0.020153 -0.528104 -0.262792 0.161509 0.100535 0.145293 -0.100920 -0.106047 0.518841 0.070938 0.231069 -0.165366 0.091706 -0.092729 0.059858 0.306367 0.031863 -0.060395 -0.040514 0.395500 -0.501401 -0.214382 -0.187883 -0.582338 0.119416 0.016339 0.381814
dry 0.409978 0.029741 0.138018 0.238534 -0.131436 -0.292576 0.026711 0.022346 -0.088108 -0.298348 0.184466 0.076756 -0.000452 0.164816 0.159443 0.051811 -0.653181 -0.072803 0.525442 -0.326301 0.135267 0.177162 -0.002245 0.323326 0.030659 0.472996 -0.087046 0.110120 0.349966 -0.180792 -0.100333 0.766265 -0.046322 -0.349912 -0.422427 0.026600 0.004433 0.328713 -0.166346 -0.198876 -0.230232 -0.195060 0.042677 -0.012420 -0.108988 -0.233635 -0.299970 0.144486 0.413729 0.454206 0.228354 0.224835 0.001643 0.040040 0.399774 -0.004818 -0.039922 0.086826 -0.133332 0.185577 -0.342757 0.896439 0.839318 0.684234 -0.231502 0.134807 0.305805 -0.063386 -0.536243 0.547879 -0.062104 0.308987 0.123302 0.313393 0.090170 0.245128 0.128618 -0.206350 -0.190298 0.009244 -0.059942 -0.192183 0.262088 0.578037 -0.014849 0.042777 -0.093423 -0.214295 -0.130572 0.111516 -0.556783 -0.612102 0.097163 0.434168 0.678344 0.512931 -0.224274 0.548579 -0.068296 0.191593
m 0.039664 0.138441 0.243267 0.308880 -0.263625 -0.281774 0.019818 -0.258163 -0.029119 0.053611 0.407544 -0.318747 0.295743 0.256248 0.020117 -0.144101 0.075698 0.098629 -0.224245 0.441421 -0.029016 -0.170023 -0.055089 0.007798 -0.270282 -0.171972 0.136035 0.029914 0.082720 -0.275937 -0.207363 0.551073 0.262881 0.180915 -0.185785 0.156944 -0.414205 0.044836 0.245580 -0.314537 -0.206126 -0.138821 -0.195934 0.451960 -0.047349 0.334392 -0.045182 0.415973 -0.126104 -0.005447 -0.136445 -0.055116 0.274575 0.071846 0.312874 0.338070 -0.103894 0.119858 0.026762 0.424234 -0.158359 0.005620 0.175388 -0.000789 0.183815 0.183227 -0.114356 -0.422498 0.022497 0.158737 0.026683 -0.137363 0.003461 0.120610 -0.604306 -0.206181 -0.077835 0.286301 -0.027780 -0.116973 0.057306 0.124159 -0.033229 0.107504 -0.231269 0.409127 0.630086 0.154928 0.212131 0.325919 -0.028925 -0.196194 0.265516 -0.454902 0.201692 -0.431207 -0.348331 -0.002729 -0.018740 0.234509
aftertast 0.433131 0.090929 0.087503 0.244493 -0.071868 -0.253306 0.066563 -0.161859 -0.033029 -0.207864 0.162533 -0.128064 0.102890 0.186680 0.249542 -0.070242 -0.595068 -0.026693 0.410159 -0.225231 0.075149 0.163050 -0.082372 0.236213 0.026568 0.394682 -0.016313 0.216114 0.316491 -0.113238 -0.137856 0.798790 -0.006439 -0.288439 -0.440402 -0.042356 0.022870 0.364969 -0.078112 -0.245896 -0.188739 -0.220080 -0.065632 0.112789 -0.073220 -0.022606 -0.270681 0.195459 0.426770 0.397935 0.255392 0.159207 0.074425 -0.005076 0.427631 0.029253 -0.095524 0.125667 -0.097130 0.324753 -0.179656 0.704868 0.700700 0.556787 -0.304749 0.061181 0.334504 -0.015852 -0.463804 0.459478 0.022155 0.267769 0.184175 0.221976 -0.128596 0.080521 0.148892 -0.154061 -0.183424 -0.023974 -0.105433 0.018890 0.124564 0.476338 -0.071217 0.073984 -0.062667 -0.081399 -0.080217 0.188227 -0.489482 -0.489502 0.213363 0.273611 0.508221 0.409184 -0.434647 0.411359 -0.064445 0.266487
mouth 0.257843 -0.200281 0.232082 0.139304 0.147566 -0.117494 0.209977 -0.323745 -0.090504 -0.215661 -0.011429 -0.265499 0.244208 0.311842 0.251360 0.022038 -0.708213 0.191813 0.433578 -0.161747 0.141933 -0.098576 0.070627 0.257647 0.033290 0.514289 0.119744 0.115804 0.370354 -0.188533 -0.062960 0.545408 -0.032365 -0.182686 -0.289398 0.041074 0.150703 0.370862 0.130446 -0.273333 0.049794 -0.156529 -0.149222 0.009229 0.002290 0.109135 -0.356344 0.172683 0.190234 0.411703 0.020352 -0.081265 -0.183128 0.039959 0.587106 -0.002703 -0.086457 0.092979 -0.108737 0.583652 -0.057107 0.741764 0.516238 0.398454 -0.264623 -0.039615 0.025154 0.018153 -0.485486 0.264471 -0.117179 0.217757 0.022651 0.318808 -0.312659 -0.182963 -0.135530 0.015175 -0.090116 -0.102928 -0.269346 -0.049160 0.178090 0.378731 -0.163614 0.149817 0.086448 -0.292702 -0.320973 0.315320 -0.610164 -0.426209 0.165659 0.228454 0.377435 0.272091 -0.130865 0.346356 -0.158286 0.383974
ve -0.047447 0.166338 -0.162958 0.271278 -0.234997 -0.195495 -0.173182 -0.728755 0.113876 0.467512 0.193071 -0.588578 0.401110 -0.058040 -0.435531 -0.014069 0.482726 0.150523 -0.301262 0.201770 -0.319818 0.118911 0.094015 0.091504 -0.005313 -0.627439 -0.176933 0.496605 0.178648 -0.189026 -0.649734 0.378338 0.430278 0.314567 -0.566188 -0.315300 -0.131191 0.442104 0.510567 -0.191697 -0.539482 -0.515726 -0.594148 0.431059 0.299394 0.163087 -0.005071 0.573335 0.022968 -0.095277 -0.037981 -0.282520 0.904369 -0.313360 -0.024313 0.524457 -0.205785 0.346296 0.160723 0.529023 0.450593 -0.140708 -0.306645 0.239315 -0.416109 -0.380186 -0.030935 0.058840 0.213195 -0.066515 0.081931 -0.348526 -0.115176 -0.123656 -0.940059 -0.570009 -0.290375 0.259169 0.012304 -0.483660 -0.143337 0.472692 0.010974 0.242836 -0.535074 0.241228 0.140513 0.372960 0.213594 0.288027 0.046194 0.355330 0.297572 -0.882264 -0.504510 -0.283359 -0.779881 0.042680 -0.080524 0.592260
red 0.149241 0.133614 -0.510942 -0.002295 -0.247616 0.012681 -0.087557 0.531693 -0.323298 0.200246 -0.014204 0.429603 -0.628420 -0.485925 -0.009339 0.021155 -0.061358 0.194894 0.306556 -0.309615 -0.214423 0.117768 0.537193 0.555172 -0.223332 0.016318 -0.312160 0.093860 -0.021922 0.309962 -0.175035 -0.129499 -0.367029 -0.533246 0.338447 -0.467967 -0.355047 -0.203835 -0.192599 0.725435 -0.248081 0.133520 -0.355095 -0.371294 0.603587 -0.946205 -0.214018 -0.077750 0.206114 -0.055701 0.148290 0.047759 -0.187133 -0.322700 -0.564208 0.099126 0.502427 -0.134589 0.276396 -0.290655 -0.442812 0.027788 0.681961 0.421182 -0.576432 0.016671 0.032080 -0.242404 0.190768 0.341871 0.297161 0.251982 0.007733 0.149830 0.103425 0.175508 0.215149 0.154589 -0.163354 0.025500 0.106463 0.033210 0.152266 0.418615 0.224597 -0.029358 -0.510659 -0.510117 0.273750 -0.642467 -0.139198 -0.370562 -0.450036 -0.222122 -0.349110 0.101126 0.568105 0.355789 0.314135 -0.267149
candi 0.408536 0.247008 -0.245724 0.085242 -0.635872 -0.003317 -0.019849 0.544267 -0.150868 -0.136362 -0.067654 0.515401 -0.321348 -0.326956 -0.058222 -0.019473 -0.123061 -0.319306 0.362322 -0.152536 0.084584 0.446206 0.160622 0.256735 0.037051 0.068618 0.017224 0.066123 0.135709 0.206547 0.197572 0.539669 0.024521 -0.182271 0.122100 -0.323532 -0.127945 -0.200709 -0.051715 0.200955 -0.529824 -0.315670 -0.192032 -0.282204 0.507264 -0.648262 -0.420165 -0.105951 0.168363 0.165637 0.540458 0.279109 0.314646 -0.104774 -0.293387 0.044975 0.104616 -0.172978 0.101796 0.101851 -0.722307 0.489532 1.420275 0.520432 -0.564818 0.060257 -0.176489 -0.333690 0.038551 -0.103215 0.294687 0.378557 0.431363 -0.013607 0.064188 0.043324 0.743511 0.135701 -0.061603 0.091135 0.326935 0.424644 0.189394 0.534289 0.054426 0.011457 -0.403295 -0.365397 0.147461 -0.584704 -0.046792 -0.793133 -0.582939 -0.014082 0.330722 -0.151743 -0.096081 0.461599 0.266933 -0.091879
e -0.299897 0.051548 0.031436 -0.035441 -0.053371 -0.008506 -0.005572 0.125108 0.178612 -0.204019 0.048012 0.217972 -0.022756 0.157653 -0.149715 0.090330 0.433242 -0.162004 -0.304731 0.186707 0.118699 -0.086188 -0.201660 -0.427030 0.144100 -0.103708 0.095207 -0.142638 -0.265206 -0.024609 0.206428 -0.351704 0.076565 0.314410 0.204673 0.369535 -0.077064 -0.152771 -0.040218 -0.111227 0.198662 0.110466 0.235728 0.096691 -0.331196 0.266759 0.171703 -0.205309 -0.357294 -0.076587 -0.213488 0.024394 0.150890 0.178191 -0.021769 -0.081210 -0.056581 -0.178583 0.044957 -0.166727 0.022596 -0.392704 -0.417160 -0.500135 0.380868 0.075579 -0.273561 -0.077478 0.159327 -0.326541 0.009406 -0.268088 -0.177515 -0.180976 0.311353 0.057895 -0.072474 0.011778 0.150549 0.050333 0.063943 -0.138520 -0.216211 -0.409888 -0.003795 0.133286 0.265242 0.201620 -0.090081 -0.051778 0.271082 0.228485 -0.083619 -0.018384 0.129733 -0.308683 0.125717 -0.249462 -0.146391 -0.102304
perfect 0.340131 -0.055423 0.188361 0.024106 0.040284 -0.135667 -0.157045 -0.343430 -0.111133 0.219947 0.041771 -0.402792 0.263179 -0.004651 -0.027587 -0.011086 -0.263660 0.269489 0.136361 -0.065000 -0.027769 -0.038062 0.138487 0.330782 -0.171010 0.061961 0.013400 0.223961 0.321631 -0.029333 -0.470251 0.431099 -0.018418 -0.268531 -0.203011 -0.146492 -0.019881 0.253950 0.159539 -0.082375 -0.223283 -0.132515 -0.303406 0.178984 0.089485 0.010720 -0.148219 0.296948 0.089382 0.113694 -0.007760 -0.190783 0.024950 -0.229355 0.223350 0.093577 -0.077791 0.252916 -0.117016 0.412257 0.143239 0.359904 0.064758 0.470768 -0.245370 -0.053368 0.184957 -0.117674 -0.188920 0.273055 -0.114990 0.145161 0.221241 0.161963 -0.646454 -0.249861 -0.211152 0.111241 -0.007512 -0.172731 -0.112704 0.198458 0.252851 0.244760 -0.270319 0.201765 0.101786 -0.025358 0.056964 0.169369 -0.240407 -0.207602 0.131079 -0.217053 -0.190008 0.082662 -0.435638 0.098516 -0.013318 0.177365
spici 0.292098 0.252089 -0.196611 0.186243 -0.124478 -0.043340 0.093532 0.268251 0.053480 -0.204201 -0.006522 0.312797 -0.074687 0.088562 0.171634 -0.174212 -0.392516 -0.091849 0.491507 -0.249924 0.128039 0.349746 -0.161938 0.423397 0.043869 0.341928 -0.013068 0.252338 0.441522 0.018480 0.023107 0.751682 0.083015 -0.234704 -0.340141 -0.182840 0.083433 0.155203 0.044236 -0.139544 -0.281127 -0.316673 -0.112147 -0.192275 0.244906 -0.310648 -0.295438 -0.023988 0.389069 0.451977 0.371522 0.265080 0.124659 0.129010 0.128372 -0.170286 0.014834 0.105088 -0.111739 0.188082 -0.459032 0.789595 1.100116 0.496699 -0.515605 0.061754 0.188110 -0.093270 -0.252618 0.209137 0.116611 0.236264 0.293979 0.136082 0.158680 0.107605 0.571268 -0.164192 -0.163649 0.050447 -0.008065 0.212264 0.067582 0.561601 0.118082 0.076562 -0.325853 -0.208864 0.008529 -0.200376 -0.248320 -0.458343 -0.005061 0.279560 0.477324 0.239207 -0.093793 0.575907 0.037845 0.305072
wine 0.125374 0.237754 -0.545944 0.295920 -0.311083 -0.120689 -0.165569 0.430650 0.024683 -0.048795 -0.048296 0.326942 -0.503038 -0.262263 0.057607 -0.101970 -0.250325 0.040397 0.375482 -0.191865 -0.060480 0.337551 0.048539 0.507944 -0.086734 0.051457 -0.021134 0.379312 0.119372 0.166186 -0.140577 0.392931 -0.100321 -0.194809 0.003877 -0.303418 -0.339801 0.147276 0.076143 0.286071 -0.325998 -0.350893 -0.395637 -0.250097 0.373898 -0.545050 -0.037079 0.048634 0.200344 0.116451 0.077120 0.004918 0.255290 0.010383 -0.231531 0.154885 0.149106 -0.049351 0.154579 0.008904 -0.513366 0.097909 0.919387 0.401557 -0.463571 0.138839 0.080577 -0.227044 0.070257 0.229200 0.165573 -0.108283 -0.057569 0.104629 0.114326 0.158441 0.301313 -0.064829 -0.029235 -0.052334 0.025631 0.097388 -0.013400 0.444084 0.019300 0.167518 -0.344484 -0.313863 0.343275 -0.426921 -0.195568 -0.191998 -0.060879 -0.114420 0.015572 -0.007619 0.149875 0.394539 0.135760 0.105500
overal 0.329433 -0.071802 0.348364 0.235223 0.020372 -0.184647 0.020783 -0.553623 -0.162647 0.050657 0.232092 -0.392823 0.355784 0.241148 0.197340 -0.081173 -0.427507 0.214859 0.137662 0.073616 -0.045829 -0.078319 0.006476 0.257235 -0.093864 0.309058 0.079332 0.202888 0.377187 -0.175410 -0.391618 0.750234 0.108298 -0.299153 -0.347048 -0.013468 -0.119670 0.315089 0.063929 -0.398858 -0.171623 -0.090336 -0.170875 0.204416 -0.236199 0.295103 -0.257698 0.457508 0.270709 0.251352 0.006961 -0.039274 0.063499 -0.106819 0.560464 0.164447 -0.206446 0.290189 -0.094031 0.501356 0.059785 0.586878 0.326424 0.477095 -0.245215 0.089722 0.212577 -0.116138 -0.319141 0.360349 -0.114199 0.251166 0.296034 0.210323 -0.613881 -0.217674 -0.114663 0.116127 -0.105218 -0.154391 -0.147281 0.064267 0.244577 0.261301 -0.395500 0.252652 0.316964 0.022435 -0.092658 0.406081 -0.306517 -0.336852 0.281990 -0.058520 0.198482 0.206823 -0.560509 0.165816 -0.049328 0.251160
better 0.101861 0.178171 0.028952 0.370858 -0.165438 -0.094623 -0.102269 -0.341829 -0.082471 0.134553 0.252339 -0.464032 0.281346 0.182078 0.075738 -0.076261 -0.034631 0.156669 -0.060321 0.342732 -0.084128 -0.056269 -0.252765 0.039503 -0.088904 -0.099965 0.126721 0.236284 0.195800 0.027340 -0.275831 0.603239 0.287340 0.219444 -0.431368 0.042082 -0.189979 0.385504 0.099397 -0.335265 -0.330333 -0.330695 -0.232634 0.376965 -0.051369 0.306275 -0.040672 0.510734 0.082356 0.044713 0.061390 -0.242955 0.345666 0.000850 0.250395 0.288809 -0.320616 0.215294 0.069134 0.490481 0.134190 -0.046808 0.067733 0.146903 -0.121671 0.122842 0.205512 -0.167770 0.097284 0.081868 -0.014884 -0.187513 0.067649 -0.163681 -0.564733 -0.279965 -0.079252 0.145179 0.008720 -0.123032 0.040287 0.197623 -0.081076 0.134519 -0.415756 0.262854 0.333361 0.287422 0.324741 0.235041 -0.021796 -0.050219 0.389677 -0.363149 -0.226293 -0.062121 -0.604892 -0.058228 -0.007449 0.287718
go -0.040197 0.105402 0.052426 0.186867 -0.218453 -0.304471 0.178819 -0.085125 -0.127353 -0.112601 0.259021 -0.114597 0.264014 0.354233 0.034039 -0.304348 0.131629 0.008860 -0.200857 0.232184 -0.062132 -0.057178 -0.403766 -0.071100 -0.198200 -0.102005 0.141364 0.217935 0.234854 -0.170807 -0.123893 0.536364 0.144514 0.259892 -0.233862 0.333027 -0.297514 -0.071029 0.295604 -0.261811 -0.314674 -0.284376 -0.096478 0.447922 -0.006425 0.180938 0.036917 0.355613 -0.146915 0.085605 0.041798 -0.135078 0.200669 -0.066543 0.042830 0.425378 -0.065982 0.135109 0.177051 0.479913 -0.228887 -0.069201 0.318081 0.075093 -0.213603 0.132617 0.055422 -0.319508 0.211380 -0.039982 0.091160 -0.305944 0.028934 -0.094476 -0.363841 -0.189791 0.138765 0.287144 -0.182746 -0.157087 0.102831 -0.035902 0.099165 0.098484 -0.108615 0.306884 0.614338 0.005313 0.269564 0.096917 0.235957 -0.322051 0.313312 -0.426488 -0.009735 -0.411776 -0.287754 0.281226 0.055150 0.232621
even 0.181607 0.192949 -0.002637 0.416720 -0.268316 -0.123651 -0.008378 -0.233259 -0.128759 -0.044780 0.252034 -0.177030 0.087373 0.076509 0.048419 -0.091197 -0.088787 0.113969 0.097693 0.210873 -0.079769 0.013534 -0.056136 0.140537 -0.078849 -0.045557 0.101661 0.204407 0.183325 0.036664 -0.212052 0.590863 0.208350 0.057955 -0.324711 -0.117665 -0.304343 0.290179 0.049657 -0.171972 -0.269431 -0.314871 -0.280692 0.178510 0.126465 0.016806 -0.142672 0.389064 0.066745 0.006387 0.066946 -0.149456 0.344381 -0.011134 0.161506 0.273349 -0.151188 0.120623 0.133110 0.480094 -0.186701 0.077916 0.513984 0.277080 -0.235901 0.127344 0.171566 -0.181840 -0.025776 0.071470 0.149029 -0.018704 0.158050 -0.088298 -0.427692 -0.214913 0.124575 0.088713 -0.069579 -0.125036 0.032121 0.327911 -0.006515 0.340409 -0.326672 0.251930 0.243792 0.117653 0.340949 0.103254 -0.098610 -0.270232 0.114887 -0.331324 -0.053272 -0.088939 -0.481542 0.113781 0.084673 0.204704
al 0.105403 0.209357 -0.174481 0.011586 -0.159516 0.138674 -0.108722 0.083534 -0.036953 0.299540 0.023754 -0.073057 0.135190 0.020356 -0.201320 0.052217 0.267790 0.027524 -0.043142 0.156296 0.003900 0.007704 -0.087215 0.149963 -0.105724 -0.162202 0.072268 0.241596 0.224465 0.263191 -0.376437 0.132603 0.173384 0.068874 0.031303 -0.208608 -0.163109 0.051377 0.070494 -0.020389 -0.473575 -0.190996 -0.380367 0.145921 0.170001 -0.171137 -0.233970 0.212526 -0.185060 0.269051 0.150569 -0.136385 0.348815 -0.273123 -0.198213 0.008273 -0.059122 0.081214 -0.108079 0.149307 0.219188 -0.014493 -0.133247 0.034648 -0.339003 0.005336 -0.108542 -0.111202 0.272670 -0.069110 0.075986 -0.128816 0.182051 -0.196228 -0.585737 -0.308085 0.196204 0.423566 0.269912 0.112432 0.009269 0.349224 0.027135 0.023581 -0.171586 0.382929 0.072804 0.348494 0.287695 -0.341394 0.073746 0.060811 -0.122559 -0.422091 -0.519267 -0.242783 -0.155176 -0.064604 -0.006862 0.212789
