1492 100
</s> -0.21936 0.0053552 0.015653 -0.14211 0.13007 0.052095 0.094549 0.17588 0.041092 0.29325 0.0013387 0.19035 -0.01619 -0.07668 -0.27343 -0.18507 -0.14283 0.11001 -0.071367 -0.1411 -0.081862 0.19243 0.073373 -0.36008 0.06077 -0.096528 0.26989 -0.0034821 -0.13687 0.20312 0.013507 -0.10545 -0.23391 0.0044195 -0.01195 0.065132 -0.19248 0.19135 0.045218 0.17071 -0.011289 -0.0098428 -0.072381 0.37103 0.15605 0.16437 0.17229 -0.059049 -0.080948 -0.077233 -0.23333 -0.0060993 -0.21939 0.2414 0.23476 -0.16398 0.10166 0.10362 -0.18252 0.23147 -0.065103 0.10061 -0.064323 -0.033934 0.10194 -0.047931 0.14988 0.10042 0.036992 -0.065489 -0.11457 -0.080513 -0.0033753 -0.11823 -0.19274 0.18107 0.051431 0.24588 -0.13284 0.2115 0.096908 -0.085701 0.24735 0.10699 0.20511 -0.26783 0.015149 -0.078882 -0.10468 -0.020515 -0.00087237 -0.02907 0.22088 -0.051179 0.17927 -0.13215 0.21757 -0.070734 -0.08654 -0.080427 
beer -0.28013 0.050784 0.024112 -0.008387 0.13362 0.014239 0.07352 0.28293 0.020587 0.38282 -0.001855 0.053067 -0.020559 -0.081365 -0.19964 -0.24495 -0.082553 0.05674 -0.058598 -0.026855 -0.081014 0.31698 0.043699 -0.41335 -0.063296 -0.050315 0.35612 -0.078883 -0.24076 0.21335 0.050987 -0.0519 -0.24063 -0.017869 -0.02949 0.031092 -0.21672 0.20823 0.088483 0.10399 -0.022997 -0.2101 -0.039741 0.43064 0.092219 0.1966 0.036978 -0.065074 -0.026294 -0.061873 -0.22128 0.091436 -0.10492 0.34229 0.22119 -0.09578 0.005011 0.049799 -0.20076 0.20794 -0.042758 -0.0058849 -0.07533 0.017435 0.069277 -0.1193 0.15525 0.1032 0.080402 0.017146 -0.16697 -0.074384 0.040105 -0.075632 -0.10339 0.20765 0.14061 0.29479 -0.073607 0.17053 0.10058 -0.13309 0.2701 0.16343 0.33138 -0.36115 0.14012 -0.046206 -0.080935 0.0079526 -0.11328 -0.09727 0.3192 -0.024051 0.15039 -0.20918 0.29849 -0.038454 -0.24765 -0.081277 
tast -0.16792 -0.034908 0.022874 -0.22116 0.11625 0.080516 0.088903 0.1198 0.020407 0.231 0.0065493 0.27615 -0.045635 -0.10039 -0.33105 -0.1601 -0.17331 0.13828 -0.089589 -0.19148 -0.093599 0.11412 0.087883 -0.3238 0.1275 -0.11761 0.2208 0.050727 -0.088902 0.18368 0.025069 -0.14279 -0.23041 0.043068 0.025173 0.075739 -0.20725 0.21285 0.040134 0.23172 -0.038992 0.096288 -0.10352 0.345 0.22196 0.13657 0.28413 -0.035866 -0.091724 -0.087527 -0.23046 -0.082864 -0.2617 0.17303 0.2601 -0.1953 0.16888 0.13617 -0.19113 0.24181 -0.06222 0.15939 -0.065706 -0.09003 0.11865 -0.024668 0.16788 0.08567 0.0021776 -0.14067 -0.069014 -0.092298 -0.011482 -0.14145 -0.259 0.19107 -0.017295 0.18955 -0.17909 0.24763 0.1104 -0.070661 0.23004 0.10476 0.15538 -0.21808 -0.042806 -0.11413 -0.12517 -0.024428 0.037085 -0.014593 0.15204 -0.058449 0.21656 -0.076756 0.17992 -0.12827 0.0050278 -0.063105 
not -0.21526 0.00042003 0.024157 -0.12663 0.12062 0.059155 0.081501 0.17341 0.028697 0.28521 0.00053558 0.18367 -0.027386 -0.079434 -0.2652 -0.18408 -0.13714 0.099511 -0.061449 -0.12822 -0.076765 0.18855 0.068972 -0.35217 0.060214 -0.08704 0.27633 -0.00092875 -0.14368 0.18429 0.016791 -0.10699 -0.22373 0.013196 -0.0011335 0.064704 -0.19817 0.20425 0.042426 0.17889 -0.029289 -0.02743 -0.081221 0.36936 0.1555 0.15368 0.16842 -0.061704 -0.061102 -0.073054 -0.22174 -0.01186 -0.20544 0.23888 0.23761 -0.15338 0.10184 0.097351 -0.17933 0.22603 -0.059562 0.091802 -0.077623 -0.041306 0.10287 -0.054012 0.15541 0.097438 0.029695 -0.068283 -0.10982 -0.083031 0.0023092 -0.11714 -0.19253 0.19449 0.054533 0.24398 -0.132 0.21138 0.10629 -0.083901 0.23914 0.1235 0.21574 -0.2693 0.018933 -0.074674 -0.10788 -0.018442 -0.011524 -0.04292 0.20791 -0.042261 0.18239 -0.12475 0.21753 -0.07411 -0.08998 -0.081605 
aroma -0.11462 -0.0886 0.031908 -0.4304 0.12601 0.15066 0.11833 0.00041348 0.014099 0.15308 0.024916 0.48459 -0.07906 -0.11626 -0.46337 -0.11761 -0.27767 0.21961 -0.10967 -0.32303 -0.11296 0.0020585 0.13644 -0.3054 0.27254 -0.18277 0.14561 0.17655 0.011987 0.17874 -0.0083933 -0.21356 -0.24203 0.088209 0.051177 0.13617 -0.21011 0.23743 0.00095562 0.3663 -0.04215 0.33089 -0.16207 0.33799 0.32464 0.10375 0.4984 -0.0267 -0.14478 -0.11128 -0.26583 -0.20215 -0.40387 0.081202 0.32442 -0.27826 0.29859 0.22482 -0.2267 0.30089 -0.10735 0.31049 -0.068891 -0.19085 0.18247 0.061738 0.19851 0.087818 -0.075247 -0.25979 -0.0083601 -0.11682 -0.05517 -0.21504 -0.401 0.20752 -0.12901 0.13946 -0.26966 0.34376 0.14092 -0.032587 0.21933 0.081057 0.041956 -0.13272 -0.21354 -0.17641 -0.17871 -0.041133 0.17348 0.05743 0.051107 -0.099315 0.27183 0.013541 0.12387 -0.20524 0.1881 -0.078747 
head -0.11396 -0.083574 0.035174 -0.43168 0.12775 0.15502 0.12403 -0.00037097 0.0086933 0.14847 0.0367 0.47894 -0.078918 -0.12479 -0.45647 -0.11299 -0.2734 0.21818 -0.11627 -0.32392 -0.11226 0.013308 0.14369 -0.30361 0.25865 -0.18028 0.14071 0.17937 -0.00011221 0.17071 -0.015952 -0.20321 -0.2366 0.091183 0.045242 0.14366 -0.20689 0.23518 0.0028194 0.36173 -0.046942 0.32536 -0.167 0.34431 0.33285 0.10578 0.50156 -0.018201 -0.15427 -0.10737 -0.25585 -0.20799 -0.40005 0.090305 0.33304 -0.26584 0.3011 0.24016 -0.22961 0.30741 -0.11317 0.31027 -0.073302 -0.20046 0.17193 0.053447 0.20542 0.080934 -0.076669 -0.25445 -0.001169 -0.11977 -0.049003 -0.21768 -0.38947 0.20914 -0.13561 0.13606 -0.25706 0.34498 0.13033 -0.035117 0.22096 0.092426 0.044913 -0.12425 -0.22122 -0.174 -0.17553 -0.029088 0.16146 0.063594 0.051835 -0.089195 0.26883 0.01074 0.12613 -0.20477 0.18012 -0.070389 
light -0.11178 -0.084397 0.029175 -0.44735 0.13123 0.15579 0.13724 -0.0042268 0.01047 0.15371 0.026673 0.49671 -0.077289 -0.11978 -0.46989 -0.1101 -0.28858 0.21342 -0.10197 -0.3365 -0.10891 -0.0032265 0.1473 -0.29783 0.28369 -0.18938 0.14772 0.17824 0.013245 0.18136 -0.018272 -0.20805 -0.23656 0.087429 0.043813 0.15089 -0.20048 0.23474 0.0012417 0.37729 -0.039238 0.33707 -0.1792 0.34442 0.33375 0.11182 0.50223 -0.033365 -0.15181 -0.12038 -0.25393 -0.21548 -0.40367 0.081785 0.33651 -0.27656 0.31462 0.23529 -0.23252 0.30306 -0.10786 0.32219 -0.075795 -0.18777 0.19141 0.071672 0.19494 0.08609 -0.07123 -0.26342 0.0034048 -0.12011 -0.059085 -0.22032 -0.39758 0.20894 -0.13699 0.13542 -0.26843 0.34766 0.14382 -0.037616 0.21724 0.075162 0.04201 -0.12465 -0.22772 -0.16601 -0.17795 -0.053825 0.16775 0.073669 0.042839 -0.091937 0.26515 0.011868 0.11132 -0.20282 0.19248 -0.077845 
bottl -0.17912 -0.021393 0.021879 -0.20888 0.11872 0.076238 0.084599 0.13014 0.0058835 0.23864 0.019992 0.23265 -0.051153 -0.095516 -0.28856 -0.15936 -0.16296 0.1168 -0.085615 -0.15168 -0.089501 0.1557 0.087176 -0.33347 0.09323 -0.10276 0.23235 0.04652 -0.11174 0.18071 0.024633 -0.11653 -0.22367 0.032889 0.0070815 0.077265 -0.20003 0.21292 0.051024 0.22072 -0.030238 0.046813 -0.094915 0.36129 0.19009 0.14056 0.24816 -0.031995 -0.07927 -0.07229 -0.21313 -0.043891 -0.23325 0.21076 0.25524 -0.16817 0.14476 0.14126 -0.20074 0.23211 -0.077461 0.14387 -0.070699 -0.087772 0.099629 -0.038811 0.16744 0.086459 0.0032674 -0.117 -0.089032 -0.089981 -0.0096758 -0.13027 -0.21844 0.19871 0.0016956 0.19998 -0.14682 0.23862 0.10365 -0.077618 0.22405 0.11525 0.17356 -0.22576 -0.029827 -0.1015 -0.11685 -0.00026103 0.013729 -0.024206 0.16589 -0.060771 0.18723 -0.094661 0.19291 -0.117 -0.045423 -0.060716 
s -0.24873 0.025961 0.025775 -0.040561 0.14016 0.027825 0.076669 0.25601 0.0049554 0.35197 0.00052006 0.069661 -0.018004 -0.085112 -0.20005 -0.21273 -0.093047 0.061292 -0.064456 -0.052942 -0.074545 0.28834 0.054528 -0.39615 -0.030778 -0.056576 0.34347 -0.067987 -0.21892 0.20421 0.049878 -0.051054 -0.23497 -0.0093604 -0.027445 0.034727 -0.20156 0.22003 0.081712 0.13677 -0.033246 -0.16954 -0.041904 0.42464 0.12146 0.18308 0.070934 -0.046663 -0.032546 -0.060178 -0.22016 0.068 -0.13681 0.33045 0.23118 -0.10383 0.03894 0.060248 -0.19403 0.21841 -0.049647 0.031572 -0.077823 0.01099 0.058456 -0.1191 0.15817 0.10253 0.064678 -0.010539 -0.15095 -0.088658 0.021752 -0.081045 -0.11315 0.19923 0.10902 0.2821 -0.078 0.19057 0.091548 -0.12005 0.2578 0.14905 0.30044 -0.33058 0.1042 -0.05373 -0.081233 0.015843 -0.097184 -0.085215 0.29134 -0.017546 0.14397 -0.18553 0.27418 -0.046408 -0.19953 -0.075131 
lager -0.1976 -0.010214 0.02787 -0.17446 0.11785 0.07068 0.08966 0.15401 0.017141 0.26761 0.01119 0.22111 -0.037734 -0.084211 -0.28463 -0.17429 -0.14829 0.10654 -0.075833 -0.14673 -0.082056 0.17026 0.074443 -0.34964 0.075532 -0.093473 0.2602 0.023249 -0.11884 0.17708 0.018202 -0.12182 -0.23114 0.022093 0.0011905 0.068992 -0.19797 0.21426 0.039007 0.19856 -0.022928 0.007463 -0.088945 0.37256 0.17391 0.1518 0.21896 -0.049814 -0.065989 -0.084068 -0.22553 -0.02339 -0.21447 0.21853 0.25284 -0.16732 0.11693 0.11629 -0.19962 0.23053 -0.066127 0.12171 -0.07164 -0.057653 0.11157 -0.040073 0.16487 0.087187 0.013713 -0.092169 -0.092057 -0.086979 -0.00064167 -0.12813 -0.2092 0.19393 0.032785 0.23132 -0.1447 0.22054 0.11286 -0.096255 0.23041 0.12414 0.20326 -0.23485 -0.017303 -0.087473 -0.11298 -0.020865 0.011429 -0.023388 0.19085 -0.041876 0.18433 -0.098615 0.21139 -0.10409 -0.063491 -0.077379 
flavor -0.14472 -0.061152 0.02497 -0.33349 0.11511 0.11886 0.10878 0.061642 0.02166 0.19154 0.020477 0.38818 -0.052715 -0.10356 -0.39556 -0.14049 -0.2318 0.17921 -0.089959 -0.26394 -0.097004 0.059907 0.11385 -0.31417 0.20157 -0.1477 0.19191 0.1135 -0.030537 0.18044 0.0015365 -0.18597 -0.23558 0.052083 0.035121 0.1108 -0.20221 0.21948 0.015647 0.2959 -0.032849 0.21468 -0.14013 0.34209 0.27092 0.11911 0.38229 -0.040216 -0.12231 -0.099152 -0.24834 -0.14598 -0.33865 0.12611 0.29574 -0.24559 0.23256 0.1794 -0.20209 0.27176 -0.086574 0.24 -0.071633 -0.13567 0.15849 0.024358 0.178 0.088805 -0.036524 -0.19167 -0.037795 -0.10186 -0.03421 -0.18699 -0.33176 0.19654 -0.070697 0.17917 -0.22343 0.2911 0.13736 -0.051573 0.22489 0.086621 0.10023 -0.1669 -0.13895 -0.1356 -0.14303 -0.042412 0.11278 0.026012 0.096229 -0.079361 0.2469 -0.030896 0.14567 -0.15567 0.1031 -0.074574 
bitter -0.13514 -0.076938 0.019713 -0.38764 0.12304 0.13786 0.11873 0.025439 0.028509 0.17187 0.018834 0.45761 -0.058828 -0.10555 -0.44614 -0.13435 -0.26238 0.20453 -0.089081 -0.31915 -0.0959 0.014194 0.12551 -0.31212 0.25287 -0.16607 0.17363 0.14647 0.0048677 0.17628 -0.01086 -0.21412 -0.24192 0.068725 0.049397 0.1268 -0.2059 0.22739 0.0012453 0.33881 -0.035724 0.282 -0.16014 0.33744 0.30565 0.11227 0.44807 -0.050141 -0.13736 -0.11964 -0.26785 -0.19353 -0.38441 0.091171 0.31674 -0.2796 0.26782 0.18956 -0.20589 0.28686 -0.087463 0.29031 -0.077298 -0.14522 0.18624 0.058932 0.18082 0.092319 -0.053805 -0.2268 -0.016365 -0.10939 -0.041039 -0.2026 -0.38175 0.19898 -0.11124 0.17118 -0.25541 0.31621 0.14856 -0.044985 0.22106 0.077131 0.063922 -0.14292 -0.18455 -0.15504 -0.15989 -0.064912 0.15632 0.044576 0.068712 -0.082698 0.26693 -0.00073163 0.12498 -0.1785 0.16551 -0.080972 
hop -0.12172 -0.090176 0.025285 -0.40631 0.12326 0.13952 0.11796 0.01957 0.015957 0.15959 0.017278 0.46773 -0.059198 -0.11142 -0.44916 -0.13205 -0.27535 0.21402 -0.096756 -0.32916 -0.10477 0.015537 0.13178 -0.31304 0.25962 -0.17447 0.16924 0.15608 0.0068477 0.17856 -0.0088081 -0.21537 -0.24177 0.07169 0.049184 0.13015 -0.20874 0.23211 -0.0014426 0.35455 -0.036943 0.29789 -0.1604 0.34067 0.32029 0.10708 0.47351 -0.035485 -0.14984 -0.11875 -0.27061 -0.1982 -0.39798 0.091905 0.3284 -0.28407 0.27722 0.20403 -0.21183 0.29035 -0.093767 0.29842 -0.075948 -0.15838 0.18662 0.062021 0.19146 0.096945 -0.059382 -0.24966 -0.013329 -0.11427 -0.04682 -0.22084 -0.396 0.21078 -0.11843 0.16886 -0.26826 0.3344 0.14875 -0.037207 0.23194 0.082009 0.06436 -0.14805 -0.18918 -0.16177 -0.17327 -0.050698 0.16387 0.039926 0.06595 -0.093705 0.2725 -0.0020711 0.12574 -0.19133 0.17379 -0.084634 
white -0.097212 -0.10325 0.038616 -0.49496 0.11909 0.16903 0.13443 -0.029085 0.020718 0.12928 0.031603 0.54837 -0.094576 -0.12559 -0.51145 -0.11081 -0.3073 0.23875 -0.11841 -0.3728 -0.12128 -0.041185 0.15187 -0.30538 0.30907 -0.20448 0.13014 0.21643 0.041783 0.18327 -0.019304 -0.2327 -0.24504 0.10445 0.055679 0.15676 -0.21816 0.25047 -0.0056397 0.4087 -0.038621 0.40017 -0.18293 0.34238 0.36751 0.10786 0.56915 -0.023834 -0.17314 -0.12351 -0.28052 -0.24699 -0.45735 0.055626 0.35087 -0.30263 0.33657 0.24885 -0.2453 0.32935 -0.11251 0.35456 -0.073999 -0.21743 0.20239 0.086781 0.21063 0.079678 -0.089499 -0.30385 0.0054461 -0.12989 -0.063411 -0.23276 -0.44541 0.20085 -0.16203 0.12277 -0.29804 0.37946 0.14887 -0.028438 0.21712 0.072696 0.0088382 -0.10409 -0.25782 -0.19588 -0.18795 -0.053107 0.19611 0.085742 0.033297 -0.10091 0.29017 0.03295 0.10835 -0.23709 0.24275 -0.071451 
t -0.26745 0.021608 0.028008 -0.013974 0.13923 0.019551 0.07275 0.26575 0.016607 0.36404 -0.0016846 0.078144 -0.023472 -0.080283 -0.20084 -0.2201 -0.08058 0.07418 -0.062557 -0.020107 -0.092596 0.3077 0.056156 -0.42096 -0.045891 -0.053998 0.35399 -0.07372 -0.23069 0.22159 0.062558 -0.032334 -0.25848 -0.011468 -0.023814 0.037002 -0.21927 0.21983 0.085917 0.11854 -0.040178 -0.18181 -0.053224 0.42755 0.097047 0.1858 0.054658 -0.055505 -0.027405 -0.057118 -0.22085 0.090982 -0.13235 0.34562 0.22083 -0.10773 0.017892 0.068756 -0.21424 0.22511 -0.063123 0.012988 -0.07864 0.00063383 0.075809 -0.12873 0.15943 0.10205 0.066755 -0.0026361 -0.16154 -0.064441 0.026541 -0.09463 -0.11877 0.22668 0.1378 0.29385 -0.087584 0.19737 0.11594 -0.1257 0.26441 0.16013 0.32842 -0.35597 0.12667 -0.045235 -0.087941 0.012557 -0.094152 -0.10051 0.2824 -0.015914 0.15364 -0.20013 0.2788 -0.048616 -0.22656 -0.083887 
pale -0.14324 -0.056148 0.022918 -0.33001 0.12629 0.11908 0.10613 0.054273 0.026475 0.19116 0.017708 0.37769 -0.061113 -0.1019 -0.39519 -0.12764 -0.22808 0.17249 -0.097328 -0.25857 -0.092007 0.058715 0.11176 -0.30719 0.20163 -0.14539 0.17728 0.11586 -0.033332 0.1723 -0.0057015 -0.17656 -0.2308 0.06523 0.021529 0.10756 -0.20603 0.21957 0.008021 0.29635 -0.033345 0.20822 -0.13858 0.34923 0.26064 0.12079 0.38417 -0.036404 -0.12116 -0.098906 -0.24988 -0.13428 -0.33825 0.13884 0.29358 -0.23659 0.22551 0.17605 -0.20683 0.26835 -0.090527 0.23783 -0.072256 -0.14105 0.15477 0.025564 0.1754 0.08516 -0.037714 -0.18835 -0.036592 -0.10708 -0.034884 -0.18028 -0.31975 0.19725 -0.06912 0.1719 -0.21655 0.29291 0.12864 -0.047652 0.22023 0.080665 0.10044 -0.16641 -0.14505 -0.13759 -0.14923 -0.039075 0.11098 0.03178 0.10188 -0.077289 0.2302 -0.027328 0.1503 -0.1593 0.096654 -0.07424 
skunki -0.16673 -0.037957 0.023596 -0.23649 0.11328 0.084131 0.090976 0.11789 0.013678 0.23384 0.017463 0.27574 -0.042641 -0.095257 -0.32547 -0.1586 -0.18274 0.13963 -0.082852 -0.18722 -0.092538 0.12927 0.091849 -0.32809 0.13034 -0.11964 0.22786 0.060541 -0.089281 0.18639 0.019043 -0.13335 -0.23262 0.038151 0.021858 0.082125 -0.20601 0.21542 0.041463 0.24111 -0.031848 0.094849 -0.10738 0.35128 0.2147 0.13295 0.28158 -0.037838 -0.09417 -0.08114 -0.23165 -0.075237 -0.25661 0.18465 0.26221 -0.18656 0.16437 0.14574 -0.19929 0.24683 -0.0775 0.1687 -0.071151 -0.094901 0.1179 -0.016077 0.17678 0.092923 -0.0082609 -0.13417 -0.075401 -0.089232 -0.015254 -0.15122 -0.25002 0.20168 -0.016748 0.19378 -0.1638 0.25725 0.11759 -0.07356 0.22751 0.10911 0.14967 -0.21935 -0.059758 -0.11714 -0.12564 -0.013301 0.04168 -0.020771 0.14568 -0.063371 0.20899 -0.07021 0.17562 -0.11851 -0.0019294 -0.068826 
good -0.2229 0.0070963 0.024621 -0.10961 0.12729 0.044269 0.079814 0.20019 0.017195 0.30316 0.009685 0.14682 -0.037473 -0.087313 -0.24441 -0.18695 -0.12489 0.091342 -0.067745 -0.10024 -0.07839 0.22632 0.066086 -0.36372 0.021009 -0.083201 0.29201 -0.017396 -0.17287 0.18906 0.034589 -0.08582 -0.22502 0.013227 -0.0065781 0.055175 -0.2023 0.21118 0.070432 0.16386 -0.027185 -0.064714 -0.07388 0.39184 0.14816 0.16326 0.14732 -0.042442 -0.054208 -0.070701 -0.21874 0.011211 -0.17296 0.267 0.23978 -0.13639 0.082614 0.10094 -0.19686 0.21747 -0.062005 0.072611 -0.072709 -0.031334 0.083646 -0.073257 0.16162 0.099947 0.041903 -0.044304 -0.12092 -0.083351 0.0091958 -0.10278 -0.16621 0.19367 0.069345 0.24452 -0.11458 0.20381 0.1001 -0.10283 0.24364 0.13548 0.24686 -0.28801 0.040595 -0.072473 -0.10192 -0.0053965 -0.043754 -0.04709 0.23492 -0.038462 0.17462 -0.14361 0.24228 -0.079284 -0.12973 -0.067496 
malt -0.1113 -0.092707 0.028387 -0.45139 0.12413 0.15534 0.12459 0.0010155 0.022393 0.14803 0.027744 0.51686 -0.068768 -0.11583 -0.48336 -0.12577 -0.29301 0.22512 -0.10512 -0.35698 -0.11085 -0.015606 0.13221 -0.30417 0.28931 -0.18462 0.15267 0.17692 0.024917 0.18211 -0.0201 -0.23414 -0.23972 0.078438 0.055836 0.14377 -0.20923 0.23524 -0.0077934 0.3782 -0.037737 0.35107 -0.17434 0.33902 0.33965 0.10895 0.51832 -0.038588 -0.16628 -0.12738 -0.27618 -0.22975 -0.42871 0.071115 0.33917 -0.30346 0.31186 0.22089 -0.21818 0.30898 -0.10419 0.32724 -0.079335 -0.17908 0.19765 0.079521 0.20689 0.091554 -0.075756 -0.27146 -0.0040485 -0.12111 -0.058195 -0.22887 -0.42464 0.20598 -0.14684 0.15065 -0.2814 0.35108 0.15387 -0.034286 0.22781 0.066113 0.038735 -0.1294 -0.2298 -0.17182 -0.1788 -0.063103 0.1868 0.063685 0.044721 -0.10127 0.28831 0.016324 0.10962 -0.20597 0.21135 -0.081339 
sweet -0.10213 -0.11514 0.023173 -0.52609 0.12943 0.1737 0.14056 -0.032499 0.026601 0.13723 0.018772 0.58598 -0.063616 -0.11782 -0.53053 -0.11939 -0.33121 0.25932 -0.1141 -0.40767 -0.10763 -0.058386 0.15794 -0.31642 0.34442 -0.20927 0.14395 0.21362 0.063424 0.1919 -0.033527 -0.26305 -0.25094 0.089064 0.061692 0.16489 -0.22127 0.24881 -0.025219 0.42178 -0.03736 0.42548 -0.20264 0.33213 0.38146 0.10824 0.58856 -0.043842 -0.1946 -0.15404 -0.29497 -0.27839 -0.47952 0.052082 0.37255 -0.34517 0.35577 0.24015 -0.23036 0.33751 -0.11632 0.38193 -0.091538 -0.20264 0.23492 0.1125 0.20344 0.094372 -0.088228 -0.30745 0.019573 -0.12764 -0.067717 -0.26194 -0.47946 0.20934 -0.18406 0.14058 -0.30873 0.38724 0.16995 -0.025165 0.23149 0.059089 -0.0026262 -0.10225 -0.28228 -0.19233 -0.18974 -0.074856 0.22089 0.080622 0.021537 -0.10107 0.31119 0.043788 0.08778 -0.22565 0.27097 -0.087135 
drink -0.28081 0.040328 0.025663 0.0067853 0.12939 0.014587 0.070953 0.28984 0.017668 0.38728 1.9884e-05 0.034647 -0.020785 -0.077575 -0.18268 -0.22317 -0.068272 0.046303 -0.061585 -0.015148 -0.07642 0.33779 0.039426 -0.41154 -0.070788 -0.049642 0.3718 -0.086764 -0.25049 0.20783 0.052631 -0.04352 -0.24495 -0.015153 -0.037076 0.032882 -0.21017 0.21544 0.10024 0.10063 -0.020475 -0.22737 -0.043271 0.43877 0.089 0.20101 0.015512 -0.046037 -0.0089804 -0.051408 -0.21194 0.097634 -0.087614 0.36213 0.2274 -0.093167 0.0046982 0.053269 -0.19539 0.19907 -0.050902 -0.014855 -0.071453 0.022564 0.054457 -0.13941 0.15729 0.10757 0.088271 0.02543 -0.1775 -0.064043 0.041088 -0.070502 -0.082134 0.21194 0.14961 0.30474 -0.062904 0.16398 0.10417 -0.13251 0.26792 0.1766 0.34276 -0.36862 0.1437 -0.031506 -0.07063 0.014728 -0.12205 -0.099114 0.3157 -0.020045 0.15026 -0.21316 0.3026 -0.032918 -0.26785 -0.074212 
pour -0.11149 -0.075884 0.029877 -0.38046 0.11796 0.1382 0.10968 0.012472 0.010255 0.14848 0.030643 0.42216 -0.076293 -0.11348 -0.4136 -0.11104 -0.24578 0.19251 -0.10494 -0.28814 -0.10435 0.025821 0.12503 -0.29568 0.22796 -0.16185 0.14941 0.15325 -0.0058499 0.16388 -0.0056091 -0.18097 -0.22949 0.080718 0.036016 0.12564 -0.20212 0.22413 0.011789 0.33241 -0.037936 0.27205 -0.15274 0.33072 0.30186 0.10844 0.44993 -0.021121 -0.1321 -0.098373 -0.2486 -0.17466 -0.35931 0.10354 0.30926 -0.24029 0.26836 0.21561 -0.22392 0.28205 -0.099947 0.27586 -0.071384 -0.1788 0.15892 0.04289 0.19467 0.077096 -0.059931 -0.22763 -0.021319 -0.11225 -0.049383 -0.19375 -0.35464 0.19683 -0.10593 0.14009 -0.23477 0.32085 0.12747 -0.043629 0.20769 0.086434 0.062581 -0.13274 -0.17904 -0.15753 -0.16181 -0.032925 0.13442 0.050126 0.063344 -0.081712 0.2473 -0.0010989 0.12475 -0.18961 0.14805 -0.065355 
yellow -0.12231 -0.083659 0.031684 -0.41657 0.11759 0.14776 0.11994 0.01253 0.013973 0.15542 0.026546 0.46393 -0.08023 -0.11931 -0.45264 -0.11716 -0.26 0.20455 -0.10488 -0.315 -0.10936 0.011658 0.13035 -0.30559 0.25215 -0.17517 0.15496 0.16914 0.0011785 0.1732 -0.00819 -0.2048 -0.23481 0.084181 0.045527 0.13269 -0.21123 0.23612 0.0082864 0.35126 -0.039084 0.30719 -0.16126 0.33947 0.31441 0.10532 0.47989 -0.022952 -0.14242 -0.10264 -0.26075 -0.19364 -0.39027 0.093882 0.31791 -0.26283 0.28759 0.223 -0.22366 0.29101 -0.10772 0.30016 -0.067547 -0.18272 0.173 0.051806 0.19684 0.080514 -0.067755 -0.24888 -0.013235 -0.11331 -0.048702 -0.20504 -0.37884 0.20801 -0.11936 0.14296 -0.25591 0.33443 0.13766 -0.038774 0.21589 0.081259 0.051687 -0.12644 -0.20164 -0.16755 -0.16858 -0.040635 0.15727 0.057078 0.058944 -0.092684 0.26402 0.0080496 0.12571 -0.20169 0.17288 -0.067137 
on -0.2677 0.05415 0.040183 -0.0016411 0.142 0.0066116 0.077868 0.27072 0.01678 0.37671 -0.006279 0.045863 -0.026245 -0.081872 -0.19054 -0.23062 -0.087756 0.045256 -0.070982 -0.018069 -0.085308 0.30509 0.045427 -0.40555 -0.074016 -0.054033 0.3466 -0.083123 -0.2434 0.22918 0.051454 -0.033376 -0.23072 -0.015047 -0.034809 0.036905 -0.20392 0.21656 0.091269 0.10694 -0.029422 -0.2093 -0.02309 0.43385 0.10083 0.20317 0.041318 -0.058221 -0.03718 -0.0649 -0.21615 0.099385 -0.12486 0.34026 0.22029 -0.093448 0.012039 0.064502 -0.21142 0.21279 -0.037264 -0.0064235 -0.076449 -0.0013366 0.061114 -0.13703 0.15413 0.10533 0.07537 0.0060695 -0.16553 -0.074442 0.037952 -0.074895 -0.10001 0.19401 0.13047 0.28419 -0.077873 0.17138 0.098031 -0.13358 0.27045 0.16637 0.3378 -0.34657 0.13606 -0.040842 -0.088863 0.02035 -0.1208 -0.083669 0.32704 -0.025503 0.13625 -0.21119 0.29555 -0.043486 -0.24431 -0.070797 
color -0.12169 -0.079782 0.030124 -0.4046 0.12657 0.14371 0.11411 0.017 0.019709 0.16301 0.028522 0.45241 -0.081757 -0.11674 -0.44089 -0.11877 -0.2563 0.20381 -0.10372 -0.30912 -0.10755 0.020237 0.13179 -0.30761 0.24693 -0.17143 0.16052 0.1609 -0.0023625 0.17158 -0.010799 -0.20265 -0.23415 0.082956 0.037252 0.13289 -0.20736 0.23285 0.0053291 0.34577 -0.036009 0.29288 -0.16289 0.34382 0.31004 0.11706 0.46661 -0.028811 -0.1405 -0.10693 -0.25652 -0.19047 -0.3842 0.098046 0.31511 -0.26079 0.27999 0.21281 -0.22231 0.29244 -0.10409 0.28852 -0.07424 -0.17693 0.17183 0.053099 0.18474 0.083875 -0.061656 -0.2412 -0.013628 -0.11592 -0.04793 -0.20686 -0.37187 0.20016 -0.10877 0.1532 -0.25581 0.32656 0.13759 -0.035504 0.21568 0.082249 0.05777 -0.13575 -0.19036 -0.16359 -0.16842 -0.041862 0.15266 0.056013 0.063351 -0.088692 0.2544 0.0013446 0.13451 -0.19026 0.16277 -0.076392 
heineken -0.28208 0.051784 0.025205 0.013891 0.13673 0.017044 0.057628 0.28871 -0.014395 0.39751 0.0062269 0.0069177 -0.028554 -0.084125 -0.15856 -0.22777 -0.065014 0.041621 -0.071931 0.0036381 -0.074242 0.35582 0.04281 -0.41578 -0.089633 -0.052927 0.36259 -0.095176 -0.27453 0.20317 0.070587 -0.016614 -0.24036 -0.0073814 -0.03755 0.028396 -0.2226 0.23138 0.10674 0.10616 -0.037744 -0.24539 -0.032944 0.45207 0.09647 0.1967 0.012032 -0.045479 -0.0053061 -0.052327 -0.20376 0.10482 -0.078017 0.37082 0.22797 -0.078581 -0.00050236 0.067202 -0.2063 0.20404 -0.059043 -0.022521 -0.07105 0.013781 0.039269 -0.14992 0.16899 0.11276 0.088631 0.032142 -0.17137 -0.075626 0.040592 -0.071187 -0.069359 0.21501 0.15923 0.29185 -0.060887 0.16646 0.085161 -0.13874 0.26745 0.18492 0.36017 -0.37805 0.14923 -0.034218 -0.077172 0.041982 -0.15113 -0.10628 0.32149 -0.01284 0.1405 -0.23287 0.31716 -0.043059 -0.29072 -0.072584 
better -0.24289 0.020751 0.018676 -0.060951 0.1246 0.036111 0.075256 0.22822 0.018121 0.33397 0.0012784 0.11066 -0.02309 -0.08143 -0.22344 -0.21121 -0.10094 0.075635 -0.063197 -0.071293 -0.07136 0.25173 0.054507 -0.38419 -0.009831 -0.065723 0.3161 -0.042427 -0.19098 0.19353 0.045195 -0.074141 -0.2378 0.0028497 -0.01513 0.042182 -0.21073 0.21116 0.073014 0.14335 -0.025544 -0.12817 -0.061276 0.40464 0.12193 0.17825 0.098092 -0.054932 -0.034675 -0.070275 -0.21967 0.043406 -0.14959 0.29113 0.2289 -0.1256 0.047462 0.074482 -0.19399 0.21316 -0.049723 0.041547 -0.073479 -0.004602 0.079107 -0.094205 0.15747 0.099921 0.059406 -0.01725 -0.13985 -0.077292 0.026405 -0.095718 -0.14169 0.20333 0.097442 0.27228 -0.10171 0.18819 0.10354 -0.11504 0.25373 0.14753 0.28081 -0.31647 0.078094 -0.059441 -0.089933 -0.0019286 -0.066168 -0.071892 0.26323 -0.02913 0.16059 -0.16713 0.25876 -0.059708 -0.1728 -0.07321 
clear -0.10803 -0.089888 0.028238 -0.43943 0.12142 0.15531 0.12306 -0.011829 0.013157 0.14185 0.031853 0.49091 -0.08264 -0.11662 -0.4606 -0.11158 -0.2746 0.21718 -0.11035 -0.32528 -0.11114 -0.0030903 0.14328 -0.2999 0.26959 -0.18643 0.12807 0.18453 0.015701 0.16998 -0.013569 -0.20446 -0.23718 0.093301 0.052984 0.14325 -0.20976 0.23447 -0.0015036 0.36233 -0.042198 0.3422 -0.16213 0.34112 0.33604 0.10477 0.5112 -0.018726 -0.15293 -0.10782 -0.26604 -0.21682 -0.40883 0.08253 0.32456 -0.2779 0.30219 0.23818 -0.23321 0.30953 -0.11123 0.32535 -0.072323 -0.20388 0.1815 0.056402 0.20361 0.085838 -0.074552 -0.26242 -0.00023063 -0.12064 -0.054009 -0.21764 -0.40011 0.20654 -0.1368 0.13338 -0.27056 0.35383 0.13688 -0.030196 0.21993 0.081083 0.043555 -0.12041 -0.22663 -0.1774 -0.17662 -0.039279 0.17093 0.064449 0.041266 -0.093612 0.27329 0.019597 0.12089 -0.21067 0.19216 -0.071131 
no -0.16164 -0.045273 0.030887 -0.26818 0.12144 0.099798 0.091393 0.080433 0.013907 0.21754 0.010809 0.32438 -0.046877 -0.097191 -0.35993 -0.14876 -0.20699 0.16098 -0.084163 -0.222 -0.09085 0.089444 0.10046 -0.31373 0.16231 -0.13064 0.20117 0.089851 -0.062321 0.1772 0.0036449 -0.15715 -0.22246 0.047985 0.032395 0.092818 -0.20237 0.21196 0.02551 0.25564 -0.028528 0.14742 -0.12803 0.34567 0.23886 0.12326 0.32286 -0.042233 -0.10518 -0.090313 -0.24052 -0.11619 -0.30189 0.1591 0.26572 -0.20879 0.18356 0.15699 -0.18393 0.25768 -0.081541 0.19898 -0.076549 -0.10648 0.14628 0.0016664 0.1606 0.095284 -0.021854 -0.15793 -0.052345 -0.096996 -0.033261 -0.16517 -0.28312 0.19245 -0.031851 0.18743 -0.19834 0.27216 0.12157 -0.054411 0.21552 0.094498 0.12125 -0.18715 -0.093945 -0.11307 -0.13702 -0.028837 0.082978 -0.00058668 0.11897 -0.069926 0.22306 -0.045448 0.16175 -0.14101 0.050074 -0.083051 
golden -0.10782 -0.087803 0.032457 -0.44468 0.11655 0.15463 0.11942 -0.014056 0.0086818 0.14065 0.033586 0.48425 -0.090203 -0.11609 -0.4573 -0.1038 -0.27171 0.21256 -0.10585 -0.32581 -0.10883 -0.0059072 0.14045 -0.29449 0.26465 -0.18163 0.13424 0.18445 0.01694 0.16949 -0.017362 -0.20861 -0.22692 0.090669 0.048648 0.13794 -0.20554 0.23572 0.0045422 0.36765 -0.041032 0.34395 -0.16619 0.32658 0.32519 0.098401 0.50552 -0.020785 -0.14587 -0.10379 -0.25417 -0.21361 -0.4005 0.072149 0.32012 -0.26702 0.30025 0.23312 -0.22863 0.2947 -0.1116 0.31403 -0.069324 -0.20108 0.17596 0.068506 0.19706 0.079314 -0.077858 -0.26331 0.00179 -0.12093 -0.058895 -0.21539 -0.39639 0.2022 -0.13696 0.12848 -0.26679 0.34149 0.13698 -0.030634 0.20906 0.073107 0.03361 -0.11274 -0.22035 -0.17459 -0.17875 -0.040721 0.17328 0.068246 0.040675 -0.095195 0.26352 0.023063 0.11683 -0.21162 0.2003 -0.068382 
finish -0.11857 -0.093014 0.026998 -0.45635 0.12548 0.16025 0.12783 -0.005631 0.019631 0.16128 0.024003 0.52463 -0.068073 -0.11752 -0.48803 -0.12709 -0.29679 0.23208 -0.099187 -0.35994 -0.107 -0.016345 0.14347 -0.31292 0.2958 -0.19437 0.15192 0.18563 0.025324 0.18841 -0.016928 -0.22976 -0.24062 0.081785 0.056744 0.14526 -0.21253 0.23848 -0.0089194 0.38385 -0.040038 0.35514 -0.18057 0.33535 0.33858 0.10763 0.51378 -0.041747 -0.16663 -0.13441 -0.27511 -0.23516 -0.43146 0.077778 0.34412 -0.30684 0.3122 0.23045 -0.22127 0.31244 -0.10756 0.33178 -0.075714 -0.18604 0.20746 0.086583 0.19596 0.090968 -0.074478 -0.27301 0.0023513 -0.11638 -0.055653 -0.23175 -0.42685 0.2051 -0.147 0.15217 -0.2805 0.35685 0.15582 -0.037387 0.22392 0.073913 0.039733 -0.12294 -0.2397 -0.16897 -0.18104 -0.06178 0.19048 0.064323 0.044792 -0.093707 0.28833 0.018397 0.1118 -0.20722 0.21634 -0.081486 
skunk -0.19728 -0.018903 0.026934 -0.17051 0.11504 0.060405 0.079848 0.16528 0.0085884 0.27494 0.014784 0.19982 -0.035362 -0.094369 -0.27852 -0.1762 -0.15015 0.11145 -0.081671 -0.13199 -0.092289 0.18958 0.078436 -0.34785 0.073616 -0.095719 0.26544 0.021941 -0.13931 0.19632 0.033418 -0.10154 -0.23741 0.023278 0.0082999 0.066233 -0.20965 0.21695 0.062651 0.20222 -0.028779 0.0033392 -0.09007 0.37302 0.17985 0.14756 0.20786 -0.034121 -0.070866 -0.067482 -0.22384 -0.025031 -0.20169 0.23334 0.24907 -0.15514 0.12008 0.1258 -0.19625 0.23215 -0.073733 0.12218 -0.070149 -0.066556 0.091963 -0.055913 0.17332 0.10045 0.010276 -0.088713 -0.10145 -0.080138 -0.0027772 -0.13011 -0.1947 0.20532 0.029982 0.21624 -0.12949 0.22799 0.11313 -0.087481 0.23403 0.12911 0.19892 -0.26166 0.00041309 -0.094303 -0.10808 0.0050402 -0.0074754 -0.05291 0.18289 -0.05482 0.18844 -0.10631 0.20937 -0.097167 -0.085209 -0.064212 
bodi -0.11334 -0.097466 0.030856 -0.47763 0.13919 0.1712 0.13493 -0.016148 0.022123 0.14874 0.025866 0.54375 -0.072189 -0.12573 -0.50654 -0.12291 -0.31447 0.24262 -0.10257 -0.37466 -0.10964 -0.025641 0.15232 -0.32009 0.31912 -0.19642 0.14833 0.19149 0.03307 0.19077 -0.026391 -0.24041 -0.24528 0.079372 0.056625 0.16096 -0.21366 0.24085 -0.0099657 0.39966 -0.04397 0.38212 -0.18672 0.34838 0.35624 0.10073 0.54353 -0.043305 -0.18154 -0.13678 -0.27389 -0.24765 -0.45841 0.07128 0.35707 -0.31306 0.33827 0.24161 -0.22524 0.3232 -0.10726 0.35768 -0.087817 -0.19534 0.21324 0.088992 0.19637 0.089428 -0.081357 -0.2897 0.011055 -0.12521 -0.055173 -0.24057 -0.4432 0.20084 -0.16335 0.14886 -0.29345 0.37238 0.15961 -0.026699 0.23246 0.069884 0.01135 -0.1087 -0.25062 -0.18722 -0.18187 -0.067863 0.19254 0.07326 0.041608 -0.097907 0.28975 0.023189 0.10455 -0.20327 0.23415 -0.091028 
just -0.23257 0.0090328 0.023944 -0.084408 0.12251 0.048501 0.077465 0.21293 0.008865 0.32104 0.0018168 0.12552 -0.030601 -0.086205 -0.23095 -0.19147 -0.11726 0.083796 -0.073838 -0.084899 -0.074697 0.23814 0.056051 -0.36733 0.0081098 -0.073559 0.29943 -0.026797 -0.18373 0.19136 0.048648 -0.079291 -0.23102 0.0072519 -0.0080248 0.045719 -0.20955 0.21074 0.068122 0.1464 -0.02793 -0.090242 -0.065669 0.39942 0.14231 0.16033 0.11757 -0.046009 -0.046743 -0.072202 -0.21982 0.024638 -0.1643 0.28045 0.23305 -0.13721 0.073268 0.090167 -0.18762 0.21689 -0.062693 0.059137 -0.066625 -0.020532 0.080258 -0.090481 0.1617 0.10425 0.045583 -0.031192 -0.12539 -0.07434 0.017136 -0.097998 -0.15627 0.19779 0.089254 0.25379 -0.1083 0.19448 0.10117 -0.10089 0.24837 0.14404 0.26237 -0.30296 0.064002 -0.061929 -0.094748 0.0093597 -0.05424 -0.069088 0.24265 -0.031334 0.17494 -0.1593 0.24732 -0.075826 -0.15461 -0.073024 
carbon -0.1289 -0.072457 0.031378 -0.38341 0.13007 0.13209 0.12043 0.02983 0.025702 0.17493 0.021914 0.44764 -0.060793 -0.1101 -0.43369 -0.12922 -0.26037 0.1997 -0.094308 -0.30439 -0.10604 0.024816 0.12519 -0.31204 0.23916 -0.17025 0.16961 0.13957 -0.0050569 0.18119 -0.014003 -0.19419 -0.22908 0.067957 0.038088 0.1305 -0.19923 0.21955 0.003568 0.3352 -0.037273 0.27757 -0.1495 0.33875 0.29405 0.11412 0.44501 -0.041667 -0.14877 -0.11429 -0.25427 -0.18134 -0.38293 0.10358 0.31232 -0.2678 0.26831 0.20036 -0.21436 0.29027 -0.092466 0.28302 -0.077123 -0.15697 0.18245 0.049274 0.17909 0.08987 -0.051539 -0.2285 -0.015881 -0.11096 -0.038271 -0.1977 -0.36678 0.1931 -0.10787 0.16132 -0.242 0.31496 0.13895 -0.041324 0.22562 0.07576 0.065076 -0.13943 -0.18295 -0.14753 -0.15829 -0.053121 0.14264 0.049215 0.077722 -0.084582 0.25531 -0.012011 0.12305 -0.17233 0.1548 -0.07939 
bad -0.20476 -0.0084209 0.029665 -0.14888 0.12467 0.063255 0.089193 0.17756 0.014152 0.28195 0.0050155 0.19428 -0.02995 -0.089505 -0.27055 -0.17826 -0.14004 0.10794 -0.077425 -0.13196 -0.083646 0.18955 0.068112 -0.35782 0.060853 -0.095589 0.27012 0.0053673 -0.14042 0.19062 0.027781 -0.10309 -0.22619 0.016278 0.0024226 0.064372 -0.19829 0.21256 0.054869 0.1887 -0.034141 -0.014994 -0.084318 0.38078 0.16645 0.15276 0.18835 -0.046843 -0.067684 -0.078623 -0.22854 -0.017621 -0.21256 0.23955 0.24152 -0.15634 0.11205 0.10993 -0.19221 0.22959 -0.068351 0.1034 -0.062366 -0.049033 0.10471 -0.054736 0.16643 0.096855 0.01575 -0.077395 -0.10571 -0.08367 0.0010259 -0.12399 -0.19632 0.19944 0.038813 0.23638 -0.13257 0.22352 0.10755 -0.093355 0.23927 0.1275 0.20753 -0.25943 0.0085597 -0.085471 -0.10381 -0.005679 -0.01061 -0.042008 0.20998 -0.046656 0.18872 -0.11729 0.21338 -0.087292 -0.090162 -0.082852 
smell -0.16825 -0.040369 0.029966 -0.23366 0.11372 0.086011 0.090785 0.11353 0.01011 0.22429 0.014052 0.26929 -0.048734 -0.09831 -0.32139 -0.15061 -0.17795 0.13186 -0.086003 -0.19151 -0.087 0.1256 0.091738 -0.32498 0.12165 -0.11958 0.22115 0.061131 -0.088642 0.18107 0.018061 -0.12805 -0.2255 0.047591 0.011532 0.089669 -0.1946 0.21451 0.043121 0.24206 -0.034433 0.095942 -0.11067 0.34495 0.21545 0.12974 0.27974 -0.033177 -0.090569 -0.080233 -0.22436 -0.075691 -0.26258 0.18197 0.2638 -0.18364 0.1702 0.1463 -0.19976 0.24071 -0.081027 0.16642 -0.066099 -0.093214 0.11892 -0.01982 0.17026 0.090565 -0.0082097 -0.13845 -0.071703 -0.08852 -0.016364 -0.14337 -0.25061 0.19897 -0.022932 0.19063 -0.1675 0.25453 0.11246 -0.069624 0.22636 0.10831 0.1483 -0.21535 -0.063145 -0.11615 -0.12626 -0.011595 0.041031 -0.012516 0.14937 -0.058603 0.20731 -0.071685 0.17431 -0.12756 0.001753 -0.070764 
littl -0.14258 -0.054317 0.023332 -0.30677 0.11501 0.11239 0.10283 0.06938 0.017783 0.19388 0.017081 0.3604 -0.055216 -0.09831 -0.36931 -0.13908 -0.21463 0.16873 -0.086827 -0.24547 -0.092063 0.066249 0.10248 -0.30332 0.18112 -0.13791 0.18954 0.097548 -0.040679 0.17785 0.0061871 -0.16505 -0.21943 0.050325 0.026489 0.10719 -0.19478 0.213 0.018933 0.28415 -0.03039 0.1857 -0.12711 0.32905 0.25197 0.11846 0.35089 -0.039215 -0.11306 -0.10013 -0.23263 -0.13491 -0.31382 0.13442 0.28766 -0.22736 0.21376 0.16339 -0.19418 0.25301 -0.078519 0.22116 -0.070885 -0.11664 0.15129 0.023661 0.17119 0.082963 -0.024266 -0.17684 -0.044063 -0.098362 -0.033191 -0.17192 -0.31053 0.18817 -0.066175 0.17023 -0.20143 0.28023 0.12609 -0.055669 0.21624 0.089223 0.10183 -0.16792 -0.12383 -0.13037 -0.14068 -0.036235 0.093624 0.01669 0.10698 -0.07033 0.22949 -0.038822 0.14722 -0.14804 0.083041 -0.071471 
wateri -0.15286 -0.056343 0.027276 -0.29593 0.12268 0.11109 0.10609 0.078945 0.020583 0.20548 0.013 0.34705 -0.053721 -0.10612 -0.371 -0.14996 -0.21395 0.16191 -0.086346 -0.23921 -0.092223 0.068966 0.10232 -0.31123 0.17276 -0.13764 0.20433 0.095019 -0.0485 0.17939 0.0044779 -0.16426 -0.22345 0.051008 0.032135 0.10345 -0.19661 0.21312 0.024138 0.27691 -0.029898 0.17263 -0.12382 0.33404 0.24824 0.1283 0.34531 -0.042918 -0.11409 -0.098677 -0.23857 -0.12833 -0.31035 0.14077 0.28121 -0.22719 0.20938 0.16088 -0.19657 0.26487 -0.074711 0.2101 -0.07151 -0.12059 0.14666 0.01776 0.17061 0.086861 -0.025974 -0.16959 -0.047641 -0.09951 -0.022994 -0.16702 -0.29996 0.18895 -0.052281 0.18097 -0.2011 0.27223 0.12591 -0.05492 0.22108 0.091205 0.1105 -0.17832 -0.10864 -0.12762 -0.13526 -0.034264 0.081549 0.018082 0.11846 -0.067452 0.22677 -0.049711 0.15248 -0.14292 0.07121 -0.076602 
noth -0.19618 -0.023061 0.026926 -0.19401 0.12593 0.07408 0.085424 0.1406 0.023655 0.25618 0.0055904 0.24754 -0.036516 -0.08584 -0.30456 -0.16449 -0.16858 0.12358 -0.069792 -0.17677 -0.084368 0.14247 0.080949 -0.34182 0.10144 -0.10334 0.2455 0.036847 -0.10345 0.17996 0.010845 -0.12707 -0.2265 0.023229 0.0081656 0.075034 -0.19876 0.20961 0.031036 0.21709 -0.031661 0.051661 -0.09789 0.35447 0.18724 0.14054 0.23648 -0.055809 -0.078174 -0.085178 -0.22563 -0.048679 -0.24978 0.20048 0.25036 -0.17202 0.14065 0.11807 -0.1821 0.2425 -0.068549 0.13604 -0.076166 -0.060377 0.1218 -0.024874 0.16121 0.092399 0.013087 -0.10923 -0.086376 -0.087597 -0.014031 -0.14295 -0.23322 0.18968 0.011701 0.21596 -0.15907 0.23634 0.11639 -0.074554 0.22644 0.10837 0.16763 -0.23056 -0.024629 -0.094409 -0.11308 -0.026147 0.023215 -0.019558 0.17264 -0.051244 0.1969 -0.094237 0.18843 -0.1028 -0.023765 -0.082823 
so -0.24017 0.025629 0.027945 -0.050017 0.12127 0.028489 0.079935 0.23673 0.0059499 0.34504 0.0080865 0.096631 -0.03485 -0.087041 -0.21702 -0.20922 -0.090628 0.073925 -0.071462 -0.059456 -0.079471 0.27916 0.047163 -0.39359 -0.026337 -0.063888 0.32085 -0.044894 -0.22146 0.20694 0.05283 -0.054913 -0.23745 0.015083 -0.021557 0.047056 -0.21023 0.21185 0.088985 0.139 -0.032222 -0.14231 -0.052089 0.4244 0.12929 0.17569 0.087649 -0.041727 -0.038112 -0.062284 -0.21341 0.042065 -0.13223 0.31465 0.2372 -0.1136 0.047842 0.085426 -0.20398 0.21498 -0.056644 0.040577 -0.069299 -0.01075 0.065686 -0.11224 0.16685 0.10661 0.060466 -0.010291 -0.14602 -0.07055 0.028983 -0.08451 -0.1328 0.20421 0.10521 0.25983 -0.081711 0.18539 0.092515 -0.11075 0.25152 0.15849 0.28831 -0.32929 0.091637 -0.055669 -0.083432 0.0098624 -0.080169 -0.079118 0.26903 -0.034627 0.1665 -0.18131 0.26517 -0.064111 -0.19849 -0.062762 
when -0.25928 0.030756 0.029404 -0.027462 0.13015 0.020993 0.070075 0.266 -0.004037 0.36796 0.0077093 0.052758 -0.027622 -0.088334 -0.19189 -0.21702 -0.081822 0.057558 -0.072261 -0.023074 -0.079647 0.31865 0.049447 -0.40021 -0.057001 -0.056653 0.34883 -0.062967 -0.24772 0.20607 0.063032 -0.044553 -0.23883 0.00070075 -0.030581 0.037191 -0.22298 0.22216 0.10479 0.13229 -0.0297 -0.19037 -0.051513 0.43916 0.11716 0.18946 0.0519 -0.041541 -0.02129 -0.055832 -0.2152 0.078158 -0.1017 0.34684 0.23276 -0.092963 0.026996 0.080543 -0.20963 0.20935 -0.061848 0.01234 -0.064467 0.0011005 0.051457 -0.13548 0.16706 0.10076 0.069671 0.0014697 -0.16398 -0.081802 0.028061 -0.083455 -0.10519 0.21803 0.13296 0.2783 -0.072551 0.18337 0.099483 -0.12452 0.26243 0.17141 0.32607 -0.35852 0.11769 -0.04325 -0.084517 0.03497 -0.11181 -0.087879 0.30408 -0.026642 0.15348 -0.19887 0.29786 -0.059556 -0.2476 -0.071026 
bit -0.1512 -0.058084 0.022453 -0.32121 0.11626 0.11913 0.10404 0.06154 0.028361 0.19596 0.01335 0.38193 -0.050096 -0.09721 -0.40014 -0.14489 -0.2355 0.17572 -0.081927 -0.26851 -0.087925 0.057154 0.10598 -0.31463 0.20188 -0.14736 0.19456 0.10823 -0.034952 0.18074 0.0024724 -0.1824 -0.22214 0.052787 0.031969 0.10496 -0.19792 0.21682 0.0084007 0.29437 -0.036293 0.20547 -0.14006 0.33641 0.27227 0.11465 0.37138 -0.047991 -0.11822 -0.10284 -0.25281 -0.15196 -0.33706 0.12571 0.29254 -0.24239 0.22451 0.16002 -0.19517 0.25671 -0.077818 0.23943 -0.07383 -0.12053 0.16043 0.036902 0.17161 0.093773 -0.032793 -0.189 -0.037585 -0.10373 -0.033289 -0.17509 -0.32942 0.18479 -0.070006 0.17739 -0.22043 0.29033 0.14108 -0.053081 0.21543 0.086328 0.096779 -0.17715 -0.13868 -0.13812 -0.14851 -0.041462 0.11513 0.019196 0.10122 -0.074054 0.23857 -0.032225 0.14255 -0.15506 0.1023 -0.07461 
thin -0.12561 -0.075343 0.026644 -0.36891 0.11893 0.13573 0.11677 0.0357 0.0089773 0.17208 0.021666 0.4245 -0.066181 -0.11408 -0.41905 -0.12524 -0.25411 0.18985 -0.088981 -0.29821 -0.094041 0.032206 0.1183 -0.30128 0.22971 -0.16617 0.16329 0.1372 -0.017169 0.1658 -0.0014551 -0.19005 -0.22889 0.064706 0.042871 0.12133 -0.19695 0.2224 0.0081088 0.32684 -0.045574 0.25832 -0.15342 0.32805 0.28898 0.10077 0.42689 -0.029752 -0.1272 -0.10575 -0.2433 -0.17511 -0.35445 0.1088 0.30693 -0.25196 0.25654 0.19495 -0.19912 0.27693 -0.086415 0.27037 -0.067531 -0.15733 0.16943 0.042699 0.18272 0.084303 -0.055728 -0.21931 -0.020256 -0.10273 -0.039587 -0.19539 -0.34947 0.19348 -0.1064 0.15842 -0.23553 0.31445 0.13513 -0.044997 0.21107 0.078413 0.057682 -0.14064 -0.17928 -0.15308 -0.14663 -0.039447 0.13997 0.034272 0.072608 -0.073843 0.24783 -0.0025883 0.12367 -0.16927 0.14009 -0.079791 
realli -0.23193 0.010487 0.027418 -0.087722 0.12553 0.044842 0.081064 0.21147 0.013231 0.32142 0.0076665 0.13955 -0.029895 -0.087748 -0.23679 -0.20088 -0.1117 0.090689 -0.066938 -0.084762 -0.081481 0.23782 0.061879 -0.36883 0.012834 -0.07996 0.30305 -0.02571 -0.18518 0.19759 0.041575 -0.078157 -0.23239 0.0001322 -0.0099436 0.052437 -0.20068 0.21071 0.072537 0.15259 -0.029814 -0.085161 -0.067893 0.39814 0.13747 0.16229 0.1212 -0.045218 -0.044701 -0.064523 -0.21788 0.025164 -0.15892 0.28323 0.24018 -0.12783 0.075217 0.092764 -0.19725 0.21538 -0.057946 0.059539 -0.068997 -0.027322 0.083802 -0.081735 0.15999 0.095452 0.042133 -0.039616 -0.12962 -0.07967 0.014759 -0.10251 -0.15411 0.20453 0.080977 0.25141 -0.10779 0.19852 0.11124 -0.10567 0.24401 0.1398 0.25809 -0.29432 0.057966 -0.0639 -0.094443 0.0029871 -0.046958 -0.063924 0.23879 -0.034623 0.16996 -0.15698 0.24621 -0.07538 -0.1473 -0.074609 
it -0.26048 0.024488 0.020824 -0.030403 0.11716 0.02266 0.069062 0.25878 0.015097 0.35539 0.0060041 0.075934 -0.025752 -0.077365 -0.20102 -0.21746 -0.091361 0.059236 -0.061739 -0.049412 -0.067644 0.297 0.042921 -0.39454 -0.034946 -0.059552 0.33877 -0.068172 -0.21905 0.20168 0.062073 -0.053372 -0.23781 -0.0010986 -0.024949 0.027776 -0.2137 0.20765 0.088784 0.13153 -0.025668 -0.17848 -0.046808 0.41949 0.10998 0.17648 0.05063 -0.052451 -0.026817 -0.068453 -0.21494 0.073447 -0.12286 0.32067 0.22807 -0.10918 0.029374 0.068288 -0.19738 0.20052 -0.047396 0.008732 -0.072491 0.010987 0.070779 -0.11069 0.16213 0.099577 0.069156 0.0095971 -0.15663 -0.07484 0.026286 -0.085162 -0.11595 0.20482 0.12799 0.27927 -0.086057 0.17658 0.10501 -0.12614 0.25071 0.16155 0.31092 -0.34344 0.098266 -0.053366 -0.086812 0.0098036 -0.085595 -0.092748 0.28692 -0.027156 0.15762 -0.19649 0.2718 -0.051737 -0.21631 -0.069505 
nice -0.16817 -0.039778 0.021646 -0.25198 0.11466 0.093495 0.092662 0.10193 0.014234 0.21963 0.012643 0.30429 -0.048861 -0.093892 -0.33686 -0.14466 -0.19049 0.14185 -0.080501 -0.19761 -0.088292 0.11327 0.094209 -0.32241 0.13098 -0.12275 0.21153 0.07473 -0.080086 0.17603 0.010939 -0.14004 -0.22592 0.043684 0.024933 0.088973 -0.1982 0.20976 0.027389 0.25371 -0.026959 0.11603 -0.10926 0.35225 0.22914 0.13121 0.29906 -0.035901 -0.089537 -0.085412 -0.22927 -0.096519 -0.2737 0.17667 0.2709 -0.20442 0.18362 0.15305 -0.19916 0.24325 -0.080231 0.18088 -0.064148 -0.10163 0.13447 -0.01221 0.16952 0.089273 -0.0074513 -0.13985 -0.066088 -0.098902 -0.016726 -0.15575 -0.26887 0.19456 -0.024345 0.18837 -0.18179 0.25561 0.11764 -0.063345 0.22534 0.10407 0.14294 -0.19916 -0.077188 -0.11044 -0.12719 -0.024016 0.056611 0.0026883 0.13851 -0.065367 0.21384 -0.073025 0.17292 -0.13307 0.016981 -0.068006 
medium -0.10294 -0.10256 0.029971 -0.4954 0.1297 0.17746 0.13736 -0.030958 0.018597 0.13526 0.033218 0.56063 -0.084125 -0.12251 -0.51771 -0.10871 -0.31768 0.24447 -0.10344 -0.38989 -0.11092 -0.034248 0.1469 -0.3 0.32326 -0.20126 0.13686 0.20318 0.041573 0.18105 -0.023328 -0.24084 -0.24004 0.096486 0.062032 0.15974 -0.21187 0.23962 -0.012722 0.40942 -0.047391 0.4041 -0.19382 0.33851 0.35778 0.095282 0.56111 -0.03582 -0.17199 -0.13257 -0.27201 -0.25486 -0.45389 0.058767 0.35177 -0.31823 0.3434 0.24948 -0.22836 0.31568 -0.11079 0.36877 -0.074467 -0.20388 0.21934 0.093441 0.20299 0.088466 -0.084733 -0.2965 0.015961 -0.12445 -0.064397 -0.24041 -0.44544 0.21484 -0.16507 0.13552 -0.29832 0.37331 0.16105 -0.023549 0.22347 0.061278 0.0094949 -0.099393 -0.26862 -0.17966 -0.18631 -0.064655 0.21155 0.083263 0.023312 -0.098231 0.29244 0.038912 0.097748 -0.21508 0.25075 -0.082436 
rate -0.20637 0.019798 0.046194 -0.11752 0.1378 0.03269 0.093669 0.18363 0.028334 0.29125 -0.0054046 0.15797 -0.046545 -0.09983 -0.25761 -0.2004 -0.1368 0.09392 -0.07768 -0.10824 -0.10835 0.20191 0.069382 -0.35954 0.024053 -0.086494 0.28099 -0.012501 -0.15862 0.22035 0.018437 -0.079935 -0.21938 0.010587 -0.0095609 0.068335 -0.1918 0.20601 0.067419 0.17781 -0.029207 -0.047071 -0.050244 0.37723 0.16149 0.18919 0.16899 -0.050417 -0.083896 -0.075088 -0.22405 0.0096346 -0.20278 0.25394 0.23586 -0.13068 0.092952 0.1026 -0.20781 0.24212 -0.053466 0.082473 -0.085764 -0.040974 0.097807 -0.06641 0.16203 0.085254 0.035942 -0.06989 -0.11515 -0.087269 0.0049027 -0.1066 -0.18174 0.17816 0.048879 0.23226 -0.11739 0.22032 0.093594 -0.10042 0.24753 0.12912 0.23204 -0.28027 0.05789 -0.085634 -0.1089 0.0061574 -0.065152 -0.035258 0.25218 -0.037001 0.15834 -0.15231 0.2316 -0.087383 -0.11274 -0.076164 
slightli -0.12593 -0.081622 0.02503 -0.41802 0.128 0.14658 0.12409 0.013528 0.019432 0.16759 0.024704 0.47699 -0.065018 -0.10995 -0.45959 -0.12857 -0.27651 0.20918 -0.098324 -0.32758 -0.10433 0.0051743 0.13615 -0.3068 0.2683 -0.1802 0.15853 0.16257 0.0071167 0.18241 -0.014068 -0.20672 -0.23701 0.071885 0.045649 0.13843 -0.20132 0.23049 -0.0033678 0.35251 -0.036896 0.31362 -0.16786 0.33678 0.3168 0.10904 0.47422 -0.038964 -0.14897 -0.12123 -0.25704 -0.20533 -0.39243 0.085364 0.3182 -0.2746 0.29079 0.21147 -0.21639 0.29098 -0.095509 0.29854 -0.073229 -0.17298 0.18567 0.070003 0.1863 0.090407 -0.066077 -0.25048 -0.0012169 -0.11345 -0.050307 -0.20864 -0.38726 0.19788 -0.12101 0.14643 -0.25834 0.33249 0.14466 -0.040442 0.21191 0.07566 0.047531 -0.13316 -0.20878 -0.15802 -0.16626 -0.054774 0.16417 0.058311 0.053779 -0.084243 0.26267 0.005287 0.11637 -0.19211 0.17999 -0.081956 
malti -0.11493 -0.091191 0.029709 -0.43097 0.12429 0.14962 0.11975 0.0079666 0.022878 0.15075 0.024616 0.49235 -0.070671 -0.11384 -0.4649 -0.12565 -0.27928 0.21871 -0.10417 -0.33859 -0.1069 -0.0039253 0.13276 -0.3062 0.27443 -0.18353 0.1503 0.17046 0.018416 0.181 -0.016375 -0.22031 -0.23704 0.07616 0.052549 0.1362 -0.20539 0.23188 -0.0059599 0.36459 -0.03914 0.32909 -0.16799 0.33518 0.32842 0.10947 0.49467 -0.035585 -0.15575 -0.12293 -0.26811 -0.21828 -0.41103 0.081125 0.33026 -0.29204 0.29906 0.21219 -0.21852 0.30403 -0.10003 0.31454 -0.076766 -0.17594 0.18986 0.071453 0.19548 0.093705 -0.066181 -0.2581 -0.0072407 -0.11973 -0.051369 -0.2191 -0.40676 0.20338 -0.13201 0.14813 -0.27398 0.34103 0.14828 -0.03728 0.22025 0.070655 0.042915 -0.13544 -0.21724 -0.16751 -0.17352 -0.05631 0.17538 0.058296 0.050269 -0.095764 0.27951 0.011116 0.11347 -0.19761 0.19695 -0.082021 
corn -0.1245 -0.073168 0.031107 -0.3675 0.11821 0.12788 0.11204 0.042302 0.010405 0.17301 0.022148 0.41403 -0.059934 -0.10902 -0.40448 -0.13719 -0.23912 0.19076 -0.097973 -0.28242 -0.097238 0.032074 0.11402 -0.30439 0.22023 -0.15825 0.18026 0.13606 -0.010436 0.17133 -0.0027538 -0.18667 -0.22775 0.063587 0.031853 0.12196 -0.19818 0.2205 0.012979 0.31907 -0.029921 0.25142 -0.14168 0.33098 0.28995 0.11345 0.4234 -0.031033 -0.13518 -0.10671 -0.25148 -0.168 -0.3493 0.11223 0.30906 -0.25294 0.25325 0.19041 -0.21552 0.27802 -0.095635 0.26174 -0.071886 -0.14551 0.16046 0.036552 0.17862 0.085421 -0.050425 -0.21662 -0.018002 -0.10909 -0.040473 -0.19784 -0.34739 0.1975 -0.097357 0.15853 -0.22774 0.30634 0.13306 -0.046815 0.22349 0.081586 0.070898 -0.14608 -0.16389 -0.14845 -0.14631 -0.03725 0.13267 0.039522 0.075178 -0.079691 0.24512 -0.01343 0.13144 -0.16387 0.13261 -0.076793 
green -0.22853 0.011588 0.02765 -0.10047 0.12211 0.044666 0.073107 0.20646 -0.0025114 0.31659 0.0092528 0.11443 -0.034886 -0.094602 -0.22503 -0.19044 -0.11346 0.07881 -0.074095 -0.072326 -0.084986 0.24541 0.065814 -0.36827 0.0074621 -0.071926 0.29879 -0.023822 -0.18951 0.19385 0.05275 -0.066902 -0.23348 0.013946 -0.010752 0.047834 -0.20767 0.22526 0.085167 0.16564 -0.031045 -0.093469 -0.062154 0.40189 0.1478 0.16803 0.13181 -0.034063 -0.039696 -0.054858 -0.21457 0.031355 -0.14969 0.28874 0.23394 -0.11655 0.072059 0.1086 -0.20422 0.21822 -0.068578 0.061512 -0.072774 -0.031319 0.067101 -0.094825 0.17032 0.10361 0.042955 -0.043252 -0.12554 -0.084504 0.0069288 -0.10869 -0.14239 0.21249 0.085015 0.24349 -0.10357 0.20456 0.098866 -0.10748 0.24872 0.14624 0.26805 -0.3048 0.056844 -0.076326 -0.097323 0.02623 -0.06369 -0.073847 0.24334 -0.039313 0.16436 -0.16087 0.2525 -0.083038 -0.16575 -0.066114 
averag -0.15263 -0.049041 0.025104 -0.30491 0.11962 0.11214 0.10386 0.070379 0.018739 0.2042 0.020166 0.36082 -0.059926 -0.10082 -0.37643 -0.13714 -0.21602 0.16882 -0.086079 -0.25223 -0.092287 0.07235 0.10523 -0.31256 0.17784 -0.13852 0.19011 0.10094 -0.050095 0.17628 0.0016409 -0.16128 -0.22397 0.050267 0.025554 0.10214 -0.19559 0.21364 0.017918 0.28215 -0.034822 0.1791 -0.13018 0.33971 0.24736 0.12342 0.35283 -0.035975 -0.11432 -0.096524 -0.23662 -0.13065 -0.31507 0.1387 0.28519 -0.21981 0.21533 0.17247 -0.19857 0.25561 -0.083605 0.21634 -0.066017 -0.12565 0.14796 0.018733 0.17448 0.085897 -0.033259 -0.17431 -0.043234 -0.10184 -0.030551 -0.17167 -0.30387 0.19038 -0.057249 0.17189 -0.20065 0.27482 0.11877 -0.052533 0.21223 0.092219 0.10572 -0.16474 -0.12471 -0.12285 -0.14013 -0.033225 0.09902 0.023186 0.11165 -0.070054 0.22398 -0.040427 0.15382 -0.15171 0.078886 -0.070298 
aftertast -0.18192 -0.025045 0.025713 -0.21541 0.12293 0.08245 0.09297 0.13178 0.021232 0.24809 0.0090827 0.26505 -0.041395 -0.098334 -0.31612 -0.16646 -0.17054 0.13345 -0.083015 -0.18068 -0.086806 0.13592 0.085826 -0.33306 0.11272 -0.1139 0.23469 0.045473 -0.10211 0.18823 0.02405 -0.1316 -0.22613 0.03584 0.015358 0.076389 -0.20009 0.20801 0.042296 0.22831 -0.032334 0.071987 -0.099659 0.35657 0.20659 0.13897 0.25877 -0.043683 -0.084851 -0.086085 -0.23004 -0.069109 -0.25165 0.19354 0.25898 -0.19029 0.15567 0.12984 -0.19351 0.24179 -0.067362 0.15093 -0.068041 -0.077962 0.12186 -0.024559 0.16651 0.089238 0.0047937 -0.12089 -0.076213 -0.089588 -0.011118 -0.13926 -0.24693 0.19103 -0.00049499 0.20653 -0.16969 0.24373 0.11226 -0.071893 0.2307 0.11065 0.17114 -0.22484 -0.041867 -0.099056 -0.12071 -0.01832 0.034205 -0.016451 0.16614 -0.055093 0.20891 -0.087959 0.18753 -0.1171 -0.012365 -0.07397 
brew -0.22534 0.013155 0.025019 -0.10646 0.12315 0.05221 0.069914 0.19102 -2.4948e-05 0.30908 0.016095 0.13793 -0.039585 -0.085668 -0.22729 -0.18696 -0.11513 0.085602 -0.072952 -0.085626 -0.070973 0.23319 0.0668 -0.36048 0.016315 -0.077853 0.28475 -0.015633 -0.18474 0.18073 0.045606 -0.068399 -0.22113 0.01163 -0.0081014 0.053037 -0.20186 0.21765 0.067721 0.17117 -0.032932 -0.077697 -0.065826 0.39011 0.14767 0.15568 0.14076 -0.042762 -0.0393 -0.064512 -0.20926 0.018749 -0.1596 0.27924 0.23836 -0.1312 0.077667 0.10035 -0.1961 0.21175 -0.068207 0.068944 -0.070466 -0.042279 0.077316 -0.087609 0.16642 0.095861 0.03495 -0.046562 -0.11957 -0.08225 0.012282 -0.10768 -0.15475 0.20046 0.074657 0.24049 -0.11456 0.20536 0.093764 -0.10154 0.23625 0.14584 0.25593 -0.29032 0.041886 -0.066127 -0.092953 0.010499 -0.043189 -0.058493 0.22494 -0.03918 0.1664 -0.14516 0.24644 -0.078084 -0.15172 -0.072806 
pretti -0.18394 -0.023349 0.025681 -0.2011 0.11422 0.076026 0.090451 0.13571 0.019299 0.25608 0.01505 0.24831 -0.040212 -0.090201 -0.29907 -0.16695 -0.16261 0.12447 -0.076741 -0.16957 -0.086169 0.14971 0.082678 -0.33625 0.096403 -0.10961 0.24361 0.043899 -0.11093 0.18152 0.020021 -0.1211 -0.23133 0.03149 0.011671 0.078354 -0.19931 0.20926 0.040529 0.21971 -0.024357 0.052748 -0.097848 0.36495 0.19506 0.14542 0.23894 -0.041254 -0.076866 -0.080357 -0.22708 -0.054304 -0.23764 0.20776 0.25747 -0.17938 0.13943 0.1302 -0.19587 0.23778 -0.073384 0.14071 -0.069491 -0.080291 0.11395 -0.028144 0.16428 0.08909 0.0043009 -0.11068 -0.085709 -0.087982 -0.0089834 -0.1419 -0.22699 0.19446 0.01001 0.21104 -0.15538 0.23962 0.11505 -0.078268 0.22603 0.11439 0.1751 -0.23229 -0.037995 -0.096994 -0.11544 -0.014131 0.028612 -0.021015 0.16544 -0.05443 0.19767 -0.093541 0.19373 -0.10911 -0.033008 -0.075846 
time -0.25621 0.031173 0.026298 -0.028888 0.12925 0.021308 0.074154 0.25699 0.0013688 0.36205 0.0060483 0.065625 -0.024261 -0.086386 -0.19048 -0.21225 -0.088827 0.066873 -0.072371 -0.038935 -0.080615 0.30344 0.051998 -0.39286 -0.043242 -0.064712 0.34125 -0.05374 -0.24217 0.20478 0.055619 -0.042412 -0.23854 0.0006256 -0.022066 0.041848 -0.21552 0.22393 0.096719 0.13454 -0.030046 -0.17162 -0.047551 0.43374 0.12044 0.18875 0.066869 -0.041135 -0.024773 -0.057252 -0.20979 0.069752 -0.10961 0.33939 0.23993 -0.10634 0.036965 0.078975 -0.2105 0.2115 -0.06431 0.022915 -0.0717 -0.012002 0.058897 -0.12605 0.1686 0.10868 0.065493 0.00047652 -0.15764 -0.076477 0.02722 -0.088843 -0.10535 0.20972 0.12571 0.27068 -0.074075 0.17905 0.097528 -0.11449 0.26521 0.16892 0.3144 -0.34585 0.10866 -0.054124 -0.090241 0.033841 -0.10712 -0.087147 0.28366 -0.030968 0.15502 -0.19486 0.28749 -0.054957 -0.23487 -0.066977 
macro -0.221 0.0078115 0.020296 -0.11027 0.12414 0.048106 0.077455 0.19342 0.017686 0.30673 0.007305 0.1549 -0.025132 -0.079779 -0.24665 -0.18969 -0.11631 0.086693 -0.075295 -0.10062 -0.071793 0.22437 0.062772 -0.3564 0.026228 -0.076352 0.28639 -0.010879 -0.16588 0.18452 0.031666 -0.087551 -0.23202 0.0024006 -0.010509 0.048695 -0.19836 0.20506 0.05358 0.16306 -0.019064 -0.066288 -0.069505 0.38452 0.14416 0.16268 0.1428 -0.048137 -0.054766 -0.069379 -0.22126 0.014042 -0.17442 0.26588 0.2313 -0.14093 0.077673 0.088717 -0.19528 0.21817 -0.059431 0.074428 -0.06874 -0.026172 0.081164 -0.068775 0.1553 0.093931 0.037261 -0.051735 -0.1162 -0.081016 0.012832 -0.10732 -0.17025 0.18736 0.069205 0.25198 -0.11465 0.19649 0.10367 -0.097458 0.2371 0.13113 0.24243 -0.27792 0.036626 -0.066781 -0.094597 -0.002091 -0.029423 -0.048933 0.22766 -0.037253 0.17456 -0.13676 0.23713 -0.073892 -0.12852 -0.077962 
crisp -0.14564 -0.060699 0.029278 -0.33826 0.12305 0.12099 0.10905 0.059908 0.019757 0.19656 0.017489 0.39626 -0.059404 -0.10513 -0.40353 -0.13949 -0.23553 0.18146 -0.09062 -0.26962 -0.10391 0.061136 0.1119 -0.31857 0.20723 -0.15341 0.19296 0.11549 -0.031773 0.18157 -0.0040672 -0.18024 -0.23159 0.059238 0.034878 0.1162 -0.20255 0.2243 0.012964 0.30413 -0.029724 0.21683 -0.1399 0.3482 0.27376 0.12164 0.39845 -0.037881 -0.12432 -0.10454 -0.25366 -0.14887 -0.34155 0.12868 0.30024 -0.25073 0.2372 0.17991 -0.21266 0.27501 -0.087737 0.24658 -0.073783 -0.13691 0.1618 0.031499 0.18129 0.092734 -0.033018 -0.19884 -0.033784 -0.10601 -0.03182 -0.18457 -0.33412 0.19959 -0.071886 0.17171 -0.22533 0.30205 0.13585 -0.056038 0.22818 0.089803 0.10236 -0.16941 -0.14143 -0.14119 -0.14843 -0.040888 0.10964 0.029861 0.10182 -0.075409 0.24479 -0.034226 0.14694 -0.16352 0.10508 -0.079551 
think -0.22583 0.0082326 0.026423 -0.099077 0.12047 0.046711 0.08015 0.21702 0.0047247 0.31959 0.0095904 0.13378 -0.035128 -0.092677 -0.24066 -0.19355 -0.11984 0.082051 -0.068137 -0.094723 -0.079655 0.24677 0.059757 -0.37669 0.01077 -0.0834 0.30356 -0.022406 -0.19028 0.19184 0.041874 -0.078926 -0.23263 0.0063018 -0.011305 0.056253 -0.205 0.2166 0.077416 0.16282 -0.035483 -0.093437 -0.071464 0.40017 0.14208 0.16416 0.1268 -0.038313 -0.039867 -0.066675 -0.21379 0.023167 -0.15773 0.28733 0.24462 -0.1296 0.072293 0.094404 -0.19329 0.21842 -0.05872 0.065768 -0.071214 -0.036115 0.086709 -0.091376 0.16865 0.09921 0.040829 -0.043542 -0.13056 -0.076022 0.017948 -0.10202 -0.14593 0.20475 0.074821 0.24967 -0.10678 0.20572 0.1065 -0.10707 0.24601 0.14459 0.2574 -0.30201 0.051586 -0.073943 -0.092287 0.0091433 -0.050437 -0.06556 0.23577 -0.03281 0.17107 -0.14737 0.24345 -0.071439 -0.15509 -0.072809 
grain -0.098679 -0.11291 0.029784 -0.49366 0.1194 0.16701 0.13046 -0.027193 0.017113 0.12728 0.02728 0.55242 -0.072664 -0.12294 -0.50618 -0.11392 -0.30911 0.24539 -0.11307 -0.37727 -0.11536 -0.041821 0.14757 -0.29615 0.32314 -0.19918 0.13313 0.20108 0.050221 0.17448 -0.0231 -0.24989 -0.24985 0.08919 0.062419 0.15039 -0.20807 0.24298 -0.01151 0.40775 -0.044823 0.40283 -0.18736 0.31984 0.3677 0.093205 0.56452 -0.030082 -0.17712 -0.12778 -0.27404 -0.25768 -0.45015 0.047272 0.34996 -0.31579 0.34284 0.24311 -0.22192 0.31898 -0.11349 0.35816 -0.07821 -0.20274 0.20484 0.092398 0.2079 0.089293 -0.091965 -0.2978 0.019511 -0.12245 -0.064221 -0.24397 -0.45147 0.20676 -0.17339 0.13376 -0.29826 0.36905 0.15565 -0.020386 0.22278 0.063889 -0.0035055 -0.10511 -0.26006 -0.19345 -0.18836 -0.059281 0.20573 0.073361 0.019757 -0.10418 0.29775 0.045038 0.089009 -0.21839 0.25109 -0.079847 
great -0.23301 0.015055 0.023916 -0.087268 0.1267 0.042397 0.078179 0.21754 0.0075414 0.32113 0.0039351 0.12744 -0.031324 -0.084907 -0.23 -0.19965 -0.11751 0.08456 -0.067971 -0.078843 -0.080011 0.24918 0.058474 -0.3752 0.0022621 -0.072661 0.30313 -0.03182 -0.19204 0.19291 0.046086 -0.075676 -0.23385 0.0042911 -0.012106 0.051656 -0.20879 0.21594 0.074689 0.15629 -0.030573 -0.099724 -0.065575 0.40312 0.13809 0.16486 0.12112 -0.04765 -0.048424 -0.069643 -0.22086 0.028866 -0.1566 0.28803 0.24266 -0.13001 0.067592 0.091582 -0.19763 0.21533 -0.057116 0.055492 -0.067999 -0.016123 0.076239 -0.090067 0.1635 0.10384 0.045613 -0.033853 -0.12657 -0.081491 0.015215 -0.10601 -0.15013 0.20866 0.085091 0.25665 -0.10847 0.20238 0.10591 -0.1073 0.24965 0.147 0.26891 -0.30875 0.060949 -0.068533 -0.099378 0.0085766 -0.053716 -0.067042 0.25165 -0.034454 0.17362 -0.16319 0.25276 -0.075477 -0.1614 -0.07279 
best -0.27737 0.041501 0.020478 -0.0012895 0.13058 0.022056 0.067009 0.28086 0.0094298 0.38306 -0.0013407 0.04091 -0.02381 -0.086542 -0.19462 -0.22487 -0.07621 0.049857 -0.068751 -0.021042 -0.073709 0.30991 0.039221 -0.41028 -0.063517 -0.049938 0.34974 -0.07307 -0.25292 0.21041 0.064498 -0.045313 -0.24164 -0.0059622 -0.029627 0.027194 -0.21806 0.22162 0.092293 0.11188 -0.029218 -0.20915 -0.044567 0.44229 0.10134 0.19132 0.035468 -0.047475 -0.018831 -0.062271 -0.21473 0.083605 -0.10882 0.35282 0.22274 -0.09926 0.016674 0.065672 -0.19747 0.20553 -0.04491 -0.0069405 -0.073833 0.012291 0.058844 -0.13617 0.16264 0.10836 0.079714 0.018345 -0.16782 -0.073102 0.04002 -0.074923 -0.10083 0.21105 0.14688 0.29594 -0.079864 0.1676 0.091722 -0.12938 0.26397 0.17629 0.34259 -0.36218 0.13753 -0.042201 -0.08243 0.022578 -0.11435 -0.091803 0.30989 -0.024115 0.16005 -0.2144 0.30238 -0.047326 -0.25642 -0.065524 
decent -0.17552 -0.025211 0.02743 -0.20679 0.1198 0.080035 0.093493 0.12645 0.0099377 0.2457 0.01233 0.2499 -0.048738 -0.090372 -0.30669 -0.16001 -0.16512 0.13049 -0.086619 -0.16495 -0.08573 0.14935 0.083219 -0.33088 0.09639 -0.10968 0.23388 0.046254 -0.10956 0.17791 0.026484 -0.11662 -0.22329 0.03689 0.009337 0.082007 -0.19612 0.21427 0.045009 0.22769 -0.031435 0.057796 -0.097308 0.36184 0.20571 0.13768 0.25241 -0.031565 -0.077649 -0.078697 -0.22321 -0.057866 -0.23607 0.19824 0.26298 -0.1748 0.15013 0.13727 -0.20648 0.23565 -0.071652 0.14374 -0.062803 -0.083754 0.10981 -0.034322 0.17278 0.089791 -0.0022914 -0.11377 -0.080528 -0.089716 -0.0089958 -0.13768 -0.23329 0.19333 0.0019205 0.19768 -0.15919 0.2435 0.11224 -0.076617 0.22621 0.11732 0.1777 -0.22612 -0.041282 -0.099231 -0.12137 -0.0062859 0.028262 -0.010554 0.16795 -0.050543 0.19896 -0.090131 0.20003 -0.1187 -0.025984 -0.06959 
refresh -0.17677 -0.028605 0.020477 -0.21648 0.11294 0.083411 0.089059 0.12412 0.014154 0.24457 0.010951 0.27122 -0.04486 -0.091949 -0.31305 -0.15556 -0.17239 0.13111 -0.078832 -0.17552 -0.083243 0.13864 0.085067 -0.32888 0.11304 -0.11477 0.23863 0.044855 -0.10572 0.18074 0.021875 -0.12806 -0.21675 0.034545 0.016324 0.086954 -0.19626 0.20946 0.041528 0.23189 -0.029995 0.073332 -0.10478 0.35679 0.20365 0.13789 0.25619 -0.045287 -0.073607 -0.088628 -0.2271 -0.072832 -0.24283 0.19686 0.2678 -0.18714 0.15411 0.13429 -0.19739 0.2347 -0.071046 0.1533 -0.069362 -0.078792 0.12439 -0.02204 0.16485 0.09233 0.0073642 -0.11712 -0.075026 -0.091047 -0.010348 -0.1441 -0.24105 0.19843 0.0018589 0.20603 -0.16189 0.23813 0.12442 -0.074578 0.22179 0.1113 0.17159 -0.22149 -0.048594 -0.09791 -0.12023 -0.02442 0.038233 -0.011557 0.15652 -0.058194 0.20761 -0.089493 0.18814 -0.11695 -0.013572 -0.071121 
go -0.22939 0.013096 0.033665 -0.097917 0.12179 0.043423 0.081499 0.20402 0.0073575 0.31856 0.010405 0.13137 -0.042987 -0.08691 -0.23215 -0.18563 -0.10909 0.081576 -0.070143 -0.083605 -0.083055 0.24066 0.062211 -0.36978 0.0043544 -0.081619 0.30132 -0.021947 -0.18614 0.18481 0.04143 -0.078479 -0.23284 0.016317 -0.015914 0.05476 -0.21191 0.22073 0.080028 0.16313 -0.02553 -0.082127 -0.065541 0.41071 0.14382 0.1689 0.13208 -0.038925 -0.03434 -0.06215 -0.22366 0.026424 -0.16178 0.28308 0.24426 -0.13122 0.070452 0.10226 -0.20707 0.21606 -0.063265 0.066738 -0.070734 -0.036189 0.077258 -0.087847 0.16545 0.10077 0.0492 -0.038891 -0.13642 -0.083758 0.011661 -0.10261 -0.15414 0.20609 0.082396 0.25011 -0.10525 0.19703 0.098616 -0.1009 0.24757 0.14625 0.26517 -0.29989 0.057544 -0.066937 -0.10447 0.013737 -0.059456 -0.0496 0.24317 -0.039285 0.16737 -0.15592 0.25118 -0.088615 -0.1565 -0.065908 
water -0.19476 -0.020801 0.023943 -0.18292 0.1258 0.071864 0.09361 0.15167 0.025983 0.26027 0.0046332 0.23227 -0.038393 -0.093034 -0.29786 -0.17833 -0.15819 0.12222 -0.073994 -0.16274 -0.087219 0.15054 0.074449 -0.33765 0.086749 -0.10325 0.25754 0.026921 -0.112 0.18636 0.022677 -0.12286 -0.22624 0.027257 0.01345 0.073722 -0.20023 0.20648 0.047484 0.20904 -0.025491 0.030782 -0.08948 0.3603 0.18396 0.15288 0.22731 -0.054338 -0.079208 -0.086436 -0.23025 -0.048162 -0.2335 0.20692 0.25369 -0.17956 0.13066 0.11464 -0.19193 0.24099 -0.059109 0.1261 -0.073189 -0.060179 0.11411 -0.031444 0.16227 0.089601 0.013568 -0.09659 -0.090406 -0.087738 -0.0041591 -0.12824 -0.22372 0.18891 0.017292 0.22425 -0.15024 0.22713 0.11507 -0.084117 0.23408 0.11581 0.18488 -0.24037 -0.016912 -0.097042 -0.10838 -0.021484 0.010057 -0.021101 0.18973 -0.047822 0.19432 -0.10468 0.20031 -0.09878 -0.039724 -0.079246 
don -0.29414 0.057167 0.03164 0.039587 0.14439 -0.0023459 0.073318 0.32291 0.0086166 0.41322 0.00038111 -0.0042903 -0.021246 -0.082194 -0.16071 -0.25007 -0.067524 0.033025 -0.053837 0.014866 -0.083682 0.36567 0.038495 -0.43507 -0.10477 -0.043126 0.38825 -0.12051 -0.28009 0.23852 0.064724 -0.015227 -0.24245 -0.02511 -0.039544 0.02105 -0.21652 0.21519 0.11572 0.080629 -0.028906 -0.27547 -0.01289 0.46179 0.068479 0.20725 -0.017759 -0.057046 -0.018666 -0.055467 -0.21481 0.13517 -0.081605 0.38711 0.21347 -0.076106 -0.025107 0.044327 -0.21306 0.20389 -0.0441 -0.038091 -0.079697 0.022445 0.044384 -0.16244 0.16013 0.11378 0.088179 0.040503 -0.18962 -0.06021 0.048101 -0.063094 -0.065574 0.22002 0.17761 0.31412 -0.056584 0.15699 0.1046 -0.1441 0.28226 0.18616 0.37876 -0.39867 0.17444 -0.033146 -0.077278 0.033319 -0.15352 -0.12014 0.34796 -0.011917 0.12856 -0.24618 0.31757 -0.023395 -0.30903 -0.085006 
palat -0.14302 -0.062839 0.023128 -0.33659 0.12451 0.12209 0.10888 0.053822 0.020839 0.19633 0.016792 0.3865 -0.056872 -0.10247 -0.39857 -0.13542 -0.23794 0.18124 -0.087536 -0.27181 -0.090966 0.055352 0.11643 -0.31568 0.20675 -0.14843 0.19219 0.11697 -0.030204 0.1793 -0.0037797 -0.18774 -0.23293 0.060165 0.038309 0.11458 -0.20523 0.21761 0.0094434 0.30207 -0.033753 0.21725 -0.14594 0.34308 0.27467 0.1162 0.38793 -0.044375 -0.12655 -0.10918 -0.25147 -0.1512 -0.34006 0.13269 0.30059 -0.2495 0.22825 0.18016 -0.20245 0.27229 -0.085922 0.24795 -0.070737 -0.13072 0.15866 0.03044 0.17493 0.090521 -0.038261 -0.19228 -0.03849 -0.10401 -0.03247 -0.18829 -0.33054 0.19615 -0.071403 0.17689 -0.2229 0.29717 0.13628 -0.046097 0.22163 0.087084 0.092929 -0.16248 -0.14499 -0.1374 -0.14571 -0.040766 0.11834 0.026973 0.096424 -0.075976 0.24655 -0.028699 0.14507 -0.15892 0.10349 -0.07574 
even -0.28829 0.04708 0.028983 0.021786 0.13714 0.0064051 0.065014 0.29961 0.0014876 0.40742 0.0041868 0.01028 -0.023851 -0.090976 -0.16584 -0.23847 -0.061059 0.040901 -0.062089 0.0023108 -0.079199 0.35988 0.044313 -0.43214 -0.094897 -0.050406 0.38114 -0.1003 -0.27501 0.22152 0.068515 -0.028968 -0.2526 -0.011771 -0.039283 0.027113 -0.22924 0.22652 0.11249 0.10463 -0.035512 -0.25417 -0.034602 0.4643 0.094701 0.20463 0.00081698 -0.047204 -0.0061682 -0.047972 -0.22304 0.11221 -0.08158 0.38565 0.23236 -0.078621 -0.0045747 0.065481 -0.21346 0.20946 -0.057004 -0.025648 -0.06862 0.02356 0.04508 -0.15873 0.17517 0.1148 0.091489 0.033517 -0.18693 -0.076462 0.03687 -0.07142 -0.077116 0.2215 0.16741 0.3065 -0.062339 0.16916 0.096403 -0.13982 0.28117 0.18534 0.37218 -0.39586 0.16615 -0.033586 -0.081527 0.039922 -0.14892 -0.11418 0.33707 -0.018872 0.14317 -0.23669 0.3225 -0.044764 -0.3024 -0.07683 
sai -0.26897 0.036709 0.026033 -0.019325 0.12943 0.018207 0.067272 0.26311 0.0056499 0.36558 0.0013327 0.050152 -0.022753 -0.088948 -0.19421 -0.21755 -0.082258 0.056811 -0.070592 -0.026287 -0.077432 0.31051 0.047268 -0.39987 -0.053706 -0.053305 0.35142 -0.073152 -0.24273 0.20537 0.050796 -0.040715 -0.23919 -0.0086739 -0.028965 0.04045 -0.21273 0.21033 0.092861 0.12524 -0.025367 -0.19164 -0.045818 0.43337 0.09994 0.1865 0.046404 -0.047799 -0.019756 -0.058672 -0.21464 0.082223 -0.1092 0.34178 0.23501 -0.099742 0.026511 0.073109 -0.20462 0.19984 -0.05856 0.015511 -0.074107 -0.0013949 0.058357 -0.13111 0.16429 0.10866 0.06802 0.0088458 -0.15581 -0.066876 0.035829 -0.078808 -0.10263 0.21306 0.13824 0.28125 -0.078927 0.18183 0.099454 -0.12807 0.26151 0.16158 0.32503 -0.34971 0.12494 -0.046728 -0.083476 0.021121 -0.10655 -0.093843 0.29391 -0.021403 0.15513 -0.20417 0.29273 -0.050595 -0.24303 -0.069928 
small -0.11566 -0.086765 0.027898 -0.41623 0.11795 0.13978 0.11702 0.0039949 0.019687 0.14358 0.029369 0.46407 -0.079982 -0.11395 -0.44411 -0.11511 -0.26353 0.20346 -0.10324 -0.32014 -0.10915 -0.00026453 0.1327 -0.29438 0.25511 -0.17886 0.14149 0.17002 0.014431 0.17181 -0.017179 -0.20074 -0.23062 0.087708 0.043346 0.1331 -0.19772 0.22834 0.007318 0.351 -0.035342 0.31544 -0.15883 0.32521 0.31328 0.1071 0.47752 -0.025412 -0.14985 -0.1043 -0.25907 -0.20047 -0.39563 0.081937 0.312 -0.26378 0.28576 0.21673 -0.22118 0.28834 -0.1013 0.29715 -0.068972 -0.18343 0.17641 0.063168 0.19193 0.079999 -0.072477 -0.24688 -0.0095884 -0.11256 -0.047594 -0.20521 -0.38057 0.19696 -0.12349 0.13635 -0.25845 0.33323 0.13271 -0.034703 0.20922 0.075719 0.042174 -0.1276 -0.20429 -0.16815 -0.17181 -0.043581 0.16076 0.06135 0.051372 -0.088907 0.26107 0.0056143 0.12096 -0.19632 0.17944 -0.072587 
slight -0.12392 -0.07413 0.024903 -0.39845 0.12653 0.13726 0.12447 0.024533 0.016134 0.17011 0.025308 0.44581 -0.066734 -0.11112 -0.43614 -0.12316 -0.26372 0.19695 -0.10246 -0.30207 -0.10578 0.023908 0.13265 -0.30576 0.24834 -0.17216 0.16357 0.15199 -0.006138 0.18012 -0.010294 -0.19552 -0.23564 0.07366 0.040329 0.13497 -0.20008 0.22922 0.0074749 0.34099 -0.035544 0.28075 -0.16045 0.34347 0.30569 0.11615 0.45265 -0.032979 -0.13612 -0.11368 -0.25047 -0.187 -0.36833 0.099871 0.31515 -0.2605 0.28015 0.21034 -0.22099 0.28574 -0.099883 0.28579 -0.071547 -0.16637 0.17457 0.054749 0.19074 0.088057 -0.059869 -0.23696 -0.0095256 -0.11436 -0.048113 -0.20026 -0.36484 0.20329 -0.10654 0.14675 -0.24617 0.32668 0.13757 -0.042484 0.2158 0.081531 0.067241 -0.14606 -0.18979 -0.15247 -0.16449 -0.045239 0.14264 0.054026 0.063575 -0.08448 0.25117 -0.0046469 0.12742 -0.18526 0.15016 -0.077141 
grassi -0.11287 -0.10902 0.027055 -0.49409 0.13052 0.16765 0.13542 -0.013721 0.014989 0.14679 0.028238 0.55561 -0.073414 -0.12531 -0.51292 -0.12172 -0.31158 0.24914 -0.11551 -0.37849 -0.11721 -0.027738 0.14885 -0.31942 0.31523 -0.20034 0.14684 0.2004 0.03374 0.18545 -0.021272 -0.24568 -0.25489 0.088873 0.062155 0.15661 -0.21946 0.25085 -0.0089996 0.40934 -0.041733 0.38708 -0.18933 0.34828 0.36771 0.098097 0.56496 -0.035459 -0.17637 -0.13382 -0.2904 -0.25431 -0.46239 0.068878 0.36382 -0.32152 0.34285 0.24502 -0.23606 0.33202 -0.11222 0.35835 -0.083743 -0.19918 0.20804 0.091745 0.213 0.095105 -0.08382 -0.29334 0.009301 -0.12803 -0.061793 -0.24507 -0.45277 0.2129 -0.16824 0.15382 -0.30378 0.37559 0.15761 -0.03047 0.23317 0.074766 0.019073 -0.11702 -0.25317 -0.19178 -0.18993 -0.056798 0.20136 0.070626 0.038257 -0.096218 0.30576 0.035307 0.10584 -0.22206 0.24064 -0.090744 
metal -0.14018 -0.065314 0.02804 -0.35201 0.12135 0.12437 0.10974 0.04548 0.011796 0.17662 0.015589 0.40261 -0.057098 -0.10321 -0.40457 -0.13276 -0.2378 0.18756 -0.091198 -0.27442 -0.097282 0.042928 0.1136 -0.30419 0.21474 -0.15758 0.1764 0.12817 -0.020052 0.17297 -0.0046342 -0.18566 -0.22258 0.061279 0.034375 0.11584 -0.19561 0.21616 0.011741 0.31111 -0.036799 0.23843 -0.14207 0.32997 0.27802 0.11303 0.40832 -0.038666 -0.12871 -0.11082 -0.24047 -0.16351 -0.34191 0.11033 0.29481 -0.24721 0.24307 0.18115 -0.19827 0.2697 -0.087284 0.2558 -0.071005 -0.139 0.16544 0.035122 0.17798 0.09052 -0.043936 -0.20866 -0.021574 -0.10559 -0.036052 -0.18868 -0.33734 0.19175 -0.086606 0.15773 -0.2267 0.30067 0.12991 -0.042329 0.21729 0.079759 0.078007 -0.14985 -0.15743 -0.1439 -0.15082 -0.036293 0.12223 0.025053 0.08046 -0.074382 0.24037 -0.015684 0.13132 -0.16342 0.12064 -0.078907 
overal -0.16301 -0.044033 0.023522 -0.28246 0.12456 0.10813 0.10124 0.087724 0.020911 0.21681 0.013335 0.34523 -0.045505 -0.10059 -0.36712 -0.14389 -0.20954 0.16094 -0.080661 -0.23694 -0.085513 0.083339 0.099237 -0.31681 0.16955 -0.1326 0.20647 0.089105 -0.050394 0.17324 0.0011647 -0.16295 -0.22025 0.040448 0.022616 0.10117 -0.19058 0.20928 0.016302 0.26644 -0.031587 0.15643 -0.12284 0.34383 0.23213 0.12645 0.32913 -0.046652 -0.10657 -0.098 -0.23638 -0.11947 -0.30182 0.14876 0.27972 -0.2219 0.20198 0.15459 -0.18943 0.25339 -0.078738 0.20549 -0.070327 -0.11041 0.14816 0.012721 0.16901 0.090615 -0.019319 -0.16093 -0.051872 -0.10169 -0.026808 -0.1706 -0.29348 0.18816 -0.051932 0.18895 -0.19543 0.26507 0.12073 -0.056515 0.22483 0.09109 0.11302 -0.18348 -0.10732 -0.12178 -0.13245 -0.04219 0.087776 0.011389 0.12569 -0.065447 0.22749 -0.048341 0.15937 -0.13125 0.06446 -0.078129 
mass -0.20589 -0.0070717 0.01983 -0.13845 0.12658 0.061232 0.090408 0.17704 0.017231 0.28328 0.011002 0.18363 -0.033807 -0.090771 -0.2654 -0.17026 -0.132 0.094907 -0.081961 -0.11578 -0.079129 0.19893 0.073143 -0.35222 0.057148 -0.085853 0.26269 0.0089108 -0.14739 0.18106 0.026319 -0.09987 -0.23158 0.0048434 -0.005707 0.062706 -0.19749 0.21348 0.049257 0.18187 -0.023829 -0.036083 -0.08404 0.38857 0.15793 0.1653 0.1808 -0.041738 -0.055969 -0.066706 -0.21914 -0.0036215 -0.20165 0.25017 0.24448 -0.15278 0.099073 0.10645 -0.20098 0.2209 -0.069506 0.090704 -0.07594 -0.05226 0.088281 -0.056161 0.16549 0.089453 0.022244 -0.063158 -0.10816 -0.080524 0.0026715 -0.11045 -0.18397 0.18816 0.051875 0.24941 -0.12511 0.2025 0.11576 -0.093733 0.2339 0.1253 0.22466 -0.25951 0.0040636 -0.078399 -0.10101 -0.0040387 -0.0054176 -0.036839 0.20859 -0.038539 0.17888 -0.1193 0.22861 -0.088427 -0.090505 -0.078932 
gold -0.12584 -0.073024 0.030006 -0.38855 0.11608 0.137 0.1132 0.025034 0.011124 0.16853 0.029026 0.42888 -0.08165 -0.11074 -0.42806 -0.12569 -0.24688 0.19438 -0.10007 -0.28962 -0.10813 0.036128 0.12997 -0.31173 0.21619 -0.16173 0.16537 0.15098 -0.018016 0.17668 -0.0064216 -0.18777 -0.23123 0.082072 0.038704 0.12282 -0.21132 0.23218 0.020108 0.33 -0.03592 0.26941 -0.15208 0.3406 0.29861 0.1167 0.44705 -0.024276 -0.13421 -0.094599 -0.24846 -0.17792 -0.36188 0.1052 0.31048 -0.24322 0.2642 0.21047 -0.22667 0.28032 -0.099678 0.27146 -0.071535 -0.17102 0.15909 0.04442 0.19269 0.084473 -0.05337 -0.22513 -0.021694 -0.11678 -0.044974 -0.19702 -0.35859 0.20257 -0.097788 0.14836 -0.24375 0.3192 0.13305 -0.044195 0.22124 0.089759 0.073395 -0.14785 -0.16896 -0.1659 -0.16542 -0.034261 0.12975 0.04816 0.083298 -0.089429 0.2458 -0.015591 0.13972 -0.18997 0.14005 -0.066726 
us -0.27825 0.047149 0.023276 0.0098254 0.13237 0.010602 0.066199 0.28875 0.010162 0.3935 0.0078781 0.028802 -0.015792 -0.085694 -0.17653 -0.22813 -0.065931 0.048733 -0.070861 -0.011576 -0.073987 0.33629 0.040316 -0.42035 -0.074611 -0.049248 0.36632 -0.090773 -0.26751 0.21876 0.06203 -0.034901 -0.24563 -0.011631 -0.036471 0.030724 -0.22033 0.22077 0.098184 0.10741 -0.027579 -0.23788 -0.041012 0.4502 0.093301 0.19901 0.019417 -0.043724 -0.020717 -0.051621 -0.21457 0.10518 -0.092777 0.37154 0.22336 -0.0947 0.0065969 0.059963 -0.2094 0.20705 -0.049879 -0.011644 -0.082965 0.013517 0.05289 -0.14852 0.16369 0.10669 0.079631 0.02591 -0.1782 -0.072836 0.039105 -0.074394 -0.081681 0.21255 0.15724 0.30157 -0.065354 0.16936 0.10172 -0.13627 0.27738 0.17597 0.35216 -0.37221 0.14597 -0.039506 -0.0864 0.020259 -0.1223 -0.1035 0.31988 -0.019818 0.14911 -0.21683 0.30564 -0.040165 -0.2725 -0.071224 
hoppi -0.14533 -0.056553 0.028261 -0.31106 0.12041 0.11095 0.10355 0.06849 0.01431 0.19436 0.015028 0.36554 -0.050731 -0.096622 -0.37898 -0.14054 -0.21899 0.16986 -0.08676 -0.24979 -0.091872 0.071167 0.11014 -0.31132 0.18736 -0.14492 0.18778 0.10687 -0.041327 0.17632 -0.00069874 -0.16624 -0.22219 0.054742 0.032061 0.10614 -0.19613 0.21589 0.011715 0.28962 -0.03135 0.19356 -0.12925 0.34123 0.2611 0.11746 0.36489 -0.039735 -0.11355 -0.10217 -0.24368 -0.13564 -0.32628 0.13059 0.28458 -0.22905 0.21355 0.16105 -0.19614 0.26013 -0.081458 0.22256 -0.071607 -0.12414 0.14882 0.026186 0.16887 0.093109 -0.035081 -0.18219 -0.041243 -0.10127 -0.027662 -0.1758 -0.30958 0.19336 -0.064881 0.17605 -0.21517 0.28232 0.12825 -0.046898 0.21658 0.092828 0.10144 -0.16859 -0.12638 -0.12519 -0.1407 -0.036337 0.10708 0.018758 0.10454 -0.073501 0.23365 -0.035021 0.14776 -0.15174 0.088635 -0.075788 
note -0.14357 -0.067517 0.029995 -0.35211 0.11919 0.12818 0.11069 0.038798 0.017302 0.18051 0.014262 0.4146 -0.056897 -0.10291 -0.40983 -0.1369 -0.24218 0.18892 -0.091582 -0.28023 -0.10313 0.032099 0.11675 -0.30526 0.21922 -0.15563 0.17454 0.12492 -0.015407 0.17647 -0.013203 -0.18617 -0.22511 0.060937 0.035647 0.11941 -0.19589 0.21952 0.0068464 0.31597 -0.034368 0.24595 -0.1459 0.33544 0.28221 0.1107 0.41146 -0.046405 -0.13294 -0.10987 -0.24959 -0.16387 -0.36107 0.11493 0.30075 -0.25201 0.24827 0.18423 -0.19959 0.27806 -0.089587 0.25288 -0.075192 -0.13376 0.17094 0.044826 0.18022 0.092015 -0.041426 -0.2093 -0.028722 -0.10581 -0.038884 -0.19316 -0.35084 0.1934 -0.085776 0.16577 -0.23161 0.30355 0.13039 -0.042822 0.22102 0.074836 0.074751 -0.15591 -0.15257 -0.14056 -0.15198 -0.047447 0.12434 0.033111 0.087517 -0.07625 0.25189 -0.021893 0.12923 -0.1654 0.12328 -0.082145 
straw -0.10444 -0.092306 0.030457 -0.44398 0.11812 0.15341 0.11563 -0.01092 0.0090547 0.13329 0.023612 0.48781 -0.075654 -0.11716 -0.46241 -0.10688 -0.27334 0.22092 -0.10085 -0.33289 -0.10494 -0.014908 0.13687 -0.29409 0.27308 -0.17879 0.13854 0.18554 0.025876 0.16747 -0.015201 -0.21257 -0.23106 0.085447 0.05141 0.13775 -0.20105 0.22898 -0.0044659 0.36269 -0.038644 0.34284 -0.16817 0.31904 0.3237 0.095557 0.50309 -0.026534 -0.1513 -0.1105 -0.25397 -0.21633 -0.40313 0.070749 0.32188 -0.27821 0.29891 0.22088 -0.21363 0.29203 -0.10911 0.32088 -0.070775 -0.18657 0.18278 0.070272 0.1872 0.08152 -0.077871 -0.25508 0.0040384 -0.11619 -0.052345 -0.21382 -0.39604 0.19945 -0.13417 0.12739 -0.26569 0.33602 0.13393 -0.02261 0.20884 0.069288 0.017317 -0.10804 -0.22267 -0.16975 -0.16498 -0.05178 0.17497 0.065291 0.031838 -0.093404 0.26986 0.028213 0.10621 -0.20276 0.20185 -0.069775 
lot -0.22528 0.012253 0.024443 -0.090803 0.12043 0.04015 0.077019 0.21213 0.013286 0.31383 0.0068994 0.11956 -0.028847 -0.085155 -0.2302 -0.1928 -0.10467 0.090221 -0.068898 -0.081746 -0.077113 0.24687 0.066045 -0.38081 0.0088605 -0.081586 0.29883 -0.023753 -0.18808 0.19258 0.042423 -0.069748 -0.23311 0.011073 -0.019768 0.050013 -0.20888 0.22021 0.069448 0.15014 -0.027173 -0.096669 -0.061416 0.40184 0.14136 0.16511 0.12551 -0.038189 -0.046372 -0.064008 -0.22059 0.034774 -0.15474 0.28916 0.2377 -0.12907 0.067849 0.092169 -0.20436 0.22099 -0.064616 0.054219 -0.075709 -0.032453 0.078023 -0.088591 0.16903 0.096364 0.04177 -0.038103 -0.13732 -0.081251 0.013859 -0.10423 -0.15494 0.20779 0.086347 0.25083 -0.10573 0.21005 0.09967 -0.10345 0.2508 0.14685 0.26365 -0.30854 0.058866 -0.07464 -0.098411 0.0099116 -0.055661 -0.059113 0.24595 -0.035954 0.1674 -0.15869 0.2548 -0.068063 -0.15749 -0.071419 
tap -0.19107 -0.013417 0.026388 -0.17696 0.11411 0.072765 0.083764 0.1481 0.0062316 0.25654 0.014022 0.21704 -0.045181 -0.093173 -0.28396 -0.17579 -0.14677 0.11692 -0.070713 -0.13952 -0.085461 0.17117 0.079228 -0.34314 0.073883 -0.099354 0.24642 0.032648 -0.13335 0.18019 0.024553 -0.10691 -0.22366 0.030892 0.0097505 0.074283 -0.19516 0.2117 0.052198 0.20372 -0.034594 0.023796 -0.091288 0.36798 0.18399 0.14738 0.219 -0.034867 -0.070991 -0.072233 -0.22285 -0.039474 -0.21084 0.21914 0.253 -0.15999 0.12583 0.12617 -0.19461 0.22953 -0.070681 0.12582 -0.068039 -0.066938 0.10082 -0.044361 0.17007 0.088217 0.0094139 -0.099973 -0.094514 -0.092989 0.00028181 -0.12451 -0.21216 0.19919 0.019162 0.20303 -0.14395 0.22681 0.10619 -0.086778 0.23372 0.12234 0.19355 -0.24785 -0.010455 -0.094768 -0.11642 -0.0081669 0.00094285 -0.027624 0.18418 -0.049797 0.19242 -0.10472 0.20507 -0.11014 -0.066393 -0.066157 
why -0.26931 0.035617 0.029478 -0.022902 0.12851 0.019902 0.077434 0.26832 0.001647 0.36555 0.0092559 0.051063 -0.019977 -0.085392 -0.19424 -0.22918 -0.079634 0.052788 -0.068796 -0.019657 -0.070188 0.31778 0.04904 -0.41294 -0.055488 -0.054057 0.34745 -0.06568 -0.24428 0.21725 0.056632 -0.033268 -0.2492 -0.0066805 -0.029111 0.032575 -0.22245 0.22172 0.10056 0.11755 -0.03128 -0.19376 -0.042389 0.44186 0.10991 0.18786 0.04622 -0.040272 -0.03548 -0.056643 -0.21591 0.084276 -0.10951 0.35232 0.21897 -0.098393 0.017829 0.067399 -0.20416 0.21288 -0.062413 0.0076542 -0.075217 -0.00064861 0.052966 -0.1328 0.16709 0.1038 0.06342 0.0049498 -0.16347 -0.07613 0.041146 -0.080155 -0.092845 0.21725 0.13422 0.27977 -0.068516 0.18546 0.10167 -0.12977 0.26399 0.16551 0.32177 -0.3614 0.11975 -0.048423 -0.087233 0.031638 -0.11369 -0.097648 0.29864 -0.021637 0.14969 -0.19638 0.2901 -0.052789 -0.24716 -0.077498 
nose -0.13525 -0.062966 0.023785 -0.33749 0.11506 0.12198 0.10373 0.048861 0.015362 0.18087 0.021416 0.3886 -0.053967 -0.10003 -0.38907 -0.13058 -0.23047 0.18044 -0.089766 -0.25944 -0.095242 0.050121 0.11075 -0.30157 0.20457 -0.14633 0.17305 0.12657 -0.028913 0.17357 -0.0011441 -0.1764 -0.22405 0.063543 0.037846 0.11353 -0.19486 0.21965 0.013829 0.30987 -0.033257 0.22705 -0.14264 0.33593 0.27375 0.11399 0.39082 -0.037825 -0.125 -0.10142 -0.24949 -0.15455 -0.33886 0.13007 0.29615 -0.2451 0.23405 0.18432 -0.19665 0.27462 -0.091485 0.24151 -0.069525 -0.13626 0.15955 0.032659 0.18133 0.090603 -0.039376 -0.20029 -0.033988 -0.10592 -0.039368 -0.18889 -0.33434 0.19697 -0.079559 0.16417 -0.22479 0.29681 0.13068 -0.046782 0.21771 0.08831 0.086084 -0.16417 -0.14694 -0.13803 -0.14379 -0.033484 0.11766 0.02457 0.085217 -0.077831 0.24773 -0.025918 0.13752 -0.16397 0.10259 -0.073871 
hint -0.12131 -0.088977 0.028847 -0.42507 0.1203 0.15788 0.1191 0.013654 0.016996 0.16275 0.021103 0.48923 -0.067732 -0.11136 -0.45994 -0.12858 -0.28167 0.21994 -0.10278 -0.3302 -0.10537 0.0032693 0.12657 -0.30626 0.2656 -0.1742 0.15432 0.16721 0.0013264 0.18376 -0.003616 -0.2109 -0.23334 0.079578 0.055828 0.14003 -0.20814 0.23259 -0.0056589 0.36269 -0.041176 0.31737 -0.16491 0.33537 0.32376 0.099195 0.4868 -0.034089 -0.1448 -0.11971 -0.26722 -0.21196 -0.39613 0.085189 0.33191 -0.28963 0.29365 0.21207 -0.21086 0.29395 -0.097444 0.30377 -0.068813 -0.16848 0.19155 0.066357 0.19832 0.092783 -0.062776 -0.25176 -0.0058435 -0.11747 -0.047404 -0.21537 -0.39688 0.20423 -0.12994 0.15412 -0.2631 0.33685 0.15154 -0.034746 0.22158 0.082101 0.056871 -0.13449 -0.21004 -0.16337 -0.1622 -0.055738 0.17374 0.045933 0.054309 -0.092303 0.27794 0.0081055 0.12438 -0.18991 0.1877 -0.085164 
drinkabl -0.22928 0.0047567 0.020997 -0.11607 0.12365 0.052728 0.082428 0.1999 0.019695 0.3111 0.0069372 0.16405 -0.033881 -0.083894 -0.25822 -0.19095 -0.12735 0.097703 -0.07099 -0.10481 -0.07698 0.22621 0.063643 -0.36787 0.030872 -0.085251 0.29681 -0.0114 -0.16634 0.19451 0.03141 -0.091116 -0.23226 0.0083387 -0.008668 0.060364 -0.20061 0.21497 0.065606 0.17144 -0.026991 -0.059893 -0.074876 0.39499 0.15312 0.16665 0.14846 -0.04447 -0.051316 -0.071095 -0.22067 0.0053225 -0.17803 0.27166 0.24755 -0.14714 0.089052 0.099193 -0.19499 0.22114 -0.06113 0.077735 -0.073242 -0.031816 0.094547 -0.073585 0.16296 0.10058 0.042005 -0.053171 -0.12047 -0.079544 0.011162 -0.11279 -0.17317 0.20326 0.065107 0.25482 -0.12068 0.20932 0.11464 -0.10107 0.24718 0.14115 0.25014 -0.28875 0.033593 -0.070664 -0.098451 -0.006055 -0.032431 -0.052772 0.2329 -0.041217 0.18209 -0.1448 0.24068 -0.078121 -0.12647 -0.073288 
know -0.28093 0.046729 0.030489 0.013614 0.13547 0.011021 0.066717 0.29315 0.0064522 0.39365 0.00084321 0.026053 -0.024387 -0.086348 -0.1832 -0.23308 -0.066444 0.049306 -0.06529 -0.0081291 -0.081804 0.33932 0.042396 -0.42528 -0.074384 -0.052595 0.37339 -0.084407 -0.26545 0.22146 0.062094 -0.033223 -0.24664 -0.014595 -0.035184 0.029832 -0.21704 0.21948 0.10595 0.10042 -0.029655 -0.23194 -0.03537 0.4464 0.093804 0.1984 0.014581 -0.046327 -0.017716 -0.058049 -0.21636 0.10767 -0.092319 0.3709 0.224 -0.082143 0.0033723 0.062059 -0.2103 0.20798 -0.060471 -0.012559 -0.073444 0.012828 0.04576 -0.14999 0.16569 0.11185 0.081887 0.026209 -0.17325 -0.066626 0.035426 -0.068853 -0.082288 0.21687 0.15668 0.29598 -0.066229 0.17493 0.09546 -0.13027 0.27555 0.17522 0.35034 -0.3804 0.14287 -0.043044 -0.083621 0.032159 -0.12828 -0.10279 0.32157 -0.01952 0.15065 -0.21952 0.31344 -0.043296 -0.27578 -0.075519 
quit -0.153 -0.058791 0.028194 -0.31205 0.11434 0.11799 0.10051 0.063634 0.014895 0.20091 0.023178 0.36285 -0.057802 -0.096945 -0.37942 -0.13726 -0.21757 0.16612 -0.091659 -0.24712 -0.090627 0.072912 0.10659 -0.30593 0.18327 -0.14261 0.1932 0.10445 -0.051226 0.17568 0.0065801 -0.16491 -0.222 0.057202 0.032557 0.10346 -0.19984 0.21807 0.016676 0.29266 -0.037451 0.1901 -0.12982 0.34465 0.26614 0.11304 0.35703 -0.039479 -0.1057 -0.096246 -0.23989 -0.13358 -0.31872 0.14074 0.28797 -0.23055 0.22128 0.16894 -0.2049 0.26358 -0.08557 0.22192 -0.065334 -0.12716 0.1486 0.016149 0.17816 0.089016 -0.034612 -0.18087 -0.040846 -0.1048 -0.031189 -0.17188 -0.3083 0.19301 -0.059342 0.17038 -0.20562 0.28411 0.13131 -0.04959 0.21429 0.098118 0.10472 -0.17483 -0.12863 -0.13018 -0.13958 -0.034389 0.099046 0.015378 0.11029 -0.0685 0.23815 -0.042785 0.15686 -0.15729 0.084887 -0.069983 
down -0.22663 0.0023494 0.022727 -0.099908 0.12528 0.04657 0.080096 0.20456 0.0059712 0.30696 0.011294 0.13499 -0.035367 -0.088816 -0.23154 -0.18553 -0.11595 0.084143 -0.069777 -0.087222 -0.077608 0.23454 0.065339 -0.36444 0.0096967 -0.078789 0.29419 -0.021049 -0.18094 0.18979 0.037423 -0.074682 -0.22866 0.011609 -0.0101 0.047003 -0.19944 0.20931 0.071847 0.16366 -0.025983 -0.083584 -0.062277 0.38523 0.14155 0.15692 0.13812 -0.040111 -0.043287 -0.062765 -0.21264 0.023018 -0.16039 0.27073 0.23656 -0.13245 0.077232 0.088926 -0.19342 0.21414 -0.063368 0.066038 -0.071513 -0.032058 0.080239 -0.07844 0.16438 0.095154 0.037782 -0.045568 -0.12233 -0.079146 0.011742 -0.10074 -0.15443 0.19308 0.074924 0.23943 -0.11233 0.19605 0.10499 -0.10623 0.23873 0.14454 0.25293 -0.28937 0.049111 -0.067776 -0.090986 0.0069078 -0.049112 -0.06303 0.22882 -0.033774 0.16968 -0.14832 0.23629 -0.079544 -0.14374 -0.072628 
dry -0.13869 -0.062401 0.022956 -0.33117 0.11977 0.12427 0.10756 0.055868 0.018134 0.18872 0.013218 0.38735 -0.055382 -0.10273 -0.39412 -0.13015 -0.2319 0.17659 -0.085832 -0.26234 -0.093874 0.0607 0.10897 -0.30944 0.20101 -0.15279 0.18426 0.11067 -0.027005 0.17938 -0.0046165 -0.17698 -0.22421 0.059014 0.039995 0.11505 -0.19552 0.21724 0.013946 0.30203 -0.036618 0.2126 -0.13585 0.33592 0.27383 0.11941 0.38756 -0.042345 -0.12268 -0.10925 -0.24088 -0.14832 -0.33604 0.12473 0.28911 -0.23995 0.23386 0.17709 -0.19703 0.26714 -0.082063 0.23807 -0.072667 -0.12748 0.16002 0.030874 0.18085 0.091787 -0.030404 -0.19515 -0.032757 -0.0981 -0.032915 -0.18912 -0.32998 0.19921 -0.077709 0.17189 -0.2243 0.29695 0.13709 -0.047536 0.21989 0.091401 0.094897 -0.16345 -0.13652 -0.13746 -0.14238 -0.043617 0.11314 0.025187 0.093687 -0.0771 0.24871 -0.031542 0.14076 -0.15754 0.10805 -0.077144 
lace -0.12067 -0.08503 0.027105 -0.42246 0.12255 0.15837 0.12149 0.0066023 0.010966 0.15644 0.029253 0.47651 -0.075826 -0.11137 -0.45207 -0.11126 -0.27137 0.215 -0.10629 -0.31768 -0.10251 0.0079771 0.13498 -0.3069 0.26228 -0.17791 0.14456 0.17303 -3.3754e-05 0.1751 -0.0092942 -0.20303 -0.24042 0.082243 0.049647 0.13561 -0.21398 0.23675 -0.0010572 0.36061 -0.039857 0.31447 -0.16557 0.34456 0.31836 0.10262 0.48728 -0.025589 -0.14654 -0.10951 -0.25953 -0.20641 -0.39901 0.089357 0.32958 -0.27653 0.29829 0.2267 -0.2267 0.29397 -0.10064 0.309 -0.072253 -0.18639 0.17985 0.056521 0.1901 0.082992 -0.069128 -0.24939 -0.003328 -0.11997 -0.048332 -0.21337 -0.38739 0.20473 -0.1267 0.14479 -0.26052 0.34171 0.14262 -0.032498 0.21076 0.081591 0.045157 -0.12385 -0.21415 -0.16176 -0.16675 -0.042695 0.16801 0.059375 0.054405 -0.087026 0.26456 0.0052557 0.12729 -0.2022 0.18031 -0.076056 
look -0.20589 -0.0087742 0.028313 -0.15606 0.12147 0.062159 0.082671 0.17174 0.0024793 0.28485 0.0089028 0.18677 -0.038554 -0.093071 -0.2708 -0.17318 -0.13497 0.11238 -0.078323 -0.12377 -0.083446 0.20343 0.074174 -0.35679 0.054132 -0.091831 0.26432 0.014593 -0.15271 0.19434 0.034466 -0.098283 -0.22845 0.023127 -0.0046288 0.066052 -0.20313 0.21491 0.062127 0.19549 -0.032567 -0.015224 -0.080881 0.38291 0.17413 0.15653 0.19298 -0.037091 -0.067558 -0.071217 -0.22052 -0.015351 -0.19862 0.2457 0.25247 -0.15352 0.11443 0.12264 -0.20825 0.2373 -0.069697 0.11179 -0.071591 -0.057729 0.093064 -0.063231 0.1732 0.097803 0.026335 -0.079576 -0.10309 -0.086663 0.0035021 -0.12288 -0.19432 0.19895 0.040319 0.22769 -0.12695 0.22624 0.10796 -0.089511 0.24249 0.13667 0.22004 -0.26456 0.0062352 -0.085049 -0.1083 0.0079528 -0.013406 -0.041367 0.20333 -0.048865 0.1851 -0.12625 0.21975 -0.097547 -0.092832 -0.069893 
fizzi -0.13514 -0.058236 0.026476 -0.34015 0.12217 0.12564 0.11005 0.044774 0.018992 0.17661 0.022799 0.38669 -0.061212 -0.10518 -0.39643 -0.12665 -0.22877 0.17966 -0.093713 -0.26516 -0.094834 0.054064 0.11865 -0.30589 0.2082 -0.15102 0.1675 0.1252 -0.029914 0.1699 -0.0043433 -0.17736 -0.22606 0.064372 0.033356 0.1128 -0.19705 0.21742 0.011398 0.30089 -0.036082 0.22483 -0.14179 0.33118 0.27109 0.11014 0.39332 -0.034282 -0.12635 -0.098748 -0.23881 -0.15029 -0.33543 0.12211 0.29349 -0.23414 0.23464 0.18253 -0.20151 0.2685 -0.090637 0.24556 -0.069982 -0.14527 0.15253 0.032461 0.18089 0.081816 -0.045561 -0.19916 -0.030475 -0.10714 -0.034351 -0.17908 -0.32517 0.19351 -0.080592 0.15896 -0.21565 0.29751 0.12735 -0.046946 0.21305 0.087066 0.080718 -0.15425 -0.14813 -0.13924 -0.1479 -0.035665 0.11468 0.032462 0.090788 -0.074554 0.2334 -0.017805 0.13683 -0.16076 0.11195 -0.072509 
ve -0.24888 0.028367 0.026009 -0.047458 0.12835 0.031539 0.072557 0.24616 -0.00089196 0.34998 0.010419 0.072489 -0.024841 -0.09168 -0.20339 -0.21227 -0.094439 0.063951 -0.069173 -0.038341 -0.072686 0.29366 0.043762 -0.38892 -0.042542 -0.058467 0.33565 -0.056719 -0.22667 0.20491 0.060993 -0.0473 -0.2353 -0.0020509 -0.025908 0.042402 -0.21878 0.22011 0.087511 0.13129 -0.034267 -0.16555 -0.05532 0.41921 0.12471 0.18158 0.068967 -0.046675 -0.032381 -0.058739 -0.21083 0.062654 -0.12372 0.3177 0.24166 -0.10759 0.041883 0.081818 -0.20971 0.21421 -0.060252 0.032114 -0.070701 -0.0072734 0.056893 -0.11026 0.17029 0.099074 0.057484 -0.010262 -0.15101 -0.072317 0.032192 -0.089502 -0.11783 0.21058 0.11687 0.25996 -0.078432 0.1814 0.09587 -0.12406 0.26094 0.16351 0.30596 -0.34144 0.091027 -0.054969 -0.088949 0.02976 -0.099472 -0.086863 0.27004 -0.022547 0.15522 -0.18618 0.27529 -0.061413 -0.21429 -0.061363 
clean -0.16286 -0.048683 0.024784 -0.29795 0.12066 0.11122 0.10318 0.083305 0.019957 0.21543 0.015471 0.34509 -0.058379 -0.10136 -0.36689 -0.14687 -0.21148 0.16205 -0.089371 -0.22649 -0.095218 0.095541 0.108 -0.33194 0.16466 -0.14088 0.19952 0.093351 -0.05903 0.17854 0.0062374 -0.16054 -0.23541 0.051357 0.025479 0.099444 -0.20649 0.22353 0.023816 0.27323 -0.032486 0.16365 -0.12047 0.35915 0.24914 0.13071 0.34837 -0.036559 -0.10589 -0.095331 -0.24878 -0.11331 -0.3067 0.15808 0.28618 -0.22722 0.20492 0.17065 -0.21208 0.26203 -0.087802 0.21189 -0.070738 -0.12068 0.14416 0.0016607 0.18455 0.097049 -0.023309 -0.16749 -0.050334 -0.099227 -0.025211 -0.1728 -0.30128 0.20044 -0.048206 0.18614 -0.20191 0.28235 0.12838 -0.059687 0.22826 0.099458 0.12909 -0.19027 -0.11123 -0.12693 -0.14082 -0.029019 0.083416 0.010135 0.12457 -0.072681 0.22942 -0.049215 0.16547 -0.14979 0.049725 -0.073482 
bud -0.29414 0.066867 0.032859 0.038579 0.14869 -0.017777 0.07383 0.30896 0.033274 0.40491 -0.0025778 -0.0070561 -0.011247 -0.088064 -0.16529 -0.26043 -0.070492 0.034693 -0.059714 0.0010932 -0.088225 0.35038 0.036426 -0.42333 -0.11034 -0.046263 0.38588 -0.12329 -0.27331 0.24528 0.041267 -0.032379 -0.24494 -0.025966 -0.055176 0.030663 -0.20926 0.21477 0.10514 0.082772 -0.021761 -0.26759 -0.011477 0.45283 0.075967 0.23479 -0.010381 -0.070701 -0.022822 -0.057473 -0.21615 0.11881 -0.092373 0.38064 0.21233 -0.07271 -0.018395 0.031759 -0.21111 0.2102 -0.042581 -0.02971 -0.094402 0.055098 0.061598 -0.143 0.15657 0.096073 0.09891 0.04403 -0.18002 -0.07164 0.037726 -0.056529 -0.078241 0.19012 0.16025 0.3233 -0.055848 0.16177 0.091719 -0.14459 0.28637 0.17038 0.36965 -0.38753 0.19087 -0.038845 -0.079136 0.027909 -0.16711 -0.099396 0.36911 -0.010626 0.1264 -0.25269 0.31041 -0.023749 -0.29174 -0.081715 
cold -0.21643 0.0081237 0.024584 -0.11678 0.12132 0.054146 0.08159 0.19661 0.010842 0.29946 0.0069335 0.1534 -0.043975 -0.087024 -0.25052 -0.1839 -0.11768 0.091704 -0.07403 -0.09587 -0.086955 0.23105 0.066281 -0.37277 0.016684 -0.081532 0.30085 -0.0043205 -0.17102 0.18618 0.037572 -0.08659 -0.22915 0.023754 -0.0083445 0.056523 -0.20568 0.21403 0.074468 0.16875 -0.021961 -0.065801 -0.079333 0.39664 0.15094 0.17159 0.15131 -0.03973 -0.048938 -0.07007 -0.21604 0.0093107 -0.16354 0.26842 0.24667 -0.12697 0.089027 0.10109 -0.20022 0.21669 -0.064938 0.070103 -0.070249 -0.040154 0.07886 -0.076476 0.1618 0.10232 0.043703 -0.055788 -0.11922 -0.091886 0.0060886 -0.10664 -0.16745 0.20299 0.074608 0.24112 -0.1144 0.20091 0.11062 -0.097014 0.24408 0.15155 0.24595 -0.28718 0.045545 -0.079172 -0.098468 0.0048814 -0.040125 -0.043767 0.23656 -0.042261 0.16414 -0.14823 0.25104 -0.079574 -0.12802 -0.070254 
almost -0.17197 -0.0331 0.027062 -0.23465 0.11425 0.088245 0.092074 0.11129 0.011547 0.23476 0.016332 0.28117 -0.05037 -0.098059 -0.32478 -0.15332 -0.179 0.1389 -0.084753 -0.18723 -0.087971 0.12749 0.090489 -0.32562 0.11943 -0.1187 0.21976 0.063915 -0.095559 0.17905 0.022608 -0.13434 -0.22466 0.046778 0.016818 0.084762 -0.20102 0.21171 0.036416 0.23884 -0.037446 0.096089 -0.10864 0.35333 0.22012 0.12828 0.27712 -0.030277 -0.08815 -0.080654 -0.22526 -0.081687 -0.26067 0.18586 0.26665 -0.1911 0.17106 0.15222 -0.19652 0.24168 -0.075057 0.16656 -0.066511 -0.096492 0.12332 -0.019944 0.17188 0.08812 -0.0022367 -0.13218 -0.068573 -0.09194 -0.014687 -0.14397 -0.25402 0.19664 -0.013832 0.19196 -0.17503 0.25246 0.11557 -0.068647 0.223 0.11302 0.15555 -0.20756 -0.060511 -0.10838 -0.12496 -0.015079 0.045581 -0.0083326 0.14766 -0.061737 0.21207 -0.074304 0.1837 -0.1302 0.0029514 -0.069211 
graini -0.10461 -0.10878 0.029569 -0.49211 0.12134 0.16614 0.13143 -0.023665 0.016981 0.13065 0.028159 0.54929 -0.071869 -0.12157 -0.50463 -0.11848 -0.31046 0.24311 -0.10886 -0.37811 -0.1139 -0.033509 0.14672 -0.3057 0.31895 -0.20318 0.14273 0.1984 0.045222 0.17902 -0.024161 -0.24779 -0.25008 0.089779 0.058865 0.15253 -0.20818 0.24674 -0.0090154 0.40331 -0.041405 0.39201 -0.1891 0.32655 0.36469 0.098634 0.55978 -0.03427 -0.17855 -0.13085 -0.27624 -0.25409 -0.44886 0.051773 0.35327 -0.31813 0.3412 0.23877 -0.22679 0.3158 -0.11274 0.35841 -0.08338 -0.20289 0.20621 0.093201 0.20834 0.091108 -0.090381 -0.29597 0.017796 -0.12249 -0.061589 -0.23975 -0.44898 0.20932 -0.17098 0.13818 -0.29568 0.36985 0.15758 -0.027348 0.22595 0.068013 0.0078758 -0.11509 -0.25864 -0.19148 -0.18963 -0.061054 0.20541 0.07127 0.026438 -0.10152 0.2968 0.03939 0.097019 -0.21838 0.24423 -0.080411 
special -0.21547 -0.012242 0.025315 -0.15162 0.12178 0.05775 0.082189 0.17125 0.012996 0.27955 0.0063587 0.19626 -0.037545 -0.090993 -0.28032 -0.17418 -0.14204 0.10746 -0.073925 -0.13452 -0.082644 0.18489 0.067185 -0.35201 0.055248 -0.091395 0.27029 0.0098967 -0.14009 0.18318 0.02566 -0.10086 -0.22735 0.015463 -0.0017797 0.06448 -0.1958 0.20515 0.052289 0.18802 -0.030099 -0.0070216 -0.080323 0.37578 0.16475 0.15309 0.18983 -0.046048 -0.062552 -0.078282 -0.22297 -0.021093 -0.21645 0.23529 0.24456 -0.16008 0.11169 0.10747 -0.19147 0.22945 -0.064477 0.10467 -0.070542 -0.051688 0.10475 -0.054189 0.16087 0.0958 0.024663 -0.07881 -0.098321 -0.085205 0.0031526 -0.12217 -0.19913 0.19164 0.042129 0.22854 -0.13568 0.21989 0.10804 -0.087691 0.23368 0.12124 0.20514 -0.25145 0.0068837 -0.083999 -0.10577 -0.0074849 -0.0040566 -0.032006 0.20056 -0.039121 0.18877 -0.11776 0.21691 -0.09308 -0.078037 -0.073693 
bland -0.20735 -0.0069724 0.024438 -0.14315 0.11968 0.059268 0.080706 0.18074 0.015981 0.28978 0.0094118 0.19206 -0.037802 -0.08815 -0.27543 -0.18326 -0.13994 0.10222 -0.077734 -0.12624 -0.086024 0.20027 0.070132 -0.35879 0.050109 -0.093559 0.26935 0.0034526 -0.15271 0.19381 0.034259 -0.097108 -0.22841 0.015799 -0.0047703 0.059593 -0.21039 0.20759 0.058745 0.18117 -0.031481 -0.026911 -0.083495 0.38286 0.16598 0.15996 0.18503 -0.046251 -0.066374 -0.080012 -0.22192 -0.014656 -0.20404 0.24484 0.24443 -0.15412 0.10373 0.10829 -0.19612 0.23365 -0.067296 0.097462 -0.070349 -0.056884 0.097358 -0.05808 0.16424 0.094415 0.022142 -0.075087 -0.1008 -0.086265 0.0073013 -0.12085 -0.18666 0.1946 0.047357 0.22758 -0.13429 0.21918 0.1073 -0.099995 0.23257 0.12842 0.21889 -0.27289 0.011924 -0.086466 -0.10423 -0.0089887 -0.018797 -0.043293 0.20506 -0.039541 0.18115 -0.1277 0.21817 -0.092093 -0.094789 -0.073922 
mild -0.128 -0.079576 0.027602 -0.39386 0.12213 0.14034 0.11681 0.032876 0.021045 0.17216 0.018731 0.44607 -0.065832 -0.11181 -0.44204 -0.12701 -0.26068 0.1995 -0.10019 -0.30659 -0.11 0.033385 0.12731 -0.31 0.23861 -0.17239 0.16478 0.14612 -0.0051869 0.17497 -0.012729 -0.20376 -0.2346 0.073681 0.043946 0.12685 -0.20622 0.234 0.002464 0.3383 -0.037149 0.27887 -0.15382 0.33614 0.3084 0.1138 0.45187 -0.039405 -0.13823 -0.11804 -0.26057 -0.18838 -0.37204 0.10245 0.31816 -0.27039 0.27124 0.19943 -0.21955 0.28438 -0.097122 0.28456 -0.072867 -0.15742 0.18028 0.049161 0.19269 0.089849 -0.054379 -0.2327 -0.016089 -0.11288 -0.040826 -0.2081 -0.37271 0.20222 -0.10902 0.15694 -0.25092 0.32472 0.14694 -0.039819 0.22076 0.078066 0.068082 -0.14511 -0.18095 -0.15513 -0.15827 -0.04644 0.14866 0.049424 0.075681 -0.091512 0.26648 -0.011535 0.13 -0.18439 0.15264 -0.077837 
oz -0.18483 -0.017719 0.030251 -0.21077 0.11904 0.084655 0.092033 0.12356 0.010187 0.24662 0.019443 0.24175 -0.052695 -0.097972 -0.30245 -0.14992 -0.16368 0.12034 -0.084327 -0.15922 -0.089506 0.15599 0.092334 -0.33416 0.090203 -0.11296 0.23106 0.044982 -0.12079 0.17992 0.02454 -0.11296 -0.2301 0.045156 0.01181 0.079696 -0.19955 0.2185 0.047346 0.22034 -0.023735 0.057507 -0.099226 0.36399 0.19799 0.13731 0.24834 -0.027988 -0.074933 -0.069368 -0.22697 -0.056194 -0.22971 0.21269 0.24978 -0.168 0.15287 0.14225 -0.20248 0.23265 -0.078159 0.14256 -0.071612 -0.089408 0.10556 -0.034103 0.17973 0.09566 0.0018075 -0.11403 -0.083448 -0.088643 -0.015586 -0.13392 -0.22478 0.20049 0.0097366 0.19917 -0.15486 0.25322 0.11584 -0.081496 0.22327 0.12152 0.18821 -0.22734 -0.038016 -0.10381 -0.11808 -0.0070245 0.022449 -0.020366 0.17035 -0.060543 0.19496 -0.093949 0.19921 -0.12013 -0.039279 -0.06546 
dai -0.27777 0.044874 0.024666 0.011848 0.13488 0.008022 0.068019 0.28961 0.0056283 0.38518 0.0045667 0.027566 -0.025562 -0.086506 -0.17283 -0.22845 -0.072007 0.049416 -0.074595 -0.010498 -0.079387 0.34649 0.037156 -0.41818 -0.079233 -0.047757 0.36961 -0.086812 -0.26874 0.20813 0.065599 -0.028874 -0.23851 -0.014738 -0.030653 0.040401 -0.22321 0.2159 0.10712 0.11482 -0.028003 -0.23287 -0.040246 0.45093 0.092172 0.19995 0.020948 -0.052566 -0.010995 -0.054977 -0.20886 0.096545 -0.085983 0.3735 0.24285 -0.089345 0.010013 0.06362 -0.21177 0.20854 -0.053362 -0.0054385 -0.072338 0.012295 0.054191 -0.14866 0.16566 0.10654 0.081688 0.03305 -0.18204 -0.078057 0.043329 -0.074112 -0.081737 0.2208 0.16236 0.30311 -0.063641 0.17669 0.10341 -0.13135 0.27421 0.18158 0.34923 -0.38355 0.14684 -0.040017 -0.072947 0.038498 -0.13261 -0.10043 0.32789 -0.016735 0.14923 -0.23292 0.31524 -0.039586 -0.2777 -0.083295 
american -0.24315 0.023714 0.024125 -0.057663 0.12478 0.035853 0.073303 0.2387 0.013768 0.34402 0.0063027 0.098158 -0.022747 -0.083572 -0.21419 -0.20806 -0.094837 0.068163 -0.068817 -0.056688 -0.07186 0.27225 0.053925 -0.39005 -0.017048 -0.066217 0.32212 -0.044314 -0.20908 0.1968 0.045248 -0.065966 -0.23451 -0.00023522 -0.019371 0.039027 -0.20658 0.21572 0.077175 0.13478 -0.024034 -0.13921 -0.055927 0.41194 0.11818 0.18213 0.089921 -0.046642 -0.030928 -0.059525 -0.21662 0.057558 -0.13677 0.30895 0.22667 -0.12109 0.043138 0.074566 -0.19768 0.20781 -0.05304 0.030208 -0.073005 -0.011207 0.071879 -0.10203 0.15884 0.10295 0.058099 -0.013823 -0.14344 -0.07356 0.027719 -0.092048 -0.12487 0.20346 0.10709 0.27062 -0.086754 0.18307 0.10061 -0.1146 0.25208 0.15082 0.2907 -0.31915 0.081846 -0.058575 -0.085738 0.0097903 -0.073314 -0.072508 0.2638 -0.028701 0.15753 -0.17309 0.26451 -0.059096 -0.19345 -0.072386 
ok -0.19175 -0.028111 0.023064 -0.20133 0.12334 0.076272 0.090432 0.14217 0.010207 0.25302 0.016038 0.23431 -0.046723 -0.099289 -0.29851 -0.16421 -0.15594 0.12636 -0.075317 -0.15714 -0.087302 0.16059 0.078128 -0.33222 0.090901 -0.097627 0.2438 0.041274 -0.11598 0.18585 0.026271 -0.11807 -0.22139 0.029623 -0.0068572 0.084088 -0.19382 0.21405 0.04414 0.22443 -0.032579 0.041479 -0.095578 0.36568 0.20043 0.1388 0.23002 -0.034392 -0.082478 -0.087375 -0.22319 -0.054522 -0.23481 0.20539 0.26238 -0.17823 0.14011 0.12773 -0.19757 0.23874 -0.07239 0.14711 -0.066469 -0.074295 0.10833 -0.038026 0.1632 0.09218 0.011762 -0.10489 -0.079982 -0.098188 -0.00091229 -0.13397 -0.22619 0.1904 0.010969 0.21589 -0.15347 0.23509 0.11829 -0.080746 0.22975 0.12346 0.17869 -0.23421 -0.033653 -0.095386 -0.11256 -0.0016249 0.016885 -0.024119 0.18139 -0.046033 0.20169 -0.091534 0.19936 -0.11078 -0.036755 -0.064148 
peopl -0.27273 0.038741 0.024129 -0.0079268 0.12857 0.016424 0.070612 0.28492 0.0034622 0.38519 -0.001447 0.040821 -0.024253 -0.083944 -0.18342 -0.2251 -0.07392 0.052061 -0.065708 -0.022476 -0.076083 0.32211 0.042627 -0.41681 -0.071322 -0.051193 0.35084 -0.078325 -0.25166 0.20965 0.064391 -0.037161 -0.24161 -0.012069 -0.03261 0.031917 -0.21572 0.21611 0.1003 0.10258 -0.026786 -0.21027 -0.036687 0.43674 0.098513 0.19012 0.029324 -0.046056 -0.021967 -0.057077 -0.2125 0.094322 -0.10406 0.36061 0.22156 -0.098257 0.010138 0.060375 -0.19967 0.20611 -0.054459 -0.0056535 -0.071908 0.010061 0.053033 -0.14025 0.16288 0.10823 0.075059 0.020841 -0.17049 -0.069628 0.031625 -0.079213 -0.088396 0.21561 0.14718 0.28948 -0.064324 0.17643 0.09693 -0.1315 0.26001 0.17004 0.33681 -0.36526 0.13582 -0.043818 -0.079755 0.024639 -0.11895 -0.10507 0.30463 -0.021058 0.15879 -0.2077 0.29637 -0.038195 -0.25986 -0.077194 
will -0.26314 0.029981 0.021426 -0.031021 0.12318 0.01749 0.075633 0.25942 0.0098377 0.36133 0.0069203 0.06141 -0.024683 -0.085436 -0.18541 -0.21013 -0.079019 0.050965 -0.0717 -0.032851 -0.074018 0.3044 0.047478 -0.39048 -0.050932 -0.055922 0.34194 -0.0618 -0.22896 0.19993 0.046485 -0.049588 -0.2384 0.00031957 -0.033654 0.035519 -0.21423 0.21841 0.091347 0.12127 -0.018022 -0.18532 -0.051222 0.42485 0.10433 0.18471 0.050501 -0.046538 -0.022888 -0.054945 -0.21236 0.071634 -0.10731 0.34249 0.22792 -0.099959 0.026183 0.066762 -0.19788 0.20522 -0.057396 0.016624 -0.071918 0.0068274 0.06407 -0.12466 0.15984 0.10223 0.072532 -0.00096274 -0.1591 -0.07385 0.034012 -0.077395 -0.099287 0.20581 0.13012 0.28847 -0.07121 0.17766 0.099919 -0.11906 0.25987 0.16854 0.31567 -0.34561 0.11704 -0.0475 -0.080123 0.027213 -0.10087 -0.093743 0.29295 -0.028902 0.15346 -0.19925 0.28969 -0.05058 -0.23662 -0.070059 
quickli -0.10605 -0.09955 0.032715 -0.47478 0.1212 0.16771 0.12947 -0.020376 0.021526 0.13482 0.032757 0.52392 -0.08437 -0.11861 -0.48707 -0.10917 -0.29316 0.23375 -0.11345 -0.36029 -0.11545 -0.020505 0.14889 -0.29877 0.2961 -0.19799 0.13834 0.19695 0.02809 0.17956 -0.014987 -0.22751 -0.24079 0.097718 0.056619 0.14628 -0.21436 0.23736 -0.0065887 0.39141 -0.039235 0.37856 -0.18086 0.3317 0.35198 0.097861 0.53987 -0.024012 -0.16212 -0.11525 -0.26538 -0.23797 -0.43416 0.059673 0.33972 -0.29182 0.32795 0.23919 -0.23063 0.31237 -0.11252 0.33907 -0.073616 -0.21053 0.19262 0.079696 0.19947 0.078698 -0.087828 -0.27706 0.0079111 -0.12465 -0.063845 -0.22629 -0.42622 0.20844 -0.15034 0.1295 -0.27833 0.36117 0.14852 -0.02034 0.21364 0.077634 0.012844 -0.10513 -0.24629 -0.18558 -0.18263 -0.05391 0.19535 0.072137 0.031938 -0.099796 0.28169 0.02865 0.11228 -0.22036 0.22953 -0.073758 
