dummy -0.900958 -0.166295 0.507665 0.194685 -0.246701 1.182912 1.033806 0.329006 -0.130285 -0.250716 1.059386 -0.278551 -0.269460 -0.230333 0.458817 -0.844925 -0.221092 0.067971 -0.017005 1.172723 -0.241757 -0.803890 0.694677 -0.502406 -0.560984 0.465386 0.532170 0.025104 0.587902 -0.004001 0.398533 1.292469 -0.526540 -0.551514 -0.024169 -0.129942 -0.782626 0.751871 0.448007 -0.117744 -0.192396 -0.373501 0.582800 0.095518 -0.287689 -1.031914 0.135022 0.160173 1.331974 0.741769 -0.207703 -0.653048 0.175732 -0.071274 0.570972 -1.114908 -0.097943 0.649328 0.407569 -0.209373 0.604174 0.799388 -0.028850 -0.039392 -0.116305 -0.092003 -0.494700 0.062000 -0.248150 0.267264 0.024181 -0.099879 -0.750443 -0.887334 -0.026876 -0.289519 -0.157131 0.934914 -0.881046 0.244019 -0.054088 0.588475 0.207356 0.401455 0.418535 0.082805 0.585742 -0.139714 -0.644434 0.465837 0.245711 0.657193 -0.004486 0.607044 0.444178 0.211469 0.210968 0.601054 -0.177159 0.018604
beer -0.415465 -0.044669 0.389249 -0.131025 -0.370743 0.969188 0.155105 0.045284 0.249288 -0.944397 0.158571 -0.127247 -0.014117 -0.015345 -0.207996 -0.172339 0.099049 -0.048319 0.164997 0.849522 0.296125 -1.180165 0.185164 -0.428573 -0.021461 0.376086 -0.098488 -0.155950 0.298002 -0.177391 0.072376 0.534385 -0.003812 -0.255367 0.007272 -0.110592 -0.336594 0.201883 -0.218544 -0.195593 -0.501756 0.043440 0.713718 0.197435 -0.519053 -0.866280 0.335327 0.169380 0.790446 0.240885 0.237807 0.109274 -0.267896 0.103402 0.366954 -0.435565 -0.347248 0.205249 -0.168998 -0.233515 0.035848 0.573473 0.132547 -0.104110 0.035462 -0.005042 -0.187987 0.143349 -0.172091 0.378193 0.444667 0.099669 -0.249524 -0.247859 -0.300804 0.022530 0.475880 0.207332 -0.238789 0.146476 0.254741 0.235737 -0.570908 -0.309384 -0.064988 0.274634 0.479311 -0.015566 -0.758275 0.377192 0.240193 0.171436 0.012171 0.177541 0.430654 -0.111726 -0.024087 0.415438 0.322314 0.204464
tast -0.069702 -0.536924 0.368889 0.338623 -0.234209 0.246269 0.019517 -0.492357 -0.308323 -0.523639 0.015663 -0.044738 -0.234022 -0.101483 -0.192406 -0.143756 0.156286 -0.436873 0.151642 0.340947 -0.074476 -0.505427 -0.277512 -0.327245 -0.058982 0.381953 0.191268 0.011766 -0.078537 0.139324 0.172639 0.627984 -0.394859 0.100560 0.271928 -0.226169 -0.045881 0.249444 0.002444 -0.434335 0.010898 0.019566 0.627600 0.041170 -0.221590 -0.406954 0.386740 0.031458 1.022913 0.638868 0.154349 -0.083970 0.388413 0.244201 0.525106 -0.527556 0.125474 0.381339 -0.441886 -0.472352 0.118425 0.059072 -0.056601 0.087245 -0.114066 -0.034599 -0.229651 0.061014 0.056760 0.519615 -0.109138 -0.028151 -0.634257 -0.067033 -0.244763 0.300748 0.101893 -0.046197 -0.567482 0.031721 0.281402 0.274610 -0.452011 -0.387035 -0.128383 0.094279 0.717448 0.540368 0.122308 0.122451 0.031657 -0.269074 0.433679 0.307198 0.165477 -0.247541 -0.270796 0.041336 0.637495 0.190845
not -0.331583 -0.315600 0.392031 0.048132 -0.300192 0.611396 -0.151693 -0.368503 0.253827 -0.971921 0.025839 -0.246893 -0.044938 -0.267027 -0.272139 0.043482 0.212636 -0.044514 0.202591 0.706305 0.159477 -0.987137 -0.256406 -0.686998 0.206792 0.697828 -0.011972 -0.006607 0.580296 0.028197 0.253134 0.858408 -0.204804 -0.108555 0.133765 0.042458 -0.328860 0.311199 0.218429 -0.338281 -0.245730 0.235353 0.848686 0.070866 -0.303232 -0.640994 0.233382 0.089755 0.854515 0.432276 0.484282 -0.117620 -0.084701 0.267206 0.392320 -0.598666 -0.384665 0.210595 -0.523004 -0.351631 -0.131335 0.259139 -0.169375 -0.131332 -0.098116 -0.212733 -0.237033 0.088309 0.025354 0.078819 -0.012320 -0.139827 -0.199888 -0.110570 0.330355 0.151665 0.527830 -0.101045 -0.529181 0.081010 0.322101 0.285129 -0.661003 -0.479189 -0.396754 0.118871 0.434286 0.120878 -0.261450 0.270007 -0.146932 0.088878 0.292428 0.229534 0.254568 -0.723933 -0.068537 0.287780 0.526002 0.106039
aroma 0.194066 -0.350071 0.370683 0.602875 -0.341697 -0.561166 -0.145463 -0.587707 -0.373482 0.121018 0.220047 0.323832 -0.113570 -0.160820 0.063676 0.067577 -0.002930 -0.770881 0.137121 0.228560 -0.571813 -0.048964 -0.297737 0.073980 0.192500 -0.029303 0.141180 0.276745 -0.430446 0.224002 0.242204 0.661791 -0.269932 0.274557 0.235923 -0.136300 -0.049172 0.319103 -0.307552 -0.304176 0.095957 -0.075628 0.304345 0.122187 -0.290685 -0.394212 0.507695 0.155104 0.877301 0.565934 -0.106993 0.004607 0.770149 0.037891 0.363160 -0.622499 0.384974 0.626963 -0.798285 -0.557472 0.352083 -0.130399 -0.021559 0.401280 -0.129625 -0.221549 -0.253383 -0.121521 -0.103230 0.837343 -0.401924 -0.172686 -0.629173 0.087359 -0.255123 0.658621 0.281776 0.183861 -0.533842 -0.198289 0.041857 0.413670 -0.239460 -0.196501 0.043629 0.083064 0.896339 0.419993 0.332109 0.049374 -0.026188 -0.539136 0.638315 0.128643 0.015139 -0.170586 -0.326687 -0.162200 0.684451 0.250632
head 0.134401 0.194990 0.377820 0.586229 -0.398619 -0.922672 -0.027017 -0.492882 0.057955 0.751069 0.547771 0.563456 0.166767 -0.362245 0.456525 0.574729 -0.232176 -0.461804 0.161922 0.505514 -0.868638 -0.078461 0.071668 0.631832 0.390828 -0.533829 0.110774 0.420830 -0.268780 -0.133619 0.526524 0.558039 0.079854 0.098379 0.030637 0.068570 -0.320171 0.325419 -0.397959 0.097534 -0.046910 0.022620 0.084237 0.318885 -0.624280 -0.600669 0.334579 0.377392 0.316321 0.361153 -0.053815 0.307187 0.615467 -0.490888 0.244529 -0.483162 0.366863 0.717016 -0.863597 -0.498581 0.551850 -0.172125 0.249032 0.427576 0.111281 -0.516569 -0.331132 -0.098754 -0.245746 0.819231 -0.444180 -0.450165 -0.350451 0.153526 -0.176133 0.649863 0.814637 0.684624 -0.496180 -0.378461 -0.160011 0.410167 0.051761 -0.031853 0.282897 0.401714 0.572866 -0.150223 0.029629 0.017637 -0.204091 -0.338052 0.429573 -0.071794 -0.180232 0.014057 0.031372 -0.051542 0.465789 0.341986
light 0.086563 -0.884146 0.400184 0.319760 0.100115 -0.099472 0.283026 -0.720726 -0.402949 0.106439 0.045337 -0.181520 0.233930 -0.352974 0.179871 0.347488 -0.034831 -0.292221 0.094509 0.310405 -0.774404 0.079790 0.016836 0.124702 -0.166658 0.098510 0.207093 -0.019251 0.091275 0.175312 0.242512 0.541721 -0.174954 0.012303 0.470770 0.146434 0.123483 0.453850 0.231704 -0.215587 0.116467 0.044261 0.347802 0.160210 -0.348681 -0.513068 0.141464 -0.163524 0.560443 0.755342 0.004601 -0.016088 0.726096 0.049565 0.722128 -0.986065 0.490821 0.138198 -0.326314 -0.516328 0.185605 0.101192 0.070505 0.394765 0.454696 -0.369489 -0.222811 -0.065360 0.253037 0.461724 -0.368020 -0.076375 -0.636365 -0.016228 -0.261412 0.494583 0.136021 0.128828 -0.627582 -0.325137 0.399695 0.198253 -0.312997 -0.429416 0.298159 0.369272 0.878746 0.591752 0.034697 0.133865 -0.324091 0.195446 0.279279 0.217431 0.144642 0.371691 -0.773844 0.155070 0.540755 0.230595
bottl 0.081504 0.097337 -0.056714 0.193222 -0.764592 0.762440 0.198121 0.443381 -0.030231 -0.502494 0.591752 -0.341855 0.228406 0.376872 0.370402 0.213587 0.044097 -0.851458 -0.001171 0.482919 0.056249 -0.304355 0.583683 -0.316263 -0.273423 0.124859 -0.214531 -0.284040 0.334278 0.419678 -0.215414 0.504396 0.172113 -0.693324 0.005388 -0.093234 0.108806 0.332516 -0.018938 -0.196889 0.155463 -0.506221 0.213502 0.017365 0.231378 -0.451256 0.922933 0.360094 0.930688 0.045668 0.330930 0.002032 0.343913 -0.541248 0.299213 -0.910024 -0.357711 0.355665 -0.362538 0.144842 0.398213 0.598251 0.407353 0.178527 -0.045898 -0.665521 -0.415742 -0.128332 -0.030747 0.571292 0.098999 0.334750 -0.405482 -0.259719 -0.456922 -0.279238 -0.003711 0.398762 0.080613 -0.148412 -0.223041 -0.045627 -0.113625 -0.493703 0.420392 0.164124 0.891829 0.400930 0.030134 -0.014245 0.196466 0.262861 0.410815 -0.374535 0.217556 -0.111635 -0.596785 0.316643 0.149649 0.369544
s -0.106408 -0.191903 0.181374 -0.023654 -0.318967 0.882339 0.041488 0.046207 0.202085 -1.033374 0.014686 -0.198887 -0.073985 0.007890 -0.232952 -0.052048 0.171475 -0.226546 0.154628 0.438124 0.239863 -0.801815 -0.085391 -0.659690 -0.047750 0.481276 -0.191444 -0.138602 0.344129 0.032019 -0.108047 0.384196 -0.169046 -0.218620 0.049300 -0.253269 -0.110797 0.090863 0.163617 -0.370692 -0.142805 0.033007 0.591826 0.048927 -0.230756 -0.491867 0.420763 0.089374 0.804034 0.302388 0.374812 -0.018787 -0.047930 0.110009 0.304058 -0.429623 -0.412070 0.084943 -0.204563 -0.106708 -0.028107 0.338957 -0.027804 -0.019617 -0.192677 -0.033558 -0.280153 0.043822 0.065485 0.229964 0.383025 0.157310 -0.290877 -0.137669 -0.042122 -0.042472 0.260203 -0.074411 -0.224450 0.147282 0.131541 0.063165 -0.472553 -0.402645 -0.144261 0.197930 0.467616 0.269098 -0.269976 0.200915 0.164089 0.040869 0.245219 0.150646 0.325257 -0.307924 -0.118963 0.213968 0.362443 0.134420
lager -0.335245 -0.498383 0.364488 0.030164 0.062409 0.614873 0.120825 -0.284708 0.368671 -0.383191 0.130850 -0.398775 0.264547 -0.269730 -0.043819 0.454573 -0.079723 0.172425 -0.090202 0.657484 -0.170357 -0.486258 0.025847 -0.662209 -0.129372 0.291177 -0.218632 -0.305252 0.222825 -0.221936 -0.219154 0.622665 -0.184271 -0.178827 0.087664 0.020654 0.010069 0.329786 0.001097 -0.441316 -0.426636 0.015528 0.251364 0.151408 -0.558130 -0.757035 0.213208 0.161038 0.759524 0.335382 -0.068106 0.041230 -0.083100 0.358564 0.403415 -0.912525 0.024870 0.018276 -0.047617 -0.047675 0.177747 0.527813 -0.158112 0.149069 0.199284 -0.289219 -0.435160 -0.099598 -0.069642 0.497216 0.159106 0.115123 -0.372560 -0.352854 -0.473903 0.709376 0.559289 -0.042521 -0.351720 0.063781 0.325545 0.320694 -0.688897 -0.094987 -0.093088 0.458608 0.916189 0.173252 -0.892907 0.432812 -0.242321 0.267218 0.030226 0.206197 0.254077 -0.035107 -0.408122 0.232916 0.301051 0.113961
flavor -0.036061 -0.600847 0.282870 0.428703 0.001194 -0.082835 -0.058222 -0.708228 -0.397243 -0.266308 -0.087559 -0.137524 -0.199082 -0.204955 -0.194217 -0.115981 0.045097 -0.309247 0.070582 0.181703 -0.211804 -0.226145 -0.341803 -0.122775 -0.024162 0.318716 0.272518 0.042715 -0.184153 0.153686 0.253078 0.491376 -0.428027 0.295213 0.280778 -0.152566 -0.030398 0.233080 0.010394 -0.429064 0.001092 0.125829 0.531725 0.028779 -0.252078 -0.334171 0.162641 -0.172679 0.787298 0.584328 0.060514 -0.125131 0.401662 0.355803 0.514742 -0.525818 0.366633 0.307074 -0.451507 -0.548270 0.043054 -0.082237 -0.213811 0.127935 -0.007730 0.106052 -0.155957 -0.031977 0.093320 0.333671 -0.228679 -0.109932 -0.611223 0.030685 -0.130076 0.484566 0.012301 -0.186006 -0.618259 0.002225 0.329067 0.214044 -0.347853 -0.271003 -0.135577 0.044986 0.622511 0.576983 0.087376 0.072095 -0.116771 -0.252245 0.357078 0.286656 0.100351 -0.198103 -0.305561 -0.011115 0.696013 0.117960
bitter -0.066953 -0.813126 0.287519 0.392453 0.249617 -0.041551 0.056758 -0.914651 -0.541328 -0.189004 -0.175349 -0.310883 -0.135475 -0.415729 -0.135976 -0.163385 -0.017644 -0.085914 0.050753 0.364847 -0.328474 -0.146492 -0.252560 0.106171 -0.005808 0.386876 0.541089 0.048842 0.061980 0.127223 0.572095 0.430456 -0.403000 0.345101 0.355459 -0.065303 -0.065683 0.377383 0.394805 -0.373029 0.032664 0.304049 0.743570 0.055617 -0.183032 -0.330025 -0.202182 -0.337848 0.599244 0.668508 0.174619 -0.273577 0.388211 0.382590 0.861466 -0.611219 0.526769 0.177856 -0.400687 -0.684580 -0.094518 -0.110166 -0.227500 -0.010070 0.266707 0.089351 -0.113721 0.055921 0.287249 0.207779 -0.359824 -0.269509 -0.671173 0.151953 0.017976 0.398685 -0.156303 -0.209555 -0.894274 -0.081656 0.582496 0.020355 -0.309822 -0.394640 -0.146043 0.183639 0.450713 0.660843 0.138768 0.085613 -0.354546 0.034073 0.156523 0.354187 -0.051298 -0.003783 -0.388660 0.145807 0.689825 0.092153
hop 0.058387 -0.657078 0.223083 0.495855 0.057611 -0.362535 -0.078588 -0.801129 -0.613716 0.018718 -0.147936 -0.034730 -0.226611 -0.209051 -0.130579 -0.183598 -0.036370 -0.314908 0.013304 0.106700 -0.300127 0.097149 -0.346683 0.070844 0.032208 0.241537 0.356432 0.246862 -0.277598 0.219262 0.348098 0.428949 -0.449084 0.486963 0.275790 -0.094489 -0.042030 0.318979 -0.041026 -0.361124 0.069862 0.098723 0.485143 -0.037617 -0.206695 -0.161178 0.046277 -0.250353 0.652722 0.546833 -0.105907 -0.211638 0.510307 0.400706 0.546853 -0.550588 0.582911 0.357025 -0.446249 -0.639186 0.091763 -0.190978 -0.244804 0.116480 0.012157 0.098821 -0.114757 0.001596 0.131167 0.315975 -0.319782 -0.171398 -0.526369 0.097715 -0.109601 0.521723 -0.139942 -0.164859 -0.633783 -0.102916 0.267732 0.149286 -0.145164 -0.247518 -0.148304 -0.078693 0.560792 0.549152 0.260598 0.014820 -0.131061 -0.216013 0.400256 0.269631 -0.013970 -0.201992 -0.412603 -0.116979 0.727401 0.046590
white 0.158924 0.135032 0.273645 0.528442 -0.418453 -0.970481 0.090602 -0.538730 0.058096 1.035549 0.519466 0.605783 0.365839 -0.359285 0.657079 0.732276 -0.211304 -0.146945 0.124051 0.456703 -0.828111 0.128853 0.362460 0.857854 0.345761 -0.818561 0.113758 0.437359 -0.125261 -0.275182 0.648312 0.429567 0.274545 -0.044587 0.000995 0.276763 -0.244342 0.352795 -0.346757 0.321578 -0.008699 -0.003026 -0.085365 0.281711 -0.606802 -0.630307 0.099230 0.231532 0.039646 0.345503 -0.029527 0.406195 0.601286 -0.703816 0.183215 -0.518953 0.449660 0.717423 -0.577449 -0.450007 0.567086 -0.094159 0.464149 0.336607 0.371408 -0.779340 -0.320752 0.076072 -0.111967 0.685397 -0.493762 -0.627613 -0.162254 0.221357 -0.289390 0.550280 0.935903 0.832282 -0.365902 -0.524840 -0.178163 0.318508 0.155385 -0.089387 0.458333 0.515038 0.366505 -0.412664 -0.030411 -0.097187 -0.227101 -0.027949 0.277942 -0.008547 -0.039833 0.292838 -0.014972 -0.039164 0.342150 0.306171
t -0.494798 0.215569 0.226930 0.091091 -0.140326 0.631581 0.371646 -0.046136 0.134916 -0.662149 0.293662 -0.061937 -0.636982 0.148204 -0.631548 0.344193 0.381923 -0.434460 0.309734 0.067697 0.175529 -1.480638 -0.073361 -0.601915 -0.432299 0.514344 -0.355994 -0.124589 -0.338155 0.094362 -0.115424 0.098446 -0.605280 -0.493381 0.543772 -0.856543 -0.060440 -0.460687 0.331824 -0.176854 0.457066 0.006511 0.294735 0.458481 0.326034 -0.292135 0.870454 0.580819 0.689605 0.839605 0.668214 0.539683 -0.066842 -0.150372 -0.386040 0.302695 -0.249907 0.099940 0.346330 0.357077 0.167276 0.041101 0.269417 0.028971 -0.508069 -0.144800 -0.240772 0.291563 0.070361 -0.106463 0.084631 0.072239 -0.556145 -0.712231 -0.129041 -0.321097 0.312996 -0.139227 -0.232605 0.303533 0.132127 0.561299 -0.678130 -0.206183 0.355940 0.335252 0.707208 0.480297 0.533371 -0.342707 -0.236075 -0.346147 0.439185 0.644015 0.471060 -0.377200 0.772480 -0.052063 0.313926 0.517841
pale 0.016609 -0.671588 0.487719 0.115898 -0.070959 0.118084 0.266887 -0.217897 0.214381 0.103607 0.317913 -0.134083 0.586765 -0.229476 0.337901 0.896987 -0.042138 -0.219792 -0.130383 0.497719 -0.726094 0.027774 0.223745 -0.383398 -0.171057 -0.055288 -0.410522 -0.210283 0.106728 -0.076116 -0.424592 0.612173 0.053345 -0.380486 0.263412 0.197372 0.234905 0.375433 -0.031173 -0.220769 -0.077047 -0.166748 -0.080986 0.259215 -0.475825 -0.624242 0.396628 0.239386 0.531428 0.563106 -0.192848 0.196306 0.461080 0.006273 0.297349 -1.218560 0.188567 0.106915 -0.160274 0.003642 0.427324 0.501767 0.141788 0.566282 0.334777 -0.758572 -0.497666 -0.237200 0.001753 0.744068 -0.197255 0.137189 -0.283621 -0.291997 -0.481076 0.754232 0.679143 0.264670 -0.156567 -0.310195 0.174657 0.358165 -0.561099 -0.140950 0.338741 0.493564 1.157392 0.208190 -0.440843 0.368729 -0.318514 0.306213 0.242004 0.087459 0.313975 0.331357 -0.838450 0.122781 0.275147 0.213574
skunki -0.019981 -0.202902 0.287021 0.390259 -0.384344 0.108647 -0.093071 -0.324238 -0.242978 -0.397265 0.239017 0.047659 -0.174860 -0.032144 -0.098639 -0.090108 0.058769 -0.623830 0.136933 0.433260 -0.072327 -0.485307 -0.109829 -0.192452 0.039362 0.298414 0.131224 0.085932 -0.144223 0.212644 0.215912 0.572114 -0.263710 0.055225 0.159625 -0.250102 -0.110700 0.255270 -0.119052 -0.347363 0.066351 -0.040630 0.544691 0.094117 -0.099872 -0.375329 0.517111 0.216463 0.940866 0.435917 0.153900 -0.049793 0.365803 0.063757 0.426983 -0.456098 0.100219 0.464122 -0.585138 -0.370645 0.211926 0.074488 0.025961 0.113125 -0.176194 -0.165318 -0.262316 0.001917 -0.034987 0.605042 -0.162467 -0.056040 -0.540735 -0.062240 -0.228174 0.265520 0.153526 0.125821 -0.470995 -0.003975 0.075348 0.273676 -0.370551 -0.307343 -0.084505 0.114200 0.747862 0.397601 0.229019 0.030967 0.034395 -0.306443 0.482752 0.110427 0.049237 -0.357935 -0.180020 0.053818 0.568175 0.257376
good -0.276532 -0.169166 0.357953 0.012352 -0.204810 0.477429 0.051597 -0.283134 0.189607 -0.588353 0.107258 -0.191731 0.001677 -0.170628 -0.133299 0.141313 0.071847 -0.039236 0.189096 0.658449 0.040450 -0.820986 -0.013329 -0.342003 0.080842 0.394509 0.006522 -0.040174 0.307392 -0.068929 0.171567 0.615648 -0.076392 -0.144804 0.176943 0.009627 -0.272101 0.250357 0.041646 -0.212737 -0.275778 0.111848 0.584348 0.145932 -0.383296 -0.605196 0.271127 0.156513 0.649634 0.340600 0.279761 0.052657 -0.084505 0.107183 0.355308 -0.434748 -0.203597 0.170075 -0.349969 -0.235151 0.064925 0.242476 0.009754 -0.078506 0.037271 -0.213443 -0.199773 0.078243 -0.050720 0.220062 0.037512 -0.024733 -0.243856 -0.183298 -0.058391 0.204685 0.428851 0.022809 -0.422305 0.055774 0.285599 0.210229 -0.464294 -0.300228 -0.163052 0.219844 0.485497 0.110132 -0.360838 0.256539 -0.103314 0.052120 0.130953 0.127975 0.190202 -0.339245 -0.070795 0.219263 0.404912 0.181618
malt 0.158010 -0.745489 0.274608 0.553412 0.055041 -0.566105 -0.020605 -0.792906 -0.619163 0.233837 -0.104617 0.063503 -0.176531 -0.231787 -0.011532 -0.094756 -0.031771 -0.389637 0.025719 -0.041280 -0.528381 0.267806 -0.392159 0.101367 0.005278 0.102014 0.341418 0.217936 -0.372016 0.203695 0.281252 0.476627 -0.436953 0.498057 0.301274 -0.063135 0.030006 0.316884 -0.080915 -0.360888 0.102510 0.043419 0.289748 -0.036028 -0.246260 -0.145273 0.080441 -0.195588 0.676083 0.610409 -0.218553 -0.164517 0.715047 0.338064 0.478478 -0.570861 0.655098 0.395677 -0.456724 -0.647957 0.173408 -0.204536 -0.219999 0.292219 0.018825 0.056314 -0.161430 -0.087949 0.097769 0.441823 -0.446715 -0.160696 -0.587153 0.121971 -0.176763 0.646807 -0.091172 -0.082520 -0.613167 -0.157770 0.243152 0.221749 -0.105747 -0.141258 -0.063118 -0.042199 0.631257 0.550268 0.301842 0.023568 -0.136511 -0.345904 0.461747 0.277914 -0.017180 -0.022878 -0.447233 -0.194177 0.693145 0.054169
sweet 0.127145 -0.862778 0.330346 0.528579 0.131414 -0.461659 -0.001776 -0.822836 -0.604236 0.151891 -0.103545 -0.036640 -0.134186 -0.312907 0.002441 -0.131604 0.022048 -0.350305 -0.003480 0.068724 -0.555214 0.202029 -0.350528 0.152322 -0.011340 0.136627 0.437221 0.129738 -0.205366 0.196512 0.335456 0.506045 -0.416283 0.420563 0.293800 -0.072832 0.047574 0.355291 0.124259 -0.372197 0.115644 0.174378 0.423413 -0.010474 -0.166596 -0.115099 0.002322 -0.207735 0.688210 0.701541 -0.107575 -0.214569 0.668317 0.335954 0.630761 -0.577586 0.664532 0.319316 -0.455224 -0.702805 0.107854 -0.180981 -0.241985 0.242864 0.114873 0.069085 -0.181961 -0.051838 0.158426 0.441518 -0.520844 -0.195744 -0.671320 0.156360 -0.105804 0.580062 -0.105894 -0.076213 -0.741263 -0.120579 0.350280 0.173366 -0.159629 -0.223880 -0.067987 0.082193 0.554284 0.594611 0.322552 0.027981 -0.192141 -0.287810 0.390002 0.280615 -0.043632 0.052242 -0.458335 -0.074933 0.687471 0.049739
drink -0.351675 -0.061122 0.153515 -0.193495 -0.217109 0.964020 0.138651 0.188504 0.226412 -1.041211 -0.042775 -0.269474 -0.242961 0.067802 -0.188530 -0.333017 0.206793 -0.084861 0.236830 0.430916 0.409634 -0.899526 0.009194 -0.565037 -0.185653 0.544062 -0.014141 -0.264544 0.285549 -0.053780 0.001277 0.267616 -0.285555 -0.192858 0.056896 -0.147636 -0.170976 0.111608 0.090407 -0.343410 -0.353967 -0.005301 0.608171 -0.056022 -0.286556 -0.483720 0.315369 0.137146 0.715392 0.091662 0.220184 -0.184891 -0.261550 0.137411 0.262687 -0.254670 -0.367470 0.021669 0.047267 -0.114753 0.044756 0.393446 -0.064572 -0.131323 -0.148884 0.166709 -0.106168 0.087313 -0.076635 0.068619 0.570235 0.162125 -0.203611 -0.325786 -0.082687 -0.077977 0.158233 -0.041873 -0.158280 0.149704 0.225464 0.168756 -0.217774 -0.264742 -0.163883 0.060209 0.156808 0.172456 -0.415286 0.258641 0.268206 0.198019 -0.042205 0.254059 0.120831 -0.253104 0.097309 0.320952 0.132906 -0.000150
pour 0.258810 -0.197848 0.256661 0.168858 -0.568800 0.191844 0.318445 0.309150 0.089148 -0.006684 0.514554 0.107553 0.445907 0.079306 0.583518 0.656827 0.063926 -0.727919 -0.018354 0.401576 -0.574279 0.125873 0.426627 -0.174200 -0.151787 -0.203630 -0.454312 -0.092616 0.160060 0.174904 -0.422665 0.477738 0.291403 -0.674982 0.186032 0.128745 0.192641 0.227333 0.007695 0.031207 0.207070 -0.450708 -0.079308 0.189683 -0.065852 -0.445624 0.670607 0.293021 0.477604 0.379299 0.052833 0.191700 0.640463 -0.534405 0.080352 -1.022603 -0.175444 0.283224 -0.273008 0.120166 0.479568 0.378775 0.528529 0.503819 0.131544 -0.851109 -0.369209 -0.220034 -0.016042 0.762451 -0.168403 0.211069 -0.160690 -0.097830 -0.240337 0.070274 0.443327 0.579875 0.153109 -0.437576 -0.138457 0.188532 -0.181183 -0.230710 0.638029 0.259120 0.931099 0.160589 0.159909 0.190170 -0.017265 0.243876 0.370554 -0.172644 0.309683 0.344919 -0.709535 0.113517 0.142842 0.283783
yellow 0.242942 -0.449550 0.312590 0.128847 -0.259158 -0.326548 0.218662 -0.379171 0.185845 0.474251 0.372334 0.275059 0.651740 -0.191186 0.439369 1.021773 -0.027523 -0.262340 0.120437 0.389146 -0.802647 0.127019 0.380972 0.081209 0.076334 -0.447622 -0.271619 0.036716 0.109198 -0.030532 0.066635 0.427512 0.293001 -0.321742 0.273257 0.411213 0.244164 0.385020 -0.126142 0.117545 0.017253 -0.069980 -0.248094 0.308111 -0.319308 -0.652084 0.319364 0.315884 0.241831 0.431922 -0.123957 0.375795 0.713178 -0.397865 0.131157 -0.995911 0.222310 0.296797 -0.240994 -0.103673 0.405056 0.354100 0.494931 0.514731 0.452550 -1.054507 -0.345017 0.101266 0.104292 0.673682 -0.221023 -0.140683 -0.180348 -0.068962 -0.507459 0.688642 0.832364 0.512497 -0.082704 -0.573369 0.015297 0.369600 -0.428075 -0.408436 0.532672 0.578142 0.943669 -0.116682 -0.132867 0.130889 -0.206639 0.269250 0.333602 0.112848 0.318902 0.447014 -0.729799 -0.087962 0.170828 0.320856
on -0.239710 0.029450 0.245098 -0.071329 -0.386235 0.925010 0.089592 0.263379 0.310231 -0.847221 0.188829 -0.095421 0.043728 0.041074 -0.093706 -0.038244 0.185193 -0.202145 0.041194 0.596676 0.276448 -0.807309 0.155050 -0.595916 -0.088340 0.377885 -0.235882 -0.167719 0.409715 -0.058855 -0.113514 0.474510 -0.017475 -0.386788 -0.042197 -0.175150 -0.208681 0.150152 0.065032 -0.177397 -0.096858 -0.070995 0.417492 0.033865 -0.138485 -0.464125 0.402619 0.266560 0.666798 0.251877 0.268916 -0.047055 -0.190916 -0.048481 0.120368 -0.429845 -0.467557 0.141587 -0.106336 0.082309 0.077093 0.506245 0.123854 -0.107581 -0.163797 -0.186527 -0.302234 0.099352 -0.032677 0.277101 0.281563 0.097885 -0.121980 -0.260349 -0.074976 -0.195088 0.368136 0.153471 -0.069326 0.140899 0.039341 0.220460 -0.398859 -0.250665 -0.011849 0.146985 0.382564 -0.006638 -0.254427 0.270507 0.184937 0.206757 0.133416 0.142287 0.366488 -0.248495 0.015541 0.324833 0.151370 0.116307
color 0.192985 -0.315116 0.266013 0.211364 -0.366486 -0.475522 0.171013 -0.556355 0.196046 0.538376 0.354586 0.417062 0.497428 -0.253225 0.389566 0.898848 -0.022021 -0.178194 0.290453 0.458114 -0.676968 -0.045039 0.306284 0.250726 0.259501 -0.460010 -0.089281 0.157556 0.110500 -0.097329 0.415171 0.518236 0.266984 -0.220076 0.248246 0.430250 0.094086 0.376186 -0.189758 0.184604 -0.080833 0.037594 -0.140916 0.287324 -0.366284 -0.739688 0.225025 0.281630 0.286349 0.393154 -0.045348 0.392310 0.647148 -0.453813 0.139531 -0.829016 0.183886 0.489457 -0.362376 -0.249672 0.372688 0.229492 0.560249 0.376404 0.436133 -0.991243 -0.281996 0.262111 0.053980 0.662547 -0.220992 -0.314593 -0.202195 0.007728 -0.480854 0.717784 0.943375 0.538635 -0.246189 -0.576620 0.027982 0.435054 -0.344600 -0.450368 0.461754 0.588880 0.769900 -0.258911 -0.115164 0.082198 -0.154380 0.153007 0.329561 0.161180 0.279570 0.347882 -0.463623 -0.114379 0.246152 0.363502
heineken -0.173125 0.047031 0.102206 -0.094068 -0.374238 0.905520 0.138439 0.366923 0.196332 -0.781606 0.182187 -0.126270 -0.074607 0.123402 -0.060185 -0.110444 0.147736 -0.236610 0.036121 0.411336 0.280873 -0.671390 0.165182 -0.575734 -0.138912 0.314690 -0.197569 -0.118994 0.330340 0.021362 -0.199246 0.310666 -0.065250 -0.379819 -0.067306 -0.244089 -0.096645 0.065307 0.118467 -0.205999 -0.078627 -0.179035 0.370871 0.050719 -0.053534 -0.351293 0.450186 0.213558 0.654604 0.150885 0.235666 -0.038370 -0.122404 -0.103176 0.150179 -0.323399 -0.479568 0.097036 0.007417 0.111612 0.085318 0.411978 0.117971 -0.054709 -0.220447 -0.107621 -0.262733 0.026901 -0.033196 0.233744 0.355369 0.220812 -0.130105 -0.232115 -0.069829 -0.269279 0.133735 0.138914 0.002044 0.150738 -0.053028 0.046942 -0.250227 -0.228465 0.037845 0.104344 0.324334 0.122043 -0.226377 0.136062 0.278391 0.119065 0.143758 0.061330 0.301756 -0.185367 -0.026198 0.221619 0.100058 0.100087
better -0.254572 -0.237069 0.146666 -0.067859 -0.164810 0.886580 0.088891 0.113941 0.192074 -0.707070 0.120068 -0.338372 0.009368 0.017396 -0.086840 -0.077487 0.064805 -0.072604 0.020920 0.476867 0.255591 -0.630314 0.069390 -0.606609 -0.188425 0.469364 -0.082065 -0.300358 0.329060 -0.004533 -0.182848 0.442450 -0.161748 -0.266180 -0.008231 -0.168737 -0.077421 0.171130 0.089684 -0.345458 -0.244671 -0.033580 0.419691 -0.010024 -0.186173 -0.401136 0.242210 0.113665 0.655949 0.179081 0.192568 -0.060945 -0.187742 0.189015 0.331204 -0.455755 -0.300852 -0.012597 -0.067056 -0.021029 0.031076 0.424524 -0.058110 -0.038890 -0.043111 -0.012026 -0.261616 -0.039884 -0.018493 0.230197 0.292373 0.191888 -0.276254 -0.244039 -0.202283 0.020542 0.092189 -0.028953 -0.236206 0.176376 0.142738 0.133142 -0.373150 -0.181940 -0.083255 0.177259 0.411544 0.224737 -0.435255 0.253691 0.101077 0.187245 0.043982 0.047009 0.230560 -0.138070 -0.172037 0.374950 0.142867 0.090900
clear 0.358411 -0.465515 0.359279 0.203139 -0.362103 -0.220596 0.358522 0.042104 -0.022299 0.339544 0.420488 0.245071 0.572849 -0.055512 0.595472 0.832053 0.051761 -0.656939 -0.035602 0.256643 -0.891957 0.415670 0.343466 -0.001249 -0.137593 -0.323314 -0.427761 -0.013451 0.022542 0.144809 -0.396378 0.437919 0.255579 -0.527100 0.310652 0.243160 0.304895 0.271528 -0.016798 0.065481 0.289671 -0.353545 -0.262483 0.237720 -0.174680 -0.389338 0.522918 0.195230 0.272824 0.562089 -0.125451 0.220370 0.841339 -0.441138 0.116823 -1.096018 0.095785 0.253857 -0.291648 0.010788 0.488190 0.286080 0.498283 0.705242 0.247823 -0.929646 -0.358877 -0.261994 0.057396 0.790501 -0.354094 0.122788 -0.167829 -0.090492 -0.254410 0.347037 0.506706 0.548152 0.075656 -0.567468 -0.045413 0.298796 -0.192202 -0.191351 0.719389 0.311852 0.995317 0.203004 0.215611 0.202055 -0.140705 0.248302 0.390877 -0.074513 0.299797 0.534690 -0.880412 0.002477 0.147421 0.267666
no -0.046432 0.041664 0.257900 0.358827 -0.243828 -0.146668 -0.005650 -0.453077 0.037480 -0.067800 0.184892 0.140920 -0.111257 -0.161336 0.047879 0.143442 -0.107401 -0.207337 0.214782 0.503723 -0.246438 -0.474940 -0.111262 0.104322 0.225465 0.022980 0.193808 0.210117 -0.093793 -0.051147 0.447565 0.471080 -0.106487 0.160810 0.070836 -0.050417 -0.308998 0.266520 -0.203069 -0.152928 -0.112836 0.074749 0.410116 0.143743 -0.507638 -0.584483 0.239653 0.114832 0.533320 0.269628 0.105215 0.062764 0.279810 -0.059357 0.343229 -0.421053 0.071733 0.497012 -0.635144 -0.436848 0.197763 -0.047341 0.064888 0.131331 -0.021742 -0.153088 -0.165541 0.040220 -0.100459 0.425096 -0.034857 -0.224996 -0.358306 0.047572 -0.096799 0.405756 0.421901 0.199452 -0.467579 -0.135193 0.097085 0.270866 -0.173631 -0.160894 -0.032037 0.151360 0.427803 0.080333 -0.121643 0.184457 -0.048510 -0.178499 0.272235 0.114889 -0.036993 -0.255309 -0.039124 -0.002773 0.469188 0.205916
golden 0.230268 -0.527569 0.325202 0.082714 -0.193730 -0.248490 0.309787 -0.308965 0.122523 0.450256 0.351345 0.212988 0.641517 -0.165404 0.432108 0.935737 -0.023159 -0.275256 0.077456 0.347997 -0.829204 0.188904 0.384458 0.061090 -0.023597 -0.388619 -0.282916 0.023317 0.128201 0.014462 -0.041156 0.408452 0.270922 -0.349196 0.312905 0.372891 0.255010 0.380013 -0.050686 0.123541 0.060531 -0.090254 -0.239914 0.304770 -0.287526 -0.580896 0.327400 0.258131 0.217313 0.471131 -0.156794 0.321983 0.712016 -0.365181 0.157982 -1.029424 0.225693 0.211911 -0.163940 -0.080269 0.395448 0.377651 0.446782 0.547742 0.439407 -0.985354 -0.340652 0.041548 0.111765 0.635831 -0.219769 -0.058302 -0.183922 -0.108573 -0.459036 0.600534 0.694324 0.478535 -0.068647 -0.547633 0.053762 0.354766 -0.382905 -0.378891 0.601296 0.531721 0.969497 -0.029837 -0.100973 0.153914 -0.192920 0.333375 0.302068 0.106358 0.336482 0.513158 -0.796633 -0.058307 0.132982 0.286289
finish -0.120381 -0.612903 0.177896 0.280975 0.342130 0.042045 0.087224 -0.757461 -0.446085 -0.218429 -0.197324 -0.411377 -0.183448 -0.386162 -0.169144 -0.191431 -0.059895 0.103087 0.087684 0.224883 -0.201253 -0.166092 -0.269117 0.030868 -0.084771 0.476203 0.521786 -0.082500 0.079568 0.090576 0.500121 0.249071 -0.400222 0.341500 0.328138 -0.028786 -0.088451 0.249771 0.396590 -0.393588 -0.048621 0.210210 0.604784 -0.017140 -0.246366 -0.382305 -0.299630 -0.424341 0.430218 0.480022 0.159745 -0.238784 0.208100 0.384548 0.745116 -0.447859 0.365275 0.044937 -0.277365 -0.515639 -0.168739 -0.082991 -0.230847 -0.033314 0.265269 0.264995 -0.040601 -0.025671 0.264776 -0.031828 -0.155105 -0.163234 -0.595555 0.084510 0.057267 0.262990 -0.254007 -0.294796 -0.782838 0.011178 0.547441 -0.027941 -0.184113 -0.266151 -0.149409 0.132284 0.285773 0.569046 -0.075562 0.101245 -0.322842 0.076859 -0.022690 0.255479 -0.061741 0.045834 -0.224439 0.192770 0.528526 0.055327
skunk 0.037487 -0.150923 0.189822 0.327700 -0.373098 0.204002 -0.082170 -0.221488 -0.328665 -0.482693 0.144363 -0.039801 -0.278071 0.103780 -0.123450 -0.094496 0.102186 -0.580262 0.173960 0.194480 0.028546 -0.462828 -0.150178 -0.264594 -0.066781 0.286299 0.065534 0.024053 -0.180182 0.246179 0.056340 0.405957 -0.288058 0.063937 0.186481 -0.301620 -0.069639 0.131045 -0.095916 -0.367897 0.126698 -0.145103 0.415830 0.007263 -0.063031 -0.288019 0.557381 0.112100 0.880947 0.364671 0.223164 0.002514 0.377959 0.063958 0.302427 -0.310308 0.023696 0.389306 -0.438979 -0.284052 0.142042 0.027061 0.013441 0.124509 -0.247466 -0.044392 -0.193616 -0.017600 0.018693 0.394197 -0.078624 0.084309 -0.512238 -0.068814 -0.225662 0.059302 -0.003402 0.039195 -0.284680 0.053597 0.070041 0.197907 -0.329141 -0.300107 -0.060360 -0.020204 0.631470 0.487311 0.248975 -0.033568 0.113175 -0.347729 0.445357 0.113770 0.116362 -0.345034 -0.169732 -0.021746 0.510378 0.281260
bodi -0.003667 -0.824213 0.304237 0.269656 0.462404 -0.313398 0.254609 -0.998751 -0.378180 0.399066 -0.027092 -0.264009 0.324714 -0.576885 0.141666 0.398539 -0.173358 0.193719 0.131852 0.305248 -0.844020 0.161318 0.029229 0.526090 -0.039004 0.023031 0.512242 -0.007427 0.253267 0.084035 0.678784 0.297445 -0.092007 0.220182 0.415619 0.344187 -0.010099 0.477842 0.434778 -0.103438 -0.035673 0.316140 0.332391 0.145685 -0.393225 -0.580518 -0.315875 -0.355085 0.117735 0.639673 0.064360 0.037300 0.536223 0.004161 0.826098 -0.694193 0.630508 -0.049647 -0.254644 -0.622463 -0.031155 -0.105457 0.042907 0.122078 0.814299 -0.299272 -0.118338 0.050401 0.350881 0.116819 -0.459256 -0.345038 -0.606257 0.126110 -0.156601 0.493364 0.093249 0.140991 -0.823229 -0.266612 0.569565 0.056279 -0.258320 -0.400478 0.132479 0.536131 0.371707 0.367193 -0.141248 0.076899 -0.609454 0.301027 -0.042240 0.188444 -0.016500 0.497642 -0.538852 0.170637 0.463720 0.195758
just -0.222134 -0.223655 0.191385 0.055804 -0.136558 0.633879 0.061200 -0.128693 0.059234 -0.756863 0.016684 -0.239613 -0.181369 -0.012361 -0.280638 -0.101242 0.116761 -0.140492 0.108642 0.326105 0.186344 -0.732125 -0.139071 -0.519105 -0.113316 0.482092 -0.057941 -0.159253 0.129692 0.035261 -0.026301 0.352623 -0.283701 -0.104034 0.146233 -0.258850 -0.095501 0.052468 0.122621 -0.383221 -0.096465 0.056805 0.520600 0.052196 -0.160712 -0.416586 0.314849 0.042992 0.735214 0.348745 0.285330 -0.000515 -0.047271 0.206040 0.267070 -0.302235 -0.189120 0.068465 -0.117935 -0.137009 -0.031112 0.196863 -0.095540 -0.023646 -0.150830 0.070283 -0.169412 0.041749 0.042823 0.113340 0.202344 0.125213 -0.371865 -0.207451 -0.061216 0.045108 0.122986 -0.161284 -0.320276 0.164989 0.228794 0.172803 -0.435110 -0.245418 -0.111898 0.130168 0.454146 0.346842 -0.181813 0.135279 0.019921 -0.013691 0.192023 0.259431 0.227208 -0.259803 -0.024186 0.158042 0.351591 0.124780
carbon -0.151853 -0.542345 0.319625 0.222093 0.315697 -0.162985 0.140386 -0.705168 -0.232479 0.200067 0.113441 -0.232005 0.173504 -0.501379 0.112731 0.192750 -0.090489 0.165411 0.045052 0.431491 -0.565238 -0.094659 0.027900 0.430791 0.052653 0.105691 0.431239 -0.036060 0.239713 0.031176 0.536100 0.284377 -0.105541 0.166741 0.221210 0.153385 -0.179787 0.355773 0.285214 -0.182169 -0.212865 0.238429 0.391301 0.104471 -0.389199 -0.576723 -0.251236 -0.263351 0.142748 0.489672 0.109265 0.025740 0.268350 -0.005606 0.683502 -0.487286 0.413436 -0.002973 -0.307067 -0.565500 -0.003437 -0.079867 0.007694 0.004385 0.607277 -0.112238 -0.172582 -0.025507 0.179794 0.136958 -0.339172 -0.299872 -0.540602 0.043597 -0.046234 0.298874 0.124100 0.189508 -0.783020 -0.028419 0.494955 0.110938 -0.203501 -0.219317 -0.017169 0.473168 0.176676 0.217915 -0.277721 0.193238 -0.469387 0.133206 -0.129954 0.044049 -0.045229 0.329013 -0.214449 0.275237 0.422052 0.192670
bad -0.317197 -0.201733 0.344125 0.025506 -0.193776 0.557465 -0.034685 -0.249765 0.162251 -0.815553 0.047662 -0.251844 -0.137669 -0.123230 -0.323271 0.086395 0.232173 -0.141903 0.161082 0.486374 0.215013 -0.957360 -0.210875 -0.624584 0.025405 0.614370 -0.066697 -0.068849 0.250776 0.046286 0.084678 0.612779 -0.241773 -0.143543 0.229675 -0.145478 -0.191880 0.103269 0.155001 -0.322576 -0.097487 0.128587 0.637929 0.127185 -0.156464 -0.434331 0.365341 0.205270 0.770532 0.413386 0.401966 0.020650 -0.104352 0.228999 0.237298 -0.318289 -0.294437 0.128068 -0.285810 -0.129317 -0.045819 0.208486 -0.081104 -0.105809 -0.163866 -0.139852 -0.201409 0.089283 0.003807 0.118581 -0.002341 0.010577 -0.249276 -0.227576 0.071655 0.111915 0.349930 -0.165573 -0.400031 0.165865 0.296035 0.263337 -0.621789 -0.343105 -0.234398 0.135351 0.516545 0.249925 -0.095823 0.152336 -0.145728 -0.075545 0.264340 0.223265 0.231973 -0.562719 0.037868 0.162718 0.430859 0.164205
smell 0.039789 -0.102142 0.315095 0.350236 -0.425701 -0.043118 -0.149469 -0.324059 -0.179666 -0.333974 0.193421 0.196226 -0.181335 -0.025160 -0.125188 0.075348 0.131768 -0.610664 0.200793 0.292256 -0.087566 -0.493067 -0.212308 -0.205049 0.088453 0.195856 0.001980 0.133521 -0.248575 0.160757 0.127704 0.483005 -0.236530 0.056157 0.202980 -0.247340 -0.089301 0.126923 -0.184699 -0.297097 0.106839 -0.054617 0.408279 0.122257 -0.135105 -0.321706 0.575412 0.258951 0.822228 0.448980 0.185849 0.092745 0.408790 0.022367 0.249830 -0.299633 0.044821 0.468235 -0.578156 -0.306284 0.199801 -0.029503 0.089548 0.169313 -0.243351 -0.214963 -0.231295 0.009655 -0.041971 0.573325 -0.174912 -0.058014 -0.450766 -0.028526 -0.218261 0.273580 0.285966 0.118047 -0.326976 -0.027250 0.053399 0.326781 -0.418182 -0.290996 -0.072226 0.099605 0.697263 0.340372 0.318811 -0.004792 0.035239 -0.440489 0.501129 0.138038 0.075733 -0.375963 -0.085027 -0.074889 0.531003 0.295152
littl 0.036970 -0.465410 0.270740 0.371142 -0.126051 -0.107253 0.027280 -0.580753 -0.219315 -0.106123 0.047408 0.012705 -0.088201 -0.195257 -0.004670 0.002725 -0.008748 -0.278558 0.121855 0.316597 -0.282195 -0.226886 -0.229898 -0.033717 0.091607 0.171679 0.262677 0.088484 -0.067415 0.061867 0.334659 0.520719 -0.261496 0.199068 0.202433 -0.096372 -0.079326 0.295120 0.003261 -0.282702 -0.058588 0.141960 0.479343 0.045992 -0.288881 -0.377518 0.155642 -0.002692 0.681937 0.476903 0.079583 -0.051542 0.401311 0.145750 0.445778 -0.512000 0.266399 0.355185 -0.509539 -0.531710 0.138343 -0.051194 -0.058028 0.128575 0.024373 -0.096044 -0.221496 0.039995 0.040112 0.440488 -0.228522 -0.203144 -0.516385 0.058520 -0.112261 0.460833 0.200481 0.050117 -0.587367 -0.101973 0.243350 0.227405 -0.277220 -0.242358 -0.058438 0.170428 0.519010 0.311295 0.087741 0.125671 -0.107850 -0.209452 0.372869 0.221735 0.025551 -0.139194 -0.275111 -0.006836 0.561054 0.142362
wateri -0.074020 -0.647618 0.297772 0.306483 0.231638 -0.050918 0.087168 -0.783540 -0.317507 -0.078405 -0.056595 -0.239957 -0.012302 -0.370005 -0.086078 0.050595 -0.045797 0.010998 0.105661 0.299398 -0.395197 -0.177424 -0.186080 0.103103 -0.025832 0.300088 0.400086 -0.010254 0.098089 0.088282 0.454254 0.404236 -0.282946 0.253031 0.297792 0.064302 -0.078375 0.345744 0.246759 -0.315839 -0.067272 0.239298 0.520226 0.052994 -0.320420 -0.456294 -0.097880 -0.231007 0.488177 0.566722 0.108140 -0.077457 0.333645 0.237773 0.666390 -0.515657 0.383744 0.107694 -0.353771 -0.558630 -0.054068 -0.061476 -0.133050 0.051153 0.328806 -0.021863 -0.129828 0.012511 0.192660 0.166961 -0.273638 -0.198774 -0.564456 0.043298 -0.090791 0.407618 0.047965 -0.051051 -0.739347 -0.039233 0.452495 0.131278 -0.307950 -0.297966 -0.091073 0.265503 0.412578 0.409897 -0.061476 0.113484 -0.348766 0.017046 0.140980 0.235095 0.003704 0.053369 -0.317109 0.116393 0.556715 0.121492
noth -0.327346 -0.195051 0.228945 -0.161638 -0.207305 0.769307 0.109476 -0.195191 0.392685 -0.678452 -0.363961 -0.126649 -0.202943 -0.031931 -0.308031 -0.212829 -0.016654 0.109055 0.329802 0.326979 0.074549 -0.480140 -0.529132 -0.662724 0.333340 0.391526 -0.013849 0.028252 0.285116 -0.078497 0.049280 0.734460 -0.051520 -0.217042 0.333984 -0.105238 -0.024844 0.304617 0.322823 0.028568 -0.155265 0.125883 0.460398 0.135197 -0.275394 -0.466705 -0.030791 0.103545 0.643069 0.111033 0.154899 -0.122543 -0.082653 0.237604 0.285611 -0.380139 -0.400509 -0.096600 -0.104698 -0.107873 -0.114335 0.026830 -0.254576 -0.378002 -0.269316 -0.132304 0.207302 0.222459 -0.047873 0.135188 0.112623 -0.155229 -0.281943 -0.162912 0.118754 0.116743 0.021427 -0.478366 -0.389896 0.029986 0.430385 0.090767 -0.434123 -0.161676 -0.290579 -0.047195 0.326421 0.341734 -0.332489 0.381656 -0.150662 0.152977 0.040759 0.451157 0.203326 -0.637673 -0.137431 -0.007340 -0.008695 -0.034603
so -0.209233 -0.006529 0.146806 -0.092674 -0.284321 0.729560 0.022408 0.108635 0.212617 -0.829683 0.075099 -0.173483 -0.088516 0.068864 -0.203870 -0.035732 0.218553 -0.153364 0.126489 0.378604 0.314915 -0.788168 -0.017175 -0.588277 -0.043258 0.428123 -0.173309 -0.098476 0.311883 0.047876 -0.058599 0.353223 -0.125034 -0.252076 0.035511 -0.158949 -0.136080 0.033360 0.128615 -0.184901 -0.092357 0.039565 0.438265 0.072356 0.006725 -0.312643 0.338226 0.201469 0.562219 0.213900 0.362392 -0.024331 -0.145968 0.021260 0.088414 -0.224238 -0.427410 0.066754 -0.079784 0.012522 -0.051036 0.292000 0.032792 -0.102093 -0.183781 -0.118648 -0.199532 0.090938 0.006144 0.058633 0.217860 0.094411 -0.105747 -0.173489 0.078795 -0.165179 0.234571 -0.019812 -0.095755 0.129977 0.085208 0.120776 -0.414912 -0.290605 -0.112418 0.080257 0.254054 0.134709 -0.089480 0.123547 0.094293 0.063487 0.187212 0.137375 0.252913 -0.397293 0.045446 0.183471 0.205135 0.080022
when -0.196403 0.081982 0.070429 -0.154134 -0.247639 0.811776 0.086809 0.293473 0.217646 -0.803818 0.036604 -0.187733 -0.115075 0.097931 -0.175520 -0.177942 0.130263 -0.093175 0.113456 0.338854 0.378768 -0.659335 0.043218 -0.527500 -0.120611 0.361606 -0.167488 -0.161122 0.247845 -0.033604 -0.120169 0.218505 -0.097419 -0.273205 -0.035088 -0.173458 -0.170373 0.017452 0.051335 -0.166848 -0.203852 -0.067679 0.385068 0.005608 -0.105530 -0.304412 0.303699 0.126445 0.490310 0.008197 0.215922 -0.068319 -0.238634 0.062344 0.094472 -0.154813 -0.414016 0.003056 0.014471 0.059316 -0.012836 0.321705 -0.032169 -0.124784 -0.193554 0.063950 -0.146461 0.057805 -0.063819 0.049069 0.434863 0.189186 -0.099212 -0.205471 -0.058975 -0.224683 0.087778 0.000505 0.000087 0.178108 0.028117 0.026198 -0.244376 -0.174134 -0.115837 0.024912 0.168490 0.050278 -0.323174 0.170162 0.268225 0.090098 0.028539 0.023445 0.211101 -0.230732 0.054609 0.216352 0.078751 0.041211
bit 0.042949 -0.566570 0.282349 0.374724 -0.015335 -0.166965 -0.010340 -0.604394 -0.348421 -0.103628 -0.019650 -0.013174 -0.144408 -0.180753 -0.078365 -0.093355 0.025151 -0.257527 0.088863 0.173838 -0.242893 -0.137124 -0.281467 -0.045478 0.012259 0.230937 0.292147 0.081744 -0.143267 0.100317 0.272227 0.447604 -0.334903 0.286966 0.232334 -0.128630 -0.023817 0.249029 0.031159 -0.316523 0.021462 0.154608 0.431973 0.002148 -0.200161 -0.216404 0.086301 -0.071687 0.639705 0.504645 0.036115 -0.067182 0.407741 0.271390 0.431737 -0.398208 0.358539 0.283477 -0.419081 -0.527031 0.095135 -0.112638 -0.137383 0.130651 -0.006958 0.020710 -0.163755 0.012837 0.099146 0.349401 -0.278600 -0.155629 -0.522077 0.055021 -0.098257 0.411083 0.055411 -0.022725 -0.561235 -0.056290 0.259391 0.216189 -0.287760 -0.196676 -0.103798 0.104057 0.485462 0.359356 0.190504 0.073791 -0.122968 -0.262295 0.358244 0.258398 0.012415 -0.119721 -0.250902 -0.049412 0.570184 0.096723
realli -0.229810 -0.141041 0.237866 -0.011578 -0.250567 0.648723 0.018129 -0.066887 0.165590 -0.851793 -0.028367 -0.133576 -0.195708 -0.007803 -0.315085 -0.047136 0.211796 -0.198496 0.193795 0.349468 0.210646 -0.781767 -0.227236 -0.614941 0.006458 0.480473 -0.129472 -0.066176 0.207521 0.060479 -0.015825 0.450076 -0.201835 -0.201558 0.203010 -0.210910 -0.116392 0.072969 0.180760 -0.227917 -0.037552 0.068697 0.531791 0.085234 -0.055751 -0.340164 0.367477 0.159249 0.702614 0.321534 0.346824 -0.020945 -0.028516 0.137960 0.168531 -0.258661 -0.334732 0.084089 -0.153108 -0.070331 -0.055075 0.174956 -0.052410 -0.104948 -0.253495 -0.096704 -0.122390 0.128494 0.032747 0.106418 0.133515 0.037608 -0.254423 -0.194442 0.064917 -0.042041 0.204068 -0.165644 -0.243212 0.138044 0.210293 0.185094 -0.487439 -0.325532 -0.185636 0.065028 0.395311 0.269290 -0.001396 0.121676 0.003179 -0.036022 0.233816 0.261748 0.243272 -0.474582 0.021873 0.089524 0.289208 0.117653
thin 0.040811 -0.518418 0.276622 0.319215 0.160522 -0.387994 0.202181 -0.799125 -0.235532 0.414972 0.110795 -0.045790 0.277350 -0.463487 0.229528 0.462682 -0.155297 0.066998 0.170076 0.334358 -0.727045 0.062752 0.088713 0.477342 0.046193 -0.099972 0.356293 0.070669 0.145777 -0.001375 0.617557 0.320948 -0.021891 0.114974 0.297611 0.280388 -0.055722 0.381360 0.210231 -0.039581 -0.022518 0.185571 0.250651 0.155151 -0.414105 -0.601317 -0.152250 -0.196107 0.160602 0.528088 0.076821 0.131053 0.513367 -0.156856 0.597084 -0.614458 0.464590 0.180123 -0.339567 -0.506404 0.107441 -0.071149 0.158244 0.186869 0.616116 -0.392540 -0.165676 0.042553 0.203415 0.252011 -0.402566 -0.362741 -0.466360 0.109910 -0.167105 0.455074 0.318695 0.283516 -0.633863 -0.326315 0.354188 0.137580 -0.185178 -0.310786 0.201315 0.488519 0.387487 0.154218 -0.096129 0.040908 -0.463324 0.196266 0.078609 0.138578 0.013035 0.369817 -0.377110 0.112099 0.428664 0.234122
it -0.194592 -0.168112 0.127212 -0.025830 -0.169240 0.612551 0.020510 -0.041822 0.138738 -0.700588 -0.009054 -0.178911 -0.048789 -0.011090 -0.201241 -0.105257 0.106397 -0.059398 0.097448 0.372605 0.202825 -0.589338 -0.069397 -0.474127 -0.061582 0.394437 -0.029445 -0.116598 0.251931 0.000025 -0.002088 0.325102 -0.143316 -0.136515 0.042159 -0.124053 -0.116656 0.110492 0.105624 -0.259552 -0.178226 0.067115 0.449469 0.017863 -0.144566 -0.388529 0.192068 0.039377 0.553279 0.204024 0.231001 -0.079959 -0.092962 0.163408 0.226728 -0.322101 -0.248597 0.039966 -0.122147 -0.133890 -0.072613 0.243014 -0.040814 -0.065858 -0.090721 -0.010004 -0.151786 0.063720 0.036967 0.092079 0.237567 0.080024 -0.222885 -0.136083 0.003691 -0.001150 0.129792 -0.099447 -0.207706 0.117214 0.159945 0.110955 -0.353835 -0.271895 -0.152722 0.078016 0.282015 0.174437 -0.253464 0.188561 0.097792 0.095249 0.110366 0.148059 0.216878 -0.244289 -0.061754 0.182405 0.213839 0.050357
nice -0.007385 -0.291173 0.270526 0.181886 -0.210014 0.038423 0.134199 -0.292593 -0.005371 -0.071434 0.152841 0.005921 0.150065 -0.153401 0.154244 0.249934 -0.005831 -0.214983 0.108140 0.408231 -0.313008 -0.181947 0.062545 -0.047273 0.020140 0.042753 0.000037 0.063211 0.093139 0.001061 0.137609 0.475748 -0.016777 -0.109731 0.200161 0.076520 -0.057179 0.278543 -0.013349 -0.109304 -0.075019 -0.032099 0.275006 0.113212 -0.309538 -0.474000 0.221625 0.060607 0.474554 0.370506 0.044888 0.037155 0.305919 -0.065720 0.337035 -0.649143 0.080154 0.273511 -0.321147 -0.245700 0.214538 0.176647 0.126608 0.170610 0.122752 -0.367253 -0.218866 0.003282 0.005190 0.405557 -0.102546 -0.101244 -0.279313 -0.054468 -0.162525 0.310575 0.335198 0.183959 -0.314910 -0.201697 0.147104 0.186505 -0.201338 -0.243241 0.133649 0.213560 0.565844 0.140100 -0.110220 0.159619 -0.086011 0.103236 0.207357 0.063137 0.143276 0.013219 -0.344862 0.076353 0.341695 0.155870
medium 0.093787 -0.638366 0.253541 0.316521 0.272496 -0.533874 0.217865 -0.780965 -0.332477 0.629328 0.089727 -0.021696 0.292346 -0.461196 0.292030 0.402591 -0.156345 0.067819 0.030187 0.270223 -0.815934 0.302731 0.113143 0.615555 0.036525 -0.223925 0.369164 0.110056 0.096568 0.003401 0.541057 0.277091 -0.011219 0.155047 0.282618 0.276339 -0.022682 0.415132 0.222556 0.016120 0.025571 0.219281 0.139040 0.166520 -0.321734 -0.398270 -0.220550 -0.202361 0.045590 0.540658 -0.039763 0.074007 0.556714 -0.107929 0.589641 -0.607663 0.648183 0.106335 -0.250730 -0.548876 0.125541 -0.103461 0.119151 0.217252 0.627286 -0.349747 -0.149760 0.040203 0.216506 0.277979 -0.493246 -0.342402 -0.453839 0.149382 -0.175826 0.494477 0.189928 0.294446 -0.628926 -0.325803 0.329669 0.117158 -0.088504 -0.242857 0.229773 0.444320 0.335183 0.190057 -0.007776 0.046190 -0.445784 0.186379 0.038079 0.141147 -0.049022 0.513757 -0.434186 0.083163 0.364025 0.182638
rate -0.197080 0.158280 0.134753 -0.250066 -0.197440 0.819739 0.124518 0.375292 0.233924 -0.632884 0.200981 -0.165394 0.042078 0.112785 -0.048656 -0.110493 0.075903 -0.073040 -0.003322 0.425223 0.170148 -0.668752 0.240688 -0.357868 -0.081195 0.283817 -0.235240 -0.226806 0.251608 -0.009476 -0.163637 0.164563 0.136020 -0.352421 0.013144 -0.089074 -0.108505 -0.018928 -0.034984 -0.019432 -0.238680 -0.131661 0.277956 0.080226 -0.031137 -0.338816 0.223389 0.199701 0.276683 -0.060727 0.173369 0.054366 -0.262346 -0.108342 -0.006087 -0.178022 -0.432911 0.003238 0.019419 0.156177 -0.006677 0.436238 0.166119 -0.047669 -0.011571 -0.116182 -0.065975 -0.021686 -0.118539 -0.002605 0.288331 0.187596 0.048664 -0.184099 -0.007331 -0.302726 0.149392 0.114940 0.205722 0.071854 0.067308 0.021574 -0.304608 -0.079337 0.103438 0.108268 0.165541 -0.089877 -0.338542 0.166219 0.174041 0.205067 -0.016328 0.025586 0.296998 -0.075101 -0.051438 0.303708 -0.113594 0.075582
slightli 0.055078 -0.639265 0.255427 0.398974 0.046677 -0.234038 -0.011036 -0.626205 -0.383266 0.016666 -0.040119 -0.019932 -0.084674 -0.229925 -0.017751 -0.103025 0.004645 -0.258391 0.015110 0.182595 -0.355460 0.029149 -0.256470 0.050157 0.043146 0.154504 0.331437 0.094846 -0.108278 0.120246 0.295510 0.428088 -0.311190 0.259301 0.213156 -0.086818 0.018555 0.307433 0.130206 -0.292805 0.045794 0.173675 0.397621 0.028472 -0.135130 -0.181376 0.009474 -0.099522 0.577208 0.529376 -0.007248 -0.148207 0.429402 0.262484 0.504798 -0.485434 0.435189 0.251934 -0.394098 -0.550933 0.070375 -0.090605 -0.160852 0.124818 0.065724 -0.008810 -0.162884 0.010565 0.127259 0.364503 -0.334828 -0.175688 -0.540422 0.095544 -0.097216 0.448174 -0.013749 -0.041209 -0.620911 -0.082947 0.280314 0.155556 -0.190679 -0.221732 -0.065988 0.120258 0.451608 0.414096 0.190253 0.062207 -0.139976 -0.184621 0.326024 0.231022 -0.033849 -0.034610 -0.326583 -0.045127 0.519843 0.068489
malti 0.148792 -0.470957 0.261985 0.487863 0.023535 -0.574058 -0.104714 -0.676716 -0.462813 0.223697 -0.033648 0.160133 -0.166996 -0.234200 0.000945 -0.092919 -0.036130 -0.351103 0.049981 0.061502 -0.459512 0.151866 -0.338956 0.194799 0.114318 0.027809 0.346134 0.233976 -0.321247 0.145904 0.340985 0.401169 -0.317606 0.426552 0.199928 -0.081223 -0.032808 0.263855 -0.056515 -0.260216 0.073482 0.108578 0.289619 0.021314 -0.213588 -0.147995 0.058946 -0.107847 0.500919 0.482687 -0.131414 -0.132455 0.577093 0.218480 0.413818 -0.373642 0.525047 0.380404 -0.512283 -0.566104 0.127349 -0.242887 -0.178310 0.239074 -0.012022 0.052207 -0.112780 -0.060830 0.054152 0.429902 -0.410084 -0.226390 -0.506635 0.177245 -0.076676 0.536620 0.011000 -0.012459 -0.567433 -0.117255 0.197604 0.226866 -0.098714 -0.107383 -0.076240 0.008866 0.441404 0.394744 0.300990 0.012353 -0.118512 -0.373415 0.364952 0.207110 -0.095654 -0.036324 -0.250559 -0.156898 0.575949 0.082742
corn 0.146080 -0.460168 0.209169 0.471849 0.061313 -0.518955 -0.079161 -0.582139 -0.534584 0.217010 -0.069480 0.117752 -0.244311 -0.158662 -0.034229 -0.155351 -0.032050 -0.327718 0.051864 -0.097508 -0.387207 0.190794 -0.359886 0.155131 0.020149 0.054370 0.335926 0.193477 -0.366186 0.146998 0.248936 0.313156 -0.343752 0.446752 0.207220 -0.102167 -0.036676 0.162112 -0.092584 -0.296370 0.103815 0.032689 0.177909 -0.040656 -0.191776 -0.082991 0.066687 -0.155347 0.480155 0.427408 -0.150198 -0.087207 0.521926 0.244115 0.341393 -0.242924 0.475196 0.328917 -0.420527 -0.524299 0.107258 -0.254672 -0.176867 0.231722 -0.048305 0.164482 -0.056688 -0.094042 0.043702 0.317233 -0.360963 -0.138823 -0.487142 0.130672 -0.113961 0.440562 -0.138078 -0.049435 -0.487373 -0.063068 0.157321 0.191442 -0.046774 -0.016194 -0.081905 -0.080117 0.383051 0.413619 0.291183 -0.014784 -0.062768 -0.422912 0.314316 0.195634 -0.060605 -0.039637 -0.202562 -0.182245 0.498082 0.079554
green 0.042259 0.147848 -0.105070 0.157332 -0.544168 0.563616 0.043870 0.271484 -0.090135 -0.457556 0.372461 -0.313416 0.105844 0.348560 0.120086 0.056295 0.036291 -0.662078 0.032454 0.313947 0.205944 -0.307773 0.390250 -0.239017 -0.181780 0.186753 -0.112199 -0.224828 0.161445 0.353437 -0.106425 0.304745 0.066661 -0.397059 -0.029245 -0.134739 0.075512 0.205006 -0.112550 -0.233305 0.100984 -0.333726 0.187225 -0.027460 0.214029 -0.280096 0.725886 0.243306 0.721045 -0.051847 0.284713 -0.019102 0.161125 -0.334061 0.253804 -0.539401 -0.255681 0.275129 -0.340435 0.089432 0.218954 0.432191 0.232786 0.094510 -0.108475 -0.402648 -0.288973 -0.101924 -0.038960 0.351029 0.118694 0.272287 -0.322938 -0.218584 -0.389050 -0.207072 -0.087434 0.166633 0.048461 -0.040439 -0.165537 -0.064526 -0.095589 -0.403908 0.190300 0.068608 0.637746 0.399020 0.008004 -0.095880 0.181460 0.124147 0.323524 -0.325716 0.106173 -0.243174 -0.397404 0.237529 0.138291 0.313648
averag -0.132669 -0.390374 0.269703 0.092524 0.130307 0.080147 0.136054 -0.379811 0.018219 0.077685 0.157299 -0.196140 0.308346 -0.339979 0.147044 0.371360 -0.073551 0.107905 0.015224 0.443751 -0.395306 -0.167765 0.166790 0.119652 -0.016299 0.047332 0.119922 -0.123824 0.271823 -0.043768 0.228183 0.285819 0.027154 -0.068008 0.120858 0.170054 -0.084906 0.294680 0.165126 -0.132493 -0.211525 0.113535 0.203440 0.126820 -0.326127 -0.534717 -0.074392 -0.053900 0.170360 0.342310 0.077603 0.109645 0.123678 -0.064350 0.467798 -0.537437 0.160729 0.010928 -0.172636 -0.261818 0.081020 0.141044 0.120796 0.056835 0.475843 -0.303650 -0.215302 -0.016791 0.099050 0.234517 -0.183305 -0.146039 -0.312313 -0.049789 -0.180144 0.305330 0.311041 0.194004 -0.433573 -0.068573 0.328767 0.121037 -0.293478 -0.183223 0.089181 0.448259 0.312811 0.088748 -0.364922 0.203977 -0.329499 0.240175 -0.091808 0.014295 0.078481 0.290893 -0.276750 0.278472 0.254178 0.182690
aftertast -0.140794 -0.366899 0.142694 0.190610 0.164812 0.156318 0.044940 -0.456495 -0.283754 -0.308396 -0.105598 -0.254632 -0.222311 -0.225578 -0.179233 -0.252092 -0.044451 0.022606 0.096218 0.213348 -0.031286 -0.268390 -0.223692 -0.104188 -0.041491 0.420544 0.366871 -0.026439 0.057795 0.068232 0.345092 0.254085 -0.325667 0.259996 0.199381 -0.109301 -0.135503 0.165676 0.237672 -0.326903 -0.083967 0.139182 0.518386 -0.018021 -0.201783 -0.290944 -0.135256 -0.240546 0.447089 0.308178 0.132546 -0.213405 0.104535 0.318051 0.512659 -0.273844 0.154820 0.093000 -0.215944 -0.377536 -0.110390 -0.047080 -0.211182 -0.063971 0.068206 0.242642 -0.030726 -0.022438 0.121920 0.013535 -0.043675 -0.075247 -0.431701 0.019636 0.066425 0.165324 -0.177108 -0.221367 -0.554529 0.071621 0.379893 0.039728 -0.158817 -0.158428 -0.189586 0.018555 0.222986 0.393967 -0.068207 0.120214 -0.146451 0.005959 0.020929 0.230117 -0.032207 -0.087675 -0.077008 0.137515 0.369999 0.045608
brew -0.134905 0.001665 0.095115 -0.042306 -0.200396 0.523410 0.097732 0.168502 0.188342 -0.335500 0.207487 -0.162032 0.075966 0.028231 0.057082 0.130136 0.024344 -0.064843 -0.015586 0.335726 0.073341 -0.379799 0.171860 -0.355754 -0.109059 0.176046 -0.172150 -0.136874 0.247312 -0.030218 -0.150661 0.265109 0.009912 -0.275185 -0.007717 -0.060076 -0.058413 0.097345 0.057933 -0.127174 -0.113226 -0.106183 0.154265 0.053227 -0.115175 -0.337119 0.274174 0.154803 0.371370 0.082204 0.127562 0.038041 -0.075042 -0.055832 0.081419 -0.350056 -0.229969 0.036953 0.017586 0.091369 0.110257 0.320440 0.076252 0.014232 -0.004582 -0.187510 -0.183786 -0.021535 -0.051685 0.153632 0.138242 0.122775 -0.085235 -0.193742 -0.128964 -0.026626 0.206528 0.105383 -0.017536 0.055757 0.006039 0.098607 -0.239499 -0.084753 0.057048 0.169510 0.371617 0.027532 -0.275536 0.134245 0.029989 0.195522 0.042404 0.006237 0.207295 -0.074192 -0.104907 0.184522 0.039112 0.093324
pretti -0.089693 -0.298340 0.245109 0.142097 -0.157731 0.276582 0.007437 -0.235008 0.023981 -0.417262 0.060597 -0.083867 -0.004570 -0.128513 -0.067157 0.071481 0.081840 -0.210452 0.086923 0.363781 -0.084982 -0.393533 -0.109254 -0.307118 0.012954 0.285656 0.039361 -0.053284 0.180073 0.076876 0.061497 0.427350 -0.136635 -0.083629 0.138274 -0.041372 -0.075164 0.193619 0.138773 -0.246065 -0.082497 0.070899 0.394793 0.047975 -0.106644 -0.321905 0.222912 0.100175 0.567142 0.378015 0.205484 -0.065746 0.135770 0.104655 0.279805 -0.421602 -0.058435 0.176792 -0.276855 -0.228808 0.023299 0.117749 0.002441 0.026649 -0.041352 -0.162396 -0.182408 0.023265 0.038170 0.220998 -0.081488 -0.011473 -0.288282 -0.084229 0.010482 0.189210 0.217866 -0.025905 -0.335501 0.033479 0.169175 0.143912 -0.308687 -0.237121 -0.095250 0.130008 0.434534 0.209642 0.007801 0.135629 -0.053159 -0.028235 0.234292 0.144458 0.138562 -0.222210 -0.175739 0.082548 0.335670 0.104602
time -0.144630 0.170810 0.031680 -0.110749 -0.305002 0.604666 0.086324 0.393560 0.185503 -0.516263 0.165381 -0.049048 -0.011808 0.151014 -0.018373 -0.073047 0.121114 -0.168786 0.008161 0.237194 0.256217 -0.447224 0.219937 -0.338768 -0.128030 0.141261 -0.194930 -0.121618 0.207086 -0.001428 -0.170797 0.147685 0.034482 -0.335507 -0.104588 -0.123242 -0.060068 0.009278 0.038276 -0.041016 0.008668 -0.143201 0.148394 0.021967 0.081548 -0.178481 0.300882 0.209803 0.329868 0.018687 0.147669 -0.036470 -0.150422 -0.136677 -0.056828 -0.125155 -0.361685 0.073842 0.077747 0.188793 0.048599 0.316961 0.138467 -0.081663 -0.161315 -0.093603 -0.156347 0.025022 -0.041251 0.130366 0.244320 0.118789 0.006376 -0.176396 -0.027476 -0.272178 0.113899 0.132837 0.134575 0.111163 -0.114544 0.029773 -0.097474 -0.119129 0.069477 0.014129 0.120363 -0.033561 -0.097256 0.071321 0.218049 0.145177 0.028036 0.018640 0.197771 -0.114866 0.053615 0.150254 -0.070686 0.065575
macro -0.236162 -0.244324 0.175817 -0.074086 0.091224 0.555740 0.037480 -0.023610 0.275931 -0.321966 0.086039 -0.380776 0.178517 -0.138265 -0.047995 0.267218 -0.048367 0.135399 -0.125596 0.390283 0.057089 -0.391921 0.071241 -0.518608 -0.123747 0.302957 -0.209763 -0.284426 0.203405 -0.143772 -0.267880 0.309143 -0.104551 -0.158876 -0.003830 -0.028181 0.003725 0.137316 0.045272 -0.331875 -0.312470 -0.013558 0.136015 0.039158 -0.268552 -0.387721 0.139384 0.118160 0.387068 0.093264 0.002837 0.024478 -0.249384 0.253380 0.225747 -0.464865 -0.122956 -0.132659 0.088445 0.085131 0.057601 0.391788 -0.126698 0.021684 0.134338 -0.109293 -0.281377 -0.126850 -0.068192 0.180451 0.128172 0.166142 -0.125781 -0.264806 -0.286184 0.338956 0.286203 -0.101982 -0.135434 0.181498 0.201632 0.131623 -0.437332 -0.001824 -0.097593 0.309336 0.484316 0.111106 -0.628460 0.265099 -0.153673 0.202519 -0.103811 -0.008316 0.146194 -0.029263 -0.234582 0.248847 0.085732 0.028747
crisp -0.006732 -0.566556 0.232649 0.264944 0.147595 -0.118564 0.046122 -0.597781 -0.347913 -0.051690 -0.134387 -0.166224 -0.066971 -0.266731 -0.072811 -0.036634 -0.026864 -0.052704 0.034650 0.114281 -0.303036 0.020011 -0.249087 0.007808 -0.056262 0.244000 0.300102 0.005285 -0.059764 0.094320 0.232086 0.289052 -0.278241 0.241178 0.273716 0.024743 0.005707 0.226913 0.163807 -0.290775 -0.020696 0.106626 0.355434 -0.017563 -0.212208 -0.262128 -0.098674 -0.230941 0.398410 0.468508 -0.004671 -0.129816 0.323525 0.288954 0.501670 -0.463553 0.354247 0.108121 -0.279900 -0.426686 -0.016755 -0.054422 -0.147131 0.116444 0.158281 0.079900 -0.092620 -0.031618 0.146079 0.186612 -0.186647 -0.100830 -0.459775 0.054825 -0.066040 0.377726 -0.088729 -0.146474 -0.520034 -0.062654 0.354128 0.086098 -0.173745 -0.202652 -0.060587 0.072262 0.389000 0.424718 -0.007704 0.107079 -0.188274 -0.028218 0.121401 0.160334 0.021776 0.056078 -0.328640 0.026746 0.460867 0.035347
think -0.164302 0.054912 0.101386 -0.135643 -0.220863 0.681009 -0.022661 0.175133 0.177266 -0.778237 -0.001477 -0.152456 -0.124760 0.108592 -0.254026 -0.115583 0.176428 -0.120147 0.105359 0.282481 0.388595 -0.713071 -0.034303 -0.492450 -0.055181 0.370624 -0.165956 -0.138686 0.206278 -0.004205 -0.115321 0.182305 -0.088009 -0.190396 0.001383 -0.188812 -0.101956 -0.029775 0.044372 -0.172512 -0.103008 -0.003462 0.374622 0.019225 -0.039555 -0.208419 0.316060 0.142553 0.463442 0.086952 0.275074 0.004771 -0.216165 0.082393 0.074527 -0.039156 -0.383498 0.009884 -0.033004 0.054254 -0.062176 0.251692 0.008781 -0.123439 -0.202310 0.016317 -0.121000 0.075108 -0.018326 0.038856 0.285525 0.154137 -0.060894 -0.166580 -0.017481 -0.184246 0.138203 -0.090104 -0.004126 0.197558 0.063673 0.026009 -0.345118 -0.212719 -0.155817 0.028534 0.177597 0.110390 -0.148366 0.103975 0.154875 -0.004845 0.077103 0.072553 0.194881 -0.322813 0.088335 0.154146 0.156085 0.069964
grain 0.200436 -0.515325 0.216517 0.478999 0.054222 -0.652756 -0.079722 -0.634614 -0.574890 0.314453 -0.078951 0.185410 -0.188413 -0.172760 -0.000453 -0.111300 -0.037940 -0.340915 0.066154 -0.145541 -0.458865 0.312660 -0.358299 0.220470 0.044679 -0.010650 0.342108 0.231694 -0.406925 0.164359 0.280352 0.281658 -0.330628 0.478161 0.230323 -0.071178 0.022691 0.193053 -0.087518 -0.247134 0.156040 0.038155 0.129622 -0.041488 -0.179409 -0.033309 0.025101 -0.179059 0.408040 0.461171 -0.171221 -0.100381 0.627450 0.214720 0.326755 -0.261980 0.547676 0.322923 -0.408807 -0.545748 0.117155 -0.309295 -0.148157 0.255496 -0.014854 0.094437 -0.052153 -0.081363 0.081109 0.336147 -0.429460 -0.167208 -0.476242 0.175487 -0.107422 0.477877 -0.112304 -0.022650 -0.469721 -0.109284 0.166225 0.199557 -0.007980 -0.037694 -0.051120 -0.083952 0.376042 0.404079 0.374077 -0.037228 -0.088968 -0.423671 0.346543 0.204055 -0.091367 0.042830 -0.254224 -0.234762 0.499532 0.066996
great -0.208633 -0.065518 0.227873 -0.067952 -0.200970 0.482002 -0.035734 -0.030432 0.199204 -0.605022 0.061059 -0.149639 -0.026855 -0.046689 -0.169516 0.029994 0.145636 -0.059304 0.096784 0.418755 0.206716 -0.654089 -0.052223 -0.441344 0.041988 0.361594 -0.103268 -0.050756 0.261953 -0.014455 0.004777 0.441588 -0.037416 -0.156735 0.069098 -0.015765 -0.157025 0.094984 0.030817 -0.138205 -0.149580 0.038120 0.424684 0.070029 -0.152873 -0.304980 0.247917 0.160958 0.478792 0.162554 0.213132 0.005656 -0.170481 0.125071 0.137257 -0.237123 -0.295226 0.086711 -0.175889 -0.038728 -0.018654 0.242009 -0.034546 -0.114889 -0.083276 -0.120591 -0.132028 0.069795 -0.055639 0.124516 0.098165 0.039687 -0.055640 -0.153123 0.014767 0.034924 0.273724 -0.034907 -0.171495 0.098478 0.143345 0.128062 -0.395104 -0.225165 -0.170461 0.066983 0.297483 0.035977 -0.220771 0.172254 -0.004383 0.016080 0.101054 0.061832 0.177454 -0.375933 -0.007281 0.157253 0.199902 0.078514
best -0.224193 0.087453 0.146293 -0.181230 -0.242997 0.775790 0.053459 0.311362 0.327680 -0.687395 0.088058 -0.176141 0.095807 0.067386 -0.114664 -0.023790 0.115505 -0.030758 -0.009492 0.401677 0.329377 -0.590384 0.124819 -0.532503 -0.071677 0.310989 -0.239250 -0.196227 0.340946 -0.079815 -0.204280 0.292985 0.061433 -0.338484 -0.068301 -0.083055 -0.140105 0.051992 0.011707 -0.106463 -0.184354 -0.059131 0.259613 0.026309 -0.110546 -0.295886 0.254304 0.191472 0.374197 0.012879 0.168833 -0.001041 -0.318255 0.032508 0.027399 -0.237682 -0.439920 -0.040466 0.017478 0.171001 -0.000713 0.419176 0.039251 -0.146457 -0.079139 -0.094740 -0.157378 0.034488 -0.072722 0.100393 0.316407 0.172618 0.036539 -0.236895 -0.074134 -0.168182 0.242659 0.020818 0.051679 0.147866 0.034003 0.068504 -0.314728 -0.137041 -0.079534 0.092361 0.207012 -0.066226 -0.375378 0.226197 0.122537 0.184244 -0.031293 -0.021607 0.261606 -0.192224 0.008689 0.283377 0.006510 0.050291
decent -0.090014 -0.235135 0.252454 0.143006 -0.101564 0.079062 0.080847 -0.272582 0.027487 -0.101128 0.154805 -0.053791 0.095465 -0.163835 0.065517 0.202413 -0.028606 -0.104673 0.057662 0.397513 -0.206080 -0.295725 0.044974 -0.099834 0.013419 0.091542 0.005242 0.007920 0.066970 -0.040950 0.114889 0.418449 -0.073703 -0.058499 0.121543 0.016342 -0.106307 0.213922 -0.030221 -0.153917 -0.146284 0.022611 0.249577 0.114174 -0.325857 -0.443779 0.176114 0.091640 0.456055 0.305940 0.033326 0.058835 0.147875 0.033358 0.278239 -0.494884 0.074311 0.215567 -0.236164 -0.203767 0.166961 0.162062 0.043039 0.107649 0.098867 -0.221585 -0.225118 -0.004348 -0.020594 0.330486 -0.055903 -0.049769 -0.248044 -0.090303 -0.175580 0.323964 0.333296 0.119412 -0.329125 -0.065836 0.141509 0.194399 -0.255241 -0.152210 0.043586 0.232797 0.489122 0.095752 -0.230332 0.149183 -0.101191 0.043629 0.155809 0.104014 0.122992 -0.023730 -0.194777 0.103871 0.307076 0.144066
refresh -0.134205 -0.350417 0.168455 0.063709 0.090633 0.253153 0.016518 -0.336596 -0.139492 -0.366708 -0.131908 -0.253728 -0.134439 -0.141159 -0.178956 -0.179198 0.009437 0.072918 0.058544 0.199951 0.047016 -0.270835 -0.197718 -0.187593 -0.056597 0.379791 0.207393 -0.080689 0.096181 0.009019 0.138169 0.255296 -0.222567 0.143583 0.152175 -0.034674 -0.101852 0.147853 0.139731 -0.280988 -0.161335 0.122979 0.432404 -0.040026 -0.222898 -0.259464 -0.057605 -0.152701 0.392907 0.256170 0.084081 -0.150751 -0.020214 0.324502 0.394164 -0.252835 0.069292 -0.002179 -0.163751 -0.281111 -0.086715 0.050657 -0.204857 -0.048134 0.036065 0.189432 -0.050897 -0.008641 0.064914 0.033634 0.046880 0.002159 -0.314915 -0.034721 -0.016375 0.163599 -0.086277 -0.197165 -0.380110 0.076030 0.308590 0.037086 -0.200372 -0.146086 -0.201760 0.014948 0.210469 0.268280 -0.197692 0.160309 -0.064674 0.019882 0.005311 0.134187 0.040042 -0.121243 -0.123608 0.113722 0.299702 -0.008416
go -0.203073 0.036714 0.079603 -0.113610 -0.149334 0.632772 0.058071 0.151128 0.141970 -0.616812 0.015660 -0.196300 -0.118784 0.059589 -0.168695 -0.137763 0.110257 -0.012426 0.085097 0.257947 0.293592 -0.540572 -0.026126 -0.447903 -0.081608 0.359352 -0.082366 -0.110284 0.220794 -0.000672 -0.087783 0.212852 -0.117081 -0.158557 0.026574 -0.128748 -0.116041 0.010725 0.103097 -0.173047 -0.114298 -0.033525 0.324412 -0.003466 -0.057697 -0.236249 0.205311 0.075667 0.411015 0.057894 0.198879 -0.066146 -0.191777 0.098624 0.092737 -0.109947 -0.322117 0.007878 0.022562 0.041730 -0.049420 0.232748 -0.057574 -0.100765 -0.158748 0.060474 -0.096799 0.037229 -0.024948 -0.017671 0.253242 0.128982 -0.080017 -0.188903 0.014458 -0.157460 0.060282 -0.066600 -0.067205 0.165019 0.074652 0.037904 -0.221101 -0.126086 -0.120226 0.011787 0.137750 0.104972 -0.224475 0.118597 0.108322 0.068366 0.017940 0.091745 0.161237 -0.265951 0.068760 0.150307 0.064891 0.047643
water -0.125486 -0.240654 0.153820 0.092073 0.004919 0.290004 0.075277 -0.164023 -0.134378 -0.275715 -0.048723 -0.127896 -0.172656 -0.066506 -0.070358 -0.220977 0.043575 -0.035999 0.047808 0.182845 0.102172 -0.231246 -0.105311 -0.190542 -0.087026 0.250404 0.185794 0.016193 0.069528 0.001329 0.087696 0.240100 -0.206086 0.137761 0.065779 -0.096504 -0.055355 0.084787 0.090023 -0.238321 -0.084842 -0.001182 0.413709 -0.097722 -0.128579 -0.207727 0.026149 -0.099126 0.456163 0.258930 0.087728 -0.197147 0.033597 0.187503 0.268770 -0.155715 0.019302 0.150753 -0.107237 -0.265912 -0.008921 0.020323 -0.120207 -0.053961 -0.077963 0.195594 -0.047583 0.068426 -0.003139 0.077905 0.054845 -0.018149 -0.286257 -0.044012 -0.034481 0.052285 -0.071291 -0.036902 -0.343220 0.117045 0.147386 0.072402 -0.070277 -0.178171 -0.175571 -0.009019 0.161173 0.219182 -0.057305 0.120362 0.065375 -0.087037 0.127220 0.167159 0.068307 -0.139045 -0.070891 0.073143 0.200824 0.004884
don -0.317963 0.185324 0.078040 -0.064649 -0.153982 0.650595 0.247630 0.217427 0.176977 -0.541167 0.203033 -0.124663 -0.303660 0.172804 -0.293396 0.017570 0.174675 -0.163603 0.121274 0.146625 0.267643 -0.854280 0.083136 -0.457902 -0.287042 0.331224 -0.229713 -0.146487 -0.037020 0.015064 -0.154030 0.089860 -0.254314 -0.378336 0.165407 -0.432488 -0.072620 -0.215760 0.155988 -0.104141 0.120673 -0.071104 0.189780 0.180320 0.158778 -0.205659 0.465888 0.313389 0.435415 0.292317 0.325152 0.191990 -0.190353 -0.081835 -0.184126 0.100049 -0.304640 0.000838 0.282520 0.260121 0.080166 0.187277 0.122444 -0.059398 -0.294925 -0.020856 -0.128889 0.143378 -0.031290 -0.075121 0.226236 0.154624 -0.228080 -0.428487 -0.079065 -0.299016 0.099855 -0.034368 -0.031323 0.215857 0.014726 0.237080 -0.309210 -0.069714 0.171376 0.131120 0.316172 0.173575 0.064823 -0.079731 0.031667 -0.034291 0.143149 0.283645 0.293184 -0.182140 0.381400 0.080020 0.032573 0.197607
palat -0.022966 -0.508996 0.170062 0.211926 0.259301 -0.127094 0.059643 -0.581941 -0.308433 0.008641 -0.146225 -0.199829 -0.044508 -0.282421 -0.075553 -0.009759 -0.026757 0.040822 0.055207 0.084838 -0.293416 0.019867 -0.217906 0.107840 -0.030211 0.226774 0.330893 -0.023945 0.016636 0.065631 0.305628 0.188188 -0.241315 0.252987 0.260927 0.031144 -0.011545 0.188426 0.220652 -0.233261 -0.028548 0.174095 0.322328 0.010713 -0.200903 -0.211012 -0.172242 -0.264077 0.242905 0.381245 0.037577 -0.096499 0.235461 0.232113 0.468458 -0.305254 0.329950 0.007429 -0.207276 -0.394181 -0.086503 -0.110414 -0.133284 0.046631 0.238224 0.106499 -0.025360 -0.031138 0.175102 0.032297 -0.206077 -0.106161 -0.412622 0.073336 0.009957 0.281566 -0.093608 -0.152041 -0.513189 -0.026324 0.376398 0.035420 -0.141548 -0.162702 -0.069151 0.120007 0.221142 0.370234 0.002958 0.074006 -0.264247 -0.011671 0.031252 0.163701 -0.034210 0.095003 -0.228729 0.060113 0.374105 0.065109
even -0.150565 -0.082607 0.116603 -0.050891 -0.136399 0.523421 -0.027544 0.014873 0.100491 -0.607782 -0.006277 -0.156049 -0.107783 0.015612 -0.202113 -0.048055 0.130254 -0.096996 0.085549 0.248003 0.222744 -0.518229 -0.086495 -0.417599 -0.039055 0.343416 -0.084418 -0.107991 0.191361 0.040650 -0.069512 0.235322 -0.112058 -0.119368 0.055653 -0.133264 -0.083570 0.047827 0.083520 -0.196271 -0.087870 0.025655 0.350924 0.012374 -0.071823 -0.212245 0.235286 0.083053 0.436803 0.148898 0.235077 -0.020675 -0.087595 0.130169 0.133949 -0.158843 -0.231633 0.024049 -0.087417 -0.037501 -0.064587 0.180197 -0.052228 -0.042055 -0.143777 -0.000928 -0.110205 0.031006 0.029555 0.036825 0.163733 0.091737 -0.140553 -0.127118 -0.011852 -0.082276 0.102364 -0.104788 -0.092687 0.133842 0.121904 0.073380 -0.314589 -0.195429 -0.144330 0.034518 0.212301 0.138895 -0.105114 0.115788 0.049840 0.026443 0.100334 0.100992 0.151129 -0.274667 -0.018877 0.106083 0.199167 0.082325
sai -0.221405 0.023800 0.141802 -0.100489 -0.229400 0.624586 0.058137 0.138194 0.211842 -0.634198 0.051464 -0.124523 -0.094172 0.039392 -0.159685 -0.069868 0.141975 -0.090371 0.086136 0.324683 0.236060 -0.618306 -0.034067 -0.495581 -0.016089 0.340835 -0.129410 -0.066910 0.249806 0.010667 -0.079504 0.346385 -0.084696 -0.245457 0.055816 -0.132251 -0.118154 0.062860 0.114246 -0.121263 -0.083823 -0.014945 0.336157 0.062178 -0.053912 -0.272910 0.283702 0.180309 0.491291 0.127131 0.212451 -0.030734 -0.144490 0.041205 0.062195 -0.169502 -0.355725 0.041324 -0.035643 0.055845 -0.004594 0.245368 -0.008949 -0.108120 -0.191369 -0.082175 -0.117635 0.078699 -0.044092 0.053804 0.175104 0.071451 -0.084144 -0.214348 0.046796 -0.124120 0.146299 -0.040425 -0.083115 0.134193 0.076073 0.113792 -0.298655 -0.157549 -0.095579 0.041255 0.233871 0.074453 -0.144872 0.126047 0.073114 0.063585 0.099103 0.133989 0.209345 -0.329488 0.076773 0.143702 0.090733 0.066410
small 0.208731 -0.064456 0.177229 0.271587 -0.282865 -0.661277 0.150547 -0.319606 0.060153 0.800151 0.379569 0.426247 0.411385 -0.216801 0.539837 0.697621 -0.119915 -0.129641 0.094084 0.295962 -0.658073 0.251305 0.339289 0.522990 0.193917 -0.580673 -0.047329 0.228481 -0.036244 -0.139670 0.313212 0.300466 0.287501 -0.166520 0.087695 0.340843 -0.005943 0.285689 -0.207322 0.254095 0.026402 -0.079577 -0.246990 0.210527 -0.338841 -0.474707 0.108204 0.151726 -0.009456 0.252871 -0.111428 0.302791 0.528084 -0.506087 0.075605 -0.563926 0.292011 0.448399 -0.295306 -0.197188 0.420358 0.081077 0.456671 0.366153 0.360113 -0.753927 -0.227971 0.069564 -0.022684 0.538791 -0.313848 -0.337857 -0.070380 0.088521 -0.310019 0.477883 0.691132 0.612054 -0.124401 -0.504404 -0.117130 0.279061 0.020918 -0.116894 0.466025 0.421257 0.416128 -0.294198 -0.015951 0.000122 -0.162434 0.122207 0.193381 0.008271 0.080940 0.413397 -0.267413 -0.074030 0.136703 0.251793
slight 0.084322 -0.504758 0.205491 0.407285 0.069065 -0.427308 0.016083 -0.584791 -0.483073 0.227809 -0.019772 0.048372 -0.158744 -0.202247 0.023720 -0.146915 -0.060866 -0.231320 0.018878 0.038831 -0.383039 0.180779 -0.233096 0.187433 0.009727 0.063327 0.339428 0.188280 -0.243374 0.124090 0.290083 0.322643 -0.317697 0.359686 0.197567 -0.057757 -0.041409 0.245336 0.007980 -0.231296 0.070194 0.064595 0.247814 -0.010142 -0.171299 -0.125199 -0.027955 -0.169769 0.434208 0.453501 -0.128069 -0.125627 0.482644 0.215456 0.414305 -0.359270 0.512070 0.293523 -0.321936 -0.513823 0.120706 -0.185146 -0.139483 0.178848 0.029059 0.073667 -0.081718 -0.046707 0.076670 0.295060 -0.348457 -0.165883 -0.455024 0.101183 -0.087941 0.407960 -0.106080 0.016284 -0.516229 -0.097869 0.185525 0.158949 -0.017053 -0.069868 -0.019074 -0.006214 0.381963 0.353104 0.226688 0.009617 -0.109054 -0.225489 0.277451 0.209990 -0.059613 0.036824 -0.244523 -0.102931 0.463536 0.056516
grassi 0.180427 -0.482620 0.190655 0.476677 0.069090 -0.702970 -0.088644 -0.641651 -0.583731 0.364323 -0.068910 0.199371 -0.195963 -0.205904 0.012888 -0.149406 -0.069608 -0.327084 0.033755 -0.079005 -0.460522 0.348442 -0.329290 0.278646 0.083376 -0.015942 0.362943 0.297955 -0.382689 0.183717 0.327860 0.298849 -0.336743 0.501618 0.191771 -0.051213 -0.005537 0.242117 -0.088566 -0.195678 0.134201 0.057453 0.169128 -0.030646 -0.139554 -0.010308 -0.018480 -0.180913 0.360408 0.414587 -0.224232 -0.158156 0.591994 0.237934 0.352333 -0.308389 0.581755 0.347938 -0.406177 -0.555587 0.145235 -0.313272 -0.166649 0.226405 -0.010311 0.104395 -0.050424 -0.047823 0.069641 0.329759 -0.423812 -0.201396 -0.426154 0.157110 -0.039702 0.475336 -0.133082 -0.008536 -0.506039 -0.141200 0.141554 0.181873 0.062096 -0.067974 -0.049056 -0.072250 0.350464 0.350435 0.385977 -0.047495 -0.103245 -0.358875 0.350275 0.175481 -0.134775 0.009827 -0.252891 -0.218764 0.515685 0.029721
metal 0.015743 -0.439237 0.202053 0.354276 0.078946 -0.202957 -0.028100 -0.548796 -0.427796 -0.029376 -0.054537 -0.060184 -0.210026 -0.188160 -0.082073 -0.216985 -0.032619 -0.194521 0.068529 0.104175 -0.217529 -0.040483 -0.273096 0.034647 0.000490 0.224166 0.363046 0.113275 -0.165475 0.107521 0.314908 0.327088 -0.334089 0.353809 0.202705 -0.118530 -0.082494 0.214391 0.056914 -0.306691 0.013153 0.094116 0.380319 -0.007418 -0.198493 -0.185089 -0.018586 -0.176446 0.504899 0.384881 -0.018173 -0.166262 0.345744 0.284802 0.467593 -0.298425 0.362593 0.235384 -0.349992 -0.484611 0.036506 -0.139549 -0.206574 0.094835 -0.000598 0.160078 -0.079798 -0.036104 0.084354 0.225019 -0.234986 -0.133097 -0.470856 0.091790 -0.057594 0.328195 -0.126142 -0.102478 -0.550196 -0.003789 0.258606 0.132818 -0.130639 -0.115043 -0.135964 -0.019656 0.347260 0.405971 0.133257 0.040322 -0.096681 -0.214936 0.210826 0.218226 -0.061518 -0.082297 -0.175941 -0.034803 0.462766 0.063130
overal -0.152414 -0.404147 0.181931 0.090946 0.082936 0.313289 0.035741 -0.369810 -0.087874 -0.460945 -0.104472 -0.261508 -0.080676 -0.194661 -0.182057 -0.097206 0.034051 0.035821 0.094923 0.278387 -0.006185 -0.380079 -0.187771 -0.225865 -0.043777 0.416472 0.183777 -0.119719 0.168505 0.028756 0.177608 0.293500 -0.230214 0.095480 0.186326 -0.056310 -0.095028 0.158233 0.205461 -0.326454 -0.145121 0.145587 0.490986 0.004026 -0.232344 -0.374569 -0.025958 -0.154977 0.481142 0.339287 0.182216 -0.091713 0.016853 0.274291 0.455843 -0.330881 0.041454 0.008695 -0.195113 -0.315343 -0.124107 0.067849 -0.134628 -0.048927 0.091798 0.118818 -0.074751 -0.011338 0.123227 0.035003 0.029353 -0.000655 -0.366996 -0.038677 0.034246 0.180940 0.019812 -0.183131 -0.448551 0.077117 0.350033 0.066389 -0.285902 -0.244910 -0.187860 0.127643 0.269878 0.303810 -0.204260 0.166019 -0.119102 0.041166 0.041362 0.178261 0.083005 -0.106746 -0.133051 0.175204 0.362639 0.059086
mass -0.487382 -0.077733 0.150622 -0.251824 -0.149630 0.533019 0.054713 0.102622 0.440865 -0.438851 0.311623 -0.433710 0.343407 -0.154577 -0.169806 -0.024256 -0.001739 0.406295 -0.130369 0.351161 0.443898 -0.330011 0.222696 -0.475131 -0.201142 0.098621 -0.258982 -0.498262 0.163491 -0.164754 -0.450798 0.288826 -0.073158 -0.516491 -0.151911 0.326156 0.257264 -0.094942 -0.422863 -0.015081 -0.080022 -0.216132 0.018196 0.081380 -0.182987 -0.235365 0.040567 -0.108395 0.283411 -0.115390 -0.119227 -0.017898 -0.467736 0.254219 0.125172 -0.232901 -0.207878 0.064357 0.275661 0.449589 0.155913 0.220205 -0.075752 -0.201487 0.308589 0.068560 0.049340 -0.047600 -0.260393 0.210900 0.243073 0.210028 0.213874 -0.352790 -0.310623 0.110803 0.372729 -0.057683 0.138884 0.145262 -0.191497 -0.031861 -0.377574 0.118256 -0.065832 0.152152 0.365006 -0.102628 -0.801970 0.069570 -0.078268 0.188243 -0.256396 0.052714 0.164751 -0.002623 0.076506 0.527970 -0.106255 -0.180253
gold 0.247129 -0.278494 0.189958 0.146262 -0.201012 -0.425070 0.166226 -0.248122 0.114505 0.555420 0.306432 0.302000 0.551266 -0.151743 0.429773 0.800738 -0.046071 -0.241443 0.046867 0.225158 -0.700393 0.296424 0.331570 0.221509 0.079351 -0.484821 -0.227206 0.105319 0.036967 -0.009572 0.046535 0.253331 0.273908 -0.244361 0.156804 0.328397 0.195248 0.262833 -0.095419 0.192207 0.098843 -0.078181 -0.277576 0.235505 -0.184700 -0.371419 0.224449 0.225927 0.032132 0.318597 -0.131045 0.284662 0.590375 -0.406864 0.037615 -0.732139 0.218695 0.250890 -0.174309 -0.056234 0.343208 0.187654 0.416588 0.408678 0.365985 -0.844654 -0.265927 0.045594 0.076833 0.530736 -0.257023 -0.158466 -0.068161 0.006134 -0.333022 0.472631 0.621443 0.452891 -0.006183 -0.488333 -0.081298 0.239163 -0.179129 -0.267759 0.484736 0.414684 0.639422 -0.143561 0.037579 0.025644 -0.166412 0.205633 0.275617 0.009641 0.184755 0.382720 -0.545013 -0.096904 0.080692 0.209568
us -0.140522 -0.014729 0.085318 -0.073081 -0.183017 0.522202 0.054418 0.185647 0.101772 -0.498618 0.081167 -0.117006 -0.042904 0.078225 -0.081388 -0.093197 0.108446 -0.127784 0.022840 0.231842 0.210397 -0.415838 0.051694 -0.370946 -0.085510 0.242407 -0.118045 -0.137233 0.167360 0.018407 -0.122797 0.202667 -0.068672 -0.199293 -0.008901 -0.113315 -0.044841 0.040681 0.043555 -0.130279 -0.076874 -0.067305 0.239022 0.004414 -0.007274 -0.170924 0.226906 0.121684 0.381148 0.074458 0.109159 -0.055980 -0.098805 0.033140 0.084802 -0.170620 -0.255153 0.042061 0.021783 0.053162 0.028958 0.241411 0.019563 -0.063303 -0.113642 -0.034580 -0.122885 0.006244 -0.044279 0.103510 0.181911 0.126803 -0.072580 -0.158536 -0.052038 -0.097032 0.074562 0.014909 -0.004031 0.105885 0.029896 0.058989 -0.180752 -0.110297 -0.031733 0.035405 0.190702 0.079553 -0.123982 0.088684 0.109925 0.073896 0.049699 0.054075 0.147408 -0.151944 -0.013186 0.153574 0.060263 0.020175
hoppi 0.060635 -0.402753 0.208473 0.361825 0.035064 -0.325665 -0.049446 -0.561576 -0.357461 0.078322 -0.021678 0.033947 -0.127116 -0.216408 -0.034179 -0.094246 -0.044525 -0.235997 0.056323 0.143269 -0.318468 0.026399 -0.236074 0.133124 0.075935 0.099599 0.293801 0.162788 -0.171535 0.111535 0.316578 0.320022 -0.248480 0.304388 0.187873 -0.056732 -0.061451 0.238071 0.017372 -0.220063 0.031419 0.124496 0.333891 0.032344 -0.168121 -0.193022 0.019301 -0.125046 0.415908 0.393907 -0.034483 -0.117317 0.400463 0.196661 0.410794 -0.345349 0.383531 0.261626 -0.392358 -0.473231 0.061064 -0.144200 -0.137293 0.140835 0.042037 0.031209 -0.084371 -0.021061 0.072967 0.301886 -0.282626 -0.181638 -0.426466 0.118592 -0.049115 0.382582 -0.012413 -0.032731 -0.505964 -0.085686 0.209319 0.143720 -0.123765 -0.142415 -0.069962 0.036061 0.365840 0.343081 0.177370 0.033638 -0.123904 -0.205038 0.258437 0.179655 -0.078431 -0.037003 -0.213755 -0.061610 0.472967 0.071006
note 0.064862 -0.421110 0.160361 0.291464 0.112952 -0.265063 0.024912 -0.457196 -0.421829 0.108004 -0.074275 -0.029851 -0.142589 -0.172059 -0.002040 -0.171315 -0.043158 -0.157997 0.007042 0.012790 -0.284152 0.150124 -0.205903 0.126005 -0.030537 0.108563 0.305156 0.107693 -0.161897 0.112490 0.239405 0.240080 -0.253033 0.313261 0.174385 -0.034201 -0.032532 0.195003 0.033992 -0.202323 0.038335 0.048004 0.236994 -0.031376 -0.136964 -0.088422 -0.047282 -0.203399 0.339784 0.324062 -0.112417 -0.149823 0.366604 0.210894 0.362222 -0.297638 0.380647 0.185830 -0.240098 -0.396312 0.046944 -0.129938 -0.155810 0.123215 0.062585 0.119589 -0.045415 -0.053663 0.084672 0.184302 -0.232645 -0.089869 -0.368558 0.084717 -0.050274 0.304200 -0.159598 -0.067478 -0.407667 -0.053672 0.206597 0.078443 -0.020533 -0.069831 -0.046571 -0.037348 0.267298 0.347875 0.135950 0.029711 -0.085468 -0.141486 0.166242 0.170035 -0.043340 0.046480 -0.231192 -0.045773 0.363492 0.027535
lot -0.065373 -0.211062 0.147855 0.077800 -0.046426 0.140715 -0.023671 -0.172987 -0.000254 -0.252740 0.031060 -0.070730 -0.004959 -0.078410 -0.069294 0.048373 0.069977 -0.120430 0.054878 0.193965 -0.058369 -0.266330 -0.077001 -0.124094 0.018120 0.155992 0.034421 -0.032717 0.102006 0.058432 0.052375 0.240525 -0.099276 -0.012367 0.080505 -0.049410 -0.038157 0.099522 0.053737 -0.170600 -0.073753 0.094740 0.242597 0.047701 -0.119912 -0.206308 0.129287 0.045660 0.306354 0.240311 0.121633 0.015436 0.077084 0.062157 0.199211 -0.222339 0.008361 0.044553 -0.187870 -0.178947 0.002301 0.043979 -0.015210 0.010911 0.051272 -0.065170 -0.144541 0.014895 0.018033 0.166271 -0.016882 -0.028448 -0.210051 -0.032006 -0.038082 0.119019 0.140846 0.000732 -0.250095 0.035410 0.128616 0.101157 -0.246212 -0.188665 -0.082056 0.140893 0.222691 0.153911 -0.064700 0.097567 -0.079162 -0.052117 0.111037 0.060222 0.070553 -0.103243 -0.083621 0.075527 0.236739 0.086958
straw 0.231396 -0.451985 0.242631 0.201498 -0.135731 -0.389240 0.174614 -0.299883 -0.029465 0.459004 0.264137 0.235367 0.441346 -0.121175 0.361780 0.654818 -0.025431 -0.285822 0.001867 0.167297 -0.694639 0.325480 0.238054 0.089572 0.007876 -0.365113 -0.157286 0.095669 -0.025934 0.054830 -0.008898 0.304434 0.126127 -0.162936 0.207020 0.242737 0.215184 0.302864 -0.076014 0.054113 0.118166 -0.082533 -0.221246 0.187239 -0.150215 -0.324434 0.219965 0.190217 0.191141 0.396324 -0.199467 0.182480 0.659805 -0.231874 0.092296 -0.797782 0.300435 0.249919 -0.162698 -0.115584 0.346713 0.196069 0.291047 0.447609 0.264408 -0.713456 -0.270333 0.000550 0.088742 0.524329 -0.288808 -0.093366 -0.163856 -0.037626 -0.329851 0.522439 0.458464 0.353798 -0.086072 -0.425948 -0.018232 0.266632 -0.200232 -0.226204 0.414548 0.315631 0.724519 0.014002 0.063177 0.071801 -0.144035 0.155277 0.316299 0.106564 0.208006 0.361250 -0.609047 -0.119519 0.155074 0.178505
tap -0.058983 0.106818 0.029499 -0.041263 -0.393697 0.601544 0.192131 0.415628 0.194182 -0.336309 0.361733 -0.119857 0.165616 0.163698 0.211399 0.123762 0.043316 -0.287832 -0.022629 0.361874 0.073605 -0.288578 0.389458 -0.312873 -0.162607 0.058600 -0.236966 -0.163274 0.276816 0.084879 -0.213055 0.292345 0.118557 -0.501887 -0.053080 -0.029997 -0.002752 0.148022 0.010481 -0.029867 -0.007248 -0.278099 0.071470 0.044245 0.059090 -0.298023 0.436380 0.259789 0.415212 0.025646 0.137675 0.016050 0.029518 -0.290778 0.038538 -0.473981 -0.327379 0.134401 -0.000661 0.198188 0.216661 0.437364 0.237297 0.063560 -0.048182 -0.373343 -0.236322 -0.042542 -0.072684 0.263359 0.183961 0.177086 -0.069529 -0.225952 -0.180607 -0.197457 0.124272 0.294500 0.135688 -0.050714 -0.156167 0.040997 -0.089353 -0.151450 0.264217 0.115257 0.385138 0.010972 -0.162759 0.088756 0.178086 0.273175 0.119910 -0.125545 0.226994 0.000881 -0.216001 0.226229 -0.080729 0.120858
why -0.158387 0.226329 -0.012088 -0.207022 -0.226808 0.643828 0.038095 0.358212 0.213865 -0.627850 0.085008 -0.087061 -0.123689 0.194582 -0.177065 -0.078936 0.154586 -0.099267 0.045635 0.173952 0.410603 -0.578981 0.084156 -0.469305 -0.076732 0.242202 -0.236780 -0.074164 0.185962 0.000267 -0.164418 0.066739 -0.054804 -0.258083 -0.075238 -0.183134 -0.104506 -0.141941 0.051983 -0.072260 -0.048959 -0.056142 0.155068 0.049941 0.105770 -0.098483 0.265405 0.218129 0.262345 -0.041012 0.224023 0.028062 -0.271897 -0.052186 -0.113216 0.049789 -0.452751 -0.036091 0.160281 0.243994 -0.037845 0.250956 0.067273 -0.128819 -0.217557 0.005717 -0.113708 0.062779 -0.061579 -0.053326 0.305039 0.188121 0.067232 -0.165896 0.048443 -0.327500 0.085781 0.006329 0.140472 0.164488 -0.066847 0.017583 -0.216602 -0.074225 -0.052796 -0.007970 0.027790 0.007788 -0.089394 0.037878 0.159900 0.047310 0.011128 0.048566 0.177519 -0.252017 0.193247 0.109974 -0.032293 0.028102
drinkabl -0.186218 -0.232203 0.118494 0.009361 0.040565 0.400091 0.061634 -0.180165 0.004843 -0.422102 -0.036469 -0.268587 -0.101117 -0.108645 -0.142423 -0.159602 0.005308 0.080520 0.061478 0.251817 0.094020 -0.382549 -0.090295 -0.266843 -0.081471 0.358000 0.114333 -0.129098 0.175436 -0.011661 0.078545 0.256552 -0.187438 0.016125 0.080339 -0.059515 -0.120606 0.131327 0.130696 -0.241319 -0.162294 0.078970 0.363139 -0.003197 -0.201018 -0.312212 -0.000570 -0.086578 0.407632 0.191727 0.117001 -0.100131 -0.082513 0.230482 0.305587 -0.239561 -0.050355 -0.010261 -0.076421 -0.167169 -0.078015 0.139139 -0.137376 -0.069191 0.015087 0.129103 -0.062945 -0.009382 0.044173 -0.005803 0.124179 0.037649 -0.258369 -0.107738 0.005092 0.067286 -0.009491 -0.122212 -0.299631 0.113780 0.230343 0.071636 -0.212624 -0.116756 -0.144026 0.068533 0.194041 0.179679 -0.283867 0.171208 -0.040730 0.085086 -0.015091 0.144115 0.082054 -0.113956 -0.052337 0.175556 0.198559 0.026224
hint 0.104453 -0.493077 0.136978 0.374872 0.157320 -0.461328 -0.052602 -0.582993 -0.539751 0.187161 -0.141101 0.031076 -0.231605 -0.166368 -0.068346 -0.235697 -0.046043 -0.180222 0.025506 -0.111592 -0.271639 0.242285 -0.319577 0.176903 0.004199 0.101499 0.368297 0.173446 -0.269825 0.141213 0.277438 0.208891 -0.367197 0.475369 0.184908 -0.072690 -0.018526 0.174625 -0.008883 -0.248762 0.080122 0.091281 0.233601 -0.083376 -0.129895 0.008881 -0.102174 -0.252236 0.351784 0.356031 -0.135271 -0.160827 0.408188 0.316106 0.357160 -0.202745 0.484044 0.215047 -0.272965 -0.497483 0.034125 -0.261425 -0.221120 0.128049 -0.008343 0.232134 -0.010646 -0.035446 0.105203 0.151372 -0.304029 -0.131234 -0.399956 0.139695 -0.027374 0.352174 -0.241687 -0.124957 -0.462920 -0.048774 0.204620 0.100750 0.041953 -0.041374 -0.107562 -0.104934 0.225231 0.372311 0.266243 -0.022308 -0.088803 -0.278191 0.239312 0.195053 -0.090058 -0.006008 -0.192546 -0.141133 0.453639 -0.007644
nose 0.166417 -0.297472 0.177669 0.374416 -0.049681 -0.488754 -0.065226 -0.460316 -0.348925 0.228057 0.045153 0.175947 -0.080621 -0.151105 0.034815 0.068582 -0.049929 -0.340794 0.074839 0.018474 -0.402381 0.147292 -0.212033 0.165300 0.088529 -0.023229 0.177212 0.185702 -0.281666 0.130419 0.211571 0.258716 -0.203841 0.278617 0.182367 -0.037456 -0.006734 0.173286 -0.104445 -0.170752 0.100115 0.016687 0.135118 0.042243 -0.156115 -0.129956 0.114398 -0.028131 0.348088 0.341745 -0.083805 -0.010531 0.498947 0.072584 0.262901 -0.298676 0.363665 0.305714 -0.412721 -0.378105 0.140646 -0.178695 -0.033650 0.236831 0.015213 -0.063954 -0.096067 -0.069461 0.037437 0.357777 -0.315604 -0.136348 -0.356724 0.115848 -0.076926 0.395781 0.051341 0.048100 -0.360804 -0.142875 0.096762 0.178358 -0.065747 -0.098236 0.021556 0.018560 0.407868 0.277212 0.253546 -0.018988 -0.104949 -0.283608 0.309969 0.096810 -0.067852 -0.013045 -0.222034 -0.138629 0.417990 0.112079
know -0.215489 0.222378 0.079547 -0.150230 -0.304306 0.685941 0.079176 0.348910 0.230751 -0.670978 0.150180 -0.053132 -0.158673 0.183712 -0.204893 0.014775 0.222589 -0.225093 0.092604 0.221260 0.370341 -0.723364 0.081535 -0.519448 -0.118201 0.255315 -0.268504 -0.088978 0.121065 0.028367 -0.198762 0.127905 -0.087183 -0.360621 0.022616 -0.251963 -0.093905 -0.127400 0.080746 -0.074992 0.051384 -0.101812 0.197214 0.111874 0.141498 -0.138045 0.437188 0.314579 0.401779 0.104403 0.298818 0.090142 -0.181500 -0.100619 -0.132490 0.006681 -0.443282 0.053025 0.129858 0.268613 0.033929 0.245806 0.138014 -0.088188 -0.279821 -0.124445 -0.167408 0.120612 -0.048071 0.032133 0.248769 0.162906 -0.020916 -0.262320 -0.020333 -0.324812 0.186885 0.026002 0.108343 0.193952 -0.058019 0.092920 -0.317916 -0.145871 0.014300 0.034748 0.186863 0.059186 0.049231 -0.008688 0.130544 -0.008174 0.109062 0.118417 0.241610 -0.309826 0.239636 0.083089 0.022142 0.120958
quit -0.029188 -0.318912 0.179859 0.181957 -0.006223 -0.020978 0.002554 -0.320756 -0.142975 -0.106864 -0.018298 -0.034419 -0.050628 -0.163022 -0.047022 -0.050636 0.020990 -0.121227 0.051231 0.155289 -0.171258 -0.109769 -0.155118 -0.039440 0.018599 0.143047 0.164664 0.038268 0.018685 0.061191 0.176783 0.282706 -0.163931 0.100160 0.125269 -0.017350 -0.051199 0.179060 0.089111 -0.168314 -0.032552 0.116776 0.285419 0.018270 -0.112311 -0.193639 0.031973 -0.052192 0.369100 0.319848 0.043024 -0.092706 0.203722 0.122953 0.283851 -0.294138 0.150814 0.132614 -0.228718 -0.300337 0.017562 -0.023595 -0.076776 0.044686 0.015103 -0.003893 -0.091363 0.010011 0.057384 0.169213 -0.139389 -0.088995 -0.295146 0.017383 0.011433 0.207209 0.046145 -0.002911 -0.336215 -0.019474 0.166715 0.116509 -0.135158 -0.147423 -0.068702 0.059599 0.233632 0.204489 0.046343 0.082091 -0.070769 -0.069405 0.170299 0.137461 0.023254 -0.062810 -0.143492 0.011966 0.290922 0.039300
down -0.194418 -0.052733 0.123318 -0.044157 0.016745 0.461265 0.119852 0.051862 -0.028466 -0.310302 -0.003666 -0.182111 -0.142952 -0.014022 -0.064289 -0.263753 -0.007711 0.062345 0.062096 0.199380 0.222019 -0.274916 -0.005036 -0.266379 -0.138589 0.263931 0.127313 -0.005971 0.155773 -0.045489 -0.014494 0.145360 -0.132616 0.066079 0.010824 -0.081920 -0.071101 0.025805 0.096764 -0.176536 -0.117864 -0.059437 0.354319 -0.107960 -0.089015 -0.209029 -0.016898 -0.086080 0.326464 0.112174 0.093212 -0.231015 -0.110755 0.134524 0.169358 -0.037016 -0.123000 0.078116 0.039448 -0.103633 -0.021594 0.094387 -0.115017 -0.119243 -0.122299 0.223791 0.016633 0.071613 -0.041044 -0.042284 0.167367 0.023926 -0.167099 -0.115875 -0.014137 -0.095144 -0.092032 -0.003084 -0.228265 0.170423 0.101486 0.033510 -0.014475 -0.103186 -0.178804 -0.040189 0.035734 0.113882 -0.180863 0.136859 0.097518 0.017489 -0.001693 0.135297 0.078733 -0.134508 0.032696 0.115295 -0.001541 -0.028778
dry -0.007575 -0.535827 0.111391 0.254084 0.371593 -0.241419 0.008895 -0.664860 -0.458695 0.056308 -0.236287 -0.237245 -0.189509 -0.297633 -0.125080 -0.201951 -0.085091 0.113359 0.024373 -0.008577 -0.229588 0.108866 -0.311144 0.144873 -0.037789 0.276230 0.471029 0.015609 -0.101222 0.071642 0.373439 0.110872 -0.335786 0.441877 0.245099 -0.012965 -0.015899 0.164713 0.239117 -0.273016 -0.019253 0.195546 0.339405 -0.052562 -0.175839 -0.106787 -0.338082 -0.384067 0.205432 0.325913 -0.030297 -0.200459 0.206579 0.390008 0.525859 -0.212762 0.450257 0.008746 -0.197800 -0.453842 -0.130967 -0.196210 -0.261597 0.018333 0.188173 0.319180 0.037863 -0.044637 0.195116 -0.036582 -0.210111 -0.133148 -0.425176 0.137379 0.034404 0.307214 -0.300646 -0.283441 -0.591636 -0.002460 0.398481 -0.031489 -0.043500 -0.103542 -0.160429 0.018518 0.148167 0.436595 0.036663 0.043403 -0.250928 -0.072320 -0.012753 0.192031 -0.150701 0.077065 -0.188970 0.030926 0.405431 -0.014661
lace 0.244589 0.018253 0.166510 0.392523 -0.096320 -0.775278 -0.176723 -0.381312 -0.184787 0.490000 0.153098 0.379592 0.014996 -0.157336 0.160408 0.215998 -0.139739 -0.416526 0.071950 0.074230 -0.519247 0.215274 -0.154705 0.421252 0.279591 -0.274585 0.115550 0.320253 -0.360723 0.073571 0.258561 0.169604 -0.014027 0.297004 0.047867 0.001088 -0.075606 0.138306 -0.276388 -0.011176 0.093405 0.027323 -0.003531 0.119313 -0.207623 -0.091962 0.171577 0.116501 0.109349 0.166320 -0.131935 0.090845 0.487242 -0.103679 0.113034 -0.182932 0.334765 0.378353 -0.593859 -0.338838 0.219282 -0.263938 0.042677 0.304465 0.008072 -0.163108 -0.087415 -0.095649 -0.101078 0.487815 -0.328006 -0.206273 -0.207462 0.206809 -0.056134 0.462982 0.235448 0.210539 -0.258706 -0.242384 -0.070509 0.188927 0.046557 -0.017207 0.070189 0.053321 0.325438 0.068799 0.296263 -0.014826 -0.095978 -0.379739 0.313329 -0.076133 -0.222229 -0.033423 -0.124771 -0.197320 0.323601 0.154867
look -0.068439 -0.024848 0.185868 0.041165 -0.291487 0.268483 0.017136 -0.017996 0.151850 -0.340487 0.143640 0.032861 0.048416 -0.014991 -0.009833 0.161656 0.089131 -0.221834 0.103191 0.333773 -0.014346 -0.402366 0.030917 -0.240551 0.049770 0.125755 -0.146925 -0.006050 0.118981 0.017423 -0.011009 0.322816 -0.002659 -0.188716 0.087845 -0.033856 -0.066266 0.111456 -0.037746 -0.092658 -0.064687 -0.041549 0.249334 0.105140 -0.135884 -0.333675 0.330154 0.192342 0.419127 0.198740 0.161762 0.055967 0.088770 -0.070058 0.110744 -0.333066 -0.173583 0.182689 -0.206658 -0.059353 0.101141 0.181075 0.113956 0.055904 -0.070546 -0.270719 -0.166529 0.033745 -0.046414 0.268548 0.045443 0.002935 -0.116440 -0.117239 -0.077378 0.099000 0.318938 0.105763 -0.090907 -0.052101 0.039227 0.168618 -0.275474 -0.211553 0.018029 0.124472 0.380338 0.067331 -0.063964 0.109069 0.022749 0.016776 0.189473 0.060813 0.154490 -0.186865 -0.106843 0.070086 0.185236 0.130444
fizzi 0.083872 -0.198442 0.206388 0.247644 -0.060318 -0.422580 0.133387 -0.414828 -0.030644 0.508431 0.255579 0.157145 0.298121 -0.268381 0.333094 0.513283 -0.097066 -0.048855 0.078347 0.265665 -0.587188 0.100081 0.212963 0.394738 0.091798 -0.309940 0.071234 0.118997 0.029669 -0.064760 0.326760 0.247418 0.114516 -0.050303 0.134658 0.235719 -0.034337 0.255776 -0.016445 0.087415 -0.003268 0.028725 -0.033626 0.172743 -0.306763 -0.432969 0.018480 0.046954 0.041734 0.328028 -0.021167 0.217759 0.398570 -0.305525 0.231353 -0.470871 0.288319 0.245147 -0.263384 -0.256225 0.243531 0.014377 0.260034 0.230567 0.377811 -0.493253 -0.190253 0.028962 0.063034 0.340228 -0.302287 -0.279066 -0.205141 0.050108 -0.205828 0.361800 0.454865 0.399580 -0.292169 -0.304571 0.071662 0.186771 -0.068310 -0.140036 0.286012 0.384209 0.339227 -0.074660 -0.062444 0.023747 -0.262915 0.112814 0.105529 0.040440 0.047217 0.297945 -0.228945 0.009174 0.219130 0.204150
clean 0.003992 -0.462394 0.190076 0.219048 0.129809 -0.120347 0.030633 -0.498679 -0.293505 -0.025953 -0.105163 -0.143073 -0.046919 -0.220936 -0.051563 -0.019217 -0.042202 -0.040797 0.019972 0.095059 -0.253716 0.030032 -0.198786 0.018351 -0.052486 0.197594 0.250220 0.000795 -0.062344 0.072151 0.187570 0.226061 -0.226122 0.214691 0.221278 0.030822 -0.001781 0.194361 0.117573 -0.246962 -0.029430 0.076501 0.277609 -0.016108 -0.186794 -0.224860 -0.086424 -0.196399 0.318467 0.370920 -0.025067 -0.111675 0.267642 0.242034 0.425556 -0.396754 0.302424 0.091779 -0.248021 -0.354248 -0.000345 -0.035629 -0.120820 0.108759 0.147825 0.064548 -0.084473 -0.043248 0.114443 0.160293 -0.144915 -0.079441 -0.384468 0.048696 -0.065287 0.332877 -0.077351 -0.124908 -0.425481 -0.052459 0.294995 0.060774 -0.136140 -0.154647 -0.044496 0.057477 0.333337 0.356713 -0.034189 0.101185 -0.156971 -0.020385 0.080047 0.117263 0.005677 0.059688 -0.286985 0.019671 0.378760 0.023313
ve -0.115590 0.169202 0.023470 -0.101304 -0.289246 0.576556 0.038843 0.360346 0.215314 -0.508761 0.129690 -0.032455 -0.005574 0.163080 -0.057204 -0.045659 0.130290 -0.158410 0.006207 0.208317 0.263688 -0.421429 0.147359 -0.342723 -0.074610 0.132046 -0.227531 -0.119102 0.189888 0.005992 -0.188752 0.112532 0.043116 -0.312762 -0.097730 -0.126904 -0.050734 -0.001707 -0.007467 -0.038020 -0.022103 -0.112538 0.124087 0.049581 0.075857 -0.158513 0.311890 0.191313 0.307817 -0.003580 0.167671 0.000671 -0.136350 -0.099110 -0.070615 -0.115403 -0.354943 0.056176 0.053484 0.181673 0.018732 0.290920 0.131459 -0.056686 -0.177591 -0.116669 -0.129326 0.029682 -0.050843 0.104538 0.243448 0.140018 0.026229 -0.162069 -0.028928 -0.237591 0.126574 0.070647 0.162844 0.100869 -0.086043 0.040628 -0.157111 -0.115800 0.045231 0.010741 0.130824 -0.027302 -0.086543 0.059336 0.209555 0.101958 0.050538 0.004012 0.196436 -0.146555 0.038363 0.134077 -0.040892 0.053762
bud -0.161331 -0.089153 -0.002905 -0.086748 0.078017 0.462075 0.102155 0.119705 -0.008000 -0.270814 -0.061287 -0.222975 -0.141352 0.009315 -0.044232 -0.243271 0.004772 0.094293 0.011445 0.072238 0.193645 -0.180733 -0.019942 -0.231203 -0.161438 0.290068 0.073320 -0.157826 0.128516 0.004920 -0.055158 0.129678 -0.138509 -0.074091 0.005474 -0.100740 -0.036684 0.037394 0.116325 -0.131100 -0.098334 -0.039863 0.181129 -0.054064 -0.044261 -0.012817 -0.027269 -0.076723 0.173762 -0.008430 0.048274 -0.157250 -0.142703 0.170437 0.147834 -0.038456 -0.156749 -0.115522 0.086893 0.000974 -0.061104 0.101156 -0.097724 -0.019686 -0.042622 0.233114 0.016420 -0.051563 0.003269 -0.074030 0.189433 0.129045 -0.091705 -0.125423 0.015150 -0.133049 -0.191004 -0.084022 -0.115421 0.135335 0.077746 0.015670 0.031896 0.042486 -0.055835 -0.046164 -0.016423 0.160922 -0.172358 0.118403 0.119416 0.105998 -0.089190 0.003831 0.021063 0.018085 -0.014002 0.235632 -0.069886 -0.010072
cold -0.081669 0.102916 0.004148 -0.117491 -0.094615 0.482320 0.105146 0.224547 0.121614 -0.472182 0.013380 -0.150150 -0.118519 0.047627 -0.112683 -0.185465 0.100335 0.009008 0.077518 0.142991 0.256111 -0.345617 -0.021669 -0.372023 -0.152655 0.224998 -0.089411 -0.095857 0.146775 -0.027462 -0.074445 0.087197 -0.088348 -0.186563 0.007394 -0.101089 -0.131326 -0.001899 0.090400 -0.092346 -0.092961 -0.077816 0.234144 -0.046179 0.008329 -0.093580 0.152685 0.002878 0.247948 -0.054767 0.088232 -0.132855 -0.169701 0.054054 0.013282 -0.038556 -0.256396 -0.059157 0.056456 0.125048 -0.005163 0.166364 -0.093553 -0.112248 -0.148376 0.065112 -0.013640 0.064345 -0.024035 -0.097141 0.307830 0.100091 -0.032218 -0.146742 0.031701 -0.251208 -0.061317 -0.048882 0.036012 0.130754 -0.016435 -0.051313 -0.062439 -0.083121 -0.115874 -0.039388 0.008192 0.004622 -0.147487 0.056260 0.184046 0.038531 -0.010572 -0.044696 0.063268 -0.159805 0.089421 0.105742 -0.031683 -0.046822
almost 0.068527 -0.115647 0.145070 0.210191 -0.183795 -0.130144 0.001301 -0.194905 -0.032562 -0.022776 0.096996 0.137926 0.011892 -0.080272 0.057366 0.137173 0.033343 -0.229901 0.079366 0.200694 -0.211743 -0.099253 -0.046633 0.030699 0.070987 -0.024174 0.027549 0.062068 -0.066337 0.029675 0.123861 0.237494 -0.047647 0.008984 0.068316 -0.001234 -0.019090 0.144813 -0.075123 -0.075725 0.016026 -0.000236 0.134840 0.060631 -0.142428 -0.257849 0.192907 0.084002 0.317123 0.234225 0.024846 0.017367 0.288294 -0.057092 0.148564 -0.320895 0.084992 0.258964 -0.299229 -0.192427 0.122198 0.001337 0.115160 0.159343 -0.003812 -0.181273 -0.140031 0.010581 -0.003065 0.338396 -0.075087 -0.099141 -0.221589 0.038860 -0.088765 0.231909 0.236889 0.131854 -0.183407 -0.119424 0.033230 0.180453 -0.118481 -0.138325 0.059241 0.109882 0.304612 0.085730 0.082036 0.063978 -0.014970 -0.104763 0.227190 0.058120 0.044424 -0.011285 -0.123249 -0.033088 0.257436 0.104256
graini 0.160870 -0.367017 0.191288 0.409745 0.063155 -0.612037 -0.071187 -0.557840 -0.401038 0.347537 -0.012707 0.162894 -0.115685 -0.216815 0.058583 -0.018798 -0.074012 -0.270030 0.051654 -0.021418 -0.476020 0.232537 -0.273937 0.261558 0.100474 -0.051712 0.293643 0.200587 -0.307120 0.119069 0.291532 0.255805 -0.238249 0.393667 0.168796 -0.034604 -0.010050 0.197470 -0.055259 -0.176114 0.083312 0.068326 0.142481 0.026608 -0.177002 -0.087020 0.000489 -0.101099 0.312633 0.385182 -0.166356 -0.077677 0.516266 0.137429 0.313542 -0.283760 0.479518 0.303218 -0.400792 -0.461517 0.132652 -0.238928 -0.120799 0.247655 0.039204 0.038225 -0.075444 -0.074357 0.034222 0.336845 -0.371840 -0.193196 -0.406398 0.157671 -0.056001 0.471982 -0.007926 0.023052 -0.452161 -0.147574 0.127308 0.175010 -0.004771 -0.056138 -0.017338 0.029878 0.352239 0.287359 0.273870 -0.015510 -0.123310 -0.322037 0.283389 0.124282 -0.121070 0.045159 -0.208721 -0.145815 0.434916 0.067327
bland -0.095725 -0.341101 0.170825 0.159399 0.059357 0.111934 0.049069 -0.316336 -0.140790 -0.178547 0.011437 -0.166446 -0.070357 -0.136920 -0.075901 -0.054317 -0.013201 -0.034901 0.009057 0.207420 -0.097470 -0.177105 -0.093591 -0.128990 -0.078492 0.237349 0.158482 -0.056862 0.012519 0.027628 0.107509 0.284652 -0.224303 0.081963 0.127845 -0.040458 -0.037502 0.157566 0.075177 -0.258084 -0.049039 0.051790 0.286211 0.011556 -0.183453 -0.250513 0.021714 -0.057109 0.438990 0.298888 0.002339 -0.078808 0.126375 0.198886 0.344067 -0.312856 0.158655 0.079061 -0.132816 -0.232667 0.021531 0.054391 -0.121591 0.034059 0.058458 0.036765 -0.103273 -0.023293 0.041370 0.161045 -0.067987 -0.003134 -0.326313 -0.072618 -0.089655 0.251223 0.019696 -0.070443 -0.370678 0.031084 0.196529 0.123016 -0.194004 -0.090785 -0.075949 0.092218 0.334918 0.241306 -0.103298 0.097989 -0.117682 -0.006551 0.077957 0.160793 0.028130 -0.025641 -0.145757 0.086018 0.278223 0.036320
special -0.328143 -0.062750 0.160670 -0.207046 -0.136504 0.710219 0.165124 -0.009224 0.342862 -0.497323 -0.220560 -0.146725 -0.167881 0.012197 -0.198011 -0.246330 -0.055289 0.177005 0.232714 0.278362 0.103758 -0.403537 -0.317298 -0.533350 0.199295 0.315073 -0.009702 -0.006761 0.257913 -0.116241 -0.004596 0.561550 -0.010343 -0.223986 0.227805 -0.086597 -0.067241 0.233848 0.258459 0.063075 -0.159468 0.048881 0.305222 0.092183 -0.226722 -0.356762 -0.073588 0.094568 0.447495 0.015156 0.059134 -0.101673 -0.162508 0.171329 0.178265 -0.234386 -0.360448 -0.126375 0.054430 0.007590 -0.047293 0.098129 -0.209713 -0.328459 -0.222498 -0.063949 0.187431 0.160978 -0.090664 0.029805 0.148085 -0.067015 -0.179279 -0.217742 0.085310 0.005996 -0.059325 -0.322841 -0.262187 0.071902 0.302357 0.055767 -0.266866 0.002736 -0.198774 -0.051848 0.185499 0.193869 -0.379977 0.329500 -0.072950 0.182846 -0.069264 0.339837 0.172227 -0.447280 -0.028649 0.042679 -0.153539 -0.055232
mild 0.135741 -0.432579 0.146169 0.365881 0.099458 -0.560322 -0.067715 -0.582021 -0.402903 0.313062 -0.075996 0.108691 -0.090969 -0.207288 0.014782 -0.038935 -0.069832 -0.194339 0.023275 -0.031673 -0.403918 0.266288 -0.248448 0.250203 0.086179 -0.019520 0.282268 0.197310 -0.239224 0.107469 0.282766 0.211549 -0.226921 0.383663 0.162119 -0.006061 0.004114 0.193199 -0.034576 -0.148919 0.061253 0.123490 0.151251 0.003719 -0.135293 -0.036889 -0.055646 -0.152346 0.253274 0.342963 -0.139585 -0.094546 0.447619 0.193112 0.320712 -0.259601 0.487295 0.224949 -0.334230 -0.465296 0.085680 -0.232419 -0.138754 0.165473 0.084733 0.062497 -0.051999 -0.018169 0.067337 0.256300 -0.341352 -0.173708 -0.350603 0.160220 -0.046093 0.425905 -0.045838 -0.025853 -0.439002 -0.129559 0.150131 0.119593 0.015542 -0.078450 -0.050705 0.011203 0.267165 0.272720 0.225488 -0.016081 -0.125011 -0.243992 0.240375 0.131639 -0.102177 0.028680 -0.234290 -0.147075 0.419698 0.029475
