1145 100
</s> 0.21415 0.18501 -0.12063 0.048407 0.083983 -0.0032852 -0.090258 0.093444 -0.099405 0.17482 -0.025684 -0.076232 0.25329 0.0097385 0.05317 -0.0071797 0.11343 0.096531 -0.074133 -0.025357 -0.039905 0.17566 0.30322 -0.11536 0.071927 -0.079749 0.07366 0.0062711 -0.2009 0.2547 0.17175 -0.056031 0.24469 0.056878 -0.13482 0.064458 -0.34378 -0.13963 -0.15926 -0.0075039 0.21266 0.20983 0.02483 0.079637 0.020472 -0.014424 -0.067267 -0.18831 0.15448 0.16144 0.10117 0.28442 0.044808 -0.012229 0.013485 -0.083855 -0.088438 0.070989 0.037258 -0.0098876 -0.05484 0.086359 0.31393 0.22579 0.099434 -0.22236 0.080226 0.034905 0.2782 0.0052449 0.091512 0.077575 -0.12339 -0.011434 0.16537 -0.090175 -0.1131 0.064715 0.13379 0.067702 -0.15984 0.19724 0.10058 0.090697 -0.17924 -0.24119 -0.08766 0.11313 -0.15457 -0.087646 0.022017 0.32411 0.25472 -0.11449 0.078947 -0.29584 0.19857 -0.17529 -0.12444 0.0079927 
banana 0.37159 0.19888 -0.21713 0.036325 0.17771 0.0057776 -0.092198 0.20186 -0.12247 0.27314 -0.094844 0.10802 0.39168 0.042796 -0.039264 0.052199 0.22501 -0.14653 -0.11054 0.039186 -0.18751 0.11623 0.30402 -0.051231 0.13069 -0.058782 0.13452 -0.054521 -0.31231 0.22451 0.055946 -0.12452 0.3269 0.11188 -0.14772 0.14629 -0.33191 -0.20241 -0.1961 -0.0050184 0.35705 0.31292 0.15736 0.082815 -0.0026249 -0.039468 -0.054857 -0.076939 0.28444 0.21771 0.31139 0.39341 0.040417 -0.16657 0.22249 -0.011167 -0.22159 0.049271 -0.053045 -0.12163 0.1123 -0.082771 0.39859 0.28515 0.15396 -0.27352 0.16807 -0.014189 0.2558 -0.14024 0.28522 0.015477 -0.19046 -0.023158 0.098624 -0.023323 -0.2268 0.026094 -0.079259 0.10888 -0.00314 0.32872 -0.079572 0.030904 -0.060346 -0.2957 -0.22477 0.033406 -0.12891 -0.05774 -0.052726 0.29681 0.22925 -0.17623 0.11564 -0.29893 0.1374 -0.10447 -0.10163 0.023549 
head 0.35371 0.20246 -0.21657 0.0527 0.15799 -0.0056895 -0.09776 0.19047 -0.12196 0.24593 -0.083381 0.06085 0.35451 0.022499 0.0024836 0.046175 0.18527 -0.098772 -0.11314 0.046591 -0.16239 0.11086 0.29024 -0.068419 0.11165 -0.056884 0.14431 -0.044419 -0.27586 0.21641 0.081681 -0.1042 0.31418 0.12328 -0.13694 0.13001 -0.35302 -0.1841 -0.1869 -0.0093605 0.31997 0.29444 0.14227 0.072349 0.008039 -0.014136 -0.057967 -0.087032 0.25848 0.18715 0.26055 0.3765 0.063566 -0.12779 0.17968 -0.027212 -0.18311 0.036743 -0.039686 -0.093691 0.091799 -0.053165 0.35604 0.25209 0.14098 -0.25688 0.16744 0.0027261 0.23825 -0.12715 0.2532 0.058819 -0.16466 -0.0123 0.10058 -0.046214 -0.21589 0.03374 -0.026719 0.10798 -0.028448 0.27688 -0.045507 0.059098 -0.1016 -0.28493 -0.19723 0.07604 -0.12988 -0.070484 -0.047768 0.29199 0.2321 -0.1431 0.11151 -0.30205 0.15564 -0.12887 -0.10556 0.018786 
aroma 0.35134 0.20236 -0.20848 0.043797 0.16485 -0.0018175 -0.095111 0.19051 -0.12381 0.25906 -0.087866 0.073798 0.37154 0.030854 -0.017025 0.046726 0.2027 -0.10351 -0.10902 0.032846 -0.16086 0.12381 0.30649 -0.0644 0.12329 -0.06074 0.13756 -0.042968 -0.29205 0.22757 0.077982 -0.10935 0.31136 0.11456 -0.1414 0.13903 -0.34365 -0.19115 -0.18746 -0.0056819 0.3335 0.29877 0.14119 0.075818 0.0012114 -0.029892 -0.05718 -0.094887 0.26163 0.20441 0.2735 0.37528 0.052535 -0.13797 0.18037 -0.025503 -0.19134 0.046178 -0.045034 -0.098681 0.091917 -0.05375 0.37319 0.26587 0.14627 -0.26289 0.16565 -0.0080058 0.25128 -0.12581 0.25797 0.04236 -0.1778 -0.01454 0.11295 -0.039508 -0.21336 0.035686 -0.036671 0.10421 -0.021837 0.2948 -0.048077 0.046433 -0.088593 -0.27929 -0.20069 0.05411 -0.1315 -0.069984 -0.044467 0.29847 0.2384 -0.16444 0.1089 -0.30497 0.14036 -0.12292 -0.10521 0.029372 
beer 0.15789 0.17714 -0.06801 0.070815 0.018269 -0.025423 -0.11949 0.033283 -0.11162 0.088328 0.025254 -0.22803 0.13948 -0.033517 0.12415 -0.047703 0.037379 0.25879 -0.064665 -0.022148 0.042519 0.19418 0.29199 -0.16035 0.012429 -0.074896 0.045428 0.061119 -0.11843 0.25842 0.29484 3.5133e-05 0.21926 0.055086 -0.093635 0.018873 -0.40142 -0.088424 -0.14499 -0.006797 0.09482 0.1372 -0.048281 0.081657 0.04774 0.0046736 -0.066789 -0.24577 0.09176 0.11297 -0.026706 0.23486 0.073322 0.069702 -0.11651 -0.1274 0.0047695 0.080058 0.086243 0.068641 -0.14246 0.18286 0.25197 0.17428 0.070114 -0.19649 0.037064 0.079916 0.27369 0.093874 -0.016648 0.13241 -0.067671 0.0011185 0.20766 -0.13338 -0.071509 0.076382 0.29225 0.053197 -0.25807 0.10677 0.19434 0.17801 -0.28645 -0.19407 -0.0067751 0.20563 -0.17718 -0.10854 0.049114 0.35119 0.25281 -0.047252 0.057728 -0.29938 0.25727 -0.27616 -0.14252 -0.010149 
tast 0.30499 0.17807 -0.17907 0.044105 0.14077 0.0038529 -0.093678 0.15881 -0.1097 0.2321 -0.076965 0.022615 0.32972 0.026652 -0.0052866 0.042552 0.17873 -0.053283 -0.093015 0.016979 -0.13268 0.1276 0.29631 -0.082413 0.11677 -0.062283 0.11278 -0.026868 -0.26559 0.22969 0.098735 -0.091345 0.30589 0.087466 -0.13851 0.11299 -0.33133 -0.17307 -0.17314 0.0029068 0.2847 0.26409 0.099547 0.081487 0.014818 -0.020982 -0.058314 -0.12103 0.24554 0.20175 0.2276 0.3438 0.051768 -0.096576 0.1459 -0.035142 -0.15733 0.05657 -0.019783 -0.076988 0.046502 -0.015881 0.3686 0.25286 0.12983 -0.24687 0.1294 0.0038247 0.26542 -0.085941 0.20728 0.045988 -0.1563 -0.025127 0.12578 -0.04336 -0.17693 0.033875 -0.00036712 0.09284 -0.051408 0.27646 -0.0056228 0.065022 -0.10507 -0.27182 -0.17312 0.066889 -0.12696 -0.066642 -0.032416 0.30505 0.23765 -0.15187 0.098419 -0.28824 0.15072 -0.13414 -0.10515 0.021424 
wheat 0.28535 0.18221 -0.1609 0.045129 0.12203 -0.0058653 -0.096676 0.14398 -0.11389 0.20985 -0.061006 -0.007241 0.29713 0.015959 0.015495 0.023033 0.15549 -0.014007 -0.10308 0.01128 -0.10813 0.13031 0.29178 -0.087017 0.093378 -0.06235 0.10604 -0.020063 -0.2442 0.22936 0.12538 -0.080232 0.28324 0.092571 -0.12841 0.10151 -0.34431 -0.16628 -0.17424 -0.009176 0.25909 0.24977 0.097732 0.078978 0.018621 -0.01795 -0.057131 -0.12681 0.2165 0.17417 0.19512 0.33889 0.049401 -0.083517 0.1024 -0.045447 -0.14007 0.059574 -0.010122 -0.054534 0.027215 -6.154e-05 0.34044 0.23655 0.12499 -0.24105 0.12527 0.018745 0.2508 -0.06645 0.18341 0.061528 -0.14232 -0.013099 0.12985 -0.061213 -0.17269 0.041249 0.038836 0.084757 -0.079797 0.24604 0.015833 0.07335 -0.13788 -0.26077 -0.14471 0.08899 -0.14053 -0.076245 -0.019617 0.31062 0.23976 -0.13371 0.099403 -0.29426 0.17274 -0.15704 -0.10933 0.021107 
flavor 0.28265 0.17559 -0.16069 0.041434 0.1305 0.0017148 -0.096549 0.14014 -0.10904 0.21613 -0.065724 0.00634 0.31523 0.016765 0.0061804 0.030612 0.16466 -0.023731 -0.094074 0.012696 -0.10805 0.14119 0.302 -0.089815 0.10005 -0.067138 0.10246 -0.019071 -0.25443 0.23612 0.11941 -0.084567 0.29308 0.08539 -0.14009 0.10473 -0.33447 -0.16883 -0.17348 -0.0038968 0.2726 0.25221 0.092443 0.077497 0.018253 -0.024 -0.060589 -0.13272 0.22678 0.18932 0.20408 0.3348 0.051488 -0.085733 0.11098 -0.045672 -0.14654 0.064947 -0.0092814 -0.064163 0.026236 -0.0017774 0.35903 0.24691 0.12494 -0.24534 0.12152 0.0073706 0.26648 -0.065554 0.1892 0.051838 -0.15555 -0.014936 0.13539 -0.057924 -0.17111 0.040908 0.030139 0.088584 -0.076242 0.25774 0.013111 0.067101 -0.12514 -0.26846 -0.15887 0.078482 -0.13692 -0.070757 -0.016757 0.31487 0.24188 -0.14395 0.098574 -0.29219 0.17239 -0.148 -0.11332 0.021003 
white 0.35966 0.1967 -0.22202 0.051015 0.16448 -0.011035 -0.096468 0.20443 -0.1291 0.25467 -0.087316 0.070558 0.36853 0.030414 -0.0071646 0.042826 0.20338 -0.10591 -0.12166 0.04159 -0.16615 0.10843 0.29305 -0.063875 0.11537 -0.060576 0.14479 -0.043257 -0.28498 0.2222 0.071967 -0.1083 0.31799 0.12299 -0.14022 0.14037 -0.35073 -0.18524 -0.18734 -0.013603 0.32594 0.29617 0.15871 0.067675 -0.0011226 -0.018197 -0.054904 -0.076686 0.26051 0.19166 0.269 0.38823 0.058215 -0.1405 0.18757 -0.022961 -0.18919 0.028996 -0.047295 -0.098516 0.10355 -0.063491 0.36272 0.25644 0.14417 -0.26026 0.17542 0.0032871 0.23721 -0.13431 0.25885 0.05121 -0.1745 -0.011374 0.099696 -0.036847 -0.21787 0.037746 -0.043378 0.10476 -0.027228 0.28672 -0.056438 0.054641 -0.096578 -0.27906 -0.20333 0.066946 -0.13301 -0.07112 -0.04982 0.29848 0.23249 -0.15432 0.11506 -0.30943 0.14758 -0.12425 -0.10379 0.023689 
nice 0.27927 0.18724 -0.15798 0.050585 0.12198 -0.0037028 -0.094877 0.13471 -0.12361 0.1984 -0.050822 -0.019425 0.29735 0.013639 0.0241 0.0084268 0.14703 0.0041783 -0.087259 0.0075824 -0.089242 0.14735 0.30008 -0.09469 0.087403 -0.061817 0.10028 -0.010845 -0.23853 0.2329 0.14001 -0.078825 0.28595 0.087736 -0.12842 0.09941 -0.35315 -0.15381 -0.17253 -0.0077382 0.2541 0.24701 0.072732 0.072763 0.01876 -0.017967 -0.061621 -0.14215 0.21087 0.17138 0.17613 0.32299 0.056516 -0.066857 0.085721 -0.055967 -0.12953 0.059626 0.0037288 -0.045498 0.012915 0.02374 0.33244 0.24148 0.12381 -0.24211 0.11388 0.016835 0.26357 -0.056162 0.16491 0.068931 -0.13974 -0.01037 0.14431 -0.068538 -0.16297 0.049473 0.063786 0.086776 -0.097023 0.23213 0.031838 0.086279 -0.13943 -0.25358 -0.14301 0.089111 -0.14864 -0.074985 -0.015688 0.31281 0.24212 -0.12813 0.093925 -0.28598 0.17219 -0.1619 -0.11281 0.011938 
good 0.22316 0.17541 -0.11999 0.056037 0.078581 -0.012827 -0.10224 0.09331 -0.11781 0.15183 -0.023529 -0.10366 0.22941 -0.0055514 0.061439 -0.011429 0.098173 0.098844 -0.081095 -0.00068591 -0.035742 0.16351 0.29078 -0.11369 0.055914 -0.067953 0.073411 0.016784 -0.19357 0.23665 0.19615 -0.051918 0.2404 0.073873 -0.11166 0.066337 -0.3534 -0.12603 -0.16114 -0.0097352 0.18163 0.19721 0.025848 0.072161 0.028006 -0.0049909 -0.060134 -0.1792 0.16505 0.14136 0.093824 0.2826 0.058049 -0.011548 0.0073276 -0.081289 -0.071819 0.068515 0.035589 -0.0011294 -0.041952 0.082779 0.29557 0.20863 0.097567 -0.21374 0.08281 0.038395 0.25301 0.0050082 0.094222 0.097811 -0.10283 -0.0066481 0.16813 -0.091494 -0.1255 0.060221 0.15376 0.076496 -0.15341 0.18166 0.085563 0.11898 -0.18725 -0.22362 -0.083398 0.13305 -0.15271 -0.088352 0.010831 0.32165 0.23939 -0.091958 0.082866 -0.28815 0.20143 -0.20846 -0.11959 0.010646 
orang 0.32612 0.19517 -0.19223 0.060271 0.13861 -0.01377 -0.093403 0.16907 -0.12696 0.21622 -0.061885 0.015189 0.31682 0.014889 0.01692 0.025505 0.16452 -0.053629 -0.10364 0.03487 -0.12822 0.11786 0.28499 -0.072537 0.097637 -0.063839 0.12524 -0.017664 -0.24876 0.22278 0.10671 -0.095393 0.29827 0.11522 -0.12897 0.12412 -0.3575 -0.16256 -0.17786 -0.01885 0.27812 0.27032 0.12209 0.063966 0.010337 -0.0088714 -0.061139 -0.10104 0.23532 0.16983 0.21493 0.3605 0.059857 -0.10536 0.14185 -0.042943 -0.15737 0.033718 -0.018511 -0.069206 0.064796 -0.019277 0.33852 0.23587 0.13243 -0.24478 0.1453 0.011476 0.23155 -0.1004 0.21279 0.069067 -0.156 -0.0056082 0.11352 -0.055028 -0.19216 0.041286 0.020625 0.10073 -0.060607 0.25018 -0.01969 0.084529 -0.13062 -0.26359 -0.1671 0.089678 -0.13391 -0.081392 -0.035311 0.30257 0.23618 -0.12356 0.10275 -0.30313 0.16937 -0.14979 -0.10939 0.012245 
sweet 0.31736 0.18412 -0.17969 0.029896 0.15162 0.011975 -0.094211 0.16515 -0.11964 0.25037 -0.084219 0.065233 0.36616 0.035723 -0.016687 0.047976 0.1983 -0.081531 -0.10101 0.011519 -0.13613 0.13974 0.31228 -0.068476 0.12712 -0.070068 0.11816 -0.036351 -0.28646 0.22873 0.079742 -0.099654 0.30573 0.088596 -0.1572 0.11774 -0.32305 -0.18429 -0.17821 0.010096 0.32167 0.28443 0.11128 0.085282 0.006017 -0.035648 -0.061431 -0.12557 0.25807 0.21276 0.2623 0.35244 0.051292 -0.1192 0.15486 -0.030146 -0.18734 0.060554 -0.030541 -0.099199 0.057771 -0.038328 0.38235 0.26675 0.14378 -0.26208 0.1445 -0.012159 0.28496 -0.10459 0.24383 0.036218 -0.17365 -0.025246 0.12573 -0.047636 -0.19245 0.041509 -0.024271 0.10132 -0.04569 0.29452 -0.024827 0.037502 -0.086853 -0.28614 -0.19083 0.047135 -0.13396 -0.056985 -0.023521 0.31216 0.25427 -0.168 0.1047 -0.30284 0.15046 -0.13053 -0.099779 0.028576 
pour 0.3275 0.20395 -0.1952 0.06491 0.13521 -0.0082639 -0.093625 0.17077 -0.11986 0.21718 -0.072229 0.015765 0.31681 0.012075 0.018122 0.024926 0.16155 -0.041057 -0.11377 0.038627 -0.12847 0.11193 0.28481 -0.080657 0.092743 -0.058329 0.12792 -0.021876 -0.24707 0.22098 0.10481 -0.087488 0.29476 0.1099 -0.12073 0.11773 -0.35608 -0.17036 -0.1784 -0.020362 0.28112 0.26499 0.12773 0.071777 0.0058934 -0.010986 -0.063 -0.10057 0.22543 0.16449 0.21165 0.36552 0.063278 -0.10639 0.13249 -0.046753 -0.14911 0.034394 -0.030995 -0.063643 0.054636 -0.02091 0.32861 0.22973 0.12537 -0.2458 0.14587 0.016621 0.22283 -0.09564 0.20466 0.068789 -0.14855 -0.0096606 0.10943 -0.060145 -0.18946 0.040103 0.015421 0.094333 -0.058231 0.24474 -0.013698 0.079593 -0.13654 -0.26269 -0.16456 0.09144 -0.13691 -0.076566 -0.029293 0.29826 0.23192 -0.12688 0.10156 -0.29896 0.17273 -0.15048 -0.10728 0.017083 
light 0.33005 0.19364 -0.19308 0.032968 0.16458 0.018648 -0.09205 0.17501 -0.12619 0.2656 -0.088368 0.07578 0.38911 0.04163 -0.019046 0.048319 0.20385 -0.093792 -0.10156 0.011152 -0.15009 0.14163 0.3188 -0.064441 0.13041 -0.071842 0.12409 -0.039951 -0.30494 0.23276 0.057276 -0.10217 0.31807 0.089393 -0.16117 0.12091 -0.31637 -0.18886 -0.18208 -0.0014338 0.34289 0.30234 0.12292 0.085449 0.0015183 -0.040403 -0.060199 -0.11069 0.26762 0.22133 0.27846 0.36805 0.046569 -0.13279 0.17763 -0.024525 -0.20755 0.057946 -0.03391 -0.11284 0.070127 -0.044587 0.38392 0.27372 0.15113 -0.25898 0.15247 -0.026509 0.27549 -0.1176 0.25311 0.027164 -0.1773 -0.023402 0.11685 -0.041663 -0.20072 0.042939 -0.04459 0.10429 -0.034614 0.29845 -0.037116 0.023307 -0.067826 -0.28521 -0.20387 0.02824 -0.13659 -0.057837 -0.027453 0.30332 0.24736 -0.17166 0.10632 -0.28951 0.13298 -0.10159 -0.096455 0.0286 
bottl 0.25753 0.19213 -0.14955 0.066246 0.091003 -0.019991 -0.10177 0.12476 -0.12278 0.16205 -0.03752 -0.073137 0.24829 -0.0087518 0.05478 -0.0031628 0.11047 0.063081 -0.095523 0.012487 -0.057648 0.13688 0.28127 -0.10596 0.053976 -0.065471 0.091208 0.01289 -0.19914 0.22847 0.17408 -0.059041 0.2577 0.092681 -0.11318 0.084093 -0.36448 -0.13991 -0.16357 -0.013927 0.20802 0.21916 0.066891 0.066266 0.021036 -0.0039912 -0.060858 -0.14184 0.17216 0.13186 0.11851 0.30831 0.065018 -0.038596 0.041199 -0.074091 -0.09337 0.042083 0.016736 -0.020925 -0.01001 0.045568 0.28897 0.19827 0.10078 -0.2225 0.1073 0.037437 0.23259 -0.030801 0.12694 0.10299 -0.11568 0.00099778 0.14329 -0.084603 -0.14799 0.056684 0.11629 0.080805 -0.12868 0.18277 0.054459 0.11855 -0.19066 -0.22647 -0.10395 0.13381 -0.15037 -0.093181 -0.004938 0.30423 0.23189 -0.09166 0.081027 -0.28861 0.19297 -0.19591 -0.11038 0.010217 
clove 0.31308 0.18647 -0.17547 0.047256 0.13702 -0.0024737 -0.096541 0.15872 -0.11834 0.22614 -0.066943 0.018263 0.32908 0.023209 0.012042 0.029942 0.17199 -0.041547 -0.09837 0.015226 -0.11852 0.14221 0.30121 -0.079347 0.10078 -0.060775 0.11537 -0.018411 -0.26429 0.23368 0.11127 -0.096263 0.29442 0.091063 -0.141 0.11129 -0.34403 -0.17055 -0.17697 -0.0064058 0.28604 0.26876 0.1034 0.074735 0.011382 -0.019638 -0.061312 -0.12789 0.23595 0.18603 0.21985 0.34982 0.050784 -0.099972 0.12567 -0.041994 -0.15208 0.053387 -0.012687 -0.065503 0.039978 -0.01259 0.35832 0.24906 0.13349 -0.25388 0.13721 0.0041765 0.25854 -0.087402 0.20837 0.058011 -0.15858 -0.013916 0.13106 -0.058973 -0.18472 0.05007 0.016985 0.096792 -0.071263 0.26663 -0.008029 0.068868 -0.11727 -0.2729 -0.16849 0.076886 -0.1389 -0.068177 -0.017494 0.313 0.2439 -0.14133 0.09887 -0.30149 0.164 -0.1457 -0.10707 0.018554 
cloudi 0.32472 0.19262 -0.18996 0.053934 0.14037 -0.015352 -0.096752 0.17458 -0.12323 0.2234 -0.069431 0.019798 0.32236 0.012964 0.017455 0.031256 0.16922 -0.043716 -0.10645 0.02571 -0.12554 0.12492 0.29053 -0.079115 0.09754 -0.063059 0.12456 -0.026612 -0.25454 0.22552 0.10295 -0.090605 0.29663 0.10467 -0.12554 0.11751 -0.34982 -0.17082 -0.1767 -0.01817 0.28942 0.26696 0.12071 0.069376 0.012259 -0.01134 -0.06299 -0.10244 0.22966 0.16752 0.21699 0.35623 0.057122 -0.098881 0.13588 -0.048282 -0.1509 0.039445 -0.023024 -0.069406 0.057164 -0.021751 0.33901 0.23839 0.12515 -0.24558 0.14905 0.012692 0.23315 -0.098754 0.21143 0.07151 -0.15148 -0.0059154 0.11367 -0.053289 -0.1952 0.044951 0.0085225 0.091588 -0.060427 0.25208 -0.01684 0.072032 -0.12082 -0.26095 -0.16879 0.082848 -0.13415 -0.077111 -0.035046 0.29618 0.23102 -0.12995 0.10181 -0.29915 0.15967 -0.14227 -0.10962 0.020371 
color 0.30411 0.19015 -0.18403 0.057164 0.1277 -0.016022 -0.09679 0.15963 -0.12058 0.20869 -0.063932 -0.0068766 0.29945 0.015317 0.021878 0.018148 0.15407 -0.015284 -0.10388 0.025534 -0.11463 0.12257 0.28488 -0.085106 0.087358 -0.064784 0.12064 -0.013794 -0.23564 0.22773 0.12041 -0.081665 0.28938 0.10664 -0.12124 0.115 -0.35573 -0.1599 -0.17291 -0.011267 0.26679 0.25125 0.10453 0.073507 0.0058102 -0.012462 -0.061545 -0.11384 0.21722 0.16767 0.19249 0.34635 0.061775 -0.088785 0.11249 -0.046235 -0.13998 0.044109 -0.015178 -0.055766 0.038241 -0.0030951 0.32665 0.22238 0.12162 -0.23743 0.13663 0.018568 0.23622 -0.077878 0.18805 0.070019 -0.14855 -0.0071909 0.12461 -0.060441 -0.17668 0.043739 0.038663 0.094006 -0.081135 0.23656 0.0099726 0.081148 -0.14239 -0.25201 -0.15372 0.10073 -0.14035 -0.079457 -0.023487 0.30598 0.23926 -0.11934 0.095384 -0.30107 0.17502 -0.15972 -0.11272 0.016796 
yeast 0.33935 0.17952 -0.19764 0.039208 0.16684 0.0064276 -0.088005 0.18329 -0.11586 0.25914 -0.090629 0.081254 0.37171 0.034436 -0.026676 0.056849 0.21005 -0.11875 -0.1059 0.025117 -0.16435 0.12087 0.30672 -0.06486 0.13103 -0.063079 0.13042 -0.04736 -0.30003 0.22984 0.071274 -0.10906 0.32499 0.10558 -0.14786 0.13702 -0.33257 -0.19291 -0.18498 0.00057326 0.331 0.29621 0.13336 0.076568 0.0062282 -0.029735 -0.060561 -0.095715 0.27282 0.21853 0.28222 0.36713 0.052494 -0.13302 0.19089 -0.020355 -0.19657 0.050976 -0.046452 -0.10494 0.08564 -0.059363 0.38446 0.2721 0.15005 -0.26618 0.15854 -0.011016 0.26028 -0.12354 0.25897 0.029111 -0.18189 -0.027789 0.11139 -0.032234 -0.21029 0.031402 -0.050499 0.1027 -0.014822 0.30617 -0.045166 0.0403 -0.074297 -0.29061 -0.20606 0.046217 -0.12843 -0.06332 -0.047941 0.30573 0.2353 -0.16856 0.10915 -0.29706 0.13789 -0.10801 -0.10375 0.028118 
citru 0.3381 0.19467 -0.19306 0.035983 0.15677 0.0014282 -0.092785 0.18135 -0.12338 0.25042 -0.088027 0.066143 0.36809 0.034819 -0.015935 0.039594 0.2028 -0.091804 -0.10225 0.025902 -0.14876 0.13194 0.30825 -0.063743 0.12289 -0.060291 0.12519 -0.041322 -0.28799 0.22926 0.073529 -0.10215 0.30986 0.10108 -0.14075 0.1342 -0.33438 -0.18504 -0.17916 -0.0083502 0.32748 0.28985 0.12929 0.070684 0.00011332 -0.029316 -0.062748 -0.096607 0.2552 0.2037 0.26586 0.36863 0.051334 -0.12188 0.1719 -0.032247 -0.1847 0.054186 -0.033695 -0.090695 0.076899 -0.045177 0.37382 0.2686 0.14358 -0.25701 0.1579 -0.011275 0.25803 -0.11981 0.24403 0.035302 -0.17503 -0.020038 0.11645 -0.041198 -0.20269 0.037364 -0.035471 0.10312 -0.032975 0.29235 -0.042359 0.042033 -0.086247 -0.28233 -0.19515 0.05136 -0.1342 -0.067589 -0.034939 0.30152 0.23616 -0.16193 0.10672 -0.29758 0.15059 -0.12274 -0.10574 0.024816 
bodi 0.29884 0.19114 -0.16645 0.040543 0.13202 0.011343 -0.099994 0.14908 -0.12567 0.22554 -0.0688 0.020481 0.32852 0.018896 0.0098408 0.036897 0.16857 -0.025693 -0.091377 0.004756 -0.11168 0.14201 0.30896 -0.085089 0.10284 -0.07101 0.10937 -0.022602 -0.25856 0.23206 0.10745 -0.079819 0.29342 0.083889 -0.14474 0.099941 -0.33751 -0.17003 -0.17024 0.0010244 0.28822 0.26097 0.089826 0.081817 0.012053 -0.030832 -0.063822 -0.1366 0.22862 0.19232 0.21187 0.34022 0.059067 -0.085149 0.11745 -0.051986 -0.15886 0.051959 -0.015528 -0.069727 0.032095 -0.0025688 0.34932 0.24055 0.13089 -0.24658 0.13135 -0.00039221 0.2628 -0.076402 0.20113 0.056834 -0.15809 -0.018802 0.13187 -0.058462 -0.17432 0.044709 0.022561 0.08986 -0.075139 0.2555 0.0085655 0.065168 -0.11766 -0.2713 -0.16166 0.07541 -0.13808 -0.07216 -0.015016 0.31595 0.24433 -0.14476 0.097066 -0.29781 0.15858 -0.13735 -0.10098 0.019471 
not 0.1788 0.17636 -0.07762 0.06589 0.046963 -0.0084465 -0.10984 0.058286 -0.10466 0.1203 -0.005235 -0.17261 0.18736 -0.01908 0.088896 -0.033869 0.064864 0.1975 -0.073124 -0.023528 0.010352 0.19433 0.29772 -0.14005 0.034688 -0.073999 0.045002 0.043482 -0.16136 0.25189 0.24943 -0.019082 0.22604 0.05013 -0.11099 0.033403 -0.36995 -0.11295 -0.16039 -0.009431 0.12891 0.17272 -0.02341 0.079634 0.042242 -0.003678 -0.065417 -0.23787 0.12867 0.12885 0.040166 0.26088 0.05792 0.028027 -0.064668 -0.10099 -0.044888 0.09269 0.063293 0.031612 -0.11676 0.1373 0.27969 0.20175 0.088872 -0.21057 0.05215 0.050743 0.27737 0.057743 0.035855 0.10633 -0.085641 -0.0058075 0.2032 -0.11659 -0.09875 0.069301 0.23293 0.058449 -0.22 0.13808 0.14566 0.14057 -0.24706 -0.22517 -0.034782 0.15923 -0.1723 -0.09704 0.045524 0.34185 0.25464 -0.073949 0.076016 -0.28713 0.22935 -0.24977 -0.13675 0.0096755 
finish 0.31651 0.18646 -0.1782 0.036222 0.14911 0.0069482 -0.095178 0.15435 -0.1173 0.23645 -0.076657 0.04403 0.35083 0.031349 -0.0065078 0.035772 0.18656 -0.062903 -0.098684 0.015305 -0.12865 0.14778 0.31039 -0.072839 0.11415 -0.070137 0.11516 -0.028877 -0.27652 0.22716 0.096658 -0.099369 0.30018 0.0867 -0.14914 0.10974 -0.33075 -0.1823 -0.17747 0.0019688 0.3053 0.27569 0.10516 0.074813 0.0063884 -0.030873 -0.059548 -0.12314 0.24822 0.20375 0.24774 0.3491 0.043838 -0.10997 0.13797 -0.038296 -0.17565 0.063839 -0.018427 -0.084992 0.047763 -0.023812 0.37161 0.26737 0.14308 -0.26063 0.14233 -0.011065 0.2747 -0.091628 0.22143 0.04152 -0.16435 -0.023803 0.13147 -0.051962 -0.19088 0.046242 -0.00051365 0.099749 -0.058233 0.28157 -0.012481 0.046775 -0.095677 -0.28062 -0.17897 0.054918 -0.13815 -0.06344 -0.022981 0.311 0.24578 -0.16354 0.10503 -0.29918 0.15231 -0.13058 -0.10789 0.022376 
medium 0.33385 0.20167 -0.19011 0.030581 0.16753 0.0078801 -0.092183 0.17213 -0.1457 0.25324 -0.087682 0.081561 0.38415 0.027906 -0.010626 0.03761 0.19752 -0.094146 -0.094321 0.013445 -0.12868 0.15694 0.31568 -0.057625 0.11939 -0.075138 0.12499 -0.039827 -0.29762 0.2241 0.059008 -0.10539 0.29584 0.10022 -0.16144 0.121 -0.31798 -0.19227 -0.17385 -0.0063307 0.33513 0.3 0.12424 0.059453 -0.0022631 -0.040375 -0.067446 -0.10808 0.25013 0.19107 0.27232 0.36579 0.040156 -0.11379 0.16097 -0.036809 -0.19208 0.053078 -0.020691 -0.10131 0.07114 -0.041462 0.36327 0.26876 0.14929 -0.26566 0.15786 -0.026413 0.27616 -0.1145 0.25247 0.042532 -0.16731 -0.020329 0.1181 -0.05253 -0.21384 0.054673 -0.032213 0.10359 -0.049594 0.28425 -0.037047 0.030951 -0.077545 -0.28276 -0.19233 0.037396 -0.14145 -0.059825 -0.01345 0.30208 0.24969 -0.16723 0.11187 -0.2957 0.15477 -0.11568 -0.10226 0.026364 
hazi 0.32747 0.19216 -0.19319 0.053284 0.14392 -0.0070696 -0.097362 0.1779 -0.12703 0.21616 -0.069647 0.029146 0.32641 0.012626 0.01194 0.032877 0.17261 -0.056864 -0.10687 0.037417 -0.13261 0.12076 0.28661 -0.077001 0.096435 -0.060439 0.12578 -0.032657 -0.25442 0.22185 0.10433 -0.090288 0.29471 0.11394 -0.12958 0.12093 -0.34606 -0.17689 -0.18019 -0.016046 0.28884 0.27365 0.12223 0.073311 0.0051198 -0.011477 -0.062394 -0.09955 0.23604 0.16979 0.22353 0.35608 0.060916 -0.10553 0.1417 -0.040588 -0.15705 0.038369 -0.029216 -0.07571 0.065546 -0.0303 0.33509 0.22833 0.12408 -0.24698 0.14963 0.0065555 0.22575 -0.099914 0.22154 0.063832 -0.15525 -0.0057028 0.10309 -0.052216 -0.19352 0.046767 0.0020433 0.096702 -0.053646 0.25573 -0.024456 0.068876 -0.12153 -0.25478 -0.1702 0.080032 -0.13221 -0.07513 -0.03589 0.29415 0.22621 -0.12835 0.099832 -0.29896 0.15905 -0.14472 -0.099543 0.019527 
hefe 0.18134 0.17665 -0.086535 0.071436 0.034481 -0.01943 -0.11224 0.052139 -0.11154 0.11277 -0.004387 -0.1881 0.1677 -0.025852 0.10254 -0.034004 0.056355 0.20508 -0.074537 -0.014762 0.01131 0.19123 0.29653 -0.13922 0.025377 -0.068514 0.054447 0.045175 -0.15349 0.25546 0.26491 -0.021294 0.23427 0.056841 -0.10349 0.029125 -0.37901 -0.10818 -0.15411 -0.0067924 0.12277 0.16774 -0.026241 0.081842 0.040929 0.0052309 -0.070705 -0.2323 0.13461 0.12996 0.027743 0.25179 0.060154 0.031863 -0.070772 -0.10703 -0.028969 0.078831 0.064805 0.037533 -0.11305 0.14454 0.27277 0.18773 0.078417 -0.21017 0.052492 0.060419 0.26318 0.057891 0.028505 0.11438 -0.082837 0.003717 0.20115 -0.11991 -0.090517 0.062711 0.24298 0.063693 -0.21947 0.13469 0.15431 0.15066 -0.24996 -0.20911 -0.026507 0.18036 -0.16924 -0.106 0.03504 0.33842 0.24998 -0.060495 0.069449 -0.29821 0.23352 -0.25486 -0.13745 -0.0021211 
carbon 0.29227 0.18747 -0.15659 0.038117 0.133 0.013055 -0.099115 0.14132 -0.12932 0.22056 -0.065799 0.0088033 0.32728 0.020178 0.0096722 0.026587 0.16708 -0.0096524 -0.086622 -0.00030211 -0.10151 0.15674 0.31327 -0.086499 0.10453 -0.073357 0.09949 -0.017585 -0.25793 0.24058 0.11743 -0.076539 0.28764 0.082213 -0.14662 0.09508 -0.33897 -0.1715 -0.17155 0.0016162 0.27668 0.25447 0.07561 0.084019 0.0098833 -0.032993 -0.065266 -0.15217 0.22621 0.19549 0.20617 0.33065 0.05406 -0.076157 0.10253 -0.054059 -0.14891 0.06758 -0.0038462 -0.063935 0.021239 0.014364 0.35273 0.25692 0.13294 -0.24747 0.12591 -0.0035127 0.28194 -0.066405 0.19118 0.053583 -0.15069 -0.018489 0.13892 -0.067103 -0.17043 0.056983 0.042478 0.094428 -0.088017 0.25973 0.021019 0.06007 -0.11915 -0.26926 -0.14942 0.066925 -0.14465 -0.068568 -0.0039672 0.3198 0.2517 -0.14349 0.096221 -0.30001 0.16611 -0.14676 -0.10562 0.017454 
golden 0.29598 0.19174 -0.17217 0.060271 0.11955 -0.014041 -0.10038 0.15113 -0.12293 0.19654 -0.0534 -0.022188 0.29171 0.010225 0.030512 0.017867 0.1459 0.0016904 -0.10138 0.022825 -0.099533 0.12938 0.28666 -0.089944 0.083655 -0.066465 0.11266 -0.004662 -0.2311 0.23388 0.13665 -0.077913 0.28388 0.10248 -0.12394 0.10495 -0.36094 -0.16042 -0.17219 -0.014687 0.25033 0.24727 0.095419 0.07317 0.011641 -0.010053 -0.059652 -0.12669 0.20911 0.16117 0.17506 0.33964 0.063258 -0.075707 0.092367 -0.058623 -0.12995 0.041726 -0.0051114 -0.047009 0.023604 0.013867 0.32515 0.22196 0.11733 -0.23121 0.12312 0.022665 0.23673 -0.066202 0.17352 0.080957 -0.13898 -0.0064948 0.12806 -0.065815 -0.16848 0.047927 0.059372 0.09089 -0.094521 0.22449 0.020009 0.093777 -0.15246 -0.2464 -0.14151 0.10362 -0.13855 -0.081136 -0.019211 0.3041 0.2335 -0.11319 0.088723 -0.29057 0.17474 -0.16726 -0.1106 0.015586 
on 0.12833 0.17163 -0.043628 0.074047 0.0035687 -0.01668 -0.11386 0.018663 -0.11078 0.077447 0.02941 -0.24938 0.11275 -0.031372 0.1334 -0.053334 0.023016 0.28375 -0.062914 -0.029965 0.058772 0.1985 0.29334 -0.1541 0.0042575 -0.082977 0.032972 0.071705 -0.10481 0.26949 0.30153 0.010539 0.2091 0.043134 -0.090155 0.012094 -0.39837 -0.068461 -0.1414 -0.0040509 0.073642 0.12856 -0.078515 0.082622 0.045452 0.0066661 -0.065929 -0.26157 0.085545 0.10373 -0.049089 0.2083 0.071991 0.082106 -0.14203 -0.12761 0.011469 0.084254 0.090453 0.075578 -0.16376 0.19931 0.24164 0.16525 0.070338 -0.18323 0.024223 0.074663 0.27103 0.10068 -0.03489 0.13582 -0.057947 -0.00061146 0.21406 -0.13739 -0.054459 0.082076 0.31455 0.05338 -0.27268 0.088553 0.21268 0.18028 -0.28618 -0.18378 0.016205 0.2048 -0.17744 -0.11249 0.059325 0.34973 0.24942 -0.027011 0.052234 -0.29495 0.25799 -0.28871 -0.13329 -0.010463 
fruiti 0.33567 0.18996 -0.19534 0.04092 0.15926 0.0069797 -0.093552 0.178 -0.11813 0.2545 -0.08612 0.064278 0.36449 0.030472 -0.012065 0.048343 0.19733 -0.090058 -0.10873 0.027339 -0.15765 0.12611 0.30325 -0.072485 0.12182 -0.066772 0.12904 -0.044117 -0.28737 0.23166 0.081864 -0.10322 0.31927 0.10282 -0.14208 0.13438 -0.33304 -0.18382 -0.18468 -0.00029191 0.31658 0.28756 0.12906 0.080523 0.0087863 -0.032389 -0.057016 -0.10081 0.26057 0.20697 0.26346 0.3673 0.050967 -0.1225 0.16664 -0.026279 -0.18301 0.052041 -0.035077 -0.094459 0.073743 -0.042534 0.38315 0.26338 0.14757 -0.26346 0.14924 -0.0040646 0.26125 -0.11548 0.24724 0.043766 -0.17602 -0.021151 0.11565 -0.040129 -0.20535 0.035145 -0.029721 0.098909 -0.036271 0.2945 -0.030258 0.04883 -0.091531 -0.2833 -0.19727 0.056839 -0.13323 -0.06549 -0.043594 0.30857 0.2438 -0.16457 0.10711 -0.29801 0.14955 -0.12881 -0.10204 0.022126 
spice 0.30972 0.18446 -0.17974 0.03913 0.14635 -0.00075871 -0.093253 0.15968 -0.12057 0.23068 -0.070899 0.039393 0.33686 0.028356 -0.0041739 0.027688 0.1774 -0.056072 -0.096727 0.018599 -0.12064 0.14382 0.30188 -0.074253 0.10925 -0.065136 0.1089 -0.03198 -0.27204 0.22457 0.10341 -0.096415 0.29665 0.091263 -0.14421 0.11656 -0.33636 -0.17878 -0.17948 -0.0025212 0.29453 0.27398 0.10429 0.070967 0.014745 -0.033312 -0.055479 -0.12346 0.23863 0.18944 0.23308 0.34459 0.0407 -0.10447 0.13535 -0.035192 -0.16668 0.058754 -0.012567 -0.07717 0.043505 -0.017777 0.35767 0.26339 0.13839 -0.25497 0.13329 -0.0025908 0.26818 -0.083579 0.21473 0.044522 -0.16085 -0.015247 0.13029 -0.051595 -0.18695 0.043979 0.0073114 0.096532 -0.063248 0.26869 -0.0087438 0.057317 -0.10021 -0.26863 -0.17116 0.059197 -0.14012 -0.061879 -0.024338 0.30458 0.23971 -0.15232 0.10794 -0.28863 0.15837 -0.13837 -0.11026 0.021314 
s 0.17205 0.18504 -0.081466 0.080018 0.027135 -0.026457 -0.12107 0.040599 -0.12538 0.080229 0.01846 -0.22678 0.14288 -0.045646 0.11908 -0.049062 0.025705 0.25609 -0.077302 -0.019444 0.038235 0.20157 0.30032 -0.1622 0.0094961 -0.077055 0.048232 0.072466 -0.13101 0.26389 0.30037 -0.00046768 0.21189 0.05914 -0.099955 0.016238 -0.40109 -0.090518 -0.15304 -0.022782 0.086976 0.15392 -0.047444 0.078254 0.046951 0.012561 -0.078098 -0.24935 0.10512 0.10983 -0.011115 0.23838 0.067488 0.057277 -0.10413 -0.12791 -0.00018823 0.095242 0.079425 0.06196 -0.13793 0.16608 0.25548 0.16721 0.07794 -0.20201 0.044401 0.083556 0.26966 0.082079 0.0030823 0.14412 -0.056054 0.009586 0.20309 -0.14441 -0.08841 0.075874 0.29732 0.062194 -0.25412 0.11126 0.17647 0.1886 -0.28449 -0.19269 -0.0071564 0.20636 -0.17969 -0.10949 0.042707 0.34747 0.25152 -0.057576 0.061763 -0.3054 0.24915 -0.28015 -0.13752 -0.0059125 
yellow 0.31872 0.19195 -0.18751 0.050678 0.14114 -0.0067287 -0.092981 0.16478 -0.12292 0.21931 -0.069203 0.028375 0.32653 0.021659 0.0067548 0.026306 0.16717 -0.05304 -0.11048 0.027702 -0.12926 0.11928 0.28542 -0.076106 0.092781 -0.063863 0.12443 -0.026616 -0.25798 0.21712 0.096902 -0.093931 0.28894 0.10342 -0.12444 0.12515 -0.34554 -0.16851 -0.1757 -0.010261 0.28403 0.26559 0.11927 0.069293 0.0035828 -0.019699 -0.064666 -0.10048 0.234 0.17628 0.22353 0.35333 0.05468 -0.10387 0.13946 -0.040256 -0.15357 0.042243 -0.028443 -0.071277 0.056543 -0.025695 0.33386 0.23577 0.13071 -0.24554 0.14644 0.010023 0.23494 -0.098693 0.21173 0.061077 -0.15141 -0.0079547 0.10978 -0.058641 -0.19429 0.039635 0.0028745 0.097654 -0.054371 0.25661 -0.018185 0.068464 -0.11779 -0.26161 -0.1695 0.083279 -0.13578 -0.072027 -0.031424 0.29561 0.23199 -0.1348 0.095238 -0.29168 0.1628 -0.14157 -0.10801 0.017005 
creami 0.3203 0.1892 -0.18796 0.04122 0.14765 0.0046742 -0.099905 0.16355 -0.12065 0.23543 -0.078621 0.03605 0.34908 0.021447 0.00014767 0.038824 0.17794 -0.060189 -0.099389 0.018324 -0.13168 0.13765 0.30631 -0.081421 0.11032 -0.064761 0.11578 -0.030075 -0.27378 0.23341 0.10147 -0.090818 0.30461 0.098508 -0.14097 0.11214 -0.33753 -0.18052 -0.18063 -0.0028911 0.29409 0.26817 0.10948 0.08085 0.0050975 -0.02629 -0.057633 -0.12021 0.25007 0.20234 0.23489 0.34697 0.052911 -0.10472 0.14918 -0.037821 -0.16784 0.05374 -0.027168 -0.081053 0.05457 -0.022574 0.35865 0.25192 0.13707 -0.25925 0.14247 -0.0028823 0.26436 -0.095663 0.22167 0.047096 -0.16481 -0.014659 0.12452 -0.050054 -0.19119 0.040368 0.0005897 0.094826 -0.051127 0.2734 -0.019389 0.059443 -0.10527 -0.27516 -0.17761 0.066347 -0.13847 -0.063849 -0.028068 0.30983 0.2453 -0.15268 0.10708 -0.29777 0.14972 -0.13312 -0.10634 0.020961 
great 0.23414 0.18132 -0.12487 0.058897 0.078419 -0.010141 -0.10553 0.093728 -0.11502 0.15913 -0.030183 -0.099603 0.23484 -0.0079955 0.059674 -0.0062574 0.10811 0.095191 -0.08141 -0.0032712 -0.042961 0.15898 0.29353 -0.11617 0.060309 -0.063849 0.073731 0.015738 -0.19434 0.24172 0.1952 -0.048885 0.24996 0.074931 -0.11286 0.062585 -0.35964 -0.13334 -0.16403 -0.0099269 0.18779 0.20291 0.032237 0.08188 0.02637 -0.0097218 -0.059621 -0.18343 0.17065 0.15026 0.10248 0.29276 0.059817 -0.022864 0.0094153 -0.076799 -0.08075 0.070698 0.024207 -0.0007404 -0.045656 0.075887 0.30266 0.21239 0.1032 -0.22484 0.090597 0.041929 0.26467 -0.00081826 0.10215 0.092604 -0.11577 -0.0069204 0.17024 -0.091446 -0.1309 0.055094 0.14859 0.078331 -0.15468 0.18925 0.081867 0.12246 -0.20214 -0.23361 -0.087265 0.13875 -0.15791 -0.08673 0.01099 0.33305 0.24545 -0.096002 0.081221 -0.29381 0.20482 -0.20749 -0.11933 0.0099735 
bit 0.28362 0.17199 -0.1492 0.042873 0.12093 0.0010433 -0.10272 0.13153 -0.11001 0.21181 -0.06326 -0.0031194 0.30944 0.02287 0.010667 0.022927 0.16133 -0.005859 -0.095578 0.0068619 -0.10252 0.15964 0.30611 -0.088707 0.092698 -0.06727 0.097531 -0.015684 -0.24867 0.23553 0.13853 -0.079808 0.28087 0.079329 -0.14145 0.099056 -0.3399 -0.16694 -0.1715 0.0037905 0.26146 0.25228 0.079722 0.07608 0.022425 -0.02662 -0.062859 -0.15483 0.21709 0.19281 0.20124 0.32717 0.046502 -0.07939 0.094834 -0.045985 -0.14018 0.069061 -2.1066e-05 -0.05892 0.014115 0.010463 0.35764 0.25224 0.12716 -0.24707 0.11404 0.0078729 0.27715 -0.058268 0.1753 0.051063 -0.14884 -0.014087 0.14242 -0.060642 -0.17124 0.039864 0.050289 0.090056 -0.08802 0.2577 0.029021 0.066262 -0.13171 -0.26344 -0.14452 0.076489 -0.14265 -0.074068 -0.0085868 0.31903 0.24067 -0.14793 0.095118 -0.29594 0.17095 -0.16137 -0.11525 0.024571 
bitter 0.27875 0.18005 -0.14096 0.036751 0.11852 0.0065955 -0.10091 0.12666 -0.12046 0.21619 -0.06229 -0.0073357 0.31084 0.019362 0.012573 0.024938 0.16115 0.0072565 -0.085032 -0.0024501 -0.088206 0.16467 0.31746 -0.093291 0.09883 -0.071648 0.093329 -0.0099286 -0.25544 0.2386 0.13655 -0.074071 0.28368 0.072098 -0.14684 0.086482 -0.339 -0.16584 -0.16787 0.01046 0.26344 0.25046 0.06462 0.082287 0.020343 -0.035345 -0.064478 -0.16715 0.21017 0.19391 0.19561 0.31889 0.053932 -0.069663 0.084324 -0.052592 -0.13841 0.073356 0.0040871 -0.0571 -0.0002664 0.025762 0.356 0.25502 0.13091 -0.24898 0.11835 0.0053647 0.29301 -0.049848 0.17508 0.052592 -0.14909 -0.019369 0.15442 -0.066794 -0.16157 0.049282 0.060208 0.090321 -0.10122 0.25257 0.03789 0.068795 -0.13641 -0.26579 -0.14261 0.08446 -0.15026 -0.069711 -0.00064422 0.33115 0.25658 -0.14735 0.096509 -0.29849 0.17554 -0.16311 -0.10977 0.021296 
refresh 0.23684 0.18539 -0.12313 0.052313 0.085914 -0.010925 -0.098749 0.090624 -0.11725 0.15862 -0.026607 -0.086338 0.24584 -0.0060764 0.056441 -0.010613 0.113 0.094853 -0.080317 -0.0061783 -0.038601 0.17045 0.30392 -0.11249 0.065436 -0.070874 0.073107 0.015238 -0.20244 0.24549 0.19255 -0.04954 0.2543 0.07402 -0.11959 0.069678 -0.36143 -0.13654 -0.16217 -0.007265 0.20087 0.20894 0.029323 0.077124 0.022518 -0.012113 -0.065468 -0.18003 0.16767 0.15281 0.10926 0.28716 0.053071 -0.02037 0.011559 -0.08142 -0.08719 0.071577 0.030188 -0.0063317 -0.048014 0.075324 0.31107 0.22579 0.10508 -0.22763 0.08783 0.034578 0.2713 -0.0013418 0.10319 0.091149 -0.1178 -0.010386 0.17096 -0.092729 -0.13052 0.061929 0.14661 0.075725 -0.15389 0.19167 0.087279 0.11414 -0.18172 -0.23458 -0.091421 0.12191 -0.15758 -0.08802 0.013683 0.32811 0.25014 -0.10127 0.077404 -0.29242 0.20162 -0.19661 -0.1246 0.0081053 
note 0.26566 0.18591 -0.14666 0.051584 0.11887 -0.0027246 -0.10161 0.12896 -0.11887 0.1978 -0.046814 -0.03216 0.29065 0.0087202 0.036284 0.011977 0.13961 0.032232 -0.093255 0.0044472 -0.081954 0.15218 0.30162 -0.10287 0.086353 -0.067 0.095708 -0.0054752 -0.23379 0.23955 0.14743 -0.063941 0.27663 0.083113 -0.13437 0.090359 -0.35721 -0.15211 -0.17285 -0.0066021 0.24024 0.23799 0.064553 0.079541 0.01786 -0.017905 -0.062922 -0.15998 0.20066 0.17729 0.16667 0.32163 0.053592 -0.057727 0.072788 -0.058221 -0.12796 0.06653 0.0093204 -0.03973 -0.0054561 0.041395 0.33542 0.23961 0.12451 -0.23657 0.11174 0.017906 0.2729 -0.042128 0.15224 0.067339 -0.13869 -0.013871 0.14959 -0.075634 -0.15978 0.052927 0.084026 0.083871 -0.11568 0.22761 0.040753 0.082223 -0.15292 -0.25979 -0.12966 0.097299 -0.14759 -0.078039 -0.0049118 0.32423 0.2464 -0.12913 0.096571 -0.29997 0.18474 -0.1755 -0.11657 0.016375 
hefeweizen 0.18034 0.17784 -0.085718 0.071101 0.032021 -0.019139 -0.11532 0.054187 -0.11144 0.10518 -0.00030143 -0.19741 0.16378 -0.028582 0.10383 -0.038943 0.049651 0.21716 -0.074837 -0.017528 0.021577 0.19268 0.29511 -0.14221 0.023594 -0.06996 0.053096 0.051476 -0.14518 0.25446 0.26764 -0.016907 0.22681 0.05842 -0.10357 0.026948 -0.38491 -0.10428 -0.15325 -0.013256 0.11506 0.16249 -0.02987 0.077388 0.041479 0.010374 -0.073528 -0.23248 0.12209 0.12264 0.01472 0.24949 0.062719 0.041656 -0.080113 -0.11644 -0.019149 0.079844 0.067681 0.044192 -0.12078 0.14852 0.26493 0.18265 0.079187 -0.20388 0.049099 0.063249 0.26337 0.059539 0.02227 0.12617 -0.076429 0.00657 0.20095 -0.12422 -0.090021 0.069303 0.25312 0.065546 -0.22363 0.1243 0.16182 0.15639 -0.25878 -0.20662 -0.025649 0.18355 -0.17247 -0.10443 0.039379 0.33798 0.24941 -0.060377 0.065527 -0.29549 0.23533 -0.25844 -0.13444 0.0012496 
malt 0.31791 0.19087 -0.18162 0.030683 0.1526 0.0053638 -0.092053 0.16559 -0.12415 0.24474 -0.080433 0.059857 0.36098 0.030886 -0.010397 0.040174 0.19421 -0.077483 -0.098926 0.018745 -0.1415 0.13924 0.3178 -0.066541 0.11948 -0.061248 0.11428 -0.039522 -0.29041 0.23136 0.090366 -0.09913 0.31227 0.096252 -0.15332 0.12299 -0.33388 -0.18235 -0.1849 -0.0015597 0.31338 0.28076 0.1116 0.077569 0.0094854 -0.033863 -0.066715 -0.11985 0.25699 0.2071 0.25254 0.35501 0.044369 -0.11019 0.152 -0.030982 -0.17506 0.060902 -0.03022 -0.087862 0.058193 -0.033209 0.38237 0.27209 0.14934 -0.25661 0.14311 -0.010355 0.27715 -0.1044 0.23319 0.034857 -0.17121 -0.022828 0.12337 -0.04992 -0.19381 0.039261 -0.015385 0.1019 -0.044595 0.29098 -0.025002 0.046114 -0.087407 -0.28644 -0.18409 0.048747 -0.14114 -0.058424 -0.03184 0.31463 0.25004 -0.1655 0.10817 -0.30637 0.15489 -0.1269 -0.108 0.022539 
smooth 0.25671 0.18328 -0.13722 0.048275 0.10198 -0.001676 -0.10002 0.11443 -0.11708 0.18127 -0.043117 -0.056065 0.27464 0.0062439 0.041594 0.0079407 0.12619 0.051402 -0.086326 -0.0012613 -0.065432 0.15854 0.30195 -0.10846 0.075276 -0.065596 0.08607 0.0078284 -0.21875 0.24516 0.1632 -0.062913 0.264 0.075127 -0.12284 0.078019 -0.35101 -0.14764 -0.16818 -0.0087842 0.22572 0.22432 0.052486 0.075865 0.022434 -0.016365 -0.062381 -0.16622 0.19316 0.16599 0.14305 0.30482 0.05909 -0.037967 0.049955 -0.071323 -0.10598 0.06452 0.015826 -0.026671 -0.018745 0.053836 0.32025 0.22866 0.11522 -0.23464 0.10248 0.023555 0.26853 -0.029935 0.13596 0.078323 -0.13201 -0.013856 0.15962 -0.084291 -0.14903 0.054205 0.10329 0.083817 -0.12713 0.2135 0.0573 0.096048 -0.16302 -0.24672 -0.11719 0.11143 -0.15263 -0.079033 -0.00076873 0.3259 0.24477 -0.11573 0.089489 -0.29315 0.1875 -0.18303 -0.11439 0.013824 
littl 0.26836 0.19442 -0.14319 0.05607 0.10916 -0.01399 -0.10019 0.12026 -0.13114 0.18116 -0.046169 -0.046766 0.28123 -0.0045561 0.045695 -0.00038011 0.13243 0.046481 -0.089051 -0.00034736 -0.060632 0.1692 0.30475 -0.096174 0.069663 -0.07493 0.090768 0.0054493 -0.22461 0.23305 0.16218 -0.066506 0.2583 0.085044 -0.13658 0.086135 -0.35228 -0.14989 -0.17018 -0.0076045 0.23248 0.24591 0.060302 0.06235 0.022431 -0.016521 -0.063661 -0.15804 0.19003 0.14787 0.15685 0.31644 0.051028 -0.054232 0.047086 -0.068483 -0.11434 0.064576 0.021228 -0.037483 -0.015418 0.043664 0.3142 0.23448 0.1149 -0.23482 0.11352 0.019611 0.26985 -0.030988 0.14692 0.084999 -0.1237 -0.0040036 0.15452 -0.086611 -0.15739 0.068404 0.10603 0.090932 -0.13491 0.20815 0.050654 0.094986 -0.16631 -0.24612 -0.11541 0.10932 -0.15798 -0.081766 0.011428 0.32243 0.25018 -0.11748 0.090751 -0.29817 0.19462 -0.1885 -0.117 0.0098427 
fruit 0.33741 0.18785 -0.19741 0.038255 0.16023 0.0045653 -0.092116 0.18014 -0.11533 0.25451 -0.081582 0.068597 0.36565 0.032567 -0.013313 0.047391 0.19913 -0.095157 -0.10832 0.026126 -0.15868 0.12387 0.30367 -0.070178 0.12057 -0.063978 0.12518 -0.045735 -0.2858 0.22781 0.081733 -0.1069 0.31595 0.10287 -0.14231 0.13804 -0.33284 -0.18414 -0.18332 -0.002616 0.32176 0.29031 0.13155 0.078275 0.0078198 -0.030397 -0.057856 -0.096968 0.26046 0.20225 0.26514 0.36955 0.049245 -0.12428 0.16712 -0.028522 -0.18312 0.050343 -0.036277 -0.093834 0.075108 -0.048996 0.38356 0.26606 0.14748 -0.26119 0.15024 -0.002893 0.25962 -0.12068 0.24613 0.041055 -0.1769 -0.023608 0.11297 -0.038863 -0.20759 0.0353 -0.035396 0.096373 -0.038675 0.29778 -0.032038 0.048504 -0.091592 -0.28718 -0.20044 0.054898 -0.13587 -0.066265 -0.043601 0.30818 0.23949 -0.16394 0.10745 -0.29991 0.14976 -0.12313 -0.10308 0.022383 
yeasti 0.33197 0.18622 -0.19285 0.038962 0.16125 0.0046241 -0.091493 0.175 -0.1209 0.25753 -0.086229 0.067863 0.37091 0.032274 -0.0213 0.048733 0.20479 -0.096117 -0.10285 0.020478 -0.15415 0.13572 0.31535 -0.073234 0.1267 -0.067756 0.12738 -0.041994 -0.30023 0.23832 0.085615 -0.10638 0.32315 0.10241 -0.15299 0.13188 -0.34239 -0.19595 -0.18775 0.0044009 0.32838 0.29188 0.12304 0.080021 0.0085598 -0.03401 -0.063216 -0.11238 0.27014 0.21996 0.27364 0.36984 0.050846 -0.12577 0.17112 -0.026897 -0.19562 0.057216 -0.040174 -0.098173 0.070437 -0.04525 0.39088 0.27695 0.15087 -0.27229 0.15201 -0.010309 0.27709 -0.11608 0.24962 0.03297 -0.18199 -0.024342 0.1197 -0.040157 -0.20829 0.035709 -0.031812 0.1014 -0.035269 0.30144 -0.031371 0.045311 -0.082473 -0.29422 -0.1958 0.050657 -0.13363 -0.065966 -0.040328 0.31429 0.2467 -0.16776 0.11027 -0.30058 0.14621 -0.12401 -0.10705 0.028669 
lemon 0.27805 0.17968 -0.15089 0.045633 0.12012 -0.0033838 -0.096759 0.13061 -0.1164 0.19333 -0.050052 -0.020812 0.29888 0.018533 0.023695 0.010351 0.1523 0.008707 -0.088094 0.0019177 -0.093202 0.155 0.30243 -0.09858 0.091078 -0.069189 0.096278 -0.0037827 -0.24411 0.23863 0.143 -0.079906 0.27862 0.08697 -0.13365 0.095141 -0.34945 -0.14925 -0.16964 -0.0039267 0.24917 0.24103 0.06633 0.070719 0.012601 -0.023302 -0.060046 -0.15189 0.21768 0.17999 0.18183 0.31256 0.048842 -0.071575 0.083555 -0.04921 -0.12784 0.065914 0.0060741 -0.050934 0.012256 0.030465 0.33957 0.24672 0.12632 -0.24205 0.1148 0.014938 0.26667 -0.048106 0.16409 0.06353 -0.1408 -0.014574 0.14401 -0.0675 -0.16496 0.048184 0.067014 0.089543 -0.098821 0.24025 0.026147 0.08208 -0.13179 -0.25036 -0.13403 0.086037 -0.1443 -0.071975 -0.012445 0.31823 0.24267 -0.1351 0.087716 -0.29546 0.16561 -0.16059 -0.11135 0.014775 
hint 0.28184 0.18308 -0.15192 0.044616 0.11426 5.4179e-05 -0.10112 0.12592 -0.11951 0.20124 -0.057048 -0.019068 0.29601 0.015402 0.020592 0.014421 0.14899 0.014355 -0.094481 0.00018956 -0.086535 0.15534 0.30533 -0.093503 0.087094 -0.070083 0.096238 -0.0049723 -0.24311 0.23584 0.14549 -0.078534 0.27617 0.079032 -0.13571 0.091623 -0.34614 -0.1626 -0.17134 -0.0054104 0.25239 0.24259 0.070162 0.07764 0.023469 -0.022025 -0.06339 -0.15114 0.21246 0.1777 0.18592 0.31895 0.049956 -0.069207 0.08499 -0.055491 -0.12899 0.067964 0.00056638 -0.046148 0.0050355 0.022511 0.33823 0.23538 0.12291 -0.24572 0.11592 0.0089169 0.26826 -0.052433 0.17094 0.062305 -0.14177 -0.011653 0.14758 -0.0723 -0.1687 0.045722 0.060859 0.087491 -0.10195 0.24091 0.025887 0.081158 -0.13647 -0.26454 -0.13498 0.090969 -0.15029 -0.072467 -0.0085242 0.32239 0.24546 -0.13646 0.092832 -0.29383 0.17826 -0.16497 -0.11071 0.013744 
t 0.15936 0.19412 -0.076425 0.089322 0.027128 -0.025427 -0.12277 0.041051 -0.1185 0.093418 0.012444 -0.22999 0.15781 -0.052108 0.11573 -0.032705 0.043568 0.24467 -0.080194 -0.032669 0.016105 0.20218 0.29056 -0.15714 0.012763 -0.081464 0.046975 0.066577 -0.13564 0.26746 0.27249 -0.0095038 0.21824 0.072083 -0.12315 0.020746 -0.39136 -0.095691 -0.15806 -0.017359 0.097044 0.15183 -0.015076 0.089125 0.054907 0.0079709 -0.060353 -0.25685 0.10714 0.10378 -0.0033081 0.2513 0.073535 0.029849 -0.10726 -0.11349 -0.016764 0.094053 0.092099 0.062908 -0.12779 0.1608 0.26256 0.16672 0.077295 -0.21136 0.054125 0.081724 0.25544 0.077629 0.0015531 0.13573 -0.067689 0.0083588 0.20211 -0.13126 -0.095753 0.084834 0.28731 0.063173 -0.24796 0.11129 0.17442 0.17647 -0.2898 -0.21924 -0.0099635 0.18995 -0.17516 -0.10515 0.054003 0.35966 0.25832 -0.067721 0.075987 -0.28962 0.25567 -0.27834 -0.14362 0.0058792 
drink 0.13965 0.17285 -0.051878 0.067306 0.01481 -0.018473 -0.11868 0.024899 -0.11092 0.081477 0.020326 -0.23515 0.13149 -0.036882 0.12376 -0.052093 0.031498 0.26887 -0.062829 -0.029564 0.060792 0.20423 0.2953 -0.15445 0.013716 -0.077333 0.0261 0.064621 -0.12142 0.2618 0.29985 0.0019186 0.20491 0.042738 -0.095835 0.0058808 -0.39257 -0.084714 -0.14565 -0.010092 0.079722 0.1306 -0.059003 0.079062 0.050257 0.0020531 -0.066548 -0.25924 0.10101 0.11026 -0.034591 0.22101 0.06525 0.071411 -0.12472 -0.13059 0.010176 0.089603 0.086678 0.071208 -0.15539 0.19003 0.25491 0.18824 0.070865 -0.19913 0.028677 0.080238 0.27974 0.10055 -0.025327 0.13207 -0.063004 -0.0011215 0.22194 -0.13598 -0.065329 0.077551 0.30219 0.05501 -0.26208 0.10492 0.19838 0.17216 -0.27791 -0.19709 0.0026505 0.1956 -0.17896 -0.10481 0.054069 0.34986 0.25667 -0.048054 0.059617 -0.29222 0.24748 -0.26964 -0.14139 -0.0029641 
smell 0.27844 0.1885 -0.15674 0.055246 0.10823 -0.010289 -0.10632 0.1297 -0.1206 0.19518 -0.046202 -0.046058 0.28206 0.0062457 0.038044 0.0098836 0.13512 0.037963 -0.10013 0.010664 -0.082873 0.14853 0.29989 -0.10521 0.075254 -0.066226 0.10003 0.0036963 -0.23075 0.2453 0.16042 -0.066807 0.27388 0.089983 -0.12625 0.089635 -0.36444 -0.15106 -0.1748 -0.011985 0.23509 0.23731 0.068731 0.078757 0.020742 -0.013405 -0.063956 -0.1576 0.20567 0.16576 0.1564 0.326 0.057597 -0.054134 0.063805 -0.063289 -0.11159 0.060843 0.0085408 -0.02916 -0.0045932 0.038395 0.32819 0.22742 0.11671 -0.23845 0.11299 0.030107 0.25836 -0.044067 0.15613 0.086285 -0.1327 -0.0065937 0.15171 -0.080415 -0.1593 0.059951 0.093357 0.085261 -0.11927 0.22279 0.040559 0.10108 -0.16743 -0.25373 -0.12255 0.11549 -0.15321 -0.083115 -0.003968 0.32565 0.24557 -0.11803 0.096622 -0.30324 0.18843 -0.18809 -0.11706 0.013908 
thick 0.26965 0.18597 -0.14914 0.061459 0.10055 -0.015168 -0.10029 0.12536 -0.12141 0.17292 -0.038103 -0.062294 0.26062 -0.0019944 0.04564 0.0027079 0.1238 0.05001 -0.096728 0.01379 -0.068784 0.1478 0.29059 -0.099165 0.06413 -0.067963 0.092669 0.0048856 -0.21424 0.23154 0.16846 -0.061648 0.2599 0.093401 -0.12071 0.085447 -0.36088 -0.14144 -0.16459 -0.018642 0.21517 0.2302 0.064005 0.068046 0.024039 -0.0081131 -0.058895 -0.14734 0.18966 0.15371 0.14306 0.31515 0.062723 -0.052851 0.057256 -0.067649 -0.10615 0.054053 0.0090177 -0.027834 -0.0032608 0.03847 0.30382 0.21241 0.10718 -0.23293 0.10912 0.030741 0.24556 -0.035645 0.14049 0.094369 -0.1212 -7.2167e-05 0.14076 -0.078089 -0.16288 0.05551 0.10541 0.084682 -0.12545 0.19878 0.039199 0.11203 -0.17351 -0.23966 -0.11405 0.11425 -0.14693 -0.087784 -0.0072875 0.31417 0.23614 -0.10623 0.086444 -0.29392 0.19482 -0.19093 -0.11452 0.01147 
palat 0.24632 0.17948 -0.12578 0.050504 0.088418 -0.005453 -0.10762 0.098104 -0.11583 0.16764 -0.033933 -0.077246 0.2553 -0.0019552 0.049387 -0.0013117 0.11956 0.078184 -0.083387 -0.0070469 -0.048014 0.17081 0.30034 -0.11176 0.068271 -0.069572 0.077438 0.011192 -0.21256 0.2406 0.18457 -0.061249 0.26307 0.079632 -0.12194 0.06702 -0.35036 -0.14126 -0.16533 -0.0089062 0.20564 0.21365 0.039969 0.075987 0.027257 -0.016303 -0.064108 -0.18126 0.18065 0.1564 0.12321 0.29351 0.051382 -0.034287 0.02578 -0.072225 -0.092618 0.07027 0.02292 -0.016046 -0.037844 0.064616 0.31261 0.22351 0.11196 -0.23269 0.09281 0.028535 0.273 -0.013256 0.11948 0.084936 -0.1224 -0.010117 0.16499 -0.09094 -0.14009 0.056324 0.13124 0.078795 -0.14333 0.20259 0.072837 0.10802 -0.178 -0.23936 -0.096326 0.11685 -0.15405 -0.077784 0.0083396 0.32856 0.24805 -0.11134 0.080765 -0.29816 0.19457 -0.19478 -0.11622 0.012969 
spici 0.29652 0.18842 -0.1649 0.04393 0.12987 -0.0051084 -0.098231 0.14187 -0.11819 0.21968 -0.06042 0.0046516 0.32105 0.023403 0.012016 0.02296 0.16427 -0.014286 -0.091484 0.010838 -0.098705 0.15582 0.30866 -0.088676 0.10019 -0.068747 0.10206 -0.016238 -0.26048 0.23597 0.12961 -0.087093 0.28941 0.084364 -0.14733 0.099665 -0.34279 -0.16814 -0.17905 0.00096622 0.27111 0.25626 0.083803 0.07608 0.018817 -0.031233 -0.058246 -0.1467 0.22563 0.18627 0.20801 0.33553 0.048908 -0.083659 0.10493 -0.04502 -0.14637 0.068663 -0.00062428 -0.062011 0.017967 0.0085281 0.35959 0.25637 0.13235 -0.25375 0.12275 0.0044076 0.28136 -0.060405 0.192 0.057754 -0.15346 -0.015216 0.1476 -0.062953 -0.17452 0.047851 0.043202 0.095745 -0.092199 0.25632 0.017916 0.075292 -0.12665 -0.26589 -0.1546 0.075973 -0.14518 -0.06674 -0.013683 0.32134 0.2482 -0.14335 0.10463 -0.29596 0.17498 -0.16141 -0.11852 0.017502 
nose 0.2698 0.18585 -0.14787 0.05401 0.11102 -0.0085197 -0.10357 0.1248 -0.11913 0.18605 -0.048382 -0.03524 0.28581 0.0069766 0.031803 0.011255 0.13705 0.030741 -0.087008 0.0090534 -0.080638 0.15519 0.30315 -0.10322 0.079954 -0.068818 0.095616 0.00034628 -0.22902 0.23673 0.15293 -0.065954 0.27111 0.088108 -0.12921 0.089797 -0.34983 -0.15239 -0.16692 -0.0062485 0.23914 0.2388 0.066363 0.068734 0.018616 -0.013827 -0.062945 -0.15641 0.19677 0.1652 0.16422 0.31452 0.05304 -0.057794 0.070812 -0.057695 -0.11891 0.061588 0.0097755 -0.039771 -0.00015445 0.0326 0.32228 0.22834 0.12107 -0.23606 0.11782 0.020089 0.25997 -0.041024 0.15612 0.074959 -0.13313 -0.0088225 0.14722 -0.076104 -0.16104 0.054465 0.087738 0.086259 -0.11186 0.21974 0.045008 0.093131 -0.15069 -0.25288 -0.12765 0.10681 -0.15246 -0.07948 -0.0047701 0.31358 0.23934 -0.12153 0.091315 -0.2925 0.18351 -0.17975 -0.11687 0.014019 
slightli 0.30211 0.18617 -0.17155 0.034156 0.14148 0.010306 -0.096076 0.15489 -0.12069 0.23791 -0.070158 0.037564 0.3535 0.028961 -0.0034917 0.035902 0.17812 -0.051667 -0.096856 0.004727 -0.12304 0.15188 0.31095 -0.076238 0.1118 -0.070756 0.10956 -0.028169 -0.27966 0.23128 0.095489 -0.091049 0.29721 0.086719 -0.15246 0.1033 -0.32319 -0.17726 -0.17313 0.00065128 0.30139 0.27007 0.096522 0.082724 0.011167 -0.032148 -0.059892 -0.13289 0.23967 0.20439 0.2334 0.34077 0.043317 -0.10158 0.13477 -0.033689 -0.16893 0.062755 -0.017365 -0.088351 0.042267 -0.01567 0.36307 0.2586 0.13689 -0.25129 0.13345 -0.0095656 0.28182 -0.089072 0.21817 0.041945 -0.16306 -0.021557 0.13255 -0.051198 -0.18095 0.044415 0.0034573 0.094005 -0.06229 0.27522 -0.0055104 0.043303 -0.096365 -0.26888 -0.17477 0.052819 -0.14349 -0.061363 -0.016842 0.31428 0.24803 -0.1626 0.10078 -0.29283 0.15442 -0.12958 -0.10193 0.024085 
lace 0.31234 0.19433 -0.18398 0.052878 0.133 -0.013849 -0.099316 0.15617 -0.13176 0.2137 -0.059907 -0.0027114 0.31765 0.010685 0.025661 0.015811 0.15663 -0.017866 -0.10835 0.028772 -0.11745 0.13705 0.2981 -0.086534 0.086879 -0.069565 0.11223 -0.012502 -0.25496 0.22881 0.12512 -0.08567 0.28968 0.10776 -0.12711 0.11159 -0.36335 -0.16361 -0.17816 -0.016185 0.26335 0.26145 0.099414 0.071659 0.0096405 -0.0070496 -0.056058 -0.12046 0.23168 0.17586 0.19943 0.35494 0.064673 -0.093047 0.11028 -0.052667 -0.14323 0.052796 -0.017916 -0.06309 0.044624 -0.0078018 0.33424 0.22758 0.12305 -0.24717 0.13264 0.020351 0.24596 -0.080141 0.20111 0.076986 -0.14946 -0.0072873 0.12354 -0.063404 -0.18306 0.054012 0.045177 0.09657 -0.08081 0.24678 -0.0072368 0.086382 -0.14613 -0.26067 -0.15052 0.10107 -0.14663 -0.078308 -0.020057 0.30857 0.24102 -0.13289 0.10367 -0.30108 0.17698 -0.16964 -0.11195 0.017566 
style 0.20295 0.18453 -0.10303 0.066771 0.052397 -0.01708 -0.11885 0.069001 -0.11769 0.13646 -0.011702 -0.15859 0.20216 -0.017486 0.087618 -0.024582 0.075518 0.17666 -0.077462 -0.013398 -0.0028205 0.18959 0.30877 -0.13889 0.039209 -0.069745 0.062609 0.040055 -0.17563 0.25636 0.24423 -0.030814 0.24402 0.065013 -0.11688 0.04277 -0.38275 -0.11699 -0.16172 -0.007401 0.15254 0.18406 -0.0042288 0.081207 0.042954 -0.0027006 -0.066827 -0.22204 0.14498 0.13435 0.058518 0.2732 0.061711 0.01515 -0.047467 -0.10038 -0.04642 0.077844 0.055221 0.027208 -0.091671 0.12211 0.28926 0.20267 0.092628 -0.22249 0.071985 0.054285 0.27716 0.037338 0.055321 0.1134 -0.092535 -0.0021503 0.19778 -0.11663 -0.11147 0.07013 0.21843 0.070859 -0.20328 0.15779 0.13708 0.14696 -0.23797 -0.22759 -0.051557 0.16353 -0.17775 -0.097062 0.033308 0.34771 0.25591 -0.079082 0.078794 -0.30039 0.22925 -0.24689 -0.13017 0.0061139 
big 0.2859 0.18513 -0.16154 0.052115 0.11301 -0.0075269 -0.097131 0.14256 -0.11651 0.20028 -0.057033 -0.01365 0.29216 0.012555 0.020412 0.01857 0.15429 -0.0023292 -0.09731 0.022001 -0.098722 0.13686 0.28824 -0.08811 0.083628 -0.05766 0.10892 -0.012747 -0.23301 0.23373 0.13149 -0.080044 0.27732 0.097564 -0.12735 0.10617 -0.3472 -0.15469 -0.17344 -0.004577 0.25425 0.24842 0.086201 0.072515 0.019451 -0.011076 -0.056911 -0.13816 0.20948 0.16995 0.18357 0.32955 0.051995 -0.076569 0.097181 -0.047732 -0.12768 0.051843 -0.01124 -0.056734 0.02601 0.0063878 0.33004 0.2269 0.11612 -0.23703 0.12072 0.011755 0.24747 -0.065354 0.17785 0.065553 -0.13902 -0.0076369 0.12516 -0.066816 -0.16791 0.047711 0.050691 0.084739 -0.085415 0.23141 0.016117 0.083328 -0.14167 -0.25224 -0.14423 0.09188 -0.13788 -0.081268 -0.012916 0.30376 0.23269 -0.12268 0.092113 -0.29139 0.17653 -0.16548 -0.1111 0.016661 
balanc 0.25531 0.1852 -0.13186 0.050566 0.095728 -0.0049287 -0.10858 0.10531 -0.11545 0.17088 -0.037307 -0.067865 0.26325 0.0042721 0.043306 0.00060485 0.1207 0.066958 -0.085374 -0.0003144 -0.058857 0.16476 0.30191 -0.10754 0.070651 -0.06968 0.080987 0.0082371 -0.22009 0.24501 0.17736 -0.061491 0.26173 0.079351 -0.12378 0.078089 -0.35678 -0.14393 -0.16835 -0.0089748 0.21445 0.21857 0.040464 0.078332 0.021911 -0.016854 -0.06655 -0.17503 0.18885 0.16243 0.13351 0.2965 0.05317 -0.038755 0.039579 -0.074039 -0.098713 0.07171 0.022031 -0.017013 -0.0318 0.057595 0.31979 0.22616 0.11119 -0.23292 0.098016 0.025433 0.27047 -0.022876 0.12788 0.082998 -0.12801 -0.0086012 0.16481 -0.086201 -0.14717 0.055572 0.11923 0.080925 -0.13946 0.2044 0.066295 0.10077 -0.16964 -0.24454 -0.10333 0.1154 -0.15583 -0.081831 0.0048811 0.32896 0.2464 -0.11546 0.080632 -0.2935 0.19284 -0.1915 -0.11595 0.011954 
german 0.16605 0.1745 -0.07693 0.074975 0.023162 -0.021195 -0.12116 0.041332 -0.1138 0.090425 0.011709 -0.21485 0.1454 -0.033903 0.11475 -0.045532 0.033866 0.24164 -0.070111 -0.018484 0.033035 0.19149 0.29142 -0.14928 0.01176 -0.07235 0.047042 0.062314 -0.13391 0.25588 0.2898 -0.0040821 0.21681 0.05388 -0.099183 0.023207 -0.39198 -0.092276 -0.14947 -0.0086327 0.099347 0.14759 -0.041458 0.077639 0.041896 0.010701 -0.074387 -0.24403 0.10812 0.11348 -0.010215 0.23928 0.06793 0.052304 -0.09781 -0.11649 -0.0058615 0.084643 0.069382 0.059863 -0.13362 0.16492 0.24797 0.164 0.074945 -0.19965 0.04784 0.069212 0.2616 0.077305 0.0061757 0.13795 -0.062036 0.0019891 0.20362 -0.12802 -0.079465 0.068972 0.27053 0.058674 -0.23839 0.10355 0.18019 0.17184 -0.27038 -0.19698 -0.010364 0.19942 -0.17051 -0.10254 0.049518 0.33784 0.24422 -0.048348 0.055252 -0.29134 0.2356 -0.26454 -0.13189 -0.00053176 
sour 0.30902 0.1957 -0.17931 0.046271 0.13912 0.00593 -0.098829 0.15344 -0.12279 0.22475 -0.074454 0.025986 0.33401 0.022716 0.0032645 0.029664 0.1733 -0.040593 -0.10008 0.017689 -0.11901 0.13661 0.30094 -0.080938 0.10169 -0.065491 0.11473 -0.021281 -0.26092 0.22941 0.10339 -0.087509 0.29492 0.09243 -0.13784 0.10818 -0.34531 -0.17797 -0.17498 -0.0064689 0.28891 0.26611 0.10688 0.077714 0.0067243 -0.025072 -0.066851 -0.12442 0.23428 0.18846 0.22225 0.35113 0.049752 -0.10352 0.12691 -0.042585 -0.15916 0.052839 -0.020435 -0.069769 0.039726 -0.0077026 0.3498 0.24683 0.1339 -0.25017 0.13911 0.0050295 0.26405 -0.084942 0.20854 0.053545 -0.1609 -0.016577 0.12882 -0.060034 -0.18327 0.04389 0.019256 0.093816 -0.070996 0.26416 0.0022421 0.063879 -0.12184 -0.27214 -0.16564 0.074731 -0.14186 -0.070108 -0.017247 0.31738 0.24309 -0.14685 0.1031 -0.30161 0.16713 -0.14647 -0.10854 0.020597 
just 0.2001 0.18166 -0.097638 0.069818 0.052784 -0.019464 -0.1097 0.060716 -0.11755 0.1144 -0.00067623 -0.16964 0.18525 -0.030895 0.096731 -0.027804 0.066463 0.1778 -0.076873 -0.011284 0.0060653 0.17773 0.2926 -0.13102 0.02849 -0.075219 0.053352 0.049475 -0.16709 0.25215 0.24296 -0.02813 0.23267 0.065544 -0.10478 0.038089 -0.37824 -0.10671 -0.15415 -0.015065 0.12862 0.17692 -0.014254 0.077509 0.037173 0.0031261 -0.065283 -0.2198 0.13723 0.12974 0.037854 0.2606 0.059821 0.018809 -0.053881 -0.10401 -0.038154 0.076444 0.054398 0.032147 -0.10007 0.13126 0.28114 0.18939 0.089337 -0.2106 0.059912 0.062047 0.26135 0.043791 0.044627 0.12241 -0.08787 0.0027962 0.19138 -0.11733 -0.11204 0.066716 0.22674 0.069512 -0.20479 0.14697 0.13367 0.15613 -0.24429 -0.21027 -0.04039 0.16837 -0.16495 -0.096094 0.029962 0.34222 0.25257 -0.073484 0.064425 -0.2976 0.23041 -0.24345 -0.12697 -0.00089365 
weizen 0.17431 0.17589 -0.081131 0.073648 0.029659 -0.021033 -0.11469 0.051435 -0.11166 0.094276 0.0040355 -0.20305 0.15334 -0.033728 0.10822 -0.041301 0.039426 0.22431 -0.074109 -0.016691 0.025642 0.18948 0.28788 -0.14487 0.018049 -0.071078 0.05422 0.05419 -0.13566 0.24943 0.27225 -0.014736 0.2152 0.058386 -0.10197 0.026388 -0.38471 -0.10052 -0.14983 -0.013376 0.10473 0.15427 -0.033244 0.074381 0.044829 0.013802 -0.076983 -0.23242 0.11548 0.11352 0.0038378 0.24052 0.061248 0.050942 -0.085941 -0.11798 -0.011407 0.077296 0.070753 0.049279 -0.1227 0.1545 0.25409 0.17353 0.079241 -0.19635 0.044261 0.063096 0.25642 0.062947 0.015184 0.13273 -0.069399 0.0056106 0.1993 -0.12718 -0.087326 0.06932 0.25947 0.064294 -0.22281 0.11805 0.16737 0.16325 -0.26446 -0.19767 -0.021423 0.18498 -0.16888 -0.1063 0.039559 0.3367 0.24524 -0.053629 0.061845 -0.2887 0.23002 -0.25984 -0.13521 -5.4481e-06 
mouthfeel 0.28426 0.18602 -0.15787 0.041287 0.12531 0.0047626 -0.10004 0.13388 -0.12515 0.21194 -0.06018 -0.0091413 0.31971 0.017211 0.020961 0.022485 0.15665 0.0043816 -0.092907 0.00021789 -0.093463 0.15617 0.31517 -0.094375 0.09504 -0.073411 0.099968 -0.0081857 -0.25426 0.24486 0.13064 -0.076126 0.28796 0.082039 -0.14313 0.094131 -0.34672 -0.16668 -0.17344 -0.0057227 0.26915 0.25202 0.074836 0.08145 0.014235 -0.025949 -0.06292 -0.15698 0.22101 0.1902 0.19061 0.32708 0.055287 -0.068374 0.091272 -0.057849 -0.14177 0.066044 -0.0017904 -0.056899 0.011193 0.020685 0.35415 0.24796 0.12766 -0.24751 0.12165 0.0063893 0.2822 -0.058025 0.17923 0.06148 -0.1497 -0.016761 0.14721 -0.067821 -0.17253 0.049287 0.053898 0.0901 -0.099897 0.25057 0.025302 0.07249 -0.13471 -0.27142 -0.14148 0.083974 -0.14665 -0.073588 -0.0082648 0.32284 0.25318 -0.14307 0.093271 -0.29856 0.17143 -0.15873 -0.10932 0.017665 
tap 0.23968 0.17933 -0.12575 0.06078 0.081595 -0.017457 -0.096865 0.10123 -0.11393 0.15034 -0.029051 -0.089011 0.23132 -0.0078465 0.063561 -0.0066574 0.10094 0.093149 -0.080427 0.0043154 -0.037837 0.15756 0.28462 -0.10922 0.054576 -0.064197 0.080119 0.02136 -0.18864 0.23379 0.18268 -0.047002 0.24765 0.080313 -0.11435 0.061375 -0.35682 -0.13021 -0.159 -0.0049455 0.18185 0.20511 0.033696 0.072713 0.022266 -0.0032449 -0.065811 -0.17609 0.16804 0.13964 0.10282 0.28693 0.059068 -0.021148 0.010557 -0.079876 -0.075151 0.060388 0.033449 -0.0049965 -0.03985 0.073671 0.29445 0.20136 0.099555 -0.21905 0.090626 0.040502 0.25013 -0.0057376 0.10954 0.099932 -0.10581 -0.0055743 0.15475 -0.089761 -0.13093 0.056872 0.13971 0.079282 -0.1515 0.17559 0.080847 0.11614 -0.19181 -0.22311 -0.086688 0.1347 -0.15078 -0.082853 0.0023596 0.31877 0.23754 -0.093709 0.077601 -0.28194 0.1992 -0.20101 -0.11514 0.0082672 
amber 0.2523 0.18721 -0.14641 0.06161 0.093299 -0.012597 -0.10276 0.11043 -0.11789 0.16671 -0.0367 -0.076431 0.2466 -0.0015855 0.057667 0.00073513 0.11147 0.070488 -0.088154 0.0093801 -0.060788 0.1446 0.28448 -0.11122 0.061485 -0.067767 0.089068 0.011635 -0.20316 0.23589 0.1761 -0.052708 0.26319 0.085933 -0.11247 0.075181 -0.36212 -0.13786 -0.15872 -0.0067471 0.20373 0.21309 0.049622 0.08017 0.021896 -0.0023869 -0.060227 -0.16146 0.17707 0.15478 0.11984 0.30105 0.064389 -0.032981 0.0353 -0.071413 -0.089263 0.057964 0.01746 -0.01809 -0.025952 0.057089 0.30135 0.20278 0.10021 -0.22239 0.10434 0.037251 0.2471 -0.018562 0.12008 0.090768 -0.11457 -0.0047641 0.14987 -0.084343 -0.14268 0.055493 0.11777 0.076439 -0.13436 0.19047 0.066038 0.11341 -0.18459 -0.23142 -0.098848 0.13411 -0.14843 -0.085517 0.00014689 0.31535 0.24017 -0.09743 0.080524 -0.29199 0.19582 -0.19577 -0.11926 0.0085075 
bread 0.31927 0.19084 -0.18492 0.046987 0.145 0.0071367 -0.097024 0.16079 -0.12216 0.23284 -0.077295 0.039477 0.34871 0.02582 0.0027891 0.038245 0.18041 -0.061307 -0.098199 0.02181 -0.13518 0.13858 0.304 -0.082913 0.11212 -0.065444 0.11802 -0.032687 -0.27877 0.22956 0.097069 -0.092142 0.30813 0.097734 -0.14397 0.11079 -0.33833 -0.1742 -0.18458 -0.0030884 0.30073 0.27535 0.10648 0.078194 0.0076426 -0.029384 -0.059803 -0.12341 0.25217 0.20056 0.24175 0.35271 0.052213 -0.10798 0.14809 -0.034359 -0.16915 0.057771 -0.024278 -0.078818 0.056416 -0.021657 0.3629 0.25666 0.14104 -0.2573 0.14285 -0.0034565 0.26324 -0.094621 0.22229 0.048352 -0.16792 -0.017623 0.12222 -0.050729 -0.19527 0.039765 0.00069668 0.10208 -0.052156 0.27338 -0.015538 0.062079 -0.10235 -0.27899 -0.17905 0.066367 -0.14362 -0.057835 -0.030016 0.31113 0.24239 -0.15314 0.10653 -0.29715 0.15555 -0.13554 -0.10054 0.019187 
quit 0.26847 0.1811 -0.14362 0.048287 0.11175 -0.0024713 -0.10136 0.1256 -0.11898 0.1934 -0.046029 -0.035469 0.28856 0.008029 0.032797 0.0093476 0.14014 0.028914 -0.091223 0.0029687 -0.075612 0.16086 0.29826 -0.097174 0.084556 -0.071512 0.08822 -0.0080869 -0.22965 0.23699 0.15287 -0.066156 0.27161 0.080294 -0.12659 0.086411 -0.35176 -0.15068 -0.16906 -0.0034651 0.23612 0.23633 0.058991 0.078934 0.024973 -0.017312 -0.062345 -0.15986 0.20364 0.17275 0.16113 0.31049 0.049357 -0.058302 0.062834 -0.060848 -0.1198 0.06515 0.0067973 -0.037739 -0.0087372 0.035036 0.33688 0.23983 0.11969 -0.23473 0.10271 0.020602 0.26777 -0.044251 0.15103 0.07325 -0.1338 -0.014616 0.15529 -0.07713 -0.16023 0.055963 0.081739 0.080977 -0.11844 0.22523 0.045098 0.090781 -0.14768 -0.25063 -0.12603 0.093237 -0.1504 -0.078206 -0.0084435 0.32169 0.24568 -0.12399 0.094123 -0.28889 0.17833 -0.17528 -0.11619 0.019741 
realli 0.20505 0.17939 -0.10258 0.063408 0.061466 -0.015968 -0.11027 0.069011 -0.12115 0.13199 -0.0087823 -0.1434 0.2101 -0.022148 0.08417 -0.024383 0.081926 0.15643 -0.074118 -0.017122 -0.0074975 0.18381 0.29757 -0.13196 0.045571 -0.074755 0.061432 0.033784 -0.177 0.25275 0.23373 -0.037606 0.23934 0.067704 -0.11397 0.046894 -0.37317 -0.1194 -0.15967 -0.011149 0.15799 0.18337 0.0015897 0.076765 0.032549 -0.006976 -0.06451 -0.21366 0.14759 0.1324 0.061466 0.26869 0.058595 0.010304 -0.033524 -0.098007 -0.055227 0.081075 0.051665 0.021811 -0.08484 0.11268 0.29068 0.20804 0.092523 -0.2174 0.068908 0.049306 0.27008 0.028573 0.061076 0.10979 -0.095707 -0.0037093 0.18279 -0.11183 -0.11406 0.065744 0.20387 0.069716 -0.19293 0.16022 0.11904 0.13637 -0.21836 -0.22265 -0.055295 0.15402 -0.16696 -0.093362 0.028137 0.33531 0.24869 -0.083507 0.074611 -0.29436 0.22148 -0.2258 -0.12931 0.0057511 
gold 0.29857 0.19147 -0.17463 0.058279 0.12387 -0.016185 -0.099277 0.15119 -0.12634 0.19647 -0.059481 -0.021768 0.28655 0.010027 0.031873 0.016656 0.1486 -0.00042796 -0.10684 0.029016 -0.09943 0.12489 0.28276 -0.086119 0.081082 -0.063957 0.11778 -0.0065905 -0.22986 0.22916 0.13348 -0.077037 0.28226 0.10584 -0.11976 0.10567 -0.36483 -0.16115 -0.17242 -0.013777 0.25518 0.2483 0.097769 0.071995 0.0083312 -0.0065305 -0.057611 -0.12123 0.21371 0.16114 0.17775 0.34264 0.064116 -0.079666 0.09819 -0.057773 -0.12861 0.038079 -0.0047223 -0.049863 0.02755 0.012835 0.32373 0.22258 0.11717 -0.23714 0.12842 0.022293 0.2333 -0.064413 0.17523 0.078707 -0.13993 -0.0015263 0.12902 -0.068146 -0.17329 0.04871 0.057369 0.093733 -0.093515 0.22595 0.016537 0.091734 -0.15296 -0.24866 -0.1415 0.10456 -0.13954 -0.081447 -0.018272 0.30441 0.23366 -0.11562 0.089013 -0.29457 0.17355 -0.16844 -0.11157 0.014987 
overal 0.20703 0.17428 -0.098906 0.052159 0.066005 -0.00101 -0.10875 0.071189 -0.10984 0.14484 -0.021733 -0.11682 0.2248 -0.0065925 0.066041 -0.012095 0.095198 0.13342 -0.073386 -0.017197 -0.016594 0.1814 0.29936 -0.12051 0.054838 -0.075483 0.059868 0.029181 -0.18965 0.24403 0.2096 -0.035977 0.24788 0.055269 -0.12232 0.046983 -0.35518 -0.1262 -0.15572 -0.001515 0.16939 0.19088 0.0028666 0.083574 0.032138 -0.016417 -0.064679 -0.20942 0.15952 0.14964 0.081149 0.26771 0.057403 0.00074082 -0.017685 -0.087086 -0.070866 0.07916 0.041683 0.0049733 -0.078663 0.10442 0.30461 0.21295 0.10033 -0.2192 0.071064 0.039526 0.28245 0.02039 0.082144 0.09279 -0.10658 -0.0079859 0.18265 -0.10193 -0.11808 0.059508 0.17444 0.07313 -0.18044 0.17857 0.11581 0.12068 -0.20086 -0.23198 -0.071169 0.13337 -0.1613 -0.084382 0.025103 0.33984 0.25154 -0.096968 0.072855 -0.29489 0.20914 -0.21579 -0.1221 0.010417 
dry 0.25163 0.17425 -0.13204 0.048509 0.099216 -0.00077719 -0.10185 0.11174 -0.11688 0.18679 -0.040668 -0.054529 0.27389 0.010002 0.031365 0.0056694 0.13869 0.045687 -0.083952 -0.00028662 -0.062929 0.1696 0.3059 -0.10644 0.07922 -0.069403 0.08804 0.00301 -0.22327 0.24234 0.17029 -0.065459 0.27024 0.073813 -0.13496 0.078542 -0.34482 -0.15147 -0.16463 -0.0024515 0.22674 0.22392 0.045646 0.083987 0.018901 -0.020498 -0.061365 -0.17303 0.19913 0.17966 0.14227 0.30263 0.050302 -0.044327 0.05658 -0.065851 -0.11072 0.073013 0.015922 -0.029713 -0.021999 0.048284 0.33499 0.23635 0.11544 -0.24285 0.096215 0.023681 0.27983 -0.026962 0.14086 0.066914 -0.13624 -0.015281 0.16023 -0.077781 -0.1467 0.049957 0.098587 0.079221 -0.12751 0.22527 0.059581 0.090096 -0.15046 -0.25672 -0.1168 0.10665 -0.15237 -0.073538 -2.8899e-05 0.32545 0.25173 -0.12166 0.090663 -0.29304 0.18361 -0.17525 -0.11805 0.015867 
mild 0.2972 0.18786 -0.16543 0.042159 0.12991 -0.0021853 -0.10227 0.13942 -0.12262 0.2225 -0.072699 0.0011228 0.31961 0.018993 0.010766 0.029367 0.16093 -0.013677 -0.1013 0.014367 -0.10983 0.14713 0.30885 -0.093263 0.099776 -0.064624 0.10855 -0.0128 -0.26161 0.24164 0.12814 -0.082748 0.30335 0.083731 -0.13924 0.10486 -0.35309 -0.17119 -0.1763 -0.0039839 0.27717 0.2539 0.087003 0.082418 0.011781 -0.023991 -0.069075 -0.1417 0.23115 0.19983 0.2103 0.34335 0.054146 -0.083421 0.10673 -0.047725 -0.14204 0.063482 -0.010479 -0.059957 0.024509 0.0072865 0.35964 0.24413 0.12896 -0.24913 0.12823 0.0034195 0.27373 -0.07061 0.1975 0.062401 -0.15457 -0.018742 0.14388 -0.06664 -0.17573 0.045201 0.035778 0.093219 -0.079736 0.25961 0.010469 0.069753 -0.13139 -0.26359 -0.15436 0.087838 -0.14272 -0.07751 -0.014101 0.32682 0.25022 -0.14825 0.097368 -0.29997 0.16704 -0.16087 -0.10672 0.015525 
glass 0.24277 0.19062 -0.13276 0.065459 0.079513 -0.017916 -0.1095 0.10264 -0.12054 0.14996 -0.024957 -0.11226 0.2303 -0.00914 0.072304 -0.0092291 0.098095 0.10872 -0.090332 0.0058872 -0.042092 0.15782 0.29198 -0.1222 0.046764 -0.064967 0.084628 0.025844 -0.18351 0.24692 0.20574 -0.049091 0.2575 0.090324 -0.10779 0.071344 -0.38155 -0.13266 -0.16353 -0.01515 0.1819 0.19868 0.038809 0.079635 0.026261 0.0026979 -0.066292 -0.18122 0.16999 0.13811 0.088987 0.29223 0.068511 -0.017601 0.0054803 -0.087382 -0.071851 0.06047 0.027046 0.0043105 -0.045059 0.078533 0.29125 0.19373 0.096512 -0.2254 0.089234 0.049247 0.24671 -0.008362 0.097446 0.10717 -0.10966 0.0032387 0.16714 -0.099617 -0.1338 0.062593 0.15883 0.077411 -0.1559 0.17503 0.082285 0.13895 -0.21837 -0.23382 -0.086736 0.15429 -0.15817 -0.098271 0.0071462 0.32858 0.24616 -0.082812 0.075608 -0.3003 0.21093 -0.21812 -0.12318 0.0029409 
appear 0.2782 0.18835 -0.1647 0.056365 0.1111 -0.011075 -0.10053 0.13752 -0.11779 0.19266 -0.048687 -0.027452 0.27762 0.0037928 0.035715 0.0099693 0.13333 0.013036 -0.096703 0.020359 -0.089442 0.13603 0.28328 -0.094173 0.077902 -0.060894 0.10507 -0.0020542 -0.22506 0.22558 0.14917 -0.072454 0.26993 0.097919 -0.12071 0.092314 -0.34725 -0.15051 -0.16958 -0.010421 0.24058 0.23217 0.08066 0.072556 0.016836 -0.0081131 -0.059109 -0.13658 0.2 0.15448 0.16164 0.32423 0.058927 -0.067383 0.076444 -0.059793 -0.1199 0.058278 -0.0035077 -0.040064 0.0094889 0.022522 0.32192 0.22172 0.11295 -0.23606 0.1193 0.022035 0.24747 -0.052357 0.15904 0.078583 -0.13544 -0.0094453 0.13079 -0.072721 -0.1668 0.047011 0.064802 0.083754 -0.09611 0.22371 0.026901 0.091026 -0.15837 -0.24996 -0.13399 0.11059 -0.14223 -0.075587 -0.013366 0.31032 0.23341 -0.11623 0.092379 -0.29232 0.18664 -0.17591 -0.11318 0.014393 
best 0.19263 0.17957 -0.094339 0.066211 0.046117 -0.021365 -0.11638 0.062915 -0.11392 0.11377 0.002126 -0.17169 0.18076 -0.02654 0.096466 -0.036589 0.062527 0.18895 -0.071424 -0.014364 0.011219 0.18881 0.28902 -0.13837 0.029659 -0.07461 0.056446 0.048254 -0.15731 0.25084 0.25783 -0.025719 0.23386 0.061876 -0.10832 0.042983 -0.38057 -0.10812 -0.14947 -0.0078794 0.1256 0.17149 -0.01891 0.070003 0.042197 0.0083263 -0.070523 -0.22054 0.13139 0.12291 0.030374 0.25519 0.064262 0.031842 -0.061527 -0.10361 -0.029573 0.076956 0.063592 0.031219 -0.10426 0.13897 0.27441 0.19094 0.090698 -0.20802 0.057015 0.057343 0.26366 0.053495 0.036666 0.11913 -0.086402 -0.0005958 0.19314 -0.11582 -0.099379 0.066502 0.23158 0.069313 -0.2166 0.13852 0.14935 0.15739 -0.2468 -0.212 -0.039448 0.1695 -0.16944 -0.099398 0.032312 0.337 0.24368 -0.063294 0.071102 -0.29338 0.233 -0.24756 -0.13001 -0.0025469 
hop 0.26223 0.18349 -0.15234 0.049476 0.099873 0.0016455 -0.10651 0.11483 -0.10704 0.18951 -0.055384 -0.045208 0.27482 0.010259 0.033658 0.0084068 0.1329 0.034555 -0.089788 0.00083229 -0.075309 0.15065 0.30464 -0.092663 0.088668 -0.072196 0.09033 -0.0051838 -0.23176 0.23414 0.15804 -0.063029 0.26908 0.074844 -0.13287 0.086718 -0.34811 -0.14759 -0.16945 -0.0042017 0.23018 0.23214 0.060167 0.075513 0.026911 -0.019402 -0.068555 -0.16036 0.19545 0.17203 0.15455 0.30347 0.050655 -0.052931 0.067018 -0.062514 -0.10985 0.065835 0.00042753 -0.034855 -0.015364 0.037488 0.33201 0.22949 0.1179 -0.23516 0.10857 0.028173 0.26759 -0.037744 0.14594 0.074792 -0.1365 -0.012684 0.15077 -0.075009 -0.16143 0.045098 0.086468 0.08295 -0.10833 0.22445 0.045958 0.094036 -0.15114 -0.24974 -0.12164 0.1009 -0.14504 -0.06464 -0.0040204 0.32314 0.24467 -0.11702 0.084403 -0.29009 0.18231 -0.17192 -0.11134 0.011613 
aftertast 0.24892 0.18552 -0.1357 0.056147 0.090129 -0.0058402 -0.10892 0.10215 -0.11681 0.17382 -0.038315 -0.083619 0.26521 -0.0021853 0.048719 0.0040741 0.12027 0.081176 -0.088218 -0.0059951 -0.055614 0.16898 0.30997 -0.11952 0.072776 -0.073441 0.080196 0.014744 -0.21952 0.25037 0.1897 -0.056088 0.26843 0.072066 -0.13155 0.070944 -0.36282 -0.14307 -0.1678 -0.0018903 0.20911 0.21566 0.035818 0.086051 0.029596 -0.011096 -0.064319 -0.18711 0.19051 0.16859 0.12838 0.30161 0.060543 -0.032123 0.033557 -0.073477 -0.097154 0.074489 0.024459 -0.017257 -0.036515 0.068335 0.32642 0.22477 0.11071 -0.23529 0.094332 0.032912 0.28091 -0.010062 0.12219 0.088396 -0.12518 -0.010333 0.16914 -0.085026 -0.13838 0.055823 0.1296 0.079738 -0.14421 0.20691 0.075633 0.10878 -0.18236 -0.24618 -0.099953 0.12371 -0.15577 -0.085531 0.0048096 0.33527 0.24757 -0.11683 0.083995 -0.29934 0.19503 -0.19784 -0.11943 0.009998 
last 0.3323 0.19003 -0.20267 0.048279 0.15538 -0.0054831 -0.093818 0.17594 -0.11977 0.23774 -0.07753 0.0454 0.34585 0.024707 -0.00054921 0.04224 0.18781 -0.083332 -0.10513 0.031619 -0.14709 0.11242 0.29385 -0.075762 0.11511 -0.061317 0.12576 -0.027889 -0.27863 0.22386 0.085632 -0.095615 0.30988 0.11207 -0.13126 0.1296 -0.34512 -0.17926 -0.17588 -0.0093792 0.30254 0.28002 0.12998 0.073529 0.0069589 -0.016911 -0.058818 -0.093198 0.25652 0.19438 0.24712 0.36574 0.059647 -0.12183 0.16639 -0.034806 -0.17345 0.043317 -0.040506 -0.083334 0.076342 -0.040807 0.35933 0.24744 0.13315 -0.25516 0.15595 0.0058673 0.24572 -0.10959 0.23507 0.054371 -0.16305 -0.015856 0.11126 -0.041385 -0.20111 0.03627 -0.019168 0.1002 -0.035078 0.27319 -0.033731 0.059579 -0.10689 -0.27634 -0.18767 0.070876 -0.13168 -0.06702 -0.039207 0.29967 0.23502 -0.14646 0.10477 -0.29642 0.15072 -0.12886 -0.10357 0.024076 
lot 0.22105 0.18815 -0.11051 0.061364 0.064261 -0.022967 -0.10721 0.081117 -0.12013 0.14594 -0.019046 -0.12667 0.21164 -0.015674 0.077409 -0.026909 0.087453 0.13827 -0.080288 -0.0058895 -0.017105 0.17279 0.29756 -0.1165 0.042536 -0.071936 0.06743 0.029574 -0.18107 0.24317 0.2237 -0.039538 0.2395 0.072893 -0.11777 0.056714 -0.37356 -0.12014 -0.16243 -0.013745 0.16627 0.19131 0.015537 0.070573 0.039119 -0.0039967 -0.065048 -0.19269 0.15406 0.12996 0.080667 0.28452 0.060718 -0.0040039 -0.022799 -0.094653 -0.057367 0.077348 0.037232 0.014645 -0.069732 0.098093 0.28597 0.20947 0.095955 -0.21844 0.077985 0.044197 0.25556 0.020086 0.08191 0.11138 -0.10164 -0.0035285 0.17692 -0.10862 -0.12718 0.064285 0.18418 0.076892 -0.18272 0.16061 0.10465 0.13622 -0.21428 -0.22801 -0.067962 0.14563 -0.15839 -0.093444 0.023873 0.33265 0.2468 -0.077809 0.081442 -0.29011 0.21474 -0.23109 -0.12841 0.0076729 
so 0.19164 0.18487 -0.096423 0.072546 0.04646 -0.014413 -0.1199 0.060995 -0.12241 0.12006 -0.0064612 -0.17159 0.19376 -0.024079 0.09096 -0.029548 0.065627 0.18624 -0.074062 -0.012628 0.0086069 0.18673 0.30964 -0.14693 0.028823 -0.068245 0.047869 0.048342 -0.16738 0.26377 0.24749 -0.016875 0.24136 0.057377 -0.11269 0.03117 -0.38161 -0.11494 -0.15752 -0.005988 0.13362 0.1719 -0.016088 0.076833 0.03782 0.0012501 -0.06991 -0.23 0.13766 0.13648 0.038359 0.263 0.059776 0.023291 -0.048593 -0.10978 -0.040285 0.080561 0.053325 0.036382 -0.10396 0.13499 0.28376 0.19543 0.082668 -0.21257 0.062339 0.061331 0.28031 0.050361 0.038998 0.11751 -0.091149 -0.004019 0.19626 -0.11725 -0.10713 0.067294 0.23714 0.068767 -0.20865 0.1469 0.14918 0.15058 -0.24954 -0.22717 -0.039751 0.16994 -0.17453 -0.096144 0.042095 0.35348 0.25272 -0.07383 0.077219 -0.29887 0.23045 -0.24818 -0.13091 0.00072734 
favorit 0.2047 0.18029 -0.10035 0.064774 0.055575 -0.017912 -0.11545 0.069537 -0.11546 0.13178 -0.0094278 -0.15245 0.20541 -0.019027 0.085405 -0.0281 0.072674 0.16881 -0.076424 -0.0092223 -0.0037518 0.18692 0.2999 -0.13503 0.038764 -0.071649 0.057884 0.03933 -0.17345 0.2547 0.24303 -0.031631 0.24534 0.058011 -0.1176 0.044919 -0.37827 -0.11712 -0.15943 -0.0067067 0.15292 0.18201 -0.0066016 0.077832 0.041123 -0.0026121 -0.068242 -0.21602 0.14631 0.13511 0.054118 0.27009 0.059337 0.014128 -0.046101 -0.10155 -0.047332 0.079171 0.054557 0.023562 -0.091307 0.11903 0.29284 0.20002 0.093391 -0.21898 0.064305 0.055428 0.27763 0.038126 0.055678 0.11406 -0.095968 -0.0036903 0.19407 -0.11394 -0.10773 0.065146 0.21523 0.071107 -0.2012 0.15247 0.13692 0.14416 -0.23405 -0.22247 -0.051766 0.16108 -0.17052 -0.097579 0.029973 0.34532 0.25301 -0.080077 0.074471 -0.29927 0.22529 -0.237 -0.13023 0.004434 
better 0.18211 0.1706 -0.08027 0.057144 0.043068 -0.014506 -0.11542 0.049703 -0.11159 0.11244 -0.0022312 -0.17707 0.17521 -0.022561 0.091478 -0.033421 0.058027 0.19904 -0.067398 -0.020845 0.020537 0.18886 0.29411 -0.143 0.026208 -0.070851 0.045125 0.052047 -0.1511 0.24582 0.25937 -0.014821 0.22314 0.05012 -0.10909 0.024344 -0.36964 -0.10618 -0.14786 -0.0037908 0.12429 0.15889 -0.026455 0.076744 0.041558 -0.002122 -0.06673 -0.23105 0.11849 0.1257 0.028778 0.24075 0.06333 0.036455 -0.072027 -0.10638 -0.023408 0.082114 0.064203 0.037986 -0.11678 0.14259 0.27083 0.18978 0.084439 -0.20655 0.053808 0.056545 0.2751 0.062046 0.026143 0.11318 -0.082206 -0.0022533 0.20169 -0.11811 -0.091459 0.070734 0.23853 0.062064 -0.21794 0.13766 0.15638 0.15094 -0.24811 -0.20761 -0.032228 0.17097 -0.16943 -0.094181 0.042227 0.34244 0.25174 -0.070517 0.064273 -0.29088 0.2314 -0.25008 -0.12826 0.00072006 
crisp 0.25601 0.17954 -0.1354 0.052074 0.099375 -0.0041396 -0.10014 0.11313 -0.1176 0.17944 -0.04397 -0.056243 0.27004 0.00132 0.042231 0.0054001 0.13249 0.051533 -0.082274 0.0030226 -0.065956 0.16603 0.30307 -0.10232 0.07529 -0.065409 0.085665 0.0052516 -0.21884 0.23968 0.16889 -0.060565 0.27011 0.076119 -0.124 0.079192 -0.35103 -0.14604 -0.16894 -0.0065853 0.21846 0.223 0.045961 0.077238 0.024901 -0.0139 -0.061447 -0.16643 0.19128 0.16758 0.14224 0.29879 0.054438 -0.043399 0.049529 -0.06953 -0.10561 0.068428 0.013167 -0.025816 -0.0197 0.053268 0.32542 0.23173 0.1114 -0.23626 0.098227 0.023121 0.26497 -0.028976 0.13565 0.075829 -0.13028 -0.00812 0.1583 -0.079824 -0.14554 0.053415 0.10333 0.079462 -0.12121 0.21294 0.058465 0.10178 -0.16353 -0.24326 -0.1161 0.10528 -0.15085 -0.081209 -0.0019671 0.32634 0.2463 -0.11634 0.084169 -0.29166 0.18532 -0.18571 -0.11906 0.012299 
full 0.25386 0.18141 -0.13774 0.051671 0.097248 -0.00045876 -0.099274 0.11027 -0.12144 0.17848 -0.040907 -0.054465 0.26641 0.0006165 0.048551 0.0049529 0.12514 0.054892 -0.084368 -5.6438e-05 -0.062525 0.15968 0.29904 -0.10125 0.071412 -0.068766 0.08661 0.0052438 -0.21751 0.23826 0.16335 -0.05512 0.25733 0.077767 -0.12196 0.07163 -0.35008 -0.14198 -0.1638 -0.0072147 0.22362 0.21848 0.047786 0.077809 0.015682 -0.015132 -0.066388 -0.16457 0.19238 0.15867 0.13748 0.29903 0.055561 -0.03941 0.044787 -0.071653 -0.10387 0.066553 0.012864 -0.025224 -0.017642 0.054226 0.31421 0.22062 0.11351 -0.22797 0.098457 0.025966 0.2653 -0.03097 0.13727 0.081293 -0.1268 -0.0081845 0.16027 -0.081493 -0.14886 0.056897 0.10581 0.086067 -0.12865 0.20583 0.056864 0.097211 -0.16232 -0.24414 -0.1105 0.10677 -0.15489 -0.076209 0.00022193 0.32134 0.24186 -0.1136 0.088886 -0.29019 0.18536 -0.18597 -0.11379 0.0084072 
off 0.26746 0.19389 -0.15004 0.053058 0.10212 -0.0083351 -0.099507 0.12774 -0.1197 0.18213 -0.040903 -0.053168 0.2647 -0.00061221 0.047088 0.0060092 0.12228 0.052176 -0.098493 0.012897 -0.073119 0.14662 0.2951 -0.10218 0.067724 -0.069729 0.095382 0.011507 -0.22207 0.24267 0.16571 -0.065604 0.26621 0.089575 -0.12089 0.087928 -0.36262 -0.15073 -0.17087 -0.0073636 0.22087 0.22861 0.065239 0.074861 0.024218 -0.0055817 -0.063207 -0.15651 0.19803 0.15784 0.14192 0.31631 0.061563 -0.050775 0.062882 -0.069449 -0.10531 0.059838 0.0086737 -0.029495 -0.0059764 0.040502 0.32131 0.21236 0.10608 -0.23256 0.10777 0.023518 0.24914 -0.034539 0.14586 0.086454 -0.12591 -0.0023972 0.14293 -0.086223 -0.16241 0.058323 0.10188 0.081171 -0.1207 0.2093 0.04463 0.10929 -0.17234 -0.25146 -0.11834 0.12132 -0.14933 -0.090365 -0.0056406 0.31887 0.23923 -0.11224 0.082446 -0.29715 0.18745 -0.18624 -0.11618 0.0090387 
wheati 0.30028 0.18914 -0.17028 0.045218 0.13465 -0.0061227 -0.099861 0.15167 -0.11927 0.22008 -0.065996 0.0031661 0.32073 0.02045 0.011103 0.027 0.16725 -0.027259 -0.10444 0.011238 -0.11629 0.13378 0.3028 -0.085545 0.098565 -0.067574 0.1097 -0.022411 -0.25703 0.23606 0.12103 -0.082782 0.29634 0.094618 -0.13816 0.10892 -0.34925 -0.17455 -0.18002 -0.0078414 0.27447 0.263 0.10437 0.077162 0.015979 -0.02245 -0.061856 -0.12603 0.23055 0.18386 0.2127 0.34966 0.050217 -0.092367 0.11565 -0.044352 -0.15226 0.06195 -0.012885 -0.066343 0.034799 -0.0059665 0.35908 0.2482 0.13442 -0.25267 0.13114 0.010748 0.26353 -0.075901 0.19982 0.062707 -0.15063 -0.012477 0.1315 -0.058713 -0.18302 0.042354 0.031519 0.090438 -0.07694 0.25763 0.0092708 0.072871 -0.12776 -0.26869 -0.15693 0.082272 -0.14067 -0.075349 -0.02087 0.31422 0.24775 -0.13848 0.1025 -0.30079 0.17192 -0.1569 -0.11092 0.021817 
pretti 0.24272 0.17795 -0.13213 0.056729 0.088755 -0.0069633 -0.10534 0.10308 -0.11424 0.16758 -0.034203 -0.085326 0.2467 -0.0058617 0.053172 -0.0015697 0.11034 0.086462 -0.087522 -0.0018062 -0.048918 0.16132 0.29527 -0.11256 0.063718 -0.072032 0.083108 0.016168 -0.20176 0.24167 0.1898 -0.053629 0.25937 0.074875 -0.12335 0.065848 -0.355 -0.13823 -0.16394 -0.007456 0.19928 0.21246 0.035174 0.075676 0.02854 -0.01314 -0.066635 -0.18379 0.17936 0.15588 0.11844 0.2964 0.058093 -0.028349 0.017762 -0.074134 -0.085689 0.069477 0.026208 -0.013187 -0.039948 0.065243 0.31736 0.21715 0.10887 -0.22936 0.091397 0.033267 0.266 -0.010612 0.11406 0.093761 -0.11877 -0.0069451 0.16569 -0.088573 -0.13569 0.055297 0.13172 0.080063 -0.14479 0.19691 0.079202 0.11078 -0.18465 -0.23222 -0.091976 0.12565 -0.15486 -0.085975 0.0080588 0.32982 0.24565 -0.10559 0.082461 -0.29837 0.19693 -0.20347 -0.11797 0.01111 
fresh 0.26846 0.18907 -0.14622 0.050625 0.10732 -0.0096219 -0.096025 0.11448 -0.12408 0.17986 -0.043436 -0.041327 0.28003 0.0011418 0.038936 0.0035011 0.13518 0.042513 -0.089505 0.0017286 -0.068486 0.161 0.30433 -0.098516 0.075871 -0.069739 0.089619 -0.0028851 -0.22771 0.23715 0.16062 -0.065537 0.27105 0.083279 -0.12391 0.08636 -0.3529 -0.15351 -0.16796 -0.010031 0.23435 0.23537 0.057482 0.071402 0.017569 -0.018316 -0.06686 -0.15507 0.18812 0.1639 0.15491 0.3096 0.052931 -0.044863 0.055534 -0.066677 -0.11756 0.06401 0.013045 -0.03258 -0.015279 0.040445 0.32511 0.23604 0.11803 -0.24003 0.11076 0.022018 0.26674 -0.035891 0.14431 0.081658 -0.13093 -0.013948 0.15435 -0.080117 -0.15605 0.055699 0.098835 0.087658 -0.1215 0.21848 0.056504 0.098442 -0.15534 -0.24852 -0.11774 0.10197 -0.15124 -0.082978 -0.0015167 0.32008 0.24598 -0.11773 0.084893 -0.29548 0.18848 -0.17648 -0.12004 0.012728 
strong 0.26539 0.18851 -0.14744 0.054406 0.10663 -0.0049236 -0.10186 0.11708 -0.11415 0.19011 -0.045771 -0.050926 0.2786 0.011756 0.036993 0.0063426 0.1316 0.041048 -0.086996 0.0065836 -0.078306 0.15758 0.29823 -0.099203 0.080549 -0.065723 0.093718 0.0017899 -0.23272 0.23808 0.1635 -0.069098 0.2722 0.079498 -0.12898 0.090454 -0.35528 -0.14856 -0.17075 -0.0076815 0.23095 0.22959 0.061931 0.07651 0.019401 -0.018014 -0.063475 -0.16085 0.19941 0.16873 0.15922 0.31552 0.051879 -0.055617 0.057569 -0.06431 -0.11441 0.068054 0.011089 -0.028361 -0.0091085 0.037247 0.32959 0.23169 0.11936 -0.234 0.10478 0.021788 0.26784 -0.039799 0.14921 0.072479 -0.1323 -0.015607 0.15504 -0.082236 -0.15163 0.052114 0.094115 0.083331 -0.11923 0.22608 0.049478 0.10032 -0.16364 -0.25027 -0.12239 0.10831 -0.15121 -0.079628 0.00039725 0.32296 0.24365 -0.12161 0.087536 -0.30042 0.18449 -0.18455 -0.11793 0.016624 
rate 0.19113 0.18903 -0.092369 0.080609 0.04412 -0.028528 -0.11208 0.068066 -0.12509 0.11943 0.013219 -0.17523 0.16995 -0.033449 0.12769 -0.030908 0.056009 0.20657 -0.077835 -0.027092 0.0010116 0.17745 0.29354 -0.15162 0.025639 -0.083724 0.073525 0.043136 -0.15107 0.26918 0.24664 -0.020987 0.24392 0.067056 -0.11684 0.040982 -0.39978 -0.094089 -0.14957 0.00076582 0.13683 0.16414 -0.023383 0.079204 0.040431 0.0011405 -0.059187 -0.21571 0.11524 0.12753 0.025836 0.24612 0.080539 0.039408 -0.059738 -0.11952 -0.041449 0.070044 0.072134 0.030926 -0.095996 0.153 0.25941 0.18294 0.084398 -0.20159 0.082662 0.068071 0.26311 0.054004 0.038352 0.13286 -0.083374 -0.0025161 0.1702 -0.11975 -0.099822 0.06486 0.24171 0.062268 -0.22539 0.12713 0.1626 0.15684 -0.2526 -0.21501 -0.037486 0.18322 -0.16478 -0.11209 0.022763 0.3357 0.26195 -0.071069 0.066913 -0.31289 0.23214 -0.24275 -0.13791 -0.0058011 
malti 0.32068 0.19246 -0.18835 0.036185 0.15456 0.0064066 -0.093436 0.16825 -0.12134 0.24942 -0.08298 0.060538 0.36293 0.03199 -0.014131 0.04357 0.19577 -0.083427 -0.10165 0.020035 -0.14562 0.13691 0.31144 -0.071256 0.12016 -0.063429 0.11899 -0.040369 -0.28977 0.2348 0.084905 -0.10116 0.31129 0.099812 -0.14886 0.12422 -0.33457 -0.18494 -0.18549 -0.0030879 0.31694 0.28237 0.11806 0.07587 0.0060963 -0.031644 -0.062871 -0.11613 0.26015 0.20606 0.25679 0.36133 0.042303 -0.11577 0.15596 -0.028317 -0.18035 0.06173 -0.032904 -0.090426 0.063875 -0.034694 0.38127 0.27166 0.14765 -0.25789 0.1419 -0.011102 0.27449 -0.11006 0.23845 0.037353 -0.17028 -0.021961 0.12229 -0.045823 -0.19776 0.039565 -0.019966 0.10111 -0.045231 0.29138 -0.026551 0.049377 -0.088952 -0.28555 -0.18741 0.053473 -0.1366 -0.062084 -0.029825 0.31005 0.24432 -0.16605 0.10869 -0.3015 0.15468 -0.12678 -0.10703 0.027271 
ml 0.25469 0.19322 -0.14383 0.061941 0.096176 -0.01266 -0.098622 0.11648 -0.11555 0.16511 -0.037175 -0.06639 0.24878 -0.0066937 0.055401 -0.0053108 0.11374 0.067011 -0.092673 0.013962 -0.061802 0.14425 0.28229 -0.10913 0.061401 -0.065065 0.093744 0.0063405 -0.20175 0.23014 0.169 -0.056072 0.25658 0.082337 -0.1122 0.076184 -0.36314 -0.13852 -0.15894 -0.015334 0.21407 0.21928 0.063238 0.068418 0.022991 0.00073149 -0.065829 -0.15789 0.17907 0.14353 0.12541 0.30233 0.069241 -0.035839 0.044771 -0.071124 -0.091902 0.056216 0.018443 -0.022414 -0.013243 0.057787 0.29964 0.20974 0.10378 -0.22684 0.10459 0.030015 0.24405 -0.02262 0.12842 0.10029 -0.11554 -1.4267e-05 0.14552 -0.081119 -0.15027 0.055341 0.11337 0.083449 -0.12526 0.19163 0.060091 0.10959 -0.18082 -0.23112 -0.10806 0.12631 -0.1484 -0.093351 -0.0064027 0.31545 0.23682 -0.1037 0.080064 -0.29088 0.19825 -0.19285 -0.11413 0.0092557 
paulan 0.16241 0.17811 -0.073175 0.078883 0.018429 -0.026909 -0.12475 0.034423 -0.11227 0.07774 0.017834 -0.2379 0.13054 -0.042827 0.13152 -0.052411 0.026948 0.26811 -0.071354 -0.020538 0.047423 0.1897 0.29273 -0.15734 0.0068486 -0.075136 0.041468 0.069744 -0.12534 0.26146 0.30271 -0.0056758 0.21589 0.059351 -0.096091 0.016141 -0.40556 -0.088736 -0.15201 -0.011101 0.085097 0.13949 -0.054492 0.081911 0.048864 0.020373 -0.072129 -0.25867 0.10227 0.11013 -0.027485 0.22946 0.070487 0.063758 -0.1164 -0.12263 0.0083331 0.083815 0.078287 0.070308 -0.1498 0.1829 0.25356 0.16809 0.074366 -0.19769 0.043866 0.077465 0.2665 0.087834 -0.0045577 0.14407 -0.061867 0.0060614 0.21244 -0.14231 -0.079261 0.070949 0.3001 0.061498 -0.25649 0.10382 0.18789 0.18574 -0.29036 -0.19155 0.00035123 0.20856 -0.17524 -0.10841 0.050265 0.35589 0.25627 -0.042236 0.053497 -0.30205 0.25019 -0.283 -0.1367 -0.0074061 
long 0.25234 0.18695 -0.13853 0.054841 0.093877 -0.01165 -0.10389 0.1068 -0.12038 0.16709 -0.037115 -0.070864 0.2557 -0.0018397 0.050977 0.0013029 0.11671 0.070686 -0.084509 0.0040721 -0.057716 0.15532 0.29282 -0.10646 0.070202 -0.066915 0.087503 0.011863 -0.20838 0.23513 0.17812 -0.058853 0.25926 0.081127 -0.11875 0.072889 -0.35264 -0.13801 -0.16085 -0.0081275 0.20341 0.21139 0.044543 0.07241 0.029926 -0.0090108 -0.063227 -0.16668 0.18467 0.15047 0.12754 0.29501 0.059091 -0.036705 0.034936 -0.071048 -0.091072 0.066403 0.024057 -0.015015 -0.024002 0.056503 0.3097 0.21342 0.10726 -0.22946 0.098092 0.02926 0.25721 -0.023226 0.12281 0.086559 -0.12777 -0.0075935 0.15143 -0.084886 -0.14043 0.057053 0.12387 0.076943 -0.13181 0.20163 0.065496 0.11494 -0.17593 -0.23511 -0.10549 0.12163 -0.14929 -0.081917 0.0037042 0.3185 0.23797 -0.10284 0.081761 -0.29473 0.19374 -0.19047 -0.11381 0.011696 
slight 0.30606 0.19165 -0.17518 0.04034 0.13823 0.0044525 -0.097689 0.15358 -0.12272 0.2327 -0.065965 0.018642 0.34703 0.026953 0.0067508 0.033202 0.17312 -0.036037 -0.10024 0.0080283 -0.11932 0.15076 0.31256 -0.081753 0.10826 -0.068544 0.11333 -0.020008 -0.2757 0.23766 0.10964 -0.088176 0.30282 0.090517 -0.14784 0.10423 -0.33836 -0.17383 -0.17754 -0.0028236 0.2959 0.26944 0.094883 0.08373 0.010742 -0.026177 -0.061979 -0.1374 0.24058 0.20202 0.22542 0.34464 0.048128 -0.099413 0.12837 -0.038959 -0.16588 0.064003 -0.013494 -0.078913 0.037445 -0.0061511 0.36305 0.25567 0.13727 -0.24989 0.13377 -0.0045944 0.27646 -0.08358 0.21337 0.051575 -0.16066 -0.01708 0.13567 -0.057168 -0.18081 0.046873 0.019356 0.099937 -0.071337 0.26955 0.0023096 0.056482 -0.10919 -0.26904 -0.17039 0.064826 -0.14942 -0.067309 -0.019344 0.31856 0.25016 -0.15368 0.10072 -0.29831 0.15741 -0.14114 -0.10554 0.022888 
summer 0.18798 0.18481 -0.086606 0.066925 0.039252 -0.020973 -0.11745 0.04897 -0.1149 0.11149 -0.0020582 -0.18442 0.17647 -0.026168 0.10418 -0.037762 0.062229 0.21163 -0.07285 -0.023385 0.019272 0.19147 0.30541 -0.14492 0.030611 -0.077505 0.051863 0.052304 -0.15591 0.25772 0.26795 -0.018206 0.23123 0.057376 -0.10991 0.029671 -0.39556 -0.10888 -0.1528 -0.0076249 0.13024 0.16372 -0.021962 0.08035 0.041702 -0.0032903 -0.069075 -0.23464 0.12647 0.13172 0.02511 0.25391 0.063315 0.039343 -0.073715 -0.10977 -0.026378 0.085778 0.068328 0.041247 -0.12089 0.14659 0.27992 0.19535 0.088792 -0.21197 0.053794 0.064625 0.27841 0.06206 0.026201 0.12486 -0.083722 -0.00054398 0.20388 -0.12709 -0.09583 0.07163 0.25028 0.065639 -0.22771 0.1377 0.15996 0.15901 -0.25347 -0.21341 -0.029448 0.18076 -0.17327 -0.099787 0.042732 0.35405 0.25661 -0.067081 0.065176 -0.29876 0.23708 -0.25407 -0.13769 -0.0018931 
no 0.22255 0.18471 -0.10817 0.059332 0.078151 -0.0061705 -0.11335 0.092823 -0.11508 0.15209 -0.020431 -0.11147 0.22822 -0.0091917 0.062147 -0.018819 0.094864 0.12895 -0.074112 -0.010486 -0.028183 0.17886 0.30167 -0.12555 0.056788 -0.074068 0.069449 0.024048 -0.18938 0.24996 0.20688 -0.043311 0.2451 0.071828 -0.12342 0.061114 -0.36669 -0.13223 -0.16794 -0.0095727 0.18071 0.19384 0.021632 0.07654 0.031979 -0.011711 -0.063887 -0.2039 0.15973 0.14816 0.086478 0.28906 0.059931 -0.0049388 -0.01235 -0.086045 -0.076457 0.085574 0.044638 0.0040086 -0.064588 0.099863 0.29415 0.21497 0.10468 -0.22602 0.084389 0.043176 0.27655 0.011326 0.089681 0.09864 -0.10644 -0.004644 0.17553 -0.09819 -0.12178 0.066895 0.17682 0.072236 -0.1794 0.17196 0.11066 0.12519 -0.21453 -0.23752 -0.083866 0.1375 -0.16215 -0.089492 0.023288 0.33599 0.24986 -0.096759 0.087877 -0.28888 0.21593 -0.21629 -0.13104 0.01288 
dark 0.24651 0.18798 -0.13692 0.062919 0.091071 -0.016289 -0.1047 0.10767 -0.12133 0.16316 -0.034804 -0.085228 0.2452 -0.0073132 0.063162 -0.0071977 0.10974 0.083635 -0.089984 0.0028592 -0.044339 0.15674 0.29122 -0.11009 0.054816 -0.066837 0.085727 0.011555 -0.2019 0.23927 0.18608 -0.056251 0.25833 0.087592 -0.11811 0.076831 -0.36313 -0.13681 -0.16089 -0.016513 0.20252 0.21599 0.050905 0.070569 0.021766 -0.0048982 -0.065356 -0.16547 0.1744 0.14578 0.11434 0.30182 0.062217 -0.03217 0.02789 -0.074511 -0.087821 0.058359 0.021971 -0.0086042 -0.033716 0.064827 0.30028 0.21497 0.1072 -0.22713 0.097951 0.036143 0.25446 -0.018306 0.11483 0.094247 -0.11359 -0.0034666 0.16119 -0.091089 -0.14035 0.056415 0.13507 0.079201 -0.14374 0.18818 0.072647 0.11501 -0.19168 -0.23063 -0.10051 0.13294 -0.15484 -0.086036 0.0077435 0.31919 0.24256 -0.094683 0.08222 -0.29376 0.20328 -0.20072 -0.1208 0.0073645 
soft 0.26197 0.18123 -0.14436 0.045743 0.10767 -0.0027498 -0.10622 0.11309 -0.11435 0.18981 -0.046176 -0.040016 0.28459 0.013841 0.028694 0.013027 0.1342 0.037784 -0.088464 0.001732 -0.075999 0.16134 0.3047 -0.09977 0.080361 -0.069794 0.087634 0.0054799 -0.23417 0.24674 0.15786 -0.063385 0.27628 0.075131 -0.13109 0.080981 -0.35184 -0.15419 -0.16536 1.1397e-05 0.23176 0.22982 0.056894 0.076175 0.01792 -0.020848 -0.066439 -0.17047 0.20044 0.179 0.15475 0.30229 0.051278 -0.056206 0.062368 -0.062688 -0.11785 0.063846 0.0098089 -0.035781 -0.0092232 0.042182 0.33029 0.2286 0.11636 -0.23755 0.10729 0.019537 0.27366 -0.037252 0.14771 0.073662 -0.13441 -0.012149 0.15294 -0.075817 -0.15442 0.051709 0.085796 0.083988 -0.11965 0.22786 0.047644 0.087619 -0.15234 -0.24857 -0.11986 0.098185 -0.14942 -0.076514 0.0015667 0.32207 0.24405 -0.12764 0.087946 -0.29309 0.17329 -0.17009 -0.11161 0.016205 
drinkabl 0.1936 0.1747 -0.089471 0.060214 0.051411 -0.011111 -0.1113 0.063762 -0.11407 0.13055 -0.0068062 -0.15654 0.19541 -0.017787 0.088328 -0.028431 0.07631 0.17603 -0.071977 -0.018656 0.0031825 0.18982 0.3021 -0.13462 0.042887 -0.073789 0.05301 0.03954 -0.16707 0.2558 0.24202 -0.0286 0.23423 0.055885 -0.1112 0.037886 -0.37853 -0.11323 -0.15469 -0.0062706 0.14489 0.17209 -0.01124 0.081104 0.040055 -0.0087235 -0.065641 -0.22425 0.1427 0.13988 0.044771 0.25853 0.062046 0.022442 -0.046091 -0.10263 -0.042296 0.083278 0.054077 0.027256 -0.095168 0.13309 0.29251 0.20863 0.088297 -0.21558 0.059826 0.054805 0.27842 0.046113 0.044811 0.11048 -0.094497 -0.0093631 0.19671 -0.11442 -0.10269 0.068154 0.21505 0.066764 -0.20404 0.15741 0.14085 0.13736 -0.22549 -0.2211 -0.048891 0.15812 -0.16832 -0.094337 0.030243 0.34196 0.2536 -0.081238 0.072075 -0.29335 0.22001 -0.23237 -0.13124 0.0054592 
feel 0.26975 0.18368 -0.14357 0.04771 0.11273 0.004385 -0.10307 0.122 -0.12619 0.19413 -0.053598 -0.038369 0.30197 0.012311 0.029568 0.015088 0.14355 0.031798 -0.086531 -0.0040231 -0.07462 0.16196 0.31085 -0.10134 0.084239 -0.074598 0.089672 0.0067957 -0.23867 0.24167 0.14592 -0.071556 0.27974 0.076357 -0.13641 0.08235 -0.34761 -0.15971 -0.16888 -0.0044041 0.24592 0.23619 0.060381 0.078369 0.019476 -0.020351 -0.063189 -0.16472 0.20748 0.18192 0.16521 0.31651 0.057441 -0.05163 0.068089 -0.067617 -0.12205 0.067429 0.0097507 -0.043307 -0.0080664 0.041578 0.33917 0.23747 0.12028 -0.24205 0.11201 0.0136 0.28005 -0.041779 0.15886 0.072077 -0.14617 -0.011033 0.15438 -0.076782 -0.15724 0.052353 0.080378 0.082209 -0.11875 0.23128 0.041374 0.089342 -0.15037 -0.25953 -0.12513 0.099884 -0.15118 -0.074472 -0.00044497 0.3291 0.24862 -0.13388 0.090567 -0.29896 0.17778 -0.16888 -0.1105 0.015498 
classic 0.25052 0.18419 -0.13829 0.056025 0.09045 -0.01156 -0.10582 0.10742 -0.11874 0.16496 -0.035992 -0.082134 0.25019 -0.0060456 0.054921 0.00055411 0.11274 0.080224 -0.089162 0.0015012 -0.051745 0.16245 0.29672 -0.11297 0.061024 -0.064722 0.085058 0.012226 -0.20187 0.23867 0.18411 -0.055587 0.25841 0.081391 -0.1167 0.072627 -0.36415 -0.1399 -0.16618 -0.011147 0.20343 0.21197 0.041813 0.077671 0.027396 -0.0085353 -0.067327 -0.17767 0.18115 0.15123 0.11853 0.29733 0.058329 -0.03114 0.024743 -0.078403 -0.088021 0.06137 0.022774 -0.012807 -0.036368 0.064994 0.30612 0.21167 0.10316 -0.2301 0.098005 0.033017 0.25679 -0.016546 0.1202 0.093368 -0.11775 -0.0054655 0.16235 -0.093173 -0.14177 0.058747 0.13015 0.08108 -0.1431 0.19505 0.06888 0.11335 -0.18941 -0.23848 -0.096767 0.12951 -0.15794 -0.087042 0.0057336 0.32308 0.24354 -0.1027 0.082249 -0.29566 0.19775 -0.20104 -0.11882 0.01097 
frothi 0.31142 0.19721 -0.17978 0.053979 0.13504 -0.0055469 -0.10114 0.1574 -0.12554 0.21465 -0.066906 0.0077012 0.31807 0.014053 0.01566 0.02974 0.16756 -0.03117 -0.1046 0.021333 -0.12153 0.13308 0.29565 -0.081114 0.09679 -0.066766 0.11833 -0.017791 -0.25571 0.23239 0.12012 -0.082474 0.29217 0.10141 -0.13104 0.11474 -0.35245 -0.17011 -0.17765 -0.014169 0.27441 0.26352 0.10414 0.072896 0.010629 -0.017489 -0.061115 -0.12117 0.22694 0.18331 0.21003 0.34947 0.061396 -0.093093 0.12592 -0.048818 -0.15035 0.048624 -0.019554 -0.067642 0.04171 -0.0058214 0.34429 0.23616 0.12796 -0.25182 0.13809 0.0086233 0.24864 -0.083214 0.20273 0.068964 -0.15214 -0.005929 0.12725 -0.061066 -0.18841 0.047006 0.029063 0.095849 -0.074448 0.24797 -0.0011937 0.079997 -0.13108 -0.26204 -0.15893 0.091645 -0.14014 -0.077608 -0.022856 0.30799 0.23622 -0.13425 0.096986 -0.29787 0.17275 -0.15468 -0.10368 0.017729 
larg 0.29711 0.19968 -0.17242 0.055724 0.11612 -0.014166 -0.10183 0.1495 -0.12644 0.20036 -0.046839 -0.023825 0.29315 0.0042012 0.03337 0.010507 0.14519 0.0093744 -0.10124 0.022561 -0.098936 0.13919 0.29643 -0.093314 0.078857 -0.063348 0.10654 -0.0062205 -0.2394 0.24105 0.14313 -0.075672 0.28217 0.10268 -0.12651 0.10421 -0.3663 -0.16048 -0.17525 -0.012896 0.24993 0.24484 0.084434 0.074134 0.015218 -0.0067619 -0.063197 -0.13497 0.21424 0.16164 0.17409 0.34186 0.064716 -0.074367 0.090473 -0.059213 -0.12695 0.054088 -0.0057212 -0.04794 0.024012 0.017022 0.33335 0.22439 0.11474 -0.23934 0.13139 0.022415 0.25228 -0.063654 0.17509 0.078992 -0.13675 -0.0023156 0.13591 -0.067439 -0.173 0.050138 0.067665 0.088534 -0.098871 0.22854 0.023334 0.09424 -0.16386 -0.2551 -0.13912 0.11165 -0.1458 -0.087163 -0.018488 0.30983 0.24304 -0.12127 0.098052 -0.30457 0.18409 -0.17564 -0.11716 0.013545 
decent 0.2374 0.18356 -0.12849 0.062993 0.078584 -0.014036 -0.10787 0.099095 -0.10986 0.15819 -0.030319 -0.09402 0.23251 -0.002591 0.060831 -0.010662 0.10427 0.09414 -0.084874 0.0039803 -0.044586 0.15981 0.28868 -0.11301 0.055407 -0.064599 0.077898 0.022063 -0.19476 0.23717 0.18937 -0.049561 0.25435 0.075209 -0.1161 0.069975 -0.36471 -0.13172 -0.16254 -0.01394 0.18801 0.20389 0.035424 0.074254 0.028122 -0.0063278 -0.066191 -0.17511 0.17022 0.14631 0.10541 0.29305 0.060002 -0.028633 0.014637 -0.076814 -0.075291 0.064603 0.027555 -0.0058395 -0.03889 0.071336 0.29795 0.20631 0.098965 -0.22058 0.087027 0.036173 0.25312 -0.0083101 0.10495 0.091975 -0.11102 -0.0024136 0.16112 -0.092916 -0.13283 0.056626 0.14116 0.073014 -0.14884 0.18388 0.080708 0.11886 -0.18898 -0.23554 -0.086781 0.13119 -0.15729 -0.086134 0.01419 0.31993 0.24236 -0.096942 0.082498 -0.29063 0.19957 -0.2035 -0.12069 0.005883 
look 0.22432 0.18857 -0.1166 0.070344 0.064215 -0.022096 -0.11177 0.084089 -0.11864 0.13333 -0.014694 -0.13882 0.21139 -0.017951 0.084203 -0.023358 0.081184 0.14731 -0.085967 0.00038508 -0.018648 0.16912 0.292 -0.12732 0.04129 -0.072585 0.071795 0.033595 -0.18208 0.24527 0.2301 -0.039787 0.24607 0.08023 -0.11229 0.058927 -0.38597 -0.11776 -0.16642 -0.010961 0.16048 0.19178 0.017803 0.074072 0.035376 0.0023007 -0.071348 -0.19601 0.15439 0.13526 0.070008 0.28466 0.068984 -0.00058001 -0.021192 -0.095073 -0.056942 0.067772 0.03409 0.014291 -0.073878 0.099742 0.28275 0.19354 0.097198 -0.22036 0.079335 0.049245 0.25418 0.016849 0.080761 0.11969 -0.098366 0.00478 0.17737 -0.10861 -0.12585 0.063873 0.19741 0.077347 -0.18545 0.15847 0.11273 0.14373 -0.22974 -0.21981 -0.062583 0.1638 -0.16226 -0.099275 0.018574 0.33504 0.24386 -0.075582 0.080742 -0.30202 0.22023 -0.23339 -0.12478 0.0039346 
easi 0.21623 0.17938 -0.11077 0.059611 0.069911 -0.0087438 -0.10843 0.083734 -0.1112 0.1529 -0.026854 -0.11123 0.23021 -0.0084503 0.066573 -0.01409 0.1017 0.11023 -0.080315 -0.012011 -0.028558 0.17061 0.29931 -0.11858 0.060057 -0.070226 0.073252 0.023821 -0.19291 0.24614 0.20382 -0.04861 0.24839 0.065579 -0.11396 0.055972 -0.36321 -0.12913 -0.1628 -0.0081101 0.18187 0.19665 0.019172 0.07766 0.031844 -0.012862 -0.059575 -0.19346 0.16035 0.15019 0.089617 0.27808 0.053991 -0.0081462 -0.0062491 -0.087059 -0.068798 0.073616 0.03754 0.0044607 -0.060924 0.089773 0.30328 0.21739 0.099809 -0.2215 0.081272 0.04207 0.27341 0.0098269 0.086545 0.096046 -0.11553 -0.0077304 0.18309 -0.09715 -0.12651 0.064917 0.16192 0.073991 -0.16005 0.18422 0.095108 0.12452 -0.20128 -0.23258 -0.077803 0.13405 -0.1614 -0.088813 0.015724 0.32963 0.24716 -0.091424 0.078804 -0.29022 0.20912 -0.20485 -0.12337 0.0087136 
touch 0.28232 0.19166 -0.1481 0.046188 0.11771 -0.0056139 -0.10539 0.12585 -0.11906 0.19472 -0.052816 -0.024212 0.29417 0.0088823 0.031945 0.01412 0.14334 0.022925 -0.089285 0.0031657 -0.081663 0.16152 0.3108 -0.099408 0.084208 -0.071731 0.093265 -0.0061542 -0.24608 0.24236 0.15446 -0.077801 0.28121 0.083823 -0.13801 0.092782 -0.35553 -0.15869 -0.17401 -0.0004271 0.24185 0.24438 0.061337 0.078376 0.018648 -0.021003 -0.068644 -0.16376 0.21068 0.18182 0.1781 0.3136 0.049896 -0.060861 0.072123 -0.059716 -0.12239 0.070363 0.0076699 -0.043751 -0.0013711 0.032335 0.34247 0.24279 0.12776 -0.24647 0.11605 0.015988 0.27577 -0.047647 0.17013 0.078081 -0.14132 -0.0069522 0.15374 -0.081812 -0.16685 0.053047 0.083474 0.093006 -0.11076 0.24073 0.032813 0.09178 -0.14604 -0.26216 -0.12677 0.096081 -0.15227 -0.076581 -0.0021088 0.32957 0.25513 -0.13302 0.087187 -0.30707 0.18411 -0.17653 -0.11037 0.016306 
typic 0.24133 0.18044 -0.12699 0.055605 0.083619 -0.015236 -0.10316 0.10357 -0.1202 0.16676 -0.030097 -0.086671 0.24291 -0.0049006 0.055285 -0.0057174 0.11012 0.08836 -0.083632 -0.0036744 -0.048218 0.15973 0.29508 -0.11211 0.060168 -0.071385 0.08272 0.015243 -0.20057 0.23955 0.18543 -0.05093 0.25368 0.080569 -0.1182 0.069194 -0.36301 -0.13643 -0.16574 -0.00814 0.19804 0.21005 0.039099 0.07446 0.02783 -0.01026 -0.065839 -0.17582 0.17286 0.15034 0.11357 0.29521 0.055902 -0.025541 0.023089 -0.079648 -0.087567 0.066231 0.028141 -0.0095019 -0.038279 0.073003 0.30212 0.21057 0.10299 -0.2209 0.09462 0.035582 0.25497 -0.0091651 0.11239 0.091617 -0.1104 -0.0035532 0.15604 -0.091508 -0.1357 0.056221 0.13327 0.078008 -0.14306 0.18571 0.074176 0.11129 -0.18666 -0.23103 -0.092275 0.1277 -0.15214 -0.086713 0.010564 0.32053 0.24532 -0.1017 0.080464 -0.29203 0.20117 -0.19995 -0.11944 0.0098282 
bubbl 0.26794 0.17679 -0.14695 0.055796 0.10617 -0.0050541 -0.10343 0.11896 -0.12226 0.18516 -0.044269 -0.047236 0.27529 0.009624 0.03349 0.0082221 0.13481 0.031198 -0.086986 0.0061459 -0.072522 0.15821 0.29745 -0.10429 0.077768 -0.069676 0.098876 0.0074921 -0.22535 0.24471 0.16197 -0.072109 0.26974 0.081529 -0.13621 0.088262 -0.35646 -0.14993 -0.16694 -0.0084204 0.23016 0.22658 0.056601 0.076309 0.021157 -0.014498 -0.064613 -0.16201 0.20251 0.17417 0.15741 0.31381 0.053659 -0.051723 0.061396 -0.06494 -0.11446 0.069906 0.012155 -0.030429 -0.0043942 0.045106 0.32998 0.22617 0.11171 -0.24151 0.10902 0.027317 0.26127 -0.040148 0.14899 0.082258 -0.1371 -0.011264 0.14673 -0.081673 -0.15156 0.04842 0.088877 0.07863 -0.1184 0.22149 0.050373 0.097579 -0.15813 -0.25056 -0.12639 0.10683 -0.15168 -0.079262 -0.0016829 0.32837 0.24242 -0.11644 0.094718 -0.29665 0.1819 -0.17726 -0.11356 0.012556 
