1010 100
</s> -0.053377 -0.012432 -0.15587 -0.36238 -0.050914 -0.020066 0.015781 -0.02152 -0.071772 0.11776 0.12427 0.13768 -0.026603 -0.018251 -0.10399 -0.053046 0.038018 0.090538 -0.020164 -0.077453 0.25978 0.11636 0.088549 -0.22724 0.0072292 -0.041483 0.22178 0.21009 0.22937 0.040151 0.22145 0.085888 -0.28473 -0.12566 -0.23579 -0.065356 0.28841 -0.029773 -0.075041 -0.17647 0.19141 -0.0088189 0.09829 -0.025505 0.16778 -0.045798 -0.074076 -0.07759 -0.063495 -0.0048184 -0.042098 0.19586 -0.22421 -0.16897 -0.10166 0.010829 -0.21656 0.068435 -0.030113 0.037068 0.17782 0.22386 0.24482 0.24227 0.11054 0.022979 -0.17399 -0.14102 0.062683 0.27276 -0.07711 0.0634 -0.17155 -0.14651 0.040994 0.15471 0.13154 0.25319 0.19921 -0.25235 0.010856 0.048689 -0.20193 0.12139 0.1007 0.027811 0.076344 -0.064897 -0.12867 -0.25976 0.077958 0.056094 0.1523 0.17193 -0.0093588 -0.25685 0.051945 0.079876 -0.25002 -0.052451 
banana -0.069402 -0.046924 -0.13916 -0.31539 -0.030532 -0.059777 0.063073 -0.03164 -0.11492 0.14675 0.15878 0.16397 -0.01353 -0.018451 -0.06103 -0.046055 0.028096 0.059803 -0.038561 -0.064586 0.27297 0.15289 0.090356 -0.25851 -0.016599 -0.0042783 0.22646 0.19704 0.25856 0.037353 0.2436 0.13138 -0.28691 -0.15994 -0.24975 -0.016696 0.22617 -0.074563 -0.11371 -0.23243 0.19223 -0.056326 0.10469 0.010615 0.15773 -0.0055821 -0.033049 -0.064806 -0.024167 -0.0052255 0.009044 0.19584 -0.18607 -0.12305 -0.13758 -0.025699 -0.20287 0.10818 -0.067444 0.034222 0.15757 0.22353 0.23766 0.22076 0.087019 -0.020317 -0.19116 -0.16382 -0.017845 0.24807 -0.048137 0.034524 -0.095227 -0.16005 0.054265 0.16176 0.18948 0.14887 0.26373 -0.36108 0.074598 0.032323 -0.25011 0.10435 0.077793 0.032753 0.021516 -0.025049 -0.083746 -0.27225 0.064854 0.11619 0.18999 0.15083 0.013482 -0.2625 0.086365 0.15352 -0.20841 -0.016026 
head -0.060897 -0.054982 -0.14135 -0.30609 -0.037277 -0.059627 0.054217 -0.034603 -0.11968 0.15037 0.15736 0.1662 -0.021865 -0.031461 -0.060661 -0.056516 0.015756 0.056319 -0.030576 -0.060299 0.27688 0.15212 0.077564 -0.2503 -0.016765 0.0075652 0.23011 0.1974 0.25294 0.03549 0.23504 0.12746 -0.2909 -0.15718 -0.24124 -0.017561 0.23632 -0.065368 -0.10608 -0.22747 0.18644 -0.061306 0.11302 0.0076001 0.17091 -0.01244 -0.055836 -0.073357 -0.032514 -0.00608 0.003456 0.19381 -0.18893 -0.13296 -0.1288 -0.020289 -0.1924 0.10919 -0.0711 0.044325 0.15471 0.21872 0.23679 0.23077 0.093464 -0.012499 -0.17942 -0.14843 -0.023007 0.25513 -0.049069 0.03804 -0.099599 -0.15834 0.047552 0.16342 0.17122 0.15622 0.25942 -0.33242 0.05403 0.037233 -0.24416 0.10513 0.073725 0.043445 0.024006 -0.012241 -0.083135 -0.26246 0.056593 0.10843 0.17601 0.14765 0.0083902 -0.24467 0.082828 0.14389 -0.22248 -0.027581 
aroma -0.064322 -0.046132 -0.14663 -0.31886 -0.034264 -0.05029 0.047903 -0.029251 -0.10995 0.13986 0.14901 0.16195 -0.023498 -0.024665 -0.063538 -0.050715 0.021574 0.064091 -0.027 -0.060187 0.27694 0.1405 0.082752 -0.24661 -0.015732 0.00014274 0.22487 0.19979 0.25453 0.032654 0.23744 0.12035 -0.28691 -0.15027 -0.23434 -0.027954 0.24671 -0.062552 -0.098773 -0.21455 0.18986 -0.051103 0.10485 0.00068439 0.16745 -0.023413 -0.04677 -0.068257 -0.03814 -0.012748 -0.005464 0.19308 -0.19393 -0.13866 -0.12177 -0.010331 -0.199 0.0991 -0.061451 0.043614 0.1587 0.21691 0.23427 0.2291 0.092836 -0.0036563 -0.18296 -0.15179 -0.014354 0.25438 -0.05633 0.043652 -0.10853 -0.15903 0.045387 0.16314 0.16 0.16895 0.24864 -0.32953 0.052438 0.036058 -0.23825 0.11002 0.079663 0.048133 0.035475 -0.025689 -0.095968 -0.26496 0.059717 0.1011 0.17639 0.14903 0.0066256 -0.25053 0.079703 0.138 -0.22474 -0.030324 
tast -0.064208 -0.036798 -0.14139 -0.33106 -0.034658 -0.045334 0.046795 -0.031345 -0.10341 0.13259 0.14711 0.15352 -0.028472 -0.018694 -0.070074 -0.04824 0.025994 0.065539 -0.025137 -0.067232 0.26228 0.1394 0.081462 -0.24864 -0.0092231 -0.0099357 0.2289 0.20612 0.24669 0.034596 0.23887 0.11517 -0.28172 -0.15042 -0.23831 -0.033596 0.25342 -0.057648 -0.097631 -0.20676 0.19228 -0.04187 0.10032 0.00068517 0.1612 -0.023736 -0.050544 -0.07267 -0.030768 -0.0096443 -0.0097223 0.19266 -0.19994 -0.14422 -0.11965 -0.0027503 -0.20452 0.088502 -0.054867 0.032083 0.17046 0.22316 0.2357 0.22625 0.10086 -0.0080513 -0.19011 -0.16114 0.00082821 0.25283 -0.058379 0.050362 -0.11801 -0.15359 0.048428 0.16148 0.16121 0.17534 0.23678 -0.32488 0.053084 0.039057 -0.2312 0.11047 0.08435 0.037616 0.043075 -0.038657 -0.099853 -0.26189 0.061264 0.093099 0.16914 0.16417 0.0042846 -0.25459 0.07595 0.12369 -0.22174 -0.034151 
beer -0.028323 -0.017613 -0.14912 -0.38637 -0.063046 -0.0026188 -0.022796 -0.01175 -0.066637 0.081721 0.11621 0.121 -0.046611 -0.042118 -0.11457 -0.054546 0.043561 0.084758 -0.019913 -0.069571 0.2677 0.090793 0.083856 -0.20014 0.011136 -0.046142 0.2164 0.2179 0.22453 0.024449 0.22484 0.08294 -0.28105 -0.098311 -0.21133 -0.085337 0.30503 0.01631 -0.048972 -0.1406 0.16906 0.0057058 0.078012 -0.047039 0.19282 -0.069094 -0.087384 -0.075503 -0.071064 -0.008222 -0.048567 0.1751 -0.22795 -0.20249 -0.080807 0.033648 -0.22246 0.049599 -0.022547 0.040904 0.1974 0.21616 0.23728 0.24319 0.12127 0.052017 -0.14794 -0.13318 0.084599 0.28294 -0.067593 0.078597 -0.2029 -0.15247 0.032126 0.16108 0.085413 0.2948 0.17667 -0.2099 -0.0086171 0.04795 -0.20339 0.16215 0.12393 0.043761 0.097396 -0.078127 -0.14981 -0.25592 0.071283 0.019326 0.12062 0.20343 -0.022649 -0.23052 0.026271 0.023309 -0.25833 -0.070212 
wheat -0.057868 -0.037816 -0.14313 -0.3353 -0.044018 -0.043863 0.04417 -0.028412 -0.10053 0.13505 0.14655 0.15432 -0.029848 -0.026379 -0.079137 -0.044742 0.027526 0.070135 -0.028106 -0.070596 0.26839 0.13675 0.085651 -0.24654 -0.0095649 -0.01483 0.22525 0.20308 0.25028 0.037727 0.23417 0.11421 -0.27977 -0.14292 -0.24107 -0.037755 0.26259 -0.047327 -0.095551 -0.20586 0.18549 -0.040616 0.10366 -0.0061964 0.16606 -0.027181 -0.054619 -0.074978 -0.038242 -0.008304 -0.013802 0.19325 -0.2026 -0.14604 -0.11977 -0.0025199 -0.20685 0.094503 -0.057764 0.039511 0.17047 0.21994 0.24123 0.23024 0.10487 -0.00086555 -0.17995 -0.15084 0.008858 0.25658 -0.059485 0.049554 -0.12183 -0.15498 0.045246 0.15755 0.15703 0.18765 0.22756 -0.30155 0.048363 0.039584 -0.22894 0.10847 0.087825 0.034596 0.044473 -0.040561 -0.098304 -0.25957 0.061755 0.084534 0.16196 0.1612 -0.0029179 -0.24969 0.068575 0.11575 -0.2278 -0.037837 
flavor -0.051198 -0.033175 -0.14968 -0.34877 -0.045491 -0.035067 0.032185 -0.025768 -0.096806 0.12916 0.1393 0.14636 -0.02903 -0.021659 -0.084377 -0.051592 0.032753 0.077762 -0.020404 -0.069417 0.26593 0.12631 0.08617 -0.23894 -0.0094409 -0.018984 0.22624 0.2173 0.24195 0.034614 0.23636 0.10466 -0.28268 -0.13749 -0.23487 -0.045652 0.26952 -0.042145 -0.084923 -0.19895 0.19202 -0.034366 0.10147 -0.012782 0.16979 -0.034596 -0.055184 -0.073647 -0.045812 -0.0067099 -0.023262 0.19407 -0.21288 -0.16249 -0.11217 0.0065645 -0.21426 0.08277 -0.049029 0.035312 0.17691 0.2207 0.24085 0.24079 0.10556 0.0053033 -0.17467 -0.15031 0.022349 0.26209 -0.06405 0.053497 -0.14232 -0.15633 0.045607 0.16135 0.14203 0.21479 0.23017 -0.28794 0.039095 0.039757 -0.23119 0.12433 0.098335 0.03954 0.0592 -0.052261 -0.11457 -0.26771 0.062632 0.075559 0.16507 0.16896 -0.005093 -0.25924 0.057702 0.10561 -0.23462 -0.042785 
clove -0.058301 -0.03985 -0.14078 -0.32185 -0.040007 -0.043407 0.047405 -0.026116 -0.10498 0.14101 0.14836 0.15277 -0.022623 -0.015631 -0.074536 -0.047195 0.025976 0.065765 -0.027745 -0.067395 0.2666 0.14092 0.083468 -0.2463 -0.0098523 -0.0015395 0.22492 0.20523 0.25578 0.040555 0.23367 0.11735 -0.2801 -0.14967 -0.23959 -0.030762 0.24937 -0.056407 -0.093571 -0.21676 0.18823 -0.047439 0.1052 0.0016748 0.1633 -0.025105 -0.050158 -0.074184 -0.034871 -0.0071996 -0.00999 0.19144 -0.19745 -0.14066 -0.12342 -0.0056025 -0.20136 0.095572 -0.05522 0.037743 0.16246 0.22001 0.23594 0.23128 0.10208 -0.010061 -0.19126 -0.16288 0.0012113 0.25865 -0.062206 0.045105 -0.11769 -0.15711 0.046684 0.16806 0.16379 0.18095 0.24737 -0.32119 0.04991 0.038629 -0.24171 0.11114 0.084827 0.038449 0.037997 -0.0317 -0.099627 -0.27328 0.056555 0.093721 0.1716 0.16254 0.0050309 -0.25961 0.07299 0.13192 -0.22578 -0.032847 
bottl -0.047032 -0.038642 -0.15037 -0.33306 -0.046921 -0.030208 0.017441 -0.018353 -0.094659 0.1215 0.1347 0.14169 -0.033775 -0.038249 -0.080929 -0.055543 0.02319 0.070058 -0.022995 -0.063852 0.26528 0.11426 0.078087 -0.22305 -0.008954 -0.015373 0.2202 0.20629 0.23241 0.033127 0.23293 0.10102 -0.28549 -0.13114 -0.21981 -0.0389 0.26639 -0.027809 -0.076556 -0.18444 0.17407 -0.03034 0.10146 -0.017946 0.17909 -0.045338 -0.070611 -0.073361 -0.058275 -0.0085057 -0.021954 0.18842 -0.20907 -0.16495 -0.10536 0.012628 -0.20605 0.077459 -0.04633 0.047987 0.16982 0.21116 0.232 0.23594 0.10173 0.01779 -0.1602 -0.13445 0.023911 0.26481 -0.068178 0.050575 -0.1444 -0.15887 0.038305 0.16283 0.12287 0.22853 0.22001 -0.26556 0.020815 0.046162 -0.22968 0.12689 0.098676 0.05394 0.061476 -0.034852 -0.11607 -0.2549 0.058909 0.067375 0.14714 0.16758 -0.0040215 -0.23891 0.052583 0.089097 -0.24564 -0.053515 
white -0.061711 -0.052625 -0.14627 -0.31425 -0.037786 -0.052713 0.045858 -0.028064 -0.11746 0.14444 0.15289 0.16618 -0.023854 -0.028805 -0.064163 -0.052201 0.022149 0.062833 -0.028625 -0.060843 0.27999 0.14055 0.076563 -0.24907 -0.014703 -0.0017674 0.22493 0.198 0.24674 0.03149 0.23758 0.12072 -0.29599 -0.15107 -0.23884 -0.021647 0.24936 -0.056083 -0.10555 -0.21861 0.18634 -0.05347 0.11079 -0.0017493 0.17378 -0.020031 -0.055734 -0.074973 -0.046871 -0.0088033 -0.0020574 0.19735 -0.19274 -0.13619 -0.12313 -0.011943 -0.19876 0.10061 -0.068058 0.046898 0.15427 0.21624 0.23683 0.23441 0.090485 -0.0026192 -0.1763 -0.14406 -0.010106 0.25817 -0.054709 0.045913 -0.11099 -0.15808 0.044161 0.15965 0.16176 0.17616 0.24935 -0.32156 0.043063 0.042873 -0.23262 0.11101 0.083209 0.046511 0.03293 -0.019066 -0.093349 -0.25801 0.064223 0.10236 0.17146 0.14413 0.0086306 -0.24719 0.080783 0.13552 -0.22594 -0.028578 
color -0.050147 -0.042725 -0.14376 -0.31716 -0.044427 -0.041723 0.041227 -0.024214 -0.10632 0.13285 0.14753 0.15219 -0.021838 -0.030991 -0.071859 -0.057243 0.022075 0.062882 -0.025419 -0.063715 0.26969 0.12964 0.080538 -0.22995 -0.014428 -0.0072329 0.22188 0.1991 0.2405 0.032953 0.23044 0.11553 -0.28873 -0.14015 -0.22907 -0.03266 0.25741 -0.048173 -0.089074 -0.20775 0.18189 -0.043591 0.10804 -0.004667 0.17887 -0.029383 -0.060703 -0.071405 -0.045991 -0.0054138 -0.011481 0.19097 -0.19678 -0.15034 -0.11361 -0.00082905 -0.20136 0.09062 -0.05879 0.046028 0.16157 0.20863 0.23273 0.22995 0.10039 0.0010545 -0.171 -0.14042 0.0061279 0.26317 -0.056677 0.045879 -0.12547 -0.15448 0.041251 0.16312 0.14395 0.18997 0.23602 -0.29959 0.031387 0.039488 -0.2366 0.11571 0.090634 0.045569 0.041783 -0.023547 -0.10441 -0.25823 0.057176 0.083776 0.16214 0.15437 -0.0028691 -0.24176 0.068152 0.11196 -0.23531 -0.040706 
sweet -0.061009 -0.042406 -0.14759 -0.34217 -0.035271 -0.047015 0.049149 -0.031228 -0.10202 0.14587 0.15349 0.16516 -0.0224 -0.019633 -0.083172 -0.054834 0.031399 0.076438 -0.02578 -0.069222 0.27364 0.14793 0.088031 -0.25618 -0.012641 -0.01052 0.23331 0.21576 0.25858 0.04178 0.24817 0.11797 -0.28201 -0.1529 -0.2493 -0.040354 0.25989 -0.060399 -0.10265 -0.2176 0.2008 -0.044444 0.10487 0.0020184 0.1686 -0.020021 -0.040399 -0.079384 -0.026724 -0.0064711 -0.013297 0.19844 -0.20641 -0.14563 -0.12857 -0.011751 -0.21977 0.09968 -0.055247 0.035201 0.17622 0.23012 0.24555 0.23735 0.096234 -0.0089746 -0.18506 -0.15996 0.003163 0.25274 -0.058043 0.047375 -0.1202 -0.15782 0.042976 0.15484 0.16818 0.17758 0.23836 -0.31893 0.064737 0.037898 -0.23589 0.10964 0.093169 0.03345 0.042962 -0.042872 -0.095198 -0.2637 0.066189 0.087888 0.17166 0.16079 -0.0017148 -0.27209 0.075171 0.1281 -0.22454 -0.022701 
nice -0.047858 -0.032716 -0.14195 -0.34136 -0.047225 -0.029904 0.022708 -0.022344 -0.093018 0.12164 0.13731 0.14144 -0.030373 -0.026964 -0.092661 -0.049387 0.034239 0.074361 -0.028138 -0.070072 0.26521 0.12389 0.079541 -0.23189 -0.0065854 -0.020209 0.226 0.20923 0.24218 0.037585 0.23712 0.10476 -0.27935 -0.1321 -0.23016 -0.047932 0.27188 -0.038106 -0.085103 -0.19356 0.1836 -0.03221 0.10089 -0.017173 0.1742 -0.042082 -0.063861 -0.077976 -0.044362 -0.0072857 -0.024182 0.194 -0.21088 -0.16512 -0.11628 0.0081275 -0.2167 0.077433 -0.04479 0.035498 0.17668 0.21848 0.24108 0.23745 0.10354 0.0087185 -0.17199 -0.15043 0.031146 0.26394 -0.067419 0.056117 -0.14334 -0.15393 0.037938 0.16178 0.13933 0.21926 0.21752 -0.27967 0.035473 0.042518 -0.22459 0.12062 0.099496 0.039943 0.058437 -0.045345 -0.11258 -0.25813 0.061621 0.069418 0.15397 0.17191 -0.0075858 -0.24611 0.059765 0.090933 -0.24119 -0.044383 
pour -0.05428 -0.043569 -0.14839 -0.32422 -0.042651 -0.040504 0.038171 -0.020504 -0.10008 0.13532 0.14425 0.15275 -0.028761 -0.032912 -0.074147 -0.053467 0.025257 0.071023 -0.021185 -0.060945 0.27025 0.12881 0.08045 -0.23488 -0.011366 -0.008816 0.22728 0.19766 0.24359 0.033182 0.23681 0.11441 -0.28541 -0.13985 -0.22823 -0.03753 0.26012 -0.046048 -0.0921 -0.20191 0.18244 -0.043749 0.10764 -0.007663 0.17448 -0.028811 -0.061336 -0.074313 -0.048798 -0.009125 -0.013776 0.19477 -0.19826 -0.15288 -0.11145 -0.0042314 -0.20396 0.094169 -0.056724 0.041723 0.16027 0.21692 0.23349 0.23815 0.099897 0.0053696 -0.17045 -0.14267 0.0037626 0.26237 -0.058641 0.048057 -0.12546 -0.1576 0.043693 0.16273 0.14434 0.19239 0.23091 -0.29022 0.034265 0.04309 -0.22867 0.11686 0.083524 0.045978 0.044796 -0.025702 -0.10685 -0.25717 0.062855 0.082985 0.16142 0.15712 0.0027672 -0.24341 0.064733 0.11375 -0.2377 -0.043805 
light -0.074346 -0.045251 -0.14713 -0.32469 -0.033114 -0.057057 0.07345 -0.034526 -0.11232 0.15807 0.15456 0.17426 -0.022569 -0.014977 -0.060614 -0.047017 0.021865 0.069185 -0.037756 -0.060802 0.26652 0.15491 0.088027 -0.26466 -0.019878 0.0012964 0.23249 0.20168 0.26628 0.040554 0.23991 0.13028 -0.27501 -0.16508 -0.25666 -0.021839 0.23626 -0.080407 -0.12129 -0.22778 0.20224 -0.056878 0.11485 0.01375 0.15277 -0.001652 -0.022857 -0.069892 -0.017971 -0.0073187 0.0041002 0.19875 -0.18441 -0.11849 -0.13506 -0.032242 -0.20283 0.11831 -0.071334 0.02895 0.16034 0.23141 0.23824 0.22707 0.09144 -0.028372 -0.1918 -0.15965 -0.026687 0.23328 -0.050534 0.030925 -0.084022 -0.15247 0.052564 0.15694 0.19159 0.13416 0.25243 -0.35516 0.082351 0.032854 -0.23764 0.087374 0.067823 0.031771 0.015939 -0.022402 -0.072457 -0.25923 0.050481 0.11619 0.18545 0.13643 0.013478 -0.26912 0.092138 0.16185 -0.21061 -0.010483 
finish -0.059146 -0.036948 -0.15192 -0.34594 -0.042471 -0.040638 0.042764 -0.033625 -0.10021 0.1328 0.14968 0.1555 -0.02972 -0.021932 -0.081327 -0.052709 0.024137 0.072426 -0.0223 -0.071402 0.27324 0.13971 0.086319 -0.25011 -0.015755 -0.014322 0.23421 0.21276 0.25402 0.035917 0.24524 0.1168 -0.28905 -0.15082 -0.24761 -0.045572 0.26545 -0.055036 -0.096603 -0.20279 0.19202 -0.042406 0.10278 -0.0036781 0.17166 -0.023653 -0.053429 -0.075144 -0.039722 -0.010998 -0.013895 0.1969 -0.20851 -0.15556 -0.12566 -0.0028852 -0.21294 0.091354 -0.059636 0.036169 0.17838 0.22959 0.24316 0.23242 0.10352 -0.001216 -0.17984 -0.15412 0.012108 0.26686 -0.057956 0.050815 -0.12654 -0.15497 0.049247 0.1608 0.15478 0.19463 0.2341 -0.30579 0.047744 0.041703 -0.2289 0.11659 0.087951 0.036155 0.050816 -0.045287 -0.10261 -0.26692 0.059263 0.090552 0.16796 0.16484 -0.00036843 -0.257 0.074458 0.12212 -0.23815 -0.035641 
good -0.046035 -0.027912 -0.15574 -0.36442 -0.05497 -0.026143 0.0083886 -0.024361 -0.089597 0.1156 0.13565 0.14317 -0.037834 -0.028602 -0.093963 -0.055568 0.041845 0.079881 -0.019823 -0.071041 0.27426 0.11747 0.08382 -0.22991 -0.0043382 -0.023991 0.22525 0.2158 0.23637 0.034191 0.23275 0.098608 -0.28017 -0.12512 -0.22555 -0.060218 0.27974 -0.025871 -0.077545 -0.18454 0.18293 -0.019631 0.097457 -0.026096 0.18113 -0.04747 -0.070722 -0.07693 -0.051121 -0.0061973 -0.033752 0.18833 -0.21562 -0.17401 -0.10234 0.015671 -0.21732 0.070703 -0.042549 0.039021 0.18372 0.21671 0.24572 0.2436 0.11127 0.027062 -0.16188 -0.14264 0.040819 0.2705 -0.06511 0.063783 -0.16224 -0.15368 0.038805 0.16368 0.12342 0.2393 0.21055 -0.25878 0.02222 0.047958 -0.22387 0.13003 0.1069 0.043563 0.066945 -0.060064 -0.12442 -0.26042 0.064396 0.058782 0.14711 0.17848 -0.0038034 -0.25199 0.04872 0.079992 -0.24468 -0.052202 
bodi -0.065888 -0.033774 -0.14651 -0.33106 -0.03548 -0.05152 0.050252 -0.026714 -0.1049 0.13588 0.1419 0.1559 -0.024094 -0.020829 -0.076135 -0.04845 0.028166 0.075705 -0.032969 -0.070505 0.26118 0.13888 0.084584 -0.24275 -0.012189 -0.014791 0.22723 0.20481 0.24945 0.038304 0.23729 0.1151 -0.27938 -0.1469 -0.24622 -0.03956 0.25001 -0.064503 -0.10314 -0.20554 0.19401 -0.039191 0.10154 -0.00044977 0.16529 -0.016988 -0.045702 -0.074916 -0.03355 -0.010103 -0.010452 0.19373 -0.19561 -0.1391 -0.12187 -0.013938 -0.21115 0.096122 -0.058885 0.042369 0.17339 0.22675 0.23851 0.22955 0.09863 -0.012458 -0.1866 -0.16005 0.0020495 0.26011 -0.063028 0.045442 -0.12457 -0.15537 0.047304 0.1666 0.16863 0.18546 0.24146 -0.32132 0.051433 0.038023 -0.23934 0.11256 0.090201 0.039411 0.039817 -0.038806 -0.10029 -0.27016 0.062199 0.096513 0.16963 0.16016 -0.0020515 -0.26476 0.069901 0.12875 -0.2246 -0.026798 
amber -0.050107 -0.04465 -0.1504 -0.32609 -0.047897 -0.040858 0.033142 -0.024693 -0.10391 0.12878 0.13989 0.14854 -0.027055 -0.030933 -0.074752 -0.053785 0.023743 0.067251 -0.029824 -0.063322 0.27195 0.12603 0.080799 -0.23213 -0.010546 -0.0097013 0.21826 0.20257 0.24494 0.033749 0.22985 0.11245 -0.28616 -0.13701 -0.22652 -0.038796 0.25909 -0.036257 -0.085224 -0.19642 0.17484 -0.041049 0.10373 -0.0089104 0.18249 -0.032297 -0.064284 -0.070943 -0.052254 -0.0095912 -0.011595 0.18919 -0.20107 -0.15383 -0.11044 -0.0040929 -0.19892 0.09093 -0.053952 0.044446 0.16302 0.21061 0.23367 0.23014 0.10261 0.012229 -0.16792 -0.13835 0.01019 0.26463 -0.060517 0.053264 -0.13297 -0.15617 0.040292 0.16583 0.14067 0.20728 0.23476 -0.29205 0.032892 0.04297 -0.23035 0.1232 0.085906 0.054882 0.047831 -0.028368 -0.10478 -0.2643 0.058859 0.080913 0.15941 0.15986 -0.001993 -0.23793 0.062158 0.11203 -0.23311 -0.040238 
medium -0.062267 -0.034238 -0.14393 -0.33044 -0.040587 -0.045207 0.052594 -0.033264 -0.10258 0.13965 0.1466 0.15616 -0.023289 -0.024212 -0.078642 -0.047538 0.028169 0.076782 -0.031821 -0.06805 0.26348 0.14358 0.086878 -0.25103 -0.011831 -0.0089255 0.23096 0.20758 0.24833 0.03721 0.23618 0.11621 -0.27754 -0.15369 -0.24537 -0.037974 0.25239 -0.059999 -0.10694 -0.21219 0.1912 -0.046727 0.1046 0.0029359 0.16223 -0.017359 -0.042919 -0.073036 -0.030271 -0.0073666 -0.0063476 0.19257 -0.19901 -0.13959 -0.12608 -0.015543 -0.2118 0.097539 -0.057591 0.033956 0.16997 0.22808 0.23954 0.23046 0.10169 -0.0071824 -0.18388 -0.15721 0.00283 0.25263 -0.058135 0.043212 -0.11841 -0.15257 0.051714 0.16094 0.16682 0.18088 0.23834 -0.31391 0.063026 0.037445 -0.23432 0.10666 0.087657 0.034865 0.031918 -0.034776 -0.09653 -0.26413 0.060729 0.097493 0.17026 0.16046 0.0025937 -0.26813 0.074291 0.12599 -0.2244 -0.024339 
yeast -0.067916 -0.045483 -0.14153 -0.32927 -0.037615 -0.05578 0.062546 -0.036512 -0.11617 0.14566 0.15643 0.16704 -0.022017 -0.015067 -0.066811 -0.0458 0.026278 0.066641 -0.03103 -0.072893 0.27112 0.14951 0.082527 -0.26109 -0.015816 -0.0057672 0.23296 0.20538 0.258 0.03819 0.24294 0.13339 -0.28584 -0.15674 -0.2485 -0.028503 0.24631 -0.070147 -0.11168 -0.22227 0.19296 -0.054391 0.10094 0.0050676 0.159 -0.011544 -0.040195 -0.07588 -0.027216 -0.0094797 0.0051586 0.19656 -0.1904 -0.13176 -0.13412 -0.017512 -0.20565 0.10331 -0.064151 0.035671 0.16454 0.22373 0.23926 0.22794 0.089025 -0.022309 -0.19017 -0.16374 -0.0151 0.25029 -0.054878 0.042397 -0.09887 -0.15608 0.052571 0.15726 0.18239 0.15483 0.24562 -0.34706 0.065026 0.035724 -0.24102 0.10046 0.080893 0.03655 0.028112 -0.028688 -0.087712 -0.26893 0.059685 0.10593 0.17241 0.15373 0.0054593 -0.26124 0.083716 0.14599 -0.21264 -0.025732 
not -0.043488 -0.017406 -0.14598 -0.36368 -0.063299 -0.01056 0.0012426 -0.01641 -0.083785 0.11052 0.12727 0.13025 -0.044377 -0.026914 -0.10822 -0.049673 0.042796 0.087449 -0.019242 -0.066008 0.26236 0.1092 0.077855 -0.21821 -0.004431 -0.034234 0.22204 0.2156 0.22963 0.027998 0.23195 0.087756 -0.27577 -0.1126 -0.22059 -0.061842 0.29364 -0.013544 -0.06334 -0.16829 0.18046 -0.013399 0.092244 -0.03257 0.17637 -0.052026 -0.076841 -0.07794 -0.059278 -0.0099357 -0.038382 0.19216 -0.21956 -0.18135 -0.10195 0.021867 -0.22132 0.064839 -0.028969 0.035948 0.19065 0.21278 0.23631 0.2448 0.12336 0.028522 -0.16492 -0.15093 0.065286 0.27593 -0.06944 0.063637 -0.17974 -0.15066 0.04187 0.16333 0.11494 0.25602 0.19861 -0.24423 0.0086177 0.047702 -0.2173 0.1351 0.10789 0.046521 0.085037 -0.070509 -0.1286 -0.26446 0.063984 0.04802 0.13895 0.18758 -0.013204 -0.25366 0.041837 0.06861 -0.24524 -0.056264 
brown -0.055722 -0.039866 -0.14399 -0.32436 -0.044744 -0.039558 0.028011 -0.022201 -0.1032 0.12866 0.14291 0.14645 -0.028254 -0.034073 -0.074252 -0.056054 0.023763 0.065218 -0.022464 -0.063379 0.27066 0.12431 0.079756 -0.22761 -0.010961 -0.011799 0.21895 0.20201 0.24139 0.030727 0.23431 0.1054 -0.28693 -0.13742 -0.22145 -0.034839 0.26107 -0.038559 -0.089883 -0.1993 0.17494 -0.041652 0.10139 -0.01074 0.17829 -0.032936 -0.05917 -0.070499 -0.052851 -0.012072 -0.014979 0.18851 -0.20042 -0.15678 -0.10711 0.0031283 -0.20104 0.086878 -0.056037 0.047088 0.16207 0.21222 0.22965 0.23241 0.10403 0.012421 -0.17229 -0.14078 0.012198 0.26061 -0.062026 0.052652 -0.13413 -0.15842 0.04143 0.16089 0.1368 0.20604 0.23445 -0.28557 0.027978 0.044217 -0.22838 0.1255 0.086041 0.050047 0.051362 -0.030181 -0.1066 -0.259 0.062809 0.077606 0.15945 0.15977 0.0030764 -0.2388 0.065406 0.10718 -0.23248 -0.041194 
carbon -0.056043 -0.032258 -0.14901 -0.35242 -0.044161 -0.040319 0.039436 -0.025671 -0.097612 0.1265 0.14121 0.15141 -0.026091 -0.019407 -0.082087 -0.05307 0.032742 0.079407 -0.022518 -0.06755 0.26169 0.1374 0.087894 -0.24392 -0.0087647 -0.017812 0.23161 0.21232 0.24276 0.037855 0.23216 0.11113 -0.27257 -0.1421 -0.24273 -0.050141 0.26144 -0.049446 -0.092498 -0.20345 0.19519 -0.038046 0.1033 -0.0034588 0.16369 -0.027546 -0.047577 -0.076258 -0.037842 -0.0045218 -0.016858 0.18785 -0.20505 -0.14915 -0.1176 -0.0026485 -0.21062 0.085148 -0.050832 0.02477 0.18357 0.22726 0.24702 0.23208 0.10792 2.8736e-05 -0.18606 -0.162 0.018766 0.2634 -0.066345 0.050003 -0.13779 -0.15516 0.042781 0.16519 0.15619 0.2025 0.23266 -0.30346 0.052081 0.037372 -0.2335 0.11361 0.0969 0.037917 0.050414 -0.052523 -0.11231 -0.27147 0.065414 0.084161 0.17042 0.17055 -0.00016055 -0.26911 0.066733 0.10802 -0.23214 -0.029744 
dark -0.047187 -0.028834 -0.15134 -0.34696 -0.060368 -0.027102 0.0092965 -0.016124 -0.088656 0.12006 0.13249 0.14029 -0.03267 -0.035871 -0.092607 -0.053358 0.035736 0.081298 -0.022682 -0.066096 0.27053 0.11121 0.07893 -0.22192 -0.0060847 -0.015493 0.21997 0.20601 0.23686 0.032612 0.2369 0.092839 -0.28945 -0.12571 -0.22537 -0.053821 0.28328 -0.023556 -0.073775 -0.18026 0.176 -0.02379 0.10272 -0.027394 0.18228 -0.050407 -0.076532 -0.073805 -0.061993 -0.0077547 -0.029827 0.18902 -0.21352 -0.17421 -0.096361 0.018427 -0.21159 0.070691 -0.041584 0.048741 0.17357 0.20938 0.24167 0.24362 0.11368 0.020725 -0.15654 -0.1285 0.0374 0.27013 -0.065368 0.062353 -0.16504 -0.15192 0.04315 0.16137 0.11811 0.2409 0.21037 -0.25475 0.012437 0.045839 -0.22324 0.13189 0.09873 0.049667 0.070954 -0.047181 -0.12235 -0.25553 0.065956 0.061751 0.14614 0.17749 -0.0066674 -0.24062 0.046124 0.077715 -0.24559 -0.060793 
fruiti -0.067903 -0.04345 -0.1396 -0.32975 -0.035306 -0.052283 0.056911 -0.03346 -0.1075 0.14712 0.15254 0.16498 -0.021772 -0.019822 -0.068675 -0.050902 0.022693 0.068016 -0.032883 -0.06412 0.26943 0.14392 0.088109 -0.25712 -0.013555 -0.0044714 0.2279 0.19929 0.26357 0.03772 0.24274 0.12542 -0.28185 -0.15811 -0.2477 -0.029428 0.24948 -0.069328 -0.10777 -0.22002 0.19754 -0.052979 0.10493 0.0053356 0.15838 -0.012105 -0.037208 -0.075459 -0.030256 -0.0080121 -0.0065581 0.20035 -0.192 -0.13563 -0.13478 -0.021185 -0.20904 0.10948 -0.064941 0.033172 0.16486 0.22752 0.24387 0.22741 0.097621 -0.012486 -0.19125 -0.16162 -0.011896 0.25467 -0.056982 0.038113 -0.10622 -0.15823 0.04831 0.16512 0.18156 0.16301 0.24979 -0.34358 0.063176 0.03698 -0.23586 0.10205 0.076417 0.035414 0.030825 -0.033422 -0.090921 -0.26752 0.058766 0.097765 0.18231 0.15136 0.0022721 -0.26267 0.084137 0.14294 -0.2196 -0.020212 
malt -0.061613 -0.042394 -0.14376 -0.34513 -0.039126 -0.045944 0.051956 -0.033545 -0.10586 0.14356 0.15206 0.16294 -0.024748 -0.019834 -0.076105 -0.052755 0.030734 0.067973 -0.029361 -0.071588 0.26432 0.14477 0.091578 -0.2514 -0.013154 -0.012102 0.22863 0.20838 0.2576 0.03948 0.24182 0.12171 -0.2828 -0.15738 -0.24511 -0.035957 0.25845 -0.062624 -0.097072 -0.22065 0.19123 -0.044556 0.10269 0.0053913 0.16136 -0.019449 -0.040607 -0.075049 -0.024213 -0.0086355 -0.0083135 0.19769 -0.195 -0.14119 -0.13019 -0.010823 -0.21287 0.097778 -0.060221 0.035503 0.17494 0.22645 0.23943 0.23178 0.10197 -0.0070084 -0.18514 -0.15983 -0.0050218 0.25042 -0.057382 0.045292 -0.11605 -0.15864 0.051464 0.16306 0.17168 0.17392 0.2442 -0.32715 0.063129 0.035559 -0.23944 0.11157 0.087399 0.036351 0.039336 -0.03641 -0.096576 -0.27342 0.059342 0.094991 0.16882 0.16492 0.0059929 -0.26447 0.073462 0.12926 -0.21723 -0.027201 
spice -0.056559 -0.039115 -0.14028 -0.32921 -0.036144 -0.047327 0.046466 -0.030121 -0.10761 0.14378 0.15077 0.15305 -0.022998 -0.020031 -0.07341 -0.047086 0.032994 0.069199 -0.027976 -0.068987 0.26543 0.14058 0.08137 -0.24743 -0.014159 -0.011411 0.22663 0.19823 0.24938 0.037844 0.23569 0.11884 -0.27801 -0.14962 -0.24145 -0.036064 0.24948 -0.058185 -0.10434 -0.22093 0.19374 -0.042699 0.10315 -0.0026254 0.16232 -0.017349 -0.040882 -0.075611 -0.027877 -0.0091629 -0.0066397 0.19013 -0.19505 -0.13687 -0.12768 -0.0077775 -0.20821 0.098917 -0.06081 0.036243 0.16808 0.22261 0.23607 0.23205 0.095456 -0.0096363 -0.18402 -0.15841 -0.004405 0.25317 -0.057879 0.042804 -0.11434 -0.15181 0.048625 0.15795 0.17063 0.1757 0.24095 -0.31768 0.054646 0.037408 -0.23577 0.10619 0.084942 0.032996 0.035777 -0.032127 -0.091662 -0.26266 0.061658 0.096158 0.16685 0.15398 0.003436 -0.25779 0.072904 0.12849 -0.21767 -0.026569 
bit -0.060261 -0.022482 -0.14453 -0.35208 -0.042525 -0.033914 0.036984 -0.027939 -0.094752 0.12589 0.13664 0.15686 -0.034542 -0.020771 -0.080179 -0.046998 0.032765 0.068781 -0.024111 -0.06923 0.26591 0.13325 0.086338 -0.24189 -0.0048468 -0.022632 0.23084 0.21235 0.24351 0.043392 0.23368 0.10847 -0.27448 -0.14238 -0.2354 -0.046835 0.26105 -0.044966 -0.088815 -0.20073 0.1935 -0.027365 0.10134 -0.0030635 0.16535 -0.034805 -0.047671 -0.071821 -0.041316 -0.0072963 -0.017383 0.19528 -0.20618 -0.14975 -0.11884 0.00067704 -0.2162 0.0826 -0.048275 0.026844 0.18049 0.22397 0.24176 0.23518 0.10706 0.0040952 -0.18584 -0.16029 0.021632 0.2522 -0.06276 0.052665 -0.13904 -0.15789 0.046917 0.15579 0.15343 0.20652 0.22343 -0.29988 0.048088 0.03241 -0.23024 0.11804 0.094429 0.034112 0.055595 -0.052955 -0.10744 -0.27055 0.060007 0.076067 0.16242 0.17223 -0.007276 -0.26307 0.067194 0.10659 -0.22792 -0.034839 
cloudi -0.057827 -0.040157 -0.14225 -0.32659 -0.043357 -0.040178 0.033616 -0.025434 -0.10553 0.13382 0.14682 0.14864 -0.025995 -0.031848 -0.07416 -0.057174 0.023077 0.064585 -0.025301 -0.06584 0.26881 0.12937 0.080864 -0.23736 -0.0099096 -0.0065527 0.22059 0.20249 0.24644 0.03523 0.23239 0.10999 -0.28738 -0.13879 -0.22941 -0.030934 0.25742 -0.044073 -0.088885 -0.20088 0.17848 -0.040665 0.10132 -0.0078118 0.172 -0.032728 -0.060656 -0.07377 -0.047556 -0.0067471 -0.013649 0.19137 -0.2007 -0.15345 -0.11561 -0.00025628 -0.20185 0.08997 -0.055428 0.049758 0.16077 0.21499 0.23251 0.23285 0.099747 0.0074358 -0.175 -0.14651 0.010824 0.25926 -0.062388 0.04893 -0.1299 -0.15564 0.042451 0.16258 0.14574 0.19476 0.234 -0.29578 0.03016 0.043861 -0.23444 0.11718 0.088609 0.046645 0.04644 -0.03156 -0.10682 -0.26172 0.059151 0.0799 0.16169 0.15785 2.3088e-05 -0.24256 0.067069 0.11089 -0.23673 -0.040532 
hefe -0.035248 -0.016903 -0.14765 -0.36772 -0.063744 -0.017227 0.0046382 -0.019022 -0.07855 0.10223 0.12242 0.13015 -0.040914 -0.029898 -0.10726 -0.054527 0.037485 0.083323 -0.015292 -0.069085 0.25929 0.10465 0.076889 -0.20962 -0.0020079 -0.033817 0.21759 0.21542 0.22966 0.034757 0.22663 0.086555 -0.2704 -0.10971 -0.2212 -0.072753 0.28798 -0.0095071 -0.058006 -0.16125 0.17422 -0.012121 0.092566 -0.038862 0.18192 -0.061066 -0.076656 -0.072371 -0.052357 -0.0045216 -0.040671 0.17739 -0.22362 -0.18484 -0.089232 0.028306 -0.21388 0.059905 -0.026809 0.042365 0.1885 0.22009 0.24133 0.24171 0.12067 0.030678 -0.16527 -0.13515 0.058013 0.26542 -0.069827 0.066874 -0.18231 -0.14882 0.037782 0.16095 0.098499 0.26459 0.19643 -0.22656 0.010782 0.046583 -0.21367 0.14169 0.11572 0.042168 0.085613 -0.064849 -0.13676 -0.25506 0.068062 0.038841 0.13102 0.18756 -0.013989 -0.24075 0.039986 0.052647 -0.24683 -0.062368 
bitter -0.056128 -0.028108 -0.14697 -0.35796 -0.043999 -0.03378 0.032018 -0.025335 -0.093671 0.12749 0.14011 0.15249 -0.033444 -0.022354 -0.089804 -0.048433 0.03803 0.078024 -0.028557 -0.073641 0.27046 0.13254 0.087417 -0.24343 -0.0069933 -0.02461 0.22571 0.21988 0.24771 0.037073 0.24198 0.1068 -0.27416 -0.13763 -0.23679 -0.053727 0.26729 -0.035516 -0.086522 -0.19413 0.19223 -0.025099 0.093854 -0.0076892 0.17157 -0.033779 -0.049286 -0.074681 -0.037817 -0.011199 -0.024013 0.18743 -0.21167 -0.15999 -0.11572 -0.0019829 -0.21818 0.08104 -0.045203 0.025233 0.18845 0.22835 0.2435 0.23723 0.1122 0.0068932 -0.17878 -0.15858 0.030047 0.26073 -0.056111 0.059266 -0.14837 -0.15967 0.041833 0.1538 0.14721 0.21873 0.22074 -0.28824 0.047945 0.033551 -0.23012 0.12332 0.097813 0.038886 0.057198 -0.056239 -0.10779 -0.26902 0.064328 0.072332 0.15868 0.17863 -0.0053567 -0.26696 0.060626 0.098234 -0.22978 -0.034296 
hazi -0.058326 -0.042955 -0.14031 -0.31789 -0.040947 -0.043291 0.04132 -0.026831 -0.10465 0.14195 0.14867 0.15302 -0.022936 -0.030074 -0.071056 -0.053552 0.022545 0.06829 -0.025692 -0.06481 0.26715 0.12948 0.076134 -0.23762 -0.011381 -0.006929 0.22074 0.19578 0.24165 0.036308 0.23151 0.11418 -0.28348 -0.13893 -0.22886 -0.028633 0.24796 -0.045422 -0.094442 -0.20864 0.17916 -0.049519 0.10331 -0.004376 0.16926 -0.027995 -0.053312 -0.074131 -0.045251 -0.0095953 -0.0063109 0.1898 -0.1919 -0.14394 -0.11606 -0.0061922 -0.19788 0.09343 -0.05782 0.044764 0.1542 0.21026 0.22929 0.22533 0.096237 -0.00071653 -0.17183 -0.14027 0.0020942 0.25296 -0.05571 0.043615 -0.11149 -0.15204 0.042088 0.15576 0.15518 0.1761 0.23514 -0.3034 0.037595 0.041175 -0.22607 0.10839 0.084828 0.047337 0.036265 -0.024236 -0.093635 -0.25517 0.054723 0.088707 0.16206 0.15127 0.0039127 -0.24364 0.069445 0.12362 -0.22243 -0.034063 
orang -0.050124 -0.039584 -0.14842 -0.33494 -0.046487 -0.037444 0.028102 -0.022192 -0.10115 0.131 0.14499 0.15034 -0.029387 -0.029948 -0.078697 -0.053789 0.025479 0.066464 -0.019899 -0.069362 0.26952 0.12546 0.079409 -0.23125 -0.01212 -0.011721 0.22331 0.20267 0.24099 0.034058 0.23392 0.1093 -0.28413 -0.13661 -0.229 -0.039638 0.26057 -0.039981 -0.087456 -0.19977 0.17696 -0.038399 0.10437 -0.015175 0.17483 -0.035559 -0.063946 -0.074869 -0.04987 -0.0085765 -0.02082 0.19064 -0.20596 -0.15529 -0.10697 0.0035635 -0.20427 0.087425 -0.053172 0.048932 0.16642 0.21619 0.23477 0.23725 0.10411 0.01376 -0.16918 -0.13946 0.015876 0.26152 -0.058975 0.056495 -0.13279 -0.15915 0.043744 0.15985 0.13767 0.20266 0.22942 -0.28618 0.032 0.042599 -0.22523 0.1213 0.094115 0.048654 0.055124 -0.0323 -0.11048 -0.25968 0.056287 0.076116 0.15559 0.16095 0.0018253 -0.24658 0.067604 0.10606 -0.23161 -0.043884 
citru -0.058908 -0.037158 -0.14378 -0.3315 -0.041957 -0.045568 0.041958 -0.029656 -0.10351 0.13652 0.14647 0.15206 -0.025558 -0.021744 -0.077906 -0.049727 0.029295 0.069083 -0.026918 -0.066436 0.26849 0.13474 0.084695 -0.24507 -0.012741 -0.0093275 0.22501 0.19907 0.24825 0.037009 0.23448 0.11368 -0.27778 -0.14312 -0.23758 -0.038695 0.25383 -0.051859 -0.098692 -0.21047 0.18875 -0.040666 0.10515 -0.0055127 0.16842 -0.023474 -0.049025 -0.074136 -0.03398 -0.0038374 -0.010918 0.19312 -0.1979 -0.14399 -0.11796 -0.0026686 -0.20753 0.096246 -0.057523 0.03682 0.17023 0.21677 0.23797 0.23217 0.10436 -0.00075089 -0.18205 -0.15001 0.0043906 0.25379 -0.060012 0.04805 -0.1252 -0.15668 0.04554 0.16454 0.16275 0.18913 0.2351 -0.31106 0.049875 0.038801 -0.2362 0.10889 0.08735 0.036014 0.041871 -0.036109 -0.103 -0.26883 0.05799 0.087026 0.17118 0.15849 0.0061486 -0.2574 0.065853 0.11821 -0.22528 -0.033605 
sour -0.055817 -0.037216 -0.15006 -0.34311 -0.043683 -0.040093 0.04292 -0.024735 -0.10043 0.13945 0.15152 0.16181 -0.031567 -0.024308 -0.082074 -0.049319 0.030153 0.074087 -0.026724 -0.070719 0.26738 0.13737 0.080954 -0.24843 -0.011039 -0.013362 0.23666 0.21379 0.24759 0.035844 0.24146 0.11933 -0.28237 -0.14487 -0.24246 -0.044575 0.26342 -0.056552 -0.10073 -0.20631 0.19576 -0.04012 0.10589 -0.0044755 0.16707 -0.024087 -0.045806 -0.077346 -0.03635 -0.012239 -0.013015 0.19571 -0.1992 -0.14656 -0.1185 -0.0054895 -0.21348 0.091253 -0.052789 0.030148 0.17204 0.22988 0.23951 0.23892 0.10667 -0.0059667 -0.18701 -0.15739 0.0087521 0.25452 -0.058051 0.044157 -0.13506 -0.15612 0.049873 0.16046 0.15615 0.19327 0.23471 -0.30278 0.05162 0.043196 -0.2341 0.11012 0.085661 0.03991 0.042559 -0.039921 -0.10753 -0.26266 0.060632 0.088556 0.16243 0.16646 0.0017166 -0.2657 0.070865 0.11914 -0.2306 -0.033569 
note -0.055817 -0.032875 -0.1463 -0.35395 -0.052556 -0.031526 0.028913 -0.024559 -0.10285 0.12948 0.14036 0.15098 -0.032891 -0.026704 -0.091395 -0.048929 0.034454 0.075997 -0.024679 -0.070577 0.27394 0.12954 0.084487 -0.24223 -0.007978 -0.020746 0.23316 0.21237 0.24863 0.036212 0.2408 0.10759 -0.28983 -0.13848 -0.23891 -0.045817 0.27711 -0.042752 -0.087657 -0.19903 0.19523 -0.030494 0.10135 -0.015363 0.17306 -0.030775 -0.057284 -0.074567 -0.048563 -0.0085405 -0.021339 0.19462 -0.20878 -0.161 -0.11699 0.0011399 -0.21914 0.086476 -0.053158 0.038306 0.18251 0.22649 0.24478 0.24078 0.10478 0.0089012 -0.1793 -0.15869 0.029512 0.26913 -0.061189 0.054591 -0.14426 -0.15491 0.045076 0.1654 0.1516 0.21111 0.22944 -0.29429 0.03393 0.043289 -0.23216 0.12469 0.097147 0.040608 0.056439 -0.048853 -0.11063 -0.26762 0.065099 0.080232 0.15817 0.17256 -0.00066476 -0.263 0.063428 0.10561 -0.23749 -0.0337 
on -0.030778 -0.01189 -0.16094 -0.38933 -0.07506 -0.0045283 -0.024451 -0.013111 -0.065675 0.079028 0.11219 0.12384 -0.048631 -0.036364 -0.12057 -0.058795 0.04043 0.082853 -0.016073 -0.067335 0.27143 0.085499 0.085845 -0.20975 0.017498 -0.060366 0.22118 0.22597 0.21182 0.026493 0.22192 0.081265 -0.28743 -0.090287 -0.22089 -0.087535 0.3217 0.017323 -0.046317 -0.13276 0.17307 0.0036654 0.084617 -0.053451 0.19063 -0.078581 -0.091422 -0.069419 -0.075289 -0.000869 -0.055271 0.17712 -0.23849 -0.21185 -0.080048 0.043649 -0.22398 0.03796 -0.0202 0.039994 0.20504 0.21433 0.24118 0.2432 0.12679 0.045982 -0.15701 -0.13917 0.097672 0.29276 -0.077098 0.080017 -0.2112 -0.15581 0.032374 0.16554 0.087799 0.31031 0.182 -0.21161 -0.0084836 0.049299 -0.20608 0.16152 0.13846 0.047843 0.10643 -0.098746 -0.1526 -0.26245 0.076369 0.021706 0.13297 0.2025 -0.020213 -0.24302 0.022361 0.022956 -0.26605 -0.07742 
s -0.033182 -0.019307 -0.14636 -0.38733 -0.06335 -0.0084736 -0.012605 -0.012281 -0.080799 0.099547 0.13143 0.13131 -0.049207 -0.041564 -0.10959 -0.061443 0.040279 0.086356 -0.0097213 -0.070076 0.27118 0.096802 0.079875 -0.20857 0.00017801 -0.03911 0.2209 0.22992 0.21716 0.031459 0.23127 0.085728 -0.28439 -0.099741 -0.21161 -0.076315 0.30999 0.0039581 -0.056599 -0.16219 0.1666 0.0040158 0.092662 -0.047806 0.19386 -0.072517 -0.086888 -0.070254 -0.061999 -0.0033715 -0.046842 0.18573 -0.23468 -0.20084 -0.085102 0.043478 -0.21715 0.045093 -0.021504 0.039247 0.18971 0.21487 0.24902 0.25225 0.12382 0.030726 -0.15621 -0.13688 0.077815 0.27572 -0.07629 0.065826 -0.19785 -0.15503 0.037117 0.1575 0.077615 0.289 0.18124 -0.20887 -0.0037177 0.053087 -0.21823 0.14496 0.13082 0.047309 0.10362 -0.070471 -0.15153 -0.25234 0.066837 0.030209 0.12227 0.19902 -0.018172 -0.2445 0.032896 0.040285 -0.25319 -0.06981 
spici -0.057464 -0.037513 -0.14977 -0.34907 -0.041325 -0.045323 0.042463 -0.03357 -0.10531 0.14496 0.15053 0.15521 -0.029187 -0.018269 -0.080983 -0.046415 0.032021 0.07628 -0.026993 -0.069609 0.27442 0.13977 0.087786 -0.25133 -0.014722 -0.013773 0.23201 0.20908 0.2541 0.037552 0.24103 0.11815 -0.28975 -0.14897 -0.24653 -0.041919 0.26094 -0.059423 -0.10243 -0.21343 0.19661 -0.040287 0.10368 -0.0072023 0.16557 -0.021712 -0.046825 -0.078375 -0.033805 -0.0098132 -0.011246 0.19658 -0.20567 -0.14664 -0.12517 -0.0080305 -0.2177 0.098062 -0.058371 0.036558 0.17466 0.22892 0.24417 0.23777 0.098927 -0.0057533 -0.18409 -0.16128 0.0097004 0.25896 -0.05888 0.046971 -0.12554 -0.157 0.049099 0.15927 0.16925 0.18967 0.24073 -0.31446 0.051275 0.042375 -0.23661 0.11091 0.092818 0.036847 0.043639 -0.04412 -0.097201 -0.26827 0.064554 0.093187 0.17 0.16155 0.0012155 -0.26768 0.069283 0.12411 -0.22559 -0.030452 
fruit -0.066871 -0.04196 -0.14274 -0.34171 -0.037875 -0.051097 0.055932 -0.034469 -0.10969 0.1433 0.15205 0.16559 -0.024798 -0.020181 -0.071233 -0.052064 0.025485 0.066 -0.028927 -0.064377 0.27292 0.14522 0.088622 -0.25885 -0.011586 -0.010461 0.22889 0.20494 0.26642 0.040231 0.24438 0.12363 -0.28453 -0.1583 -0.25167 -0.031043 0.25934 -0.066098 -0.11067 -0.22174 0.19976 -0.049549 0.10627 0.00065292 0.16385 -0.013937 -0.038605 -0.075943 -0.03159 -0.0053733 -0.010103 0.20347 -0.19805 -0.14011 -0.13442 -0.015863 -0.20983 0.10685 -0.063014 0.030162 0.17158 0.23532 0.24678 0.23119 0.099128 -0.0081761 -0.19488 -0.16716 -0.0039064 0.25722 -0.060622 0.040928 -0.11528 -0.15632 0.046383 0.16771 0.1793 0.17384 0.25072 -0.33893 0.06172 0.034743 -0.23503 0.10649 0.081117 0.03204 0.034204 -0.037995 -0.097063 -0.27278 0.059525 0.093453 0.18231 0.15588 0.00058355 -0.26577 0.080795 0.13867 -0.22466 -0.023264 
littl -0.054655 -0.031843 -0.15032 -0.3463 -0.047892 -0.034778 0.028315 -0.023753 -0.097784 0.12806 0.14448 0.14894 -0.032222 -0.030545 -0.084382 -0.048964 0.02915 0.069737 -0.024916 -0.066657 0.26884 0.1297 0.085015 -0.23816 -0.012713 -0.015269 0.22767 0.2129 0.24066 0.035615 0.2398 0.10756 -0.28455 -0.1364 -0.23274 -0.042139 0.26299 -0.038264 -0.088016 -0.19779 0.18661 -0.036725 0.10232 -0.012633 0.17242 -0.034621 -0.061794 -0.072514 -0.04702 -0.0099934 -0.017081 0.19107 -0.2072 -0.15723 -0.11166 0.0043487 -0.21298 0.08212 -0.048447 0.037815 0.17485 0.2156 0.24076 0.23726 0.10206 0.0039393 -0.17371 -0.14971 0.021636 0.26082 -0.063235 0.048637 -0.13789 -0.15556 0.04358 0.15831 0.14383 0.20765 0.22905 -0.28515 0.041039 0.044995 -0.23031 0.12304 0.096626 0.045298 0.055181 -0.041619 -0.11049 -0.26549 0.063877 0.074693 0.15575 0.16764 -0.00039155 -0.25566 0.059844 0.1069 -0.23366 -0.043018 
hefeweizen -0.034596 -0.016538 -0.15121 -0.37999 -0.06638 -0.010101 -0.0035331 -0.017054 -0.077238 0.10441 0.12275 0.12785 -0.043722 -0.032844 -0.11104 -0.05395 0.039273 0.083967 -0.013407 -0.073198 0.26828 0.10457 0.081001 -0.21452 0.00065319 -0.035585 0.22258 0.22311 0.23279 0.033127 0.23122 0.085105 -0.27651 -0.1094 -0.22171 -0.075527 0.3026 -0.0052928 -0.055868 -0.16042 0.17242 -0.007413 0.094093 -0.037279 0.18774 -0.06819 -0.082043 -0.075956 -0.059806 -0.0033389 -0.044859 0.18426 -0.23161 -0.19625 -0.09085 0.032782 -0.21979 0.058496 -0.027418 0.044248 0.19353 0.22188 0.24436 0.25037 0.12266 0.035063 -0.16386 -0.13637 0.069069 0.27915 -0.070696 0.071672 -0.1909 -0.15316 0.038311 0.1645 0.094028 0.27961 0.19338 -0.22313 0.0017724 0.046904 -0.21603 0.146 0.11973 0.043502 0.093543 -0.069763 -0.14275 -0.26167 0.06924 0.033495 0.13374 0.19784 -0.01581 -0.24412 0.038923 0.045749 -0.25915 -0.069052 
great -0.053149 -0.03316 -0.14579 -0.34568 -0.043558 -0.037856 0.029941 -0.024982 -0.094114 0.12833 0.13851 0.1477 -0.030034 -0.025508 -0.087067 -0.051146 0.0292 0.071604 -0.022497 -0.074112 0.27032 0.12871 0.083421 -0.23772 -0.0064644 -0.018918 0.22598 0.21036 0.24004 0.035303 0.23437 0.10464 -0.2787 -0.13741 -0.23221 -0.047401 0.26585 -0.037692 -0.090813 -0.1966 0.18497 -0.032258 0.096293 -0.015547 0.16877 -0.037214 -0.056678 -0.073276 -0.035244 -0.0078088 -0.01911 0.18952 -0.20247 -0.15622 -0.11471 0.0066255 -0.21374 0.084143 -0.049331 0.032796 0.17866 0.22046 0.23762 0.23202 0.1054 0.0052873 -0.17347 -0.14964 0.024537 0.25474 -0.063254 0.055972 -0.14045 -0.14836 0.042416 0.15757 0.14277 0.20364 0.21753 -0.28282 0.040226 0.041807 -0.22531 0.11843 0.094396 0.035912 0.056692 -0.048242 -0.11086 -0.25464 0.064204 0.071108 0.15151 0.17204 -0.0032801 -0.2496 0.063707 0.10092 -0.22895 -0.042491 
off -0.059048 -0.046208 -0.14558 -0.3258 -0.046932 -0.039592 0.034952 -0.02381 -0.10298 0.13939 0.15143 0.15247 -0.032388 -0.021848 -0.075509 -0.05731 0.024018 0.069457 -0.028141 -0.067627 0.26839 0.13298 0.081975 -0.24167 -0.013174 -0.012491 0.22856 0.20317 0.25087 0.035292 0.23953 0.11087 -0.2851 -0.13728 -0.23662 -0.030089 0.2595 -0.044609 -0.097193 -0.20181 0.18306 -0.039924 0.10666 -0.0063933 0.17717 -0.028374 -0.062582 -0.075041 -0.042867 -0.0067597 -0.014414 0.19462 -0.20573 -0.15077 -0.11489 -0.003288 -0.21151 0.089677 -0.052829 0.039113 0.16449 0.21849 0.23726 0.24166 0.10278 -0.00053046 -0.16954 -0.14856 0.0095025 0.26191 -0.060653 0.046599 -0.12732 -0.15911 0.04199 0.15892 0.15035 0.19138 0.23678 -0.29636 0.036379 0.040378 -0.22735 0.11775 0.091379 0.048042 0.048002 -0.035871 -0.098153 -0.25903 0.058711 0.092142 0.16245 0.16103 0.0042408 -0.2529 0.066869 0.11646 -0.23212 -0.035821 
yeasti -0.068104 -0.046831 -0.14267 -0.32535 -0.036684 -0.054879 0.06211 -0.036232 -0.1125 0.14973 0.15812 0.16717 -0.018729 -0.01792 -0.068456 -0.048237 0.026103 0.06402 -0.031882 -0.067777 0.26949 0.15043 0.084746 -0.26087 -0.016787 -0.00045755 0.23063 0.20028 0.25947 0.041497 0.24028 0.13241 -0.28314 -0.1567 -0.24865 -0.027142 0.24325 -0.073671 -0.11212 -0.22508 0.19452 -0.05625 0.10406 0.0071885 0.15604 -0.0082906 -0.035278 -0.07383 -0.025092 -0.0081424 0.0049134 0.19692 -0.18822 -0.12936 -0.13541 -0.021164 -0.20444 0.10785 -0.067053 0.032911 0.16368 0.22363 0.2415 0.2268 0.091015 -0.018418 -0.19131 -0.16484 -0.017892 0.25199 -0.051915 0.0401 -0.10216 -0.15773 0.050609 0.16076 0.18674 0.15288 0.25221 -0.35164 0.068824 0.036546 -0.24246 0.10192 0.082697 0.037479 0.028831 -0.027321 -0.085384 -0.27104 0.057795 0.10988 0.18001 0.15568 0.0048255 -0.26526 0.084695 0.15014 -0.21319 -0.021176 
creami -0.059047 -0.043969 -0.14917 -0.3323 -0.037268 -0.04606 0.045269 -0.031521 -0.10626 0.14375 0.14757 0.16026 -0.025612 -0.02393 -0.078835 -0.050763 0.025786 0.070325 -0.026801 -0.067426 0.2748 0.13921 0.081702 -0.24902 -0.015191 -0.0047156 0.22919 0.20883 0.25453 0.036192 0.24058 0.11108 -0.28818 -0.14807 -0.2433 -0.036751 0.25783 -0.05841 -0.1011 -0.21649 0.19209 -0.047162 0.10625 -0.0059742 0.17277 -0.023729 -0.05248 -0.079926 -0.036142 -0.0087585 -0.010169 0.19129 -0.20532 -0.14767 -0.12131 -0.0024921 -0.2095 0.098014 -0.058681 0.038378 0.16846 0.22223 0.23973 0.23513 0.10348 -0.0048807 -0.18068 -0.15409 0.00082256 0.26349 -0.0592 0.053372 -0.12841 -0.15937 0.044486 0.1689 0.16007 0.1915 0.24522 -0.31755 0.051231 0.046425 -0.23895 0.11516 0.090741 0.042102 0.042808 -0.034687 -0.1021 -0.26805 0.068981 0.093256 0.17126 0.16283 0.0054853 -0.2652 0.077022 0.12683 -0.23045 -0.033287 
hint -0.056479 -0.035371 -0.14767 -0.34943 -0.043277 -0.041969 0.034738 -0.033334 -0.10371 0.13302 0.14795 0.15212 -0.034946 -0.02547 -0.086861 -0.048567 0.036395 0.073054 -0.022144 -0.071538 0.27111 0.13118 0.081865 -0.24544 -0.0093961 -0.020396 0.22699 0.21018 0.24562 0.038384 0.23364 0.11074 -0.28106 -0.14053 -0.23756 -0.044733 0.26597 -0.044257 -0.08724 -0.19956 0.1855 -0.038187 0.10263 -0.0060984 0.17131 -0.033736 -0.057116 -0.077874 -0.041577 -0.0077941 -0.018195 0.19579 -0.20789 -0.15893 -0.11449 0.0074327 -0.21263 0.087288 -0.053018 0.034509 0.17708 0.21997 0.24022 0.24372 0.11024 0.0059185 -0.18422 -0.15336 0.015663 0.2615 -0.057647 0.048287 -0.13843 -0.15474 0.043783 0.1668 0.14457 0.20547 0.22637 -0.29132 0.041092 0.040314 -0.23345 0.12206 0.098206 0.04487 0.056093 -0.044147 -0.10798 -0.26517 0.06275 0.082708 0.16198 0.1684 0.0020466 -0.25894 0.064405 0.10247 -0.2368 -0.031866 
weizen -0.028437 -0.01225 -0.14608 -0.37053 -0.06826 -0.0046333 -0.010486 -0.013483 -0.071189 0.098431 0.11563 0.11587 -0.047106 -0.034881 -0.11279 -0.051265 0.037346 0.082939 -0.011297 -0.07165 0.26161 0.094768 0.076616 -0.20196 0.0011 -0.039006 0.21371 0.21659 0.2217 0.031823 0.22625 0.07991 -0.26738 -0.098279 -0.209 -0.077148 0.30306 0.0041652 -0.045822 -0.14749 0.16321 -0.0013982 0.092865 -0.040936 0.1874 -0.072651 -0.08902 -0.074047 -0.063278 -0.0015505 -0.049164 0.17962 -0.22704 -0.19501 -0.084067 0.037933 -0.21599 0.048758 -0.022349 0.046573 0.18913 0.21346 0.23699 0.24904 0.12395 0.043719 -0.15427 -0.12826 0.077225 0.27841 -0.072532 0.075808 -0.19912 -0.15174 0.032575 0.16169 0.078 0.28921 0.18113 -0.2022 -0.0064972 0.046473 -0.20615 0.1477 0.1208 0.045831 0.095765 -0.072435 -0.14435 -0.25486 0.068177 0.021039 0.12578 0.19817 -0.016851 -0.23576 0.033505 0.03057 -0.26045 -0.076641 
nose -0.05539 -0.037169 -0.14901 -0.34442 -0.043739 -0.039423 0.023369 -0.026766 -0.10096 0.12917 0.14318 0.14457 -0.034385 -0.027774 -0.081418 -0.053689 0.031106 0.073919 -0.015364 -0.067969 0.26877 0.12271 0.081528 -0.23825 -0.015592 -0.014634 0.22345 0.20434 0.24329 0.033601 0.24165 0.10199 -0.28833 -0.13452 -0.2355 -0.0442 0.26796 -0.041002 -0.083272 -0.20167 0.18671 -0.034036 0.10226 -0.014003 0.17555 -0.034833 -0.062683 -0.075025 -0.053154 -0.0054384 -0.022184 0.19078 -0.20984 -0.1599 -0.1143 0.0086317 -0.21347 0.082146 -0.050311 0.04024 0.18284 0.21695 0.23845 0.24065 0.10144 0.010273 -0.17486 -0.15224 0.021676 0.2693 -0.065219 0.057658 -0.14645 -0.15479 0.043014 0.16714 0.13631 0.21785 0.22674 -0.28662 0.030516 0.044121 -0.22825 0.12467 0.09368 0.043684 0.056193 -0.041769 -0.10861 -0.26594 0.064029 0.073747 0.15777 0.16888 0.0011846 -0.25072 0.065749 0.10433 -0.23562 -0.040807 
refresh -0.051565 -0.026034 -0.14799 -0.36241 -0.053325 -0.026282 0.022623 -0.023798 -0.094302 0.11932 0.14048 0.14236 -0.031814 -0.026771 -0.094904 -0.053722 0.034932 0.076822 -0.022168 -0.068274 0.27071 0.12371 0.088363 -0.23307 -0.002637 -0.024457 0.22768 0.21663 0.24548 0.033957 0.236 0.10102 -0.28292 -0.13148 -0.23628 -0.059461 0.28108 -0.031437 -0.082395 -0.18775 0.18979 -0.024663 0.10139 -0.018349 0.17438 -0.041286 -0.0677 -0.07596 -0.048728 -0.0050467 -0.026406 0.19435 -0.21737 -0.16814 -0.11018 0.0087286 -0.21817 0.076709 -0.045738 0.036613 0.1859 0.22409 0.24577 0.24114 0.11569 0.017156 -0.17447 -0.15462 0.035688 0.27081 -0.067772 0.060957 -0.15687 -0.15383 0.044986 0.16377 0.13514 0.23193 0.21835 -0.27642 0.03183 0.040967 -0.2275 0.13064 0.1019 0.038224 0.066078 -0.056216 -0.11967 -0.27098 0.064777 0.062542 0.15517 0.18024 -0.00548 -0.25455 0.055519 0.088872 -0.24558 -0.046436 
slightli -0.066296 -0.042474 -0.1495 -0.33158 -0.034821 -0.053305 0.062936 -0.034102 -0.10575 0.15086 0.15284 0.16785 -0.022839 -0.016596 -0.070446 -0.048305 0.026135 0.071696 -0.031053 -0.06517 0.26193 0.14747 0.086329 -0.25595 -0.013947 -0.0051193 0.22981 0.20576 0.25832 0.039886 0.23881 0.12301 -0.27536 -0.15422 -0.24817 -0.032011 0.24398 -0.070591 -0.11152 -0.22365 0.19975 -0.049892 0.1117 0.0048086 0.15849 -0.011001 -0.032918 -0.074072 -0.025431 -0.0082549 -0.0022416 0.19504 -0.19332 -0.13037 -0.13032 -0.020567 -0.2064 0.10571 -0.059976 0.030087 0.1628 0.2255 0.24031 0.22911 0.096755 -0.018802 -0.18668 -0.15812 -0.0091554 0.24208 -0.053422 0.037707 -0.10145 -0.15252 0.046775 0.15761 0.17789 0.15461 0.24387 -0.33425 0.071991 0.034993 -0.23286 0.096 0.076113 0.034071 0.026142 -0.030828 -0.084831 -0.25923 0.055231 0.10217 0.17807 0.14649 0.0063666 -0.2672 0.086451 0.14509 -0.21701 -0.01765 
caramel -0.062366 -0.036588 -0.14745 -0.34501 -0.043366 -0.042248 0.040519 -0.027632 -0.10345 0.13671 0.14838 0.1567 -0.027436 -0.023309 -0.075541 -0.052935 0.026701 0.071516 -0.022853 -0.068849 0.26819 0.13864 0.084787 -0.25065 -0.010613 -0.017605 0.22964 0.20881 0.25074 0.040162 0.23904 0.1097 -0.28613 -0.14969 -0.2439 -0.041015 0.26383 -0.054067 -0.097967 -0.20993 0.1958 -0.038427 0.10634 0.0017918 0.16651 -0.024054 -0.049003 -0.077888 -0.041085 -0.0071862 -0.016906 0.19569 -0.20148 -0.15 -0.11816 -0.0033588 -0.21539 0.092817 -0.05524 0.033283 0.17747 0.22785 0.24494 0.23774 0.10628 -0.0036867 -0.18622 -0.15688 0.0098577 0.26262 -0.063566 0.049755 -0.12704 -0.15931 0.048734 0.16254 0.16063 0.194 0.23726 -0.30675 0.048721 0.03784 -0.23468 0.1159 0.089764 0.039901 0.04732 -0.037348 -0.10582 -0.2673 0.06576 0.087109 0.16974 0.16492 0.00096587 -0.26253 0.070535 0.1231 -0.23236 -0.03193 
weiss -0.027468 -0.01568 -0.15058 -0.38237 -0.074538 0.0017685 -0.020221 -0.0098159 -0.06644 0.090069 0.11695 0.11215 -0.045464 -0.03573 -0.12104 -0.05719 0.042716 0.088482 -0.010546 -0.070094 0.26467 0.088383 0.074829 -0.19815 0.0088496 -0.04207 0.21519 0.21949 0.22361 0.028379 0.22542 0.077776 -0.26941 -0.092185 -0.20333 -0.085968 0.31365 0.021418 -0.03797 -0.1369 0.15764 0.0059797 0.093381 -0.047917 0.19358 -0.078859 -0.098013 -0.073486 -0.071884 0.00017058 -0.056605 0.17977 -0.23652 -0.20483 -0.074065 0.040647 -0.2195 0.042674 -0.012112 0.044971 0.19564 0.20753 0.23941 0.25243 0.13597 0.051849 -0.14945 -0.13083 0.092041 0.29414 -0.073484 0.080093 -0.21477 -0.15196 0.029471 0.16708 0.072029 0.30908 0.17497 -0.18936 -0.01571 0.046214 -0.20812 0.1609 0.12508 0.052012 0.099913 -0.078136 -0.15848 -0.26112 0.066934 0.012091 0.11956 0.20932 -0.023087 -0.23883 0.021507 0.016026 -0.26319 -0.084238 
smooth -0.050403 -0.030862 -0.15116 -0.36293 -0.047288 -0.030668 0.023604 -0.024172 -0.096337 0.12654 0.14441 0.14505 -0.033263 -0.023691 -0.095001 -0.053074 0.035447 0.082924 -0.021048 -0.072491 0.27072 0.12754 0.083601 -0.23953 -0.0051304 -0.024431 0.22811 0.21508 0.23911 0.035263 0.23933 0.10439 -0.28274 -0.13344 -0.23313 -0.050166 0.2755 -0.036484 -0.087061 -0.1945 0.19029 -0.028487 0.10079 -0.016852 0.16926 -0.035592 -0.063873 -0.08135 -0.049271 -0.010603 -0.02583 0.19477 -0.21544 -0.16879 -0.11282 0.010525 -0.21968 0.079168 -0.048194 0.033175 0.18583 0.22292 0.24082 0.24549 0.11566 0.008928 -0.17933 -0.15673 0.034467 0.27488 -0.064482 0.060778 -0.15388 -0.15679 0.047689 0.16267 0.14213 0.22313 0.21943 -0.27863 0.031433 0.042563 -0.22881 0.13101 0.10475 0.04513 0.061685 -0.05545 -0.11678 -0.26683 0.069735 0.07436 0.15562 0.18112 -0.0041265 -0.2632 0.058479 0.095526 -0.24389 -0.045795 
palat -0.052254 -0.028793 -0.14707 -0.35142 -0.045073 -0.034357 0.027881 -0.026119 -0.094054 0.12759 0.13945 0.14516 -0.033978 -0.022493 -0.088509 -0.052238 0.033816 0.076012 -0.022061 -0.070493 0.26507 0.12861 0.087667 -0.23589 -0.0097731 -0.020353 0.22297 0.21116 0.24199 0.037557 0.23525 0.10291 -0.27876 -0.13381 -0.23802 -0.052051 0.26646 -0.038048 -0.089879 -0.19927 0.18912 -0.030583 0.099967 -0.013214 0.16711 -0.034356 -0.053706 -0.077501 -0.037964 -0.0058371 -0.019677 0.19131 -0.20496 -0.15803 -0.11683 0.0023327 -0.21291 0.079935 -0.046005 0.033708 0.1821 0.22407 0.24042 0.234 0.1101 0.0072386 -0.1781 -0.15257 0.025891 0.2611 -0.065405 0.055272 -0.14478 -0.15543 0.043461 0.16218 0.14241 0.21037 0.21518 -0.28698 0.044049 0.041501 -0.22541 0.1234 0.0945 0.037796 0.0573 -0.052851 -0.11056 -0.26355 0.061294 0.072117 0.16055 0.17428 -0.0030811 -0.25867 0.062785 0.098675 -0.23422 -0.0372 
balanc -0.050508 -0.027752 -0.1464 -0.35529 -0.048001 -0.03054 0.026623 -0.026904 -0.093769 0.12496 0.13932 0.14779 -0.032789 -0.025496 -0.089882 -0.049177 0.034855 0.077722 -0.022356 -0.073538 0.26609 0.12232 0.086484 -0.23715 -0.0076201 -0.023614 0.22467 0.21544 0.24413 0.034371 0.23367 0.10251 -0.27493 -0.12901 -0.23469 -0.053669 0.27276 -0.038033 -0.083287 -0.19101 0.18857 -0.027369 0.096304 -0.016944 0.16651 -0.03902 -0.055045 -0.073512 -0.042615 -0.0066179 -0.024174 0.19028 -0.21099 -0.16354 -0.10972 0.0088019 -0.21284 0.079433 -0.043695 0.028346 0.1824 0.22394 0.24103 0.2336 0.11242 0.0072226 -0.1762 -0.15497 0.034598 0.26024 -0.066304 0.05585 -0.14926 -0.1527 0.045604 0.15998 0.13763 0.21601 0.21628 -0.2773 0.037991 0.036898 -0.22565 0.1212 0.098206 0.035858 0.059831 -0.05179 -0.11777 -0.26044 0.060876 0.07029 0.15394 0.17741 -0.0036748 -0.25888 0.055684 0.095123 -0.23393 -0.04466 
appl -0.053312 -0.031484 -0.1506 -0.3574 -0.043624 -0.034823 0.029005 -0.026505 -0.10055 0.13218 0.14073 0.14779 -0.034325 -0.024896 -0.084167 -0.053736 0.035586 0.075242 -0.020013 -0.071023 0.27251 0.12686 0.081602 -0.24058 -0.0068877 -0.023722 0.23001 0.21217 0.24509 0.035166 0.24168 0.10805 -0.28566 -0.13749 -0.23745 -0.050921 0.27283 -0.039832 -0.09199 -0.19372 0.19093 -0.032221 0.099974 -0.013662 0.17516 -0.035685 -0.056376 -0.078604 -0.046382 -0.0066921 -0.025342 0.19599 -0.20683 -0.16232 -0.11333 0.0076384 -0.2147 0.083674 -0.052661 0.03428 0.17901 0.22974 0.2378 0.24502 0.11128 0.006202 -0.17625 -0.15538 0.027647 0.26126 -0.066863 0.05238 -0.14565 -0.15406 0.042934 0.15787 0.14232 0.21491 0.22282 -0.28114 0.038385 0.042789 -0.22954 0.12309 0.097457 0.042882 0.059866 -0.049213 -0.11066 -0.26151 0.064638 0.074828 0.15363 0.1682 -0.00014218 -0.26151 0.058517 0.10162 -0.23449 -0.039984 
bread -0.059487 -0.044798 -0.145 -0.33217 -0.038853 -0.048158 0.046507 -0.03209 -0.11271 0.14327 0.15321 0.16316 -0.022168 -0.024634 -0.071168 -0.054443 0.025526 0.066698 -0.025442 -0.065233 0.27028 0.14507 0.081214 -0.24809 -0.016333 -0.0068121 0.2294 0.20616 0.25139 0.039341 0.2402 0.11913 -0.28675 -0.15317 -0.23908 -0.034344 0.25077 -0.057305 -0.10817 -0.22004 0.19261 -0.04745 0.10216 0.0028615 0.16698 -0.019087 -0.045133 -0.076329 -0.028468 -0.005254 -0.0019466 0.19083 -0.19563 -0.14189 -0.12332 -0.010941 -0.20307 0.097242 -0.061565 0.033484 0.17118 0.22194 0.23734 0.234 0.10073 -0.0086846 -0.18346 -0.15721 -0.0030798 0.25119 -0.051558 0.045447 -0.11744 -0.15613 0.050936 0.1614 0.16877 0.1742 0.24439 -0.32008 0.056817 0.035644 -0.23544 0.10935 0.087895 0.041318 0.037417 -0.030428 -0.096803 -0.26504 0.058866 0.09934 0.17164 0.15859 0.007525 -0.25714 0.07203 0.13348 -0.22243 -0.030526 
quit -0.050585 -0.029638 -0.14385 -0.34792 -0.046454 -0.029621 0.030736 -0.03156 -0.097541 0.12294 0.13771 0.14593 -0.031465 -0.025485 -0.085898 -0.051524 0.032098 0.076315 -0.018533 -0.065128 0.26752 0.12657 0.085024 -0.24117 -0.0080795 -0.025066 0.22854 0.20628 0.24014 0.03729 0.23329 0.10528 -0.28347 -0.1408 -0.23666 -0.043823 0.26953 -0.042474 -0.089472 -0.19392 0.1865 -0.025699 0.099741 -0.010601 0.16795 -0.034264 -0.057658 -0.078262 -0.04886 -0.0084827 -0.024643 0.19243 -0.20643 -0.15925 -0.11043 0.0053584 -0.217 0.085206 -0.047885 0.03248 0.18223 0.22313 0.23529 0.23713 0.11014 0.0074415 -0.18087 -0.15574 0.026699 0.26547 -0.065408 0.055892 -0.14565 -0.15196 0.04489 0.166 0.14979 0.22243 0.22756 -0.29052 0.032676 0.043184 -0.23077 0.12819 0.099547 0.042308 0.060075 -0.049994 -0.11799 -0.26565 0.062173 0.075958 0.15764 0.17313 -0.0053154 -0.2588 0.058831 0.096133 -0.23875 -0.039622 
big -0.052319 -0.038448 -0.14381 -0.32486 -0.04103 -0.038605 0.035171 -0.024329 -0.10109 0.13504 0.13919 0.1497 -0.030423 -0.025832 -0.077898 -0.052542 0.028223 0.069181 -0.021116 -0.064724 0.27117 0.12457 0.079892 -0.23756 -0.0068039 -0.0136 0.22193 0.20231 0.23841 0.035626 0.22923 0.10411 -0.28488 -0.13964 -0.23156 -0.035269 0.25343 -0.045134 -0.091326 -0.20197 0.17908 -0.041181 0.10514 -0.010204 0.16967 -0.035945 -0.061168 -0.07195 -0.046026 -0.0075221 -0.01732 0.19088 -0.20509 -0.14877 -0.11291 -0.0020421 -0.20413 0.089514 -0.049477 0.044612 0.1668 0.21443 0.22776 0.23428 0.10107 0.0036788 -0.17076 -0.13756 0.012377 0.25082 -0.05341 0.04898 -0.13055 -0.15721 0.044106 0.15281 0.14149 0.19301 0.23021 -0.29121 0.036594 0.041046 -0.21963 0.11392 0.092093 0.0486 0.049053 -0.03093 -0.10228 -0.25621 0.063273 0.085193 0.15801 0.16033 0.0031527 -0.24306 0.06533 0.11189 -0.22759 -0.04188 
mouthfeel -0.05382 -0.026916 -0.148 -0.35462 -0.048905 -0.032622 0.030015 -0.026019 -0.092799 0.1231 0.14045 0.14998 -0.034175 -0.024284 -0.092144 -0.050573 0.035348 0.080038 -0.020687 -0.073824 0.26703 0.12831 0.086445 -0.23862 -0.01069 -0.020624 0.22389 0.21382 0.23892 0.037346 0.23309 0.10452 -0.27769 -0.13435 -0.23847 -0.054695 0.2715 -0.03816 -0.090262 -0.19442 0.18902 -0.030043 0.096534 -0.011643 0.16806 -0.035316 -0.060989 -0.080394 -0.042012 -0.0095469 -0.023088 0.19245 -0.21176 -0.15951 -0.11453 0.006495 -0.21787 0.080461 -0.045026 0.03207 0.18231 0.22338 0.24672 0.23831 0.11436 0.0087295 -0.17832 -0.15532 0.031708 0.26586 -0.065279 0.058579 -0.15271 -0.15678 0.0432 0.16296 0.14226 0.22255 0.22135 -0.28737 0.038696 0.039883 -0.22682 0.12481 0.10042 0.040604 0.060894 -0.056684 -0.11623 -0.26801 0.065295 0.072917 0.15802 0.17906 -0.0035431 -0.26555 0.064126 0.095674 -0.23839 -0.041321 
dry -0.052997 -0.026759 -0.15203 -0.36252 -0.051032 -0.034448 0.020776 -0.027578 -0.089149 0.11541 0.13214 0.14031 -0.033356 -0.027406 -0.096762 -0.053756 0.03424 0.085096 -0.02791 -0.073832 0.26368 0.12201 0.086381 -0.23256 -0.0054469 -0.025802 0.22907 0.21892 0.23722 0.03302 0.23199 0.10389 -0.28224 -0.13025 -0.23138 -0.056674 0.27921 -0.030691 -0.087638 -0.18051 0.19066 -0.021941 0.096036 -0.019158 0.171 -0.037039 -0.0634 -0.073178 -0.049567 -0.0024501 -0.024234 0.19042 -0.21335 -0.16847 -0.10699 0.0070176 -0.2218 0.074832 -0.04342 0.03336 0.18945 0.22576 0.24087 0.24139 0.11371 0.012416 -0.16997 -0.15157 0.039426 0.26258 -0.071987 0.060772 -0.15613 -0.15661 0.046428 0.16224 0.13572 0.23271 0.21112 -0.27226 0.033969 0.03956 -0.22681 0.12962 0.10274 0.037533 0.06185 -0.059488 -0.12431 -0.26355 0.066669 0.069435 0.15401 0.18287 -0.0069822 -0.25752 0.05673 0.082977 -0.24019 -0.044681 
ml -0.043462 -0.034005 -0.14341 -0.33309 -0.046924 -0.034067 0.019405 -0.018834 -0.091978 0.11804 0.1386 0.14037 -0.026485 -0.03295 -0.080811 -0.055349 0.028386 0.076219 -0.019599 -0.06403 0.25919 0.12165 0.082144 -0.22162 -0.0049454 -0.011367 0.21299 0.20234 0.23409 0.037069 0.22968 0.092674 -0.28114 -0.12646 -0.21474 -0.043819 0.25714 -0.029354 -0.080525 -0.1859 0.17446 -0.028646 0.098864 -0.020181 0.16992 -0.045371 -0.061893 -0.072108 -0.052164 -0.0056568 -0.025253 0.1824 -0.20654 -0.15966 -0.10247 0.010913 -0.2058 0.078252 -0.046498 0.050277 0.16396 0.20609 0.23316 0.23633 0.10423 0.016502 -0.16095 -0.14568 0.02939 0.27005 -0.05986 0.055875 -0.14629 -0.15514 0.037548 0.16574 0.12868 0.22105 0.21605 -0.26932 0.023099 0.042044 -0.22712 0.12858 0.096536 0.048278 0.06254 -0.041966 -0.11564 -0.25942 0.068281 0.070772 0.15695 0.16922 -0.0029976 -0.24834 0.051771 0.08341 -0.23252 -0.050655 
full -0.044683 -0.032162 -0.14958 -0.35698 -0.052505 -0.029403 0.015981 -0.024487 -0.088681 0.12274 0.13689 0.14385 -0.033204 -0.028534 -0.094055 -0.056877 0.034736 0.078278 -0.019612 -0.068558 0.27278 0.11939 0.084115 -0.23008 -0.0067773 -0.02264 0.22729 0.21549 0.23948 0.032962 0.23303 0.096287 -0.28471 -0.13169 -0.22872 -0.05652 0.27926 -0.030202 -0.079676 -0.18508 0.18588 -0.023795 0.10007 -0.020933 0.17884 -0.044286 -0.067602 -0.07674 -0.050655 -0.0053489 -0.03179 0.18732 -0.21753 -0.16986 -0.10775 0.014161 -0.21573 0.075344 -0.045807 0.035493 0.18577 0.22183 0.24045 0.24356 0.11867 0.020543 -0.16937 -0.15221 0.038481 0.27309 -0.064899 0.067106 -0.15575 -0.15908 0.043027 0.165 0.13083 0.23393 0.21439 -0.26794 0.026577 0.047299 -0.22759 0.13312 0.10467 0.046276 0.069906 -0.053656 -0.12628 -0.26221 0.062633 0.066089 0.15108 0.18452 -0.0080494 -0.25731 0.054447 0.084696 -0.24584 -0.049114 
smell -0.047487 -0.032743 -0.14473 -0.33223 -0.044203 -0.030323 0.024709 -0.022069 -0.092721 0.12388 0.13607 0.13825 -0.028698 -0.026164 -0.0833 -0.052887 0.029009 0.072659 -0.017979 -0.066355 0.26004 0.11859 0.07848 -0.22662 -0.0055746 -0.01974 0.21931 0.20371 0.23226 0.032818 0.2262 0.1004 -0.27549 -0.1306 -0.22356 -0.044755 0.26239 -0.035246 -0.082911 -0.18726 0.18309 -0.030621 0.098317 -0.016208 0.1663 -0.037025 -0.06355 -0.069925 -0.050066 -0.0062821 -0.025517 0.18752 -0.2014 -0.15716 -0.1061 0.0071735 -0.20571 0.078452 -0.045091 0.040259 0.17139 0.20853 0.23075 0.23233 0.10976 0.010141 -0.17413 -0.14659 0.029763 0.26491 -0.064436 0.054391 -0.1458 -0.15574 0.04678 0.15808 0.13247 0.21781 0.22023 -0.27368 0.023181 0.046224 -0.22822 0.12174 0.096135 0.045736 0.05696 -0.050465 -0.11928 -0.2567 0.06309 0.075924 0.15565 0.16822 -0.001888 -0.24562 0.054476 0.090742 -0.23179 -0.043275 
style -0.042151 -0.01974 -0.15193 -0.37728 -0.061144 -0.018097 -0.0023987 -0.015834 -0.079662 0.10413 0.12495 0.12975 -0.040456 -0.029944 -0.10481 -0.05236 0.042886 0.087328 -0.015729 -0.076068 0.27142 0.10724 0.082753 -0.22603 -0.00062849 -0.037007 0.22719 0.22625 0.23251 0.027403 0.23736 0.08841 -0.28142 -0.11632 -0.2233 -0.070732 0.30104 -0.0068723 -0.057544 -0.16695 0.18215 -0.009114 0.092225 -0.033642 0.18951 -0.065391 -0.079514 -0.077626 -0.062691 -0.0067408 -0.040059 0.18906 -0.23131 -0.19099 -0.093289 0.029668 -0.22244 0.05994 -0.03171 0.042382 0.19783 0.21927 0.24463 0.25112 0.12289 0.032522 -0.16458 -0.14623 0.067424 0.28087 -0.06893 0.06934 -0.18443 -0.15837 0.039772 0.16345 0.10658 0.27538 0.19544 -0.23901 0.0040611 0.044556 -0.22324 0.14589 0.11725 0.04428 0.090915 -0.069282 -0.14049 -0.26154 0.071138 0.044446 0.13823 0.19667 -0.017029 -0.2505 0.038887 0.053229 -0.26207 -0.067157 
malti -0.060088 -0.042448 -0.14352 -0.33567 -0.039779 -0.045346 0.051472 -0.034547 -0.1062 0.14172 0.15026 0.16093 -0.021984 -0.022148 -0.07396 -0.051413 0.029856 0.066833 -0.028794 -0.069684 0.26264 0.14128 0.088004 -0.24897 -0.0147 -0.0068393 0.22558 0.20431 0.2548 0.039282 0.23932 0.11816 -0.28155 -0.15062 -0.24189 -0.036298 0.2538 -0.062747 -0.098379 -0.21489 0.19065 -0.045962 0.10533 0.0055389 0.15869 -0.019007 -0.040377 -0.076586 -0.029651 -0.010276 -0.0078486 0.1954 -0.19283 -0.13743 -0.12683 -0.012575 -0.2107 0.10066 -0.060005 0.035409 0.17141 0.22268 0.24005 0.22957 0.099821 -0.0071434 -0.18234 -0.15648 -0.002426 0.25134 -0.059201 0.047213 -0.11122 -0.15746 0.05276 0.16137 0.17135 0.17335 0.2434 -0.32616 0.0608 0.036656 -0.23681 0.10915 0.087488 0.036922 0.038867 -0.038487 -0.097698 -0.26949 0.058215 0.096573 0.16908 0.16246 0.0011839 -0.26377 0.075173 0.13227 -0.22168 -0.023547 
t -0.044107 -0.017461 -0.15324 -0.37237 -0.049997 -0.018181 -0.010015 -0.024915 -0.086181 0.10939 0.11921 0.12711 -0.043263 -0.033241 -0.10593 -0.049553 0.032707 0.085693 -0.0022973 -0.080792 0.26699 0.098065 0.080871 -0.21861 -0.005193 -0.041593 0.22151 0.22188 0.21888 0.037437 0.23395 0.087384 -0.28088 -0.11423 -0.21472 -0.073074 0.29765 -0.017456 -0.057535 -0.16619 0.17217 -0.011545 0.089592 -0.030167 0.19238 -0.06091 -0.08511 -0.084417 -0.078161 -0.0066352 -0.057018 0.18849 -0.23627 -0.19962 -0.084867 0.029794 -0.22961 0.069885 -0.026809 0.052144 0.18998 0.21823 0.24874 0.24963 0.12631 0.037009 -0.17268 -0.13712 0.068465 0.29274 -0.090199 0.080593 -0.1761 -0.16721 0.039504 0.17537 0.098654 0.28134 0.20262 -0.22942 -0.0068532 0.061015 -0.21873 0.14526 0.12322 0.051513 0.10046 -0.061846 -0.14121 -0.27508 0.056699 0.041686 0.13686 0.19539 -0.0058619 -0.25037 0.044293 0.059501 -0.26489 -0.064733 
darker -0.038834 -0.02473 -0.15065 -0.35768 -0.062343 -0.020505 0.0029348 -0.014702 -0.080877 0.11022 0.12548 0.13402 -0.0377 -0.036688 -0.097236 -0.052625 0.040069 0.081934 -0.0212 -0.066132 0.26991 0.10458 0.081654 -0.2155 -0.0019174 -0.023028 0.21756 0.21349 0.23469 0.031764 0.23705 0.091432 -0.28625 -0.11589 -0.22162 -0.067093 0.28873 -0.0065012 -0.061861 -0.17141 0.17306 -0.019672 0.1017 -0.033238 0.1898 -0.059574 -0.082111 -0.074989 -0.063897 -0.0088266 -0.036025 0.18742 -0.22012 -0.18329 -0.09316 0.024952 -0.21465 0.064763 -0.033835 0.047159 0.18346 0.21371 0.24531 0.24711 0.11805 0.031436 -0.15416 -0.12948 0.051039 0.28001 -0.063887 0.068577 -0.18082 -0.15725 0.037504 0.16498 0.10487 0.2653 0.20454 -0.24057 0.0093837 0.047451 -0.2258 0.14205 0.11032 0.05195 0.081895 -0.056955 -0.13115 -0.26156 0.067766 0.049985 0.1415 0.18731 -0.0125 -0.24048 0.043369 0.062291 -0.2526 -0.063923 
thick -0.05042 -0.034801 -0.1499 -0.34481 -0.049808 -0.030901 0.027105 -0.025828 -0.096959 0.12693 0.14301 0.14346 -0.036257 -0.03214 -0.083131 -0.055489 0.028191 0.073878 -0.020523 -0.068135 0.27257 0.12797 0.07715 -0.23505 -0.0079541 -0.01762 0.22453 0.20609 0.23665 0.032577 0.2309 0.10385 -0.28669 -0.13314 -0.22794 -0.047856 0.27086 -0.037838 -0.0843 -0.19474 0.1825 -0.034154 0.098469 -0.014094 0.17827 -0.04337 -0.068686 -0.076281 -0.053539 -0.0047436 -0.019198 0.19279 -0.21397 -0.16377 -0.11001 0.0113 -0.20962 0.079884 -0.0465 0.037279 0.17304 0.2156 0.24004 0.23868 0.10649 0.01423 -0.16944 -0.14348 0.02678 0.26887 -0.06158 0.058902 -0.14676 -0.15969 0.043749 0.16227 0.13524 0.2205 0.22298 -0.27803 0.02502 0.043961 -0.22674 0.1284 0.093543 0.045882 0.059336 -0.04619 -0.11502 -0.26319 0.064541 0.073461 0.15872 0.17354 0.0005049 -0.2522 0.056999 0.091693 -0.23893 -0.043413 
lot -0.04317 -0.029372 -0.15072 -0.35759 -0.053677 -0.018281 0.015221 -0.019242 -0.090618 0.11674 0.13566 0.13552 -0.037329 -0.029755 -0.096008 -0.052683 0.039062 0.080587 -0.020932 -0.065315 0.26952 0.11466 0.07772 -0.22374 -0.0041065 -0.029798 0.22897 0.21607 0.23556 0.030653 0.23555 0.10051 -0.28404 -0.12556 -0.22867 -0.053001 0.28165 -0.020525 -0.075086 -0.18093 0.17933 -0.024501 0.10017 -0.023701 0.17472 -0.052432 -0.074392 -0.080333 -0.058079 -0.0099344 -0.031836 0.19014 -0.21383 -0.17508 -0.10801 0.016467 -0.21498 0.070026 -0.040331 0.039529 0.18109 0.21802 0.2403 0.24174 0.11265 0.023285 -0.17046 -0.14921 0.039616 0.27599 -0.068543 0.062858 -0.16161 -0.15033 0.037071 0.1639 0.12486 0.24595 0.21333 -0.26088 0.016046 0.04531 -0.22231 0.13342 0.10488 0.038243 0.071538 -0.063925 -0.12447 -0.26206 0.070389 0.058614 0.15241 0.17842 -0.0067155 -0.24736 0.052771 0.081859 -0.24134 -0.052012 
last -0.059987 -0.035453 -0.14239 -0.33492 -0.042095 -0.047427 0.040277 -0.026506 -0.10401 0.13093 0.1429 0.1523 -0.030012 -0.025538 -0.071915 -0.052293 0.023035 0.071706 -0.023654 -0.066997 0.26533 0.13545 0.083065 -0.24158 -0.011422 -0.01086 0.23029 0.20733 0.24167 0.032101 0.23478 0.11173 -0.28461 -0.14546 -0.23611 -0.032861 0.25775 -0.048339 -0.094511 -0.20597 0.18456 -0.04028 0.099163 -0.0062496 0.16985 -0.029987 -0.057328 -0.072628 -0.03936 -0.0068015 -0.00964 0.19166 -0.19876 -0.14853 -0.11954 -0.0035066 -0.2027 0.087167 -0.054237 0.038091 0.16714 0.21858 0.23704 0.23106 0.10026 -0.0049708 -0.17945 -0.149 0.0091125 0.25847 -0.061488 0.048966 -0.12471 -0.15393 0.045956 0.16071 0.15446 0.19322 0.23217 -0.3087 0.04202 0.038423 -0.23166 0.11425 0.086662 0.041518 0.04341 -0.037768 -0.10293 -0.26159 0.063667 0.085806 0.16194 0.16175 0.0023344 -0.24596 0.071803 0.11841 -0.226 -0.036628 
lace -0.053149 -0.036956 -0.15123 -0.34114 -0.051631 -0.036265 0.030661 -0.029172 -0.10293 0.12992 0.14426 0.15148 -0.034922 -0.025319 -0.085715 -0.056216 0.033081 0.075544 -0.022908 -0.064841 0.26937 0.13221 0.08298 -0.23628 -0.010901 -0.013637 0.22725 0.20954 0.24107 0.034538 0.23921 0.10745 -0.28748 -0.13808 -0.23735 -0.040903 0.26684 -0.04366 -0.089443 -0.20681 0.18511 -0.035724 0.1046 -0.0086923 0.17684 -0.031759 -0.064424 -0.076511 -0.046793 -0.0098071 -0.019616 0.19654 -0.20917 -0.15812 -0.11445 0.0025135 -0.21057 0.088111 -0.053102 0.038016 0.17563 0.22001 0.24098 0.24106 0.1052 0.0033935 -0.17946 -0.14994 0.018608 0.26615 -0.06336 0.050274 -0.13982 -0.15918 0.044039 0.16888 0.14621 0.20993 0.2309 -0.29203 0.033218 0.043702 -0.23846 0.1211 0.099532 0.046167 0.051761 -0.040804 -0.1114 -0.26469 0.063663 0.079448 0.15674 0.16385 0.0011718 -0.25389 0.064162 0.10798 -0.24091 -0.039126 
realli -0.043425 -0.020373 -0.15113 -0.35923 -0.056106 -0.020889 0.0097967 -0.01808 -0.085017 0.11466 0.12637 0.13609 -0.034837 -0.030848 -0.10245 -0.056148 0.035333 0.082524 -0.015875 -0.065671 0.26586 0.11107 0.080647 -0.22222 -0.0042305 -0.029071 0.22117 0.21789 0.22711 0.03145 0.22827 0.090629 -0.28089 -0.12209 -0.22273 -0.061283 0.28194 -0.017549 -0.06876 -0.17684 0.18092 -0.016785 0.10031 -0.026473 0.17781 -0.049286 -0.071417 -0.077184 -0.054181 -0.0068392 -0.037795 0.18693 -0.21732 -0.18074 -0.096723 0.021945 -0.21389 0.067381 -0.03507 0.036373 0.18732 0.21516 0.23691 0.24304 0.11615 0.023136 -0.16447 -0.14015 0.052621 0.26934 -0.068931 0.060404 -0.17088 -0.1537 0.038558 0.16191 0.11446 0.24605 0.19823 -0.24585 0.021107 0.043657 -0.21914 0.13427 0.11076 0.042469 0.075694 -0.062944 -0.13111 -0.25561 0.06995 0.052636 0.14329 0.18412 -0.0097626 -0.24643 0.048303 0.066229 -0.24847 -0.052004 
glass -0.048172 -0.033703 -0.14793 -0.34197 -0.051579 -0.030802 0.012935 -0.021441 -0.093369 0.11955 0.13422 0.14044 -0.035022 -0.029394 -0.085644 -0.055451 0.025752 0.073514 -0.014923 -0.068302 0.26972 0.11612 0.076755 -0.22395 -0.0034942 -0.0187 0.21995 0.21315 0.23129 0.03498 0.2295 0.095519 -0.28446 -0.12944 -0.21865 -0.049445 0.27718 -0.024198 -0.071592 -0.18434 0.17604 -0.025021 0.10005 -0.024163 0.17956 -0.04905 -0.07302 -0.074061 -0.054419 -0.0051646 -0.028305 0.18883 -0.21101 -0.16689 -0.10186 0.017858 -0.21161 0.070319 -0.040729 0.045642 0.17343 0.21318 0.23951 0.24118 0.11174 0.016832 -0.16418 -0.13708 0.037183 0.27131 -0.07007 0.060395 -0.1637 -0.15479 0.039688 0.16403 0.11348 0.23863 0.21457 -0.25593 0.01496 0.046714 -0.22446 0.13464 0.10676 0.049482 0.066369 -0.046503 -0.12345 -0.25777 0.059757 0.061972 0.14959 0.17388 -0.0034153 -0.24335 0.056413 0.080342 -0.24764 -0.052997 
hop -0.051605 -0.02791 -0.14995 -0.36389 -0.051188 -0.036286 0.031811 -0.024882 -0.09906 0.13097 0.14665 0.14973 -0.034453 -0.026909 -0.091026 -0.053687 0.034726 0.081794 -0.028418 -0.07268 0.26746 0.12816 0.091599 -0.24142 -0.0093164 -0.028407 0.23356 0.21822 0.24751 0.035652 0.24159 0.10745 -0.29 -0.14444 -0.2445 -0.048854 0.28134 -0.039107 -0.091789 -0.1989 0.1945 -0.031786 0.10266 -0.012878 0.17619 -0.032878 -0.05816 -0.073485 -0.045702 -0.011203 -0.021329 0.20078 -0.21571 -0.17131 -0.11335 0.012678 -0.22139 0.077708 -0.046315 0.039833 0.18605 0.22575 0.24361 0.24741 0.11722 0.013863 -0.17939 -0.15475 0.026061 0.27211 -0.067546 0.054003 -0.15192 -0.1632 0.051323 0.16716 0.14512 0.22623 0.2282 -0.29329 0.037292 0.039119 -0.23797 0.13258 0.10308 0.042328 0.062935 -0.053373 -0.12139 -0.2727 0.064438 0.074593 0.16773 0.17996 0.00023526 -0.26376 0.059613 0.10052 -0.24521 -0.039478 
german -0.036712 -0.015263 -0.15411 -0.38433 -0.071414 -0.007145 -0.0074932 -0.015328 -0.079512 0.10143 0.12164 0.12534 -0.044689 -0.033096 -0.11227 -0.054048 0.041482 0.086699 -0.016511 -0.074249 0.26499 0.10027 0.082743 -0.21191 0.004537 -0.03798 0.21959 0.2219 0.22556 0.026576 0.23095 0.082171 -0.27968 -0.10455 -0.21732 -0.077395 0.30658 0.0033187 -0.051817 -0.14947 0.17012 -0.0058751 0.088115 -0.040401 0.18539 -0.069944 -0.082146 -0.076328 -0.062514 -0.0062192 -0.045198 0.18231 -0.2287 -0.19869 -0.088324 0.036043 -0.22087 0.047894 -0.02195 0.042576 0.19632 0.21649 0.23919 0.24923 0.12739 0.039068 -0.15447 -0.13493 0.074533 0.28055 -0.069998 0.075109 -0.19259 -0.15211 0.037021 0.16391 0.092553 0.28021 0.18013 -0.21842 -0.0034955 0.04394 -0.20845 0.15074 0.11964 0.047348 0.098192 -0.073192 -0.14424 -0.25389 0.071717 0.031013 0.12577 0.1975 -0.017225 -0.23797 0.029336 0.040766 -0.25767 -0.070542 
golden -0.052771 -0.03431 -0.14583 -0.33362 -0.051151 -0.033919 0.022761 -0.023576 -0.098506 0.12302 0.13913 0.14559 -0.033263 -0.02902 -0.084521 -0.052649 0.028022 0.072129 -0.021866 -0.065564 0.26864 0.11835 0.080124 -0.22654 -0.0056953 -0.014901 0.21794 0.20574 0.23564 0.03112 0.23193 0.10373 -0.28184 -0.12957 -0.22432 -0.04277 0.2685 -0.032987 -0.079158 -0.18696 0.17485 -0.029299 0.099442 -0.014989 0.17832 -0.037592 -0.067898 -0.073166 -0.055023 -0.0086421 -0.021629 0.18961 -0.20717 -0.16202 -0.10915 0.0078668 -0.20563 0.079628 -0.047269 0.045298 0.16862 0.21455 0.23274 0.23458 0.10698 0.013798 -0.16491 -0.13725 0.025449 0.26601 -0.062877 0.061581 -0.14467 -0.15497 0.039704 0.1619 0.13184 0.21987 0.21984 -0.27313 0.019957 0.04105 -0.22437 0.12601 0.092731 0.048755 0.059807 -0.040505 -0.11411 -0.2568 0.058802 0.071848 0.15426 0.16632 -0.0010457 -0.2409 0.05605 0.09367 -0.23844 -0.046489 
aftertast -0.05505 -0.027158 -0.1455 -0.35357 -0.047223 -0.032885 0.028674 -0.024762 -0.09405 0.11859 0.13793 0.1451 -0.031849 -0.024831 -0.088378 -0.049976 0.031621 0.077674 -0.021897 -0.073579 0.26266 0.12753 0.084972 -0.23559 -0.0059635 -0.02491 0.22837 0.21749 0.24061 0.033481 0.23413 0.10411 -0.28289 -0.13674 -0.23746 -0.052389 0.27443 -0.039489 -0.086444 -0.1911 0.18985 -0.028913 0.09644 -0.012692 0.16881 -0.037022 -0.059205 -0.075199 -0.041965 -0.0093589 -0.023562 0.19115 -0.21074 -0.16421 -0.1151 0.0078293 -0.21632 0.075645 -0.043982 0.032341 0.18484 0.225 0.24037 0.23703 0.11041 0.0056904 -0.17789 -0.15672 0.031618 0.26559 -0.066215 0.060442 -0.14602 -0.15498 0.042946 0.1594 0.14095 0.21688 0.21764 -0.28428 0.039349 0.040505 -0.2261 0.12262 0.099041 0.038042 0.062461 -0.056527 -0.11395 -0.26257 0.063658 0.074368 0.15694 0.17724 -0.0024802 -0.25815 0.061133 0.093272 -0.23756 -0.043067 
drink -0.034083 -0.020334 -0.15261 -0.38176 -0.064091 -0.013658 -0.0077374 -0.015437 -0.081129 0.096261 0.12323 0.12154 -0.044985 -0.032291 -0.11368 -0.05273 0.043645 0.082587 -0.013154 -0.072823 0.26175 0.1017 0.085123 -0.21007 0.0023218 -0.038758 0.22098 0.22403 0.22573 0.032667 0.22759 0.083278 -0.27891 -0.10477 -0.21823 -0.078297 0.30572 -0.0027007 -0.05817 -0.1577 0.17839 -0.0061465 0.090117 -0.040731 0.18302 -0.064573 -0.081025 -0.078621 -0.063458 -0.0070469 -0.043517 0.18564 -0.22865 -0.19104 -0.090876 0.034226 -0.22625 0.053781 -0.027053 0.038587 0.20148 0.21693 0.24503 0.25095 0.12459 0.03542 -0.15562 -0.14618 0.077528 0.2844 -0.072801 0.073528 -0.18622 -0.15135 0.040424 0.15979 0.10169 0.27772 0.19053 -0.21972 -0.00089674 0.05017 -0.21265 0.14896 0.12363 0.043905 0.094093 -0.075108 -0.14198 -0.26233 0.069497 0.033586 0.13045 0.19954 -0.013692 -0.24579 0.034463 0.046627 -0.25808 -0.062763 
strong -0.048086 -0.030224 -0.14578 -0.34944 -0.05515 -0.029619 0.024644 -0.025702 -0.091167 0.12187 0.13681 0.14164 -0.035445 -0.03055 -0.088838 -0.051527 0.035837 0.075443 -0.01784 -0.069222 0.26624 0.1244 0.081719 -0.23318 -0.0057958 -0.018814 0.22396 0.20967 0.23417 0.035436 0.23038 0.1015 -0.27806 -0.13078 -0.23179 -0.053808 0.26808 -0.033757 -0.081814 -0.1828 0.18011 -0.029374 0.098055 -0.016113 0.17102 -0.038555 -0.060567 -0.07408 -0.043916 -0.0069083 -0.022592 0.18927 -0.21138 -0.1644 -0.10883 0.010073 -0.21128 0.073383 -0.041795 0.037119 0.18155 0.22 0.23548 0.23855 0.11133 0.012063 -0.17507 -0.14991 0.031913 0.26624 -0.062927 0.05661 -0.15065 -0.15636 0.04188 0.16071 0.13038 0.22607 0.21907 -0.27664 0.029353 0.040847 -0.22812 0.13015 0.10235 0.043888 0.06432 -0.052353 -0.12102 -0.26296 0.064072 0.073621 0.15317 0.17779 -0.0052443 -0.25068 0.058031 0.090029 -0.23597 -0.04411 
slight -0.068485 -0.043515 -0.15335 -0.34297 -0.039671 -0.051136 0.06054 -0.032888 -0.10779 0.15154 0.15222 0.17261 -0.026435 -0.017741 -0.072377 -0.048456 0.026512 0.075717 -0.031815 -0.064291 0.26996 0.14849 0.090216 -0.26104 -0.013962 -0.0076711 0.23426 0.20949 0.263 0.038491 0.2433 0.12459 -0.27981 -0.15735 -0.25369 -0.033614 0.25403 -0.067306 -0.11308 -0.22253 0.20267 -0.049181 0.11269 0.0037215 0.16102 -0.015304 -0.035572 -0.073474 -0.030551 -0.0086003 -0.0043092 0.19928 -0.19844 -0.13683 -0.13003 -0.020135 -0.20953 0.10569 -0.062276 0.030668 0.16719 0.23061 0.24364 0.23362 0.099219 -0.018818 -0.18767 -0.15799 -0.0063919 0.24653 -0.056416 0.039457 -0.10289 -0.15476 0.048418 0.16185 0.17693 0.16269 0.24634 -0.33623 0.068729 0.037359 -0.23564 0.10028 0.077913 0.033745 0.029443 -0.030805 -0.087122 -0.26159 0.054654 0.1026 0.18005 0.14915 0.0099695 -0.26648 0.086229 0.14304 -0.2235 -0.020978 
just -0.036387 -0.017924 -0.15209 -0.37132 -0.062435 -0.016706 -0.0061075 -0.016086 -0.082738 0.10723 0.12406 0.12803 -0.043375 -0.032447 -0.10167 -0.057432 0.039407 0.082583 -0.013206 -0.075728 0.26602 0.10047 0.079174 -0.21194 0.0020494 -0.03527 0.22107 0.2228 0.2179 0.031683 0.23457 0.085569 -0.28392 -0.1147 -0.22196 -0.07213 0.29532 -0.0059977 -0.063781 -0.16173 0.16876 -0.008348 0.094705 -0.035054 0.18028 -0.06368 -0.086108 -0.07565 -0.066833 -0.0075924 -0.038907 0.18934 -0.22441 -0.19598 -0.092548 0.035245 -0.22332 0.055443 -0.029798 0.041216 0.19375 0.22007 0.24468 0.24925 0.12455 0.027534 -0.16232 -0.14245 0.06494 0.28271 -0.070035 0.072119 -0.18542 -0.15773 0.041414 0.16919 0.10104 0.27445 0.19771 -0.23027 0.0050039 0.050744 -0.22283 0.14989 0.12264 0.04801 0.094799 -0.07029 -0.14048 -0.26078 0.063718 0.040629 0.13866 0.19137 -0.012292 -0.24792 0.038774 0.054722 -0.26096 -0.063299 
lemon -0.053932 -0.031833 -0.14951 -0.35599 -0.043151 -0.040609 0.029514 -0.023253 -0.096492 0.12533 0.13707 0.15132 -0.035159 -0.021703 -0.090465 -0.05621 0.033895 0.075991 -0.021096 -0.069146 0.27037 0.12632 0.082918 -0.23888 -0.006587 -0.029268 0.22732 0.21026 0.24024 0.032022 0.23388 0.10904 -0.28105 -0.13789 -0.23504 -0.048782 0.27346 -0.035929 -0.087083 -0.19474 0.18741 -0.034995 0.096722 -0.017722 0.1678 -0.035606 -0.055535 -0.073274 -0.043393 -0.01368 -0.023201 0.18965 -0.20151 -0.16104 -0.11512 0.004256 -0.21393 0.083654 -0.04649 0.033365 0.1794 0.22443 0.23906 0.23652 0.10862 0.0069456 -0.18011 -0.15689 0.02943 0.27037 -0.065199 0.054663 -0.14103 -0.15922 0.046719 0.16094 0.15123 0.21727 0.22664 -0.29199 0.041767 0.041953 -0.23053 0.12085 0.10247 0.037647 0.058788 -0.050514 -0.11197 -0.27096 0.065876 0.075468 0.16339 0.17491 -0.0014134 -0.26383 0.063968 0.10341 -0.23241 -0.035331 
wheati -0.058727 -0.038448 -0.14632 -0.33998 -0.046554 -0.044291 0.042933 -0.026658 -0.10194 0.13613 0.14758 0.15441 -0.027352 -0.027039 -0.080775 -0.048319 0.028634 0.071925 -0.025941 -0.068444 0.26906 0.13504 0.085317 -0.24619 -0.010892 -0.014533 0.22652 0.20553 0.24959 0.037765 0.23724 0.11293 -0.28542 -0.14544 -0.24206 -0.038718 0.26476 -0.050083 -0.094008 -0.20774 0.18808 -0.041864 0.10577 -0.006543 0.16712 -0.026334 -0.054962 -0.075501 -0.040772 -0.0088364 -0.014428 0.1984 -0.20676 -0.15062 -0.11967 0.00063044 -0.20926 0.094964 -0.058719 0.039909 0.17125 0.22162 0.24444 0.23607 0.10592 -0.0010889 -0.18247 -0.15324 0.011771 0.26039 -0.059407 0.049366 -0.12622 -0.15644 0.046231 0.1633 0.15819 0.19454 0.23566 -0.30475 0.045014 0.038713 -0.23574 0.11362 0.088122 0.04065 0.047772 -0.041519 -0.10065 -0.26369 0.062829 0.08818 0.16618 0.1624 -0.0023064 -0.25374 0.069641 0.11619 -0.23353 -0.035335 
thin -0.046377 -0.026002 -0.14933 -0.36015 -0.050993 -0.026154 0.011197 -0.02725 -0.089299 0.1149 0.13357 0.13244 -0.040658 -0.029086 -0.090847 -0.052283 0.031241 0.081054 -0.015497 -0.070298 0.2684 0.11755 0.077959 -0.22536 -0.008759 -0.026246 0.22217 0.2099 0.22977 0.032132 0.22756 0.094228 -0.27384 -0.12718 -0.21765 -0.058978 0.27525 -0.02091 -0.077595 -0.17644 0.17963 -0.021596 0.09738 -0.018041 0.17742 -0.049937 -0.074441 -0.082088 -0.054807 -0.0063207 -0.029901 0.18538 -0.21575 -0.17369 -0.099558 0.022047 -0.21348 0.069205 -0.040968 0.032845 0.18546 0.21248 0.23781 0.24571 0.1188 0.025346 -0.16702 -0.14045 0.041265 0.27332 -0.068971 0.062889 -0.16032 -0.15464 0.041189 0.161 0.1157 0.23914 0.2043 -0.25683 0.022253 0.044238 -0.21391 0.1345 0.10069 0.050819 0.074276 -0.052305 -0.13079 -0.25792 0.065702 0.058775 0.14222 0.17527 -0.0073488 -0.25049 0.051099 0.071347 -0.24094 -0.052947 
tap -0.051676 -0.030686 -0.14676 -0.35386 -0.048819 -0.029584 0.017409 -0.021283 -0.093048 0.11596 0.13207 0.14093 -0.030518 -0.03255 -0.086411 -0.056964 0.028742 0.077833 -0.02235 -0.063495 0.26932 0.11697 0.077951 -0.22594 -0.0018764 -0.023954 0.21829 0.20944 0.23614 0.031124 0.23225 0.10629 -0.28124 -0.12855 -0.2261 -0.053926 0.27531 -0.023744 -0.077131 -0.17972 0.17382 -0.029136 0.1003 -0.018073 0.17282 -0.048393 -0.067353 -0.075512 -0.053957 -0.0038661 -0.027507 0.18863 -0.20769 -0.16587 -0.098557 0.0090669 -0.21125 0.070611 -0.04557 0.039644 0.17549 0.21392 0.23579 0.23717 0.10723 0.02065 -0.16608 -0.14004 0.032661 0.26191 -0.063761 0.06017 -0.14824 -0.15418 0.038995 0.16456 0.12378 0.22711 0.20481 -0.2667 0.026981 0.044814 -0.22111 0.12577 0.098731 0.047182 0.067245 -0.048019 -0.11686 -0.25089 0.062445 0.06467 0.14791 0.17292 -0.0092803 -0.23546 0.052476 0.089245 -0.23495 -0.045472 
tart -0.060686 -0.035215 -0.14557 -0.34514 -0.039115 -0.041779 0.035332 -0.03055 -0.10149 0.13269 0.14465 0.1504 -0.031783 -0.023306 -0.080824 -0.052941 0.030224 0.075231 -0.020835 -0.068425 0.26851 0.13412 0.085047 -0.24414 -0.0075578 -0.017907 0.22485 0.21004 0.24821 0.035675 0.23648 0.10916 -0.28138 -0.14655 -0.24019 -0.046436 0.26303 -0.04804 -0.093382 -0.20239 0.1868 -0.036345 0.10257 -0.0059999 0.17019 -0.031791 -0.050821 -0.075975 -0.038145 -0.013054 -0.017262 0.19265 -0.20672 -0.15562 -0.11799 0.0021074 -0.21227 0.088201 -0.054863 0.029039 0.17418 0.21832 0.24052 0.23635 0.1125 -0.00019847 -0.18388 -0.15715 0.019339 0.25873 -0.056974 0.048939 -0.13089 -0.15646 0.043988 0.16704 0.14886 0.19285 0.2349 -0.30067 0.045434 0.044649 -0.229 0.1179 0.093444 0.042919 0.051808 -0.041391 -0.106 -0.26195 0.061865 0.082258 0.1613 0.16523 0.0033704 -0.26128 0.068552 0.11346 -0.22901 -0.028263 
crisp -0.052341 -0.032039 -0.14845 -0.35447 -0.045208 -0.034001 0.032876 -0.023806 -0.1014 0.12999 0.14058 0.14844 -0.034373 -0.022642 -0.085661 -0.049809 0.033738 0.078337 -0.019056 -0.07152 0.26844 0.13141 0.088145 -0.23929 -0.009658 -0.020878 0.22991 0.21532 0.24889 0.039144 0.24062 0.1119 -0.28729 -0.1408 -0.24415 -0.051978 0.27481 -0.042018 -0.09383 -0.19994 0.19036 -0.032413 0.10545 -0.01391 0.17091 -0.034548 -0.055023 -0.081166 -0.041178 -0.0064913 -0.018197 0.19456 -0.21506 -0.16295 -0.1165 0.0048445 -0.22155 0.087386 -0.050534 0.035081 0.18254 0.22824 0.24361 0.24104 0.11386 0.0020735 -0.18199 -0.15672 0.026123 0.26868 -0.064026 0.060333 -0.14617 -0.15759 0.043889 0.16817 0.14773 0.21476 0.23126 -0.29439 0.037809 0.039355 -0.23217 0.12451 0.098251 0.040201 0.056082 -0.05008 -0.11497 -0.26485 0.062267 0.077687 0.16375 0.1735 0.001896 -0.26481 0.064378 0.10422 -0.24058 -0.036867 
overal -0.047161 -0.021055 -0.14875 -0.35762 -0.055414 -0.023293 0.015397 -0.024302 -0.086563 0.11272 0.13071 0.14005 -0.034535 -0.025814 -0.098629 -0.049546 0.038353 0.079562 -0.020012 -0.072616 0.26253 0.11362 0.084396 -0.22643 -0.0026312 -0.028526 0.22283 0.21776 0.22957 0.036533 0.22963 0.094403 -0.27499 -0.12494 -0.22598 -0.064959 0.28084 -0.031468 -0.074206 -0.17803 0.18548 -0.019257 0.095961 -0.019611 0.1724 -0.041853 -0.061665 -0.07842 -0.046878 -0.0065991 -0.030481 0.18659 -0.2122 -0.16921 -0.1072 0.014639 -0.21813 0.067433 -0.037536 0.029641 0.18801 0.21987 0.24336 0.2372 0.11745 0.019244 -0.17188 -0.15106 0.044798 0.2676 -0.069214 0.064938 -0.16256 -0.15472 0.039819 0.16287 0.12625 0.23917 0.20367 -0.26417 0.027844 0.04329 -0.22271 0.12974 0.10606 0.03769 0.072158 -0.064758 -0.1222 -0.26473 0.064533 0.05944 0.14721 0.18553 -0.0077948 -0.25556 0.053882 0.076486 -0.24468 -0.049858 
fresh -0.052789 -0.028469 -0.14247 -0.35247 -0.049468 -0.031925 0.031205 -0.024409 -0.094961 0.12387 0.14169 0.14786 -0.029472 -0.02446 -0.089735 -0.052302 0.033781 0.075218 -0.022294 -0.06941 0.26555 0.12422 0.08619 -0.23649 -0.0038462 -0.019352 0.22707 0.20859 0.24689 0.036029 0.23189 0.107 -0.28225 -0.13584 -0.24041 -0.052917 0.27438 -0.038338 -0.088549 -0.19353 0.19172 -0.029058 0.10246 -0.012879 0.17147 -0.03412 -0.062407 -0.075528 -0.0447 -0.0062861 -0.022018 0.19477 -0.21398 -0.16106 -0.11528 0.0033844 -0.21568 0.085332 -0.048048 0.035482 0.18265 0.22678 0.24162 0.23959 0.11348 0.011528 -0.17347 -0.15612 0.026532 0.26658 -0.064813 0.057087 -0.14732 -0.15319 0.0441 0.16207 0.14165 0.21842 0.22165 -0.28479 0.037873 0.039713 -0.2288 0.12664 0.094937 0.039537 0.062858 -0.054018 -0.11337 -0.26484 0.06224 0.067932 0.15925 0.17228 -0.0039582 -0.2532 0.058492 0.097366 -0.23926 -0.040416 
pretti -0.042016 -0.021317 -0.14606 -0.36064 -0.056383 -0.021334 0.0065726 -0.021006 -0.082682 0.11232 0.12876 0.13516 -0.036612 -0.029602 -0.095797 -0.054153 0.035584 0.081134 -0.01541 -0.069725 0.26603 0.11495 0.079967 -0.22374 -0.0041702 -0.026924 0.22486 0.21208 0.23299 0.034596 0.23049 0.092861 -0.27863 -0.12234 -0.22396 -0.062902 0.28537 -0.018889 -0.072427 -0.17775 0.18232 -0.01901 0.093746 -0.027079 0.17672 -0.051772 -0.07269 -0.075336 -0.052994 -0.0073001 -0.034764 0.18762 -0.2189 -0.17713 -0.10067 0.022383 -0.21796 0.067302 -0.03385 0.035996 0.19022 0.21797 0.24019 0.24258 0.11888 0.023363 -0.16925 -0.14263 0.046857 0.27373 -0.066104 0.064963 -0.17028 -0.15663 0.043787 0.16575 0.11634 0.25065 0.20326 -0.25376 0.017827 0.048125 -0.22333 0.13526 0.10898 0.043113 0.073271 -0.058229 -0.13144 -0.25867 0.066575 0.056738 0.1461 0.18396 -0.008018 -0.25195 0.05115 0.069283 -0.24834 -0.055947 
bubblegum -0.053964 -0.0355 -0.14902 -0.35351 -0.046941 -0.036041 0.030403 -0.026909 -0.10222 0.13056 0.14309 0.14754 -0.032985 -0.026158 -0.086558 -0.051895 0.03308 0.074023 -0.024712 -0.070776 0.27345 0.13115 0.082891 -0.24263 -0.0089545 -0.018935 0.22849 0.21323 0.24773 0.03366 0.238 0.11179 -0.28653 -0.13904 -0.23545 -0.049445 0.27337 -0.041515 -0.089599 -0.19676 0.18772 -0.03525 0.10192 -0.012911 0.17411 -0.035706 -0.060539 -0.078292 -0.042967 -0.0078644 -0.018228 0.19385 -0.20869 -0.16194 -0.11847 0.00068599 -0.21775 0.085166 -0.050295 0.036987 0.17929 0.22648 0.24263 0.24188 0.10686 0.0081949 -0.17661 -0.15542 0.022735 0.26811 -0.060301 0.055512 -0.14157 -0.15473 0.045543 0.16328 0.14402 0.2133 0.23109 -0.29403 0.036169 0.038999 -0.2329 0.12425 0.098941 0.043536 0.05581 -0.044912 -0.11251 -0.27089 0.060775 0.0806 0.16028 0.1758 0.00064846 -0.25959 0.06295 0.099681 -0.23722 -0.042507 
soft -0.050126 -0.028216 -0.15136 -0.3606 -0.049596 -0.032795 0.027601 -0.022593 -0.097379 0.12665 0.13829 0.1516 -0.036854 -0.028776 -0.092927 -0.052054 0.034344 0.084306 -0.018859 -0.074788 0.2727 0.12853 0.083724 -0.24088 -0.0055065 -0.028768 0.23357 0.22193 0.24718 0.034457 0.24378 0.10606 -0.28851 -0.13257 -0.23752 -0.058018 0.27973 -0.039574 -0.087718 -0.20093 0.19248 -0.027795 0.10249 -0.020423 0.1804 -0.0364 -0.061566 -0.081835 -0.043448 -0.011256 -0.026149 0.19857 -0.21778 -0.16743 -0.11113 0.0046274 -0.22117 0.080672 -0.045867 0.033422 0.18701 0.23039 0.24852 0.24124 0.11715 0.010027 -0.17845 -0.15786 0.034669 0.27099 -0.064426 0.059867 -0.15566 -0.15754 0.0445 0.1669 0.14085 0.22818 0.22183 -0.28377 0.0378 0.042811 -0.23114 0.12912 0.10347 0.041372 0.063305 -0.055378 -0.11972 -0.26885 0.066881 0.075116 0.156 0.1798 -0.0021421 -0.26631 0.05829 0.097764 -0.24301 -0.04049 
clean -0.051359 -0.030888 -0.14946 -0.35779 -0.052906 -0.030553 0.022838 -0.021037 -0.094381 0.12701 0.13682 0.14485 -0.034769 -0.025027 -0.090975 -0.049609 0.034822 0.079876 -0.0236 -0.068344 0.27281 0.12343 0.083317 -0.23668 -0.0033151 -0.023911 0.22742 0.21208 0.24077 0.032465 0.23534 0.10648 -0.284 -0.1355 -0.23191 -0.052572 0.27422 -0.032411 -0.080521 -0.1883 0.1846 -0.02489 0.097626 -0.017819 0.17572 -0.044084 -0.064476 -0.07275 -0.047548 -0.0075838 -0.025079 0.18938 -0.21354 -0.16607 -0.10624 0.0092352 -0.21307 0.075985 -0.044624 0.039229 0.17991 0.22172 0.23986 0.23921 0.1102 0.012192 -0.17055 -0.15002 0.03417 0.26726 -0.064244 0.060858 -0.14858 -0.15447 0.041276 0.16398 0.13632 0.2277 0.21844 -0.27825 0.029785 0.043018 -0.2231 0.12887 0.09967 0.038573 0.061411 -0.049176 -0.1199 -0.26153 0.0658 0.066316 0.15172 0.17482 -0.0084526 -0.25026 0.05603 0.0882 -0.24266 -0.05092 
long -0.048662 -0.033 -0.15324 -0.35037 -0.050699 -0.032901 0.025496 -0.026059 -0.09228 0.12346 0.13656 0.14334 -0.036368 -0.032638 -0.091062 -0.058248 0.028244 0.076432 -0.015208 -0.066927 0.26572 0.12379 0.082733 -0.23575 -0.011726 -0.016851 0.22717 0.21197 0.23895 0.036115 0.23563 0.10212 -0.28569 -0.12901 -0.22975 -0.057478 0.27042 -0.03744 -0.086358 -0.18691 0.18755 -0.029808 0.098848 -0.014336 0.17401 -0.04354 -0.066339 -0.075705 -0.048334 -0.009207 -0.024809 0.191 -0.21448 -0.16746 -0.11023 0.01198 -0.21277 0.074934 -0.041564 0.039599 0.1826 0.21672 0.23691 0.246 0.10738 0.0099735 -0.16953 -0.15048 0.030538 0.27003 -0.067498 0.0549 -0.15205 -0.1521 0.04062 0.16528 0.12683 0.22637 0.22345 -0.27286 0.029782 0.046053 -0.22473 0.1308 0.10055 0.048655 0.066329 -0.049457 -0.1235 -0.26119 0.06298 0.066227 0.1538 0.17662 -0.0076517 -0.24751 0.056797 0.092725 -0.24349 -0.04926 
appear -0.056684 -0.037509 -0.14397 -0.33877 -0.04457 -0.039426 0.026296 -0.02728 -0.10314 0.13374 0.1432 0.14948 -0.030638 -0.02938 -0.078035 -0.051766 0.027804 0.073058 -0.015305 -0.069449 0.276 0.12695 0.078555 -0.23912 -0.012701 -0.017617 0.2282 0.20942 0.24561 0.031216 0.23905 0.10972 -0.2903 -0.13513 -0.23397 -0.041898 0.27015 -0.039529 -0.091546 -0.19522 0.18672 -0.036024 0.10443 -0.014184 0.1742 -0.036622 -0.058716 -0.075907 -0.048963 -0.0073453 -0.017183 0.19833 -0.20422 -0.15689 -0.11159 0.0040526 -0.208 0.08674 -0.05436 0.044363 0.16922 0.2222 0.2365 0.24348 0.10509 0.008756 -0.17288 -0.14259 0.017251 0.26232 -0.061214 0.050835 -0.1386 -0.15737 0.046846 0.16169 0.14232 0.20938 0.22727 -0.28536 0.030931 0.042811 -0.23274 0.12069 0.094719 0.047441 0.056381 -0.037739 -0.10681 -0.26009 0.063952 0.079398 0.15825 0.16529 -0.0012401 -0.25075 0.06689 0.10825 -0.23319 -0.038348 
decent -0.051699 -0.032893 -0.14708 -0.34744 -0.047683 -0.033218 0.020899 -0.022733 -0.097444 0.12098 0.13828 0.14067 -0.03306 -0.024138 -0.087107 -0.053321 0.033494 0.075863 -0.017822 -0.064195 0.26507 0.11572 0.078504 -0.23021 -0.0079318 -0.019668 0.22048 0.20547 0.23158 0.032154 0.22926 0.096349 -0.27929 -0.12886 -0.22772 -0.050376 0.27165 -0.035182 -0.080793 -0.18943 0.18158 -0.031018 0.10247 -0.015347 0.17037 -0.041709 -0.068606 -0.080343 -0.05053 -0.0077486 -0.021161 0.19178 -0.20312 -0.16218 -0.10489 0.014034 -0.21247 0.075857 -0.0475 0.041943 0.17648 0.21309 0.23725 0.23741 0.11222 0.010322 -0.17655 -0.14754 0.028489 0.26649 -0.06383 0.055666 -0.15206 -0.1535 0.044588 0.16942 0.13423 0.22686 0.21874 -0.2754 0.02644 0.045045 -0.23041 0.12957 0.10448 0.045654 0.061232 -0.046672 -0.11956 -0.26103 0.067991 0.069329 0.1571 0.1772 -0.0048612 -0.25432 0.056862 0.090558 -0.23701 -0.044192 
expect -0.038077 -0.020153 -0.14673 -0.35043 -0.055086 -0.01816 0.0016882 -0.019859 -0.079351 0.10205 0.12067 0.12529 -0.040057 -0.03021 -0.092538 -0.052069 0.040982 0.083455 -0.016448 -0.072628 0.26749 0.10683 0.082201 -0.21951 -0.0021864 -0.032719 0.21751 0.21492 0.23078 0.035235 0.23161 0.087569 -0.27826 -0.11297 -0.22078 -0.069224 0.28748 -0.017631 -0.064838 -0.16956 0.17743 -0.015263 0.09542 -0.030942 0.18078 -0.056943 -0.074889 -0.0774 -0.056948 -0.005782 -0.037621 0.18617 -0.22085 -0.17891 -0.094285 0.025839 -0.22088 0.065964 -0.032807 0.036942 0.19045 0.21438 0.23934 0.24518 0.11987 0.033422 -0.16299 -0.13798 0.057504 0.27447 -0.069378 0.06845 -0.17338 -0.15431 0.038974 0.16271 0.11024 0.25905 0.20045 -0.24349 0.0099338 0.048565 -0.21981 0.13814 0.11448 0.045664 0.083561 -0.064137 -0.13348 -0.25777 0.064183 0.048633 0.14146 0.1904 -0.010267 -0.24881 0.040117 0.061507 -0.24605 -0.060515 
best -0.035253 -0.021144 -0.15391 -0.37671 -0.062338 -0.024823 0.00064217 -0.019997 -0.088154 0.10948 0.13077 0.13279 -0.038318 -0.033823 -0.098801 -0.055009 0.034951 0.082536 -0.018243 -0.07196 0.27279 0.10291 0.0768 -0.22171 -0.0019646 -0.035664 0.22374 0.21982 0.2317 0.028705 0.23285 0.086516 -0.28741 -0.1169 -0.22284 -0.0708 0.29364 -0.013759 -0.064317 -0.16657 0.18149 -0.014817 0.09643 -0.033666 0.18838 -0.05998 -0.076889 -0.077866 -0.057425 -0.0053803 -0.037754 0.186 -0.22656 -0.18575 -0.095154 0.024346 -0.21876 0.058204 -0.034896 0.039588 0.19487 0.22329 0.24763 0.24856 0.11593 0.026442 -0.1671 -0.13627 0.059117 0.28575 -0.068245 0.073851 -0.18063 -0.15447 0.039059 0.16254 0.10814 0.26785 0.1954 -0.24103 0.013786 0.039772 -0.22646 0.14251 0.11379 0.041403 0.08372 -0.067221 -0.13733 -0.26032 0.067626 0.04645 0.14028 0.18986 -0.015447 -0.24186 0.041478 0.057641 -0.25357 -0.065699 
bubbl -0.05205 -0.033169 -0.14852 -0.34782 -0.046872 -0.032988 0.021575 -0.023034 -0.096387 0.12328 0.13473 0.14233 -0.035064 -0.025925 -0.090226 -0.049578 0.037698 0.074798 -0.023648 -0.069703 0.26234 0.12478 0.081313 -0.23366 -0.0073175 -0.019404 0.22101 0.20979 0.23992 0.03077 0.23162 0.10562 -0.28142 -0.13019 -0.22861 -0.05249 0.2733 -0.03289 -0.085894 -0.18764 0.18081 -0.034829 0.099965 -0.019127 0.17098 -0.03789 -0.062351 -0.078933 -0.048606 -0.0048973 -0.023477 0.1885 -0.20814 -0.16039 -0.11524 0.0014833 -0.21255 0.07876 -0.04742 0.03544 0.17995 0.22027 0.24322 0.23984 0.10713 0.011322 -0.17082 -0.14586 0.030408 0.26407 -0.062681 0.057408 -0.14394 -0.1485 0.042993 0.15785 0.13576 0.21661 0.21858 -0.28101 0.029602 0.041452 -0.22685 0.12105 0.10027 0.044942 0.058801 -0.047438 -0.11161 -0.25971 0.062381 0.075671 0.15486 0.17418 -0.0012713 -0.25363 0.057069 0.089343 -0.23499 -0.043098 
look -0.043622 -0.027872 -0.15199 -0.36288 -0.057941 -0.020072 0.0067054 -0.021347 -0.08845 0.11372 0.13111 0.13751 -0.044021 -0.035438 -0.098915 -0.055099 0.033712 0.083924 -0.017073 -0.069251 0.2758 0.11696 0.081241 -0.2259 -0.00085161 -0.027269 0.22885 0.2207 0.23573 0.033156 0.23487 0.089367 -0.28545 -0.12213 -0.22422 -0.064785 0.28976 -0.016934 -0.072304 -0.17373 0.17893 -0.019987 0.098861 -0.027009 0.18569 -0.056925 -0.076259 -0.078863 -0.059761 -0.0072193 -0.03181 0.18698 -0.22284 -0.18021 -0.10004 0.021539 -0.22124 0.067001 -0.034075 0.042056 0.18667 0.21725 0.24197 0.24642 0.11838 0.027547 -0.16562 -0.14315 0.048395 0.27573 -0.066647 0.064364 -0.17235 -0.15089 0.038098 0.15914 0.10886 0.25386 0.20673 -0.24477 0.011987 0.049498 -0.22206 0.13926 0.1107 0.045996 0.079628 -0.059291 -0.12602 -0.2587 0.065495 0.052001 0.14001 0.1844 -0.012098 -0.24782 0.043247 0.071737 -0.25384 -0.056564 
live -0.056419 -0.02945 -0.14862 -0.34847 -0.046683 -0.034265 0.030945 -0.02537 -0.097828 0.12622 0.13825 0.14473 -0.030529 -0.022544 -0.082662 -0.052156 0.031144 0.07969 -0.023224 -0.071153 0.26275 0.13108 0.081072 -0.24138 -0.0095433 -0.015846 0.22335 0.20861 0.23798 0.03499 0.23049 0.10093 -0.27546 -0.13892 -0.23398 -0.04746 0.26343 -0.042548 -0.086182 -0.2 0.18838 -0.03376 0.10853 -0.015637 0.16919 -0.032612 -0.059453 -0.077211 -0.044533 -0.006307 -0.020633 0.18914 -0.20184 -0.15337 -0.10875 0.00068036 -0.21276 0.079461 -0.050779 0.03399 0.17915 0.22447 0.2411 0.23557 0.10796 0.005592 -0.17484 -0.14911 0.023188 0.26104 -0.062945 0.054972 -0.1424 -0.15599 0.047206 0.15756 0.14227 0.21288 0.21935 -0.28236 0.041581 0.043379 -0.22699 0.11716 0.096977 0.041962 0.054858 -0.047889 -0.11145 -0.26289 0.061953 0.077662 0.1567 0.16522 -0.0052705 -0.25904 0.064474 0.10204 -0.23182 -0.039708 
moder -0.051992 -0.030876 -0.14961 -0.35162 -0.045662 -0.034681 0.033302 -0.02582 -0.093671 0.1297 0.14249 0.15267 -0.031969 -0.023622 -0.091464 -0.054458 0.03677 0.082509 -0.025751 -0.06952 0.27141 0.12949 0.088798 -0.24135 -0.012847 -0.020015 0.22529 0.21435 0.24935 0.031208 0.23961 0.1034 -0.28114 -0.14105 -0.24152 -0.050568 0.26606 -0.041113 -0.090415 -0.20295 0.18853 -0.034307 0.10393 -0.0096613 0.17099 -0.032614 -0.053977 -0.074207 -0.036656 -0.0055455 -0.021014 0.19065 -0.20493 -0.1593 -0.11577 -0.001482 -0.21626 0.084212 -0.045736 0.030436 0.1832 0.22468 0.24654 0.23918 0.10608 0.0065084 -0.17268 -0.14994 0.0236 0.26148 -0.05816 0.055774 -0.14035 -0.1573 0.045081 0.16189 0.1449 0.21039 0.22183 -0.29038 0.046012 0.036262 -0.23015 0.12173 0.10032 0.038757 0.056131 -0.047377 -0.10894 -0.26497 0.060642 0.077284 0.16246 0.17255 -0.0033682 -0.2601 0.065054 0.10442 -0.23047 -0.033038 
larg -0.047742 -0.035433 -0.14645 -0.33262 -0.051826 -0.03469 0.022978 -0.024228 -0.099971 0.12322 0.13796 0.14182 -0.032451 -0.027092 -0.081017 -0.053648 0.028298 0.073469 -0.020661 -0.066131 0.26902 0.12373 0.078347 -0.22891 -0.0073447 -0.018152 0.21819 0.20368 0.23233 0.033679 0.23149 0.099413 -0.2834 -0.13244 -0.22466 -0.041146 0.26483 -0.031527 -0.086089 -0.19222 0.1769 -0.028285 0.10255 -0.011467 0.17393 -0.038483 -0.066786 -0.072119 -0.047382 -0.0079638 -0.021924 0.18464 -0.20199 -0.15758 -0.10999 0.0052815 -0.20467 0.081902 -0.054432 0.043924 0.17029 0.21422 0.23057 0.24059 0.10356 0.01058 -0.16721 -0.14309 0.023953 0.26524 -0.0611 0.05731 -0.14131 -0.15449 0.043418 0.16359 0.1364 0.21748 0.22397 -0.27747 0.02809 0.042967 -0.22218 0.12773 0.09571 0.046478 0.053047 -0.042336 -0.11126 -0.25658 0.062169 0.073308 0.15248 0.16258 -0.0052015 -0.24315 0.057751 0.09869 -0.23524 -0.04322 
feel -0.051092 -0.027121 -0.15138 -0.36398 -0.044877 -0.034063 0.027566 -0.023486 -0.091264 0.12339 0.13986 0.15167 -0.033822 -0.022145 -0.090656 -0.053627 0.032187 0.083319 -0.019808 -0.076527 0.27177 0.1316 0.085939 -0.24434 -0.013236 -0.022214 0.23285 0.21914 0.24253 0.034046 0.24389 0.11041 -0.28299 -0.14052 -0.24804 -0.054705 0.27752 -0.041292 -0.093103 -0.20111 0.19453 -0.029849 0.10216 -0.01447 0.17161 -0.033494 -0.056656 -0.084826 -0.039396 -0.0098256 -0.025242 0.19346 -0.2123 -0.16191 -0.11631 0.0041501 -0.22771 0.083375 -0.045485 0.026627 0.18621 0.22885 0.25574 0.24441 0.1224 0.0062624 -0.18323 -0.16537 0.03008 0.26841 -0.068053 0.060365 -0.15532 -0.15761 0.046893 0.17246 0.14774 0.22324 0.22776 -0.28734 0.044626 0.041822 -0.22812 0.12072 0.095726 0.036836 0.062183 -0.054964 -0.12153 -0.27158 0.060472 0.076104 0.15999 0.17918 -0.0012149 -0.27471 0.065854 0.10017 -0.24263 -0.037946 
rate -0.044441 -0.030117 -0.15042 -0.36356 -0.066538 -0.016099 -0.0036046 -0.017425 -0.073993 0.090939 0.11818 0.13242 -0.033429 -0.043491 -0.10886 -0.048313 0.03124 0.083752 -0.032086 -0.076316 0.26787 0.10986 0.087134 -0.21748 0.017876 -0.040274 0.22838 0.22155 0.23828 0.024981 0.22956 0.093293 -0.29266 -0.1187 -0.23481 -0.071391 0.29694 -0.00049244 -0.074614 -0.14585 0.17568 -0.0099716 0.079289 -0.036206 0.18645 -0.061949 -0.077749 -0.06661 -0.066373 -0.0071013 -0.035918 0.19095 -0.22344 -0.18536 -0.10186 0.016693 -0.22543 0.064852 -0.045736 0.048166 0.19089 0.23217 0.24987 0.22859 0.10861 0.031456 -0.15594 -0.15021 0.077992 0.28142 -0.056348 0.063833 -0.17188 -0.15143 0.036191 0.15915 0.12586 0.26298 0.20476 -0.24935 0.004058 0.038957 -0.20463 0.15514 0.11441 0.032436 0.081502 -0.073412 -0.13466 -0.25707 0.074915 0.051314 0.13837 0.18817 -0.012551 -0.23293 0.036676 0.058369 -0.25944 -0.055472 
schneider -0.035454 -0.024249 -0.15218 -0.37935 -0.063801 -0.014283 -0.011107 -0.013907 -0.077176 0.10249 0.12812 0.13027 -0.040339 -0.035178 -0.10482 -0.057939 0.039294 0.087815 -0.01436 -0.06957 0.27728 0.10296 0.083574 -0.21662 0.0020003 -0.035466 0.22068 0.22177 0.23257 0.027308 0.23226 0.084413 -0.28663 -0.10958 -0.21997 -0.071403 0.30276 0.0022104 -0.056962 -0.15941 0.17468 -0.0055507 0.093331 -0.033625 0.19013 -0.067227 -0.085896 -0.076008 -0.064581 -0.0035477 -0.045911 0.18449 -0.22801 -0.196 -0.090371 0.030059 -0.22155 0.054674 -0.028873 0.042207 0.19481 0.21641 0.24155 0.25196 0.12353 0.035997 -0.15643 -0.13338 0.065004 0.28478 -0.069129 0.076154 -0.18892 -0.16 0.036484 0.16542 0.095801 0.27854 0.1931 -0.22623 0.0016339 0.045519 -0.21839 0.14911 0.12095 0.05067 0.091729 -0.064593 -0.14156 -0.26114 0.066576 0.036454 0.13613 0.19375 -0.016194 -0.24359 0.0342 0.048998 -0.2578 -0.064388 
