637 100
dummy -0.015894 0.090191 -0.090899 0.238874 0.247215 1.092181 -0.107545 0.195929 -1.157391 0.222638 -0.171455 -0.264890 0.462878 -0.015068 0.082925 -0.029541 0.171866 -0.235975 -0.333117 0.036862 0.570426 0.496932 0.282108 0.147856 0.506069 0.452348 0.537836 0.182890 -0.507114 -0.799540 -0.339531 -0.068866 -0.214792 -0.144315 0.338715 0.271196 -1.225399 0.423777 0.286211 0.497618 0.836391 0.651989 -0.689988 0.286903 0.132566 -0.128256 -0.515024 0.920599 -0.256972 -0.038069 0.723822 -0.232718 0.816382 0.379782 0.438363 -0.866050 0.134778 0.170834 0.996160 -0.224903 -0.029835 -0.041118 0.360507 -0.099279 -0.159810 -0.125535 0.103685 -0.854299 0.016653 0.592755 0.715014 -0.127313 0.401017 -0.296522 0.841322 -0.664749 -0.072300 -0.205127 0.266609 -0.435579 0.040211 -0.593831 -0.356338 1.104689 0.419001 -0.778919 -0.231123 0.378213 0.346967 -0.321295 -0.565098 1.013579 -0.078740 0.782816 -0.255910 0.246015 0.603045 0.229504 0.278771 -0.011122
banana 0.224119 0.309227 0.145384 -0.262329 -0.205337 -0.000028 0.335230 0.498352 -0.421617 -0.034638 -0.504735 0.001326 0.539966 -0.188657 0.455093 1.118914 -0.396712 -0.308208 -0.077281 0.138123 0.060702 -0.304865 -0.123876 -0.570648 -0.089270 0.287008 0.157809 0.649545 -0.098927 -0.356029 0.233617 0.040408 0.064066 0.301767 -0.321089 0.251891 0.583527 -0.290566 -0.298276 0.620480 0.065782 0.049124 0.328260 0.013333 0.109539 -0.162064 0.281457 0.583820 0.125202 -0.142332 -0.048925 -0.489726 -0.050610 0.778192 -0.092555 0.225422 0.125834 0.258364 0.066221 -0.063160 -0.354223 -0.496129 0.502040 -0.322607 0.256679 -0.703253 -0.050893 -0.180526 0.022876 0.676238 0.027843 -0.229919 -0.389709 -0.047330 -0.224073 -0.528729 -0.187197 0.047197 0.255179 -0.073982 0.023942 0.108291 -0.087467 0.327158 -0.120095 -0.752542 -0.130150 0.108460 -0.166810 0.089163 -0.255182 0.248148 0.706873 0.522026 0.246735 0.054548 0.070921 0.463237 -0.441950 0.400547
head -0.158365 0.449259 0.227748 -0.104950 -0.122732 -0.090535 0.016214 0.307690 -1.019136 -0.115613 -0.155948 -0.581305 0.398256 0.389097 0.024709 0.524240 0.376205 -0.360272 0.557128 -0.639579 0.298079 -0.059123 0.303660 -0.653054 0.031929 -0.326143 0.761776 0.056694 -0.267571 -0.505347 -0.231280 0.018491 -0.055344 -0.351282 -0.453630 -0.050608 0.162144 -0.125079 -0.034270 0.192620 0.067132 0.019739 0.267138 0.283836 -0.003833 -0.202854 0.146490 0.098778 0.000617 0.361960 -0.102077 -0.417634 0.322862 0.222550 0.049037 -0.536665 0.275797 -0.241567 0.289558 -0.495171 -0.390352 0.241649 0.305215 -0.927169 0.035068 -0.127718 -0.003731 -0.293455 -0.435402 0.146820 -0.292029 -0.343926 -0.747804 -0.336213 0.016940 -0.132670 -0.069575 0.265651 0.855031 -0.355588 -0.090237 0.375871 -0.656607 0.234333 -0.259148 0.373441 0.005997 -0.074612 0.043311 0.547572 0.497725 0.549435 0.349971 -0.022124 0.307438 -0.174658 -0.945350 -0.057998 -0.642871 0.550035
aroma 0.142229 0.378742 0.203071 -0.263435 -0.160860 0.091744 0.237713 0.424269 -0.666185 -0.120483 -0.422313 -0.092857 0.514633 -0.123505 0.344857 1.025199 -0.142269 -0.333964 0.054268 -0.110339 0.075223 -0.246383 0.049413 -0.685709 -0.031807 0.100124 0.285797 0.511052 -0.086944 -0.399796 0.084883 0.007734 0.035795 0.117403 -0.399994 0.156298 0.489206 -0.180584 -0.217328 0.578538 0.021939 0.064553 0.301915 0.157872 0.092663 -0.149648 0.220693 0.467223 0.116373 -0.053575 -0.105069 -0.563957 0.018238 0.679898 -0.123490 -0.049792 0.199476 0.053165 0.149010 -0.239848 -0.437726 -0.257907 0.435015 -0.561290 0.223961 -0.466653 -0.037708 -0.227781 -0.056901 0.584462 -0.097423 -0.230190 -0.548111 -0.169584 -0.169610 -0.358453 -0.096279 0.174781 0.533456 -0.206567 0.001217 0.214249 -0.303689 0.248682 -0.208649 -0.441446 -0.135120 0.042497 -0.114729 0.223721 -0.076125 0.356230 0.657521 0.421202 0.357859 -0.016414 -0.221642 0.350502 -0.504768 0.520925
tast 0.191072 0.192205 0.036044 -0.046719 -0.239879 0.121284 0.247284 0.376430 -0.333262 0.044874 -0.442600 0.029186 0.343364 -0.119111 0.329069 0.683908 -0.368970 -0.346232 -0.084331 0.169979 0.138800 -0.145853 -0.229091 -0.306374 -0.045060 0.343756 0.172203 0.504349 -0.040817 -0.492298 0.146802 0.084167 -0.048195 0.329086 -0.190801 0.137962 0.220725 -0.205384 -0.096117 0.458371 0.104260 0.083214 0.273226 0.022800 0.107652 -0.065312 0.142708 0.580884 0.066936 -0.133250 0.018989 -0.363325 -0.065256 0.482594 0.023118 0.143277 -0.082152 0.230110 0.218560 -0.020406 -0.251203 -0.414203 0.321694 -0.181874 0.191248 -0.543905 -0.032451 -0.314861 0.100068 0.540073 0.073811 -0.215453 -0.125637 -0.080060 -0.040218 -0.567021 -0.067549 0.017858 0.107186 -0.015135 0.002353 -0.082121 -0.158982 0.420524 -0.086605 -0.684359 -0.109538 0.119072 -0.040451 0.039677 -0.260267 0.206183 0.451181 0.438238 0.075643 0.020041 0.219460 0.469973 -0.337257 0.203191
beer -0.065507 -0.064395 -0.256131 0.093292 0.061156 0.894769 -0.007581 -0.019544 -0.414045 0.088868 -0.334302 -0.237261 -0.014347 -0.283486 -0.084407 -0.237159 -0.036172 -0.078180 -0.294617 -0.256029 0.278191 0.385701 0.174296 0.097102 0.048641 0.323783 0.332038 0.182598 0.157578 -0.393439 -0.168633 0.238941 -0.279594 -0.048780 -0.102262 0.109487 -0.661402 0.047191 0.209745 0.396106 0.408722 0.608932 -0.415993 0.331647 0.237670 -0.022186 -0.325309 0.266321 0.068030 -0.169899 0.096057 0.042068 0.112643 0.436823 0.180417 -0.607133 -0.202736 0.291106 0.712625 -0.273369 0.091433 -0.158810 -0.087369 0.032010 0.192209 0.076705 -0.001644 -0.602328 -0.010468 0.492540 0.110018 -0.082505 0.477295 -0.379451 0.565399 -0.504209 0.301420 -0.054091 0.191691 -0.152916 -0.032198 -0.346317 -0.401339 0.670701 -0.079666 -0.282733 -0.323350 0.217110 0.173554 -0.054729 -0.255118 0.552264 0.136030 0.339500 -0.254475 0.044710 0.173199 0.260112 0.091451 -0.260591
flavor 0.185351 0.153898 0.026960 -0.012419 -0.202397 0.119748 0.230822 0.415260 -0.223956 0.054367 -0.433624 -0.021095 0.269650 -0.115721 0.323551 0.640818 -0.480956 -0.311494 -0.124045 0.165452 0.145523 -0.136362 -0.295454 -0.211926 -0.089604 0.431524 0.062127 0.545784 0.022898 -0.440019 0.150643 0.155231 -0.037236 0.369942 -0.194031 0.208776 0.222042 -0.234793 -0.114530 0.491151 0.108248 0.117766 0.273001 0.001050 0.116798 -0.074440 0.106336 0.555126 0.120735 -0.141211 0.019176 -0.289993 -0.090963 0.514392 -0.012173 0.231812 -0.126495 0.309221 0.195050 0.029914 -0.190610 -0.450729 0.260951 -0.095074 0.172358 -0.575750 0.000202 -0.363439 0.170483 0.544927 0.105414 -0.167351 -0.059092 -0.056720 -0.036011 -0.650458 -0.061393 -0.071550 0.040647 0.008922 0.024656 -0.094070 -0.159465 0.435925 -0.104591 -0.734264 -0.130658 0.113581 -0.055808 0.006589 -0.257054 0.140796 0.406367 0.425747 0.045252 0.033775 0.260837 0.491090 -0.306194 0.133086
wheat 0.135303 0.159448 -0.040630 -0.144619 -0.223862 0.369579 0.219348 0.346599 -0.417062 -0.024414 -0.606466 -0.168143 0.366095 -0.310028 0.291231 0.696773 -0.343477 -0.235858 -0.152090 -0.019206 0.190593 -0.077038 -0.041413 -0.414085 -0.111188 0.352468 0.233148 0.580249 0.108654 -0.438881 0.144069 0.151132 -0.073092 0.233557 -0.391767 0.220761 0.237710 -0.233711 -0.161935 0.645813 0.208011 0.325965 0.138232 0.183415 0.230684 -0.087060 0.088822 0.475578 0.164153 -0.144083 -0.056755 -0.314028 -0.069900 0.788783 -0.006779 -0.037446 -0.060390 0.390866 0.350591 -0.148228 -0.184207 -0.516972 0.320563 -0.251664 0.330426 -0.535904 -0.036840 -0.403852 -0.003736 0.687375 -0.039143 -0.251982 -0.172539 -0.235628 0.016358 -0.652868 0.076140 0.021091 0.240720 -0.097099 -0.022391 -0.072623 -0.269651 0.503577 -0.198299 -0.635779 -0.288174 0.197929 -0.009965 0.084729 -0.228659 0.383045 0.633989 0.493589 0.078634 -0.008585 0.073045 0.493793 -0.362417 0.180938
clove 0.191946 0.270303 0.100605 -0.216196 -0.229439 -0.061965 0.351090 0.505921 -0.345247 -0.030874 -0.485681 -0.008424 0.481821 -0.169646 0.430467 1.051954 -0.445398 -0.307250 -0.080413 0.178317 0.076453 -0.286265 -0.182045 -0.508516 -0.149435 0.297689 0.122689 0.634864 -0.092887 -0.330296 0.228178 0.063441 0.081757 0.303353 -0.281637 0.257004 0.583906 -0.335344 -0.279794 0.596807 0.031413 0.021353 0.357020 -0.009051 0.098954 -0.145183 0.271173 0.559406 0.130281 -0.131736 -0.053238 -0.429513 -0.060498 0.733295 -0.075069 0.325896 0.096485 0.299752 0.016355 -0.001899 -0.300600 -0.516670 0.468372 -0.270631 0.250335 -0.728854 -0.043252 -0.140448 0.039902 0.630017 0.016898 -0.223959 -0.347418 -0.007149 -0.231033 -0.564096 -0.201505 -0.001585 0.167795 -0.038945 0.054894 0.105665 -0.048904 0.314031 -0.109307 -0.759829 -0.107338 0.109892 -0.156873 0.064486 -0.232915 0.183271 0.634564 0.494326 0.211092 0.055330 0.093964 0.484848 -0.433443 0.352993
bottl 0.048672 -0.167708 -0.123236 -0.257077 0.148973 0.960958 -0.166252 -0.300966 -1.011822 -0.365658 -0.089154 0.335540 0.459103 -0.589135 -0.081906 -0.074068 0.463132 0.437685 -0.187764 -0.074138 0.135717 0.549251 0.641461 -0.458179 0.589861 -0.131007 0.370774 0.084009 -0.072011 -0.186694 -0.217535 -0.546654 0.069779 -0.244271 0.359416 -0.110192 -0.720903 0.638160 0.256888 0.380836 0.411666 0.583461 -0.757008 0.467799 0.203136 -0.007909 -0.239248 0.434685 -0.213368 -0.361753 0.273477 -0.313046 0.421432 0.183225 0.203681 -0.959694 0.368617 -0.141142 0.629178 -0.292223 0.089921 0.213154 0.078207 -0.151570 0.287462 0.244458 0.076549 -0.143449 -0.107063 0.231721 0.232203 -0.130983 0.031276 -0.377630 0.376957 0.299344 0.096903 0.393372 0.229109 -0.271099 0.138092 -0.260882 0.114321 0.413983 0.342800 -0.110483 -0.192561 0.122989 0.073185 -0.245878 -0.586734 0.754257 0.214891 0.508831 0.073260 -0.224088 0.655486 0.059431 0.450522 0.067341
white -0.235541 0.354967 0.232715 -0.143646 -0.158600 -0.414511 0.022975 0.263862 -1.059389 0.025991 -0.046977 -0.887212 0.556556 0.583968 -0.064247 0.482616 0.471860 -0.262325 0.740166 -0.687675 0.357482 -0.146547 0.412740 -0.592459 -0.075946 -0.577498 1.014141 -0.068099 -0.478547 -0.411000 -0.238156 0.002672 0.016701 -0.608588 -0.502117 -0.125148 0.220126 -0.233839 -0.054965 0.019227 0.250168 -0.028696 0.270826 0.169595 -0.073325 -0.304416 0.287144 0.011784 -0.061478 0.648746 -0.125898 -0.250356 0.521934 0.181331 0.302114 -0.514674 0.322234 -0.123892 0.214190 -0.488393 -0.307047 0.218283 0.462657 -0.956873 -0.033513 -0.242913 -0.059535 -0.083570 -0.799050 -0.023611 -0.406702 -0.599057 -0.805754 -0.259314 0.034748 -0.117154 -0.179034 0.203444 0.797322 -0.335554 -0.156745 0.446577 -0.583096 0.230637 -0.189232 0.561827 0.086689 -0.117179 0.023318 0.701061 0.661025 0.633038 0.300888 -0.347775 0.170469 -0.208616 -1.276761 -0.294721 -0.722818 0.493771
color -0.119996 0.001767 0.021352 -0.277296 -0.166131 0.081139 -0.022718 -0.241292 -0.920852 -0.059422 -0.249293 -0.097825 0.464598 -0.240860 -0.161535 0.303166 0.434363 -0.277895 -0.019727 -0.352814 0.275054 0.027173 0.570526 -0.578187 -0.134212 -0.645815 1.180999 -0.001682 -0.382129 -0.371067 -0.013964 -0.224085 0.137975 -0.358612 -0.268029 -0.072127 -0.313991 0.027725 0.006000 0.296262 0.181026 0.322895 -0.070515 0.190469 -0.140017 0.005509 0.045144 -0.110568 -0.138736 0.264872 -0.212518 -0.185898 0.397839 0.378482 0.497711 -0.660433 0.505490 -0.043983 0.124844 -0.369312 -0.352456 -0.242701 0.243054 -0.659624 0.342246 -0.192026 -0.211406 0.382969 -0.542934 0.021943 -0.477488 -0.629153 -0.286838 -0.313315 0.256531 0.138531 -0.066945 0.340128 0.754982 -0.561449 -0.100305 0.088620 -0.384846 0.236484 -0.000075 0.093625 -0.071776 0.236126 0.001919 0.174133 0.018019 0.659892 0.269637 0.001297 -0.003424 -0.057697 -0.530122 -0.030670 -0.338956 0.406039
sweet 0.140487 0.207317 0.034611 0.144272 -0.475325 -0.196639 0.247290 0.421057 -0.282330 0.088705 -0.494337 -0.002350 0.326000 0.077464 0.405662 0.689682 -0.465974 -0.469626 0.115509 0.345604 0.219842 -0.213367 -0.531881 -0.223751 -0.107263 0.349717 0.227600 0.475132 -0.157289 -0.698394 0.186098 -0.014998 0.063149 0.401010 -0.154524 0.072510 0.289268 -0.253111 -0.067458 0.332850 0.042649 -0.047527 0.568967 -0.119696 -0.001333 -0.022512 0.236841 0.644805 -0.061892 0.031143 0.068965 -0.363378 -0.061734 0.240099 0.151466 0.487928 -0.156711 0.220465 0.119693 0.155770 -0.288041 -0.549980 0.337677 -0.265504 0.059257 -0.806614 0.008551 -0.227214 0.139667 0.292089 0.067333 -0.344252 -0.307493 0.023955 -0.124686 -0.659501 -0.152617 -0.021947 -0.051002 0.022168 0.020930 -0.159651 -0.094732 0.442021 -0.064327 -0.760981 -0.035948 0.094637 0.083264 0.063249 -0.166643 0.069738 0.324726 0.380277 0.018457 -0.029124 0.260352 0.491678 -0.533214 0.221828
nice -0.045411 0.132457 -0.083359 0.092488 -0.210427 0.234540 0.109853 0.193414 -0.747323 0.097051 -0.364145 -0.199479 0.298025 0.019577 0.096780 0.330966 -0.103421 -0.407506 0.029293 -0.068425 0.356563 0.157047 -0.049734 -0.195469 0.011138 0.089670 0.593173 0.307981 -0.216346 -0.714346 -0.067908 0.033157 0.022199 0.098425 -0.133428 0.030077 -0.266457 -0.083266 0.149072 0.427726 0.273932 0.240760 0.183812 0.095534 0.076714 -0.020357 -0.050027 0.474413 -0.061341 0.023512 0.118155 -0.206373 0.226044 0.269796 0.304162 -0.267697 -0.040671 0.149466 0.447991 -0.155970 -0.158600 -0.282294 0.207451 -0.349654 0.142339 -0.429046 -0.016935 -0.405052 -0.091793 0.331221 -0.025623 -0.449572 -0.041525 -0.217787 0.285791 -0.568017 0.051299 -0.014492 0.289889 -0.181172 0.023406 -0.174217 -0.351264 0.623386 -0.051027 -0.395861 -0.124277 0.135387 0.084285 0.079862 -0.123816 0.458829 0.230248 0.277152 -0.100661 -0.071424 0.025241 0.380899 -0.337223 0.161660
pour -0.128161 -0.069430 -0.135122 -0.425570 0.152321 0.799853 -0.024572 -0.467035 -1.105970 -0.348085 -0.153802 0.406257 0.510261 -0.737012 -0.020211 0.247141 0.469469 0.182265 -0.228164 -0.225976 -0.040903 0.442330 0.723431 -0.606576 0.406544 -0.486508 0.458615 0.075504 -0.133952 -0.141561 -0.087671 -0.609420 0.293048 -0.322077 0.146388 -0.102832 -0.472328 0.388725 0.166487 0.500735 0.163406 0.389580 -0.439789 0.383473 0.013452 0.015534 -0.105148 0.224679 -0.313861 -0.237161 0.189034 -0.313051 0.224889 0.325234 0.201637 -0.917400 0.507859 -0.285128 0.521384 -0.355576 -0.105358 0.062235 0.156395 -0.331406 0.372906 0.198681 -0.138481 0.084177 -0.173687 0.094223 -0.039030 -0.269106 -0.180458 -0.314463 0.233790 0.414388 0.310234 0.421583 0.479699 -0.322325 0.118090 -0.046901 0.213994 0.223975 0.152281 0.083437 -0.405819 0.040656 -0.008461 -0.107358 -0.500856 0.702174 0.364533 0.513156 0.105978 -0.207892 0.331454 0.146112 0.178740 0.206257
light -0.086181 0.011422 -0.172731 0.114199 -0.509970 -0.232870 0.221947 0.060873 -0.628708 -0.011377 -0.463191 0.130880 0.383079 -0.137207 0.293249 0.586192 -0.169739 -0.472692 0.071582 0.299279 0.264145 -0.012228 -0.293230 -0.316828 -0.158146 -0.100658 0.765001 0.267378 -0.412620 -0.737938 0.209282 -0.401742 0.417516 0.066493 -0.132298 -0.110047 -0.027486 -0.164210 -0.004739 0.388013 0.095911 0.167719 0.512089 -0.150686 -0.136343 0.017054 0.189779 0.568318 -0.325430 0.122504 0.135282 -0.201323 0.143973 0.195209 0.513953 0.269950 0.104655 0.181672 0.157416 0.161500 -0.239483 -0.728412 0.302221 -0.476255 0.159498 -0.821407 -0.122866 0.126736 -0.181761 -0.064194 -0.164223 -0.600851 -0.334490 -0.035143 0.070028 -0.482182 -0.136460 0.093111 0.041347 -0.142622 0.151078 -0.250387 0.148395 0.506756 0.068609 -0.619010 -0.152316 0.197762 0.145006 0.077478 -0.203371 0.342372 0.256927 0.416505 -0.221172 -0.030754 0.243417 0.429982 -0.508214 0.206613
finish 0.036294 0.054802 -0.150011 0.424153 -0.372573 -0.169990 0.150758 0.384399 -0.043580 0.246355 -0.306110 -0.096979 -0.037113 0.291505 0.255643 0.139255 -0.568650 -0.418701 0.034983 0.406495 0.347304 -0.018433 -0.674805 0.293052 -0.075552 0.492826 0.120951 0.325012 -0.152326 -0.719019 0.019658 0.121090 -0.016959 0.457625 0.072294 0.012374 -0.106600 -0.224726 0.144590 0.193653 0.149018 -0.035921 0.431480 -0.209790 0.028345 0.045376 -0.049124 0.597285 -0.081330 -0.028906 0.171696 -0.003177 0.045182 -0.126357 0.261700 0.535509 -0.418470 0.282639 0.230256 0.259774 0.022724 -0.377868 0.071189 0.041909 -0.085943 -0.640843 0.050700 -0.436766 0.284164 0.169261 0.228037 -0.261585 0.187800 0.064933 0.166322 -0.802169 -0.126600 -0.289004 -0.375231 0.139322 0.138743 -0.363626 -0.107673 0.576820 0.071557 -0.721332 0.073359 0.117165 0.190547 -0.122558 -0.091248 -0.083546 -0.126592 0.185521 -0.242421 0.010494 0.425879 0.462491 -0.317993 -0.111408
good -0.033112 0.080902 -0.128384 0.209161 -0.094263 0.498122 0.007872 0.229475 -0.566135 0.090306 -0.328558 -0.223809 0.081621 0.043786 0.055620 -0.000180 -0.074886 -0.357249 -0.036792 -0.128255 0.372557 0.273602 -0.102498 0.015928 0.065074 0.288103 0.411424 0.276980 -0.044645 -0.717095 -0.166518 0.245032 -0.166316 0.174003 -0.067551 0.058437 -0.487737 0.036504 0.198724 0.349236 0.347946 0.325440 0.011218 0.182431 0.203251 0.007474 -0.244524 0.438758 0.029531 -0.082668 0.194303 -0.152806 0.163134 0.184690 0.171341 -0.350399 -0.197529 0.154687 0.555696 -0.169013 -0.054138 -0.132708 0.027433 -0.217899 0.076156 -0.174409 0.051627 -0.684400 0.051166 0.415058 0.102053 -0.260717 0.195516 -0.300756 0.387038 -0.664612 0.176009 -0.056195 0.200605 -0.124606 0.002339 -0.272535 -0.491012 0.693222 -0.099459 -0.344691 -0.143590 0.144229 0.181340 0.002291 -0.134422 0.385297 0.117496 0.289875 -0.111977 -0.060804 0.141556 0.383386 -0.190410 0.002088
bodi -0.203568 -0.024102 -0.163684 0.508569 -0.626803 -0.425505 0.077342 0.168678 -0.593864 -0.046426 -0.332098 -0.217422 0.149369 0.209264 0.276197 0.039732 -0.086008 -0.534617 0.547769 0.110002 0.489959 0.119756 -0.512051 0.002621 -0.195011 -0.071198 0.886286 0.141638 -0.402357 -1.036031 -0.036340 -0.243780 0.364798 0.015383 -0.010894 -0.214756 -0.271721 -0.164100 0.177511 0.129779 0.117600 0.112563 0.562183 -0.039300 -0.031159 0.008685 -0.052818 0.379727 -0.377780 0.502262 0.210923 -0.056227 0.334923 -0.174918 0.551754 0.424787 -0.057182 0.225230 0.232536 0.355848 -0.114713 -0.451716 0.061933 -0.676709 0.034207 -0.854593 0.041544 -0.021030 -0.220187 -0.268638 -0.065113 -0.673080 -0.391265 -0.186508 0.180211 -0.737177 -0.195144 0.075805 -0.088452 -0.226383 0.189826 -0.366669 -0.195277 0.641689 -0.046862 -0.351814 0.037648 0.147379 0.539995 0.204681 0.139165 0.210649 -0.141456 0.128873 -0.369826 -0.203792 0.031131 0.362113 -0.643639 0.026586
amber -0.217904 -0.083146 -0.159570 -0.341160 -0.120443 0.162737 -0.010161 -0.477853 -0.933711 -0.200344 -0.261915 0.322716 0.427630 -0.574284 -0.040000 0.415214 0.521917 -0.137884 -0.179309 -0.165188 0.055160 0.171977 0.630487 -0.647176 -0.079391 -0.807178 1.124468 -0.078754 -0.428508 -0.218926 0.168867 -0.538095 0.423888 -0.384517 -0.241839 -0.177107 -0.388777 0.172208 -0.062426 0.381240 0.140459 0.450983 -0.088167 0.109268 -0.186718 0.036907 0.042365 -0.045892 -0.311084 0.068879 -0.110092 -0.139213 0.245718 0.377597 0.544828 -0.620773 0.634475 -0.098847 0.134007 -0.300617 -0.277776 -0.446753 0.199211 -0.618982 0.391553 -0.125082 -0.285022 0.561757 -0.556706 -0.126675 -0.531072 -0.568251 -0.271183 -0.267644 0.248298 0.309652 0.016537 0.447551 0.655807 -0.507716 0.041526 0.010451 0.045977 0.108071 0.096814 0.026345 -0.283791 0.253357 -0.051030 0.070229 -0.251448 0.711396 0.367923 0.261907 -0.142547 -0.009273 -0.231865 0.042642 -0.173841 0.364481
medium -0.186600 0.006583 -0.156757 0.410730 -0.618426 -0.424768 0.109413 0.147825 -0.668329 0.006788 -0.362765 -0.133831 0.251823 0.187148 0.280373 0.217532 -0.084676 -0.545997 0.445021 0.188926 0.444853 0.071599 -0.455265 -0.075843 -0.157923 -0.115086 0.897309 0.158591 -0.454197 -0.993413 0.020898 -0.312974 0.377565 0.016790 -0.049330 -0.220583 -0.192160 -0.160451 0.145315 0.171381 0.125678 0.071156 0.584526 -0.081690 -0.098648 0.000176 0.052914 0.470125 -0.407341 0.427091 0.204568 -0.124107 0.302933 -0.151415 0.582593 0.373119 -0.015447 0.172473 0.222268 0.284049 -0.164472 -0.506182 0.177325 -0.646983 0.028734 -0.859206 -0.013808 0.027656 -0.236607 -0.251228 -0.104053 -0.689819 -0.395815 -0.130310 0.144714 -0.632849 -0.194261 0.085995 -0.055475 -0.199433 0.169969 -0.331087 -0.091119 0.607025 0.019685 -0.408869 0.014521 0.142432 0.414928 0.178027 0.068870 0.247700 -0.061130 0.181477 -0.324095 -0.168523 0.068307 0.354144 -0.636624 0.098597
yeast 0.170384 0.215991 0.108144 -0.215482 -0.241173 -0.048996 0.300782 0.410053 -0.358055 -0.063908 -0.465953 -0.033754 0.460628 -0.198101 0.366973 0.964930 -0.374350 -0.268799 -0.041917 0.095114 0.067265 -0.285387 -0.115788 -0.550723 -0.161471 0.209367 0.173541 0.560435 -0.070292 -0.316963 0.210548 0.012264 0.063482 0.216816 -0.330460 0.184809 0.530406 -0.318978 -0.248385 0.552707 0.011469 0.051445 0.330790 0.027821 0.060953 -0.122609 0.257199 0.471401 0.091215 -0.074974 -0.101960 -0.418156 -0.057649 0.689670 -0.061116 0.234739 0.073983 0.241826 0.059356 -0.052319 -0.311131 -0.449636 0.429367 -0.321975 0.240692 -0.656084 -0.048442 -0.111370 0.010268 0.541122 -0.063155 -0.225109 -0.392129 -0.040593 -0.205861 -0.460054 -0.139846 0.069400 0.211631 -0.060455 0.023721 0.094154 -0.082721 0.282254 -0.129316 -0.629487 -0.125871 0.100621 -0.105264 0.124899 -0.184300 0.227470 0.615894 0.437382 0.217572 0.024447 0.002821 0.415450 -0.449108 0.336760
not 0.086149 0.051766 -0.085712 0.115916 0.043888 0.493555 -0.030553 0.073968 -0.251163 0.057201 -0.156886 0.081319 0.053707 -0.130326 0.072070 -0.052665 -0.104730 -0.178501 -0.223104 -0.001887 0.212086 0.203609 -0.028358 0.065259 0.194108 0.365417 0.031167 0.209276 0.067804 -0.341997 -0.047466 0.188680 -0.204876 0.251165 0.056561 0.115882 -0.376319 0.089705 0.086179 0.221565 0.234490 0.212544 -0.139382 0.131963 0.166413 0.037970 -0.174094 0.326764 0.057855 -0.184089 0.179265 -0.123977 -0.007285 0.113525 -0.016766 -0.244394 -0.116635 0.080908 0.368881 -0.080102 -0.028329 -0.042905 -0.014560 0.073233 0.031004 0.072581 0.062015 -0.488818 0.229757 0.367215 0.238022 0.032484 0.361206 -0.220773 0.202202 -0.411111 0.158380 -0.049228 0.035907 -0.051889 -0.008209 -0.257622 -0.282027 0.418190 -0.042728 -0.349450 -0.132323 0.076249 0.029352 -0.095474 -0.301774 0.218153 0.035380 0.314381 -0.063466 0.003922 0.379010 0.286756 0.083650 -0.086731
brown -0.156048 -0.124080 -0.113556 -0.270260 -0.247017 -0.030013 0.010651 -0.385265 -0.820254 -0.203919 -0.283091 0.230175 0.442585 -0.451721 -0.058413 0.355098 0.435395 -0.140437 -0.061000 -0.104832 0.117665 0.057805 0.479109 -0.617341 -0.120204 -0.712768 1.117314 -0.060197 -0.434130 -0.247830 0.129859 -0.586116 0.417856 -0.399637 -0.182000 -0.167683 -0.240040 0.087552 -0.073599 0.286781 0.071542 0.363125 -0.002409 0.058303 -0.214884 0.028515 0.137090 -0.032180 -0.291391 0.168232 -0.137380 -0.140370 0.319576 0.288807 0.559726 -0.408451 0.594700 -0.043194 0.014104 -0.179086 -0.278335 -0.446654 0.218010 -0.613279 0.359150 -0.285065 -0.240156 0.628235 -0.542108 -0.226297 -0.465270 -0.572776 -0.384987 -0.206954 0.156132 0.272113 -0.150292 0.391732 0.518696 -0.475875 0.065025 -0.007210 0.080468 0.125353 0.118956 -0.011053 -0.172839 0.250132 0.002773 0.111235 -0.132602 0.615972 0.293467 0.186670 -0.121321 -0.037387 -0.195807 0.003441 -0.250349 0.347689
carbon -0.081679 0.084179 -0.076724 0.538319 -0.410581 -0.159287 0.087787 0.363133 -0.343259 0.063533 -0.212113 -0.270189 0.054806 0.375826 0.240833 -0.056205 -0.202486 -0.551068 0.423140 0.136945 0.406959 0.160720 -0.594658 0.153168 -0.091410 0.280206 0.358004 0.209881 -0.249393 -0.839098 -0.109291 0.074449 0.118635 0.158167 0.127867 -0.127498 -0.235857 -0.110943 0.275991 0.137969 0.154351 0.027073 0.480693 -0.017070 0.041297 0.082437 -0.098489 0.443037 -0.191762 0.290389 0.332651 -0.048350 0.254678 -0.154851 0.272811 0.383413 -0.264960 0.165595 0.220361 0.284601 -0.088728 -0.252940 0.024293 -0.364095 -0.121747 -0.604579 0.151187 -0.353442 0.019883 -0.068522 0.143907 -0.440633 -0.139964 -0.099083 0.146568 -0.828121 0.010874 -0.060908 -0.148928 -0.078097 0.112533 -0.332376 -0.316689 0.630611 -0.072013 -0.346549 0.142392 0.060636 0.436103 0.112324 0.116269 0.018094 -0.083264 0.100048 -0.183920 -0.124658 0.093986 0.343956 -0.496935 -0.019751
dark -0.178607 -0.035744 -0.189887 -0.384281 0.049059 0.473119 0.009414 -0.437760 -0.909455 -0.242764 -0.274367 0.417077 0.439025 -0.708563 0.051616 0.491513 0.414520 -0.006961 -0.321100 -0.096243 -0.045581 0.289411 0.635854 -0.600461 0.096744 -0.576286 0.728501 0.029006 -0.280304 -0.130893 0.169682 -0.517784 0.402135 -0.266798 -0.146143 -0.097946 -0.358749 0.254324 -0.049416 0.497779 0.193023 0.454399 -0.194394 0.146268 -0.057833 0.023145 -0.025541 0.173985 -0.265952 -0.157235 0.044426 -0.181872 0.116383 0.470802 0.358793 -0.669324 0.528964 -0.099146 0.338505 -0.317680 -0.164384 -0.375425 0.229221 -0.417530 0.361256 -0.006363 -0.221913 0.254558 -0.365243 0.061093 -0.314603 -0.367736 -0.157652 -0.246299 0.221336 0.252375 0.200460 0.361523 0.520276 -0.349222 0.084142 -0.037828 0.202206 0.144400 0.100844 -0.080869 -0.434650 0.175873 -0.106669 -0.030179 -0.454957 0.707035 0.479513 0.493342 -0.096652 -0.020527 0.111752 0.173091 0.011458 0.272063
fruiti 0.145481 0.279164 0.098170 -0.015841 -0.250727 -0.021121 0.242082 0.445470 -0.391748 0.041566 -0.422788 -0.109996 0.323544 0.034754 0.347146 0.781988 -0.396519 -0.387776 0.011206 0.103296 0.165727 -0.229919 -0.274527 -0.328389 -0.077588 0.330782 0.177029 0.476679 -0.080938 -0.528174 0.095603 0.077486 -0.016314 0.288162 -0.264681 0.139435 0.337861 -0.246850 -0.103490 0.465794 0.038042 0.013172 0.367103 0.003647 0.077235 -0.084377 0.144801 0.557859 0.064659 -0.062100 -0.030785 -0.393627 -0.010072 0.441856 -0.003522 0.208529 -0.065321 0.154263 0.166861 -0.059612 -0.315956 -0.355477 0.326393 -0.335294 0.114389 -0.589382 -0.020351 -0.318784 0.119592 0.500310 0.032514 -0.209012 -0.300073 -0.049260 -0.063541 -0.571656 -0.123850 -0.021910 0.208442 -0.048534 0.032354 0.010691 -0.248696 0.365770 -0.116655 -0.637538 -0.060976 0.082684 -0.002676 0.090009 -0.086052 0.173611 0.395789 0.349089 0.157317 0.016185 0.034098 0.413836 -0.463964 0.311037
malt 0.187417 0.162235 0.085559 -0.119130 -0.298994 -0.071516 0.278747 0.412993 -0.147868 0.009689 -0.484458 -0.075679 0.355823 -0.161030 0.345575 0.812156 -0.488956 -0.273521 -0.045369 0.163394 0.070443 -0.312778 -0.261031 -0.418182 -0.200331 0.303398 0.064588 0.551669 0.017952 -0.334918 0.239375 0.073534 0.011279 0.289194 -0.340085 0.183484 0.504092 -0.344872 -0.214960 0.467854 -0.014621 0.038803 0.374573 -0.033835 0.051914 -0.083402 0.245008 0.454347 0.125993 -0.054811 -0.115829 -0.330328 -0.144161 0.605442 -0.066864 0.363780 -0.083650 0.308890 0.067277 0.033740 -0.261020 -0.509651 0.360468 -0.199801 0.192794 -0.693050 -0.031015 -0.172981 0.077176 0.499694 -0.052790 -0.191959 -0.323312 0.007723 -0.204125 -0.545340 -0.091437 0.013214 0.085227 0.016926 -0.015603 0.008848 -0.093321 0.275109 -0.151265 -0.657853 -0.139777 0.091107 -0.045651 0.115618 -0.178134 0.110220 0.544951 0.395468 0.143837 0.025171 0.056327 0.426771 -0.439380 0.219448
spice 0.171281 0.207707 0.075517 -0.117909 -0.242173 -0.105174 0.313032 0.433535 -0.221446 -0.016119 -0.438979 -0.020127 0.349713 -0.128639 0.391644 0.886446 -0.469133 -0.288713 -0.058322 0.187854 0.071544 -0.276667 -0.257970 -0.398206 -0.170758 0.302323 0.071939 0.550243 -0.064309 -0.332823 0.221608 0.060295 0.062250 0.309801 -0.266189 0.186909 0.490098 -0.336709 -0.226399 0.496941 -0.015902 0.004828 0.369344 -0.035424 0.056555 -0.100664 0.229456 0.499933 0.098020 -0.105452 -0.062872 -0.362766 -0.082295 0.589023 -0.067500 0.375144 -0.003977 0.272702 0.028813 0.046057 -0.264094 -0.477334 0.363433 -0.219043 0.184476 -0.676485 -0.035793 -0.148409 0.101104 0.504590 -0.000849 -0.170239 -0.289882 0.026755 -0.190424 -0.538078 -0.164736 -0.016188 0.075611 0.013084 0.046206 0.040389 -0.033057 0.294966 -0.113379 -0.707075 -0.097540 0.109588 -0.095690 0.064090 -0.179887 0.116872 0.500176 0.435405 0.158194 0.057191 0.112318 0.449250 -0.405691 0.269112
bit 0.121635 0.115663 0.013247 0.120934 -0.197717 0.036679 0.180070 0.317899 -0.075580 0.101557 -0.280078 -0.010090 0.128562 0.030903 0.238375 0.338404 -0.394761 -0.265838 -0.044517 0.240541 0.143348 -0.100405 -0.364167 -0.010130 -0.061026 0.398775 -0.039163 0.356060 -0.053595 -0.399113 0.102068 0.139174 -0.064640 0.353023 -0.022585 0.123801 0.108021 -0.143919 -0.014559 0.259942 0.082919 -0.021967 0.250979 -0.091186 0.052738 -0.006350 0.079578 0.470337 0.032638 -0.127443 0.099104 -0.211774 -0.066058 0.179410 0.059547 0.286749 -0.189283 0.161097 0.148611 0.086773 -0.119262 -0.319976 0.168660 0.027966 0.005747 -0.437471 0.009053 -0.293024 0.237404 0.325330 0.187718 -0.095755 0.043422 0.033249 -0.001096 -0.519237 -0.050981 -0.149245 -0.102285 0.099481 0.010393 -0.136370 -0.092247 0.368904 -0.047218 -0.592113 -0.055814 0.077821 0.012531 -0.073010 -0.194163 0.003290 0.173719 0.315390 -0.033416 0.037297 0.327241 0.364132 -0.231061 0.047697
cloudi -0.182414 -0.018041 -0.150801 -0.419875 0.038271 0.430602 0.035284 -0.456172 -1.015805 -0.295690 -0.221930 0.411026 0.492420 -0.677516 0.025872 0.475575 0.468401 0.007131 -0.211104 -0.169800 -0.051152 0.297821 0.649664 -0.684110 0.163862 -0.645188 0.707097 0.016485 -0.290004 -0.139666 0.094484 -0.605391 0.420570 -0.329832 -0.073585 -0.139942 -0.297395 0.252466 0.015543 0.473754 0.111510 0.346921 -0.182666 0.189839 -0.098788 0.027463 0.005508 0.163684 -0.324221 -0.116311 0.057133 -0.265421 0.162964 0.371681 0.309875 -0.700604 0.565111 -0.215181 0.321256 -0.331974 -0.198742 -0.221163 0.227230 -0.475110 0.342165 0.020429 -0.207219 0.292631 -0.350166 -0.023308 -0.294969 -0.375552 -0.285383 -0.247960 0.155874 0.357408 0.199411 0.422793 0.562652 -0.349264 0.097095 0.023054 0.232997 0.130254 0.100670 0.043746 -0.393466 0.111375 -0.077315 0.016027 -0.403031 0.694874 0.437636 0.452132 0.003797 -0.107397 0.096234 0.144219 -0.020929 0.321833
hefe 0.004502 0.026306 -0.168843 0.069407 0.097311 0.698019 -0.077610 0.011160 -0.410714 0.038370 -0.223588 0.012950 0.076586 -0.202433 -0.034617 -0.092920 0.040542 -0.121995 -0.231841 -0.163373 0.139819 0.278654 0.172371 0.055037 0.186168 0.160029 0.213926 0.245187 0.116625 -0.340493 -0.105466 0.173798 -0.113100 0.112143 0.005288 0.115069 -0.479672 0.155698 0.124660 0.338515 0.297810 0.417846 -0.253649 0.234266 0.259135 0.000777 -0.219401 0.230502 0.088761 -0.209360 0.179607 -0.120278 0.077811 0.273276 0.121172 -0.584751 -0.038466 0.093826 0.537320 -0.228105 0.027339 -0.078759 -0.015910 -0.065273 0.189509 0.121805 -0.030289 -0.498294 0.036403 0.450365 0.092738 -0.047148 0.303935 -0.261989 0.396628 -0.379182 0.292240 -0.039735 0.173467 -0.162835 -0.043762 -0.173618 -0.271198 0.402882 -0.105432 -0.241540 -0.213263 0.130756 0.059280 -0.122860 -0.212491 0.314907 0.132232 0.281692 -0.069020 -0.070422 0.258842 0.283585 0.142251 -0.072307
bitter 0.030538 0.067396 -0.119469 0.401367 -0.473389 -0.373634 0.173146 0.327930 0.098263 0.210619 -0.331797 -0.031498 -0.023883 0.265656 0.299799 0.230915 -0.583364 -0.394413 0.118412 0.474611 0.253437 -0.141713 -0.754248 0.243061 -0.153506 0.415936 0.103813 0.285599 -0.148921 -0.637340 0.124978 0.011301 0.061843 0.444448 0.006137 -0.028263 0.122407 -0.267512 0.050658 0.103762 0.000895 -0.116689 0.556640 -0.276245 -0.034355 0.043771 0.100495 0.510323 -0.138079 0.028788 0.118669 -0.026988 -0.062744 -0.173893 0.254685 0.714715 -0.373276 0.245390 0.074833 0.328453 -0.035404 -0.479149 0.107891 -0.023540 -0.092990 -0.714304 0.021652 -0.199770 0.246645 0.027957 0.150048 -0.248459 0.007881 0.143795 0.019243 -0.683120 -0.176050 -0.234216 -0.422691 0.165492 0.124421 -0.304707 0.048978 0.411297 0.031234 -0.690927 0.068097 0.093812 0.207877 -0.075311 -0.039234 -0.184442 -0.088967 0.157711 -0.210388 0.006953 0.395007 0.398492 -0.394548 -0.076696
hazi -0.239293 -0.061695 -0.136816 -0.426218 0.035571 0.341503 0.000021 -0.545157 -1.020327 -0.307945 -0.134506 0.413562 0.484573 -0.651687 0.006909 0.418559 0.567856 0.063169 -0.157325 -0.152730 -0.074132 0.297912 0.692211 -0.675153 0.168551 -0.784485 0.744125 -0.094099 -0.342015 -0.081179 0.096433 -0.689734 0.488912 -0.411694 -0.045796 -0.207730 -0.327099 0.292684 0.025473 0.379261 0.087065 0.319825 -0.179802 0.158214 -0.152935 0.032601 0.016980 0.080222 -0.379952 -0.053960 0.050341 -0.200718 0.185839 0.280078 0.355823 -0.704672 0.630309 -0.288743 0.256589 -0.316991 -0.187730 -0.171975 0.220706 -0.502249 0.327105 0.058257 -0.220681 0.438140 -0.427692 -0.167254 -0.355460 -0.423102 -0.337449 -0.213745 0.141252 0.510610 0.191508 0.459694 0.548153 -0.366427 0.100917 0.051466 0.288408 0.021916 0.149406 0.170963 -0.364590 0.077395 -0.074632 0.016713 -0.356186 0.670382 0.370963 0.363036 -0.007816 -0.122645 0.012757 0.047020 -0.004967 0.322724
orang -0.070351 0.006843 -0.073477 -0.393802 -0.142883 0.036333 0.109359 -0.225147 -0.741651 -0.160462 -0.322933 0.274417 0.482503 -0.486519 0.085448 0.681944 0.272753 -0.150192 -0.209313 -0.023020 0.020142 -0.021101 0.447187 -0.669805 -0.109447 -0.552815 0.869172 0.098074 -0.371059 -0.146939 0.229497 -0.431926 0.365668 -0.218557 -0.255356 -0.051497 -0.020659 0.032138 -0.179383 0.437684 0.098658 0.311614 0.039529 0.013499 -0.144904 -0.013282 0.182440 0.113141 -0.172511 -0.015833 -0.158902 -0.201414 0.163399 0.512200 0.394212 -0.325867 0.545591 0.005116 0.013300 -0.242679 -0.310083 -0.506315 0.320601 -0.501708 0.374611 -0.308566 -0.234183 0.473383 -0.427268 0.044750 -0.410994 -0.478008 -0.328837 -0.135999 0.065989 0.172109 -0.111434 0.319543 0.518463 -0.368842 0.063651 0.082468 0.112046 0.106951 0.088644 -0.202513 -0.218521 0.222766 -0.170677 0.066451 -0.249500 0.576884 0.505036 0.319410 -0.021710 0.050770 -0.153148 0.130617 -0.235995 0.396533
citru 0.166859 0.208500 0.087078 -0.119763 -0.253784 -0.067587 0.284254 0.415886 -0.271528 -0.015605 -0.449314 -0.008671 0.372165 -0.128681 0.370347 0.856554 -0.413547 -0.307712 -0.048968 0.166120 0.081991 -0.256770 -0.240825 -0.405558 -0.143294 0.281693 0.141339 0.527811 -0.072492 -0.381092 0.203860 0.035797 0.063195 0.289649 -0.268142 0.169927 0.449761 -0.278243 -0.198212 0.493032 0.023513 0.035718 0.353218 -0.031298 0.051131 -0.094148 0.225642 0.504115 0.071817 -0.096348 -0.041215 -0.355420 -0.064340 0.581404 -0.024553 0.306702 0.011620 0.247412 0.056604 0.012345 -0.279285 -0.477316 0.367202 -0.250974 0.193204 -0.655581 -0.036252 -0.152187 0.063826 0.478378 0.006856 -0.196616 -0.297043 -0.020355 -0.163435 -0.518123 -0.153340 0.014733 0.126503 -0.022393 0.027718 0.028530 -0.072712 0.322077 -0.101604 -0.685428 -0.098472 0.110846 -0.079098 0.075608 -0.178580 0.158904 0.516063 0.427802 0.142041 0.044591 0.111514 0.427862 -0.417395 0.285340
sour 0.095303 0.122402 -0.041104 0.233906 -0.378272 -0.208781 0.207011 0.355591 -0.012802 0.144232 -0.363345 -0.021318 0.109201 0.150152 0.318271 0.395598 -0.513496 -0.353150 0.058070 0.390031 0.200470 -0.168094 -0.591911 0.055239 -0.119940 0.430096 0.047069 0.355208 -0.111894 -0.550436 0.138809 0.050253 0.001296 0.437483 -0.028535 0.036559 0.189692 -0.231549 -0.016014 0.213682 0.028334 -0.088164 0.455307 -0.186556 0.004074 0.028781 0.124394 0.543806 -0.064706 -0.049638 0.080312 -0.171090 -0.061868 0.044182 0.142442 0.562618 -0.267813 0.216863 0.094819 0.202451 -0.118779 -0.405972 0.188459 -0.053411 -0.030752 -0.633831 0.006296 -0.215566 0.250325 0.212305 0.158896 -0.176522 -0.053286 0.106507 -0.023079 -0.615881 -0.151076 -0.168131 -0.259376 0.121788 0.078034 -0.203493 0.013304 0.396293 0.008286 -0.701357 0.015416 0.093781 0.113124 -0.071966 -0.118046 -0.076008 0.075429 0.251365 -0.071017 0.012839 0.335950 0.418522 -0.372713 0.024604
note 0.160879 0.166713 0.060482 -0.042633 -0.215271 -0.127683 0.258884 0.388842 -0.095390 0.036767 -0.345077 -0.016164 0.251731 -0.032417 0.334685 0.683848 -0.467243 -0.249101 -0.052983 0.231322 0.056236 -0.263991 -0.324004 -0.214760 -0.134001 0.328420 -0.011770 0.439353 -0.039141 -0.303746 0.176325 0.066310 0.044081 0.310112 -0.175515 0.142246 0.415837 -0.290971 -0.150533 0.374008 -0.014323 -0.021795 0.328972 -0.087875 0.047367 -0.073844 0.174065 0.439876 0.071436 -0.085425 -0.039583 -0.242276 -0.074771 0.411365 -0.039992 0.403121 -0.084500 0.236502 0.015215 0.081967 -0.184183 -0.411229 0.295503 -0.131327 0.117569 -0.580881 -0.035200 -0.153197 0.135652 0.413426 0.056613 -0.124340 -0.185806 0.071248 -0.138241 -0.489826 -0.156972 -0.077308 -0.032179 0.061909 0.065232 -0.007139 0.003182 0.251745 -0.056091 -0.630935 -0.045246 0.076999 -0.053337 0.018429 -0.141312 0.021747 0.341555 0.313792 0.096893 0.055164 0.166058 0.368985 -0.335776 0.172026
on 0.046315 -0.031982 -0.152324 0.130827 0.226660 0.730623 -0.175914 -0.165619 -0.210859 0.053974 0.022641 0.101638 -0.033212 -0.221818 -0.108905 -0.396959 0.115019 0.040802 -0.313382 -0.042343 0.168789 0.374181 0.176415 0.235077 0.303161 0.280092 0.000444 0.041273 0.116016 -0.110479 -0.151234 0.104945 -0.244054 0.056142 0.214933 0.085214 -0.668144 0.255108 0.126732 0.106649 0.310086 0.360057 -0.428459 0.189199 0.193408 0.066694 -0.283316 0.145343 0.029845 -0.196279 0.254426 0.069312 0.095552 0.013398 0.052680 -0.519838 -0.075162 0.054954 0.455136 -0.097846 0.159038 0.148351 -0.130725 0.285764 -0.008002 0.368126 0.039202 -0.448489 0.198759 0.230800 0.285786 0.120282 0.592743 -0.246797 0.375625 -0.198447 0.244879 -0.094347 -0.046591 -0.095864 -0.029734 -0.316969 -0.190120 0.377535 0.040847 -0.172861 -0.121037 0.116184 0.039543 -0.186039 -0.314320 0.273579 -0.109555 0.259506 -0.176185 0.032303 0.406957 0.133719 0.370773 -0.259103
s 0.042753 -0.025235 -0.098851 -0.002373 0.144649 0.627363 -0.070166 -0.058189 -0.260294 -0.036797 -0.121355 0.209971 0.065397 -0.288861 -0.005902 -0.087559 -0.014907 -0.007512 -0.286087 -0.032998 0.066802 0.245301 0.127331 0.010505 0.180899 0.200186 0.069176 0.173645 0.127645 -0.151008 -0.068342 0.036164 -0.083159 0.118949 0.123541 0.111895 -0.394657 0.188932 0.098525 0.273393 0.200826 0.304292 -0.264980 0.170665 0.131309 0.013455 -0.151962 0.227117 0.046372 -0.242308 0.172320 -0.095514 -0.015907 0.186777 0.038993 -0.402204 -0.012848 0.050571 0.374027 -0.121318 0.020126 -0.024378 -0.017170 0.087474 0.151730 0.134536 -0.006564 -0.305296 0.141402 0.302145 0.171185 0.051334 0.334317 -0.192968 0.252894 -0.169364 0.205259 0.029193 0.054939 -0.089974 0.011477 -0.194785 -0.079756 0.295626 -0.009423 -0.260481 -0.179997 0.067294 0.012521 -0.153788 -0.335876 0.224966 0.091928 0.335420 -0.061880 -0.036577 0.428209 0.231699 0.212051 -0.126744
spici 0.138714 0.243604 0.094446 0.006341 -0.230884 -0.070525 0.241520 0.438021 -0.241319 0.061455 -0.370593 -0.095773 0.268364 0.051038 0.310898 0.676857 -0.415560 -0.350756 0.001357 0.151462 0.141232 -0.220501 -0.317528 -0.236734 -0.101060 0.349634 0.087447 0.456735 -0.055599 -0.437252 0.097457 0.105067 -0.011964 0.299120 -0.213105 0.155710 0.343654 -0.238100 -0.101221 0.387197 0.026136 -0.027461 0.361382 -0.025099 0.057013 -0.078844 0.145279 0.493665 0.083741 -0.055592 -0.019813 -0.323726 -0.044730 0.378622 -0.030709 0.299618 -0.083721 0.185906 0.094840 0.013979 -0.249186 -0.345596 0.281643 -0.233181 0.080554 -0.567365 -0.001221 -0.274548 0.135872 0.430891 0.065633 -0.170338 -0.236527 -0.011503 -0.085635 -0.555547 -0.149196 -0.061044 0.099177 -0.015651 0.030800 -0.008880 -0.186215 0.312193 -0.108108 -0.606841 -0.039065 0.064046 -0.008294 0.054097 -0.082431 0.080760 0.333408 0.312600 0.130026 0.022705 0.082339 0.388676 -0.401033 0.243329
fruit 0.184777 0.194665 0.089070 -0.162594 -0.192235 -0.106236 0.252158 0.322540 -0.140938 -0.047948 -0.380089 0.052540 0.345785 -0.157587 0.331618 0.838251 -0.367207 -0.216814 -0.057881 0.151860 -0.023285 -0.305570 -0.160301 -0.413784 -0.149120 0.217209 0.065394 0.460573 -0.055691 -0.236011 0.253574 0.009111 0.062959 0.278615 -0.290300 0.135842 0.501505 -0.258478 -0.255983 0.431237 -0.032768 -0.005408 0.330960 -0.043201 0.037303 -0.086181 0.230178 0.389150 0.074576 -0.093605 -0.089188 -0.328413 -0.121533 0.562812 -0.099592 0.306588 0.031674 0.196645 -0.014070 0.003567 -0.269786 -0.430579 0.342844 -0.195738 0.195144 -0.553496 -0.057474 -0.061335 0.057341 0.432783 -0.038341 -0.127342 -0.305574 0.039831 -0.203603 -0.344367 -0.150121 0.048450 0.125472 0.018117 -0.011107 0.071401 0.010441 0.159018 -0.083557 -0.576243 -0.103222 0.088832 -0.114309 0.067768 -0.166569 0.106824 0.496657 0.351068 0.165929 0.075314 0.058056 0.330193 -0.349339 0.271118
littl 0.087597 0.144975 0.021524 0.030799 -0.170449 0.047188 0.161653 0.280279 -0.198861 0.053802 -0.284313 -0.007543 0.200683 -0.023635 0.217036 0.411344 -0.288154 -0.263852 -0.032986 0.144506 0.135345 -0.091335 -0.217908 -0.147732 -0.063234 0.268626 0.093421 0.338378 -0.063548 -0.368582 0.091095 0.095073 -0.040243 0.256947 -0.082737 0.126616 0.138081 -0.138431 -0.044822 0.299290 0.079065 0.005298 0.221353 -0.028351 0.039089 -0.029512 0.097795 0.396061 0.030103 -0.095960 0.050987 -0.252167 -0.040547 0.249828 0.060937 0.165136 -0.069626 0.120543 0.130790 0.019441 -0.154481 -0.297786 0.198753 -0.098566 0.085224 -0.401157 -0.010180 -0.208674 0.131261 0.315324 0.105413 -0.137980 -0.054569 -0.036577 -0.010647 -0.434609 -0.060642 -0.056367 0.045120 -0.001686 0.011499 -0.062333 -0.126754 0.325417 -0.059477 -0.498406 -0.073550 0.070820 -0.015231 -0.009519 -0.152181 0.088057 0.255705 0.323958 0.012631 0.016500 0.204942 0.326983 -0.254429 0.138107
hefeweizen 0.003765 0.013277 -0.135720 0.049023 0.066858 0.569397 -0.017871 0.019542 -0.337321 0.055436 -0.183480 -0.031832 0.055410 -0.167620 0.014217 -0.033441 0.011590 -0.112928 -0.224255 -0.055609 0.171949 0.248890 0.109020 0.063018 0.135931 0.198672 0.145966 0.147591 0.053955 -0.295736 -0.065459 0.126563 -0.115892 0.103201 0.011150 0.102582 -0.405312 0.127031 0.092496 0.269767 0.284024 0.344045 -0.197429 0.152715 0.188342 0.008187 -0.207255 0.255582 0.020136 -0.148637 0.193572 -0.067015 0.116358 0.240624 0.117286 -0.417536 -0.039503 0.135346 0.422268 -0.122251 0.014187 -0.130541 0.022364 0.003558 0.099193 0.047406 -0.010007 -0.417919 0.051751 0.374969 0.136804 -0.066803 0.270727 -0.213220 0.315048 -0.349266 0.171342 -0.044960 0.133923 -0.113255 -0.012823 -0.196287 -0.220117 0.392778 -0.013842 -0.263714 -0.173343 0.149904 0.054850 -0.118704 -0.241768 0.333580 0.104562 0.287701 -0.123100 0.032721 0.258133 0.229788 0.122333 -0.040011
great -0.011261 0.054776 -0.102019 0.077522 -0.029644 0.405173 0.016184 0.092416 -0.458103 0.045965 -0.230535 -0.147916 0.112102 -0.062926 0.026120 0.050776 0.001978 -0.174377 -0.070048 -0.118262 0.231889 0.171453 0.069608 -0.051019 0.070029 0.150478 0.303849 0.171723 -0.021884 -0.411023 -0.100011 0.099004 -0.099755 0.022923 -0.073287 0.071028 -0.320496 0.048244 0.106228 0.280114 0.244505 0.278370 -0.091675 0.178632 0.123630 -0.029759 -0.153178 0.268888 0.004534 -0.052630 0.111957 -0.115711 0.139520 0.249898 0.120302 -0.331444 -0.046078 0.103417 0.404204 -0.158016 -0.036491 -0.104430 0.047972 -0.167306 0.106375 -0.096921 0.011848 -0.387339 -0.012325 0.301286 0.062936 -0.145505 0.084993 -0.228497 0.285618 -0.371628 0.113161 -0.014360 0.198233 -0.140924 -0.006796 -0.175925 -0.295020 0.441195 -0.041084 -0.235405 -0.149319 0.127658 0.107519 0.011628 -0.129560 0.359429 0.122743 0.239732 -0.069204 -0.017130 0.067970 0.218498 -0.075657 0.017769
off -0.157444 0.154925 0.141407 -0.179393 -0.099733 -0.297130 -0.004418 -0.007581 -0.756857 0.013296 -0.024840 -0.489190 0.409507 0.261493 -0.092297 0.315191 0.401932 -0.149070 0.424766 -0.450077 0.184350 -0.104647 0.413240 -0.441429 -0.076662 -0.601354 0.799995 -0.099378 -0.413226 -0.250003 -0.122039 -0.103124 0.097127 -0.493022 -0.324370 -0.137548 0.065745 -0.094613 -0.018556 0.018251 0.160222 -0.004004 0.113944 0.085409 -0.114641 -0.158959 0.143973 -0.056396 -0.121693 0.466108 -0.120245 -0.161620 0.374362 0.128684 0.271281 -0.405283 0.329184 -0.128279 0.076470 -0.333468 -0.238666 0.092951 0.299217 -0.671853 0.035791 -0.146649 -0.100457 0.153433 -0.604401 -0.100182 -0.363688 -0.485108 -0.507268 -0.154744 0.052183 0.093482 -0.091753 0.195911 0.582853 -0.303889 -0.110727 0.304784 -0.347635 0.095067 -0.078824 0.398754 0.035054 -0.044258 0.014905 0.426384 0.364015 0.439253 0.173923 -0.277525 0.095548 -0.130705 -0.875956 -0.269395 -0.455958 0.361276
yeasti 0.137845 0.260424 0.131850 -0.069600 -0.189342 -0.075946 0.227480 0.396710 -0.297684 0.009472 -0.339753 -0.088258 0.304396 0.019266 0.309023 0.718852 -0.309417 -0.318542 0.017333 0.073636 0.094427 -0.241308 -0.204140 -0.335337 -0.100321 0.243965 0.123481 0.409664 -0.072427 -0.373430 0.101068 0.069379 0.003163 0.222278 -0.256345 0.131112 0.377899 -0.217747 -0.127635 0.383172 -0.002368 -0.030229 0.335254 0.002465 0.036115 -0.078357 0.164471 0.428879 0.083990 -0.038523 -0.063337 -0.350693 -0.033646 0.416401 -0.056532 0.205598 -0.003026 0.122899 0.062708 -0.052629 -0.296412 -0.301019 0.291929 -0.300388 0.091078 -0.495537 -0.023856 -0.207804 0.063946 0.410621 0.001608 -0.156604 -0.311450 -0.036840 -0.125138 -0.438565 -0.131671 0.002327 0.212517 -0.043449 0.016035 0.066175 -0.193817 0.240766 -0.113738 -0.493721 -0.043993 0.055767 -0.038087 0.110942 -0.049483 0.124591 0.372322 0.287883 0.182245 0.016329 -0.040760 0.321138 -0.415442 0.313842
creami -0.145848 0.121396 0.017086 0.189989 -0.298091 -0.338842 0.048790 0.191117 -0.551727 0.092328 -0.123118 -0.474481 0.219137 0.404540 0.068657 0.145802 0.081407 -0.349201 0.480831 -0.185220 0.349110 -0.002755 -0.128603 -0.125526 -0.109603 -0.171141 0.660682 0.031116 -0.352486 -0.599990 -0.104053 -0.031341 0.121130 -0.173044 -0.157733 -0.108594 -0.056419 -0.174696 0.120114 0.043775 0.164689 -0.000548 0.354323 -0.016309 -0.025610 -0.085555 0.059608 0.161601 -0.162239 0.414847 0.040190 -0.073150 0.333793 -0.058332 0.342865 0.009349 -0.001122 0.064929 0.172195 -0.029434 -0.128090 -0.085149 0.169132 -0.544862 -0.040948 -0.452078 0.007381 -0.115586 -0.345849 -0.097036 -0.161626 -0.507139 -0.385146 -0.124840 0.110742 -0.395798 -0.122394 0.015458 0.211956 -0.164431 0.002990 -0.008104 -0.322489 0.373754 -0.069428 0.043968 0.099140 0.006297 0.214854 0.319006 0.301664 0.282967 0.001547 -0.165731 -0.090222 -0.149564 -0.464495 0.044989 -0.516004 0.156995
hint 0.197116 0.184714 0.104972 -0.079525 -0.194846 -0.115900 0.274573 0.429983 -0.042667 0.037737 -0.360125 -0.002797 0.276042 -0.055612 0.346802 0.736751 -0.471101 -0.246344 -0.081844 0.227198 0.034308 -0.291558 -0.301660 -0.252770 -0.134543 0.382026 -0.072233 0.477140 -0.018760 -0.248025 0.204429 0.118200 -0.005205 0.347789 -0.200708 0.206405 0.474944 -0.271483 -0.207667 0.380579 -0.000001 -0.050599 0.313794 -0.083081 0.057803 -0.089901 0.201398 0.451997 0.114452 -0.122722 -0.033459 -0.295942 -0.120119 0.473601 -0.105387 0.400402 -0.060236 0.246595 -0.017414 0.069883 -0.199689 -0.396930 0.323377 -0.080545 0.118096 -0.598384 -0.004728 -0.161939 0.153904 0.471141 0.088072 -0.078150 -0.209913 0.070723 -0.203993 -0.478213 -0.165346 -0.067980 -0.004259 0.069857 0.004923 0.015236 -0.026779 0.230463 -0.079349 -0.652647 -0.044687 0.078326 -0.078581 0.008046 -0.187420 0.011233 0.412111 0.353946 0.137542 0.071461 0.175210 0.361566 -0.311694 0.200108
weizen -0.017683 -0.019650 -0.136952 -0.001679 0.129368 0.696275 -0.072587 -0.071472 -0.506680 -0.020208 -0.157596 0.072983 0.099568 -0.244531 -0.085148 -0.135139 0.115242 -0.032620 -0.177152 -0.179890 0.080594 0.304418 0.233285 -0.003668 0.255015 0.067578 0.220030 0.157361 0.038342 -0.290655 -0.164993 0.002533 -0.068266 -0.028384 0.054992 0.034042 -0.529430 0.203938 0.202327 0.327506 0.247282 0.395697 -0.329630 0.254394 0.180643 0.001960 -0.227007 0.226178 -0.015260 -0.201533 0.182514 -0.137567 0.154947 0.188446 0.115874 -0.603520 0.024256 -0.025020 0.529460 -0.243132 0.024569 0.025462 -0.033210 -0.080979 0.162094 0.174965 -0.015937 -0.378584 0.028627 0.314201 0.097421 -0.032647 0.223665 -0.223146 0.405457 -0.206299 0.254901 0.027230 0.190786 -0.178596 0.011086 -0.186324 -0.141276 0.363434 -0.016590 -0.146135 -0.221188 0.077991 0.094858 -0.109050 -0.252574 0.379561 0.081693 0.293382 -0.039401 -0.076831 0.259797 0.188777 0.171256 -0.063730
nose 0.140653 0.256237 0.163933 -0.193397 -0.152579 -0.110335 0.192735 0.311042 -0.304763 -0.069443 -0.299601 -0.069542 0.317502 -0.059559 0.229507 0.734433 -0.194606 -0.239238 0.059579 -0.047454 0.022561 -0.263396 -0.042669 -0.467481 -0.089702 0.071982 0.152429 0.342634 -0.048271 -0.222823 0.123032 0.038923 0.009654 0.116376 -0.297275 0.117164 0.449051 -0.235697 -0.196563 0.346575 -0.067287 -0.035159 0.271882 0.039580 0.014769 -0.095607 0.185414 0.256492 0.103763 0.000027 -0.142695 -0.362649 -0.059961 0.463310 -0.132585 0.100584 0.107275 0.068613 -0.016215 -0.120122 -0.321781 -0.211220 0.286521 -0.348321 0.159507 -0.391685 -0.042032 -0.090292 -0.017333 0.377494 -0.095787 -0.131590 -0.401522 -0.057422 -0.202670 -0.241773 -0.120222 0.115575 0.309906 -0.084081 -0.035560 0.179370 -0.185528 0.099270 -0.149635 -0.300630 -0.052909 0.040552 -0.092396 0.167570 -0.010496 0.144136 0.440997 0.238112 0.252577 0.003104 -0.199096 0.219469 -0.391550 0.358809
refresh 0.061474 -0.001280 -0.111398 0.255131 -0.126392 0.204304 0.076248 0.234454 -0.031626 0.156082 -0.222387 -0.068288 -0.054090 0.071082 0.123650 -0.016289 -0.336236 -0.220428 -0.090576 0.193180 0.208707 0.092297 -0.348625 0.230766 0.010001 0.456790 -0.028993 0.249273 0.039912 -0.428233 -0.016983 0.175385 -0.106932 0.284228 0.058249 0.082098 -0.200881 -0.059384 0.127197 0.191923 0.179201 0.114087 0.096753 -0.007392 0.110828 0.020417 -0.130613 0.415167 0.028488 -0.126050 0.174312 -0.013150 0.000024 0.068639 0.078708 0.151602 -0.300745 0.234024 0.262607 0.106566 0.050939 -0.225075 -0.013434 0.123245 -0.009155 -0.282808 0.066700 -0.441744 0.215574 0.253881 0.231659 -0.068749 0.254368 -0.034652 0.188375 -0.570389 0.028603 -0.211207 -0.202193 0.072355 0.057377 -0.292796 -0.118863 0.434728 -0.004846 -0.496730 -0.052135 0.111273 0.125054 -0.122671 -0.160794 0.037361 -0.024900 0.239072 -0.153003 0.036538 0.379836 0.333312 -0.063573 -0.141893
slightli 0.005278 0.089762 -0.042481 0.044822 -0.269434 -0.016297 0.149855 0.135120 -0.355098 0.031082 -0.313372 0.024951 0.259638 -0.033367 0.224807 0.395798 -0.173216 -0.257633 0.049651 0.179475 0.153099 -0.021554 -0.212194 -0.169504 -0.029736 0.090703 0.249837 0.258040 -0.172439 -0.453376 0.089395 -0.124919 0.097693 0.170718 -0.026400 0.003150 0.027569 -0.083640 0.008541 0.252912 0.069586 0.005473 0.271604 -0.045119 -0.031412 0.005921 0.099146 0.431204 -0.148742 0.015361 0.098536 -0.223873 0.045522 0.125966 0.186732 0.167538 0.001799 0.076203 0.183624 0.033410 -0.155403 -0.303403 0.216402 -0.203664 0.049788 -0.461489 -0.028752 -0.085550 0.034704 0.120412 0.044953 -0.282417 -0.178173 -0.011523 0.018275 -0.336945 -0.048941 0.020702 0.016239 -0.040784 0.052531 -0.125247 0.035244 0.320271 0.023981 -0.422743 -0.084286 0.087382 0.070018 -0.003461 -0.159391 0.168726 0.165500 0.280105 -0.031393 -0.051059 0.207383 0.308365 -0.298966 0.126134
caramel 0.108486 0.145762 0.062195 -0.121691 -0.249500 -0.132682 0.245210 0.281684 -0.224949 -0.004706 -0.366932 0.029411 0.334631 -0.139910 0.310822 0.719807 -0.300521 -0.250803 -0.041455 0.175601 0.050512 -0.243357 -0.164515 -0.366036 -0.149243 0.125075 0.190376 0.397605 -0.121251 -0.275460 0.202613 -0.053441 0.115955 0.186090 -0.219226 0.118837 0.380235 -0.235181 -0.189068 0.370877 -0.000610 -0.000930 0.316266 -0.071485 -0.020973 -0.069897 0.228754 0.375073 0.020232 -0.025561 -0.055013 -0.266711 -0.050481 0.443651 0.043313 0.286895 0.064652 0.204155 -0.008453 0.041056 -0.243560 -0.448298 0.329564 -0.231677 0.163239 -0.567813 -0.064439 0.005273 0.003801 0.308672 -0.054699 -0.218901 -0.286057 0.019617 -0.162324 -0.350825 -0.160620 0.033904 0.105953 -0.041198 0.037213 0.018098 0.014534 0.210854 -0.053886 -0.527075 -0.088616 0.085372 -0.061175 0.067936 -0.152790 0.131510 0.403089 0.341873 0.082705 0.046674 0.067618 0.330930 -0.357700 0.250616
weiss -0.011419 -0.091070 -0.170546 0.041357 0.238567 0.715545 -0.212689 -0.194893 -0.271041 -0.001087 -0.058646 0.067532 -0.015792 -0.293022 -0.118038 -0.357585 0.138456 0.083510 -0.247644 -0.160726 0.124010 0.393892 0.237304 0.165015 0.175571 0.117959 0.090146 0.041385 0.116862 -0.062493 -0.113672 0.006868 -0.124849 -0.044292 0.159202 0.085605 -0.599400 0.311977 0.133253 0.184785 0.291649 0.397876 -0.450657 0.215099 0.136385 0.046824 -0.257673 0.121281 0.003630 -0.169316 0.183954 0.039517 0.097521 0.116964 0.141720 -0.603787 -0.015437 0.074397 0.426837 -0.141249 0.118043 0.059613 -0.126575 0.121069 0.113950 0.257528 0.016097 -0.295052 0.060516 0.175035 0.136413 0.063029 0.447766 -0.246500 0.381155 -0.033831 0.289298 0.001124 0.074900 -0.154850 -0.012032 -0.226423 -0.103715 0.306979 0.022352 -0.090296 -0.213875 0.113989 0.061737 -0.168590 -0.256187 0.274813 -0.058657 0.175107 -0.188064 -0.032859 0.329431 0.069433 0.340572 -0.189688
smooth 0.062112 0.027274 -0.050557 0.242663 -0.203460 0.011965 0.104722 0.299112 -0.045195 0.112990 -0.211062 -0.096669 0.000992 0.122427 0.180609 0.101066 -0.352970 -0.260263 0.028867 0.194775 0.202550 0.017955 -0.410158 0.130157 -0.046892 0.398314 0.007936 0.273133 -0.014951 -0.445978 0.005124 0.141495 -0.037376 0.281027 0.021892 0.073250 -0.053708 -0.133002 0.090776 0.184974 0.121655 0.030510 0.230189 -0.044342 0.097668 0.005919 -0.047214 0.399335 0.009241 -0.028540 0.133931 -0.045597 0.013227 0.058895 0.075967 0.297290 -0.270274 0.243529 0.169825 0.158627 0.006739 -0.230759 0.036995 0.019312 -0.007324 -0.407669 0.077810 -0.359292 0.173344 0.215014 0.180057 -0.131076 0.089657 -0.013827 0.075325 -0.572237 -0.054355 -0.165630 -0.185295 0.078022 0.060759 -0.228583 -0.132666 0.399287 -0.042337 -0.476738 0.006989 0.072230 0.120639 -0.042422 -0.091585 -0.007797 0.020923 0.178414 -0.124081 -0.002589 0.267919 0.329279 -0.173667 -0.071197
palat 0.049453 0.032444 -0.036387 0.250619 -0.262640 -0.190768 0.125341 0.292253 0.015847 0.123001 -0.184497 -0.097991 0.004040 0.195016 0.204434 0.138491 -0.354687 -0.286939 0.101805 0.236157 0.196671 -0.057584 -0.460728 0.128700 -0.101393 0.317628 0.040883 0.234653 -0.061552 -0.441325 0.049741 0.091952 0.015907 0.269473 0.002507 0.030902 0.058691 -0.188841 0.054518 0.114490 0.054133 -0.066634 0.347912 -0.108024 0.027148 -0.000513 0.020471 0.341572 -0.028059 0.031682 0.099426 -0.049531 0.007077 -0.024557 0.101489 0.428982 -0.252406 0.211558 0.073343 0.216902 -0.027410 -0.250553 0.057175 -0.032282 -0.048104 -0.475782 0.059109 -0.238972 0.145743 0.094620 0.108712 -0.160889 -0.005231 0.049818 -0.006101 -0.527262 -0.103890 -0.155935 -0.221430 0.086052 0.063380 -0.181811 -0.069398 0.314378 -0.021749 -0.433495 0.059846 0.054972 0.111072 -0.009058 -0.015290 -0.082192 -0.025888 0.113894 -0.104975 -0.004180 0.186000 0.297882 -0.251520 -0.044360
appl 0.167647 0.170457 0.066648 -0.069937 -0.184747 -0.157008 0.263510 0.375472 0.015182 0.010729 -0.321920 -0.011731 0.216595 -0.044439 0.323383 0.654659 -0.438014 -0.212217 -0.048607 0.195432 0.017765 -0.284474 -0.293574 -0.222905 -0.137636 0.311040 -0.099003 0.404393 -0.004785 -0.182035 0.183372 0.100754 0.010579 0.312502 -0.176648 0.168625 0.500114 -0.299942 -0.199015 0.321674 -0.072361 -0.097288 0.318106 -0.081959 0.047518 -0.067969 0.190164 0.351104 0.107615 -0.101953 -0.078320 -0.250272 -0.140135 0.406600 -0.124812 0.431210 -0.072544 0.218975 -0.081314 0.085248 -0.179525 -0.331763 0.265192 -0.085762 0.118105 -0.502303 -0.018661 -0.104917 0.146695 0.399425 0.050986 -0.050856 -0.195176 0.084972 -0.203909 -0.410505 -0.149891 -0.055542 -0.040077 0.085419 0.042742 0.066126 0.011649 0.150679 -0.081658 -0.554077 -0.037790 0.048365 -0.092457 0.007467 -0.105786 -0.045794 0.327619 0.270573 0.139387 0.058020 0.096770 0.337749 -0.306100 0.171098
balanc 0.077092 0.069443 -0.063465 0.209987 -0.195454 0.124744 0.119179 0.323491 -0.132794 0.124414 -0.297025 -0.132285 0.060908 0.085052 0.171916 0.169015 -0.351755 -0.265399 -0.019165 0.156806 0.222582 0.035583 -0.341679 0.085917 -0.022052 0.418952 0.043503 0.319792 0.007058 -0.465008 -0.010708 0.171686 -0.085041 0.289849 -0.017911 0.112512 -0.060649 -0.130649 0.070033 0.256790 0.147826 0.105242 0.197813 -0.003104 0.126046 -0.016620 -0.031618 0.423771 0.058898 -0.068451 0.129978 -0.113202 0.017330 0.161320 0.065476 0.169192 -0.255445 0.251004 0.250042 0.087738 -0.034014 -0.269628 0.078487 0.005491 0.029920 -0.388618 0.075130 -0.442146 0.160279 0.326671 0.170017 -0.134092 0.086686 -0.049156 0.110478 -0.613376 -0.003191 -0.154651 -0.106499 0.046689 0.040628 -0.221070 -0.188437 0.445970 -0.045533 -0.504501 -0.041421 0.098963 0.098200 -0.033377 -0.127152 0.085453 0.098595 0.251146 -0.081446 0.013722 0.270315 0.361228 -0.173613 -0.030680
bread 0.148032 0.190860 0.109178 -0.168214 -0.177960 -0.103251 0.271115 0.363272 -0.141592 -0.049372 -0.345677 0.033819 0.325358 -0.155361 0.349761 0.784209 -0.351939 -0.201675 -0.075349 0.173320 0.009775 -0.259168 -0.165563 -0.385773 -0.127598 0.232550 -0.005574 0.477351 -0.024049 -0.166696 0.197330 0.018159 0.071057 0.245881 -0.224140 0.181703 0.511732 -0.262295 -0.242434 0.408780 -0.041675 -0.048221 0.291846 -0.020039 0.022300 -0.089773 0.229645 0.363507 0.112057 -0.100764 -0.077364 -0.304355 -0.110136 0.517341 -0.111514 0.345125 0.044714 0.206721 -0.050818 0.033812 -0.222371 -0.369109 0.338719 -0.177687 0.150814 -0.524336 -0.034755 -0.056527 0.076234 0.409270 0.003007 -0.110826 -0.313093 0.022912 -0.246932 -0.355910 -0.141686 0.002927 0.069762 0.006160 0.045419 0.078107 0.026429 0.155226 -0.088736 -0.537916 -0.082706 0.050379 -0.125447 0.050352 -0.154908 0.066378 0.468767 0.381641 0.192147 0.049390 0.068440 0.348765 -0.324611 0.249285
quit 0.067766 0.042180 -0.024867 0.063387 -0.076050 0.197908 0.057529 0.148873 -0.223669 0.025132 -0.190867 0.048534 0.115778 -0.064396 0.125483 0.164382 -0.162579 -0.205210 -0.095790 0.099653 0.152877 0.078549 -0.125486 -0.041622 0.044262 0.238909 0.090746 0.213367 -0.044984 -0.317115 0.014572 0.041980 -0.028116 0.198421 0.028011 0.071930 -0.132552 0.012803 0.042437 0.231897 0.136251 0.087408 0.057003 0.035469 0.048232 0.016781 -0.046119 0.347441 -0.008474 -0.098412 0.114112 -0.145991 0.010176 0.135808 0.051890 0.012663 -0.074332 0.109589 0.191504 0.027108 -0.075114 -0.178649 0.075605 -0.023213 0.035450 -0.211017 0.032688 -0.255604 0.119624 0.226307 0.130907 -0.089930 0.103100 -0.077471 0.081147 -0.334451 0.032539 -0.038323 -0.001411 -0.031826 0.027337 -0.166273 -0.103934 0.316579 -0.004243 -0.386695 -0.075280 0.072178 0.019792 -0.062347 -0.211518 0.122202 0.098711 0.274373 -0.037078 0.002638 0.284289 0.276546 -0.079909 0.031844
big -0.102363 0.117582 0.069514 -0.213328 -0.058191 -0.060675 0.015431 -0.075823 -0.670859 -0.048737 -0.087679 -0.202813 0.349173 -0.007168 -0.064016 0.316297 0.320587 -0.141059 0.170017 -0.322096 0.116306 -0.027807 0.391970 -0.438774 -0.039241 -0.465388 0.661420 -0.021535 -0.277039 -0.200379 -0.030025 -0.148128 0.113678 -0.331813 -0.237256 -0.078636 -0.008762 -0.027105 -0.018459 0.149453 0.106401 0.094323 0.018775 0.115247 -0.072968 -0.074753 0.090701 -0.044782 -0.102624 0.228987 -0.114510 -0.172236 0.258846 0.223691 0.211049 -0.431096 0.340176 -0.109551 0.092800 -0.295306 -0.213879 -0.036184 0.231224 -0.518901 0.140196 -0.106595 -0.098692 0.158420 -0.419708 0.010487 -0.307602 -0.369046 -0.370825 -0.170291 0.075575 0.112888 -0.045432 0.210544 0.538751 -0.294182 -0.076324 0.191550 -0.245627 0.096150 -0.048863 0.209532 -0.057675 0.035427 -0.024368 0.248432 0.131019 0.424770 0.243019 -0.081538 0.087500 -0.087700 -0.525249 -0.115492 -0.290219 0.317263
mouthfeel 0.008504 0.040491 -0.051607 0.294898 -0.270510 -0.162143 0.101113 0.296803 -0.033098 0.109264 -0.196220 -0.155199 -0.003741 0.215934 0.188443 0.095397 -0.311279 -0.319175 0.162214 0.179204 0.219697 -0.014702 -0.459770 0.128795 -0.113301 0.301164 0.096294 0.223887 -0.080739 -0.477392 0.009710 0.106733 0.029500 0.234463 -0.001351 0.024576 0.011224 -0.173540 0.080577 0.115029 0.071371 -0.040055 0.350642 -0.087871 0.053045 0.011466 -0.005772 0.341606 -0.034941 0.086887 0.121434 -0.031546 0.042377 -0.028257 0.126273 0.387928 -0.254981 0.209594 0.098296 0.210658 -0.021156 -0.240850 0.045491 -0.087189 -0.044002 -0.465736 0.069442 -0.263829 0.099411 0.086662 0.105045 -0.204918 -0.025033 0.001846 0.031607 -0.573230 -0.076540 -0.146411 -0.196394 0.073575 0.075059 -0.200562 -0.126037 0.367026 -0.059793 -0.393464 0.067066 0.044703 0.165791 0.027514 0.029261 -0.061308 -0.021230 0.096931 -0.127759 -0.030238 0.142411 0.296478 -0.284143 -0.044686
dry 0.086567 0.057358 -0.060506 0.261924 -0.263888 -0.166727 0.150187 0.329006 0.160963 0.170253 -0.236406 -0.030446 -0.038075 0.176090 0.231461 0.194388 -0.487714 -0.265601 0.001901 0.344269 0.152538 -0.104265 -0.560134 0.193331 -0.103907 0.436246 -0.098289 0.283875 -0.028908 -0.394450 0.090377 0.124860 -0.029440 0.377655 0.017323 0.057046 0.111872 -0.203323 0.029823 0.126968 0.033161 -0.090429 0.352146 -0.185610 0.039857 0.025719 0.039836 0.403813 0.001694 -0.063082 0.091062 -0.036952 -0.077515 -0.023208 0.085011 0.524054 -0.315952 0.228693 0.049108 0.224443 -0.006799 -0.326114 0.066168 0.090785 -0.068010 -0.478757 0.040502 -0.271299 0.260438 0.149674 0.186798 -0.096443 0.090364 0.109434 0.004245 -0.566516 -0.106871 -0.228869 -0.318732 0.165917 0.079376 -0.213407 -0.000887 0.315723 0.001503 -0.558600 0.037945 0.070265 0.088851 -0.093461 -0.077970 -0.168790 -0.021111 0.156635 -0.105462 0.037939 0.344117 0.336930 -0.222789 -0.061856
ml -0.020209 -0.151075 -0.119041 -0.205629 0.206504 0.814665 -0.225322 -0.357157 -0.896286 -0.275066 0.042828 0.228142 0.367372 -0.436851 -0.203793 -0.219537 0.601378 0.394831 -0.184478 -0.133288 0.166376 0.520780 0.712846 -0.344592 0.496979 -0.261877 0.475627 -0.112266 -0.164776 -0.089545 -0.220966 -0.466974 0.031061 -0.361959 0.330500 -0.109667 -0.811450 0.630961 0.210260 0.199838 0.440265 0.553743 -0.783834 0.389367 0.129578 -0.003211 -0.270164 0.259654 -0.199483 -0.216464 0.242578 -0.165791 0.476891 0.088496 0.277813 -0.992049 0.411777 -0.149435 0.537801 -0.310621 0.099314 0.224487 0.049196 -0.128301 0.172872 0.363928 0.061658 -0.062971 -0.233372 0.096767 0.138294 -0.108456 0.106933 -0.351179 0.421970 0.364115 0.059619 0.340105 0.293616 -0.324420 0.062493 -0.229598 0.033028 0.308988 0.365943 0.045568 -0.124658 0.165619 0.056110 -0.215663 -0.432024 0.745843 0.070834 0.340528 -0.014179 -0.131158 0.422931 -0.108422 0.475695 0.061260
full -0.090321 0.023055 -0.105166 0.332593 -0.417496 -0.266463 0.066006 0.238895 -0.361721 -0.029761 -0.314748 -0.166288 0.104647 0.120661 0.248461 0.147684 -0.159840 -0.334520 0.338553 0.091847 0.316929 0.010798 -0.371535 -0.001062 -0.126926 0.070891 0.536314 0.195167 -0.212169 -0.700540 -0.005946 -0.126790 0.178566 0.073033 -0.096903 -0.056086 -0.079031 -0.175839 0.008076 0.121669 0.064829 0.087081 0.365259 -0.004206 0.035603 -0.070224 -0.019218 0.346910 -0.193365 0.297039 0.126627 -0.106440 0.183711 -0.020051 0.307212 0.356444 -0.064922 0.231643 0.199711 0.237701 -0.074425 -0.340812 0.075482 -0.426703 0.046994 -0.630808 0.043045 -0.127087 -0.100266 -0.014653 0.036340 -0.346800 -0.261772 -0.134470 0.092762 -0.580859 -0.236365 0.010193 -0.080963 -0.127503 0.132728 -0.235796 -0.142752 0.448145 -0.051653 -0.363716 -0.027780 0.119704 0.346467 0.145258 0.083998 0.162228 -0.056178 0.191760 -0.249992 -0.086600 0.076036 0.293712 -0.403043 0.005766
smell 0.107979 0.232681 0.115849 -0.183463 -0.098324 0.052025 0.159468 0.253144 -0.366891 -0.080607 -0.281452 -0.017698 0.315606 -0.118158 0.207008 0.645915 -0.132643 -0.219214 -0.022764 -0.061572 0.034332 -0.163311 0.033758 -0.434254 -0.026565 0.076238 0.181470 0.331486 -0.029606 -0.234561 0.089302 0.014032 -0.014284 0.104075 -0.248595 0.112534 0.302827 -0.141072 -0.151754 0.360908 -0.015723 0.025939 0.176782 0.103960 0.046726 -0.078154 0.137739 0.274061 0.082142 -0.053527 -0.075473 -0.351241 -0.041479 0.458584 -0.089304 -0.031624 0.113640 0.044260 0.085611 -0.146611 -0.299920 -0.187949 0.268974 -0.309433 0.168520 -0.290088 -0.047358 -0.127915 -0.009951 0.386448 -0.060234 -0.123704 -0.305764 -0.104637 -0.119141 -0.214997 -0.049127 0.117044 0.309817 -0.106844 -0.030892 0.136202 -0.196105 0.152908 -0.139737 -0.301680 -0.090070 0.055193 -0.085032 0.113465 -0.074166 0.204114 0.433314 0.279555 0.220445 0.006159 -0.110544 0.238155 -0.301728 0.302946
style 0.007936 -0.063429 -0.141654 0.095405 0.142115 0.539343 -0.061320 -0.043389 -0.099891 0.088749 -0.056941 -0.011630 -0.072933 -0.126391 -0.064006 -0.263532 -0.004117 0.005757 -0.220598 -0.011454 0.127683 0.251912 0.074629 0.218307 0.127120 0.214879 -0.021270 0.034959 0.095978 -0.136399 -0.108909 0.137472 -0.164748 0.050221 0.103028 0.073732 -0.466784 0.162781 0.134980 0.097528 0.240458 0.293936 -0.274059 0.125257 0.149874 0.026642 -0.251855 0.130304 0.008635 -0.160678 0.170364 0.045917 0.061922 0.085599 0.077110 -0.341854 -0.098585 0.095492 0.344769 -0.067863 0.114845 -0.008124 -0.114870 0.162751 0.005580 0.161950 0.026654 -0.350526 0.120251 0.234764 0.185098 0.066711 0.378297 -0.119100 0.322324 -0.238353 0.181981 -0.096335 -0.026927 -0.038032 -0.013532 -0.241544 -0.128491 0.276066 0.038824 -0.159266 -0.137224 0.098256 0.073150 -0.135029 -0.233405 0.187788 -0.066268 0.172239 -0.150345 0.041898 0.308982 0.120931 0.236024 -0.158918
malti 0.122839 0.189834 0.091249 -0.009012 -0.228750 -0.104153 0.192501 0.326929 -0.175579 0.019709 -0.324959 -0.060172 0.224102 0.020932 0.281477 0.587217 -0.319614 -0.279231 0.034932 0.128257 0.089980 -0.206316 -0.257601 -0.240195 -0.103080 0.243265 0.083802 0.348262 -0.044477 -0.343000 0.127930 0.049400 0.010866 0.239075 -0.201826 0.103936 0.319439 -0.209414 -0.110206 0.287120 -0.000924 -0.042747 0.339016 -0.033481 0.026016 -0.054512 0.161713 0.366197 0.047597 0.005026 -0.039761 -0.264213 -0.065131 0.315824 -0.023085 0.279491 -0.056561 0.149672 0.033389 0.019779 -0.227418 -0.320552 0.243116 -0.206893 0.062813 -0.493208 -0.002138 -0.153752 0.082196 0.301240 0.003618 -0.155299 -0.257352 0.011888 -0.122548 -0.406992 -0.110010 -0.010253 0.084961 -0.002795 0.019451 0.007153 -0.117888 0.210765 -0.102533 -0.454203 -0.035286 0.045379 -0.010712 0.083441 -0.067633 0.046992 0.301449 0.242192 0.100430 0.009248 0.027983 0.307907 -0.364365 0.210092
t -0.011823 -0.114640 -0.014071 0.001909 0.242529 0.217105 -0.141927 -0.092980 0.142782 -0.035787 0.149016 0.068238 -0.085906 -0.036396 -0.133016 -0.340068 0.167104 0.101336 -0.176911 -0.029608 -0.050588 0.121258 0.157365 0.165734 0.185318 0.083302 -0.219893 -0.172644 0.079167 0.192986 -0.143045 0.009660 -0.113099 -0.009791 0.114587 0.049661 -0.199587 0.141369 0.075166 -0.123785 0.049648 0.115321 -0.354123 0.090492 0.069244 0.081495 -0.167908 -0.081870 0.057503 -0.099747 0.142598 0.112256 -0.058344 -0.137061 -0.187185 -0.251592 -0.034646 -0.075551 0.054789 -0.045010 0.144208 0.215865 -0.090610 0.234691 -0.047838 0.281134 0.048376 -0.110798 0.084295 0.035351 0.164713 0.218532 0.271417 0.006001 0.029915 0.218526 0.113490 -0.041532 -0.091310 0.048220 -0.025057 -0.055252 -0.030314 -0.135362 0.125534 0.101872 -0.022013 0.044882 0.054719 -0.101957 -0.086079 -0.051933 -0.159230 0.053637 0.041837 0.079842 0.158155 -0.105289 0.264044 -0.102669
darker -0.074501 0.026202 -0.079515 -0.114499 0.066011 0.423704 -0.050809 -0.192106 -0.478188 -0.095701 -0.094741 0.096517 0.189355 -0.280494 -0.066560 0.049262 0.252231 -0.019581 -0.159206 -0.167681 0.086317 0.197455 0.365335 -0.199803 0.125889 -0.198162 0.311018 0.025199 -0.061038 -0.136241 -0.043610 -0.094845 0.013127 -0.108936 0.008693 0.021627 -0.330055 0.180964 0.026089 0.207445 0.144462 0.246760 -0.234992 0.175829 0.072200 0.025273 -0.094722 0.046077 -0.063380 -0.050742 0.052415 -0.119132 0.113977 0.195401 0.146279 -0.537570 0.232712 -0.074400 0.281898 -0.219065 -0.100763 -0.036259 0.061498 -0.164156 0.164826 0.160885 -0.093020 -0.044277 -0.117187 0.147156 -0.061106 -0.143978 0.046827 -0.204880 0.199916 0.076966 0.158227 0.138959 0.327649 -0.232979 -0.037186 -0.026296 -0.134327 0.136187 -0.014797 0.005904 -0.169797 0.100575 -0.022507 -0.056653 -0.156308 0.358366 0.143090 0.198405 -0.019509 -0.024144 0.048487 0.084036 0.077149 0.105629
thick -0.139783 0.105497 0.077989 -0.140752 -0.085476 -0.164493 0.004289 -0.045428 -0.591008 -0.026729 -0.040315 -0.285108 0.286659 0.112018 -0.076903 0.233939 0.303724 -0.138017 0.261875 -0.332672 0.138946 -0.028107 0.296765 -0.362255 -0.061684 -0.442770 0.622512 -0.057796 -0.274782 -0.206002 -0.067089 -0.121316 0.102738 -0.334873 -0.232858 -0.101202 0.003718 -0.060313 0.019358 0.076101 0.072672 0.044492 0.093401 0.086143 -0.087489 -0.078786 0.077473 -0.081228 -0.095272 0.295032 -0.104988 -0.125797 0.257278 0.102538 0.217183 -0.332002 0.250727 -0.110077 0.066836 -0.251815 -0.187405 0.025309 0.180329 -0.511099 0.073059 -0.101658 -0.087379 0.131755 -0.412645 -0.073040 -0.305073 -0.364503 -0.374873 -0.143436 0.063041 0.076193 -0.050428 0.173886 0.473752 -0.245738 -0.057661 0.194765 -0.234565 0.083215 -0.063605 0.283018 -0.003372 -0.003722 0.011635 0.282939 0.228651 0.364567 0.144519 -0.146209 0.065244 -0.109516 -0.586657 -0.133451 -0.329321 0.280586
lot 0.060740 0.149261 0.062629 -0.009677 -0.141849 0.035551 0.119076 0.223823 -0.267490 -0.027542 -0.234085 -0.051927 0.227020 -0.048293 0.191265 0.392216 -0.136609 -0.237423 0.044361 0.027727 0.107428 -0.049531 -0.098871 -0.230306 -0.036866 0.147599 0.157799 0.268453 -0.059563 -0.289378 0.057041 0.044089 0.020452 0.121091 -0.119396 0.061030 0.134353 -0.100633 -0.047798 0.273921 0.055010 0.052274 0.170879 0.061394 0.054540 -0.020791 0.062906 0.264493 0.025016 0.025783 0.044839 -0.203972 0.023263 0.300458 -0.019504 0.064178 0.020960 0.089537 0.088300 -0.016556 -0.186419 -0.209635 0.188057 -0.230963 0.080824 -0.320636 0.005652 -0.132237 0.002542 0.247857 0.008524 -0.165156 -0.182530 -0.089068 -0.047340 -0.314204 -0.028434 0.062672 0.152556 -0.084674 -0.008498 -0.016451 -0.174015 0.239264 -0.088784 -0.286278 -0.042885 0.044425 0.032869 0.086645 -0.083939 0.134676 0.276283 0.212089 0.082607 -0.016008 -0.004096 0.225971 -0.274554 0.173495
last -0.116571 0.178528 0.079368 0.004141 -0.096536 -0.202080 -0.035042 0.109909 -0.506949 0.047107 -0.062621 -0.372688 0.173806 0.285743 -0.005660 0.187532 0.196807 -0.169137 0.310090 -0.301437 0.209753 -0.057570 0.158865 -0.258434 0.002362 -0.244605 0.500336 -0.036455 -0.228979 -0.299460 -0.137577 0.006149 -0.030137 -0.238001 -0.224040 -0.085975 0.009382 -0.103392 0.002700 0.009206 0.075906 0.017534 0.126591 0.058654 -0.063412 -0.082811 0.045894 -0.019118 -0.034127 0.271652 -0.102618 -0.123886 0.244073 0.046636 0.151372 -0.245276 0.129738 -0.099468 0.114724 -0.233037 -0.133475 0.111824 0.148238 -0.463938 -0.031169 -0.123581 -0.050962 -0.083580 -0.312063 -0.015264 -0.174613 -0.246283 -0.331782 -0.147289 0.080563 -0.052765 -0.118549 0.093261 0.401720 -0.218192 -0.025796 0.169455 -0.343698 0.131773 -0.069492 0.202384 0.052082 -0.006638 0.069367 0.275045 0.309816 0.249832 0.061656 -0.168528 0.074841 -0.090168 -0.578074 -0.134273 -0.344638 0.262033
lace -0.019366 0.290857 0.168910 -0.130560 -0.100893 -0.122869 0.064389 0.216042 -0.377465 -0.095787 -0.144034 -0.206510 0.174797 0.116105 0.070669 0.465984 0.070526 -0.190147 0.236840 -0.260606 0.018216 -0.180690 0.073040 -0.422491 -0.059200 -0.139916 0.225215 0.147045 -0.036397 -0.210906 -0.035565 0.046931 -0.013523 -0.078149 -0.334998 0.019825 0.343537 -0.133808 -0.108104 0.171860 -0.124956 -0.070878 0.241342 0.117971 0.012274 -0.089047 0.109014 0.017007 0.067077 0.114940 -0.174233 -0.284801 0.023211 0.222190 -0.137926 -0.086597 0.138638 -0.133537 0.023621 -0.225554 -0.276798 0.063201 0.155812 -0.489413 0.079237 -0.117274 -0.023833 -0.090990 -0.110469 0.165738 -0.203393 -0.112724 -0.465765 -0.117213 -0.133146 -0.041292 -0.036317 0.140904 0.443440 -0.163233 -0.023340 0.272075 -0.316445 -0.016173 -0.223388 0.092487 -0.017629 -0.055913 -0.014628 0.281577 0.233568 0.137152 0.288999 0.031089 0.285794 -0.056273 -0.502746 0.013352 -0.399192 0.380108
glass -0.057822 0.024028 0.004210 -0.282843 0.146570 0.378044 -0.058202 -0.243795 -0.542023 -0.202633 0.004336 0.148129 0.203333 -0.325951 -0.110097 0.094847 0.345652 0.135094 -0.055665 -0.263877 -0.082104 0.166357 0.477751 -0.346391 0.207755 -0.330075 0.224447 -0.034805 -0.042139 0.046208 -0.093191 -0.261106 0.076524 -0.268132 -0.026791 -0.064652 -0.181725 0.205496 0.065584 0.195755 0.025703 0.192183 -0.276432 0.235150 0.015851 -0.016789 -0.044421 -0.038000 -0.092789 -0.083657 -0.003096 -0.173065 0.128365 0.149958 0.018048 -0.560174 0.309421 -0.228788 0.200893 -0.275783 -0.106807 0.163917 0.032083 -0.230580 0.166240 0.273611 -0.060110 0.079786 -0.130793 0.042890 -0.103901 -0.062646 -0.145151 -0.178200 0.109273 0.337842 0.129465 0.247476 0.380271 -0.217587 0.031023 0.098340 -0.012327 -0.030857 0.004354 0.208469 -0.158500 -0.024843 -0.047879 0.027624 -0.123416 0.348536 0.176626 0.153222 0.132620 -0.087342 -0.084353 -0.074580 0.088365 0.160003
realli 0.046647 -0.022643 -0.077102 0.086305 0.051474 0.355092 0.000596 0.058314 -0.171225 0.039511 -0.088636 0.043587 0.005044 -0.075556 0.034166 -0.076465 -0.083905 -0.100316 -0.168478 0.042029 0.143934 0.187554 -0.037769 0.091531 0.112362 0.228496 0.019577 0.121445 0.034305 -0.241351 -0.077639 0.093182 -0.116130 0.139120 0.112492 0.059979 -0.327976 0.101361 0.111435 0.149811 0.176232 0.163163 -0.120094 0.073001 0.085689 0.036997 -0.158966 0.257504 0.012575 -0.148022 0.161174 -0.048690 0.038811 0.059997 0.032247 -0.167078 -0.123258 0.081643 0.260038 -0.019066 0.010786 -0.034432 -0.008508 0.107405 -0.000540 0.006936 0.041577 -0.329097 0.140339 0.215118 0.181527 -0.005604 0.245830 -0.103697 0.198000 -0.246986 0.106512 -0.037707 -0.029363 -0.004094 0.021343 -0.225263 -0.123057 0.328272 0.040165 -0.261123 -0.075620 0.077168 0.056801 -0.126197 -0.235523 0.158738 0.001897 0.232725 -0.073920 0.011538 0.321985 0.202276 0.082027 -0.089898
hop 0.105122 0.070613 0.036154 0.094774 -0.206420 -0.211274 0.177779 0.321613 0.159049 0.085766 -0.218870 -0.035088 0.045890 0.066050 0.229783 0.359798 -0.427737 -0.183852 0.001297 0.227263 0.039550 -0.206842 -0.382789 -0.006730 -0.149387 0.328802 -0.138618 0.285824 0.029598 -0.187724 0.125020 0.098951 0.009429 0.278609 -0.109311 0.100914 0.335721 -0.244393 -0.095284 0.149526 -0.070178 -0.086949 0.316122 -0.128209 0.024498 -0.047665 0.141060 0.270921 0.060214 -0.028639 -0.008639 -0.107880 -0.127983 0.162881 -0.051856 0.461138 -0.198438 0.191602 -0.050319 0.171484 -0.077990 -0.290205 0.133650 0.018259 0.007555 -0.450792 0.020573 -0.125482 0.158058 0.198466 0.077672 -0.032561 -0.083739 0.128646 -0.149527 -0.405453 -0.118079 -0.121109 -0.175558 0.133071 0.051004 -0.040467 0.027452 0.146897 -0.056503 -0.455688 0.015274 0.029993 -0.003624 0.013225 -0.037257 -0.149639 0.138544 0.162033 0.033119 0.053545 0.154481 0.248807 -0.224210 0.033342
german 0.006477 0.011910 -0.148079 0.020896 0.113658 0.607692 -0.073380 -0.009760 -0.199948 0.032012 -0.145831 -0.032749 -0.007768 -0.187520 -0.034539 -0.136553 0.058233 0.010326 -0.231599 -0.067862 0.113223 0.264421 0.157171 0.125383 0.160857 0.193260 -0.015222 0.111998 0.149895 -0.161189 -0.083766 0.150673 -0.127734 0.100519 0.032888 0.116670 -0.359883 0.170752 0.064015 0.201032 0.265627 0.307148 -0.263652 0.188182 0.250705 0.021920 -0.227651 0.136214 0.051804 -0.175577 0.193908 -0.030308 0.065178 0.194326 0.042601 -0.434074 -0.043231 0.123034 0.371703 -0.109196 0.082917 -0.051863 -0.039545 0.096437 0.107871 0.166623 -0.002649 -0.411909 0.070126 0.346197 0.173500 0.007092 0.296613 -0.217206 0.251120 -0.240747 0.228735 -0.062082 0.078437 -0.076221 -0.045967 -0.163265 -0.192321 0.291701 -0.035679 -0.157440 -0.190259 0.133613 0.036164 -0.165971 -0.190550 0.236361 0.079132 0.212005 -0.095611 0.014948 0.269232 0.178408 0.221210 -0.060887
golden -0.186759 -0.070689 -0.088394 -0.360189 0.040127 0.138558 -0.074131 -0.485778 -0.669210 -0.200767 -0.047761 0.269112 0.316924 -0.441865 -0.101714 0.237989 0.547493 0.075794 -0.130990 -0.191763 -0.070455 0.152179 0.654799 -0.499968 0.031411 -0.739848 0.733384 -0.196046 -0.297612 0.064179 0.098669 -0.470863 0.334484 -0.414710 -0.131113 -0.171330 -0.269436 0.217183 -0.072130 0.170878 0.081780 0.296573 -0.185992 0.081211 -0.155820 0.002692 0.044022 -0.162292 -0.222279 0.048690 -0.098412 -0.052885 0.175406 0.222409 0.343380 -0.583902 0.569064 -0.207801 0.070621 -0.287398 -0.160471 -0.152614 0.136740 -0.414705 0.266569 0.132912 -0.215858 0.489650 -0.463467 -0.196928 -0.402634 -0.327561 -0.244393 -0.172184 0.132147 0.502565 0.053127 0.366833 0.504061 -0.353835 0.016005 0.121991 0.137404 -0.110873 0.117427 0.262173 -0.227132 0.109095 -0.107781 0.058809 -0.152166 0.523825 0.261081 0.105270 -0.041690 -0.015677 -0.248282 -0.129848 0.009578 0.258056
aftertast 0.060759 0.022177 -0.071746 0.248001 -0.148918 0.032326 0.084707 0.245400 0.084005 0.162225 -0.169462 -0.044591 -0.072630 0.141102 0.150221 0.013739 -0.368477 -0.188949 -0.046507 0.249994 0.172353 0.009950 -0.392769 0.237474 -0.010635 0.412215 -0.089025 0.208839 -0.001054 -0.341714 0.006878 0.136701 -0.088995 0.310971 0.065995 0.060541 -0.075566 -0.089215 0.071088 0.124366 0.108306 0.001003 0.161440 -0.083249 0.058061 0.014852 -0.071526 0.344619 0.003394 -0.091731 0.127614 -0.005157 -0.017892 -0.032491 0.062682 0.291100 -0.287609 0.191856 0.160096 0.148435 0.057264 -0.175918 0.009012 0.118078 -0.075811 -0.287031 0.060364 -0.319173 0.232431 0.176347 0.210942 -0.031653 0.202658 0.036261 0.107922 -0.483241 -0.047828 -0.208194 -0.260780 0.111212 0.057390 -0.248138 -0.035551 0.337405 0.041553 -0.449591 0.024481 0.082679 0.105004 -0.115987 -0.107872 -0.068679 -0.073130 0.167075 -0.117325 0.045749 0.327759 0.270343 -0.078316 -0.121368
drink 0.024216 -0.136105 -0.093053 0.186749 0.169252 0.403073 -0.128878 -0.070379 0.103901 0.085864 0.092070 0.004000 -0.197784 -0.024213 -0.108329 -0.457014 -0.036209 0.106951 -0.186809 0.056202 0.065639 0.246876 -0.057991 0.355874 0.145620 0.331696 -0.192876 -0.009450 0.146806 -0.038607 -0.141746 0.153927 -0.182965 0.079867 0.164497 0.082497 -0.443586 0.140095 0.177758 -0.033648 0.169624 0.198275 -0.286659 0.096172 0.133123 0.010592 -0.247291 0.056498 0.057406 -0.135361 0.179025 0.190760 0.011302 -0.091802 -0.037716 -0.174126 -0.228154 0.137371 0.233837 -0.027163 0.219927 0.129895 -0.191306 0.348080 -0.066462 0.231572 0.113954 -0.330929 0.164696 0.080571 0.261506 0.193133 0.452196 -0.085742 0.238742 -0.096617 0.104529 -0.139782 -0.182347 0.068474 -0.010819 -0.217702 -0.071647 0.219300 0.062518 -0.053111 -0.027225 0.019037 0.066790 -0.172925 -0.155002 0.042529 -0.215973 0.039540 -0.204207 0.070661 0.300400 0.012079 0.301310 -0.303236
strong 0.110024 0.184952 0.117648 -0.112221 -0.139986 0.006814 0.166472 0.280464 -0.235109 -0.034499 -0.261252 -0.016310 0.275730 -0.057527 0.237355 0.567796 -0.208637 -0.207903 -0.004183 0.029083 0.048207 -0.152214 -0.100370 -0.304535 -0.050334 0.175172 0.084677 0.327103 -0.023097 -0.241578 0.092579 0.032368 0.016872 0.163906 -0.182715 0.125564 0.299964 -0.142115 -0.122656 0.309669 0.003631 -0.003402 0.208051 0.029175 0.047014 -0.061688 0.133278 0.298889 0.080584 -0.021858 -0.035718 -0.274468 -0.040041 0.371450 -0.081170 0.120057 0.029839 0.099509 0.035644 -0.032626 -0.236203 -0.230110 0.241423 -0.214113 0.103605 -0.362773 0.000643 -0.128855 0.044577 0.330890 0.016985 -0.120547 -0.239596 -0.048581 -0.149231 -0.278734 -0.073912 0.051349 0.161991 -0.050631 -0.013071 0.055047 -0.135888 0.178631 -0.109937 -0.362498 -0.064198 0.037591 -0.042596 0.075147 -0.101862 0.102766 0.349241 0.245823 0.167198 0.003164 -0.001144 0.242470 -0.276970 0.233735
just 0.062755 -0.028162 -0.038074 0.071053 0.082372 0.257566 -0.014062 0.047383 0.021333 0.040067 -0.006277 0.067785 -0.041836 -0.057788 0.015057 -0.113032 -0.086914 -0.004658 -0.158865 0.056385 0.051130 0.091687 -0.044376 0.126792 0.093765 0.248034 -0.132303 0.068032 0.080405 -0.053782 -0.041428 0.090631 -0.119446 0.141417 0.098175 0.079408 -0.182688 0.066780 0.055366 0.074994 0.095227 0.087449 -0.131422 0.042724 0.074859 0.018655 -0.117226 0.144823 0.049806 -0.146230 0.116245 -0.012542 -0.032880 0.018526 -0.043759 -0.068193 -0.101888 0.053974 0.141167 0.003739 0.058069 0.013488 -0.036020 0.170289 0.000514 0.051068 0.052864 -0.235434 0.162852 0.158921 0.184845 0.106317 0.244028 -0.040809 0.112580 -0.159537 0.053784 -0.078219 -0.077725 0.036160 0.004234 -0.142213 -0.050112 0.153226 0.046859 -0.192206 -0.040494 0.032776 0.024229 -0.119855 -0.181057 0.030314 -0.043572 0.154285 -0.047164 0.034292 0.290547 0.101760 0.151149 -0.106576
slight 0.120429 0.140386 0.052393 0.016329 -0.193802 -0.149753 0.194542 0.299119 -0.024886 0.078052 -0.244216 -0.055553 0.152147 0.050099 0.243390 0.451472 -0.332690 -0.223551 0.008965 0.169732 0.069524 -0.193581 -0.286950 -0.110456 -0.116927 0.259035 -0.002534 0.302054 -0.036880 -0.249230 0.124696 0.084959 -0.018582 0.252027 -0.137327 0.097336 0.299917 -0.215075 -0.110673 0.203093 -0.012784 -0.082436 0.291504 -0.087778 0.023982 -0.062201 0.156912 0.318120 0.043903 -0.033637 -0.019550 -0.189060 -0.085030 0.226578 -0.020491 0.331296 -0.095608 0.164956 -0.003456 0.078420 -0.138988 -0.283552 0.201153 -0.072617 0.033512 -0.439332 0.009595 -0.120271 0.104340 0.255608 0.053400 -0.099469 -0.144811 0.060244 -0.117500 -0.374722 -0.118328 -0.075888 -0.043657 0.053075 -0.001603 -0.017422 -0.031727 0.188355 -0.060536 -0.440810 -0.006725 0.047322 -0.016777 0.017154 -0.068695 -0.017096 0.214349 0.207068 0.065893 0.033342 0.097041 0.248013 -0.269105 0.117261
lemon 0.127764 0.133249 0.086322 -0.061543 -0.178086 -0.192905 0.203103 0.311562 0.035082 0.019066 -0.251122 -0.028547 0.155608 -0.006503 0.248735 0.551798 -0.340201 -0.185437 -0.017284 0.159320 0.006951 -0.263005 -0.259461 -0.184110 -0.161414 0.216059 -0.039580 0.321969 -0.012968 -0.136448 0.165205 0.088761 0.015021 0.237550 -0.186856 0.124297 0.444168 -0.257483 -0.181996 0.234297 -0.071260 -0.097398 0.319138 -0.098976 0.004865 -0.060464 0.189751 0.248810 0.091266 -0.050309 -0.092179 -0.181092 -0.125821 0.312150 -0.081495 0.380626 -0.040437 0.174701 -0.099475 0.065612 -0.163165 -0.309067 0.226299 -0.091777 0.077392 -0.437581 -0.016751 -0.041446 0.089650 0.270033 -0.001877 -0.066883 -0.217949 0.079997 -0.204479 -0.312495 -0.131010 -0.056181 -0.004262 0.057487 0.021953 0.062037 0.010865 0.104124 -0.094168 -0.406534 -0.011348 0.045688 -0.075885 0.054082 -0.046985 -0.047380 0.284335 0.184486 0.116862 0.054320 0.024348 0.233210 -0.276769 0.152264
wheati 0.111525 0.152038 0.054509 0.009324 -0.161166 -0.081361 0.157143 0.286396 -0.111479 0.028251 -0.233901 -0.037513 0.166607 0.036195 0.238410 0.471109 -0.303994 -0.229428 0.003002 0.123370 0.070377 -0.163892 -0.237881 -0.148145 -0.077749 0.240579 0.010746 0.296006 -0.026137 -0.275313 0.100917 0.063962 -0.004002 0.224525 -0.127376 0.103018 0.260694 -0.171429 -0.085568 0.243492 -0.008250 -0.050092 0.259191 -0.044324 0.034512 -0.043229 0.101423 0.320397 0.046657 -0.033984 -0.016904 -0.206064 -0.048738 0.245209 -0.034129 0.245127 -0.068218 0.123550 0.035885 0.038794 -0.167476 -0.239802 0.184430 -0.141273 0.037592 -0.374023 0.003447 -0.168558 0.116027 0.285760 0.055562 -0.092654 -0.157016 0.015269 -0.093503 -0.352190 -0.091496 -0.042998 0.034610 0.026856 0.025530 -0.002996 -0.091401 0.185316 -0.061880 -0.418176 -0.005377 0.036099 -0.016351 0.036351 -0.062841 0.016531 0.209911 0.203401 0.088169 0.020858 0.069079 0.260325 -0.264423 0.161530
tap -0.089012 -0.136544 -0.138218 -0.149347 0.233066 0.644658 -0.192559 -0.382101 -0.578101 -0.129848 0.061543 0.195809 0.169411 -0.386638 -0.169880 -0.237559 0.434963 0.208266 -0.226525 -0.163820 0.031770 0.402049 0.549157 -0.117298 0.312604 -0.264216 0.300112 -0.136859 -0.078199 0.007149 -0.141377 -0.298798 0.061947 -0.274971 0.211167 -0.035171 -0.639511 0.419258 0.154222 0.151379 0.248583 0.374170 -0.540632 0.241987 0.026736 0.032572 -0.226468 0.039476 -0.168955 -0.119946 0.181312 -0.014825 0.253148 0.050492 0.195085 -0.761569 0.280415 -0.151300 0.377332 -0.235617 0.054554 0.167434 -0.012452 -0.041267 0.124571 0.375293 -0.042303 -0.015489 -0.132645 -0.002032 0.060211 -0.052377 0.172498 -0.229506 0.345697 0.324842 0.196052 0.180463 0.239460 -0.246840 0.023756 -0.139069 0.044764 0.151878 0.189763 0.138259 -0.205113 0.070344 0.036319 -0.161745 -0.296657 0.460598 0.002714 0.214103 -0.078197 -0.061286 0.239523 -0.073535 0.361243 -0.029280
thin -0.075372 0.052793 0.015338 0.129280 -0.192147 -0.189709 0.037123 0.101034 -0.303304 0.040563 -0.077594 -0.223105 0.119015 0.206030 0.043699 0.069842 0.031279 -0.230683 0.259842 -0.061372 0.202091 -0.015645 -0.103972 -0.047287 -0.091787 -0.096585 0.397728 0.021694 -0.201885 -0.361929 -0.044655 -0.024306 0.081301 -0.078506 -0.074330 -0.076043 -0.050866 -0.090346 0.066681 0.023394 0.078644 -0.000280 0.209752 -0.013951 -0.038545 -0.028051 0.033257 0.114453 -0.109581 0.231450 0.035423 -0.041912 0.181625 -0.047275 0.220635 0.031018 0.014365 0.031007 0.080908 0.009956 -0.092197 -0.097480 0.088752 -0.310459 -0.042040 -0.265632 -0.003721 -0.031476 -0.162201 -0.082604 -0.085364 -0.282206 -0.185114 -0.060428 0.084417 -0.235377 -0.071482 0.008603 0.126067 -0.105358 0.009758 -0.028602 -0.177850 0.229240 -0.050434 -0.008735 0.050894 0.025081 0.138969 0.152189 0.155631 0.135830 -0.015653 -0.060186 -0.067515 -0.058489 -0.218921 0.029315 -0.313348 0.085581
tart 0.128850 0.095802 0.027530 0.094180 -0.205695 -0.178291 0.171457 0.307417 0.167984 0.104039 -0.210100 -0.033215 0.038409 0.100675 0.232947 0.334864 -0.424653 -0.200420 -0.002005 0.252019 0.054215 -0.186138 -0.413051 0.021400 -0.127698 0.350849 -0.148676 0.275981 0.016743 -0.216519 0.134882 0.137911 -0.040733 0.328529 -0.074452 0.088499 0.301621 -0.226868 -0.071761 0.142046 -0.046465 -0.125327 0.317148 -0.136419 0.027239 -0.020112 0.122065 0.295714 0.062668 -0.066700 -0.012813 -0.108482 -0.138609 0.117997 -0.044757 0.455322 -0.196288 0.191414 -0.047242 0.149726 -0.078906 -0.270394 0.118199 0.044858 -0.016589 -0.404517 0.018624 -0.143456 0.209682 0.213005 0.099325 -0.026287 -0.043218 0.111731 -0.120371 -0.406074 -0.114418 -0.146294 -0.176735 0.135456 0.023507 -0.047604 0.010303 0.152660 -0.047452 -0.462923 0.022145 0.028324 -0.011762 -0.024048 -0.056487 -0.146818 0.103796 0.134266 0.019558 0.044029 0.170930 0.254690 -0.217129 0.028739
crisp 0.084521 0.068593 -0.012819 0.186413 -0.205825 -0.100634 0.145897 0.318065 0.098279 0.108265 -0.203353 -0.082653 -0.012377 0.141679 0.199786 0.202209 -0.391856 -0.235941 0.028298 0.225920 0.119671 -0.095972 -0.423805 0.100934 -0.087975 0.373414 -0.097775 0.272165 0.021136 -0.318995 0.062734 0.147310 -0.044206 0.300566 -0.021420 0.081022 0.138182 -0.193564 0.009137 0.144883 0.025642 -0.060614 0.284773 -0.092004 0.055216 -0.009966 0.032721 0.326682 0.050112 -0.041192 0.062063 -0.061819 -0.068949 0.075625 -0.006523 0.391382 -0.252032 0.211028 0.039766 0.165243 -0.027107 -0.245306 0.071777 0.046761 -0.020825 -0.405996 0.055316 -0.268309 0.187293 0.185288 0.135372 -0.080694 0.018528 0.061427 -0.039839 -0.486136 -0.078714 -0.161326 -0.199135 0.112521 0.048729 -0.127543 -0.067747 0.248174 -0.041948 -0.448862 0.032777 0.044599 0.048658 -0.022222 -0.038960 -0.107683 0.048012 0.134128 -0.041190 0.028715 0.197646 0.280442 -0.209435 -0.023706
overal 0.006009 -0.045663 -0.100754 0.210531 -0.029783 0.185530 -0.006789 0.097785 -0.013827 0.119233 -0.070786 -0.053428 -0.110932 0.070816 0.016832 -0.194688 -0.141235 -0.132766 -0.065278 0.090268 0.164463 0.141955 -0.197718 0.241097 0.031093 0.263381 0.005405 0.086284 0.013416 -0.291578 -0.071973 0.155321 -0.100729 0.161305 0.098919 0.021189 -0.301097 0.038826 0.146654 0.057940 0.159701 0.094532 0.006093 0.001080 0.063994 0.040032 -0.151404 0.220299 0.010808 -0.072251 0.154090 0.049736 0.040605 -0.065581 0.073580 0.015222 -0.220082 0.118418 0.212841 0.071714 0.080206 -0.056827 -0.081079 0.120085 -0.064414 -0.062796 0.074680 -0.330271 0.148017 0.102893 0.160131 -0.025176 0.263695 -0.050356 0.186352 -0.340664 0.073220 -0.129155 -0.148211 0.039265 0.014953 -0.240926 -0.121625 0.307417 0.029808 -0.233301 -0.014912 0.069414 0.103100 -0.095021 -0.109735 0.020250 -0.114594 0.108149 -0.142284 0.027018 0.250919 0.177563 0.026622 -0.152443
fresh 0.098066 0.085219 0.035946 -0.007804 -0.091455 0.071816 0.105808 0.203651 -0.084648 0.015148 -0.180212 0.014979 0.117491 -0.051008 0.164990 0.288718 -0.200202 -0.131913 -0.052017 0.097109 0.043924 -0.062902 -0.132169 -0.107950 -0.001344 0.228212 -0.031172 0.247104 0.020743 -0.180597 0.056630 0.042828 -0.029825 0.183206 -0.050672 0.091130 0.133410 -0.083099 -0.057006 0.217157 0.033363 0.012801 0.116620 0.020765 0.056088 -0.033157 0.040607 0.265639 0.053701 -0.084909 0.012695 -0.161912 -0.047186 0.218017 -0.050327 0.119261 -0.062869 0.114618 0.078694 0.020217 -0.097790 -0.149146 0.122395 -0.038540 0.053404 -0.230179 0.021126 -0.175444 0.112358 0.243206 0.079804 -0.028179 -0.058889 -0.019452 -0.046632 -0.251743 -0.041641 -0.028508 0.001043 0.020180 0.013796 -0.036625 -0.052745 0.165572 -0.034255 -0.336368 -0.033585 0.034661 -0.019758 -0.010877 -0.109853 0.038285 0.177135 0.204858 0.063212 0.010297 0.133710 0.215298 -0.109168 0.069950
pretti 0.030177 0.015931 -0.038955 0.041399 0.004509 0.269623 0.020599 0.083976 -0.232524 0.037446 -0.118506 0.052000 0.079152 -0.079445 0.059560 0.070303 -0.075761 -0.149566 -0.134812 0.055239 0.122845 0.115868 -0.046098 0.004526 0.064076 0.157570 0.093533 0.135478 -0.039889 -0.261036 -0.028405 0.054410 -0.048066 0.129014 0.059394 0.056938 -0.226851 0.072420 0.063980 0.166688 0.150601 0.118276 -0.027259 0.042359 0.043519 0.017340 -0.098750 0.272607 -0.002135 -0.103417 0.123513 -0.089088 0.032367 0.091628 0.062211 -0.114545 -0.053492 0.049559 0.212872 -0.031521 -0.042138 -0.081334 0.047472 0.008591 0.013664 -0.073769 0.028457 -0.261941 0.108625 0.187738 0.112466 -0.068622 0.138647 -0.090895 0.142164 -0.232324 0.057994 -0.013785 0.022371 -0.027946 0.024103 -0.157858 -0.114071 0.288331 0.025714 -0.273560 -0.077419 0.073993 0.026281 -0.089316 -0.196333 0.148207 0.062454 0.228866 -0.045512 0.007743 0.257808 0.207647 -0.014669 -0.003245
bubblegum 0.138869 0.174500 0.101911 -0.093374 -0.166051 -0.107111 0.229449 0.345324 -0.073479 0.004173 -0.292139 0.007072 0.228903 -0.068310 0.291832 0.654408 -0.340169 -0.213426 -0.050783 0.148534 0.012828 -0.229880 -0.203187 -0.260934 -0.105686 0.247621 -0.040998 0.400399 -0.018334 -0.173126 0.159994 0.072908 0.037725 0.251984 -0.180637 0.167887 0.435557 -0.245797 -0.192692 0.322374 -0.033164 -0.063701 0.279409 -0.052345 0.040471 -0.074421 0.189224 0.333307 0.092789 -0.087027 -0.047353 -0.260506 -0.113170 0.402696 -0.105955 0.319901 -0.003187 0.178767 -0.042411 0.044490 -0.194010 -0.308998 0.264427 -0.109921 0.115044 -0.455890 -0.019383 -0.083626 0.104712 0.354103 0.025876 -0.087319 -0.205548 0.042613 -0.204978 -0.348679 -0.117443 -0.031875 0.033513 0.032905 0.024492 0.061308 -0.003987 0.147268 -0.090153 -0.485935 -0.042633 0.041107 -0.103250 0.033206 -0.114375 0.009170 0.366297 0.282569 0.149143 0.038648 0.082411 0.302443 -0.289798 0.196382
soft -0.000688 0.058361 -0.004385 0.267977 -0.268423 -0.220792 0.085228 0.252671 -0.017493 0.066301 -0.148066 -0.171997 0.032748 0.240222 0.175096 0.073827 -0.233000 -0.282537 0.239975 0.137047 0.187290 -0.027041 -0.408106 0.095752 -0.118964 0.225432 0.104368 0.152942 -0.097464 -0.395614 0.001514 0.080175 0.056853 0.150602 0.006935 -0.015376 0.069996 -0.151064 0.067017 0.060517 0.037754 -0.057975 0.346477 -0.073789 0.021100 0.009766 0.023311 0.221831 -0.053568 0.166904 0.108829 -0.022577 0.053197 -0.048668 0.099730 0.380660 -0.186005 0.156076 0.023858 0.208524 -0.052297 -0.201539 0.047271 -0.153550 -0.077312 -0.428655 0.083236 -0.144198 0.040748 -0.011182 0.067978 -0.196363 -0.123955 0.018410 -0.010050 -0.472771 -0.066624 -0.080660 -0.149962 0.027219 0.047311 -0.144450 -0.114882 0.273793 -0.065747 -0.260757 0.099015 0.025154 0.190591 0.075052 0.084376 -0.084056 -0.009563 0.027689 -0.080631 -0.051042 0.041874 0.200874 -0.305741 -0.002722
clean 0.066369 0.045037 -0.044793 0.186006 -0.163781 -0.061020 0.113466 0.265857 0.092448 0.131422 -0.169296 -0.061956 -0.033510 0.129077 0.149970 0.128558 -0.361012 -0.191490 -0.004021 0.206066 0.120509 -0.059019 -0.364182 0.146063 -0.048074 0.335958 -0.084583 0.220403 0.010180 -0.286719 0.036408 0.128858 -0.050153 0.272731 0.010737 0.062754 0.065896 -0.156629 0.023527 0.118340 0.044157 -0.041893 0.221278 -0.093545 0.050106 -0.006776 -0.009898 0.306985 0.029123 -0.053256 0.070461 -0.025510 -0.040997 0.036420 0.033316 0.323545 -0.246036 0.181818 0.077044 0.134579 0.008693 -0.187917 0.045835 0.089022 -0.030100 -0.322550 0.041760 -0.268150 0.189361 0.167770 0.146039 -0.044317 0.094894 0.055734 0.024069 -0.428233 -0.061904 -0.179719 -0.211592 0.113410 0.055592 -0.143314 -0.041663 0.246898 -0.008858 -0.405677 0.029372 0.048769 0.044174 -0.053308 -0.048699 -0.092218 -0.003924 0.119902 -0.072501 0.045594 0.219831 0.246717 -0.140958 -0.062326
long -0.072159 0.086148 -0.006720 0.134508 -0.119269 -0.160300 -0.020022 0.111605 -0.223599 0.103761 -0.064873 -0.225452 0.018750 0.243660 0.036534 0.041740 -0.001896 -0.153639 0.180738 -0.078304 0.187393 -0.018340 -0.070090 -0.009784 -0.000550 -0.015541 0.256479 0.008369 -0.135428 -0.291450 -0.089647 0.048108 -0.042285 -0.028393 -0.088014 -0.057912 -0.048832 -0.091093 0.040075 -0.010150 0.062989 -0.001893 0.138758 -0.029870 -0.039878 -0.013778 -0.011194 0.055614 -0.030738 0.133289 -0.028657 -0.026392 0.133501 -0.060865 0.137458 -0.006808 -0.047542 -0.010925 0.091099 -0.054364 -0.019989 0.011476 0.044143 -0.192262 -0.069518 -0.158365 -0.015645 -0.138518 -0.096822 -0.018031 -0.031164 -0.154407 -0.095167 -0.062611 0.097518 -0.173647 -0.090620 -0.030636 0.107745 -0.088256 0.026559 0.001472 -0.208300 0.170412 -0.017016 -0.005896 0.062014 0.016990 0.097795 0.103894 0.171458 0.065574 -0.057019 -0.097236 -0.033917 -0.050083 -0.226753 -0.009112 -0.217582 0.084978
appear -0.058838 -0.000127 -0.036492 -0.190219 0.043612 0.208806 0.001936 -0.170496 -0.475029 -0.113077 -0.087963 0.110481 0.241168 -0.261895 -0.026011 0.191366 0.226292 0.015295 -0.103416 -0.119545 0.011591 0.115534 0.348128 -0.303628 0.073369 -0.270943 0.350181 0.002516 -0.147635 -0.063381 0.021316 -0.230475 0.134515 -0.175271 -0.037103 -0.021554 -0.171836 0.119038 0.000634 0.202816 0.090473 0.189059 -0.142412 0.110671 -0.020084 -0.016633 -0.000766 0.058657 -0.112922 -0.023184 0.016598 -0.121051 0.136004 0.203913 0.156569 -0.374686 0.264600 -0.065910 0.147759 -0.171449 -0.100450 -0.066674 0.127352 -0.216846 0.157858 0.029922 -0.087821 0.108620 -0.188008 0.048278 -0.116606 -0.171993 -0.106611 -0.131575 0.099676 0.142253 0.052920 0.175575 0.299106 -0.194698 0.014697 0.025525 0.021603 0.079214 0.052926 0.030872 -0.149211 0.068616 -0.037627 0.001711 -0.151550 0.353796 0.190696 0.179966 0.008396 -0.019541 -0.022669 0.018612 0.003183 0.156042
decent -0.046376 0.052767 -0.022853 0.088764 -0.019195 0.140000 -0.019929 0.081068 -0.289240 0.061186 -0.073642 -0.170180 0.052705 0.101244 -0.014935 -0.022837 0.044595 -0.140827 0.065586 -0.104987 0.175881 0.094828 0.006218 0.000979 0.044054 0.042171 0.223549 0.046409 -0.080787 -0.279046 -0.097904 0.078365 -0.069048 -0.035545 -0.033965 0.004458 -0.216582 0.017774 0.086226 0.079593 0.153890 0.111723 -0.013233 0.082438 0.044587 -0.026470 -0.082258 0.127142 -0.017718 0.047967 0.083977 -0.054832 0.154225 0.030896 0.111945 -0.196801 -0.023608 0.020656 0.219495 -0.091940 -0.017400 0.010836 0.026631 -0.151186 -0.014905 -0.045595 0.025194 -0.237397 -0.041676 0.095991 0.031025 -0.105731 0.014322 -0.120843 0.166341 -0.213991 0.020241 -0.021734 0.133140 -0.084661 -0.012200 -0.076351 -0.218578 0.262971 -0.019431 -0.046627 -0.034653 0.052054 0.098937 0.045208 0.030294 0.195551 -0.000628 0.053369 -0.044907 -0.022267 -0.056327 0.059087 -0.084828 0.026436
best 0.019334 -0.066713 -0.134173 0.090669 0.219810 0.563991 -0.178282 -0.205690 -0.067348 0.037535 0.094337 0.102234 -0.095907 -0.176474 -0.136272 -0.418176 0.159167 0.114253 -0.242787 -0.042423 0.070060 0.313885 0.186567 0.237955 0.254797 0.146603 -0.076895 -0.050217 0.138542 0.022382 -0.112221 0.078364 -0.165434 0.008735 0.201093 0.039353 -0.524681 0.245757 0.097802 0.006583 0.220667 0.272293 -0.394622 0.155722 0.158845 0.066336 -0.244203 0.001890 0.017779 -0.157409 0.195529 0.108724 0.053886 -0.052069 0.016532 -0.438224 -0.036285 0.009725 0.313635 -0.068957 0.178159 0.168670 -0.156176 0.257959 -0.022221 0.393101 0.031272 -0.287849 0.142081 0.104171 0.197930 0.149420 0.469687 -0.181456 0.298504 -0.033120 0.230260 -0.068594 -0.060134 -0.062119 -0.036730 -0.211857 -0.091128 0.170571 0.034854 -0.003548 -0.086300 0.077207 0.030297 -0.174302 -0.205257 0.159498 -0.140170 0.132245 -0.128673 0.014174 0.317055 0.021642 0.386663 -0.230231
expect -0.025114 0.011885 -0.055646 0.014522 0.054744 0.277343 -0.041722 -0.041560 -0.221396 0.000761 -0.038805 -0.011702 0.065550 -0.082816 -0.034178 -0.049091 0.093206 -0.042002 -0.094018 -0.076611 0.116872 0.137802 0.142398 -0.018225 0.091830 -0.000380 0.137801 0.021867 -0.017012 -0.132222 -0.063353 0.052096 -0.065521 -0.010528 0.033606 0.036929 -0.270073 0.100155 0.049169 0.092310 0.150868 0.155916 -0.155948 0.101529 0.080204 0.010508 -0.096975 0.072966 -0.005781 -0.028841 0.070786 -0.037557 0.091211 0.073680 0.078197 -0.296377 0.049394 0.007054 0.204198 -0.101297 -0.021066 -0.000704 0.015768 -0.037034 0.034292 0.102620 -0.019899 -0.145046 -0.036108 0.142440 0.042229 -0.062924 0.123754 -0.126093 0.167711 -0.069481 0.089374 0.017363 0.135160 -0.113731 -0.033247 -0.082765 -0.151976 0.152264 -0.008138 -0.035809 -0.066990 0.058408 0.008400 -0.036958 -0.082743 0.184044 0.021568 0.095250 -0.055577 0.007388 0.060921 0.077359 0.087138 -0.001942
bubbl -0.029964 0.131025 0.071213 -0.077958 -0.060096 -0.222210 0.027435 0.132171 -0.163930 -0.007584 -0.001495 -0.231798 0.117941 0.179197 0.006523 0.185886 0.043191 -0.075988 0.227966 -0.127693 0.040560 -0.101109 0.048632 -0.188261 -0.081306 -0.167689 0.187523 0.032467 -0.109179 -0.062098 -0.018603 0.035869 0.023703 -0.096302 -0.135019 -0.017554 0.209778 -0.117128 -0.051686 -0.003865 -0.028400 -0.115070 0.180825 0.022098 -0.041458 -0.049370 0.117028 -0.010602 0.012158 0.149675 -0.066134 -0.080397 0.071284 0.062142 0.012812 0.056388 0.115080 -0.055816 -0.068159 -0.079126 -0.122773 0.024468 0.140746 -0.237024 -0.044679 -0.115528 -0.001964 0.047641 -0.155393 -0.021255 -0.132966 -0.130083 -0.254369 0.003811 -0.101833 -0.035909 -0.066265 0.040491 0.182766 -0.045502 -0.016624 0.147034 -0.105667 -0.029917 -0.065074 0.127805 0.074389 -0.043687 -0.029153 0.179753 0.216860 0.036533 0.112146 -0.073688 0.100856 -0.018872 -0.366839 -0.075427 -0.272487 0.157889
look -0.051215 0.001729 -0.035148 -0.076352 0.086429 0.269213 -0.055959 -0.097980 -0.312411 -0.062641 -0.016440 0.002199 0.084233 -0.119331 -0.069125 -0.031377 0.191269 0.022518 -0.064155 -0.166809 0.052480 0.145505 0.252274 -0.108123 0.103331 -0.106731 0.196159 -0.028313 -0.030087 -0.041320 -0.087403 -0.054839 -0.027038 -0.126950 -0.005779 0.001927 -0.222798 0.120393 0.057797 0.099385 0.098789 0.156561 -0.182879 0.139870 0.028637 -0.011198 -0.080231 0.011508 -0.026796 -0.023955 0.028315 -0.054108 0.116094 0.096880 0.053494 -0.374470 0.110530 -0.065440 0.190698 -0.160438 -0.030526 0.064264 0.015394 -0.104543 0.055895 0.142658 -0.033003 -0.068492 -0.097510 0.075771 -0.025245 -0.030573 0.018318 -0.135958 0.144934 0.060101 0.088847 0.087632 0.194520 -0.138778 -0.014847 -0.010942 -0.099126 0.094473 -0.000383 0.076539 -0.095045 0.033642 0.010993 0.006473 -0.073050 0.239031 0.061451 0.080597 0.009300 -0.029075 -0.033899 -0.013969 0.063825 0.037433
