1385 100
beer 0.216829 -0.118185 0.001595 0.060341 0.347569 -0.811988 -0.606895 0.383607 -0.356551 -0.197444 0.581887 -0.406804 -1.027734 -0.435387 -0.072189 0.325228 0.079065 -0.432761 -0.531046 0.117191 -0.506127 -0.539038 -0.457354 0.229971 -0.225666 -0.073541 0.130095 -0.092292 0.289226 0.057772 0.795702 -0.253119 -0.112162 -1.200114 0.302681 -0.388714 -0.484075 0.273471 0.335496 0.092924 -0.383134 0.542776 0.130127 -0.148746 -0.103578 -0.579251 -0.236421 -0.443093 -0.132864 -0.117348 0.271369 -0.674249 0.225767 0.312197 0.221433 0.707093 0.451342 0.770587 -0.272164 -0.050536 -0.077369 -0.445261 0.032374 -0.434128 -0.082908 1.177135 -0.255136 -0.784720 -0.094172 0.573219 -0.309127 0.806414 0.644960 -0.096423 -0.056590 0.091983 -0.236777 0.814729 -0.126010 -0.684483 -0.087590 0.176166 -0.099961 -0.471454 -0.226193 0.283185 -0.141599 -0.567736 -0.336551 -0.487208 0.222529 0.221086 0.152069 -0.075593 -0.524089 0.697159 0.882375 -0.361659 -0.147694 0.157644
dark -0.046364 -0.637737 0.037564 0.277358 0.752119 -0.477075 -0.187714 0.222851 -0.381448 -0.088570 0.021251 0.286776 0.147372 0.003360 -0.664027 -0.569801 -0.107951 -0.576019 -0.314952 -0.159274 -0.176901 -0.338297 -0.757829 0.299166 0.518756 0.001407 0.240585 -0.401641 0.113148 -0.538691 0.049240 -0.148184 0.342298 -1.136221 0.379348 0.401039 0.247004 0.657062 -0.992743 0.732641 -0.205042 -0.048097 -0.028559 0.538946 -0.399033 -0.322442 0.781256 -0.621977 -0.337816 -0.491563 0.873589 -0.604397 0.375183 -0.048130 0.005415 0.548756 -0.528055 0.164227 -0.517041 0.311137 0.210594 -0.463909 0.430708 -0.023641 -0.506682 -0.113723 -0.358107 -0.483368 -0.440713 0.042199 0.516369 0.401985 0.440457 0.355158 -0.153307 0.327930 -0.126673 0.846143 0.639244 0.197628 0.234806 -0.032618 -0.692530 -0.216816 -0.710060 0.781507 -0.201856 1.000725 -0.080701 -0.135866 -0.087113 -0.751051 -0.285571 -0.499538 -0.693629 0.448042 0.524330 -0.053015 -0.304611 -0.287605
alcohol 0.272295 0.387686 -0.384602 0.122445 -0.068654 -0.636600 -0.202017 0.055707 0.112433 -0.158648 0.320955 0.088290 -0.162480 -0.284837 -0.551122 0.734003 0.340317 0.031888 -0.452472 0.561698 -0.068298 0.378497 0.268688 0.188129 0.438044 0.242764 0.260409 -0.368631 0.302061 -0.622042 0.312110 -0.230144 -0.044499 -1.142057 0.478869 0.043529 -1.133516 0.316650 -0.633272 0.382906 0.275070 -0.188440 0.531625 -0.048530 -0.650280 0.270051 -0.486953 -0.508920 0.498870 0.012533 0.609690 -1.082094 0.125525 0.198908 0.138255 0.424601 -0.401269 0.136588 -0.169259 0.292683 -0.157474 -0.148060 -0.145836 0.495811 0.141117 0.552219 -0.425956 0.178475 -0.161013 0.339194 0.601653 0.130150 0.890108 0.030826 0.028191 0.448893 0.439537 0.715730 0.250042 0.002088 -0.663647 -0.148808 -0.411546 0.082309 0.502503 0.841244 -0.828187 -0.145179 0.069840 -0.478228 -0.748350 0.022434 0.327226 -0.167773 -0.389119 0.092473 0.802387 -0.562521 -0.546369 -0.052764
brown 0.040233 -0.409110 -0.051873 0.317062 0.875054 -0.239435 -0.137113 0.457848 -0.488449 0.161474 -0.026382 0.377143 0.267724 0.033480 -0.244764 -0.516386 0.000373 -0.518050 -0.593842 -0.220849 -0.058484 -0.314101 -0.863907 0.132787 0.199028 -0.154555 0.348273 -0.283752 0.499427 0.114702 0.158025 0.306921 0.753032 -0.908485 -0.030140 0.643080 0.438160 0.759734 -1.139934 0.995600 -0.415459 -0.249290 -0.088144 0.484316 -0.343300 -0.366536 1.076929 0.013794 -0.094603 -0.340774 0.958799 -0.479604 0.593505 0.246599 -0.199469 0.326589 -0.224256 -0.147700 -0.359809 0.148956 0.152944 -0.471059 0.638150 -0.066233 -0.304955 0.281661 -0.127293 -0.787567 -0.530090 0.274633 0.237964 0.276570 0.122496 0.690688 -0.361063 0.093761 -0.041550 0.958306 0.805603 0.405454 0.424758 -0.022158 -0.391174 -0.123945 -0.680149 1.041376 -0.079276 0.958839 -0.177487 0.191514 -0.264945 -0.912015 -0.209240 -0.739644 -0.656507 0.241942 0.389031 0.049320 -0.145036 -0.087248
head 0.135138 -0.546466 0.214211 0.095076 0.660420 -0.171897 -0.197866 0.248623 -0.334770 0.212447 0.192925 0.318537 -0.009330 0.477599 -0.103253 -0.592001 0.102315 -0.744046 -0.080495 -0.488546 -0.018890 -0.250560 -0.244374 -0.324752 0.439569 0.235302 0.061974 -0.608101 1.095441 -0.037291 0.020583 0.404351 0.617832 -1.130745 -0.066787 -0.069881 0.564612 0.385809 -0.644267 1.050723 0.483054 -0.226458 0.055796 0.514296 0.008797 -0.519263 1.257261 -0.285933 0.104153 -0.199489 0.579675 -0.184083 0.560106 0.319822 0.151518 0.002078 -0.775331 -0.024811 0.524346 0.557751 -0.260435 0.416127 0.559467 0.184937 -0.071784 0.617810 -0.652193 -0.428216 -0.590411 0.199854 -0.304914 0.127360 -0.199638 0.403377 -0.517268 0.318659 0.717553 1.192999 0.179495 -0.426823 0.003018 -0.328521 0.188814 0.103070 -0.727209 1.063837 0.239457 0.278036 0.161365 0.317221 -0.169933 -0.942786 -0.557960 -0.360215 -0.105914 0.323302 0.177247 -0.078302 0.069338 0.034691
tast 0.079794 0.175923 0.051225 -0.009467 0.218961 -0.904365 -0.027610 0.304865 -0.072474 -0.247193 0.391195 -0.113654 -0.454600 -0.081774 -0.257988 -0.039061 0.025095 -0.447285 -0.356579 0.461927 -0.310076 0.018053 -0.354234 0.009196 0.096922 0.378886 0.064834 -0.325296 0.300314 -0.666473 0.428715 -0.196962 0.084979 -0.988304 0.512189 -0.320187 -0.394604 0.003190 -0.531400 0.648118 -0.029813 0.073052 0.328590 0.129229 -0.594044 0.012808 0.086242 -0.515168 -0.027371 -0.230561 0.601607 -0.858497 0.171847 -0.183095 0.214279 0.701019 -0.244581 0.673686 -0.002966 0.286974 0.129755 -0.195494 0.083514 0.513787 -0.388197 0.356899 -0.432176 -0.013396 -0.116299 -0.121996 0.096982 0.098289 0.734646 0.081249 0.279875 0.374150 0.249442 0.657769 0.027855 -0.412023 -0.006952 -0.105468 -0.338347 -0.115039 -0.069876 0.397394 -0.522471 -0.035023 -0.091513 -0.464773 -0.220928 -0.028562 -0.119010 -0.196955 -0.526454 0.370622 0.583450 -0.168615 -0.408314 0.122290
aroma 0.051204 -0.048468 0.335591 0.044404 0.456515 -0.804819 -0.050591 0.119850 -0.153621 -0.127079 0.203991 0.186097 -0.112983 0.247220 -0.405918 -0.621404 0.018810 -0.470811 -0.104662 0.301237 -0.000630 -0.186103 -0.411940 0.051196 0.359407 0.390799 0.222614 -0.401737 0.523190 -0.659285 0.161732 -0.102701 0.244593 -1.103473 0.449672 -0.402115 0.253313 0.009147 -0.512272 0.972906 0.263259 -0.030107 0.284578 0.568545 -0.546874 -0.092366 0.560031 -0.605567 -0.146186 -0.434925 0.828272 -0.556511 0.277695 -0.286830 0.159241 0.376525 -0.588901 0.220536 -0.047281 0.625286 -0.021134 0.133896 0.430417 0.318563 -0.391932 0.182257 -0.571808 -0.025584 -0.338479 -0.133019 0.090878 0.082249 0.204012 0.064490 0.056004 0.385902 0.442601 0.778372 0.041224 -0.315762 0.084304 -0.308064 -0.327140 -0.049594 -0.434151 0.532259 -0.354297 0.391181 -0.047438 -0.103026 -0.139843 -0.402273 -0.557763 -0.324116 -0.599194 0.440735 0.424496 -0.267222 -0.302254 0.162319
sweet 0.131043 0.169134 -0.133398 -0.032333 -0.025296 -0.827544 0.013942 0.030515 0.108130 -0.322680 0.543614 0.161209 -0.165161 -0.080630 -0.381962 -0.174773 -0.021671 -0.230749 -0.192921 0.338096 -0.419587 0.192354 -0.190140 -0.075175 0.253363 0.743373 0.064689 -0.367583 0.440074 -0.903314 0.251060 -0.032171 0.189724 -1.182409 0.489472 -0.151242 -0.363697 -0.013975 -0.998943 0.706308 0.368541 0.009846 0.133119 0.326527 -0.649399 0.355334 0.192847 -0.176632 -0.037235 -0.157926 0.745791 -0.782997 0.340332 0.039992 0.030728 0.390405 -0.539298 0.333655 -0.035275 0.226686 0.044519 0.168049 -0.170761 0.586468 -0.603598 -0.126566 -0.556362 0.174716 -0.514944 -0.254436 0.397846 -0.285325 0.823788 0.321285 0.250146 0.570852 0.522489 0.772028 0.063778 -0.322570 -0.198789 -0.159654 -0.373790 0.159419 -0.268647 0.292913 -0.417790 0.416422 0.345738 -0.423577 -0.412299 -0.125178 -0.239021 -0.100973 -0.537011 0.465283 0.553906 -0.242895 -0.449282 -0.153302
fruit -0.001295 -0.183406 -0.151140 -0.031950 0.237923 -0.679742 -0.015698 0.090692 -0.136278 -0.522768 0.095410 0.269678 0.155974 0.063881 -0.492553 -0.414256 -0.371688 -0.392702 -0.451508 0.491034 -0.265006 -0.048518 -0.380727 0.048852 0.439314 0.135528 0.019299 -0.614831 -0.189506 -1.112099 -0.074549 -0.165216 0.233534 -1.056290 0.465417 -0.190151 0.005113 0.028734 -0.859237 0.732624 -0.114152 -0.211141 0.488725 0.506259 -0.864102 0.225958 0.162113 -0.825185 -0.084218 -0.291030 0.862416 -0.840399 0.051436 -0.420367 -0.098435 0.683545 -0.539266 0.312323 -0.519256 0.484775 0.341071 0.001945 0.140763 0.588751 -0.479690 -0.025159 -0.302861 -0.148123 -0.198187 -0.249910 0.361363 -0.094315 0.515114 -0.071448 -0.094664 0.504358 0.454130 0.627785 0.036301 -0.034063 -0.125422 -0.219110 -0.619858 0.135058 -0.099007 0.498985 -0.389856 0.487020 0.301048 -0.766629 -0.525930 -0.206860 -0.355111 -0.220712 -0.673811 0.211434 0.285043 -0.064568 -0.102037 0.017759
flavor 0.130195 0.185532 -0.154885 -0.089739 0.183886 -0.849126 -0.094143 0.120939 0.051457 -0.244334 0.324755 0.038992 -0.327771 -0.095858 -0.415072 -0.191156 0.043179 -0.237927 -0.236546 0.516346 -0.386654 -0.000472 -0.259337 0.103657 0.260461 0.357762 0.031557 -0.351300 0.148124 -0.751984 0.289178 -0.223353 0.107031 -0.933494 0.591743 -0.484672 -0.382078 0.095160 -0.468807 0.545303 0.075063 0.024756 0.393884 0.138935 -0.725726 0.126587 0.041986 -0.432609 -0.038585 -0.195381 0.601925 -0.695260 0.119166 -0.282383 0.063578 0.614180 -0.277645 0.361194 -0.194219 0.256353 0.094643 0.025066 0.074396 0.451189 -0.395541 0.169116 -0.388788 0.048352 -0.253280 -0.032397 0.230445 -0.011477 0.676099 -0.044199 0.156458 0.378396 0.344481 0.532061 -0.203543 -0.301409 -0.009312 -0.004074 -0.494705 -0.203474 -0.002866 0.257476 -0.491686 0.077316 0.005388 -0.542870 -0.544954 0.120498 -0.220402 -0.055618 -0.573250 0.394788 0.634417 -0.253415 -0.325535 0.062967
bottl -0.295503 -0.396075 0.890915 0.534783 0.542154 -0.493822 0.013364 0.063780 -0.436833 0.323559 -0.443863 -0.125406 -0.117658 -0.323858 0.229291 -0.343684 0.455607 -0.532365 -0.033629 0.097092 -0.121188 -0.589647 -0.785309 0.642753 -0.175580 -0.053706 0.571452 0.489058 0.451131 0.455693 0.309760 -0.084665 0.210831 -0.263805 -0.129069 0.727918 0.295696 0.165633 -0.015214 0.408134 -0.100204 0.210194 0.102668 -0.241949 0.088827 -0.796190 0.958794 -0.092627 -0.357964 -0.748932 0.529178 -0.297156 0.169267 -0.038815 0.418870 -0.199807 -0.161810 0.637977 -0.139515 0.234715 -0.049157 -0.775587 0.433605 -0.504443 -0.368143 0.333348 -0.175452 -0.600523 -0.028455 0.196926 0.242475 0.905731 -0.154923 0.703801 0.514629 -0.263250 -0.690361 0.041717 0.653375 0.037550 0.427264 -0.369680 -0.190727 -0.022280 -0.761650 0.296170 -0.009259 0.366241 -0.806414 0.360482 0.646169 -0.648335 0.041309 -0.327192 -0.214472 0.240146 0.681539 0.141088 -0.820761 -0.282307
pour -0.431308 -0.703043 0.393762 0.360148 0.956533 -0.390360 -0.190482 0.377801 -0.337735 0.605206 -0.292707 0.016232 -0.387556 -0.017066 -0.204719 -0.517136 0.147413 -0.439951 -0.150190 -0.137701 0.013064 -0.463200 -0.856430 0.177938 0.169085 -0.144935 0.226878 0.353201 0.627715 0.202835 0.279353 -0.131476 0.253070 -0.421744 -0.115544 0.767353 0.528960 0.615589 -0.717553 0.520573 -0.133059 0.052314 -0.268630 0.012360 -0.022297 -0.640475 1.110292 0.004073 -0.101748 -0.729274 0.495206 -0.199868 0.221065 -0.074445 0.249516 0.100974 -0.194548 0.166692 0.031179 0.314203 0.048928 -0.662668 0.578293 -0.549963 -0.335043 0.139980 -0.079806 -0.507289 -0.241535 0.366344 0.394925 0.698867 -0.130876 0.671449 0.163836 -0.208646 -0.450020 0.188507 0.567708 0.341714 0.508750 0.103329 -0.168462 -0.229445 -0.653810 0.712440 0.130883 0.695436 -0.473185 0.290444 0.259174 -0.905034 -0.008590 -0.670051 -0.330080 0.187823 0.410635 0.113357 -0.650263 -0.272383
raisin 0.172153 0.260555 0.073225 0.115022 0.360699 -0.808057 0.232501 0.252264 -0.099196 -0.480505 0.032197 0.389521 0.008490 0.287751 -0.389692 -0.449204 0.181072 -0.062852 -0.506380 0.677073 0.034008 -0.012954 -0.535074 -0.134891 -0.040605 0.071389 0.074097 -0.187547 -0.053567 -0.896760 -0.043950 -0.077613 0.283023 -0.805594 0.529006 -0.156285 0.082983 -0.082589 -1.061281 1.055508 -0.221689 -0.299778 0.393821 0.572701 -0.988548 0.242590 0.085190 -0.540786 -0.014759 -0.123610 0.826749 -0.698498 0.204207 -0.527596 0.081725 0.659561 -0.256569 0.232116 -0.205004 0.526213 0.449533 -0.306796 0.281276 1.018829 -0.215999 -0.096852 -0.156636 0.322325 -0.173657 -0.453872 0.114828 -0.342705 0.546075 0.085506 0.173633 0.397260 0.221704 0.438581 0.269824 -0.101708 0.156451 -0.251563 -0.397082 0.024427 -0.219025 0.726570 -0.423265 0.499089 0.110281 -0.331787 -0.527478 -0.206146 -0.611419 -0.454081 -0.534290 0.278016 0.241909 -0.025613 -0.318792 0.492954
malt 0.004604 0.214034 -0.121506 0.079931 0.131324 -0.709828 0.126989 0.078354 0.081345 -0.233283 0.246019 0.295215 0.136495 0.058843 -0.567951 -0.357203 -0.276846 -0.195550 -0.262881 0.421626 0.018400 0.107716 -0.304231 -0.008107 0.514599 0.328615 0.080133 -0.369831 0.210747 -0.926080 0.109724 -0.084382 0.221064 -0.976207 0.680375 -0.091245 -0.164710 0.083496 -0.741556 0.794874 0.071481 -0.020651 0.390357 0.683284 -0.677135 0.355393 0.009786 -0.495702 -0.119869 -0.250304 0.803568 -0.685411 0.111681 -0.241115 -0.242447 0.404627 -0.590880 0.175941 -0.331131 0.326991 0.124049 -0.009259 0.039044 0.567072 -0.396640 -0.315393 -0.345029 0.079946 -0.272841 -0.263599 0.483676 -0.396834 0.613066 0.073571 0.103618 0.486314 0.463118 0.673864 0.164833 -0.064740 -0.036289 -0.113683 -0.830732 0.108099 -0.230527 0.154744 -0.548952 0.655637 0.313100 -0.454972 -0.480762 -0.113843 -0.145494 -0.127092 -0.790977 0.261491 0.416585 -0.363691 -0.279566 -0.067769
complex 0.181603 0.029465 0.028712 -0.098903 0.230801 -0.825679 -0.164650 -0.017297 0.031740 -0.198588 0.435570 -0.052972 -0.476817 -0.126450 -0.388230 -0.163491 0.118826 -0.394902 -0.087498 0.242987 -0.402338 -0.136833 -0.243472 0.133394 0.206390 0.336043 0.172993 -0.386271 0.261920 -0.568270 0.306299 -0.228368 0.039645 -1.025094 0.634857 -0.729528 -0.245723 0.134096 -0.129704 0.463381 0.231755 0.082905 0.404413 0.101347 -0.594994 -0.090542 0.099173 -0.475376 -0.195219 -0.201383 0.488964 -0.565403 0.132280 -0.268407 0.197897 0.541458 -0.273683 0.443187 -0.039000 0.239189 -0.116928 0.151823 0.184369 0.291636 -0.414270 0.313395 -0.592492 -0.035900 -0.281400 0.012572 0.021386 0.123125 0.539946 -0.175842 0.108004 0.319512 0.312801 0.517693 -0.267574 -0.517705 0.038977 0.033691 -0.306867 -0.295430 -0.170523 0.199305 -0.342436 -0.114830 -0.089213 -0.369259 -0.311542 0.119950 -0.324485 0.084785 -0.522526 0.549875 0.712363 -0.259361 -0.328254 0.010528
not -0.027584 0.276281 0.143710 -0.089043 0.220455 -0.756017 -0.124904 -0.012029 0.073912 -0.062313 0.327501 -0.186565 -1.024974 -0.426550 -0.095068 0.611472 0.123237 -0.306758 -0.169549 -0.083618 -0.685026 0.313042 -0.120803 0.008466 -0.039202 0.601243 0.312074 -0.138810 0.623478 -0.250542 0.497960 -0.179399 -0.128611 -0.923721 0.206472 -0.475748 -0.734194 0.205005 -0.190719 0.238398 0.148359 0.132412 0.146192 -0.278014 -0.384754 -0.088811 0.199565 0.045766 0.094668 -0.226296 0.335745 -0.561311 0.326673 0.109406 0.076427 0.350724 -0.278450 0.837379 0.233010 -0.196328 -0.177688 0.046318 -0.160928 0.080834 -0.135145 1.030673 -0.621042 -0.197284 0.051759 0.291738 0.009129 0.190357 0.542229 0.130799 0.201130 0.127903 0.270391 0.147269 -0.219252 -0.439153 -0.308362 0.078396 -0.041486 0.013703 -0.017149 0.278271 -0.389195 -0.515625 0.041276 -0.379302 0.193427 0.055434 0.319498 -0.049152 0.157308 0.373321 0.786355 -0.298479 -0.434426 -0.150074
caramel 0.024925 0.169847 -0.009359 0.145044 0.261644 -0.681363 0.176485 0.240790 0.006127 -0.279199 0.182696 0.382196 0.183243 0.127451 -0.461928 -0.383536 -0.153044 -0.179002 -0.430137 0.398876 0.115185 0.038526 -0.474769 -0.070855 0.330794 0.156409 0.057353 -0.334144 0.148752 -0.825284 -0.008688 -0.013676 0.353805 -0.890945 0.554426 0.079842 -0.040971 0.134400 -1.045407 0.943744 -0.143983 -0.149148 0.303576 0.725333 -0.663999 0.275173 0.134366 -0.413490 -0.051787 -0.120417 0.822127 -0.620300 0.221443 -0.242949 -0.167305 0.502292 -0.445405 0.171158 -0.384666 0.347693 0.241242 -0.179896 0.096544 0.693388 -0.325678 -0.257827 -0.318686 0.072150 -0.258538 -0.227696 0.341453 -0.334114 0.573261 0.214685 0.058649 0.460135 0.269166 0.723446 0.428260 -0.009520 0.070010 -0.152219 -0.672559 0.035943 -0.354702 0.364493 -0.483131 0.784144 0.275070 -0.297866 -0.460148 -0.233650 -0.255263 -0.286179 -0.740385 0.249304 0.382361 -0.235099 -0.268618 0.068791
finish 0.331083 0.115464 -0.499823 -0.046273 -0.381241 -0.507269 -0.148335 -0.015496 0.281126 -0.282716 0.821371 0.203216 -0.150409 -0.279985 -0.013394 0.319677 0.267421 -0.291967 -0.292389 0.260333 -0.720084 0.174438 0.396742 0.025231 0.194494 0.538150 -0.253041 -0.217072 0.087025 -0.378787 0.271750 0.078432 0.367353 -0.927964 0.446567 -0.015402 -0.880825 0.243670 -0.761218 -0.085014 0.556316 -0.092048 0.137494 -0.380585 -0.355169 0.244785 -0.186730 0.024482 -0.005823 0.214866 0.183392 -0.623414 0.121966 0.434255 -0.063902 0.299780 -0.107948 0.259802 0.157598 -0.298495 0.183142 -0.062602 -0.485885 0.513297 -0.370537 0.054070 -0.194121 0.317372 -0.583905 0.084299 0.375149 -0.068708 1.223943 0.404212 0.018904 0.449953 0.247182 0.736744 -0.042362 -0.343751 -0.315458 0.064215 -0.109183 -0.064134 0.004574 0.148057 -0.386242 0.029822 0.522102 -0.528247 -0.742046 0.256684 0.195503 0.209950 -0.287221 0.554238 0.625030 -0.075318 -0.263141 -0.379503
plum 0.175500 0.197702 0.059294 0.066054 0.382079 -0.762837 0.219786 0.240111 -0.091878 -0.477992 0.036345 0.368818 0.009788 0.310285 -0.368139 -0.472370 0.168252 -0.066477 -0.488452 0.628692 -0.006390 -0.031001 -0.537358 -0.131146 -0.065453 0.039987 0.053230 -0.206751 -0.113337 -0.878577 -0.079989 -0.080746 0.263277 -0.805856 0.479037 -0.207956 0.127146 -0.085517 -1.011021 0.983973 -0.227284 -0.285391 0.401182 0.555745 -0.976399 0.187090 0.133280 -0.567326 -0.024042 -0.106110 0.807339 -0.663113 0.194812 -0.556112 0.089717 0.650055 -0.220673 0.205687 -0.197445 0.543004 0.456545 -0.251522 0.326568 1.000741 -0.182528 -0.058837 -0.119965 0.280686 -0.167752 -0.430632 0.073105 -0.323170 0.507287 0.037262 0.114014 0.374529 0.246538 0.393990 0.220278 -0.113346 0.165152 -0.241184 -0.365695 -0.008027 -0.224266 0.756295 -0.373961 0.434142 0.094234 -0.332679 -0.522202 -0.193031 -0.657578 -0.447685 -0.516643 0.289977 0.189420 0.015111 -0.252794 0.505257
nice 0.115498 -0.199854 -0.156206 0.097986 0.328104 -0.490937 -0.225595 0.124880 -0.010340 0.100021 0.394089 0.192075 -0.242443 -0.121395 -0.331894 0.004568 0.266383 -0.360722 -0.221765 -0.150660 -0.437473 -0.163062 -0.117260 0.144383 0.322360 0.204275 0.078575 -0.216500 0.474907 -0.173282 0.168208 -0.046420 0.333415 -1.097888 0.344532 0.099473 -0.310953 0.543782 -0.698943 0.328502 0.283254 -0.024166 -0.002426 0.084072 -0.314998 -0.266231 0.382232 -0.093809 0.067472 -0.056566 0.475757 -0.450664 0.309629 0.308521 0.091508 0.247411 -0.390225 0.109925 0.072759 0.131619 -0.067864 -0.056264 0.082132 0.212687 -0.181364 0.339304 -0.440275 -0.212567 -0.511999 0.345190 0.184913 0.263124 0.647054 0.385028 -0.131464 0.352203 0.125213 0.751875 0.298060 -0.222566 -0.121574 0.044899 -0.137683 -0.164088 -0.365114 0.636154 -0.186678 0.218453 0.075427 -0.126962 -0.385343 -0.295349 -0.139339 -0.085932 -0.315207 0.489514 0.675457 -0.208808 -0.354869 -0.274561
on 0.032371 -0.068407 0.285584 0.430802 0.299622 -0.687264 -0.237978 0.133323 -0.149528 0.039293 0.623249 -0.290459 -1.184603 -0.481119 0.454466 0.224369 0.356955 -0.678200 -0.269527 0.168091 -0.384472 -0.191724 -0.513332 0.247291 -0.217883 -0.116070 0.279586 -0.021547 0.595786 0.202049 0.608179 -0.311180 -0.183582 -0.642409 0.143227 -0.340798 -0.300308 0.308562 0.112649 0.196587 -0.050563 0.304217 0.216783 -0.377734 0.087548 -0.433292 0.282652 -0.337665 -0.219361 -0.348315 0.013341 -0.311149 -0.056501 0.070576 0.109290 0.328244 0.033966 1.093486 0.085940 -0.141407 0.033720 -0.310084 0.221920 -0.114073 0.106172 0.986658 -0.492387 -0.548394 0.130758 0.298036 -0.110096 0.674396 0.561858 -0.040746 0.128710 -0.032877 -0.180601 0.239181 -0.154302 -0.381623 0.120550 0.077314 -0.151016 -0.564124 -0.222431 0.024500 -0.251525 -0.548716 -0.430951 -0.296956 0.243706 0.221256 0.349547 -0.104167 0.000421 0.356417 0.775221 0.197735 -0.251267 0.061917
color -0.126332 -0.360789 0.032680 0.068060 0.895362 -0.264116 -0.275962 0.508517 -0.292171 0.332214 0.170197 0.303799 -0.052171 0.125607 0.002467 -0.452230 -0.091872 -0.461423 -0.474558 -0.246043 -0.129557 -0.180690 -0.671280 -0.018668 0.039106 -0.069601 0.112975 -0.232428 0.603864 0.249898 0.128551 0.251780 0.747252 -0.766244 -0.166545 0.339760 0.451810 0.513431 -0.854079 0.718493 -0.223823 -0.206481 -0.068042 0.373490 -0.109482 -0.280239 1.049206 0.119642 0.083218 -0.244130 0.759648 -0.268913 0.469336 0.143729 -0.247391 0.116838 -0.104640 -0.311894 -0.127030 0.191190 -0.017216 -0.176876 0.640754 -0.200380 -0.118305 0.513951 0.081970 -0.825210 -0.394686 0.522899 -0.049469 0.266302 -0.021726 0.606011 -0.427066 0.055390 0.172188 0.796806 0.497346 0.226071 0.303885 -0.007899 -0.011428 -0.132171 -0.737260 0.864150 0.013502 0.668307 -0.031602 0.203983 -0.318991 -0.860219 -0.302354 -0.735890 -0.500147 0.268661 0.236536 0.059336 0.068524 0.105054
chocol 0.124531 0.067084 -0.099010 0.175351 0.269737 -0.567444 0.139660 0.237879 -0.034381 -0.329284 0.197482 0.377116 0.135699 0.075334 -0.395574 -0.235333 -0.087180 -0.246303 -0.422433 0.265421 0.020492 0.064447 -0.391735 -0.071216 0.281564 0.007757 -0.028090 -0.362967 -0.039395 -0.735065 0.007484 -0.034603 0.323396 -0.775827 0.542373 0.132982 -0.148435 0.234066 -0.995510 0.745299 -0.174115 -0.208190 0.221589 0.575384 -0.616448 0.264394 0.049923 -0.449335 -0.059415 0.027318 0.610072 -0.572700 0.179514 -0.150910 -0.193500 0.571478 -0.383830 0.238430 -0.415117 0.192215 0.377527 -0.298068 -0.004012 0.643183 -0.254914 -0.225837 -0.303077 0.065031 -0.259887 -0.219548 0.296775 -0.281483 0.665324 0.188494 0.105319 0.357301 0.023193 0.662027 0.450759 0.022994 0.092227 -0.032440 -0.595682 -0.044641 -0.262778 0.348626 -0.519139 0.674512 0.309809 -0.228672 -0.392044 -0.174705 -0.112629 -0.204516 -0.581790 0.192196 0.363295 -0.117117 -0.265969 0.013600
good 0.050254 -0.215936 0.090867 -0.039141 0.184042 -0.584057 -0.104140 0.032799 -0.105582 0.101606 0.301275 -0.171409 -0.613265 -0.131788 -0.166131 0.275502 0.226583 -0.393988 -0.191634 -0.225101 -0.474379 -0.275276 -0.168698 -0.056257 0.036938 0.165130 0.127752 -0.210858 0.543352 -0.256365 0.224251 -0.081624 0.053988 -1.020796 0.274312 -0.316156 -0.255191 0.373835 -0.143358 0.349096 0.220839 0.175186 0.057509 -0.097365 -0.288195 -0.440799 0.303206 -0.113772 0.066102 -0.097986 0.362169 -0.371568 0.180190 0.137298 0.337987 0.225545 -0.239099 0.535503 0.310634 0.274116 -0.146589 0.291222 0.057094 0.177473 -0.127086 0.719460 -0.594920 -0.360556 -0.324917 0.281874 -0.133809 0.262997 0.280144 0.050280 0.009677 0.194383 0.285369 0.411599 -0.149480 -0.514249 -0.088335 0.026925 -0.021285 -0.100260 -0.153533 0.532580 -0.139475 -0.501775 -0.105819 -0.273407 -0.025187 -0.009835 -0.073138 0.224900 -0.237802 0.480094 0.719106 -0.240037 -0.337411 -0.289459
bodi 0.414227 -0.109912 -0.721708 -0.321734 0.147838 -0.443779 -0.346347 0.252961 0.148968 0.319150 0.608857 -0.265512 0.522423 -0.562159 -0.549980 -0.189994 0.278760 -0.105344 -0.187494 -0.339542 -0.989029 0.145620 0.017165 0.282530 -0.094128 0.708904 0.062999 -0.334359 0.392782 0.257951 0.361360 0.304477 0.539584 -1.009604 0.134510 0.064365 -0.573052 0.330558 -0.853337 -0.217883 0.040219 0.289627 0.007366 -0.273191 -0.598010 0.144676 0.419341 0.628664 0.251951 0.059188 0.395718 -0.582993 0.551572 0.527900 0.077036 0.193630 0.046976 -0.341371 -0.047178 0.004993 0.141899 0.194943 0.281516 0.347369 -0.381238 0.226248 -0.001695 -0.466723 -0.756719 0.452584 0.202709 -0.353606 0.963337 0.502634 0.011052 0.325830 0.347550 0.920437 0.211959 -0.529126 -0.018708 0.015572 -0.281089 -0.338022 0.027608 0.581403 -0.336626 0.581957 -0.156743 -0.211331 -1.017122 -0.128042 -0.455800 -0.190168 -0.680351 0.607118 0.638247 0.032360 -0.385476 0.094726
carbon 0.567784 -0.232323 -0.462034 -0.045477 -0.253782 -0.308053 -0.360420 -0.090515 0.182358 0.058712 0.474610 -0.343877 0.174317 -0.397629 -0.451942 0.280184 0.090465 -0.073379 -0.204798 -0.293239 -0.795085 0.160518 0.178415 -0.182682 0.020738 0.393941 -0.097601 -0.436410 0.333492 -0.168972 0.396728 0.333472 0.171583 -1.066077 -0.055427 0.078821 -0.565479 0.413399 -0.543120 -0.141078 0.390034 0.393851 0.121161 -0.348084 -0.255044 0.095401 0.094344 0.247972 0.282522 0.242219 0.220140 -0.482293 0.367559 0.712963 0.369604 0.072337 -0.036859 0.007490 0.030985 0.217173 -0.018019 0.390396 0.179340 0.487182 -0.186885 0.385910 -0.291105 -0.194279 -0.606421 0.425384 0.198417 -0.153558 0.899586 0.296598 -0.077553 0.358736 0.568243 0.877059 0.086903 -0.591424 -0.300678 -0.127216 0.063873 -0.031699 0.305393 0.781090 -0.305406 0.098287 -0.011370 -0.296054 -0.695446 0.101000 -0.126072 0.231458 -0.295206 0.427534 0.609787 -0.254162 -0.565897 -0.159577
s -0.081950 -0.037961 0.133870 0.056755 0.325646 -0.718046 -0.035308 0.119343 -0.164740 0.035782 0.122146 -0.207283 -0.701489 -0.294167 -0.126770 0.248518 0.350667 -0.420255 -0.167254 0.164883 -0.396993 -0.079175 -0.354400 0.148061 0.043475 -0.000810 0.162822 -0.049671 0.277560 -0.237719 0.439783 -0.158101 -0.089657 -0.573970 0.306958 -0.133298 -0.396064 0.211159 -0.155739 0.215205 -0.105415 0.179168 0.236319 -0.215080 -0.406018 -0.256111 0.197614 -0.292533 0.098406 -0.205953 0.259720 -0.494362 0.077630 -0.166937 0.278063 0.435339 -0.074080 0.802852 0.024005 0.061938 0.085491 -0.299955 0.024536 0.124184 -0.182884 0.661964 -0.405978 -0.231269 0.003881 0.200922 0.039471 0.300261 0.405251 0.153455 0.217296 0.038384 -0.129283 0.113114 -0.056364 -0.183905 -0.000898 0.056160 -0.174659 -0.201319 0.039223 0.239507 -0.359659 -0.299881 -0.305844 -0.323058 0.029992 0.065856 0.136087 -0.066692 -0.115130 0.172606 0.661098 -0.047475 -0.467118 -0.025091
full 0.404351 0.037356 -0.689805 -0.293358 0.078725 -0.588265 -0.234255 0.220923 0.096345 0.110846 0.588262 -0.266244 0.394344 -0.430932 -0.588955 -0.189440 0.246730 -0.122518 -0.184269 -0.116706 -0.880936 0.144200 0.017911 0.323318 -0.050141 0.654515 0.084859 -0.338844 0.300842 0.052386 0.386417 0.158086 0.375970 -0.967882 0.255690 -0.146118 -0.597275 0.158722 -0.685067 -0.089463 -0.012716 0.269477 0.133327 -0.158301 -0.666164 0.168583 0.213887 0.317246 0.141833 -0.016547 0.408157 -0.697168 0.503742 0.334740 0.084023 0.346076 0.014693 -0.140076 -0.077961 0.065098 0.122238 0.181002 0.156371 0.424343 -0.417951 0.155538 -0.104711 -0.366444 -0.641750 0.264999 0.180383 -0.385131 0.890332 0.269526 0.111819 0.375862 0.331755 0.833667 0.099871 -0.614378 -0.106088 0.000139 -0.376909 -0.323622 0.017884 0.419340 -0.381291 0.404335 -0.155224 -0.343992 -0.890934 0.032671 -0.438261 -0.110903 -0.678944 0.534380 0.620006 0.016915 -0.357859 0.217049
great 0.211611 -0.151121 0.127483 0.048506 0.230466 -0.564542 -0.222213 0.089809 0.026160 -0.004330 0.530645 -0.105159 -0.639767 -0.191481 -0.120534 0.153434 0.141671 -0.348693 -0.253089 -0.081585 -0.351101 -0.320186 -0.207441 0.087140 0.053416 0.098041 0.183035 -0.201835 0.422734 -0.095182 0.255514 -0.123080 0.086848 -1.072301 0.371972 -0.471907 -0.236850 0.334887 -0.062603 0.197849 0.158108 0.191912 0.154401 -0.080446 -0.276074 -0.406040 0.113157 -0.222414 -0.140257 -0.145521 0.262167 -0.407637 0.140430 0.083175 0.132533 0.380228 -0.056240 0.528520 0.134954 0.131894 -0.100138 0.066450 0.181725 0.053373 -0.081938 0.687601 -0.530484 -0.324879 -0.263175 0.245229 -0.106763 0.396813 0.520762 -0.142325 -0.146832 0.143486 0.140554 0.461715 -0.088859 -0.540674 -0.080261 0.114013 -0.184377 -0.345395 -0.297590 0.327982 -0.134263 -0.365517 -0.084216 -0.275936 -0.101188 0.114199 -0.042580 0.128849 -0.358354 0.686809 0.731615 -0.216841 -0.239061 -0.162332
t -0.408901 0.041118 -0.414623 -0.477088 0.015599 -0.610138 0.415672 0.197116 -0.974247 0.454997 -0.029594 -0.358782 -0.410687 0.493824 -0.273247 0.854318 0.475160 -0.967712 -0.162830 0.257119 -0.085381 0.337080 0.107987 0.236687 0.406367 -0.188903 -0.266511 -0.325262 0.415663 -0.171343 0.665339 0.029968 -0.018625 -0.629738 0.386327 0.389158 -0.373354 0.158286 0.351378 -0.052043 -0.728362 0.439498 -0.257992 -0.042199 0.265817 -0.751061 0.222407 -0.632185 0.313692 0.171740 0.340774 -0.454134 0.104154 -0.523210 0.787209 0.460978 -0.002335 0.760610 0.865683 0.254928 0.161183 0.686199 0.050665 0.650133 -0.385659 0.480177 -0.569913 -0.129103 0.174443 0.683227 -0.643991 0.240798 -0.069307 -0.180599 0.594960 0.241474 0.304167 0.233476 -0.362534 -0.042430 -0.351580 0.424453 -0.462834 -0.370779 0.233155 0.082271 -0.592062 -1.084511 -0.770467 -0.791527 0.220893 0.510549 0.558266 0.244989 -0.498742 -0.399154 0.921173 0.092046 -0.440539 0.021083
smooth 0.307449 -0.007140 -0.465117 -0.186096 0.027518 -0.680546 -0.169561 0.021499 0.232500 0.045063 0.588861 -0.127083 -0.125953 -0.488525 -0.420281 0.067877 0.301074 -0.203890 -0.102204 -0.007541 -0.889796 0.007259 0.063332 0.232172 0.021461 0.368989 -0.094266 -0.320375 0.071724 -0.234388 0.296910 -0.048701 0.289289 -0.884328 0.410444 -0.177148 -0.648767 0.299344 -0.413230 -0.194372 0.160963 0.209960 0.189330 -0.358457 -0.574016 -0.008491 0.108622 0.107129 0.112725 0.168124 0.190025 -0.489839 0.224639 0.151877 0.114809 0.426428 -0.076694 0.229702 -0.008094 -0.071665 0.089919 0.052215 0.077514 0.433740 -0.419950 0.313951 -0.262142 -0.067953 -0.337069 0.359460 0.110765 -0.110625 1.035771 0.241872 0.101729 0.368582 0.170987 0.614804 -0.076847 -0.487469 0.026079 0.116319 -0.123082 -0.363368 0.101202 0.237074 -0.401341 0.096569 -0.072656 -0.424528 -0.692732 0.193815 -0.209803 0.125680 -0.461090 0.609405 0.722173 -0.057683 -0.387912 -0.089345
light 0.253341 -0.183213 -0.127937 0.073959 0.276558 -0.213793 -0.020702 0.135489 -0.096817 -0.048993 0.275661 0.349834 0.574343 -0.039706 -0.330308 -0.211384 0.121876 -0.254399 -0.177547 -0.357017 -0.191367 0.111455 -0.145076 0.035750 0.176846 0.159383 0.127192 -0.405133 0.198473 -0.144846 -0.017913 0.396107 0.494182 -0.833208 0.095844 0.401125 -0.076071 0.322197 -0.908481 0.407539 0.076900 -0.116647 -0.040450 0.486335 -0.213923 0.084509 0.473274 0.092115 0.046505 0.230903 0.511907 -0.286419 0.555517 0.414012 -0.075422 0.085773 -0.392333 -0.190141 -0.301724 0.068957 0.151162 0.045576 0.095876 0.386634 -0.214611 -0.045530 -0.258753 -0.226342 -0.499680 0.134734 0.045930 -0.305644 0.562529 0.524546 -0.201385 0.371199 0.121287 0.956961 0.658065 -0.107176 -0.125588 -0.194999 -0.245701 -0.040038 -0.424173 0.588562 -0.267999 0.777863 0.198202 0.117074 -0.305351 -0.427569 -0.367306 -0.258346 -0.319489 0.257235 0.296111 -0.066384 -0.159244 0.003088
yeast -0.036450 0.205408 0.106132 0.135515 0.457029 -0.297657 -0.058554 0.193328 0.148309 -0.143782 0.036435 0.269905 -0.028650 0.289301 -0.479977 -0.295032 -0.361220 -0.011819 -0.518655 0.363723 0.444515 -0.260327 -0.369945 -0.110020 0.431524 0.047138 0.392927 -0.170392 0.291615 -0.421556 -0.024341 0.196499 0.204555 -0.796194 0.537796 -0.115027 0.012039 0.177935 -0.758069 0.787245 -0.131720 -0.149223 0.227922 0.604333 -0.613457 0.202008 -0.171829 -0.239557 -0.026859 -0.287432 0.623985 -0.473060 0.057912 -0.387104 -0.092729 0.360726 -0.343053 0.075297 -0.254892 0.394014 -0.036010 -0.178136 0.289428 0.589015 -0.032097 -0.003812 -0.325174 0.133466 -0.093607 -0.164505 0.160163 -0.105683 0.413351 -0.163840 -0.235486 0.236298 0.357115 0.430228 0.425549 0.012363 -0.052160 0.027996 -0.857166 0.150552 -0.344269 0.488000 -0.310226 0.488142 0.335486 -0.301084 -0.473737 -0.055048 -0.137551 -0.172291 -0.710143 0.151432 0.358696 -0.461940 -0.332707 0.039097
note 0.091891 0.220505 -0.101628 -0.027696 0.044536 -0.564691 0.076653 0.090768 0.048354 -0.324572 0.196482 0.221546 0.049459 0.085266 -0.377087 -0.176793 -0.035049 -0.059641 -0.337856 0.533819 -0.004602 0.003481 -0.125620 -0.015727 0.249819 0.223161 -0.011696 -0.232089 0.022415 -0.745950 0.013142 -0.117440 0.160757 -0.716483 0.511079 -0.145591 -0.197762 -0.012215 -0.690729 0.595741 0.005417 -0.132980 0.272233 0.384296 -0.652923 0.272398 -0.163122 -0.367235 -0.003374 -0.107650 0.571133 -0.569214 0.067891 -0.292540 -0.008932 0.469711 -0.297220 0.109703 -0.254970 0.293407 0.134550 -0.079186 -0.042486 0.604933 -0.240120 -0.177499 -0.262144 0.262185 -0.211990 -0.214753 0.312852 -0.208706 0.546279 -0.005454 0.112847 0.364029 0.292837 0.481451 0.147808 -0.107544 -0.066591 -0.086074 -0.501158 0.051996 -0.087499 0.288543 -0.470228 0.366928 0.249799 -0.398917 -0.483785 0.036174 -0.204765 -0.105129 -0.552030 0.197257 0.331611 -0.228914 -0.254190 0.078683
warm 0.324282 0.095853 -0.282212 0.012738 -0.200281 -0.429862 -0.130530 -0.016216 0.132644 -0.237481 0.518854 -0.016694 -0.193402 -0.316370 -0.284832 0.345168 0.187170 -0.179293 -0.204005 0.160823 -0.427141 0.053959 0.252908 0.057904 0.242930 0.354244 -0.193334 -0.253620 -0.033151 -0.369784 0.215229 -0.103335 0.069904 -0.708786 0.427072 -0.060230 -0.835612 0.275687 -0.311118 -0.010343 0.308479 0.049697 0.122571 -0.252354 -0.266330 0.102251 -0.312496 -0.140132 0.094465 0.261523 0.152703 -0.442873 0.043730 0.236160 0.122283 0.381589 -0.179585 0.269771 -0.085062 -0.060790 0.017287 -0.056315 -0.328287 0.406315 -0.096225 0.215397 -0.382691 0.181635 -0.228948 0.211651 0.276945 0.066118 0.917151 0.099526 0.160078 0.390510 0.119498 0.594491 0.022235 -0.336182 -0.283840 0.027469 -0.227922 -0.139580 0.226397 0.175237 -0.488530 -0.130445 0.207256 -0.404747 -0.474881 0.291630 0.139060 0.180174 -0.295196 0.379330 0.672260 -0.246819 -0.433891 -0.171031
bitter 0.303854 0.195106 -0.514383 -0.097239 -0.358855 -0.436098 -0.027379 -0.031407 0.286562 -0.297748 0.743639 0.194078 0.011096 -0.338747 -0.259944 0.337844 0.055688 -0.098694 -0.186971 -0.002880 -0.615463 0.427259 0.271172 -0.051714 0.152448 0.646648 -0.117112 -0.345867 0.231834 -0.543266 0.213887 0.140014 0.233598 -0.992354 0.367663 0.115993 -0.806034 0.117802 -1.010238 0.086916 0.391358 -0.013213 -0.050720 0.042437 -0.371656 0.516405 -0.186246 0.215893 0.146710 0.340927 0.288976 -0.601812 0.353553 0.518963 -0.112011 0.252344 -0.310651 0.126066 -0.053308 -0.188644 0.113109 0.160790 -0.522163 0.603654 -0.381650 -0.178188 -0.416232 0.238644 -0.585031 -0.040529 0.327809 -0.441119 1.140540 0.431827 0.162821 0.519574 0.308110 0.767640 0.230600 -0.336836 -0.459742 0.029819 -0.211341 0.106015 -0.079486 0.125524 -0.434678 0.296227 0.574099 -0.378139 -0.540628 0.152335 0.057942 0.177341 -0.261893 0.362435 0.523141 -0.150193 -0.352263 -0.263582
sugar -0.201837 0.373718 -0.071686 -0.069355 0.105370 -0.537016 0.189311 0.400117 0.158085 -0.294095 0.119630 0.360900 -0.067810 0.185919 -0.206355 -0.182299 -0.431409 0.109272 -0.726279 0.905166 0.238655 0.000975 -0.462744 -0.318036 0.158819 0.183623 -0.098409 -0.131912 0.162441 -0.717466 -0.081610 0.074914 0.406444 -0.547832 0.321004 0.090057 -0.006589 0.012615 -1.221418 1.074885 -0.357993 -0.266394 0.426113 0.487594 -0.772141 0.418421 -0.041646 0.023152 0.120854 -0.180577 0.888274 -0.612786 0.010396 -0.489049 -0.139360 0.466130 -0.077955 0.087095 -0.210449 0.288057 0.099861 -0.049500 0.075493 0.792386 -0.199644 -0.146638 -0.132754 0.124798 -0.071862 -0.102928 0.358269 -0.231785 0.355326 0.103515 -0.112522 0.338805 0.536535 0.364307 0.255159 0.168146 0.055330 -0.004030 -0.589425 0.223142 -0.191851 0.257378 -0.193313 0.461027 0.398230 -0.688622 -0.834263 0.031616 -0.031263 -0.412173 -0.818251 0.069847 0.228891 -0.134807 -0.205205 0.048004
medium 0.319141 -0.190926 -0.588862 -0.184094 0.108435 -0.368062 -0.200835 0.171378 0.075268 0.206829 0.549299 0.000770 0.472726 -0.394324 -0.380223 -0.182262 0.324302 -0.108327 -0.060389 -0.306816 -0.882394 0.273205 0.038235 0.171759 -0.058039 0.622431 -0.009299 -0.295486 0.502209 0.056839 0.266424 0.379000 0.560970 -0.981965 -0.030508 0.318085 -0.447131 0.236953 -1.098321 0.011512 0.229994 0.156703 -0.097408 -0.040258 -0.459963 0.222130 0.628850 0.595907 0.241940 0.058941 0.437840 -0.597741 0.666632 0.596819 0.054929 0.036132 -0.148797 -0.276607 -0.051200 -0.036250 0.029614 0.169391 -0.035082 0.268629 -0.466539 0.038648 -0.144072 -0.319668 -0.834412 0.290922 0.298362 -0.366766 0.889567 0.805317 0.068033 0.365197 0.254149 0.890805 0.396954 -0.296345 -0.123096 -0.070692 -0.059570 -0.084709 -0.257869 0.585975 -0.205370 0.726055 0.080481 -0.060175 -0.718012 -0.330404 -0.458055 -0.237914 -0.373068 0.446015 0.462156 0.041390 -0.358823 -0.108071
strong 0.064810 0.054308 0.083788 -0.025768 0.393810 -0.597708 -0.150520 0.090988 -0.005814 -0.132597 0.295539 -0.079006 -0.434603 0.051216 -0.399514 -0.031356 -0.074877 -0.256595 -0.262422 0.159748 -0.102528 -0.127929 -0.272588 -0.093855 0.228998 0.270604 0.209874 -0.285943 0.386207 -0.501035 0.245193 0.001883 0.020094 -1.021467 0.423782 -0.355397 -0.207741 0.125864 -0.380430 0.531551 0.114464 0.095048 0.175046 0.175965 -0.492982 -0.059779 0.102104 -0.376248 -0.019054 -0.161986 0.513926 -0.538882 0.174794 -0.166423 0.202191 0.454461 -0.305154 0.452394 0.027250 0.349796 -0.067144 0.015232 0.205361 0.384400 -0.188732 0.388382 -0.494887 -0.043128 -0.119788 0.058201 0.030654 0.105104 0.532062 -0.080476 -0.011576 0.250898 0.318483 0.515119 0.061789 -0.294693 -0.154491 -0.019307 -0.408231 -0.019441 -0.189118 0.503875 -0.338368 -0.061064 0.078208 -0.345792 -0.185250 -0.020407 -0.125974 -0.117084 -0.442462 0.355818 0.571386 -0.367758 -0.380540 0.014536
bit -0.002176 0.112779 0.115456 0.099539 0.011072 -0.435063 0.042192 0.197892 0.115978 -0.245980 0.312253 0.101010 -0.335613 -0.134378 -0.180060 0.300186 0.014005 -0.213639 -0.361922 0.074297 -0.120466 0.054719 -0.153079 -0.149206 0.189597 0.174507 0.011398 -0.235600 0.233703 -0.521129 0.074163 -0.013825 0.148053 -0.792573 0.391067 0.024320 -0.568829 0.171956 -0.757933 0.436611 0.053426 -0.097277 0.112422 0.179566 -0.271572 0.141101 -0.072230 -0.222486 0.332365 0.211505 0.358321 -0.468976 0.169291 0.073967 0.096545 0.365834 -0.452414 0.466029 -0.093567 0.238876 0.055364 0.004373 -0.262666 0.557870 0.032129 0.350810 -0.513032 -0.017979 -0.119746 0.136699 0.045668 -0.100876 0.533381 0.207707 0.128378 0.343406 0.197763 0.474469 0.248528 -0.248926 -0.232284 0.007681 -0.169247 0.136802 -0.070976 0.346707 -0.479206 -0.013830 0.396467 -0.191005 -0.235532 -0.012286 0.113145 0.090168 -0.218780 0.188221 0.469303 -0.157526 -0.436069 -0.006525
tan 0.127874 -0.580192 0.300673 0.055712 0.517545 0.073757 -0.224120 0.192095 -0.229657 0.131940 0.427188 0.440630 0.506592 0.305790 -0.057403 -0.416840 -0.078859 -0.634673 -0.096701 -0.730192 -0.044025 -0.095133 -0.095787 -0.092814 0.207088 0.169605 -0.012416 -0.601358 0.596107 0.260950 -0.216941 0.537674 0.722156 -0.861250 -0.245122 0.242922 0.444598 0.289178 -0.610957 0.608980 0.291528 -0.178228 -0.033994 0.625859 0.405137 -0.231626 1.006085 0.007520 0.006426 0.181446 0.508512 0.033143 0.626874 0.473004 -0.027151 -0.266979 -0.589338 -0.353190 0.082149 0.252878 -0.178594 0.434918 0.424382 0.140936 -0.004427 0.321501 -0.292250 -0.669951 -0.475743 0.423900 -0.392053 -0.034186 -0.046025 0.486398 -0.617396 0.346816 0.493673 1.272491 0.625026 -0.343007 -0.249935 -0.427675 0.123471 -0.003861 -0.975885 0.711463 0.192747 0.629517 0.315778 0.388763 -0.085880 -0.825149 -0.602259 -0.436076 -0.126627 0.393465 0.076945 0.096975 0.271936 0.136341
rich 0.167083 -0.136697 -0.136390 -0.050474 0.346436 -0.678701 -0.107714 0.042981 -0.000114 -0.063124 0.311055 0.060618 0.013180 -0.171856 -0.499800 -0.396489 0.115384 -0.319915 -0.075646 0.013710 -0.483219 -0.087783 -0.306773 0.200697 0.234275 0.310211 0.105144 -0.327089 0.195283 -0.414355 0.220907 -0.067413 0.253129 -0.941247 0.451966 -0.167644 -0.135976 0.243897 -0.548212 0.360707 0.107506 0.110878 0.217983 0.178247 -0.547552 -0.059548 0.439284 -0.269887 -0.130710 -0.159993 0.522321 -0.484003 0.334697 -0.064324 0.067001 0.401649 -0.323864 0.204798 -0.155479 0.177233 0.066015 -0.032137 0.261992 0.272416 -0.503419 0.013453 -0.349594 -0.140478 -0.382940 0.064303 0.195065 -0.015626 0.637556 0.222860 0.063162 0.355859 0.153063 0.661225 0.069539 -0.302941 0.141489 -0.017846 -0.338724 -0.258035 -0.307024 0.326598 -0.292691 0.447444 -0.076075 -0.203751 -0.389255 -0.213022 -0.408001 -0.150410 -0.555905 0.503170 0.562114 -0.124162 -0.324777 -0.041785
creami 0.374515 -0.322545 -0.197298 -0.157228 0.273341 -0.335594 -0.247654 0.116556 0.128862 0.206372 0.633819 0.154294 0.469594 -0.341310 -0.322221 -0.224284 0.249240 -0.314060 -0.044222 -0.521751 -0.721127 -0.014497 0.072317 0.254135 0.098958 0.411118 -0.055913 -0.473128 0.321606 0.185504 -0.009808 0.281363 0.632170 -1.025197 0.098117 0.116001 -0.268574 0.389879 -0.639871 -0.076370 0.310890 0.082580 0.081252 -0.026812 -0.188453 -0.097188 0.702303 0.269377 0.115506 0.215674 0.361488 -0.259511 0.489522 0.491167 0.006522 -0.034790 -0.307994 -0.206027 0.029768 0.042803 0.024804 0.260736 0.349125 0.282508 -0.253240 0.371568 -0.168068 -0.436643 -0.554906 0.563309 -0.034099 -0.072791 0.782991 0.509786 -0.304325 0.445162 0.334254 1.064135 0.382125 -0.481480 -0.113012 -0.164969 -0.019172 -0.331838 -0.439276 0.534755 -0.212764 0.539656 0.037280 0.030821 -0.620048 -0.324130 -0.515897 -0.176017 -0.356437 0.764280 0.528369 0.048448 -0.114775 -0.021655
fruiti 0.125033 0.091997 0.027786 -0.049250 0.055732 -0.671751 -0.009396 -0.014344 0.015349 -0.229253 0.434066 0.226803 -0.119308 0.191747 -0.365094 -0.315710 0.021116 -0.309918 -0.072977 0.309759 -0.079504 -0.065106 -0.057974 -0.049525 0.429627 0.549441 0.039721 -0.386629 0.408541 -0.757513 0.119612 -0.134594 0.203726 -1.082713 0.579898 -0.393464 -0.027701 0.051860 -0.552303 0.689273 0.467342 -0.095952 0.157456 0.385150 -0.502462 0.092328 0.147376 -0.441412 -0.107609 -0.218227 0.640883 -0.487597 0.148594 -0.127464 0.037774 0.308810 -0.553057 0.126654 0.138010 0.444470 -0.016331 0.312576 0.105010 0.459916 -0.343009 -0.032519 -0.596776 0.287743 -0.454279 -0.176215 0.233969 -0.057949 0.421161 -0.016661 0.048156 0.487783 0.561135 0.705335 -0.128531 -0.328104 -0.112865 -0.134142 -0.311647 0.019250 -0.213732 0.340302 -0.385915 0.191240 0.267474 -0.284557 -0.342468 -0.091176 -0.312901 0.009742 -0.561804 0.466231 0.429382 -0.324503 -0.279486 -0.072994
littl -0.033988 0.096627 0.098466 0.094500 0.098836 -0.476841 0.002624 0.263221 0.122618 -0.138625 0.291708 0.131948 -0.366060 -0.113882 -0.121197 0.184884 0.120924 -0.240371 -0.326281 0.076350 -0.217974 0.001001 -0.140135 -0.074114 0.168109 0.134129 0.050990 -0.188844 0.343572 -0.401634 0.071695 -0.008774 0.234027 -0.813202 0.335812 -0.013530 -0.463745 0.160602 -0.697834 0.401578 0.089177 -0.089875 0.167003 0.147259 -0.274384 0.025784 0.074568 -0.203298 0.382757 0.133011 0.363610 -0.458241 0.210250 0.111696 0.030230 0.305883 -0.437042 0.413146 0.018356 0.302915 0.042006 0.034450 -0.124997 0.429680 0.037681 0.495514 -0.419216 -0.103297 -0.179105 0.211737 0.000537 -0.048368 0.459241 0.251072 0.035464 0.332568 0.218078 0.484839 0.144722 -0.306622 -0.213890 -0.034825 -0.068538 0.090683 -0.116783 0.381199 -0.398980 -0.004367 0.295756 -0.163472 -0.275167 -0.117744 0.022528 0.041783 -0.175322 0.262979 0.409830 -0.122921 -0.324173 0.040299
spice 0.050034 0.186645 -0.177265 0.024714 0.096884 -0.489668 0.139227 0.164974 0.100723 -0.316596 0.161023 0.287872 0.067962 0.117583 -0.437998 -0.154352 -0.172532 -0.051664 -0.460160 0.442668 0.082711 0.091869 -0.239429 -0.120944 0.301541 0.118763 -0.030240 -0.311707 -0.076220 -0.831072 -0.007476 -0.010541 0.216059 -0.712770 0.545528 -0.036851 -0.227493 0.118937 -0.906019 0.654760 -0.131024 -0.177857 0.262498 0.473968 -0.704968 0.356485 -0.189089 -0.317390 0.061900 0.029191 0.597826 -0.561807 0.082195 -0.323885 -0.075732 0.527837 -0.323256 0.119842 -0.327061 0.302024 0.255390 -0.039678 -0.032057 0.764131 -0.210412 -0.238710 -0.280395 0.272013 -0.153603 -0.238351 0.310683 -0.384701 0.604642 -0.003912 0.096343 0.377990 0.283014 0.448871 0.207566 0.014056 0.012879 0.013909 -0.640190 0.042032 -0.025277 0.324869 -0.515834 0.403360 0.325854 -0.435824 -0.580005 0.045495 -0.145685 -0.101817 -0.624874 0.124898 0.351835 -0.223716 -0.316061 0.040947
so -0.112578 0.102371 0.096879 -0.088412 0.330190 -0.763632 -0.162166 0.060003 -0.103766 0.097075 0.085538 -0.348168 -0.855139 -0.404352 -0.157155 0.194373 0.329067 -0.530569 -0.022106 0.194490 -0.645820 -0.101403 -0.236207 0.239220 0.020045 0.157672 0.189518 -0.059749 0.350252 -0.177059 0.523144 -0.233167 -0.069595 -0.433600 0.319464 -0.394395 -0.487428 0.110278 0.218651 0.095869 0.025776 0.209166 0.262723 -0.401518 -0.317752 -0.281980 0.204515 -0.163281 0.071998 -0.246407 0.201448 -0.461417 0.076348 -0.095400 0.355302 0.464001 -0.117701 0.823253 0.073583 -0.123305 -0.136604 -0.210836 -0.052369 -0.055339 -0.471210 0.675973 -0.401659 -0.253587 0.066797 0.252000 -0.112202 0.280259 0.340425 0.228955 0.363246 0.065710 -0.110242 0.130612 -0.278842 -0.330414 0.031613 0.063368 -0.052266 -0.178163 0.113911 0.000562 -0.260806 -0.439400 -0.396785 -0.328807 0.117372 0.075636 0.143097 0.034652 -0.051287 0.142541 0.707145 -0.139919 -0.450118 -0.051924
hint 0.028716 0.001999 -0.057489 0.071370 0.115652 -0.448644 0.109265 0.164063 0.033528 -0.356880 0.240773 0.297097 -0.006128 0.060109 -0.348893 -0.070165 -0.149660 -0.050349 -0.437077 0.293631 0.041505 0.093877 -0.311923 -0.188622 0.174098 0.084138 -0.109457 -0.321735 -0.085616 -0.836412 -0.074921 -0.066314 0.220612 -0.745051 0.416714 0.111755 -0.178631 0.134569 -0.986732 0.649424 -0.113210 -0.165862 0.159586 0.463039 -0.529488 0.312742 -0.076293 -0.310603 0.053253 0.138679 0.560127 -0.458775 0.098065 -0.206226 -0.062332 0.501324 -0.322401 0.165030 -0.390426 0.341230 0.275221 -0.075414 -0.089976 0.648435 -0.149084 -0.169488 -0.289871 0.131505 -0.185086 -0.150657 0.259945 -0.286138 0.583753 0.099006 0.116391 0.382460 0.147993 0.497822 0.365966 -0.006508 -0.029693 -0.037744 -0.474044 0.050047 -0.168831 0.359687 -0.473565 0.434937 0.418657 -0.318240 -0.381895 -0.068548 -0.129042 -0.129428 -0.549096 0.187291 0.346210 -0.115010 -0.289915 0.028941
balanc 0.232873 0.100059 -0.270272 -0.017169 -0.135663 -0.642932 -0.148407 -0.047517 0.231194 -0.190095 0.696372 -0.056317 -0.457002 -0.347352 -0.294017 0.291052 0.018997 -0.117135 -0.253012 0.090845 -0.508136 -0.037076 -0.042679 0.098480 0.043980 0.325083 0.051180 -0.247027 0.151766 -0.456993 0.314180 -0.170452 0.019823 -1.049603 0.509860 -0.395650 -0.578975 0.206464 -0.340401 0.085416 0.101796 0.267310 0.130656 -0.037060 -0.443234 0.040771 -0.302780 -0.096770 -0.081549 0.127879 0.245650 -0.531187 0.154398 0.146403 0.018271 0.433056 -0.058070 0.350657 -0.173904 0.036329 -0.007037 0.128296 -0.138058 0.346343 -0.272728 0.184035 -0.465180 -0.003135 -0.321147 0.077081 0.101140 -0.062616 0.938117 -0.102551 0.139854 0.377924 0.174727 0.544047 -0.027699 -0.499123 -0.173527 0.194216 -0.332551 -0.223437 -0.078162 0.107285 -0.347195 -0.133304 0.146562 -0.480195 -0.299047 0.351233 0.034892 0.307302 -0.500467 0.574195 0.728680 -0.259877 -0.350140 -0.180680
best -0.000897 0.036741 0.315893 0.440661 0.559961 -0.567340 -0.395368 0.263059 -0.077942 -0.025924 0.458714 -0.446819 -1.062699 -0.302803 0.268147 0.030795 0.008884 -0.567728 -0.323811 0.178602 -0.091956 -0.394833 -0.697615 0.231777 -0.155421 -0.106544 0.486106 0.116581 0.422555 0.343603 0.715047 -0.292516 -0.412848 -0.531349 0.273887 -0.616794 -0.145312 0.122419 0.374002 0.169114 -0.385239 0.446852 0.352357 -0.236722 0.027929 -0.462308 0.094549 -0.487624 -0.340538 -0.538120 0.006689 -0.465271 -0.039146 0.022181 0.176148 0.534309 0.300817 1.095007 0.035775 -0.037460 -0.048767 -0.636613 0.424431 -0.106582 0.157267 0.791739 -0.381715 -0.412326 0.491162 0.111152 -0.318046 0.619525 0.369021 -0.287091 -0.038958 -0.287028 -0.305258 0.271186 -0.120625 -0.569832 0.253083 -0.000893 -0.200472 -0.480791 -0.125098 -0.022804 -0.000294 -0.507327 -0.527508 -0.271596 0.525609 0.210472 0.282849 -0.184637 -0.035747 0.133574 0.533823 -0.140179 -0.112581 0.308733
just -0.121911 0.055924 0.062462 -0.046735 0.146286 -0.639830 0.024564 0.130179 -0.084774 0.005571 0.168844 -0.133046 -0.725691 -0.210146 0.033067 0.167747 0.311288 -0.372860 -0.159466 0.242124 -0.409734 -0.049313 -0.187010 0.047505 0.062376 0.072808 0.023270 -0.018956 0.339192 -0.297375 0.355073 -0.090552 0.077780 -0.577994 0.312838 -0.172619 -0.378495 0.137673 -0.198664 0.229530 -0.041196 0.136672 0.139710 -0.244557 -0.294024 -0.280138 0.255395 -0.165745 0.177997 -0.110678 0.235575 -0.420451 0.081615 -0.108485 0.137252 0.426108 -0.143621 0.755529 0.145893 0.107762 0.080989 -0.003480 -0.037547 0.147603 -0.242203 0.635336 -0.395292 -0.143259 -0.043911 0.144772 -0.066773 0.172352 0.346941 0.155145 0.250455 0.130162 -0.011153 0.085915 -0.223071 -0.261281 0.026042 0.109109 -0.087872 -0.124398 0.023100 0.113213 -0.287026 -0.352957 -0.126611 -0.336500 -0.027177 0.072270 0.157698 0.135148 -0.147714 0.170067 0.645413 -0.026562 -0.375593 -0.103492
palat 0.282489 0.043283 -0.528825 -0.203333 -0.042963 -0.551515 -0.116316 0.080008 0.211957 0.008508 0.507387 -0.058705 0.037470 -0.401013 -0.306134 0.048492 0.265278 -0.069293 -0.136031 0.003965 -0.800025 0.135289 0.114769 0.194661 -0.008114 0.392699 -0.099416 -0.224917 0.114674 -0.195329 0.253176 0.024246 0.297034 -0.823767 0.279685 -0.064004 -0.617595 0.197502 -0.590487 -0.141152 0.138503 0.154554 0.133533 -0.231883 -0.563631 0.102415 0.102941 0.169060 0.166374 0.123802 0.232625 -0.547660 0.291261 0.235392 0.005674 0.296033 -0.032165 0.103278 -0.037812 -0.064812 0.122511 0.054872 -0.056230 0.373123 -0.340848 0.213089 -0.134168 -0.062646 -0.424719 0.234690 0.192626 -0.208601 0.916019 0.292810 0.083589 0.340202 0.186974 0.547941 -0.011960 -0.362860 -0.072407 0.068316 -0.102290 -0.219594 0.068514 0.269028 -0.359879 0.188424 0.041587 -0.366533 -0.675066 0.138262 -0.185130 0.061467 -0.380153 0.479232 0.540173 -0.049762 -0.284729 -0.075680
smell -0.067464 -0.037978 0.206297 0.009962 0.392216 -0.587055 -0.073146 0.203950 -0.186891 -0.101959 0.093641 0.063255 -0.372130 0.275702 -0.272664 -0.361916 -0.095534 -0.406818 -0.171907 0.294664 0.042134 -0.192291 -0.355478 -0.116213 0.271869 0.278558 0.113566 -0.285135 0.475352 -0.586700 0.153918 -0.137223 0.106811 -0.792069 0.347171 -0.302364 0.165020 0.022600 -0.412360 0.796545 0.097165 -0.045207 0.187928 0.418678 -0.398222 -0.114294 0.357697 -0.517896 -0.041058 -0.373021 0.620327 -0.497824 0.158006 -0.282758 0.171884 0.423760 -0.457032 0.337196 0.152683 0.434358 -0.051255 0.069891 0.204342 0.257542 -0.290766 0.219350 -0.482939 -0.018391 -0.151191 -0.136670 0.046680 0.129240 0.091398 -0.005462 0.040709 0.260940 0.367405 0.471680 -0.063344 -0.264611 0.047786 -0.123852 -0.223656 0.070158 -0.318540 0.460505 -0.166292 0.071055 0.034664 -0.203999 -0.087264 -0.316196 -0.298481 -0.239881 -0.372691 0.212759 0.309641 -0.186341 -0.228290 0.060007
malti 0.103084 0.048342 -0.010366 -0.062889 0.078164 -0.656250 0.005229 -0.020092 0.027184 -0.197823 0.398057 0.188985 -0.055420 0.096580 -0.391251 -0.293957 0.028079 -0.309699 -0.047127 0.224678 -0.195302 0.000102 -0.107704 -0.028451 0.380133 0.564874 0.022838 -0.389108 0.381845 -0.727562 0.145095 -0.055356 0.203429 -1.014653 0.527056 -0.286011 -0.101889 0.051626 -0.625772 0.618550 0.385794 -0.015930 0.124563 0.334867 -0.488462 0.110557 0.242439 -0.339163 -0.091513 -0.167611 0.619475 -0.484942 0.227069 -0.109691 0.068933 0.329394 -0.546824 0.191212 0.082711 0.342455 0.002445 0.266329 0.051023 0.459956 -0.421576 -0.077396 -0.575037 0.214153 -0.431772 -0.135149 0.243089 -0.125915 0.510210 0.100420 0.100624 0.497748 0.490765 0.694703 -0.059924 -0.312875 -0.099707 -0.138480 -0.341445 0.012371 -0.242977 0.282463 -0.370970 0.286542 0.235660 -0.276928 -0.331482 -0.108333 -0.320069 -0.018714 -0.532864 0.438093 0.455902 -0.282729 -0.312524 -0.114152
thick 0.218493 -0.357345 -0.212148 -0.075999 0.422914 -0.247579 -0.247717 0.181830 -0.015606 0.321147 0.406301 0.118485 0.300809 -0.189765 -0.304887 -0.302631 0.218626 -0.282172 -0.042967 -0.452095 -0.577972 0.011433 -0.082603 0.159980 0.103146 0.308062 -0.014692 -0.324842 0.394416 0.178250 0.043366 0.247757 0.554975 -0.829834 -0.014871 0.243204 -0.097863 0.462050 -0.734960 0.065643 0.222453 0.008500 -0.077823 0.002656 -0.168443 -0.124306 0.792331 0.300083 0.073947 0.017639 0.394396 -0.237330 0.468656 0.417400 -0.030859 -0.020248 -0.261454 -0.273925 0.075658 0.047864 0.025535 0.108514 0.342053 0.083304 -0.256386 0.257967 -0.101594 -0.444164 -0.549758 0.464176 0.075548 -0.005018 0.523239 0.550237 -0.222331 0.310836 0.208460 0.845945 0.410735 -0.193165 0.039616 -0.058190 -0.019865 -0.259579 -0.435082 0.646854 -0.125003 0.603720 -0.015025 0.105847 -0.486182 -0.503560 -0.406344 -0.316403 -0.306555 0.533383 0.409204 0.058295 -0.182806 -0.076618
rate -0.088690 0.034845 0.188687 0.244818 -0.031201 -0.694374 -0.260596 -0.183207 -0.529550 -0.126255 -0.111911 -0.493752 -0.563838 -0.546772 0.077123 0.310976 0.601210 -0.149799 -0.345319 0.116034 -0.564086 -0.456313 -0.127365 0.351397 -0.377157 -0.438439 0.581864 0.369813 0.374142 0.201203 0.420006 -0.296301 -0.345764 -0.229280 0.007096 0.007959 -0.317863 0.265624 0.793052 0.097761 -0.172888 0.562686 -0.148772 -0.376438 -0.060587 -0.491072 -0.359231 -0.261656 -0.126518 -0.096822 -0.006038 -0.309732 0.034419 0.385951 0.520043 0.043668 0.187625 0.681507 -0.379296 -0.050797 -0.245080 -0.664297 -0.164771 -0.787141 -0.209565 0.898053 -0.041192 -0.764106 -0.094281 0.390342 -0.186114 0.813192 0.178377 -0.004444 0.337204 -0.031324 -0.634330 0.177190 -0.035719 -0.109561 -0.049352 -0.102230 -0.009208 -0.086101 0.196273 0.178562 -0.163060 -0.427555 -0.597824 -0.034811 0.614069 0.106703 0.267160 -0.012516 -0.029421 0.373187 0.669841 -0.108634 -0.289376 -0.031037
lot -0.028487 -0.274119 0.076639 0.018986 0.341969 -0.400269 -0.194087 0.093626 -0.179464 -0.105859 0.045330 -0.029282 -0.191821 0.113922 -0.360114 -0.345579 -0.186900 -0.344987 -0.140532 0.101794 -0.145131 -0.231979 -0.349871 -0.215608 0.349435 0.316305 -0.029582 -0.306450 0.399743 -0.543832 0.144065 0.031838 0.107596 -0.760048 0.229442 -0.174546 0.086547 0.198321 -0.464631 0.684736 0.149422 0.108629 0.124110 0.285700 -0.280219 -0.075419 0.436358 -0.363932 -0.055698 -0.271696 0.577848 -0.365914 0.136731 -0.083777 0.259108 0.330155 -0.414523 0.215860 0.019800 0.441489 -0.096763 0.169648 0.199282 0.252490 -0.285398 0.184397 -0.496233 -0.165484 -0.238172 0.032151 0.142173 0.130944 0.184145 0.103242 -0.039283 0.294742 0.455262 0.551805 0.004516 -0.261883 0.019846 -0.133313 -0.269618 0.090925 -0.256836 0.557130 -0.059832 0.167715 0.142350 -0.278519 -0.276292 -0.250694 -0.318293 -0.088588 -0.361331 0.188383 0.329062 -0.187484 -0.338773 -0.061465
deep -0.116423 -0.500176 0.078947 0.232847 0.836327 -0.318385 -0.186740 0.209175 -0.253801 0.221879 -0.209678 0.172080 0.003706 -0.003233 -0.493153 -0.656987 0.080564 -0.234018 -0.062987 -0.267717 -0.076243 -0.249089 -0.733744 0.161948 0.232018 -0.043056 0.219867 0.017027 0.238358 -0.041986 0.128903 -0.141868 0.181572 -0.501698 0.146217 0.456347 0.409477 0.601095 -0.742749 0.466672 -0.153981 -0.029238 -0.258536 0.316290 -0.230038 -0.281312 0.780337 -0.131383 -0.198734 -0.466985 0.459819 -0.181245 0.355834 -0.061902 0.048815 0.241060 -0.253050 -0.140036 -0.316471 0.162204 0.112719 -0.516986 0.486844 -0.305799 -0.345988 -0.247222 -0.074268 -0.326372 -0.324949 0.124523 0.394278 0.326228 0.087309 0.434211 0.031491 -0.005660 -0.363049 0.324109 0.504097 0.283897 0.521524 0.118671 -0.281058 -0.274788 -0.549190 0.646504 -0.004601 0.948055 -0.249612 0.283110 0.022654 -0.786911 -0.334678 -0.565666 -0.424818 0.243320 0.322604 -0.012487 -0.366838 -0.137139
drink 0.103643 0.046503 0.008399 0.088244 0.086467 -0.558611 -0.085036 0.081375 0.053388 -0.013979 0.281881 -0.315653 -0.774928 -0.428372 -0.019657 0.446425 0.288121 -0.136525 -0.188188 -0.026880 -0.388975 -0.146190 -0.198077 0.090826 -0.226208 -0.003254 0.072496 0.013247 0.059703 -0.031492 0.431113 -0.333114 -0.176121 -0.326875 0.142572 -0.150943 -0.481275 0.208870 0.164599 -0.125754 -0.017048 0.151733 0.059106 -0.497184 -0.153874 -0.259886 -0.155645 -0.106208 -0.028368 0.022625 0.006274 -0.220739 0.018631 0.001040 0.246722 0.328459 0.154231 0.635762 0.028873 -0.074320 -0.015808 -0.148630 -0.040899 -0.137519 -0.116610 0.657575 -0.260197 -0.187421 0.070103 0.236558 -0.051143 0.358936 0.470484 -0.003292 0.183648 0.019580 -0.146554 0.018574 -0.154536 -0.339959 0.024662 0.118720 0.050986 -0.280579 0.210461 0.049905 -0.233675 -0.573632 -0.304663 -0.322250 0.074665 0.355495 0.288928 0.067611 -0.074243 0.307275 0.482731 -0.043501 -0.328194 -0.020120
realli -0.057872 0.043554 -0.054261 -0.177744 0.267335 -0.673464 -0.094611 0.162046 -0.102204 0.170390 0.234063 -0.209498 -0.710479 -0.216030 -0.135238 0.307723 0.336361 -0.424401 -0.055170 0.109044 -0.488524 0.018458 -0.073097 0.127057 0.090272 0.187218 0.016356 -0.124955 0.449191 -0.240034 0.444597 -0.150764 0.010743 -0.664963 0.340594 -0.248822 -0.547341 0.182785 -0.063771 0.091780 0.020450 0.136482 0.051529 -0.274292 -0.340044 -0.309242 0.240085 -0.105360 0.197865 -0.125591 0.224427 -0.481557 0.146782 -0.095655 0.252156 0.481893 -0.162167 0.616410 0.230571 -0.014832 -0.004788 0.033700 -0.035224 0.168256 -0.250535 0.683624 -0.438296 -0.191393 -0.004985 0.295083 -0.050946 0.260211 0.413648 0.160361 0.277096 0.129048 0.083645 0.180919 -0.258879 -0.240840 -0.005418 0.153910 -0.110808 -0.211701 0.139281 0.223016 -0.350242 -0.474732 -0.325971 -0.353230 -0.103213 0.129122 0.118906 0.056362 -0.109167 0.182010 0.747778 -0.213018 -0.387629 -0.079365
nose 0.057722 0.047569 0.061252 -0.008443 0.327539 -0.475798 -0.000986 0.139570 -0.073609 -0.069337 0.052543 0.254306 -0.046658 0.281415 -0.325033 -0.389888 0.019374 -0.219671 -0.139113 0.341993 0.069799 -0.072861 -0.209642 -0.054586 0.339627 0.222658 0.127695 -0.271009 0.345778 -0.491136 0.006219 -0.077685 0.223383 -0.713992 0.360840 -0.221604 0.159045 0.057187 -0.562636 0.730856 0.169195 -0.213201 0.251631 0.421441 -0.513205 0.005450 0.292907 -0.403493 0.000449 -0.311469 0.602280 -0.453570 0.158839 -0.268603 0.054395 0.285866 -0.461470 0.011222 0.126640 0.424579 -0.016121 0.082440 0.282301 0.365878 -0.210437 0.043332 -0.343823 0.115709 -0.257620 -0.148984 0.179954 -0.019881 0.093965 -0.002227 -0.053332 0.265817 0.424837 0.424918 0.009801 -0.086171 0.006395 -0.125770 -0.242401 0.036548 -0.212341 0.499546 -0.199973 0.265154 0.070133 -0.119434 -0.350637 -0.302363 -0.368424 -0.260282 -0.376670 0.201169 0.195549 -0.143170 -0.185692 0.084913
lace 0.238503 -0.502369 0.349856 0.079900 0.332946 0.037926 -0.287031 -0.039163 -0.184398 0.108166 0.247145 0.068668 -0.256415 0.522083 -0.312470 -0.415114 -0.220762 -0.438944 0.127314 -0.424054 0.151078 -0.477581 0.019320 -0.393897 0.546474 0.350797 0.150019 -0.427427 0.874536 -0.164328 -0.128934 0.162755 0.177629 -1.023557 0.089163 -0.417365 0.544433 0.288898 -0.167916 0.752679 0.864356 -0.022757 -0.004749 0.444958 0.019399 -0.381589 0.548052 -0.371749 -0.111544 -0.314978 0.447908 -0.000851 0.184045 0.329251 0.290686 -0.160480 -0.721809 -0.129287 0.751811 0.675233 -0.415515 0.701103 0.419510 0.056009 0.052837 0.344856 -0.842160 -0.168261 -0.594037 0.065920 -0.144561 0.278699 -0.357233 -0.186637 -0.463303 0.230620 0.780776 0.727536 -0.073486 -0.507626 -0.252124 -0.176330 0.172720 0.211346 -0.495538 0.809528 0.307016 -0.223936 0.303140 0.212718 -0.121437 -0.516759 -0.488970 0.046416 -0.116800 0.374225 0.071427 -0.145310 -0.159271 -0.233937
white -0.020423 -0.636226 0.569202 0.012236 0.487076 0.078172 -0.294420 0.117287 -0.195189 0.014417 0.572835 0.435212 0.382389 0.366471 -0.056311 -0.521839 -0.081566 -0.643308 -0.166621 -0.452675 -0.010938 -0.220150 -0.052224 -0.000892 0.178688 0.117932 -0.184422 -0.584625 0.545423 -0.060724 -0.437769 0.150089 0.570698 -0.916554 -0.395516 -0.034217 0.582187 -0.085420 -0.522436 0.428586 0.345102 -0.144346 0.130534 0.804941 0.421944 -0.101935 0.985215 -0.301141 -0.038976 -0.005552 0.524987 0.105476 0.404357 0.036080 0.183886 -0.354663 -0.649474 -0.282054 0.030327 0.461949 -0.230982 0.532357 0.419968 0.146789 0.103646 0.343384 -0.185712 -0.633566 -0.483425 0.535565 -0.370352 0.072067 -0.127777 0.405465 -0.605471 0.364199 0.723327 1.197228 0.379408 -0.437915 -0.471157 -0.633444 0.224558 0.165860 -1.114285 0.469443 0.223934 0.573506 0.435976 0.378803 -0.101148 -0.609455 -0.638367 -0.626966 0.073909 0.364351 -0.134706 0.022654 0.390948 0.383460
mouthfeel 0.369064 -0.034828 -0.531109 -0.202760 -0.106271 -0.411197 -0.157917 0.052118 0.247769 0.086776 0.601644 -0.071444 0.191065 -0.420401 -0.327997 0.122827 0.236220 -0.031494 -0.154768 -0.182904 -0.786496 0.141834 0.209885 0.150605 -0.031689 0.357384 -0.133200 -0.308422 0.146352 -0.067115 0.193835 0.130112 0.344053 -0.863216 0.186506 -0.001635 -0.623347 0.288639 -0.548727 -0.264162 0.173341 0.211643 0.108935 -0.265874 -0.421155 0.089585 0.091983 0.285896 0.205236 0.271723 0.161593 -0.438933 0.303804 0.394960 0.043876 0.193059 -0.002482 -0.036214 0.022527 -0.005151 0.089465 0.220698 0.020795 0.411058 -0.235801 0.290089 -0.108744 -0.136490 -0.486662 0.355890 0.131312 -0.225101 0.948312 0.269778 -0.021907 0.396524 0.288607 0.690292 0.072487 -0.450684 -0.136469 0.064234 -0.069265 -0.272670 0.075389 0.362609 -0.340244 0.141785 0.033937 -0.280933 -0.722324 0.123848 -0.209626 0.105925 -0.392435 0.580877 0.552180 -0.055539 -0.248984 -0.087510
off 0.011383 -0.544029 0.316346 0.004794 0.389913 0.069825 -0.332113 0.141692 -0.108818 0.083194 0.633496 0.251045 0.250062 0.071572 -0.002668 -0.360477 -0.000647 -0.484405 -0.205438 -0.321794 -0.250087 -0.200739 -0.069439 0.120079 0.035455 0.103440 -0.152382 -0.385645 0.396808 0.034457 -0.246158 0.089584 0.514908 -0.763570 -0.435658 0.070659 0.284547 0.050105 -0.548576 0.146774 0.232335 -0.023749 0.065459 0.437401 0.299904 -0.076559 0.846823 -0.026260 -0.050822 -0.034955 0.406530 -0.022337 0.324344 0.150749 0.119868 -0.292564 -0.364540 -0.197475 -0.049792 0.198541 -0.161907 0.297306 0.317755 -0.024832 -0.000094 0.400607 -0.029311 -0.673078 -0.505497 0.562226 -0.119654 0.110430 0.106883 0.483305 -0.458824 0.263030 0.488307 0.966293 0.345747 -0.266131 -0.330289 -0.407373 0.173040 0.029259 -0.847085 0.312975 0.129256 0.461168 0.254614 0.289376 -0.203017 -0.418343 -0.375122 -0.554003 0.084613 0.359095 -0.011114 0.088704 0.266948 0.198081
long 0.430509 -0.220142 -0.218482 -0.044567 -0.240324 -0.255864 -0.203152 -0.033421 0.068264 -0.004566 0.838062 0.136027 -0.056854 -0.008662 0.160253 0.053890 0.399271 -0.707688 0.030303 -0.078162 -0.700361 -0.012439 0.415471 0.008785 0.266624 0.611553 -0.238520 -0.285270 0.415898 0.073196 0.276877 0.289334 0.453469 -0.764991 0.231256 -0.100855 -0.463444 0.238992 -0.373716 -0.111632 0.798074 -0.018606 0.041576 -0.515678 0.076766 -0.138338 0.382972 0.026408 -0.295993 -0.063809 0.079233 -0.352801 0.180088 0.588227 0.176347 0.016666 -0.151689 0.259319 0.673290 -0.282736 0.044707 0.093578 -0.130936 0.331123 -0.444746 0.136370 -0.226659 0.132073 -0.738951 0.110406 0.152677 0.127063 0.822554 0.476617 -0.142540 0.333472 0.388928 0.882931 -0.104459 -0.550031 -0.210178 -0.055704 0.024917 -0.195646 -0.290359 0.245780 -0.003067 -0.040896 0.299933 -0.217746 -0.452224 0.023682 0.053856 0.179263 -0.066805 0.701148 0.470516 0.165729 -0.108183 -0.417974
dri -0.131849 -0.250531 -0.145327 -0.095972 0.180918 -0.463530 0.052255 0.076495 -0.120282 -0.436886 0.009671 0.278110 0.212114 0.211069 -0.370004 -0.492241 -0.430719 -0.317618 -0.300860 0.449447 -0.127924 -0.013788 -0.342882 -0.057915 0.444054 0.189971 -0.123626 -0.490657 -0.165362 -1.070965 -0.164123 -0.137153 0.251223 -0.742173 0.310018 -0.098964 0.205069 -0.082357 -0.865291 0.672948 -0.059115 -0.192313 0.351817 0.493708 -0.659170 0.210473 0.289186 -0.709751 -0.104864 -0.274872 0.764293 -0.603354 0.012998 -0.463463 -0.084105 0.533876 -0.490683 0.164656 -0.365431 0.463717 0.294923 0.071382 0.082527 0.446856 -0.471638 -0.268652 -0.210399 -0.039156 -0.210747 -0.317506 0.373602 -0.121808 0.276655 -0.004596 -0.070324 0.451997 0.438022 0.452566 0.000226 0.061759 -0.109056 -0.180672 -0.481368 0.204742 -0.209483 0.350569 -0.191582 0.507927 0.367775 -0.623644 -0.444595 -0.283699 -0.349442 -0.231466 -0.548899 0.087024 0.042580 0.038726 -0.017103 -0.050606
belgian -0.128225 0.173350 0.226102 0.169533 0.668761 -0.367243 -0.245186 0.273478 0.148373 -0.102585 0.160893 -0.147866 -0.736531 0.099976 -0.297941 0.020318 -0.486674 -0.080670 -0.664228 0.216695 0.308758 -0.501183 -0.636845 -0.044812 0.164996 -0.221489 0.639127 0.050427 0.277387 -0.124606 0.245814 0.060075 -0.166677 -0.816059 0.508906 -0.462367 -0.026967 0.219448 -0.174072 0.489300 -0.461464 0.172333 0.187826 0.229063 -0.488485 -0.199590 -0.299928 -0.271003 -0.235889 -0.424074 0.340716 -0.476292 -0.054885 -0.409441 -0.001222 0.533266 0.144461 0.723507 -0.237912 0.225941 -0.103235 -0.495587 0.427174 0.251637 0.025974 0.541369 -0.272422 -0.228295 0.277159 -0.036533 -0.160581 0.325019 0.453125 -0.483939 -0.344397 -0.090658 0.026639 0.110698 0.228993 -0.152902 -0.001888 0.232873 -0.812758 -0.091133 -0.333835 0.262692 -0.045654 -0.092902 0.031980 -0.496871 0.096695 0.241422 0.242366 -0.092733 -0.567469 0.307301 0.507624 -0.525514 -0.182715 0.017918
almost 0.000478 -0.119310 -0.180198 0.200686 0.535854 -0.628750 -0.098752 0.306767 -0.080987 0.050476 0.220552 0.241052 -0.289152 -0.140010 -0.061897 0.005144 0.159109 -0.143657 -0.519505 -0.076156 -0.303301 -0.042968 -0.499935 -0.056663 0.003872 0.056574 -0.031745 -0.054813 0.140742 -0.069775 0.247102 -0.211662 0.285873 -0.689561 0.059796 0.336297 0.027028 0.419477 -0.862804 0.305265 -0.061329 -0.252252 -0.117492 -0.086508 -0.322086 0.064074 0.364785 0.045893 0.121726 -0.056382 0.474815 -0.334530 0.247959 -0.027365 -0.173282 0.201245 0.080404 0.043568 -0.166149 0.047278 0.272725 -0.259012 0.267379 -0.114748 -0.256041 0.240472 0.178694 -0.317002 -0.270904 0.475048 0.034104 0.176308 0.270551 0.392515 0.038942 0.070790 -0.099319 0.465483 0.278833 0.122578 0.154032 0.148035 0.023901 -0.188882 -0.246968 0.535969 -0.327808 0.324888 -0.025745 -0.123157 -0.329927 -0.364901 0.022914 -0.368607 -0.397604 0.376915 0.439536 -0.004234 -0.261388 0.157608
quit 0.040605 0.063894 -0.095600 -0.109598 0.127960 -0.505986 -0.104087 0.115156 0.061269 0.066544 0.313950 -0.111235 -0.408222 -0.197117 -0.150628 0.082837 0.186328 -0.300104 -0.087807 0.099050 -0.489917 0.116718 -0.037960 -0.023343 0.113131 0.409441 0.002011 -0.205497 0.477056 -0.296781 0.320917 0.004564 0.146520 -0.731354 0.212671 -0.187875 -0.454859 0.094328 -0.451729 0.205671 0.214901 0.052420 0.084175 -0.152004 -0.373251 -0.046046 0.320118 0.014315 0.170363 -0.091142 0.278916 -0.497289 0.239792 0.046529 0.167343 0.302781 -0.274497 0.369492 0.220188 0.042667 -0.083683 0.149931 -0.060645 0.281968 -0.291902 0.409669 -0.413397 -0.063792 -0.223616 0.126232 0.074211 -0.005232 0.479484 0.300002 0.180229 0.226834 0.319127 0.378788 -0.110499 -0.285026 -0.066238 0.041213 -0.023186 -0.016519 -0.019965 0.271206 -0.264332 -0.121943 0.016544 -0.229367 -0.315851 -0.043535 -0.037549 -0.016144 -0.103355 0.224418 0.506496 -0.127308 -0.345989 -0.086644
glass -0.012280 -0.397442 0.639379 0.144907 0.717748 -0.227910 -0.263554 0.088857 -0.224892 0.318577 -0.027434 -0.129055 -0.429423 0.232502 -0.243127 -0.438306 -0.032408 -0.411536 0.155010 -0.145309 0.242599 -0.539016 -0.336232 0.027624 0.352942 0.039051 0.474328 0.020511 0.651435 0.181298 0.055581 0.053267 0.056487 -0.573219 0.077958 -0.141405 0.543635 0.153761 0.032287 0.441785 0.490994 0.041047 0.013880 0.155015 -0.045345 -0.479840 0.542710 -0.334234 -0.188413 -0.646959 0.427844 -0.131098 0.119633 0.039956 0.240837 -0.052119 -0.341434 0.175226 0.452265 0.408104 -0.241458 -0.029941 0.557238 -0.452958 -0.158197 0.389625 -0.482937 -0.300334 -0.200118 0.108818 0.036275 0.623534 -0.320066 -0.055096 -0.204998 -0.152487 0.049805 0.166243 0.126505 -0.038418 -0.008311 -0.060683 -0.045857 -0.021048 -0.481954 0.580129 0.123223 -0.046122 -0.221224 0.319675 0.226363 -0.556039 -0.229758 -0.316298 -0.178033 0.294008 0.216767 -0.013698 -0.424286 -0.129724
last 0.266095 -0.456710 0.119650 0.024591 0.045895 -0.072341 -0.207850 0.037980 -0.184947 0.073153 0.648911 0.249461 -0.031137 0.270504 0.230534 -0.160515 0.259459 -0.852228 0.035707 -0.225981 -0.376367 -0.169485 0.228678 -0.062086 0.307762 0.446607 -0.152465 -0.334782 0.571384 0.168346 0.110710 0.323038 0.521718 -0.696589 0.021264 -0.041471 0.023178 0.222848 -0.294143 0.220231 0.740493 -0.128357 -0.014274 -0.216850 0.297062 -0.343783 0.747428 -0.112712 -0.340067 -0.195092 0.213421 -0.185825 0.230653 0.455147 0.195284 -0.130838 -0.322840 0.137571 0.716414 -0.057353 -0.061823 0.188520 0.107340 0.120833 -0.311876 0.253123 -0.272053 -0.141718 -0.685993 0.149442 -0.028387 0.281856 0.279226 0.434710 -0.300109 0.236311 0.442074 0.908851 0.011464 -0.424273 -0.192391 -0.172350 0.102456 -0.107685 -0.603498 0.394198 0.207332 0.004074 0.262783 0.014049 -0.180711 -0.334473 -0.091329 -0.050351 0.008367 0.590012 0.268949 0.264628 0.045023 -0.308196
trappist -0.021785 -0.333711 0.473188 0.221607 0.769236 -0.259565 -0.392705 0.181545 0.005874 0.288883 0.202306 -0.426857 -0.808845 -0.057167 -0.237437 0.010238 -0.152155 -0.203963 -0.139315 -0.263007 0.146378 -0.646863 -0.574151 0.199048 0.087998 -0.214440 0.652101 0.221310 0.387702 0.396763 0.255933 -0.114021 -0.292421 -0.656611 0.209463 -0.253483 0.196113 0.367324 0.235129 -0.011187 0.011618 0.344024 -0.046225 -0.150751 -0.014700 -0.604606 0.084244 -0.230669 -0.351375 -0.602856 0.125843 -0.242208 0.026776 0.056685 0.229372 0.208146 0.214068 0.597893 0.177602 0.181478 -0.184945 -0.457289 0.549412 -0.551477 -0.020581 0.572825 -0.297209 -0.453817 0.086713 0.244908 -0.075337 0.839926 0.142411 -0.356150 -0.306099 -0.326546 -0.376954 -0.038260 0.232220 -0.146889 0.036499 0.272696 -0.309321 -0.401316 -0.448657 0.390947 0.148546 -0.320472 -0.390680 0.016437 0.485880 -0.101466 0.192143 -0.121919 -0.292635 0.522236 0.500352 -0.205462 -0.354542 -0.197916
time 0.135331 -0.043710 0.326584 0.287895 -0.033160 -0.503701 -0.128610 -0.007098 -0.132114 -0.112411 0.372133 -0.187367 -0.670300 -0.168501 0.339935 0.114446 0.346780 -0.697159 0.040041 0.227507 -0.256218 -0.256007 -0.085263 0.249290 0.102989 0.150458 0.204812 0.023933 0.404486 0.098542 0.396865 -0.161450 -0.203818 -0.210272 0.215953 -0.346933 -0.239469 0.104852 0.497534 0.201392 0.375387 0.172052 0.182484 -0.498987 0.206256 -0.372325 0.069318 -0.485815 -0.438144 -0.385019 -0.068574 -0.292406 -0.089839 0.198398 0.343788 0.174931 -0.100333 0.905984 0.340648 -0.114998 -0.042531 -0.409873 0.076196 -0.078936 -0.218533 0.439729 -0.326266 -0.123824 -0.012194 -0.005837 0.027441 0.606480 0.285136 -0.025059 0.171790 -0.060751 -0.087292 0.292708 -0.233869 -0.486689 0.014497 -0.150733 -0.083654 -0.279940 -0.049531 -0.102567 -0.117066 -0.447150 -0.366076 -0.124721 0.277856 0.176662 0.256448 0.125406 0.045893 0.354297 0.463591 0.137500 -0.212839 -0.097566
fig 0.039006 0.217382 0.018416 0.079449 0.273050 -0.553127 0.290803 0.236561 -0.080338 -0.446990 -0.110420 0.356582 0.034890 0.353045 -0.303004 -0.468447 -0.005396 0.049632 -0.460934 0.665894 0.168778 -0.023056 -0.523521 -0.207247 -0.042139 -0.022742 -0.018588 -0.082351 -0.191431 -0.852557 -0.107139 -0.056401 0.249678 -0.478431 0.421934 -0.066597 0.219206 -0.109996 -0.968944 0.942475 -0.337725 -0.298097 0.297062 0.557822 -0.878756 0.238676 0.023324 -0.419817 -0.024864 -0.128374 0.683222 -0.534861 0.078993 -0.603414 -0.002647 0.599296 -0.148210 0.119453 -0.205260 0.464763 0.449143 -0.283728 0.212839 0.901709 -0.173294 -0.281236 -0.059244 0.353752 -0.069677 -0.545799 0.146870 -0.389722 0.306862 0.004904 0.162042 0.268269 0.170018 0.167602 0.199912 0.067636 0.250227 -0.135574 -0.370977 0.115181 -0.133293 0.534771 -0.275700 0.454397 0.170652 -0.324004 -0.446729 -0.152768 -0.478871 -0.379114 -0.489586 0.056566 0.038389 0.032214 -0.220417 0.394360
black 0.034156 -0.083249 -0.079082 0.116724 0.665748 -0.414504 0.129792 0.321487 -0.060125 -0.106107 0.044496 0.555450 0.082536 0.300612 0.010862 -0.415470 0.146721 0.053652 -0.554770 -0.011190 0.067972 0.062292 -0.786534 -0.262612 -0.251580 -0.076559 -0.042942 0.036267 -0.094499 -0.067826 -0.096304 0.054798 0.471061 -0.481835 -0.014446 0.352518 0.521721 0.264096 -1.198975 0.700943 -0.253913 -0.480319 -0.100824 0.426947 -0.526439 0.195159 0.410124 0.030077 -0.002400 0.045737 0.730452 -0.141035 0.321569 -0.263066 -0.248631 0.094487 0.188617 -0.343198 -0.244505 0.174972 0.467216 -0.336695 0.460787 0.270167 0.027381 -0.112266 0.392845 -0.105605 -0.371765 0.087524 -0.105070 -0.133177 0.073207 0.322395 -0.063288 0.105462 -0.081381 0.236671 0.539023 0.335762 0.392587 0.017649 0.024105 -0.100853 -0.598480 0.821800 -0.151581 0.692204 0.135824 0.141645 -0.476291 -0.576454 -0.472870 -0.675709 -0.492442 0.258665 -0.030108 0.193494 -0.101649 0.442103
high 0.377830 -0.032815 -0.313615 0.033398 -0.212535 -0.222240 -0.259957 -0.147776 0.097200 -0.073410 0.442850 -0.461435 -0.140608 -0.514209 -0.341449 0.675811 0.209013 0.161472 -0.215023 -0.148076 -0.514495 0.220909 0.225391 0.027085 -0.148370 0.149686 0.035191 -0.227339 0.145134 -0.162727 0.333073 0.138602 -0.184301 -0.610799 0.013391 -0.025036 -0.839092 0.241745 -0.097444 -0.233223 0.139494 0.399294 0.146921 -0.428160 -0.169704 0.162310 -0.411603 0.126453 0.284602 0.364003 -0.012910 -0.363002 0.145760 0.540025 0.428357 0.163612 0.101717 0.170541 -0.259101 0.088827 -0.101743 0.085117 -0.151806 0.239294 0.047008 0.560066 -0.219039 -0.247074 -0.124490 0.474711 0.078626 -0.070279 0.810061 0.100019 0.106631 0.205367 0.187892 0.553183 0.210686 -0.307600 -0.352427 -0.090186 -0.066947 0.011392 0.501949 0.420655 -0.427087 -0.208862 -0.069573 -0.255035 -0.359227 0.321131 0.208876 0.153623 -0.213058 0.198530 0.630029 -0.268284 -0.478889 -0.067724
big 0.030140 -0.308370 0.021761 0.038749 0.414488 -0.212140 -0.218021 0.199133 -0.049462 0.128164 0.372304 0.070167 -0.111409 -0.032169 -0.149103 -0.103652 -0.056754 -0.242987 -0.251252 -0.198037 -0.230595 -0.076652 -0.270380 -0.012228 0.040509 0.141676 0.033429 -0.213325 0.331020 -0.028012 0.069296 0.106765 0.327870 -0.722661 0.005613 0.071115 0.012744 0.343881 -0.551121 0.343625 0.078312 -0.016460 0.004644 0.088590 -0.070694 -0.144711 0.512930 0.102462 -0.030228 -0.070589 0.400210 -0.237667 0.285121 0.172032 0.000273 0.109980 -0.165902 -0.021980 -0.007687 0.137631 -0.025030 0.041145 0.255199 0.012300 -0.113912 0.311823 -0.136051 -0.425297 -0.303973 0.295077 0.025564 0.122630 0.302392 0.267934 -0.172307 0.172358 0.194795 0.585556 0.328407 -0.118126 0.042014 0.010106 -0.150654 -0.168892 -0.447046 0.502164 -0.049012 0.271202 0.085333 -0.018749 -0.205053 -0.348373 -0.156283 -0.261627 -0.319179 0.407634 0.373818 0.000923 -0.141447 -0.090639
brew 0.050843 -0.104122 0.125013 0.053436 0.190581 -0.403708 -0.213670 0.052954 -0.009790 0.059644 0.331225 -0.210838 -0.585859 -0.251286 -0.066199 0.294416 0.099343 -0.216444 -0.186593 -0.085292 -0.237835 -0.230499 -0.227467 0.192345 -0.024055 -0.009546 0.231053 -0.026455 0.232733 0.060866 0.331763 -0.168244 -0.130491 -0.609718 0.221362 -0.249382 -0.257880 0.275218 0.160444 -0.027415 -0.033638 0.259366 0.090109 -0.221274 -0.066293 -0.356095 -0.018072 -0.143556 -0.086779 -0.123840 0.112455 -0.300050 0.025077 0.070530 0.196732 0.246197 0.122106 0.482282 0.027591 0.051259 -0.097542 -0.104376 0.170995 -0.137757 -0.017723 0.589209 -0.295785 -0.297963 -0.033792 0.329661 -0.061792 0.462344 0.357923 -0.150936 -0.021519 -0.021495 -0.099320 0.212465 -0.030448 -0.299935 -0.059907 0.122109 -0.134336 -0.331839 -0.093366 0.185960 -0.136464 -0.370027 -0.241867 -0.222112 0.134594 0.174726 0.160794 0.089059 -0.251736 0.430896 0.584625 -0.174421 -0.232516 -0.093968
cherri 0.059359 0.126310 -0.126423 0.019184 0.232379 -0.405430 0.232635 0.194705 -0.048429 -0.411646 -0.008532 0.411421 0.163322 0.350450 -0.314702 -0.385658 -0.099795 0.005221 -0.422721 0.468665 0.155213 0.098584 -0.400441 -0.216035 0.070046 -0.038720 -0.062634 -0.237782 -0.233480 -0.803344 -0.158759 -0.025863 0.253979 -0.498319 0.349931 -0.000419 0.172268 -0.002691 -0.949856 0.781694 -0.247309 -0.353025 0.197610 0.607697 -0.732079 0.322884 -0.005932 -0.430956 -0.000781 0.004328 0.639120 -0.444270 0.094436 -0.470324 -0.136464 0.482626 -0.190697 -0.065815 -0.274665 0.382519 0.395804 -0.161553 0.176690 0.769267 -0.114079 -0.297453 -0.010221 0.262124 -0.155850 -0.393467 0.171715 -0.413088 0.281297 -0.011331 0.027954 0.299058 0.243094 0.277791 0.216006 0.167934 0.152368 -0.088356 -0.349276 0.100515 -0.122333 0.533024 -0.315107 0.513250 0.292571 -0.269377 -0.502341 -0.182362 -0.395817 -0.359739 -0.497842 0.038821 -0.056824 0.023023 -0.081977 0.289363
feel 0.510171 0.112602 -0.397434 -0.164939 -0.197022 -0.331034 -0.101743 0.080351 0.217090 0.114859 0.573015 -0.265377 -0.061621 -0.470829 -0.212706 0.300547 0.335561 -0.022772 0.005735 -0.037324 -0.744080 0.114509 0.336374 0.011657 0.043820 0.412264 -0.308706 -0.326719 -0.022177 -0.067405 0.106406 0.085594 0.119876 -0.588877 0.175723 -0.110876 -0.788628 0.226027 -0.249181 -0.427364 0.301368 0.137976 -0.051318 -0.562947 -0.255729 0.092795 -0.028527 0.269828 0.217726 0.341788 0.020706 -0.232999 0.079507 0.320930 0.065699 0.173444 0.029345 0.123788 0.180832 -0.063204 0.038777 0.240350 -0.109250 0.451300 -0.071886 0.424933 -0.211956 -0.089756 -0.220768 0.436041 0.075792 -0.053978 0.836767 0.076103 0.100228 0.381028 0.253947 0.531056 -0.009023 -0.408182 -0.266165 0.032085 -0.036147 -0.327100 0.282675 0.228141 -0.454122 -0.186542 -0.038663 -0.432949 -0.570431 0.354816 -0.019763 0.215115 -0.116851 0.542118 0.575752 -0.126788 -0.402367 -0.067963
it 0.052551 0.013960 -0.011729 0.007573 0.140923 -0.415609 -0.187480 -0.026851 -0.006810 0.022187 0.188902 -0.272044 -0.526515 -0.389498 -0.070991 0.258225 0.253616 -0.163928 -0.030473 -0.002264 -0.460926 0.021944 -0.052721 0.145269 -0.021418 0.074946 0.142708 -0.073290 0.275158 -0.032396 0.356692 -0.075390 -0.097810 -0.378439 0.133246 -0.226139 -0.440596 0.129550 0.105259 -0.082866 0.098696 0.210169 0.203855 -0.313656 -0.187491 -0.099809 0.008640 -0.063780 0.138400 -0.052021 -0.005193 -0.243217 0.066461 0.110071 0.168289 0.219748 0.032744 0.436225 -0.037994 -0.077989 -0.124925 -0.146181 -0.033314 -0.102535 -0.089545 0.609212 -0.202214 -0.209600 0.020780 0.322912 -0.021131 0.196695 0.387688 0.073713 0.095837 0.016969 -0.057129 0.195124 -0.181906 -0.237837 -0.085911 0.015679 0.041165 -0.096016 0.183834 0.074542 -0.224184 -0.319070 -0.213567 -0.174160 -0.029670 0.140787 0.158044 0.009378 0.028812 0.172632 0.545267 -0.189276 -0.264008 -0.016646
slightli 0.099509 -0.092643 -0.220079 -0.032308 0.005104 -0.314830 -0.104591 0.039458 0.093573 -0.069717 0.431533 0.099455 0.051970 -0.189828 -0.251653 -0.070637 0.011695 -0.122081 -0.146103 -0.084841 -0.413714 0.163326 -0.042229 -0.033024 0.076141 0.448157 -0.103761 -0.233771 0.191861 -0.344989 0.119371 0.071343 0.247731 -0.676090 0.155820 0.184432 -0.324785 0.171622 -0.802941 0.164047 0.206509 0.004792 -0.104579 0.092792 -0.228926 0.250577 0.211761 0.169408 0.064090 0.097938 0.288332 -0.349617 0.303458 0.231023 0.006436 0.147041 -0.261799 -0.028535 -0.098267 -0.034088 0.065106 0.072832 -0.160598 0.291598 -0.367789 -0.136988 -0.211267 -0.016351 -0.388515 0.044670 0.265517 -0.193835 0.635741 0.412769 0.104940 0.345618 0.219235 0.592215 0.241583 -0.136560 -0.102826 -0.013540 -0.108162 0.024587 -0.214850 0.233517 -0.223032 0.463995 0.279781 -0.150655 -0.368158 -0.169778 -0.117493 -0.134809 -0.291543 0.293219 0.350005 -0.026248 -0.292347 -0.146181
toffe 0.044412 0.185524 -0.113832 0.057953 0.122345 -0.440992 0.233881 0.170847 0.054097 -0.321889 0.085106 0.351390 0.231148 0.237807 -0.393593 -0.363076 -0.192119 -0.028416 -0.336270 0.419610 0.165544 0.094666 -0.319798 -0.171832 0.256996 0.129342 -0.086319 -0.290733 -0.089472 -0.806004 -0.105070 -0.023344 0.266965 -0.508261 0.473607 0.021605 0.029336 0.049779 -0.919386 0.739182 -0.152031 -0.215251 0.197227 0.598552 -0.608452 0.370314 -0.012581 -0.315152 -0.043462 -0.004794 0.590412 -0.415780 0.107969 -0.351365 -0.154144 0.464815 -0.328197 0.026311 -0.279530 0.249496 0.286183 -0.099462 0.004753 0.713670 -0.278494 -0.446375 -0.195602 0.294874 -0.182351 -0.360555 0.299293 -0.430346 0.408370 0.063364 0.094585 0.370008 0.249271 0.423933 0.260653 0.073199 0.105324 -0.059243 -0.525210 0.066404 -0.169035 0.228300 -0.368909 0.640441 0.334727 -0.279662 -0.473498 -0.097319 -0.238653 -0.192116 -0.565707 0.087829 0.143994 -0.132447 -0.171048 0.074533
first 0.072662 0.070240 0.208348 0.181320 0.038961 -0.540628 -0.060748 0.164292 -0.028283 -0.168780 0.258344 -0.126226 -0.529905 -0.049078 0.115589 0.085880 0.060949 -0.504376 -0.139998 0.362295 -0.141383 -0.177118 -0.174171 0.110159 0.162085 0.144872 0.148441 -0.042635 0.307672 -0.227417 0.241373 -0.185644 -0.154306 -0.281323 0.194192 -0.293755 -0.215281 0.053538 0.171795 0.445261 0.203964 0.063252 0.186293 -0.256923 -0.060528 -0.208336 -0.030400 -0.469578 -0.267149 -0.273754 0.147168 -0.416019 -0.041109 0.026127 0.272875 0.326941 -0.162510 0.783102 0.183787 0.070562 -0.015839 -0.335585 0.132549 0.072533 -0.277838 0.366888 -0.266842 -0.092803 0.026809 -0.034848 0.065299 0.395264 0.270790 -0.109087 0.153036 0.013129 0.025265 0.337562 -0.135665 -0.366420 -0.035561 -0.115572 -0.200118 -0.166468 0.002149 0.024723 -0.229988 -0.305851 -0.248538 -0.231502 0.053141 0.079106 0.182169 0.039984 -0.147126 0.309320 0.365142 0.000344 -0.219132 -0.043944
dry 0.233454 0.038022 -0.527432 -0.122668 -0.372714 -0.318357 -0.018095 -0.070761 0.259889 -0.275208 0.604975 0.147937 0.105811 -0.208085 -0.177045 0.191072 0.039441 -0.055859 -0.228501 0.099152 -0.545020 0.242107 0.304156 -0.031782 0.145689 0.410905 -0.250872 -0.284873 -0.109967 -0.504950 0.039319 0.036677 0.253320 -0.733030 0.330415 0.007408 -0.590151 0.164344 -0.743997 -0.120082 0.331048 -0.083271 0.022776 -0.118988 -0.374047 0.351965 -0.209623 0.045048 0.040057 0.292724 0.167904 -0.419280 0.097846 0.223718 -0.113395 0.226754 -0.125877 0.019516 -0.040960 -0.125927 0.216658 0.149515 -0.398662 0.516099 -0.302415 -0.187256 -0.131140 0.250789 -0.457855 -0.020466 0.323326 -0.298565 0.911315 0.201533 0.026021 0.433839 0.298237 0.507389 -0.013616 -0.185630 -0.254039 0.090720 -0.165795 0.006058 0.067330 0.089626 -0.329997 0.169849 0.512463 -0.472217 -0.657245 0.230262 0.045934 0.205760 -0.329777 0.376487 0.367710 -0.040776 -0.164136 -0.279178
rochefort -0.095940 -0.207682 0.313414 0.122138 0.397138 -0.322941 -0.189824 0.104248 -0.072895 0.187450 0.033978 -0.316242 -0.585791 -0.195488 -0.082210 0.108127 0.113889 -0.245540 -0.013297 -0.083762 -0.126877 -0.295472 -0.343012 0.222021 0.050472 -0.085298 0.359687 0.141159 0.264004 0.193277 0.303775 -0.209345 -0.232083 -0.350689 0.161476 -0.145472 -0.058529 0.217389 0.213834 -0.026426 0.007444 0.254604 0.033795 -0.244155 -0.033891 -0.419737 0.129806 -0.233516 -0.128431 -0.425039 0.057911 -0.227249 0.029273 0.024435 0.216863 0.190343 0.089865 0.577987 0.082567 0.039084 -0.087504 -0.408618 0.190819 -0.407749 -0.089975 0.487192 -0.217403 -0.306761 0.065181 0.164376 0.004535 0.618994 0.131216 -0.062881 -0.013969 -0.187973 -0.355339 -0.091123 0.018357 -0.103157 0.020889 0.149988 -0.065615 -0.277968 -0.160330 0.153757 0.001324 -0.276520 -0.375045 -0.025449 0.393444 -0.080629 0.168859 -0.083459 0.001345 0.249731 0.377335 -0.092464 -0.315956 -0.136644
aftertast 0.275739 0.089820 -0.347993 -0.074214 -0.292747 -0.385916 -0.035297 -0.021700 0.218694 -0.204328 0.617663 0.091528 -0.135631 -0.151551 -0.102213 0.255249 0.159960 -0.133974 -0.147198 0.157709 -0.452096 0.123311 0.288141 -0.008580 0.144422 0.382681 -0.157762 -0.221536 0.106315 -0.368082 0.143316 0.008731 0.176090 -0.715422 0.360936 -0.156614 -0.592546 0.110793 -0.502103 -0.029408 0.380555 -0.030072 0.095039 -0.203322 -0.328442 0.176185 -0.187265 -0.025608 0.009217 0.151774 0.148298 -0.450663 0.071304 0.235554 -0.000660 0.233646 -0.109082 0.190209 0.135462 -0.079796 0.090010 0.117585 -0.313032 0.430863 -0.209422 0.068390 -0.244067 0.218016 -0.425164 0.014090 0.226189 -0.139477 0.827104 0.131884 0.045554 0.361108 0.272878 0.485310 -0.078465 -0.312607 -0.256108 0.082960 -0.131634 -0.065891 0.024349 0.121320 -0.287050 -0.078164 0.366069 -0.399207 -0.507564 0.231713 0.082770 0.229488 -0.258140 0.444209 0.434318 -0.088975 -0.187855 -0.245869
mouth 0.481701 0.172783 -0.331628 -0.176906 -0.195988 -0.320370 -0.031660 0.038978 0.242022 0.074786 0.445462 -0.147964 0.057846 -0.368484 -0.263393 0.096927 0.275650 0.012553 0.100612 0.056421 -0.606890 0.098191 0.331857 0.050000 0.139439 0.394765 -0.244882 -0.322365 -0.069636 -0.150686 -0.033225 0.030776 0.107613 -0.479555 0.223833 -0.185884 -0.613018 0.106330 -0.207122 -0.307549 0.353412 0.032588 0.031016 -0.419241 -0.313261 0.108015 -0.006868 0.146571 0.147310 0.252268 0.083463 -0.195306 0.052539 0.211866 -0.010441 0.133546 -0.096089 0.073257 0.159336 0.011890 0.027735 0.281612 -0.070490 0.444787 -0.130460 0.243396 -0.194371 -0.010456 -0.204492 0.254281 0.119035 -0.099205 0.688869 -0.004814 0.082094 0.395723 0.281433 0.428892 -0.053002 -0.345512 -0.253775 -0.021233 -0.069869 -0.295079 0.212421 0.122937 -0.388072 -0.090541 -0.019776 -0.374439 -0.565738 0.263096 -0.134084 0.212498 -0.093037 0.531406 0.434440 -0.112990 -0.305430 -0.055692
no 0.105055 -0.030514 0.141957 0.140873 0.126433 -0.262503 -0.138518 0.098970 -0.031672 -0.081968 0.305606 0.113274 -0.342225 -0.029955 -0.044412 0.215341 0.077895 -0.219335 -0.187067 -0.214280 -0.093263 -0.060984 -0.039470 -0.079088 0.125872 0.184783 0.070629 -0.190654 0.415365 -0.074889 0.074944 -0.036452 0.048167 -0.697997 0.116380 -0.054919 -0.165623 0.212961 -0.228340 0.309901 0.260576 -0.021017 0.017416 0.117676 0.054486 -0.053695 0.076015 -0.112955 0.113273 0.130659 0.233913 -0.139480 0.200080 0.278793 0.090126 0.051697 -0.301465 0.195274 0.099551 0.171096 -0.114229 0.129988 -0.020635 0.073263 0.114974 0.441693 -0.368536 -0.185077 -0.166930 0.332476 -0.206635 0.178107 0.182672 0.055063 -0.094939 0.227170 0.194015 0.572997 0.160906 -0.331124 -0.293222 -0.119607 0.075355 0.038749 -0.239302 0.326479 -0.154433 -0.137990 0.196885 0.017528 -0.005523 -0.139464 -0.012332 0.029823 -0.081546 0.278381 0.349611 -0.192727 -0.149133 0.069133
red -0.137836 -0.428094 -0.019325 0.132323 0.567418 -0.288114 -0.020696 0.085363 -0.265988 -0.149874 -0.179553 0.392620 0.412589 0.105394 -0.239449 -0.408152 -0.254124 -0.186251 -0.469680 -0.185125 0.017387 -0.012566 -0.640846 -0.065504 0.078258 -0.130790 0.076708 -0.295778 -0.124233 -0.309202 -0.131960 -0.091573 0.343391 -0.452116 -0.037836 0.457290 0.526025 0.296938 -0.882460 0.447257 -0.245917 -0.483133 -0.126189 0.557535 -0.365919 0.172879 0.539113 -0.211579 -0.007518 -0.133031 0.664349 -0.243028 0.212486 -0.221950 -0.254123 0.148900 -0.151285 -0.468687 -0.614892 0.126302 0.273756 -0.315793 0.415230 0.022225 -0.259892 -0.300216 0.213120 -0.348582 -0.217646 0.123357 0.168825 -0.006886 -0.051703 0.382277 -0.194962 0.055956 0.023051 0.380100 0.464869 0.373538 0.183666 -0.135832 -0.136111 0.138329 -0.336581 0.653931 -0.076909 0.880402 0.188572 0.032276 -0.171304 -0.606364 -0.324537 -0.633253 -0.486311 0.063032 0.028474 0.085430 0.113508 0.126779
ve -0.117438 0.196303 0.209584 0.131896 0.487691 -0.461656 -0.488695 0.390347 -0.177543 -0.062656 0.099930 -0.559208 -0.814795 -0.204248 0.105288 -0.017222 -0.149100 -0.645113 -0.225185 0.204783 -0.219475 -0.470743 -0.394878 0.297046 0.040048 0.072303 0.284543 0.098037 0.247147 0.351419 0.801946 -0.211115 -0.399616 -0.223747 0.268842 -0.594586 -0.283385 -0.085752 0.726399 0.051584 -0.465125 0.502459 0.367985 -0.312181 0.100091 -0.416812 -0.044978 -0.469598 -0.144545 -0.441397 -0.009226 -0.532996 -0.004233 0.163107 0.361212 0.626934 0.280383 0.926961 0.052243 -0.052925 -0.145273 -0.738354 0.316894 -0.111675 -0.113116 0.699118 -0.128982 -0.355543 0.549461 0.143077 -0.434305 0.589056 0.224086 -0.126318 0.025956 -0.265175 -0.308544 0.400218 -0.115900 -0.675940 0.152400 -0.147022 -0.039673 -0.214568 0.180873 -0.071162 0.107524 -0.451822 -0.440433 -0.268744 0.623800 0.152385 0.295377 -0.159229 -0.013841 -0.146314 0.337888 -0.376963 -0.047498 0.415229
candi -0.195434 0.213452 -0.075061 -0.025604 0.154235 -0.415951 0.163707 0.344223 0.070141 -0.293507 0.103068 0.364688 -0.026625 0.233215 -0.185618 -0.214447 -0.464299 0.016412 -0.637987 0.700458 0.247206 -0.031815 -0.465724 -0.296821 0.201388 0.122607 -0.106231 -0.183867 0.102384 -0.653277 -0.112380 0.055848 0.372341 -0.511484 0.248446 0.141732 0.143044 0.067070 -1.101002 0.963397 -0.322165 -0.288658 0.294857 0.501050 -0.596008 0.334762 0.047655 -0.052268 0.037705 -0.183375 0.816040 -0.484741 0.016083 -0.428208 -0.170504 0.392682 -0.110674 0.036475 -0.221332 0.243910 0.106918 -0.027125 0.100434 0.615364 -0.201052 -0.176610 -0.114186 0.033847 -0.080157 -0.069587 0.305876 -0.161761 0.207925 0.084309 -0.174529 0.291042 0.478060 0.387581 0.246765 0.230508 0.060126 0.012197 -0.497178 0.224704 -0.243184 0.249074 -0.133376 0.462188 0.403400 -0.594023 -0.664024 -0.052504 -0.005066 -0.385408 -0.734589 0.044046 0.136213 -0.090198 -0.113834 -0.003035
spici 0.127317 0.191070 -0.215895 -0.090482 -0.106734 -0.378751 0.008823 -0.009590 0.191877 -0.255078 0.392345 0.262899 0.049344 0.087259 -0.337760 -0.069122 -0.105807 -0.046288 -0.216429 0.304065 -0.081027 0.105520 0.102427 -0.097688 0.337505 0.416028 -0.060898 -0.297412 0.125675 -0.664248 -0.007126 -0.007283 0.207430 -0.759343 0.470758 -0.162562 -0.264635 0.052031 -0.705951 0.417304 0.275348 -0.146569 0.122031 0.275900 -0.483751 0.339932 -0.169836 -0.156458 0.033163 0.017791 0.430855 -0.416633 0.069379 -0.090235 -0.068947 0.256721 -0.368656 -0.028696 -0.048914 0.208760 0.040570 0.190363 -0.127106 0.580546 -0.220401 -0.202474 -0.343825 0.353853 -0.346355 -0.156680 0.295317 -0.272290 0.579434 -0.011759 0.002403 0.436944 0.466008 0.515953 0.025810 -0.133996 -0.201363 -0.007679 -0.379399 0.101586 -0.056507 0.212958 -0.364875 0.276282 0.454752 -0.382768 -0.551771 0.095412 -0.113076 0.055955 -0.463450 0.264910 0.294301 -0.255224 -0.216414 -0.084889
perfect 0.189941 -0.039887 -0.113542 0.085585 0.069578 -0.403441 -0.169203 0.030180 0.051619 0.041495 0.349050 -0.163095 -0.289478 -0.332571 -0.038507 0.200108 0.163312 -0.086134 -0.183305 -0.159744 -0.403278 -0.125971 -0.136082 0.117616 -0.076741 0.086999 0.122992 -0.042860 0.152587 0.110568 0.299720 -0.053445 0.001983 -0.632557 0.109521 -0.110452 -0.275607 0.227010 -0.028493 -0.091861 0.012576 0.257506 0.057314 -0.237943 -0.124311 -0.181039 0.012059 0.023044 -0.007634 0.015104 0.087226 -0.276731 0.182176 0.258069 0.092787 0.129384 0.166382 0.277803 -0.084624 -0.006771 -0.008457 -0.006525 0.080643 -0.065930 -0.108671 0.433797 -0.127149 -0.263562 -0.180042 0.324929 -0.104859 0.180019 0.451119 0.035187 0.019232 0.072436 -0.077842 0.342639 0.034690 -0.364071 -0.057180 0.076502 -0.040507 -0.221589 -0.071607 0.206646 -0.163001 -0.144983 -0.181277 -0.152480 -0.047658 0.105634 0.053674 0.154725 -0.237740 0.419026 0.507311 -0.148794 -0.240827 -0.053613
wine -0.017270 -0.075478 0.048352 0.124237 0.266087 -0.638448 0.051095 -0.154330 -0.113606 -0.407552 -0.160077 0.175428 0.128163 0.055255 -0.263170 -0.149376 -0.166211 -0.105679 -0.406916 0.105242 -0.022748 -0.034307 -0.431344 -0.094761 0.102671 0.079474 0.135175 -0.261257 -0.153300 -0.573233 0.026424 -0.284343 -0.036065 -0.494090 0.278564 0.011371 0.211645 0.057142 -0.443523 0.341488 -0.004240 -0.420704 0.055234 0.403089 -0.531729 0.304543 -0.005555 -0.440550 -0.056029 -0.125425 0.519715 -0.375823 -0.010182 -0.350719 -0.047913 0.271433 -0.172163 -0.102575 -0.519930 0.098927 0.163899 -0.315042 0.194699 0.247442 -0.302467 -0.299381 -0.033545 0.097193 -0.025132 -0.071250 0.097212 -0.005798 0.178045 0.053317 0.013538 0.102028 0.100775 0.239119 0.173562 -0.020909 -0.051288 -0.235031 -0.168797 0.238633 -0.019530 0.414137 -0.267105 0.417261 0.183972 -0.213483 -0.088777 -0.101966 -0.233463 -0.299650 -0.442671 0.131818 0.250583 -0.148514 -0.048235 0.173059
beig 0.073930 -0.598601 0.270409 0.008149 0.422543 0.156527 -0.251315 0.161964 -0.183367 0.137509 0.382416 0.368345 0.482599 0.256046 -0.055837 -0.405376 -0.148927 -0.504634 -0.080785 -0.626578 -0.072803 -0.082273 -0.072874 -0.108343 0.157328 0.165299 -0.104546 -0.507089 0.447278 0.193986 -0.235077 0.423475 0.635469 -0.644201 -0.309078 0.225442 0.458210 0.204744 -0.533432 0.425796 0.298596 -0.177947 -0.059902 0.479804 0.384628 -0.117741 0.931503 0.076507 0.015153 0.119284 0.411755 0.107963 0.463594 0.370750 -0.027461 -0.306105 -0.477944 -0.452653 0.061669 0.249356 -0.159403 0.423240 0.388067 0.025354 0.005393 0.204022 -0.136026 -0.612666 -0.442058 0.436581 -0.269795 -0.020261 -0.120482 0.467853 -0.519555 0.259227 0.466468 1.042071 0.510058 -0.230099 -0.189821 -0.382443 0.182306 0.031388 -0.804505 0.564959 0.198858 0.620032 0.318712 0.356241 -0.125126 -0.729671 -0.536817 -0.421344 -0.097712 0.320755 -0.027998 0.144465 0.247938 0.114217
overal 0.186708 0.033522 -0.237133 -0.102374 -0.086372 -0.452368 -0.169340 0.022871 0.207028 0.088425 0.529270 -0.231368 -0.519923 -0.393856 -0.046562 0.373500 0.308171 -0.156844 -0.102730 -0.019445 -0.626288 0.025930 0.129052 0.079093 -0.049082 0.243236 -0.015914 -0.111570 0.273940 -0.089441 0.328931 -0.030560 0.009650 -0.662530 0.251538 -0.312016 -0.660992 0.209895 -0.116501 -0.242788 0.206694 0.216410 0.064234 -0.427061 -0.282651 -0.133900 -0.041631 0.134912 0.140190 0.100775 -0.036123 -0.372711 0.102321 0.193530 0.094096 0.290696 0.035335 0.461537 0.168618 -0.125351 -0.020555 0.124274 -0.178818 0.170429 -0.138001 0.550868 -0.297620 -0.119047 -0.188785 0.242355 0.005990 0.072368 0.699131 0.060103 0.105583 0.154105 0.105152 0.259640 -0.233010 -0.388938 -0.103927 0.173063 -0.020216 -0.268674 0.165316 0.112455 -0.265157 -0.421401 -0.021077 -0.332426 -0.280104 0.321106 0.118745 0.257712 -0.110007 0.397006 0.655165 -0.167471 -0.282522 -0.185503
better -0.061740 0.098045 0.184072 0.062681 -0.003334 -0.378413 -0.056921 0.051685 -0.093339 -0.104658 0.119768 -0.273991 -0.679899 -0.198918 0.058532 0.377987 0.159882 -0.280774 -0.106973 0.140869 -0.194884 -0.093775 -0.132448 0.129391 0.005999 -0.004265 0.131153 0.010852 0.130885 -0.126264 0.330174 -0.252802 -0.304995 -0.248475 0.272553 -0.291054 -0.418965 0.015145 0.355755 0.025081 -0.021030 0.248927 0.127118 -0.256373 -0.022797 -0.249764 -0.237960 -0.349284 -0.039108 -0.107361 -0.054819 -0.269947 -0.070545 -0.053273 0.235647 0.310595 0.014969 0.772845 0.088351 0.058687 -0.080736 -0.168947 -0.133812 -0.013647 -0.026476 0.517228 -0.328210 -0.134295 0.189375 0.054638 -0.083598 0.451438 0.262046 -0.192218 0.233553 -0.002846 -0.178331 -0.071260 -0.217535 -0.284949 -0.101451 0.111628 -0.055335 -0.171847 0.098084 -0.083365 -0.227504 -0.612751 -0.261331 -0.269192 0.299195 0.319734 0.310196 0.173209 0.030340 0.157821 0.445645 -0.112271 -0.243741 -0.038738
even -0.034272 0.189176 0.103790 0.066346 0.122429 -0.482240 0.009028 0.101194 -0.079349 -0.165225 0.131653 -0.114467 -0.571597 -0.113089 0.014998 0.204644 0.135889 -0.259339 -0.211334 0.263631 -0.193595 0.025521 -0.257920 0.022376 -0.012446 0.059674 0.063409 -0.070766 0.144110 -0.302840 0.279149 -0.177834 -0.084356 -0.366154 0.291454 -0.197214 -0.371617 -0.007929 -0.094860 0.282252 -0.125410 0.077935 0.198579 -0.070719 -0.243398 -0.066602 -0.087477 -0.326760 -0.001274 -0.092265 0.187585 -0.371155 0.006359 -0.141413 0.100298 0.422585 -0.084382 0.615620 0.022658 0.104381 0.062814 -0.185725 -0.035109 0.260568 -0.069361 0.414807 -0.304206 -0.053631 0.127807 0.017281 -0.042399 0.202945 0.346374 -0.045863 0.226549 0.115779 -0.045575 0.091019 -0.095121 -0.175285 -0.028960 0.013902 -0.124468 -0.081197 0.038994 0.069088 -0.343923 -0.337126 -0.156667 -0.305574 0.021809 0.188536 0.175118 -0.019539 -0.090632 0.116138 0.429743 -0.057063 -0.256818 0.104359
slight 0.061132 0.038420 -0.144649 0.050139 0.023966 -0.262729 0.018845 0.117783 0.093272 -0.205628 0.281154 0.245661 0.064842 -0.013026 -0.266375 0.019056 -0.085878 -0.011761 -0.338000 0.102662 -0.033784 0.145344 -0.110145 -0.133096 0.155662 0.145485 -0.088482 -0.230340 0.023939 -0.486176 -0.027184 0.018634 0.222944 -0.612342 0.245618 0.194774 -0.252679 0.199691 -0.842637 0.386543 0.004424 -0.136028 0.042570 0.297655 -0.306097 0.296036 -0.072595 -0.048468 0.135230 0.173885 0.401326 -0.327222 0.157078 0.042609 -0.112594 0.270593 -0.238030 -0.066917 -0.234659 0.173184 0.153207 -0.013485 -0.087643 0.482201 -0.076945 -0.110033 -0.158392 0.085158 -0.232801 0.000480 0.228627 -0.258563 0.500705 0.186425 0.032832 0.338306 0.200525 0.515047 0.338295 0.010161 -0.114319 -0.020082 -0.271367 0.067598 -0.100466 0.332821 -0.355761 0.410399 0.360583 -0.167974 -0.409231 -0.090674 -0.053730 -0.102401 -0.391531 0.155069 0.276971 -0.111099 -0.234713 0.007607
hop 0.142685 0.261889 -0.233393 -0.037776 -0.189256 -0.295255 0.047654 0.012406 0.193796 -0.271406 0.347973 0.234898 0.046749 -0.019313 -0.283997 0.190985 -0.111118 0.015644 -0.286124 0.225731 -0.051237 0.193910 0.132482 -0.035162 0.239830 0.264327 -0.027106 -0.270061 0.007823 -0.532141 0.008141 -0.006033 0.111016 -0.621936 0.436957 -0.070929 -0.408320 0.057834 -0.574299 0.273743 0.097319 -0.100372 0.132823 0.282061 -0.368700 0.380825 -0.393260 -0.101333 0.070302 0.183175 0.321456 -0.379492 0.072398 0.010291 -0.111810 0.277944 -0.279040 0.002878 -0.168125 0.065761 0.063201 0.108010 -0.229489 0.552864 -0.077871 -0.177697 -0.267943 0.273393 -0.197381 -0.092427 0.199275 -0.313605 0.597912 -0.048627 0.036720 0.367071 0.325833 0.443897 0.141882 -0.153755 -0.284623 0.017425 -0.398526 0.065127 -0.006124 0.080932 -0.417760 0.165205 0.423318 -0.347500 -0.414626 0.195470 0.013784 0.122665 -0.389306 0.151057 0.294514 -0.248626 -0.160282 -0.037306
bread -0.028004 0.161939 -0.141799 0.015432 0.132076 -0.234915 0.200861 0.158981 0.047605 -0.250183 -0.033928 0.343295 0.187774 0.322049 -0.328760 -0.372984 -0.278027 0.112337 -0.351782 0.423604 0.276239 0.039808 -0.267441 -0.223778 0.204759 0.044310 -0.082339 -0.170472 -0.115852 -0.691911 -0.163449 0.026828 0.262283 -0.353372 0.338166 0.041998 0.161984 -0.021281 -0.863566 0.667139 -0.181960 -0.260309 0.151458 0.544418 -0.601600 0.332493 -0.072650 -0.181973 0.020038 -0.069730 0.510119 -0.315020 0.003800 -0.424076 -0.192565 0.354273 -0.215583 -0.147416 -0.224857 0.328772 0.261579 -0.052877 0.087537 0.644899 -0.136152 -0.401926 -0.014968 0.297335 -0.135237 -0.401731 0.234137 -0.457744 0.218169 -0.004499 0.024184 0.282571 0.295659 0.228144 0.192894 0.190525 0.155668 -0.000376 -0.457150 0.186608 -0.112464 0.292254 -0.258173 0.523032 0.357584 -0.284265 -0.485096 -0.100543 -0.228350 -0.217957 -0.540839 -0.014481 -0.028302 -0.087747 -0.110483 0.120254
date -0.091754 0.176465 0.302484 0.267677 0.400366 -0.567709 0.189298 0.256601 -0.182244 -0.391027 -0.260547 0.152312 -0.162737 0.165408 -0.127495 -0.427826 -0.004386 -0.048460 -0.486348 0.647593 0.224344 -0.268301 -0.758560 -0.017637 -0.180974 -0.154141 0.210738 0.188191 -0.152715 -0.501608 0.088722 -0.147336 0.064125 -0.264761 0.331354 0.028391 0.269470 -0.106952 -0.587392 0.855987 -0.537742 -0.089849 0.279540 0.395434 -0.656954 0.000702 0.019598 -0.434557 -0.166430 -0.321274 0.596942 -0.509454 0.035939 -0.521370 0.114244 0.553185 0.037228 0.409976 -0.335332 0.343642 0.353574 -0.702967 0.268901 0.514461 -0.144500 -0.131989 -0.013138 0.139018 0.174357 -0.469757 0.084281 -0.023376 0.163246 0.044181 0.272435 0.011618 -0.227621 0.034908 0.316043 0.051658 0.375716 -0.191097 -0.364834 0.072400 -0.202060 0.375430 -0.129683 0.380606 -0.101558 -0.192620 0.037392 -0.175286 -0.254425 -0.452567 -0.403313 -0.029316 0.105786 -0.018791 -0.326597 0.399493
