130 100
</s> -0.0065695 0.0071443 -0.010635 -0.0023698 0.0041931 0.0028737 0.0035105 0.00045865 0.010725 0.018232 -0.005443 0.0065688 0.01074 0.0080311 -0.0049596 -0.0018088 0.00017715 0.0080084 0.00054774 -0.015053 -0.0043112 0.0073224 0.0073459 -0.0046464 0.0041155 -0.0096669 0.0059675 -0.00033825 -0.0046201 0.019555 -0.0088518 -0.0010293 -0.011087 -0.0042819 -0.0087402 0.00060201 0.0068117 -0.011262 -0.0042645 -0.0099573 0.011785 0.010024 0.0037545 0.00038154 -0.0041329 0.004496 -0.0047172 -0.0035798 -0.0045193 0.0081669 -0.0078127 0.014438 -0.014599 0.0075112 -0.00094211 -0.0097766 -0.00061611 0.00058322 0.0071504 0.0031166 -0.0048532 0.008902 0.0072318 0.0064476 -0.0037037 0.0047636 -0.0084348 0.01183 0.011726 0.0080614 -0.011922 0.00076255 -0.004254 -0.00087767 0.0011538 -0.0046176 0.011142 0.012363 -0.0032249 -0.006911 -0.011982 0.0082377 0.014078 -0.010415 -0.0077476 -0.013086 -0.0011644 0.0045824 -0.0081519 -0.0045388 0.011075 0.0035872 0.011549 -0.012541 0.0021132 -0.0050027 0.0019238 0.013444 -0.0023008 -0.0040337 
malt 0.0053448 -0.001493 -0.0062473 -0.002993 -0.0014231 0.0051483 -0.0020203 0.0037356 0.00034706 0.011152 -0.0073684 0.0070152 0.0036263 0.0022266 -0.0015424 -0.0014753 -0.0004343 0.0034933 -0.0019631 -0.010185 -0.0032335 0.0026675 0.00096265 0.0052283 -0.0020496 -0.0072805 0.0048134 0.0017229 -0.0055405 0.017233 -0.0046971 0.0042911 -0.0036214 0.0020272 -0.00051705 0.0010803 0.0011489 -0.0036624 -0.0040835 -0.0052747 0.0025731 0.0052315 2.3145e-05 -0.0026699 0.0006071 0.0054815 0.0016432 0.0037592 0.0025869 0.0085024 -0.0032432 0.0080275 -0.0066486 0.0017565 -0.0028513 -0.0086225 -0.0044112 -0.0019226 0.0056053 -0.0017532 0.0012514 0.0052919 -0.00089466 0.0042008 0.0020132 0.0061347 -0.0039156 0.012444 0.0037797 0.0028629 -0.0010946 0.0024671 0.0011163 -0.0054053 0.0010433 -0.0018785 0.00048681 0.0032326 -0.005804 -0.0053625 -0.0082244 0.0036174 0.0062668 0.00084234 -0.00064706 -0.0082967 -0.0056036 0.0069543 -0.0036553 -0.00071157 0.0032979 0.00053163 0.0017758 -0.0052499 0.0013733 0.0044833 -0.0092455 0.0068356 0.0044759 -0.0053889 
dark 0.0016817 0.0015178 -0.0037887 0.00025171 -0.0033738 0.0030896 -0.0024549 -0.0018427 0.00032446 0.0096465 -0.0049311 0.0053702 0.0032453 -0.002886 -0.00067765 0.00047817 0.00099767 -0.0006783 -0.0015342 -0.0076319 -0.00062677 0.0013054 0.0013485 0.0027701 -0.0026939 -0.0029787 0.0032765 0.0035033 -0.0022261 0.013411 -0.0031637 0.0033736 -0.0030942 -0.00094786 0.00075555 0.0025092 0.0033373 -0.0035738 0.00071591 -0.0055665 0.00077373 0.004848 0.003592 -0.0028208 0.00081761 0.0023603 0.0015603 -5.0938e-05 0.0062624 0.0027492 -0.0031195 0.0041874 -0.0079164 0.0013158 -0.001259 -0.0028478 -0.0047764 -0.0057086 -0.00042884 -0.0006281 0.0010598 0.0038288 0.0015859 0.0029116 -0.0004106 0.0048795 -0.00092552 0.0058367 0.0058727 -0.001424 -0.004322 -0.0014666 0.0010944 -0.0040021 0.0026736 0.0027094 0.0041847 0.0013132 -0.0014062 -0.0044981 -0.0029301 0.0022852 0.0028305 0.00047441 -0.0044902 -0.0076206 -0.0022495 0.0046248 -0.0035803 -0.0019345 -0.0013887 0.00015665 0.0034714 -0.0049889 0.00025606 0.0036249 -0.004413 0.0039993 0.0035765 0.0010383 
head 0.0028084 -0.00049554 -0.005476 -0.0013803 -0.0018136 0.0032546 -0.0048418 0.0006353 0.00097374 0.003789 -0.0012968 0.002786 0.0013246 -6.4407e-05 0.00017365 -0.0015592 -0.0029476 0.0017158 -0.0001835 -0.0023005 -8.2562e-05 -0.0017542 -0.00020541 0.00089865 -0.0031807 -0.00012077 0.0024967 0.002043 -0.0013872 0.0077043 -0.0010589 0.0054843 -0.00019058 0.006202 0.00073994 0.0052384 0.0033144 -0.00134 -0.0027911 -0.0022009 0.0012182 0.0019404 -0.0020787 0.00060645 -0.00018649 0.0017344 -0.0020264 0.0010467 -0.0014956 0.0032906 0.0012362 0.0028332 -0.0020028 0.0039624 -0.0032594 -0.0017426 -0.0010903 -0.0014439 0.00074784 0.0014305 0.0019615 0.0036756 0.00066 -0.00011889 -0.0012038 0.0034831 -0.003146 0.0028974 0.002208 -0.00028687 -0.0009992 0.0014949 -0.00063959 0.0026629 0.00011586 -0.00014659 0.002635 0.0022918 -0.00049126 -0.0024591 -0.00044883 0.0035152 0.0031043 0.00016222 -0.00081427 -0.0048563 0.00020622 0.0040264 -0.0049686 -0.0012934 -0.00022615 -0.0031085 -0.0016527 -0.00072791 -0.00085977 0.0010715 -0.0036763 0.0029398 -0.00010889 -0.00085723 
aroma 0.0010574 -2.8055e-05 -0.0041096 -0.0012809 -0.0025284 0.0019559 -0.0032963 -0.0019363 0.0014554 0.010562 -0.0069118 0.0069489 -0.00076454 -0.0016599 0.001783 -0.00072464 -1.4678e-05 0.003376 9.6925e-05 -0.0074379 -0.0049754 0.0023339 0.00090353 0.0049761 -0.0021725 -0.0018993 0.0059991 0.0034671 -0.0025581 0.014863 -0.00019006 0.0029014 -0.0026249 0.0022453 0.0011316 0.0016418 0.0045489 -0.00080093 -0.001547 -0.0049889 0.0026163 0.0030238 0.0033044 -0.001805 0.0034471 0.0037908 -0.00062271 0.00048792 0.0051323 0.0071615 -0.00052584 0.010769 -0.0070193 0.00165 0.0019377 -0.008622 -0.0025416 -0.0016647 0.0035776 -0.0034815 0.0027192 0.0040825 0.0022014 0.00019525 -0.0020902 0.0020892 -0.0024404 0.007938 0.0069512 0.0020053 -0.0046335 0.0031093 -0.00039211 -0.0016521 0.0024699 -0.002451 0.0017775 0.0050871 -0.0022892 -0.0015957 -0.0057093 0.0042423 0.0073493 -0.0063536 -0.006612 -0.0065987 -0.0023487 0.0076134 -0.0071889 0.00044401 0.0033867 -0.0015872 0.004261 -0.00372 3.8786e-05 0.0039973 -0.0046809 0.0032264 0.0037424 -0.0012301 
sweet 0.0038858 0.00084465 -0.0012448 -8.0137e-05 0.00064439 0.0037776 -0.0032177 0.0011705 -0.00083361 0.0054019 -0.0014963 0.0029045 -0.0014471 -0.00075512 -0.0014741 0.00171 -0.00078368 0.0035711 -0.0015496 -0.0069991 -0.0040636 0.0025227 0.0023297 3.0732e-05 -0.0025475 -0.00015724 0.0046019 0.0014016 -0.0021412 0.0068344 -0.0036351 0.0012905 -0.0021577 0.0045155 0.00028908 0.001358 -0.00054744 -0.0014805 -0.0043281 -0.002164 0.0033663 0.0010968 -0.0011799 0.002163 0.00015683 0.001958 0.00067382 -0.0002749 0.0039817 0.0043367 0.0010997 0.00048602 -0.0061565 0.0019444 0.00084165 -0.00015061 -0.0003974 -0.0010002 0.0045958 -0.00067385 0.00082281 0.001516 0.00096346 0.0020047 0.0028078 0.00086525 -0.0028755 0.0051871 0.00054364 0.0046752 -0.0011388 -0.00041427 0.00053855 -0.0010443 0.0021002 0.00093317 0.0016792 0.0018955 -0.00011675 -0.00017965 -0.0018804 0.0037106 0.0041586 0.0019027 -0.0012101 -0.0049338 -0.0065271 0.0019967 -0.0042874 0.00011049 0.0031381 0.001059 0.0011816 -0.004097 0.0010346 0.00063408 -0.004307 0.0015167 0.0049162 -0.0019664 
beer 0.0028722 0.00081632 -0.005546 -0.0021441 9.6232e-05 0.0035476 -0.0054427 0.0029715 -0.00071296 0.011405 -0.0044231 0.0053457 -0.00010233 -0.00069443 -0.0011982 6.3248e-05 -0.0020342 0.0028252 -0.0022685 -0.0078674 -0.0031255 -0.00085449 7.3252e-05 0.0021319 -0.0042904 -0.0031537 0.0050588 0.0058113 -0.0064814 0.011462 -0.0024134 0.0017419 -0.0055924 0.0032756 0.0024342 0.00062115 0.0028846 -0.0027808 -0.0015093 -0.0053433 0.0025034 0.0045739 -0.00059379 -0.0023633 2.7018e-05 0.0036562 0.0016115 0.0012024 0.0090216 0.0057157 0.0003419 0.0088627 -0.0083096 0.005734 0.0024876 -0.004645 -0.0038628 -0.0012861 0.0065489 -0.0012071 0.0030447 0.0078059 0.0025872 0.0016566 -0.0010209 0.0088023 -0.0031941 0.0082783 0.0048977 0.0025216 -0.001718 0.001463 0.00093414 0.0018089 0.0010751 -0.0029036 -0.00049783 0.0045543 -0.0063082 -0.0075805 -0.0044629 0.003493 0.0070985 -0.0013048 -0.00050323 -0.0077919 -0.0012995 0.0062324 -0.0038124 -0.0014654 0.0030352 -0.0027703 0.00042414 -0.0026134 0.00058546 0.0039557 -0.0069278 0.004002 0.0052057 -0.002958 
flavor 0.0014673 -0.0004621 -0.0043654 -0.0019686 -0.00067242 0.0011334 0.00032041 -0.00039648 0.0022247 0.010688 -0.0046987 0.0051327 0.0020332 0.00063928 -0.0031143 -0.0016418 0.00027183 0.0024486 0.00023988 -0.0077105 -0.0031808 0.0019434 0.0027466 0.0010092 -0.0011683 -0.0039442 0.0035396 0.0037468 -0.0016138 0.009531 -0.0013544 0.0023124 -0.0021275 0.00096838 0.00028281 0.0017963 0.0030373 -0.003428 -4.2147e-05 -0.0032515 0.0018349 0.0013281 0.0014921 -0.00082251 -0.0014742 0.0030622 -0.00046496 0.002532 0.0035427 0.0059182 -0.0015356 0.0050064 -0.0052336 0.0033311 0.00011958 -0.0045598 -0.00096163 -0.0029284 0.0032959 0.001546 0.003326 0.0021386 -0.0022256 0.00080403 -0.00067864 0.005311 -0.00087832 0.0089504 0.0028034 0.00058848 -0.0024454 0.0013423 -4.3128e-05 -0.0045998 0.0023977 -0.0008581 0.00011216 0.0029202 -0.0022163 -0.0028572 -0.0040133 0.0012173 0.0072519 -0.00010773 0.00011851 -0.0046437 -0.0028175 0.0052267 -0.0043685 -0.00083071 0.0010285 0.00014053 0.00096235 -0.0046012 7.6442e-05 0.0049063 -0.0050914 0.005233 0.0040288 -0.002501 
bitter 0.0014706 0.001151 -0.0035501 0.00052381 -0.00031015 0.00047811 -0.0027208 -0.0021401 1.951e-05 0.0090414 -0.0058169 0.0031433 -0.00041746 0.00096337 0.00065671 9.2592e-05 -0.0012028 0.0038914 0.00061266 -0.0053655 -0.0041032 -0.00074788 0.0023253 0.0028701 -0.002953 -0.0034147 0.0044928 0.0019802 -0.0029421 0.011318 -0.0011778 0.0022102 -0.003521 0.0032737 0.00013047 0.0016855 0.0031425 -0.0036569 -0.0033838 -0.0040166 0.00060214 0.0026337 0.0015673 -0.0012026 -0.00030877 0.0022626 -0.002781 0.0027067 0.0028187 0.0085835 -0.0029995 0.0047398 -0.0050133 0.0053661 0.0014625 -0.0043155 -0.0020603 -0.0014442 0.005966 -0.00068091 0.0030254 0.0024467 0.00072711 0.0020099 0.00094264 0.0049133 -0.0009882 0.0063462 0.0042329 0.0027686 -0.0020383 -0.0012252 0.0021812 -0.0067363 0.00044953 0.00069642 0.00399 0.0041139 -0.0026859 -0.0054923 -0.001848 0.0042489 0.0054175 -0.0019473 -0.0041404 -0.0067831 -0.0030502 0.0054825 -0.0042155 0.0013896 0.0016324 0.00046942 0.0030271 -0.0044975 0.0031035 0.0048053 -0.0063314 0.0043355 0.0064776 -0.0019327 
brown 0.0025913 -0.0021873 -0.0057784 -0.00086305 -0.0015517 0.0042988 -0.0028996 0.00071315 0.0003863 0.0075893 -0.0045987 0.0058367 0.001826 -0.0025402 -0.00056404 -0.0010003 -0.0013859 0.0016264 -0.0003988 -0.0076904 -0.0050166 -0.00024329 0.0027084 0.00070396 -0.0029107 -0.0052581 0.004957 0.0023625 -0.0027821 0.010415 -0.0020814 -0.0016126 -0.0033172 0.0038809 9.3483e-05 0.0053321 0.0049913 -0.002458 -0.0024122 -0.0042387 -0.00015418 0.0035417 -0.00072298 -0.00098352 -0.00029878 0.0053867 0.0037251 0.0025705 0.0026076 0.0053246 -0.003093 0.005571 -0.0059687 0.0031134 0.0016855 -0.0062745 -0.002039 -0.0021982 0.0012453 -0.0030921 0.0015315 0.0040424 0.002959 0.0037388 -0.00052012 0.004362 -0.0021865 0.0076962 0.0043222 0.0038428 -0.0030429 -0.00057728 -0.0015478 -0.0028989 0.00096985 -0.0031724 0.0022717 0.0013865 -0.0015683 -0.00058082 -0.0012676 0.0010862 0.0018635 -0.0013497 -0.0011426 -0.0030035 -0.0015509 0.0058368 -0.0054205 -0.0013588 0.0013806 -0.0014694 0.0018905 -0.0026715 -0.00071508 0.0072888 -0.0059272 0.0049074 0.0041022 -0.0025627 
caramel 0.0009677 -0.0019531 -0.0056226 0.00026763 0.001295 0.0027368 -0.0030839 0.00038405 0.00048406 0.0084264 -0.0051906 0.004667 0.0014744 0.0025942 -0.00040938 -0.0033869 0.0028508 0.0033903 -0.00092955 -0.0083574 -0.0020785 0.00067036 0.0012091 0.0020061 -0.0012874 -0.0036359 0.0051965 0.0021881 -0.0032017 0.012491 -0.0010386 0.0033924 -0.0049807 0.0019137 -0.00068708 -0.00013325 0.0048913 -0.0027544 -0.0011694 -0.0051893 0.0028866 0.0029411 -0.0010236 -0.0010253 0.0020018 0.004043 -0.00039184 0.0016468 0.0023322 0.0069373 0.00022874 0.0075539 -0.0038713 0.0017422 -2.9872e-05 -0.0042816 -0.0020921 -0.0011678 0.0063792 -0.00032216 0.0015571 0.0070124 0.0033389 0.0023318 0.0011631 0.0047374 -0.0010668 0.0059796 0.0041078 0.0021763 -0.00026028 -0.00042338 -0.00042422 -0.0049414 0.0014911 0.00034725 0.0011856 0.0018591 -0.00029093 -0.0054329 -0.0021335 0.00094156 0.0066048 -0.0010453 -0.0020794 -0.0047065 -0.0034651 0.0054634 -0.0054951 -0.0014822 0.0024845 0.00010974 0.0029561 -0.0028386 0.00050075 0.0050589 -0.004539 0.005076 0.0042787 -0.0011575 
bottl 0.00079633 -0.0024464 -0.0031952 0.00037981 -0.0026449 0.0030896 0.00011643 -0.0026293 0.0011553 0.0050205 -0.0019437 0.0030151 0.0010727 0.0030362 -0.00073937 -0.0047537 -0.00043588 0.0020405 -0.0022269 -0.004588 -0.002214 0.0027348 0.0010344 0.0023466 -0.0015431 -0.00115 0.0017386 0.003751 -0.0019883 0.005834 -0.0017838 0.0036562 0.0003907 0.0013317 0.0013114 0.00021341 0.0008991 -0.002921 -0.00034003 -0.0054456 0.0026129 0.0024912 0.00048312 0.0004689 0.0041087 0.0022061 0.0012493 0.00193 0.0021197 0.0041819 -0.0015999 0.0027655 -0.0041688 -0.0001396 -0.0018254 -0.0021279 -0.00089117 0.00017935 0.0033131 -0.00030653 0.002252 0.00083901 -0.0012608 0.0028537 0.0021984 0.0025165 -0.002185 0.0039055 0.0016832 0.0030823 -0.0021656 0.00056355 0.0025535 -0.0026698 0.00070424 0.0020088 0.0021962 0.0038295 -0.0018657 -0.0020146 -0.0019193 0.0030892 0.0017769 -0.00074154 -0.00097359 -0.0040509 0.0010716 0.0011697 -0.0035509 -0.0020983 -0.0008844 -0.00076992 0.00049862 -0.0012681 0.00033902 0.0013361 -0.0062616 0.0030692 0.0016469 -0.00037217 
chocol 0.0020936 -0.0013179 -0.0038148 0.00089012 0.00099444 0.0036121 -0.0026083 0.0017518 0.0029448 0.004988 -0.0041439 0.0029883 0.0014493 0.0009974 -0.00044 0.0020763 -0.00047251 0.0017394 0.00059143 -0.007577 -0.004992 0.0021025 0.00080449 0.0010782 0.00051638 -0.0046085 0.0025915 0.0047043 -0.00025819 0.0062901 -0.0024372 0.0024285 -0.0024281 0.0015774 0.00050959 0.0023513 0.0026011 -0.0044057 -0.0017231 -0.0018585 0.0019745 0.002862 -0.0007996 -0.0027574 1.7777e-05 0.0037858 0.0014243 0.0016151 0.003347 0.0070231 -0.0016232 0.0049768 -0.0037124 0.0033179 -0.0009126 -0.0020104 -0.00099133 -0.0036039 0.0021799 0.00088347 0.0002979 0.0056171 0.0009038 0.0027409 5.5367e-05 0.003049 -0.0017864 0.0047055 0.0046807 0.00053374 0.0012942 -0.00087953 -0.00051631 -0.0012122 0.0026133 -0.0011021 0.0021614 0.0019369 -0.0026199 -5.2185e-05 -0.0014175 0.0035761 0.0036629 -0.0024738 -0.0048258 -0.0075393 -0.0029531 0.0062699 -0.0049279 -0.0017044 -0.0010027 -0.00035207 0.0026406 -0.0041461 -0.00067769 0.002376 -0.0039763 0.0050367 0.0026848 -0.0041089 
pour -0.0001551 -0.0033388 -0.0033056 0.0014949 -0.0043628 0.0018423 -0.0036216 0.00085091 0.00081898 0.014921 -0.0062262 0.004982 5.7691e-05 0.00022911 -0.00030006 0.0029914 0.0002362 0.0044458 -0.0030109 -0.0097751 -0.0051118 0.0011914 0.0050833 0.0034189 -0.00040972 -0.00073875 0.0074191 0.0078154 -0.0027634 0.01339 -0.00071428 0.0028527 -0.005847 0.0017209 0.0017511 0.0023995 0.0023521 -0.0056734 -0.0017937 -0.0051543 0.0048853 0.0010666 -0.00078848 -0.0025876 0.0012425 0.00277 -0.0022326 0.00061214 0.0048919 0.0068721 -0.0032999 0.0079244 -0.0076401 0.0018548 -0.0023534 -0.0078538 -0.0036688 -0.00066986 0.0039166 0.00026751 0.0011037 0.0062279 0.0019758 0.00094068 0.0015413 0.0035628 0.00061435 0.0095836 0.0066514 0.0034438 -0.0025004 0.00056386 0.00077435 -0.0027764 0.0015418 -0.0028651 6.8363e-05 0.0050061 -0.0038529 -0.0052473 -0.0020821 0.0025804 0.0030912 -0.002142 -0.003729 -0.0060225 -0.0014112 0.0014484 -0.0052048 -0.00081244 0.0015317 -0.0017008 0.006052 -0.0035191 -1.0412e-05 0.0073141 -0.0067944 0.0055101 0.00534 -0.00084575 
medium 0.0024541 -0.0032478 -0.0041403 -0.00090722 -0.00052361 0.00095344 -0.0040382 0.00024545 0.0017736 0.0073213 -0.0011451 0.0025813 0.0020511 0.00049783 -0.00024467 -0.00024372 -0.00067083 0.0015952 0.00014327 -0.0050357 -0.0023279 0.0014689 0.002434 0.000881 -0.0026003 -0.0040401 0.0053765 0.0017494 -0.0005173 0.0059858 -0.0025242 0.0021942 -0.00086674 0.0011329 -0.00031785 0.0010047 0.0037774 -0.00030569 -0.0017962 -0.0024813 0.00057572 0.0023539 0.0015645 -0.00069684 0.0016776 0.0028677 0.00052617 0.00031793 0.0023268 0.0061942 0.00020133 0.0055869 -0.0041671 0.00073481 0.0019876 -0.0035632 -0.0028445 -0.0013899 0.0035553 0.0015067 0.0032379 0.0048067 0.00053785 0.0013864 0.0026977 0.0038014 -0.00061171 0.0055046 0.0026655 0.0018467 -0.0015018 0.0013567 0.0010695 -0.0029965 0.00066086 -0.0012069 0.00056777 0.0046951 -0.0037326 -0.0026209 -0.0021879 0.0011204 0.0050018 0.00016589 -0.0045352 -0.0057209 -0.001416 0.0039677 -0.0028338 -0.0015486 0.0035733 0.00016917 0.002821 -0.0010573 0.00042438 0.0035743 -0.0037427 0.0032806 0.004409 0.00038016 
tast 0.0065576 -0.0029405 -0.0074934 0.00089857 -0.0028252 0.0029838 -0.004694 -0.00026791 0.003718 0.017507 -0.0082193 0.0074034 0.0029693 0.001382 -0.00057131 0.002088 -0.0012617 0.006717 -0.0022524 -0.011487 -0.0064305 0.0018531 0.0029028 0.002769 -0.0017926 -0.0078021 0.0069007 0.011643 -0.0044744 0.016814 -0.0024413 0.0030777 -0.003729 0.0050351 7.2953e-05 0.0011284 0.0043219 -0.0053274 -0.0043929 -0.0039096 0.0034082 0.002825 0.00013846 -0.0045812 -0.0012791 0.0010292 -0.0017517 -0.00079582 0.0077982 0.0078932 -0.0032314 0.012754 -0.0086599 0.0022392 0.00083403 -0.0068206 -0.0043943 -0.00085801 0.007802 -0.0015818 0.0030359 0.0038074 0.0018594 0.0027221 0.00042886 0.0055431 -0.00075855 0.010505 0.0026588 0.0060581 -0.00085693 0.00062877 -0.0026102 -0.0073764 0.0022493 -0.0036219 0.0059661 0.0062769 -0.0019553 -0.0054004 -0.0041347 0.0022542 0.0069286 -0.0041558 -0.0042514 -0.0093448 0.0011528 0.0063313 -0.0095713 -0.0027803 0.0027181 0.0011926 0.0070582 -0.0076106 0.0018738 0.0078185 -0.0091321 0.0074981 0.0094463 -0.0034378 
finish -4.8359e-05 0.00079143 -0.0051122 0.00044142 0.00023902 0.0016652 -0.0038877 0.00060511 0.0026635 0.0072048 -0.0013175 0.0039167 -0.00036149 0.0027567 -0.0012825 0.0011266 0.0019625 0.0013089 3.9178e-05 -0.0046869 -0.0018439 -0.0013905 0.0031332 0.0014057 -0.00338 -0.0018761 0.0024661 0.00083603 -0.0018864 0.0059381 -0.0029181 0.0026921 -0.0021993 0.00073493 -0.00069942 0.001764 0.001166 -0.0022822 -0.00073627 -0.0026778 0.0033956 0.0036895 0.00035457 -0.0011173 0.0021805 0.0014357 0.0018791 0.0010939 0.0018158 0.0032542 0.0010061 0.003421 -0.0017256 0.00093571 0.00053342 -0.003354 -0.0028592 0.00023106 0.0023663 0.0011802 0.00096067 0.0027714 5.1314e-05 0.0043634 -0.00013008 0.0015763 -0.0012638 0.0052589 0.002607 0.0010131 -0.0014183 0.00090987 0.0009648 -0.0023179 0.0012615 -0.0010302 0.00030564 0.0013219 -0.0026658 -0.0031584 -0.0043094 0.0012574 0.0025855 0.00045438 -0.0025041 -0.0038672 -0.00074063 0.00081138 -0.0034246 0.00063024 -0.0014973 -0.00020608 0.0015532 -0.0038597 -0.00078478 0.00024306 -0.0032758 0.00253 0.0028016 -0.0031674 
color 0.0025375 -0.0013832 -0.0032486 -0.00091803 0.0011468 -2.3502e-05 -0.0029519 0.00055895 0.00055777 0.0091234 -0.0052306 0.0039692 0.00095246 -0.001541 -0.0020063 0.0015116 -0.00049789 0.0039411 -0.0017207 -0.0090171 -0.0022489 -0.00054634 0.0022233 0.0023311 0.001176 -0.00076357 0.004585 0.0038953 -0.0023619 0.0092125 -0.0023238 0.0025605 -0.0018431 0.0042344 0.0022385 0.0014776 0.0027984 -0.0029653 -0.0050813 -0.004386 0.0025152 0.0016525 0.001147 -0.0030352 0.0025486 0.0040155 0.0018301 0.0026265 0.0057232 0.0041574 -0.0028119 0.0075272 -0.0050136 0.0041867 0.0020198 -0.0052333 -0.0019924 -4.9761e-05 0.0019877 -0.0016826 0.0019256 0.0030447 0.0017337 0.0022238 -0.00053356 0.0030948 0.00019526 0.006738 0.0032613 0.005095 -0.0029004 0.0030418 0.0018174 -0.0023504 0.0030081 -0.00076921 0.0017757 0.0017441 -0.0012927 -0.0014214 -0.0037825 0.0013748 0.0065366 -0.0018704 -0.0013379 -0.0032413 -0.0012249 0.0045468 -0.0031929 0.00030617 0.00079087 0.00043281 0.0053593 -0.0024075 0.0021926 0.0022627 -0.0034143 0.0023636 0.0028251 -0.001368 
nice 0.0014112 -0.0037616 -0.0090868 -0.0010797 0.00072324 0.00088747 -0.0022036 0.0011727 0.0017633 0.0077737 -0.0026995 -9.1997e-05 0.0016089 0.0028852 0.0020761 0.0033536 0.002069 0.0037792 0.0036153 -0.0049672 -0.00057442 0.0010844 0.0021436 0.0012228 -0.0034409 -0.0020934 0.0031261 0.0023971 -0.0041976 0.0055692 -0.00062918 0.0001365 -0.001047 0.0017318 -0.0018976 -7.543e-05 0.0041678 -0.00501 -0.00054635 -0.003529 0.0028331 0.0021079 0.00066207 -0.001908 -0.00039714 0.00075709 -0.0010397 0.0015405 0.0010895 0.0038439 -0.00074893 0.0039538 -0.0034582 0.0044461 -0.001504 -0.0028681 -0.0040364 0.00051218 0.0019037 0.0019478 -6.6972e-05 -9.8905e-05 0.00024307 0.0040457 -0.0001405 0.00018273 -0.00071067 0.0064525 0.0025421 0.003755 -0.00017375 0.00036034 -0.0016386 -0.0032817 0.00071779 0.00076381 0.0028075 -0.0008172 -0.0010184 0.0009764 -0.0023967 0.00083514 0.00094622 -0.0006817 0.00034635 -0.0051176 0.0010764 0.0042266 -0.0040603 0.00012569 -0.00017653 0.00026437 0.00068501 -0.0056361 -0.001786 0.00079873 -0.0032034 0.0010922 0.0038573 -0.00088949 
not 0.0022014 -0.0029036 -0.0065234 -0.0003171 -9.5193e-05 -0.00031597 -0.0026539 -0.00079622 -0.0020092 0.014726 -0.011168 -9.1354e-05 0.0030834 0.0037481 -0.00035739 -0.00016584 -0.0035833 0.0019585 0.0011872 -0.010854 -0.00077987 -0.000308 0.0040918 0.006592 -0.0065546 -0.004844 0.0049523 0.0065266 -0.0020703 0.012116 -0.0057758 0.0043505 -0.0046371 0.0069147 -0.0006989 0.001151 0.0061123 -0.00029052 -0.00063402 -0.0055999 0.0016013 0.0022382 -0.00096661 -0.00063672 0.0041586 0.0080253 0.00017854 -0.0005701 0.0086614 0.010551 0.00036432 0.0058668 -0.0059347 0.0047598 -0.0019277 -0.0058563 0.00089017 -0.0016408 0.0029999 -0.0026041 0.0024522 0.0068716 -0.0028786 0.0023928 0.000573 0.0059346 0.0010622 0.011465 0.0029541 0.0031562 -0.0015082 0.0024129 -0.0027003 -0.0044381 0.001754 -0.0016654 0.00036944 0.0056564 -0.0028083 -0.0021412 -0.0020422 0.003467 0.0085282 -0.0043158 -0.0046617 -0.0027121 -0.0052979 0.0081071 -0.0071625 -0.0039608 0.002594 -0.0024371 0.0046346 -0.0081357 0.0021608 0.0061531 -0.0077517 0.0053342 0.0075569 -0.0013365 
good 0.0011178 -0.0032713 -0.0039167 0.0019056 -0.0026877 0.0036503 -0.0013074 -0.00015311 0.0023062 0.0074306 -0.0034649 0.0041743 1.5745e-05 0.0022397 -0.0012699 0.0022454 -0.00021796 0.00084637 0.00061208 -0.0070105 -0.0051034 0.0022184 0.0028079 -0.000208 -0.0020325 -0.0054013 0.0035764 0.0035198 0.00014253 0.004757 -0.0024258 0.00056402 -0.0047624 0.001334 0.0002507 0.0015181 0.0036307 -0.0047731 -0.0028738 -0.0037558 0.0035088 0.001913 -0.00027346 -0.00068735 0.0031248 0.001787 -0.0008773 0.0018653 0.0039907 0.0034641 0.0028969 0.0077558 -0.0058745 0.00034688 -0.0032266 -0.0041202 -0.0001801 -0.00012931 -0.00061155 0.0025892 0.00045368 0.0010943 0.00044395 0.00081926 -0.0058295 0.0022292 0.0012107 0.0073822 0.001668 0.0021499 -0.0028482 0.0058151 -2.4741e-05 -0.0030836 -0.00011694 0.0015664 0.0018961 0.0038302 -0.0044093 -0.002857 -0.0016335 0.0034481 0.0035218 -0.0024211 -0.002277 -0.0057321 -0.00058749 0.00043773 -0.0042187 -0.0011731 -0.00040737 -0.0011249 0.0031255 0.0016863 -0.0012469 0.002568 -0.0014891 0.0017657 -0.00040214 -0.0006004 
bodi 0.0036809 0.0013556 -0.0036007 -0.0043593 -0.0034347 0.00094865 -0.0037609 0.0027822 -0.00077282 0.0035573 -0.0013253 0.0039931 0.0031379 0.0040529 -0.00060172 -0.0020154 -0.004022 0.0014451 0.001229 -0.0041271 -0.0032433 0.0014335 0.00069966 0.001443 -0.0042487 -0.0047858 0.0055064 0.0021526 -0.0042948 0.0058893 0.0022659 0.0025386 -0.00047938 0.0010978 0.001734 -0.00064884 0.0027591 -0.0033348 -0.0017621 0.0010719 -0.0012638 0.0028544 0.0027707 0.00022339 0.0021768 0.0016986 -0.0019177 -0.00071433 0.0022328 0.0019554 -0.00099856 0.0027938 -0.0028767 0.000687 -0.0011169 -0.0022154 -0.0016639 -0.00053301 -0.00014078 0.00051724 -0.00070613 -0.00094167 0.0007172 -0.00038676 0.00021776 0.0049568 -0.0013028 0.0063954 0.0057671 0.0017844 -0.0025562 -0.0015019 -0.00057794 -0.0023245 0.0019002 0.00033273 -0.0023035 -4.3899e-05 -0.0019912 -0.0038574 -0.0020539 0.0020955 0.0044327 -0.0016919 -0.0022849 -0.0052438 -0.0024726 0.0049985 -0.0074724 -0.0033864 -0.00016371 -0.0030021 -0.0012915 -0.0043516 0.00066555 0.00084088 -0.0046426 0.0044426 0.0035756 -0.0013952 
hop 0.0050182 0.0019999 -0.0059066 0.0011687 -0.0028589 0.0014531 -0.0045676 0.00010096 0.003127 0.010857 -0.0047112 -0.0016386 0.00029361 -0.00088759 0.00018956 0.0044349 -0.0012135 0.0019753 -3.9157e-05 -0.0030869 -0.0042217 -0.0040724 -0.00010394 -0.00044914 0.0026873 -0.0023956 0.005858 0.0014237 -0.0052533 0.0097129 0.0016001 0.0050901 0.0056235 0.0048044 -0.003226 0.001084 0.0014073 -0.005008 -0.0022347 -0.0010998 0.00050182 0.0024702 -0.0026597 0.0016795 -0.00028198 -0.0013664 0.0019797 -0.00079973 0.005147 0.0020442 0.0006716 0.0053339 -0.0045951 0.0059468 -0.0015178 -0.0020119 0.00044994 -0.0020956 0.0021063 0.0009711 0.00038805 0.0053326 -0.0007473 0.00065795 0.00021144 0.0046464 -0.002096 0.0066622 0.0031225 0.0028356 0.0004613 3.4376e-05 -0.0028453 -0.0046471 0.00037529 -0.0014678 0.0034056 0.0016323 -0.0004789 -0.0049497 -0.003964 -0.00030888 0.004726 0.001354 -0.0049423 -0.0051959 -0.0018311 0.0052764 -0.0099042 0.0011617 -0.0013164 -0.00034103 -0.00027745 -0.00090883 0.0057723 0.0039301 -0.0034001 0.0048401 0.0078918 -0.0051233 
bit -0.00093638 -0.0013306 -0.0057469 -0.00076832 -0.0030557 0.0081591 -0.0047338 -0.0022155 0.0041618 0.010979 -0.005573 0.0045778 0.0024667 0.0018829 -0.0012842 -0.0013169 0.0011883 0.0029416 -0.0018111 -0.0057671 -0.0060623 -0.0014978 0.0018784 0.0052919 -0.0043634 -0.0056614 0.0038951 0.0041388 -0.0064548 0.013123 -0.001569 0.0041104 -0.0026047 0.0037553 0.0017012 0.00426 0.0025851 -0.0024401 -0.001976 -0.0034287 0.001761 0.0033646 0.0015807 0.00091358 0.0010076 0.006494 -0.0024514 0.0035446 0.0059733 0.0075202 -0.0013894 0.0086699 -0.010948 0.0033201 -4.3455e-05 -0.0097703 -0.0011021 0.0028716 0.0063942 -0.0021053 0.0032227 0.0065804 -0.0003603 0.0013901 -0.00028903 0.0062914 -0.0060321 0.01094 -0.00046436 0.0020526 -0.00099227 0.0022669 0.0017842 -0.0021466 -0.00051006 -0.00042412 0.0041537 0.0054911 -0.0043949 -0.0016458 -0.0029581 0.0023009 0.0036518 -0.0023784 -0.002046 -0.0051 -0.0017109 0.0089889 -0.0062985 0.00062354 0.001299 -0.0020538 0.0036238 -0.0014865 0.0030083 0.007428 -0.0072596 0.0074325 0.006403 0.0010276 
light 0.0014005 0.0012261 -0.0084824 -0.00027567 -0.0017192 0.0050685 -0.0044593 0.00092013 0.0024317 0.010581 -0.0081426 0.0044521 0.003903 0.0025261 4.8026e-05 -0.0018278 -0.0033762 0.0042842 0.0022136 -0.0082439 -0.003539 0.0009475 0.0041938 0.0012605 -0.0016252 -0.0062108 0.0057097 0.0058933 -0.0023668 0.013577 -0.0056279 0.0030077 -0.0019803 0.0026261 0.0024927 0.0019604 0.0051258 0.00023844 -0.0029648 -0.0063151 0.0012582 0.0022915 0.00024056 -0.0024036 0.0016836 0.002002 -0.0014299 0.00056094 0.0034881 0.0069973 4.8761e-05 0.0069476 -0.0075407 0.0011786 -0.00011411 -0.0054626 -0.0012172 -0.0021133 0.0046363 0.0031517 0.0018036 0.0049146 -0.0010822 0.002724 0.001255 0.0052516 -0.0021353 0.0078855 0.0035469 0.0041859 -0.002865 -0.0025555 0.00075462 -0.0051596 0.00030072 -0.001688 0.0021505 0.0047401 -0.002899 -0.00067674 -0.0032908 0.0018559 0.0049963 -0.00232 -0.0028262 -0.0058888 -0.001124 0.0038604 -0.0081411 -0.0041261 0.005255 -0.0029624 0.002327 -0.0041397 -0.00047979 0.0052421 -0.005502 0.0072964 0.0031317 -0.0057626 
coffe 0.00023671 -0.002426 -0.0048759 -0.0014068 -0.0013122 -0.00079361 -0.003222 -0.00056414 0.0010824 0.0086955 -0.004493 0.0042941 0.0010762 0.0020758 -0.0021392 -0.00056504 0.00047122 0.0025607 -0.0029373 -0.0066826 -0.0048706 0.0013179 -0.00061246 -7.4536e-05 -0.001673 -0.0037251 0.0012841 0.005169 -0.0056771 0.0089173 -0.0010544 0.0038922 -0.0019468 0.00362 0.0018478 0.00044781 0.0029214 -0.003959 -0.0020635 -0.002175 0.0011287 0.0018436 0.00081333 -0.0015825 0.0013808 0.0024933 -0.00099595 -0.00048088 0.0045204 0.0035199 -0.0005478 0.0058571 -0.0044957 0.00014941 0.00084205 -0.0029899 -0.0027167 -0.0053814 0.00087246 9.2948e-05 0.0025214 -9.1176e-05 0.0033168 0.0016897 -0.0014047 0.0060097 -0.0011636 0.0050233 0.0029432 0.0049615 -0.0018089 0.0039223 -0.001596 0.0020486 0.0010475 -0.00053909 0.0020784 4.5969e-05 -0.0048445 -0.0045758 -0.0038344 0.00084116 0.004839 0.00064873 -0.004035 -0.0033251 -0.0025833 0.0016838 -0.006212 -0.003609 -0.0013331 -0.0041356 0.0015168 -0.002285 0.000758 0.0046484 -0.0053555 0.0019884 0.0035525 -0.0048032 
carbon 0.0031443 0.0003862 -0.0037483 -0.001936 -0.001974 0.0019065 -0.0038025 0.0015583 0.0029589 0.0091557 -0.0050729 0.0028586 0.001122 -0.0006412 0.0010596 -0.002847 0.001267 0.0031668 -9.5881e-05 -0.003294 -0.0025992 0.0003531 0.0023144 0.0044054 -0.00098587 -0.0039298 0.0025206 0.0037517 -0.0037016 0.0093172 -0.0036278 0.0029041 -0.0045187 0.0013065 0.00087198 0.0019973 0.0056018 -0.0017701 -0.0025232 -0.0044407 0.0013186 0.0014579 0.0011553 -0.0013099 0.00018048 0.0034768 -0.001911 -0.00014432 0.0050678 0.0074273 -0.002492 0.0067269 -0.0047431 0.00010328 -0.00088199 -0.0025428 -0.00040653 -0.0041706 0.0027511 0.0031633 0.0016874 0.0060594 0.0022088 0.00080207 0.0027256 0.0028271 0.0007997 0.007607 0.0038404 0.0022514 -0.0034927 -0.00088457 -0.0014913 -0.005717 0.0004139 -0.00070369 0.002546 0.0037995 -0.0013973 -0.0042216 -0.0045989 0.0022786 0.0042333 -0.0012821 -0.0017312 -0.004127 -0.0010824 0.0042442 -0.0033237 0.00018103 0.0006548 -0.0018794 0.0015633 -0.0021401 0.0016387 0.0038183 -0.0030919 0.0038552 0.0039733 -0.00093363 
quit 0.00048701 -0.0013567 -0.0020135 0.00043704 -0.00047257 0.0056114 -0.0037991 0.0016885 0.0038299 0.010987 -0.0041421 0.0046443 0.00015296 0.0039156 -0.00014032 -0.0019913 0.0014793 -0.00096824 -0.0028109 -0.012751 -0.0025561 0.0011145 0.0040782 0.0036125 -0.0015429 -0.0045509 0.0080155 0.0046141 -0.0049138 0.013859 -0.0013154 0.0043333 -0.0062277 0.0023632 -0.00023983 0.00091189 0.0035411 -0.0033753 -0.003698 -0.004202 0.00077617 0.004305 -0.0012919 -0.0017315 0.00044477 0.0056204 -0.00092403 0.0033246 0.0047742 0.0076472 0.0019564 0.00427 -0.0067534 0.0027185 0.00063001 -0.0080834 -0.0051588 -0.0041879 0.0032568 -0.00088827 0.003381 0.0074615 0.0011156 0.0024379 0.0024644 0.0065863 -0.0027841 0.0055307 0.0054583 0.0031039 0.00056668 -0.0026972 -0.0011997 -0.00036904 0.0022887 0.0011076 0.002931 0.0026215 -0.0019754 -0.0033126 -0.0018771 0.0016298 0.0036702 -0.0019083 -0.0025126 -0.0056467 -0.0028478 0.0053276 -0.0033873 -0.0024766 0.0013317 -0.0010361 0.0045732 -0.0045652 0.0026585 0.0077579 -0.0071104 0.0063885 0.0033182 -0.0032348 
malti 0.0038935 -0.00073703 -0.008126 0.0002828 -0.0025152 -0.00012067 -0.0053739 0.0016731 -0.00025849 0.017035 -0.0073771 0.0052014 0.0033183 0.0026494 -0.0029998 -0.0011903 0.0014188 0.0031299 -0.0017103 -0.0099321 -0.0044386 0.00199 0.0024327 0.0031524 -0.0042477 -0.0075864 0.0062876 0.0013779 -0.0056806 0.01597 -0.0043344 0.0020745 -0.0034516 0.0043225 0.0020379 -0.0010443 0.0036972 -0.0028711 -0.0041012 -0.0040877 0.0042454 0.0049422 0.0017135 -0.0034646 0.00050728 0.0044203 0.0036381 0.0045214 0.0063522 0.010562 -0.002771 0.0064629 -0.0088789 0.0042956 -0.00032194 -0.0055807 -0.0048794 -0.002197 0.0055178 -0.0012549 0.0031451 0.0059303 -0.0020387 0.0059087 0.0021288 0.0066966 -0.0048033 0.01168 0.0055516 0.0022823 -0.0026321 0.0037405 -0.0021918 -0.0052888 0.00065134 -0.0017206 0.001087 0.0025368 -0.0034791 -0.0021994 -0.0061141 0.0036662 0.006262 0.00020282 -0.0035675 -0.0099459 -0.0051065 0.0068161 -0.0068906 -0.0013327 0.0030236 0.00047193 0.0030945 -0.0053354 3.2873e-05 0.0061599 -0.007922 0.0059482 0.0044945 -0.005418 
roast 0.003323 -0.0011372 -0.0061458 0.00028825 -0.00042992 0.0014512 -0.0027633 -0.0011469 0.0027731 0.014794 -0.0072031 0.0052106 0.0043472 -0.00019107 -0.00059812 0.00040527 0.0026151 -9.7708e-05 -0.00044137 -0.010332 -0.0030557 0.0049279 0.0038134 0.0036418 -0.0039035 -0.0051174 0.0073496 0.0068076 -0.004544 0.015291 -0.0036099 0.0037259 -0.0021715 0.0036513 8.6555e-05 0.00037292 0.0057367 -0.003598 -0.0042054 -0.0058631 0.0051414 0.00515 -0.0021105 -0.0016216 0.00086194 0.0043129 -0.0017291 0.0010108 0.0068138 0.0082735 -0.0033537 0.0099006 -0.0083505 0.0052774 4.0913e-05 -0.0098876 -0.0018107 -0.00014636 0.0042934 -0.002623 0.00075165 0.0033179 0.0013995 0.002465 0.0012841 0.0073336 -0.0019467 0.0072431 0.003165 0.0049472 -0.0039241 0.00071006 -0.00083875 -0.0034155 0.0012518 -0.0039995 0.0042389 0.0055769 -0.0056422 -0.0062581 -0.0042982 0.0031086 0.0064179 -0.0027382 -0.0015544 -0.006435 -0.0017298 0.0070864 -0.0080128 -0.0015833 0.0042628 -0.00037899 0.0039788 -0.0051445 0.0012179 0.0093238 -0.007829 0.0078623 0.0070713 -0.0015586 
tan 0.0048661 -0.00058475 -0.0057457 -0.00082683 -0.004065 0.0023652 -0.0051443 0.003919 -0.0012232 0.011288 -0.0032571 0.0022067 -0.00042606 -0.00079812 0.00066694 0.0023823 -0.0012908 0.0024921 -0.005224 -0.007681 -0.0048204 0.00016726 0.002795 0.0040281 -0.0013758 -0.0037695 0.0067207 0.0045744 -0.00032928 0.0083857 -0.0064239 0.0023248 -0.0014268 0.0032143 0.0030853 0.0043621 0.0042279 -0.00093359 -0.0042118 -0.0030361 0.0030586 0.0014246 -0.0061526 -0.0043397 0.0010382 0.001439 0.0010771 -0.0011778 0.0081898 0.0078567 -0.0011688 0.0031781 -0.0063679 0.0030537 -0.0021985 -0.0089909 -0.0025034 0.00082769 0.0035419 0.0044291 0.0029714 0.0032426 -0.0044077 -0.0016067 0.00012652 0.0080412 0.0032136 0.0023067 0.0019446 0.0059079 -0.00088061 -0.00042256 0.0010244 -0.0067739 -0.00082796 -0.0057493 0.0022265 0.0034054 -0.0024958 -0.0036985 -0.0044563 -0.001672 0.0047066 -0.0023791 0.00012839 -0.0041906 -0.00068862 0.0033803 -0.0026321 -0.0022728 0.00095054 -0.00046938 0.0029332 -0.0048938 -0.0016897 0.0053574 -0.0087581 0.0010662 0.00381 -0.0047901 
amber 0.00091022 -0.0006331 -0.0027072 0.00090361 -0.0014292 -0.00068352 0.0016208 -0.00039677 0.0020061 0.0084475 -0.0038177 0.002205 -0.0014003 0.00074337 -0.00048166 0.0021525 0.00059178 0.00060399 -7.4426e-05 -0.0048106 -0.0028174 0.0012876 0.00051515 -0.00074137 -0.0018285 -0.0019785 0.0045089 0.0022562 -0.0035541 0.0054764 -0.00068301 0.0017815 -0.00065338 0.00010424 9.1106e-05 0.0018921 0.0017538 -0.0013975 -0.0014646 -0.0041612 0.0010879 0.00083161 -0.00056059 -0.0016688 -0.0020941 0.0023957 0.00046574 -0.00065663 0.00272 -0.00012311 -0.0025601 0.0019439 -0.00085933 0.0042179 -0.0017809 -0.00018382 -0.0027517 -0.0016884 0.0027177 -0.00061914 -0.00084437 0.004604 0.0023027 0.00051282 0.0015965 0.0011976 -0.0026385 0.0054777 -0.00071607 0.00026038 -0.0030008 0.0011811 -0.0016955 2.2484e-05 0.00017238 -0.0022284 0.00076408 0.0019965 -0.0017144 -0.0011974 -0.00033072 0.0016305 0.0022813 -0.0004647 -0.00018688 -0.0041471 -0.0023671 0.0017921 -0.0030208 -0.00086852 0.0027157 0.0012756 -0.00047444 -0.0042323 2.0762e-05 0.0056501 -0.0040997 0.00033001 0.0016807 -0.00069607 
fruit 0.0034366 -0.00036996 -0.0044589 -0.0013336 -0.0018237 0.0039764 -0.0061118 0.0011041 0.0037547 0.012575 -0.0085086 0.0058862 -0.0022215 0.0010008 -0.002019 -0.00048578 -0.0012422 0.0029755 -0.00096471 -0.0097328 -0.0038288 0.00069117 0.0028816 0.0050493 -0.0036578 -0.00511 0.0080584 0.0054135 -0.005243 0.014074 -0.0057639 0.0053177 -0.00041831 0.00094713 -0.0030135 0.0013933 0.004907 -0.0027013 -0.002549 -0.0039366 0.0036259 0.0062708 0.00097402 -0.0040478 0.00081683 0.0048475 9.7942e-05 0.00072564 0.0060229 0.0066667 0.0026602 0.0068745 -0.0074837 0.0070391 -0.0021751 -0.0076683 -0.0051451 -0.0024475 0.0074816 -0.0033819 0.0059462 0.0079461 0.0020563 -1.6366e-05 0.0014382 0.0075587 -0.0020295 0.010201 0.0037745 0.003385 -0.0041569 -0.00011886 0.00090458 -0.0022283 0.0026421 -0.0028687 0.00081244 0.0034762 -0.003574 -0.0054752 -0.0056535 0.0015247 0.0048834 -0.0019505 -0.0039143 -0.0091509 -0.0047295 0.0060252 -0.0067875 4.1564e-05 0.00073384 -0.0029628 0.0016041 -0.0061459 -0.0012846 0.0075822 -0.0084901 0.0061889 0.0061508 -0.0025936 
nelson -0.00038409 0.0012278 -0.00039491 0.0021585 -0.00041604 0.0024441 -0.0014272 1.5481e-05 -0.0019572 0.007128 -0.0024429 -0.00047983 0.0015526 0.00089522 0.0016678 0.0012808 0.0008952 0.0023157 0.0010964 -0.0062435 -0.0010958 0.0008877 0.0027609 -0.00067087 -0.0021814 -0.0011584 0.00045397 0.0031888 -0.001122 0.0058692 -0.0015801 0.00354 -0.0039452 0.0014082 0.001867 0.0011234 0.0023066 0.00107 0.0022585 -0.0013855 0.00046411 0.00085476 0.0020181 -0.0032264 0.00026046 0.0036923 0.00028489 0.0019148 0.0004195 0.0036398 -0.0011829 0.0022059 -0.0020422 0.0012131 -0.0028664 -0.0013379 -0.00031601 -0.0012798 0.00018737 -0.00095667 0.001165 0.0026873 -0.0014241 -0.00078092 0.0025147 0.0024461 0.00067198 0.00017159 0.001518 0.0014737 -0.0024143 -0.0015415 0.0018462 -0.0022393 0.0020956 -0.0038292 0.0017031 0.00018091 0.00053162 -0.0018162 -0.0016265 0.0026711 0.0016113 -0.0023321 -0.0049131 -0.0016481 -0.0035408 0.0027183 -0.0041162 -0.0013319 0.00042013 -0.0011496 0.0020445 -0.0010612 -0.0011096 0.0016401 -0.0044798 0.0038729 0.0027988 -0.0025463 
note 0.0016825 -0.00175 -0.0073979 0.00094274 0.001664 0.00016436 -0.0015222 4.9267e-05 0.0010234 0.01365 -0.0055187 0.0048602 0.0042121 0.001226 -0.0017699 -0.00033574 -0.00045686 0.0013771 -0.00040264 -0.0099383 -0.00065316 -0.0025058 0.00074364 0.0041658 -0.0036676 -0.0045943 0.0048376 0.0063561 -0.0050038 0.013101 -0.0070822 0.0012231 -0.004853 0.0066579 0.0023706 0.0012781 0.0068554 -0.0027301 -0.0025196 -0.0024126 0.0030481 0.0042595 -0.00026409 -0.0016815 0.00303 0.0053053 -0.00056788 0.00062758 0.0026672 0.0089081 0.00028472 0.0059557 -0.0090194 0.0060259 -0.0018862 -0.0067398 -0.0035524 -0.0016805 0.0047287 -0.00012964 -0.00075611 0.0054503 -0.0014868 0.0028334 0.0021817 0.0050293 -0.0019715 0.0090611 0.0052729 0.0024248 -0.0054196 0.0018261 0.00047409 -0.0052463 0.0016591 -0.001014 0.00058409 0.0038716 -0.0033591 -0.0044151 -0.0039388 0.0021562 0.005032 -0.004042 -0.0020652 -0.007941 -0.0030675 0.0078047 -0.0053641 -0.0019827 0.00072618 -0.002885 0.0023114 -0.0061198 0.0015732 0.0066538 -0.0069431 0.0023715 0.0026182 -0.0015917 
off 0.00039268 -0.001815 -0.0039223 0.0021511 0.00074055 0.0018777 -0.003709 0.00056062 -0.0021403 0.0064874 -0.00339 0.0033412 0.0026373 0.0021826 0.0017201 0.0011732 0.00042357 -0.0023709 -0.0001852 -0.0053746 -0.0043456 0.00047639 -0.00053392 -8.2036e-06 -0.0005926 0.00056437 0.0021911 0.0050437 -0.0035965 0.0085815 0.00069781 0.00187 -0.00094524 0.0032374 0.0024235 -0.0020484 0.0067329 -0.0013956 -0.0035966 -0.0030699 0.00030849 0.0029478 0.0023449 -0.00082599 0.003766 0.00043086 -0.00073805 -0.0031689 0.0029587 0.0060731 0.0021334 0.0032049 -0.0036812 -0.0020565 -0.00081101 -0.0035407 -0.00059112 -0.0030551 -0.0013382 0.0026785 0.0049923 0.0011221 0.00077529 0.0047102 -0.0035808 0.007431 -0.00091896 0.0038724 0.0017346 0.0027564 -0.0011644 0.00028654 0.0036482 -0.0016601 0.0034694 0.0033775 0.0034619 0.00078859 0.0017965 -0.0047967 0.0030579 0.0018214 0.0027517 -0.0021356 -0.0027327 -0.0052539 -0.00055887 0.0035126 -0.0069695 -0.001765 0.00075291 -0.0033245 6.2535e-05 -0.002314 0.00079566 0.0033341 -0.0044692 0.0056078 -0.00038063 -0.0032334 
lord 0.0027456 -0.0011817 -0.0039902 0.0011486 0.00024022 0.002694 -0.0014095 0.0020894 -0.0014047 0.0084056 -0.0035167 8.2629e-05 0.00067101 -0.0012483 -0.0033827 -0.00396 -0.00071878 0.00044576 -0.00086375 -0.0040557 -0.00037013 -0.00086518 0.0049252 0.0014476 -0.0012421 -0.0040575 0.0038424 0.0059554 -0.0029022 0.0084573 -0.0012796 0.00067205 -0.0016061 0.0020448 -0.0017783 0.0037026 0.0022386 -0.00034076 -0.0032295 -0.0069079 0.00018828 0.00022073 0.0029847 -0.0040287 7.6421e-05 0.0042759 -0.002705 0.0010813 0.0057162 0.007026 0.00052323 0.00425 -0.0040755 0.0035085 -0.00096914 -0.0059533 -0.0050032 -0.0012472 0.0017738 -0.0014773 0.0041678 0.001275 -0.0013945 5.5529e-05 0.00097929 0.0047787 -0.001547 0.0051514 0.0045335 -0.00013322 -0.00096578 0.0023579 -0.0010056 -0.0028611 0.0014376 0.0017371 0.0016314 0.0026048 -0.0034742 -0.0019108 -3.329e-05 0.0038243 0.0036468 -0.00046985 -0.004019 -0.0029214 -0.00038264 0.00087394 -0.0040271 -0.0013916 0.0011405 -0.00067063 0.0011357 -0.00039015 0.001778 0.0026543 -0.0029699 0.0019263 0.0031952 -0.00073042 
toffe 0.00011233 -0.0014482 -0.0034946 -0.0022698 -0.0018377 0.0015282 -0.0015717 0.00023448 -0.00020863 0.0062719 -0.0041282 0.0044299 -0.00060334 0.0010772 -0.0020095 -0.00018779 -0.0018103 0.00044676 0.00056646 -0.0053174 -0.0033527 -0.00093665 0.0022007 0.00049901 -0.00047018 -0.0023453 0.0026544 0.0046162 -0.0024633 0.0052282 0.0017087 0.0029495 -7.7669e-05 5.9821e-05 0.0033822 0.0024891 0.0034767 -0.00066505 -0.0030915 -0.0034712 0.0020929 0.0036666 -0.00018961 -0.0011577 0.0019123 0.003923 -0.0013821 -0.002582 0.0021476 0.0040552 0.00020519 0.0032384 -0.0033103 0.0011959 0.00010556 -0.0024663 -0.001351 -0.0041632 0.0022918 0.0022203 0.0025681 0.004151 0.00017806 0.0034042 -0.00086005 0.0052932 0.0011102 0.0048257 0.0035794 0.0013255 0.00096283 0.0037976 -0.00017547 -0.00054322 0.0018065 -0.0028235 -0.00013698 0.0015284 -0.0044783 -0.002733 -0.0011975 0.0020668 0.0023733 0.00076408 -0.0026154 -0.0025366 -0.00037637 0.0038627 -0.0064276 -0.00055828 0.0012191 -0.0035004 0.002898 -0.0017801 -0.00061226 0.0042661 -0.0023006 0.004153 0.002689 -0.0040297 
littl 0.0046474 -0.00081136 -0.0017186 -0.0022027 0.00058624 -0.00072419 -0.0048365 -0.0010273 0.0019626 0.0085546 -0.002867 0.0031099 0.0023153 0.0003224 -0.001471 -0.00077757 -0.0010216 -0.0014499 -0.00030495 -0.0062047 -0.0030992 0.0034991 0.0035767 0.0014814 -0.00056814 -0.0030406 0.0030992 0.0015212 -0.0033682 0.0093422 -0.0013611 0.00014628 -0.0056712 0.0028145 0.0014241 0.0023684 0.0028165 -0.00058986 -0.000786 -0.0046284 -0.00022639 0.0046743 -0.0021331 -0.00063663 0.0019087 -0.00060923 -6.263e-05 0.00085103 0.0036309 0.0073534 -8.1899e-05 0.0049248 -0.0039417 0.0018496 -0.0030038 -0.0044401 -0.001457 -0.00062871 0.00188 -0.00076631 0.0053881 0.0018768 -0.00051722 -0.00050841 -0.00068888 0.0060843 -0.0011469 0.0050519 0.0039276 0.00091865 -0.0019648 0.00063397 -0.0022993 -0.0027441 0.0012455 -0.001424 0.0052042 0.0040073 -0.0031483 -0.002369 -0.0050908 0.0020805 0.0023381 -0.00038904 -0.0024611 -0.0059442 -0.0014946 0.0025833 -0.0042577 -0.00033872 0.0010569 -0.00055756 0.0029861 -0.0017543 1.1774e-05 0.004688 -0.0041928 0.0025332 0.0029064 -0.0037721 
al 0.0019323 0.0041175 -0.0030712 0.0016211 -0.0028654 0.00059752 -0.0041309 -0.00013842 0.0018346 0.0067203 0.00032434 0.0046609 0.0018468 0.0030748 0.0021427 -0.0034631 0.0014663 0.0022921 -0.00098769 -0.0061751 -0.001882 -0.0055945 0.0026998 -0.0014239 -0.00080833 -5.3965e-06 0.0069746 0.0065331 -0.0018034 0.0096874 -0.0052741 0.0023216 -0.0031992 0.0051548 0.00085547 0.00144 0.0029115 -0.0025865 -0.0041497 -0.0039542 -0.0026432 0.0055989 -0.0056849 0.0013308 0.0017617 0.00058146 0.0005339 0.0010288 -0.0029818 0.004002 -0.0080426 0.0037053 -0.0041719 -0.0018257 0.0021508 -0.00079356 0.0065654 -0.0058869 0.012033 0.00074207 -0.0043953 -0.0012563 0.0001014 -0.00059933 0.0015141 -0.0030913 0.0030335 0.0041765 0.0071849 -0.0033103 -0.0018065 -0.00626 0.00068831 -0.00096382 0.0052705 -0.0033471 -0.0018767 0.0030636 -0.0015822 -0.00089397 -0.0032725 0.0047209 -0.0011423 -0.00028221 -0.0015227 -0.0061747 0.0015565 0.0055674 -0.0051248 -0.0023261 -0.0026118 -0.004833 0.0010494 -0.0024475 0.0013394 -0.0025152 -0.008022 0.0019518 -0.0002469 -0.00028883 
red 0.0028008 -0.0019099 -0.0022419 0.0025679 0.00033984 0.0013742 -0.0019537 -0.00022717 0.00097942 0.0055727 0.00144 0.002976 0.001965 0.00095881 -0.0051199 0.00056719 -0.0032523 0.0036301 0.0049561 -0.0046959 -0.0038081 -8.5339e-05 -0.00042386 0.0014355 -0.0026847 -0.0037504 0.0042009 0.0041444 0.00014193 0.009575 -0.0038089 0.0026729 -8.7846e-05 0.0012927 -0.0014352 -0.0014808 0.0017387 -0.00048001 0.001293 -4.79e-05 -0.0016126 -0.0012525 -0.0011328 0.0014238 -9.5745e-05 -0.00038092 -0.00091404 0.0017053 0.0040365 0.004789 -0.0011257 3.869e-05 -0.0019767 0.0052447 -0.0013954 -0.0051227 -0.0022546 -0.0017565 0.0014656 -0.001094 0.0021254 0.001547 -0.0013767 -0.0018901 0.00054069 0.004495 -0.004288 -6.5187e-05 0.0027098 0.0024657 -0.0033454 0.0033361 0.0041301 0.00090206 -0.002547 -0.00308 -0.0010662 0.0060668 0.0031362 0.0012017 -0.005837 -0.00077443 0.00025561 -0.0039082 -0.0040661 -0.0017164 0.0017623 -0.00051579 -0.0072453 0.0011777 0.0029096 -0.0029721 -0.0026375 -0.002781 -0.00071507 0.00041786 -0.0010044 0.0029333 0.0061375 -0.0022307 
creami -0.00090672 0.00019093 -0.0031273 -0.0011214 0.0015211 0.0023383 -0.0017258 2.9939e-05 -0.0022724 0.0064866 -0.001483 0.0028938 0.0016965 -0.0016757 -0.0014372 -0.0024222 -0.00012507 0.00072142 -0.002341 -0.0030236 -0.002871 0.0014942 0.0022972 0.00022109 -9.8803e-05 -0.0023155 0.0047998 0.0028666 -0.0021523 0.005958 0.0015765 0.0011414 -0.002329 0.0014966 0.0013632 0.0010711 0.001303 -0.00037899 -0.000636 -0.0039336 -0.0032504 -1.3972e-05 0.0010949 -0.00080201 -0.00012468 0.0012225 -0.00075833 0.00095128 0.0037154 0.0070809 -0.00046836 0.0061991 -0.0040803 0.0014702 0.0031335 -0.0016068 -0.0024418 -0.00052061 0.00094846 -0.00029526 0.00080471 0.0028476 0.00054626 0.0018762 -0.00010512 0.0027263 -0.00077091 0.0021431 -0.00021692 0.0038849 -0.0031692 -0.00013873 0.0013498 -0.0017104 -0.00016358 -0.00028771 0.00014123 -0.00022036 -0.0039591 -0.0030885 -0.0021737 -0.00045489 0.0020478 -0.00086567 -4.0813e-05 -0.0027487 -0.0020138 -0.00075957 -0.0015258 -0.0030592 -0.00017393 -0.00080129 0.001184 -0.0037637 -0.0011998 0.0012401 -0.0036369 0.0010518 0.0021315 -0.00048095 
palat 0.0011808 -0.0025228 9.7647e-05 -0.0010553 -0.0024678 -0.0012648 -0.00070662 -0.0032439 0.0010551 0.004998 -0.000202 0.00059192 0.0028601 0.00049907 0.00060243 0.00014278 -0.00045866 0.0022794 -0.00012292 -0.0031775 -0.003738 -5.5844e-05 0.0037366 0.00021425 0.0012995 -0.0021081 0.0019804 0.0022275 -0.0031781 0.0038975 -0.0019452 0.0013044 -0.0021464 0.0026354 0.00061156 1.5248e-06 0.0024355 4.4921e-05 -0.0025592 -0.0046406 0.0010815 -0.0006202 -0.000885 -0.0030752 0.0026626 8.1056e-05 0.00058794 0.00059634 0.00054532 0.0032198 0.0027114 0.0041395 -0.0030282 0.0017528 0.0016386 -0.0014818 -0.0020181 -0.0013339 0.0024799 -9.0968e-05 0.0029033 0.0025463 2.941e-05 -0.00064135 -0.0048102 0.0011806 -0.0015391 0.0059211 0.0018354 -0.0011847 -0.00032706 1.5257e-05 0.00018647 -0.0028604 -0.001113 0.0017211 0.00096939 0.0036786 0.00096325 0.00085177 -0.0026322 -0.00059012 0.0014459 -0.0035205 -0.0012706 -0.0041052 -0.0025735 0.0024382 -0.0049585 0.00089903 0.0006183 -7.6922e-05 0.0036341 -0.0049672 0.0018136 0.0029613 -0.0029677 0.0040515 0.00096001 -0.0023831 
ml 0.00096137 -0.0028653 -0.002808 0.0064962 -0.0035167 0.0037041 -0.0019142 -0.0015178 -0.0053179 0.00090436 -0.00097753 -0.0057019 -0.0039433 -0.0050306 0.00025064 -0.0021589 -0.0040765 0.00075758 0.00065255 -0.0058011 -0.0029855 0.004295 -0.00027288 -0.0011745 0.0031754 -0.0069474 0.0032684 -0.0010347 -0.0012916 -0.00095399 -0.0014434 -0.0023447 -0.0043302 -0.00039047 -0.0017477 0.0015375 -0.0011329 -0.0014253 -0.0014431 0.00030671 -0.0015397 -0.0021145 0.0008018 -0.0011441 -0.00028945 -0.0019549 0.0010351 0.0039746 -0.00046266 -0.00020605 0.003278 -0.0011492 -0.0046119 0.0015995 -0.0020344 -0.0054839 -0.0020758 0.0034029 0.0025335 0.00087064 -0.0016247 0.0039445 0.0024113 0.00015843 -0.0026365 0.0054101 -0.0024722 0.0065258 -0.0023666 0.0034297 -0.00054051 -0.0023436 0.0037547 -0.0057215 -0.00058464 0.004392 0.0035807 -0.0011193 -0.0010164 -0.00041687 -0.0059634 -6.7652e-05 0.0068119 -0.002389 -0.0025535 -0.0049611 -0.0022489 0.0020372 -0.001514 -0.0051687 0.00059644 -0.0037299 0.0016718 -0.0015683 0.0027493 0.0021932 -0.002764 -0.0038355 0.0030908 -0.008086 
strong -0.00031148 0.00048659 -0.0017216 -0.0028839 -0.0033054 0.0018338 -0.0022014 0.0011876 0.0004065 0.0052009 -0.0032098 -0.00013439 -3.4676e-05 0.0015446 -0.00019891 0.0004763 -0.0004073 -0.00050237 -0.00062372 -0.0029875 -0.0014194 0.0026714 0.00067234 0.00046686 -0.0027713 -0.0035715 0.0036198 0.0011784 -0.0023746 0.0033237 -0.0030979 0.0013414 -0.0016525 -0.00043014 0.00029807 0.0012361 0.0025242 -0.0017861 0.00027068 -0.0011643 0.0045619 0.0007152 0.00041283 -0.0024035 -0.00047408 0.0022463 0.00066317 0.0020741 0.00010599 0.0041358 -0.00046264 0.0036937 -0.0028218 0.00060552 0.0020661 -0.0036474 -0.0024824 -0.00020589 0.0024036 -0.0014403 0.0019379 0.0032596 0.00057766 0.0011526 -0.0014686 0.00077855 -0.0031726 0.0050774 0.0033107 0.00051465 -0.0022375 0.0029272 0.00029173 -0.0029077 0.0015063 -9.424e-05 0.0011745 0.0013005 -0.00055281 -0.0019962 -0.0014036 0.0014284 0.0035703 -0.0020177 -0.0018294 -0.0027817 -0.0022072 0.0026653 -0.0012465 -0.00073415 -0.0023808 -0.0011132 0.00048263 -0.0025593 0.00015362 0.00097188 0.00051366 0.0018278 0.0015044 4.1713e-05 
great 0.00098003 -0.00013215 -0.0036883 0.0016213 -0.0004726 4.6952e-05 0.00086673 0.0016326 0.0011174 0.003886 -0.0027927 0.0046363 0.0026777 5.3027e-05 -0.0014333 0.0023529 0.0012197 0.00093433 -0.0018979 -0.0022523 -0.0012937 0.00095156 0.00045813 0.0014813 -0.0029854 -0.0012681 0.0017929 0.0027875 -0.003341 0.0067186 -0.00011682 -1.1763e-05 -0.0024581 0.0004464 0.001445 -0.0013607 0.0019176 -0.00060327 0.00054206 -0.0013965 -0.002934 0.0012713 7.8349e-05 -0.0023626 -0.00042547 0.0026507 -0.0031527 -0.0018607 0.0019646 0.0021931 0.0020102 0.002771 -0.0038004 -0.00045072 0.0037279 -0.0024957 -0.002187 -0.00042393 0.0045995 0.00063803 -0.00025307 0.0047441 -0.00027574 0.0029805 0.00031431 0.0023953 -0.00083984 0.0034036 0.0011949 0.0026045 -0.002792 -0.00053376 -0.0012439 0.00032719 0.0011236 0.001014 -0.00086097 0.00090742 -0.0035787 -0.0027047 -0.0028488 -0.0002663 0.0018772 -0.00037244 -0.0012764 -0.0052551 -0.0020497 0.0023855 -0.00070285 -0.0004715 -0.00031076 -0.0022939 0.0011275 -0.0037419 -0.0010274 0.0011916 -0.0051574 0.00080199 0.0024741 -0.00049343 
hint 0.00058676 -0.00030547 -0.0021766 -0.0017464 0.00037479 -0.00013329 -0.0036536 -0.0020033 3.8347e-05 0.0079985 -0.0042709 0.0073059 0.00036057 0.00085795 -1.7789e-05 -0.0016533 -0.0021551 0.0020716 -0.0012882 -0.0086664 0.00015566 0.00184 0.0014918 0.003539 -0.0025966 -0.0035986 0.0077423 0.0081397 -0.0017032 0.01309 -0.0023655 0.0053954 -0.0021433 0.0020579 0.000185 0.0015866 0.0028197 -0.0025662 -0.0030565 -0.0033929 0.0033897 0.0020062 0.0015788 -0.003204 0.0029564 0.0018121 -0.00015223 0.00074366 0.0032406 0.0074895 7.2692e-05 0.0024554 -0.0039543 0.0037961 0.0027999 -0.0048982 -0.0024786 0.00052762 0.0067633 -0.0024509 0.0025282 0.0031362 -0.00080645 0.0023364 0.00033372 0.0059224 0.0034756 0.0059179 0.0034364 0.0017331 -0.0038257 0.00028672 -0.0006893 -0.00072479 0.0021898 -0.00037364 0.0031991 0.0032285 0.00033151 -0.0022777 -0.0041094 0.0052311 0.0044632 -0.00068846 -0.0011552 -0.0026158 -0.0031552 0.0032363 -0.0045533 -0.00018273 0.0024071 -0.0012509 0.0016281 -0.003963 -0.001133 0.007255 -0.0042467 0.0041116 0.0050054 -0.0040807 
on -0.0024376 0.001932 -0.0023996 0.00056156 -0.0056197 -0.0012492 -0.0023231 -0.00045701 0.0042459 0.0046525 -0.0053922 0.0024946 -0.00039714 0.0058972 -0.00062682 0.0019057 0.0015312 0.0052039 0.0021077 -0.0050382 -0.0023347 -0.00094808 -0.0011417 -0.00022783 -0.0079335 -0.0031024 0.0013354 0.0040063 0.0013098 0.0089134 -0.0016301 0.0059247 -0.0048278 -0.001307 0.0035876 0.0016718 0.0085798 0.00010821 0.0025058 -0.0028906 0.00090654 -0.00061904 0.0048617 -0.00077846 -0.0033843 0.0015844 -0.0045173 0.0068026 0.0017603 -0.0021381 -0.0017399 0.0049904 -0.0054092 -0.0043722 0.0022838 0.00087656 0.004498 0.00097008 0.00026832 0.0006053 -0.00011516 0.0089928 0.0030589 0.00047881 0.0021752 0.0039618 0.0028965 0.0034088 0.0029363 0.0036007 0.0011713 -0.0027821 0.0035225 -0.0016069 0.0011878 0.0025115 0.0026178 -0.004206 0.00070451 -0.0057931 -0.0015816 -0.0011039 0.0069422 -0.0051913 -0.0031791 -0.0026446 -0.00085049 0.00089307 -0.004108 0.00090778 -0.00081626 -0.0015557 -0.0010529 -0.002269 0.0051113 0.0045642 -0.00021086 0.0046237 0.0018791 -0.0020339 
white 0.0030075 -0.0012617 -0.0041853 -0.00090192 0.00088982 -0.00065004 0.00098407 -0.0005297 0.0011467 0.0072388 -0.0044587 0.0028263 0.00087649 0.0020601 -0.00026518 0.00083034 0.0012195 0.0025071 0.00017215 -0.0052795 -0.0054605 -0.00066137 0.00097234 -0.0012485 -0.0022686 -0.0047902 -0.0009269 0.0038733 -0.0024964 0.0078085 -0.0034056 0.0017306 -0.0012169 0.0028281 0.0017104 0.00024436 0.0022336 -0.0027815 -0.0040298 -0.0001107 0.0007448 0.0033048 -0.0013446 0.001111 -0.00038486 0.0038574 -0.00027385 0.00081967 0.00090569 0.006416 -0.0018085 0.0045487 -0.0048223 0.0027171 -0.001334 -0.0028068 -0.0020632 -1.9369e-06 0.0013929 0.00022359 0.0017538 0.0058533 0.0018162 0.00010599 0.0010803 0.003421 8.9672e-05 0.0044244 0.0029142 0.0044558 -0.0026156 -0.00012044 0.00062136 -0.0028716 0.00012279 0.00086251 -0.00046031 0.0036779 -0.0054285 -0.0019116 -0.0031893 -0.00052257 0.0035309 -0.0022754 -0.0042979 -0.004559 -0.004445 0.0028746 -0.00053017 0.00059056 0.0007791 0.00019995 0.0011996 -0.0016159 -0.00024115 0.0032534 -3.7838e-05 0.0030286 0.00044807 -0.0009601 
slightli 0.00054296 -0.0002363 -0.0054449 -2.1806e-05 -0.0021094 0.0028046 -0.00098574 0.0010106 0.0020451 0.0079382 -0.0028292 0.0030532 0.0031895 0.00066148 -0.00022851 2.3231e-07 -0.0011678 0.004516 0.00028429 -0.0068342 -0.0026314 -9.1314e-05 0.0033365 -0.00059763 -0.0039015 -0.0030517 0.0047745 0.00409 -0.002724 0.0092629 -0.0036457 0.0008276 -0.00223 0.0019836 0.0029282 0.0012557 0.0029522 -0.0012453 -0.0011095 -0.0054753 0.00012852 0.0018892 0.0019078 -0.0020743 0.00078686 0.0018703 0.0013479 0.00024832 0.0040041 0.0054902 -0.00057467 0.0054701 -0.0048751 0.0042805 -0.0017837 -0.002453 0.00061476 -0.0010927 0.0027712 0.0013874 0.0013441 0.004804 0.0027312 0.00082744 -0.0012086 0.0029569 -0.00024047 0.0063519 0.0023485 0.0032328 -0.00029922 -0.001614 -0.0023768 -0.0026764 0.00090079 -6.0681e-05 0.0011485 0.0037503 -0.0041567 -0.002758 -0.0016854 0.0022007 0.003652 -0.00038281 -0.0031852 -0.0053354 -0.00069636 0.0023714 -0.0050312 -0.0019878 0.0021596 -0.001616 0.0038537 -0.0011623 0.0013986 0.0030232 -0.0034955 0.0048273 0.0032826 -0.0032247 
tap 0.00038973 -0.00045676 -0.0022759 0.00025156 0.0020991 0.0025488 -0.0067051 0.0030722 0.0032934 0.0046056 -0.0034416 0.00029364 0.0021374 0.0046854 0.0028925 -0.0028593 -0.0019395 0.0028398 -0.0018436 -0.005539 -0.0021344 0.00097407 0.0015642 0.0022153 -0.0024325 -0.0022317 0.0011318 -7.8724e-05 -0.0015086 0.0068673 -0.0019173 0.0014154 0.00082663 0.00081182 -0.0029921 0.0028453 0.0022491 -0.0042905 0.00051916 -0.0003018 -3.3195e-05 0.00099802 -0.00066364 0.0009573 0.0040193 -0.00018827 -5.7648e-05 -0.001204 0.0034116 0.0036139 0.0031174 0.0030692 -0.0045962 0.0054639 -0.0048519 -0.001083 -0.003688 -0.0026212 0.003448 -0.00035636 0.0014598 0.00066055 -0.0032157 0.00072602 0.0022582 0.0026379 -0.00086416 0.0029477 -0.00081079 -0.00012983 0.00026613 0.001036 -0.0012968 -0.0020768 -0.0012634 -0.00018693 0.0016855 0.0031021 0.00032573 -0.0030062 -0.0022637 -0.00092226 0.0023008 -0.0016895 -0.0033368 -0.0013238 -0.0017317 0.0014755 -0.0072572 -0.00010844 -0.0020015 0.000448 0.0037934 -0.0015098 0.0011484 0.0021136 -0.0059446 0.0011537 0.0027809 -0.0014143 
alcohol 0.00066296 0.0030518 -0.0029251 0.00054796 -0.0016469 0.0012977 -0.0031055 0.0022093 0.00040621 0.0070259 -0.001391 0.0010908 0.00085667 0.00089676 0.0009311 0.0005078 0.0017705 0.0030648 -0.00065479 -0.0054721 -0.0053701 0.0011227 0.0025885 0.0010668 -0.00031788 -0.00079677 0.0028932 0.0034423 -0.002816 0.0074058 -0.00083347 -4.7687e-05 -0.00093126 0.0025611 -0.00010533 0.0014883 0.0023241 -0.0016287 0.00054875 -0.0028618 0.0026474 0.0024438 0.0002182 -0.0013214 1.6183e-05 0.00018424 0.00036507 0.00013717 0.0016394 0.0051091 0.0030744 0.0044477 -0.0026343 0.0015797 -0.00046275 -0.00098273 -0.00089799 -0.0031395 0.0026998 -0.0014082 0.0023064 0.004642 -0.0017008 0.0018985 -0.001207 0.00059628 -0.0019507 0.0049922 0.0047857 0.0013523 -0.0031225 -0.00020368 0.0017067 -0.002622 0.0021264 0.00079052 0.00041356 0.003789 0.00092768 -0.0018264 -0.0024661 0.0024107 0.0047347 -0.00087452 -0.0029278 -0.0068699 -0.0017549 0.0013438 -0.003202 -0.0019061 0.0017114 -0.0023677 0.0013485 -0.0021871 -0.00034615 0.0029564 -0.0042919 0.0040377 0.0043002 -0.0026425 
roasti 0.0030108 0.00040153 -0.0064472 0.0017125 0.00017215 0.00041431 -0.0019959 0.00062121 0.0017481 0.012434 -0.0065492 0.005032 0.0041907 0.00035417 -0.0021108 -0.0018405 0.0021976 -0.00031083 -0.0018095 -0.0086831 -0.004964 0.0014767 0.0043149 0.0015459 -0.002204 -0.0040726 0.0053872 0.0040831 -0.0042295 0.011357 -0.0022621 0.0037468 -0.00079446 0.0039388 -0.00071557 0.00085853 0.0058682 -0.0027469 -0.0030834 -0.0062774 0.0042856 0.0044126 -1.0156e-05 -0.0026476 0.0022766 0.004352 -0.0022102 0.00076284 0.0054582 0.0061414 -0.00079098 0.0075161 -0.0072556 0.0053031 0.00039767 -0.0076977 -0.0015793 -0.0011329 0.0040816 -0.0017169 0.0029134 0.0037686 0.0023377 0.00031543 0.0014058 0.0057037 -0.0034198 0.0090803 0.003719 0.0032435 -0.0033869 0.00033602 -0.00058502 -0.0041915 0.00039862 -0.0036778 0.0042871 0.004398 -0.0036454 -0.0054409 -0.0040286 0.0026681 0.0054238 -0.0021075 -0.0028078 -0.0055908 -0.001723 0.0068763 -0.0070789 -0.00060179 0.0035372 -0.00036799 0.0029496 -0.0056094 -0.0012021 0.0043404 -0.0059034 0.0075235 0.00336 -0.0019864 
s 0.0015834 0.0071071 0.0029724 -0.0030425 -0.001857 -0.0035478 -0.0004577 -0.00084736 0.0034216 0.0065657 -0.00043252 0.0062588 0.0027319 -0.00092182 0.0008685 -0.0021955 0.0028094 -0.0038827 -0.0071874 -0.0033077 -0.0059155 -0.0038734 0.0030495 0.0056533 -0.005275 0.0045976 0.0080017 0.0082691 -0.0043607 0.002886 -0.0016924 0.0038014 -0.0042851 -0.0085565 -0.0058468 0.00059184 0.0039587 -0.0039328 0.005628 0.0052529 -0.004794 -0.0031176 0.0015196 -0.0087835 0.00096184 0.010087 0.0048989 0.00036952 0.00029577 -0.0023232 0.0046135 -0.00013025 -0.0012283 -0.0013725 -0.0011955 -0.0054463 0.0036044 -0.0029045 0.0082209 -0.0069096 0.0080745 0.0010027 0.007904 -0.00054916 0.0072174 0.010797 -0.0086137 0.0095418 0.0071462 0.00012188 -0.0035288 0.0009381 0.0067301 0.0020865 0.0089561 0.0059703 -0.0024738 -0.0056876 -0.0043261 -0.003847 -0.0020904 0.0045593 0.002951 0.005093 -0.0096092 -0.0053219 -0.00072373 0.0017942 0.0014426 0.0042045 0.00027008 0.0011129 -0.0029982 -0.0019553 0.0047482 0.0044079 -0.0049455 -0.0054384 -0.0034637 -0.0035731 
t 0.00039519 -0.0045363 -0.0010435 -0.0022627 -0.0032809 0.0058389 -0.0075749 -0.0049388 -0.0025564 0.011683 -0.0031803 0.0030607 0.0015322 -0.0020238 -0.0063504 -0.00099887 0.0065753 0.0070169 0.00056996 -0.0097201 -0.0034075 -0.0060146 -0.0024505 -0.0046109 0.0015959 -0.0011054 0.0095613 0.0019647 0.0057844 0.0070934 0.00067599 0.0051746 -0.00072262 0.00099158 0.0025649 0.0055854 0.0075357 0.00057716 0.00050346 0.0044967 0.0051638 0.0053313 0.0021756 -0.007612 -0.0018727 0.005688 0.0027181 -0.0022498 0.0063061 0.011041 -0.0012235 0.0021113 -0.00045896 -0.001535 -0.0012643 0.003654 -0.00023217 -0.0092789 0.0098288 0.0019054 0.0056067 0.0029718 0.00629 0.00094128 -0.0022887 0.0016557 0.0014261 -0.00081939 0.0017756 -0.004017 0.0037093 -0.001584 -0.0031725 0.0053874 -0.0040728 0.00060461 -0.0017531 0.00061736 -0.0013348 0.0031174 -0.0032563 -0.004495 0.0078628 0.0028325 -0.0066175 -0.003793 -0.0021071 0.0094329 -0.0061912 0.00086936 -7.676e-05 -0.0085674 -0.0029584 -0.006122 -0.0027506 0.0029386 -0.0041997 -0.00060524 0.0079121 -0.0024676 
hazi 0.0018757 0.0031709 -0.00042095 0.0023769 0.0016584 -8.4325e-05 -0.0035014 0.00082574 -0.001511 0.002444 -0.0017698 0.0023923 -0.0016817 -0.0021037 0.00025598 -0.0026106 -0.0022962 5.8134e-05 -0.00038494 -0.00022488 -0.0046081 -0.00026015 0.00056441 0.0018839 0.003054 0.00099873 0.0034022 0.00085208 0.0016477 0.0046865 -0.0022044 0.00074083 0.001493 0.00026476 0.00046276 0.0028856 -0.00025024 0.0012575 0.0015285 -0.00068389 -0.00090382 0.0020777 -0.0022299 0.00062115 0.00025639 -0.0024124 0.00024107 -0.00015445 -6.2966e-05 0.0013379 -0.00055399 0.0019103 -0.0016822 -0.00019462 0.0022316 -0.0001541 -0.0020297 -0.0012598 0.0022942 -0.00059162 0.0018696 0.0038772 0.00024553 -0.00029468 0.0031404 0.0027369 0.0018761 0.0038689 0.0017475 0.0022149 -0.0036096 -0.0014868 -0.0004574 3.01e-05 -0.0028223 -0.0025139 0.00027227 0.0032887 -0.0030002 -0.0034678 -0.0004955 0.0018091 0.0031725 -0.0023717 0.0005964 -0.0018815 -0.00067143 0.0029953 0.0019197 0.0020908 0.0033306 0.0013338 0.0012717 -0.0018241 -0.00059096 0.00073948 0.00054113 0.0056169 0.0006183 -0.001588 
sydnei 0.00058798 0.00022688 -0.0014897 0.00048429 0.00050718 0.0018532 -0.00064176 0.00080915 0.0014857 0.0076813 -0.00058259 0.0043259 0.0031813 -0.00016752 -0.0011038 0.001829 -0.0014955 5.1632e-05 -0.0013633 -0.0051226 -0.0012131 -0.0011456 0.0021968 0.0018926 -0.0011695 0.00013878 0.0016935 -7.0213e-05 -0.00056561 0.0052336 -0.00040728 0.0030174 0.00096875 0.00086518 0.0014809 -0.00046013 0.00048024 -0.0012962 -0.0015092 5.6899e-05 0.00025346 0.0024744 -0.00044728 -0.00026339 0.00021769 0.0015486 -3.0064e-05 0.001404 -0.00060358 0.0035651 -0.00028041 0.0046113 -0.0037782 0.0012107 -0.0022283 -0.0029758 -0.0024365 -0.00061322 0.0026557 -0.0011954 0.0025663 0.0035188 -0.00037853 0.0013811 0.00225 0.0017622 -0.00077829 0.0026749 0.0013222 0.0002915 -0.00090455 -0.00083507 -0.00031964 -0.0011163 -0.0006688 -0.0015723 -0.00060257 0.0021879 -0.0010525 -0.0062583 -0.0024791 -0.00030779 0.003356 -0.00021552 -0.0024109 -0.00022176 -0.0012214 0.0025619 -0.00062342 0.00019974 0.0010269 0.0014867 0.0029414 -0.002756 0.0015338 0.0042003 -0.0014258 0.0033632 0.001166 0.0015512 
realli 0.0030962 -0.0012105 -0.0031304 0.0028001 -0.0011465 -0.00066181 -0.0013561 0.0022941 0.0016677 0.0032756 -0.0023129 9.1762e-05 0.0020821 0.00097178 1.4685e-05 -0.0002825 0.0010601 0.00092062 0.00047593 -0.0015589 -0.0028745 -0.0012429 0.0011855 0.0029135 6.425e-05 0.00071403 -3.8236e-05 0.00075628 -0.002037 0.0023909 -0.0010376 -0.00020226 -0.0022064 0.0034186 0.0012112 0.0022596 -0.00069755 -0.0019284 -0.00022513 -0.0016738 -0.00016664 0.0016699 -0.00027278 0.00027399 -0.00078909 0.00069892 0.0005131 -8.3246e-05 0.001918 0.0027131 0.00056074 0.00091094 -0.0032623 0.0011946 8.8467e-05 -0.0032872 -0.0015247 -0.0015886 -0.0011503 -0.00069001 0.0010924 0.0010264 0.00069923 -0.00043504 0.00018429 0.0025784 -9.9287e-05 0.0045019 0.0027185 0.0011131 -0.0026322 -0.0012474 -0.001734 -0.0015268 -0.0015005 -0.00039216 0.001651 0.0025786 -0.0037781 -0.0029001 -0.0031525 0.00087654 -0.00062339 -0.0003477 -0.0047001 -0.00045134 -0.001048 0.0019239 -0.0028559 0.00047347 -0.0018594 -0.001905 0.0024626 -0.00075427 -0.0018147 0.0015341 -0.001807 0.00038487 0.0027345 -0.001508 
clear 0.00029664 0.00091318 -0.0021964 0.00010279 -0.00085151 -0.0012407 -0.0060064 0.0012278 -0.0016042 0.00043794 -0.00086175 -0.00070424 0.001327 0.00039871 -0.00068207 -0.0022494 0.00075484 -0.003556 -0.00028595 -0.0006387 -6.985e-05 -0.0010059 -0.0007268 0.0017897 0.00075257 0.00033232 0.0031169 0.0004849 -0.0020802 0.0029698 -0.0023301 0.00070018 -0.0027456 0.0015492 -0.001064 -0.00094053 0.00032585 -0.0013415 0.00027729 -0.00088684 0.0026064 0.00068528 0.0026 -0.002539 0.00044796 0.0010646 -0.0018004 -0.00043963 -6.0626e-05 -0.0010213 -0.0006346 0.0030579 -0.0031558 0.0018002 -0.0011272 -0.00098765 0.00029871 0.00099759 -2.8084e-05 -0.0034005 0.00071042 -0.0010843 -0.0022601 -0.0013541 -0.0020677 -0.0016475 -0.00038146 0.0018426 -0.00020402 -0.00087116 -0.0021436 0.00026402 -0.00031482 -0.0042907 -0.00044842 0.00026046 0.0019505 0.00098848 -0.0018699 -9.9519e-05 -0.0024798 -0.00081989 0.00051067 -0.00054971 0.00055502 -0.0030318 -0.00039993 0.0032178 -8.5863e-05 0.0010511 0.0020309 5.812e-05 0.00097321 -0.00072704 0.0016043 0.0014068 -0.0021056 0.0022118 -0.0010143 -0.0013336 
lot 0.0034898 1.1186e-05 0.00026231 0.0025932 0.0012136 -0.004577 0.001464 0.00040628 -0.00044393 0.0083799 -0.0013938 0.0028749 -0.00096257 0.0026473 -0.00066824 -0.0017526 -0.00027761 0.0040008 -0.00037038 -0.0051019 -0.0024483 -0.0044791 0.0042567 0.0033908 -0.00070065 -0.001996 0.0028996 0.0042486 -0.0028141 0.004322 -0.0028454 0.002037 -0.0015837 0.0026208 0.0031212 0.0027693 0.001738 -0.0054229 -0.0039101 0.002633 -0.0007092 9.7681e-05 -0.0020188 0.00074916 -0.0036607 -0.00042187 -0.003464 0.00068521 0.0030752 0.0048394 0.0021467 0.0017473 -0.00095041 0.0020703 -0.00055316 -0.0023366 -0.0024639 -0.0011581 0.0015182 -0.0017634 0.0029255 0.0038893 -0.00071558 0.0010441 -0.0010593 0.004273 -0.0035866 0.0035989 0.0014797 0.00074976 0.0024324 0.00042801 0.00074894 0.00087225 0.0044483 0.00025714 0.0024229 0.0043022 -0.0009984 -0.0023331 -0.0054057 0.0029962 0.0043961 0.00019943 -0.003412 -0.0046528 0.00018181 0.0042053 -0.0059592 -0.0017448 -0.00078125 0.00065792 0.0033526 -0.003847 0.0024997 0.0062381 -0.0036296 -0.0010977 0.0055754 -0.0031662 
copper 0.0051721 0.00080158 -0.0045152 -0.0011221 -0.0012756 0.0020263 -0.0018363 0.0025159 -0.0014049 0.0068789 -0.0047339 0.0025089 0.0018543 -0.00034089 -0.0016395 -0.00021433 -0.0003671 0.0013601 0.00173 -0.006082 -0.003191 0.00089556 0.003222 0.0008773 -0.0027361 -0.0047687 0.0029572 0.0017985 -0.003762 0.0083685 -0.001247 0.0022951 0.00021885 0.0015091 3.3099e-05 0.0017473 0.0030169 -0.00081699 -0.0012339 -0.0024388 0.0007322 -0.00062508 0.0010015 -0.0001851 -0.00069007 0.0032793 0.00018143 -0.0011812 0.0030532 0.0025766 -0.00036115 0.0032579 -0.003633 0.0020712 0.0013131 -0.0026096 -0.0017153 0.00083791 0.00193 -8.8899e-05 -0.0014838 0.0035815 -0.00016142 -0.0015836 -0.0017697 0.0048321 -0.0027899 0.004744 0.0033894 0.00054652 -0.0026514 -0.00092189 -0.00037114 -0.0040613 0.0027006 0.0025825 -0.00040592 0.00073223 -0.00043995 -0.0030018 -0.00094214 0.00081211 0.0040431 0.0017085 -0.00056651 -0.0035791 -0.0021567 0.003132 -0.0037779 -0.00087163 -0.00049056 -0.0010945 0.0021415 -0.0011601 0.0017717 0.0043952 -0.0033271 0.0011352 0.0015348 -0.00092967 
toast 0.0044316 -0.0026319 -0.0098727 0.0019113 -0.0027716 0.0042205 -0.003623 -0.00079575 0.0016273 0.014528 -0.0064759 0.0044592 0.0036591 0.00035666 -0.0038915 0.0024261 0.00061799 0.0029227 -0.001574 -0.01024 -0.0031379 0.0027887 0.0043373 0.0037974 -0.0018271 -0.0042098 0.0054686 0.0075865 -0.0048027 0.015857 -0.0040113 0.0028486 -0.002467 0.003415 0.002099 0.0036773 0.0048926 -0.003092 -0.0052538 -0.0051033 0.002776 0.0037522 -0.00018993 -0.0038071 0.00061609 0.0055958 -0.0011065 0.0023724 0.0056242 0.010032 -0.0028147 0.0077481 -0.01006 0.0056013 0.00088402 -0.0084138 -0.003344 -0.0020333 0.0076173 -0.0023272 0.0020728 0.0058289 0.0022254 0.0011592 -0.0014588 0.0032723 -0.00047189 0.0078385 0.0042457 0.0053604 -0.0041265 0.00025595 -0.0015473 -0.0040976 -0.00079232 -0.0037151 0.0030237 0.0065929 -0.0046098 -0.0055467 -0.0054962 0.0050781 0.0065303 -0.0042228 -0.0020541 -0.010076 -0.0040241 0.0078246 -0.0081606 -0.0012747 0.0063112 -0.0020705 0.0023172 -0.007198 0.0039847 0.0079847 -0.0054179 0.0090809 0.005335 -0.0030538 
dry 0.0047706 -0.00061882 -0.0020849 -0.0027995 -0.0016027 0.0030643 -0.0021826 -0.0006403 -0.00085523 0.0014299 -0.0021686 0.0044874 0.002229 0.0011247 0.0033038 -0.0023142 0.0010232 0.0058879 4.2982e-05 -0.00078273 0.0010369 0.0005558 0.0020011 0.0015089 -0.0057228 -0.00092961 0.0008329 -0.00099497 -0.0018622 0.0055566 0.0012159 -0.0011639 -0.00046502 -0.0020543 -0.0012248 0.0013579 0.0033343 0.00066277 -0.0051939 -0.0019717 0.00016508 0.0024405 0.0041154 0.0016197 -0.0015381 -0.001066 -0.0013397 0.0028809 -0.0018176 0.00099984 0.0017667 -0.0025417 -0.0026874 0.0030297 -7.7615e-05 -0.0030939 -0.0026027 -0.0017399 -0.0004763 0.0019514 -0.0021414 0.0014727 0.0013456 -0.0048255 0.001973 0.0046664 -0.00022705 -0.0019662 0.0017192 -0.00097319 -0.00097607 -0.0039409 0.00046477 0.0026539 0.00098361 0.00049691 -0.0026028 0.0045493 -0.00042059 0.0016478 0.0014436 -0.00068738 -0.00086832 -0.0046886 -0.00020708 -0.003422 -0.00029128 0.001886 -0.0058241 -8.8454e-05 -0.0011151 0.0020344 0.0028534 -0.0011468 -0.0030929 0.0017443 -0.0004564 0.0031191 0.0031575 0.00090208 
small -0.0027614 -4.4381e-05 -0.0023297 0.00013265 -8.9707e-05 -0.0012283 -0.0027482 0.00064723 -0.00095397 0.004388 -0.0041205 0.0016848 0.00020102 0.00086014 -0.00056691 -0.00026741 -0.0010013 0.0021607 6.654e-05 -0.0068392 -0.0016778 -0.00083242 0.00064016 -0.0018481 -0.0033351 -0.0026342 -0.00023349 0.0032311 -0.0037678 0.0049628 0.00076146 -0.001894 -6.4956e-05 0.00060416 -0.00054576 0.00050907 0.0033874 -0.0011237 -0.00069201 -0.0026796 -0.00019571 0.0021776 0.0034427 -0.0010943 0.00065837 0.0032696 0.0033331 -0.00022133 0.003205 0.0043412 -0.00024433 0.0037816 -0.0032225 0.0036687 -0.0034589 -0.0040724 -0.00078489 1.3635e-05 0.0014646 0.00083952 -0.0011206 6.1273e-05 -0.0011654 -0.0011998 0.00079835 0.0042611 -0.0017271 0.0049558 0.0018807 -0.0022234 -0.0037418 0.00092704 -0.00014454 -0.0050077 -0.00075285 0.0014835 -0.00096825 0.0023497 -0.0032069 -0.0022644 -0.0027257 0.00071317 0.0017529 0.00038587 -0.00096592 -0.0015056 -0.0013962 0.0028486 -0.001741 -0.0014919 0.0014054 -0.00065684 0.0048191 -0.0015516 -0.00089757 0.0024138 -0.0027451 0.0032606 0.00090896 0.00057531 
mouthfeel 0.00036473 -0.0017713 -0.0037514 -0.00074866 -0.0002533 -0.00078706 -0.0017631 0.0029055 0.00091922 0.0039741 -0.0011688 0.0032937 0.0011822 -6.6319e-05 0.00022285 0.00019822 -0.0021142 0.0025528 -0.0012498 -0.0044967 -0.0022631 -0.00010773 0.0012043 -5.1963e-06 -0.0015697 -0.0025114 0.0024627 0.0017672 -0.0019342 0.0079778 -6.3438e-05 0.0001172 -0.0017522 -0.00016009 6.5201e-05 -0.00028668 0.0019944 -0.00043012 -0.0023454 -0.0013421 -0.00015692 0.00077707 -0.00065066 -0.0010494 -0.00014885 0.0022819 0.001313 -0.00056793 0.0012188 0.0028931 -0.00070951 0.0027284 -0.0024524 0.0024575 0.0016266 -0.0029582 -0.0028807 -0.00032442 0.0022456 0.00010478 0.0019254 0.0028344 0.001575 0.0016363 -0.0010637 0.0035215 -0.0011491 0.0033261 0.00070822 -0.00028102 -0.0014837 0.0017285 -1.2783e-05 -0.0023789 0.0017994 -0.00031311 0.00079048 0.0027976 -0.0016842 0.00077725 -0.0027554 0.0023811 0.0021894 -0.00077775 -0.0024249 -0.0035391 -0.0014067 0.0017891 -0.0021165 0.000654 -0.00015442 -0.0013708 0.0016324 -0.0027483 0.00020367 0.0024884 -0.0025456 0.0012653 0.002385 -0.0018756 
touch -0.00049987 0.0010239 -0.0054482 0.00091912 -0.0038952 0.003384 -0.0010538 -0.00098868 0.00079269 0.0036236 -0.0033123 0.0021462 0.0008167 0.0013447 0.0010541 0.0013215 0.00059246 0.0025023 0.00094871 -0.0040477 5.19e-05 0.00078278 2.1992e-05 -0.0011868 0.00060824 -0.00098154 0.004611 0.0025629 -0.0030422 0.0055995 0.00048219 -0.00087098 -0.0030177 0.0012507 0.0024342 -0.00072408 0.0027318 -0.0029902 -0.0025254 -0.0021982 0.00066052 0.0013558 0.0017417 -0.001071 0.0011598 0.00050635 -0.00095972 -0.00077144 -5.3181e-05 0.0015692 0.0016146 0.00061447 -0.0013919 0.0045039 0.0012642 -0.0034157 -0.0010513 0.0008197 0.0012554 -0.00060734 0.00066067 0.0045896 0.00027813 0.0010384 -0.00057503 0.001265 -0.00071982 0.00082973 -9.1375e-05 0.0028905 -6.3715e-05 0.00031792 0.00083304 -0.0032601 -0.0017198 -0.0017899 -0.0024386 0.00037961 -0.0014233 0.0012633 -0.00019159 0.0015578 -0.00045882 0.00072532 -0.0017259 -0.0036129 -0.0021605 0.003306 -0.0035768 0.0029484 0.0019151 0.0019385 -7.5088e-05 -0.0037556 0.0010341 0.0043109 -0.0035169 0.0010834 0.00024889 -0.0025442 
nose 9.4197e-05 0.0012284 -0.0026865 0.0029601 -0.0022038 0.0015725 -0.0021839 0.0015072 0.0016721 0.00721 -0.00049783 5.2287e-05 0.00096192 0.0015999 0.0007226 0.001527 -0.0019288 -0.00018856 0.00046495 -0.00308 -0.0010249 0.0014428 0.0031707 -0.0017965 -0.0010944 -0.00050105 0.0049433 0.0027972 -0.0004901 0.0032228 -0.0013138 0.0023832 -0.00053565 0.00087246 -0.0011245 0.001247 0.0022944 -0.0013899 -0.0018891 0.00039159 0.0019482 0.0036077 -0.0016875 0.00047055 -0.0033128 -0.00055477 9.3087e-06 0.00051547 0.0030954 0.0012399 -0.0010545 0.0030257 -0.0044108 0.0036813 0.00096583 -0.0010856 -0.00098015 -0.003595 0.0036853 0.0023861 -0.00027511 0.0011282 0.00023654 7.5665e-05 -0.00025097 0.0010921 0.00013212 0.0042642 0.0018002 0.0042713 -0.00031261 0.0032221 0.00073223 -0.001892 8.0391e-05 0.0010628 0.0040004 0.0010469 -0.0014636 -0.0015508 -0.0010749 0.0027628 0.003541 -0.00040231 -0.0036245 -0.0033132 0.00069992 0.0071122 -0.0022893 0.0016212 -0.00038121 0.00081237 0.0010854 -0.002478 0.0009663 0.00035139 -0.0043958 -0.0012134 0.00024923 0.0010307 
nutti 0.00089336 -0.0023144 -0.0044947 -0.0011206 0.0019677 9.6026e-05 -0.003614 0.001507 -0.0019459 0.0062772 -0.0048683 0.0024625 0.0035967 0.0030393 -0.00073769 -8.3429e-05 -0.00050378 0.0028918 -0.0012016 -0.008868 -0.0015691 0.00095018 0.0018816 -0.0022195 -0.0036678 -0.0035764 0.0029549 0.0047736 -0.0026039 0.0077669 -0.00081245 0.0024205 -0.0026769 0.0025536 0.00088979 0.0016687 0.0034565 -0.0035457 -0.00062007 -0.0029669 0.002161 0.00327 -0.0005257 0.00019988 -0.00076076 0.0045343 0.0010102 0.0019751 0.0031716 0.0040684 -0.0007769 0.0067168 -0.0063641 0.00039331 0.00098995 -0.0054411 -0.0019926 -0.0025175 0.0031119 0.0015454 0.0025973 0.001325 -4.973e-05 -0.00045128 7.998e-05 0.0032145 -0.0024489 0.0050563 0.0011435 0.0055294 -0.0019749 0.00016956 -0.00044262 -0.0008477 0.0033683 -0.001781 -0.0002667 0.003429 -0.0012249 -0.0020588 -0.0021809 -0.00056448 0.002759 -0.002939 -0.0041446 -0.0045767 -0.0019422 0.0043648 -0.0041812 0.0015972 0.0016493 -0.0017757 -6.0574e-05 -0.0041803 -0.0014349 0.0053739 -0.0055471 0.0035465 0.000786 -0.00053717 
bad 0.0035259 -0.00091371 -0.0033943 0.0024814 -0.0034082 -0.0030703 -0.0044694 -8.5246e-05 -0.00056073 0.0053527 -0.0061725 0.0027224 0.0020307 -0.0017269 0.0003349 -0.00098225 -0.0013272 -0.0018285 0.00040539 0.00030276 -0.0041347 0.0017199 0.0019478 -0.00047256 -0.00085233 0.00026279 0.00083429 0.0030108 -0.0027832 0.00014397 -0.0017249 0.0059792 -0.0021086 0.0055408 0.0037161 -0.00030305 0.0020992 -0.0021358 0.0017954 -0.0027439 -0.0015684 0.0025187 -0.0011869 -0.00056575 0.00047018 0.0056184 1.5451e-05 0.00043652 0.0007601 0.00045544 0.00024498 0.0048539 0.00048177 0.0026155 -0.00037433 0.0020792 -0.0064013 -0.00086066 0.001353 -0.00017621 0.0054765 0.00071515 0.0011986 -0.00080347 -0.001232 0.0041594 -0.0021275 0.0023233 0.0051745 0.0031897 0.0027278 0.00056167 -0.0021158 -0.0034277 0.00076989 -0.0023406 0.0027832 0.0028356 -0.0010541 -0.0057313 -0.0017584 0.0025461 0.0033116 0.0020299 0.00047155 -0.0028303 0.004781 -0.0011101 -0.0053143 0.0023717 8.2185e-06 -0.0019297 -6.6614e-06 -0.0013599 -0.00048747 -0.0019427 -0.0023935 0.0014127 0.00059729 -0.00086165 
thin -0.00042438 -0.00079458 0.00044702 0.00020268 0.00032663 0.001628 -0.0032542 0.0012091 -0.00070918 0.003537 -0.0046565 0.0020058 0.00017832 -4.5541e-05 -0.0019481 0.00012431 0.00060897 0.001588 -0.0013977 -0.0066323 -0.002761 -0.0021249 0.0062236 0.0019268 -0.001863 0.00019738 0.0028114 0.0030282 -0.00078743 0.0077991 -0.0041915 0.0021193 -0.0017395 0.0025462 0.0023788 0.00047519 0.0022372 -0.0040459 -0.001904 -0.0025687 0.001476 0.0043681 0.0017448 -0.00045177 2.6734e-05 0.000743 0.0043168 0.0038599 0.0017531 0.0015465 -0.00045487 0.0020569 -0.0064243 0.0018222 -0.00083958 -0.0013615 0.00038454 -0.00042152 0.001917 0.00026605 0.0020117 0.0016844 0.0019798 -0.00023799 -6.4852e-05 0.0012999 -0.00010293 0.0070028 0.0018881 0.002942 -0.00023652 0.0042755 0.0016067 -0.0026094 0.0014487 0.00015387 0.0029458 0.0013236 -0.001624 4.4282e-05 -0.0048699 -0.00062993 0.0051739 -0.0013339 -0.004527 -0.0038283 -0.0034408 0.0027942 -0.0049622 -0.00055709 -0.0018799 0.0013144 0.0018383 -0.001436 0.0025158 0.005012 -0.0010359 0.0022188 0.0031014 -0.0016131 
averag 0.001157 -0.0022698 -0.0036215 0.00085801 0.001764 -0.00023821 -0.0010242 -0.0025642 2.7037e-05 0.0014749 -0.0010824 0.0014776 0.0016582 -0.00051217 -0.0025394 0.002152 0.001583 0.0021758 -0.0013034 -0.0027908 0.00094202 -0.00054741 0.0024609 0.0025899 0.00014068 -0.0018612 0.0021462 0.0019708 -0.0023294 0.003895 3.9205e-05 -0.0001236 0.0010938 0.00074586 -0.0004533 0.00033791 0.0016406 5.7015e-06 -0.002768 -0.002874 0.0014136 0.001579 0.0014005 -0.0017996 -0.00059334 0.0027393 -0.0015721 -0.00044827 0.0039958 0.0031382 -0.0013809 0.0031171 -0.0010394 0.00097261 0.00062364 -0.0041747 -0.0019964 0.00021663 0.0022151 -0.0010229 0.0034799 0.0021425 0.0023311 -0.00011164 0.00096584 0.0011827 -0.00034808 0.003735 0.0027153 0.0015296 -0.00026866 0.00047454 0.0016105 -0.0021023 0.00178 -0.0019992 0.0029946 0.00047449 -0.0013324 -0.001985 -0.0011575 -0.00023116 0.00036174 -0.0014114 -0.0029335 -0.0060964 -0.0020559 0.0034608 -0.0036943 -0.00038942 -0.0004945 -0.0024138 -0.0011367 -0.0027933 0.00034622 -0.00054364 -0.0017637 0.0019542 0.0016477 -0.00057502 
smell 0.0014701 -0.00081806 -0.0027859 -0.0019564 -0.00088388 0.0026724 -0.0017179 -0.00093129 -0.00086377 0.0046738 -0.0053674 0.00065969 0.00066549 -7.7308e-05 0.00060935 -0.00096045 0.00071181 0.0018805 0.0025637 -0.0038962 9.1692e-05 -0.00076916 0.0012758 0.0025721 0.00066575 -0.0021809 -0.00016425 0.0013722 -0.0026416 0.0038822 0.00057935 0.0019662 4.0014e-05 -0.00040986 0.00020412 0.0023663 0.00076298 -0.0052821 -0.00080776 0.00112 -0.00018881 0.0018415 -0.00047861 0.00099699 -0.0026179 0.00036473 -0.0026411 0.0029242 0.0033132 0.0016747 -0.0022159 0.0030295 -0.003952 0.0023792 0.00041261 -0.0011248 -0.0016839 0.00011633 0.00089889 -0.0022183 0.00064963 0.0009246 0.00071755 0.0026084 0.0010915 0.0050118 0.0019246 0.0025805 0.0030292 -0.0013115 -0.0003711 -0.00060348 -0.00025945 -0.0024768 -0.0020303 -0.00053542 0.0016206 0.00034194 -0.0020522 -0.0011118 0.00032185 0.00015229 0.0023524 0.0026604 -0.00044281 -0.0036453 0.00083715 0.0014966 -0.00019443 -0.0039319 0.0029148 -0.00084264 0.002 -0.0012458 0.00094799 0.0018461 -0.00046318 0.0036548 0.0023846 -0.00080365 
burnt 4.5054e-05 0.0013613 -0.0021402 -0.00089347 -2.2164e-05 0.0034694 -0.0029762 0.0019598 0.0011937 0.0067957 -0.0030119 0.0037662 0.0014601 -0.00018443 -0.0025398 -0.0023328 0.00099376 0.002604 -0.00015301 -0.0039159 -0.0014363 0.00081572 -0.0011034 0.00065629 -0.0011446 -0.0033368 0.0039453 0.0021695 -0.00081987 0.0089315 -0.0014498 0.00056292 2.6922e-05 0.001054 0.0012085 0.00055398 0.0030257 -0.002335 -0.0028355 -0.0013364 0.00079155 0.0019407 0.0010789 -0.0012844 0.0023058 0.0021119 -0.00072642 0.00092033 0.0030074 0.003773 -0.0017998 0.0038017 -0.0028713 0.0021193 0.00078499 -0.0025916 6.08e-05 -0.0017487 0.001636 -0.0026493 0.0029096 0.0043351 0.00068846 0.001366 0.0024896 0.0034264 0.00082073 0.0014257 0.0026315 0.001868 -0.0026973 0.0012878 -0.00047542 0.00044201 -0.00011381 0.00061747 0.000457 0.0013717 -0.0016103 0.0011968 -0.00089807 0.0023493 0.0048633 -0.0010919 -0.0018114 -0.0022204 -0.0041177 0.0028742 -0.0036895 -0.00020047 -0.00010965 -0.0014843 0.0032083 -0.0017155 0.0017292 0.002223 -0.0034856 0.0012958 0.0035685 -0.0036359 
best 0.0027607 -0.0013748 -0.0029516 -0.0019862 0.0026274 0.0023543 -0.0035611 0.0020139 0.0033605 0.0070419 -0.0019456 0.0013775 0.0018844 -0.00051592 0.0029821 0.00096598 0.0006338 0.00039817 0.0028178 -0.0058592 -0.0049172 0.0008164 0.0036792 0.001612 -0.0025727 -0.0024662 0.0034643 0.0014566 -1.1159e-05 0.0070974 -0.0063079 0.0043072 -0.0049581 -0.00063823 0.00078669 0.001211 0.0026312 -0.0032811 -0.0034793 -0.0035376 0.0029571 0.0051536 0.0024791 -0.0036322 -0.0012539 -0.0009419 -0.00027002 0.0017574 0.00176 0.0071211 -0.0017444 0.007231 -0.0095455 0.0018004 0.0015583 -0.0048889 -0.0025763 0.0022047 0.0054439 -0.00097413 0.0016982 0.0010794 0.0027725 0.0011411 0.0022097 0.0041844 -0.0022858 0.0057768 0.00096394 0.0042837 -0.0024428 0.0025704 -0.0019261 0.00041047 0.0020637 4.7575e-05 0.0026819 0.0043839 -0.00059251 -0.0078489 -0.0023097 0.0012442 0.004355 -0.00052065 -0.0022819 -0.0040195 -0.0040414 0.0048357 -0.0039762 -0.00051428 0.0019092 -0.00054653 0.003158 -0.005148 0.0027156 0.0032191 -0.0035523 0.0039974 0.0039729 -0.0028209 
mild -0.00048133 -0.00011229 -0.0033533 -0.0037634 0.00014153 0.00017143 0.00052826 0.0015917 0.0023987 0.0007357 7.7959e-05 0.0015207 0.00056849 0.0017397 -0.00012872 -0.0014021 -0.0011244 0.0012087 -0.00054637 0.000684 -0.004909 -0.00062571 0.0027057 -0.0014651 0.0033524 -9.8318e-05 -0.0016251 -0.0012603 -0.0026843 0.0013324 -0.0026944 0.00054544 -0.001115 0.005711 0.0050968 0.0023692 0.0016739 -0.0015556 0.00085342 0.00027701 0.00038126 -0.00066683 -0.00040256 0.0014679 0.0011986 -0.0019047 -0.0021838 0.0013648 3.5475e-05 0.0005154 -0.0025883 0.0033488 -0.0011733 -0.0013612 -0.0012189 0.0038208 -0.00089304 -0.0031101 -0.0019412 0.0017414 0.001114 4.2195e-05 -0.0012003 0.0016767 0.0024314 0.00061229 0.00078339 0.0016927 -0.0017642 0.00025234 0.00083337 -0.0037042 0.00086095 -0.0020213 0.00090005 -0.0009664 -0.0011278 0.0048233 -0.0026135 0.00063109 0.0018598 0.00095233 -0.0008062 -0.0012537 -0.0030292 -0.0020556 0.0027227 0.0037394 -0.0039362 0.00059492 0.0010474 0.00020817 -0.001138 -0.00030539 0.00016229 0.0015949 0.0026791 0.0007467 -0.0024224 -0.00022193 
glass -0.0012108 -0.00032028 -0.0019261 0.0015414 -0.00029569 -0.00028362 -0.0010724 -0.0023 0.00071587 0.0019906 -0.0017485 -0.00027852 -0.0034302 -0.00023545 -0.0016769 0.0013105 0.00099439 0.00078337 -0.0004499 -0.0056552 5.1952e-05 -0.00024858 0.00097858 0.0018766 -0.0012911 0.0012336 0.0025905 0.00038788 0.0013087 0.0053913 -0.00079223 0.0029287 -0.00088941 0.00034594 0.00090428 0.00087952 0.00074793 -0.0011283 -0.0022316 -0.00039915 -0.0014521 0.0013131 -0.00088731 0.0013616 0.0013549 0.0014288 -0.00077036 0.0020297 0.0020275 -0.00035327 0.0013452 0.002873 -0.0022751 0.0028004 -0.0011524 -0.0020558 -0.0030545 -0.0013627 -0.0035257 -0.00083402 -0.0012485 0.0029774 0.0013398 0.00020722 2.2574e-05 0.00068906 -0.0039134 0.0013876 0.0012615 -0.00058773 -0.0014269 -0.00064863 0.0011048 0.00019339 0.00064447 -9.5664e-05 0.00089627 0.0033809 -0.0012512 -0.0011968 -0.00079776 0.0011726 0.0031612 -0.00033673 0.0023188 0.0012701 -0.0028996 0.0016504 -0.0019236 -0.001188 0.0019144 0.00068078 0.00031782 -0.0011954 -0.00057501 0.00077878 -0.0027568 0.0024674 0.0016652 -0.0016322 
moder 0.0028122 9.1806e-05 -0.0055119 0.0012128 0.00076948 -0.0010721 -0.0029033 0.00076241 -0.0011719 0.0044208 -0.0025284 0.00089876 0.0012722 -0.00057537 -0.0020284 0.00082268 -0.00018294 0.00028093 0.003228 -0.0027615 -0.0031949 -7.5522e-06 -0.0010363 0.0029173 0.0015249 -0.0009611 0.0049895 0.0019974 -0.0025661 0.0071058 -0.0029538 0.0015441 -0.0010861 0.0022972 3.3161e-05 -0.0011669 0.0019616 -0.0021908 0.00049041 -0.0028697 0.00047032 -1.813e-05 0.00012438 -0.0025371 -0.00082681 0.00097474 -0.0025095 0.0025713 0.0061073 0.0045267 -0.0017957 0.0059335 -0.0055107 0.0035563 -0.00084363 -0.00032681 -0.0024921 -0.0026254 0.0034037 -0.0016762 0.0040346 0.0062962 0.00050893 -0.00072765 -0.00052382 0.0029333 0.0026901 0.0040072 0.0009143 0.0013393 -0.0005707 -0.0023603 0.00053926 0.00025995 0.00086511 -0.0017835 -4.2126e-05 0.0020535 -0.00082222 -0.0049155 -6.7019e-06 0.0037437 0.0022935 0.0019569 -0.0013533 -0.0051312 -0.00099166 0.0033315 -0.00175 0.00061103 -0.00036765 -0.00027206 0.0032698 -0.002592 0.0016086 0.0043959 -0.0028326 0.0035773 -0.0012955 -0.0022081 
no 0.0025967 -0.0013088 -0.010464 -0.00030927 -0.003018 0.0029105 -0.0024115 -0.0013652 0.0025421 0.012714 -0.0031562 0.00097448 -0.0011318 -0.00077149 -0.0042063 0.0019747 0.0013035 0.002902 0.0013479 -0.0098443 -0.00059528 0.00088074 0.0023496 0.0024571 0.0026413 -0.0089381 0.0060928 0.0023154 -0.0050606 0.0056982 -0.0057949 0.001826 -0.0052843 -0.0005745 -0.0028111 0.0045171 0.0072797 -0.0012671 -0.0016271 0.0020912 0.0017176 0.0016645 -0.00097589 -0.0018489 0.0044402 0.0019614 -0.00081886 0.0050287 0.0060469 0.0042248 -0.0044719 0.0057373 -0.0068161 0.0051307 -0.0013972 -0.0020131 -0.0031607 -0.0055219 0.00057093 -8.4347e-05 -0.0037608 0.00097544 -0.0018651 -0.0016144 -0.0002711 0.0013862 -0.0018405 0.010315 0.0020006 0.0065434 -0.0010762 1.6221e-05 0.0012736 -0.0026602 0.0011188 -0.0017815 -0.0025003 0.0027853 -0.0028897 -4.3501e-05 -0.0020662 0.0038294 0.0030548 -0.005337 -0.0020655 -0.00094896 -0.0065462 0.0067171 0.0024154 -0.0028868 0.0043141 5.03e-05 0.0063676 -0.0057242 0.0043955 0.0065138 -0.005603 0.0047099 0.006625 0.0020981 
rubi 0.0016975 0.0014829 -0.0044657 0.0020915 0.00034967 6.0008e-05 -0.0020344 0.0027043 0.0014744 0.0054911 -0.0044386 -0.00058956 0.003006 0.0017905 -0.0020883 0.002876 -0.00022645 0.0006215 -0.0023403 -0.0044144 0.00038501 -0.0018154 0.0013525 0.0019239 0.0010407 0.00053265 0.0015486 0.0025119 0.00022407 0.007981 -0.0026601 0.0022899 0.00032907 -0.0017308 -0.00053449 0.00030569 0.0040463 -0.0019048 -0.0039897 0.00040062 0.0028083 0.0015572 0.0014494 -0.00049063 0.0032611 0.005428 -0.0017737 0.0026226 6.9928e-05 0.0022739 -0.0027561 -7.967e-05 -0.00032978 0.0028972 0.00071681 -0.0013202 -0.0014565 -0.00083775 0.0024665 0.0013198 0.0028786 0.00057236 -2.1868e-05 0.0024461 0.00095319 0.0017048 -0.00096805 0.0030301 0.0024997 0.00071537 0.0014748 0.0008264 -0.00037463 0.00059647 -0.0011033 0.002274 0.0011224 0.0017793 -0.0019081 0.00042296 -0.0023012 0.002181 0.0050538 -0.00048404 0.0016114 -0.0025093 -0.0010391 -0.00059307 -0.00098314 -0.0012191 -0.0011937 -0.00076233 0.0019671 -0.0037663 0.0029587 -0.00028012 -0.0035649 0.0003041 0.0042375 -0.0044961 
sour 0.0031422 -0.0011601 -0.0054741 -0.0020375 -0.0025387 0.001179 -0.0057689 0.00074473 0.0005513 0.016197 -0.0072944 0.0070802 -0.0030595 0.0021292 -0.0016062 -0.00023317 0.00021343 0.0024611 -0.00354 -0.012167 -0.0048261 0.00023081 0.0060272 0.0020892 -0.0016116 -0.003983 0.0063117 0.005351 -0.0020243 0.013875 -0.0023287 0.0056733 -0.0047048 0.0044188 0.00068019 0.0014918 0.0040112 -0.0069994 -0.000467 -0.004344 0.002453 0.0039245 -0.00017881 -0.0030385 0.0032767 0.0021307 0.00077038 0.0034395 0.0037793 0.0077896 -0.0024689 0.011399 -0.011334 0.0017837 -0.0021989 -0.0072077 0.00083051 -0.0022808 0.0042076 0.0012334 0.0016238 0.010159 -0.00052177 0.00057997 -0.00032447 0.0074174 -0.0018839 0.01062 0.008482 0.0028338 -0.0036895 -0.0012316 0.00071847 -0.0025924 0.001031 -0.00039877 0.0011912 0.0053341 -0.0053363 -0.0049798 -0.0033335 0.0034908 0.0088822 -0.0038815 -0.0036251 -0.010134 -0.0010903 0.007299 -0.0079066 -0.0023914 0.0030108 -0.0034337 0.0059911 -0.003505 0.0025105 0.0071807 -0.0060335 0.0064206 0.0076041 -0.0042328 
brewpub 0.00097948 0.00071044 -0.0043393 -0.0021241 -0.0022369 0.00086438 -0.0028953 0.00078916 0.00061357 0.0046326 -0.001222 0.0038427 0.00072677 -0.0014628 -0.00057243 0.00028073 0.00012282 0.00094276 0.0012305 -0.0046003 -0.0027795 0.0020259 -0.00013697 0.0013254 -0.0021845 -0.0018989 0.0020145 0.0010898 -0.0002927 0.0073545 -0.0014495 0.0024711 -0.00044008 0.0023057 0.002333 -0.00083632 -3.4602e-05 -0.0016943 0.0010603 -0.0017377 0.0014635 0.0012815 -0.0012923 -0.0021565 1.8011e-05 0.0016443 0.0010365 0.0010888 0.0052452 0.0048369 0.00065973 0.0027132 -0.0055629 0.0021914 0.0005333 -0.0032718 -0.0014058 5.8116e-05 0.0021318 0.0013859 0.0021176 0.0024857 -0.00078356 -0.00064897 0.0014752 0.0040535 0.00051927 0.0056685 0.0027954 0.001156 -4.0974e-05 -0.0012968 -0.0021892 -0.0021962 -0.00046422 -0.00072335 -0.00010466 0.00087864 -0.0006289 -4.8462e-05 -0.0028039 0.00033002 0.0054161 -0.00063597 -0.00064301 -0.0021998 -0.00013106 0.0037335 -0.0021747 -0.0011686 0.001262 -0.0015554 0.0027564 -0.0027323 -0.00049492 0.00093796 -0.0034861 0.0024912 0.00068452 -0.0014959 
charact -0.0021801 -0.0014171 -0.0016122 0.0010812 -0.0020951 0.0031965 -0.0027092 -0.00089603 0.0021563 0.002761 -0.0028513 -0.00055566 0.00063016 0.0013399 0.00063785 0.00061879 -0.0014303 0.0038378 -0.001437 -0.0021433 -9.0362e-05 -0.00028106 0.00010307 0.0020291 -0.0012066 -0.0023191 0.00063789 0.00086839 -0.0047082 0.0050932 -0.00059013 -0.00047902 0.00050024 0.0022523 0.00030861 -0.00068292 0.0017891 0.00026934 -0.00082838 -0.00017611 2.0996e-05 0.0039555 0.00071615 0.00013245 0.00018982 0.0029215 6.1226e-05 0.0018265 0.00087326 0.003267 -0.0008311 0.0040809 -0.0021698 0.0038119 -0.0011116 -0.0014213 -0.0020321 -0.0021077 0.0020499 -0.0022148 -2.1407e-05 0.00052403 0.0023801 0.0019698 -0.00011044 0.0038286 0.00076157 0.0037802 0.0015089 -0.00080599 -7.6083e-05 -0.0015146 0.0018916 -0.0018966 0.00113 -8.7829e-05 0.0034629 -1.5174e-05 8.611e-05 -0.0010739 -0.0026636 -0.00034283 0.0033186 -0.0022997 -0.001031 -0.001832 -0.0019393 0.00037148 -0.0036544 0.00020232 -0.00017944 0.00066919 0.00087876 4.4917e-05 0.0023418 0.0024297 -0.0033212 0.0031714 0.0017919 -0.001335 
smooth 0.0015738 0.00046117 -0.0019441 -0.00042067 2.0975e-05 0.00068277 -0.0003481 -6.2243e-05 -0.0021148 0.0027852 -0.001407 -0.0017306 -0.0014496 0.0011639 0.00047516 0.0014337 0.00049216 0.00017071 0.00072206 -0.0017839 -0.0037406 -0.00034322 0.00092089 -0.00076901 0.0011033 -0.0028103 0.0024932 -0.00033722 -0.0017167 0.0014017 -0.0032727 0.00079594 -0.00068504 -0.00052591 -0.0018624 0.0039213 0.0014988 0.0012622 -0.00022008 -0.00013977 -0.00075219 -0.0023784 0.0020894 0.0004133 0.0021725 -0.00042289 -0.00031544 -0.0016374 0.0023649 0.0019297 0.00092835 0.0020235 -0.003738 0.0013044 0.0016845 -0.0010594 6.6426e-05 -0.00013859 4.3709e-06 0.00069891 0.0010253 0.00030184 -0.00061603 0.0014661 -0.00074162 0.00080268 -0.0019098 6.4254e-05 0.00047365 -0.0016989 -0.0019651 -0.00022456 0.0015733 -0.0013634 0.00050683 0.00025366 0.00037177 -0.0013335 0.00047984 -0.0022378 0.00095673 -0.00071383 0.0012537 -0.00013055 -0.0016213 -0.00077068 9.034e-05 0.0013829 -0.0033154 -0.0019271 -0.0011713 -0.00025757 0.0032602 0.00045691 -0.00032501 -0.0002205 0.002671 0.00018635 -5.8987e-05 0.0010835 
rate 0.0029536 -0.004219 -0.0023446 0.0044748 -0.00033204 3.1243e-05 -0.0051715 -0.00070113 0.00078396 0.0063067 -0.0052384 -0.0016306 -0.0017762 0.0035179 -0.0021956 -0.0014967 -0.001598 0.00043942 -0.0029426 -0.0018506 0.00021654 -0.0011994 0.00029754 0.000109 -0.00060334 1.915e-05 0.0031745 -0.00072369 -0.0021663 0.0066816 -0.00014965 -0.0011806 0.0010663 -0.0017134 -0.0012889 0.0028062 0.00067545 -0.00077247 -0.0014798 -0.00339 0.0027467 -0.00088072 0.001382 -0.0014795 0.0032981 0.0011757 0.0042854 0.00099763 0.0008072 0.0030773 -0.0016123 0.0040061 -0.0048373 0.0019924 0.0014467 -0.002099 -0.0016693 -0.0028698 0.0041202 -0.0012799 0.0021482 0.0030747 0.00089136 0.00022714 -0.00070656 0.0022985 0.00053726 -0.00041105 0.0035859 -0.0017789 -0.0036121 -0.0021119 0.00026819 -0.0022081 0.0037974 0.00098909 -0.00092451 0.0014332 -0.0064152 -0.0023289 -0.0028691 0.0023164 0.0014234 -0.00083936 0.0025033 -0.0048541 -0.0026216 0.0025015 -0.0040251 0.00095397 0.00095686 0.00042634 0.0018058 -0.0042526 0.0013102 0.0035435 -0.002423 0.0019677 8.9836e-05 -0.0038433 
nut 0.0020279 -0.0039639 -0.0013924 -0.0015781 -0.00036789 0.002351 -0.00087092 0.0052514 -0.0026783 0.0048313 -0.0068627 -0.00041337 -0.0030126 0.00054006 -0.00080638 -0.003041 0.0020317 0.0020529 0.0032577 -0.0072056 -0.0016191 -0.00010128 0.00067293 4.0628e-05 -0.0032211 -0.0055172 0.0040845 0.0060044 0.0013554 0.0083532 0.0015063 0.002261 0.0016473 0.00065897 0.0024241 -0.0023801 0.0072231 -0.0039178 -0.0018671 -0.0023382 0.0010769 0.0047243 0.0013102 0.0023123 0.0024114 0.0026575 0.0011861 0.0017741 0.00077453 0.00015175 0.00040335 0.0042671 -0.0020566 0.0023586 0.00086142 -0.0019983 -0.001947 -0.0013617 0.00056553 0.0013246 -0.00011883 0.0037534 0.0036754 -0.00084679 -0.0021065 0.00025135 -0.0010826 0.0028507 0.0040132 0.00043069 -0.001486 0.00017165 0.0022045 -0.00060788 -0.0033425 0.0035739 0.0048561 0.0014213 -0.00058802 -0.0027623 -0.00076314 -0.00017817 0.0016272 -0.0023767 -0.0018488 -0.002942 -0.0020232 0.0019402 -0.0010081 0.00013935 -0.0015771 -0.0022735 0.0040929 -0.0024543 -0.0014231 0.0056132 -0.0027388 0.0023292 0.00030163 0.00077408 
long 0.00044495 0.0014308 -0.0047411 -0.0024167 -0.0015119 0.00091106 0.0015805 0.0019829 -0.00037774 0.0068555 -0.0032745 -0.0019726 -0.0019359 0.0012775 -0.0022841 -0.0045874 0.0011683 -0.0004805 -0.00049645 -0.0027884 -0.00054882 0.0030716 -0.0022271 0.0017092 0.0023461 -0.0043458 0.0018556 -0.0011589 0.00040063 0.0065431 0.00019654 0.0026008 -0.0041808 -0.00023758 0.00065212 -0.0011376 -0.0015998 -0.0024826 0.0015733 -0.0017872 0.0019026 -0.0034385 0.00092334 -0.0042997 -0.0022697 0.0014299 -0.0012467 0.0016333 -2.9445e-05 0.0062383 -0.00035648 0.00087394 -0.0047877 0.0023327 0.0013034 -0.0018014 0.0017867 0.0003869 0.001275 -0.00011884 0.0010813 0.0035074 0.00080767 0.0011287 -0.0010455 -0.00082867 -0.0029146 0.0019349 0.0010904 -0.00046443 -0.0027943 0.0019406 0.0021103 -0.0012306 -0.00074977 0.00074682 0.0027137 0.001909 -7.5498e-05 -0.0021724 -0.00030144 0.001377 0.0024141 -0.00030779 -0.0047446 -0.0036279 0.0021947 0.0011716 -0.0018905 0.0022846 0.0015017 -0.00019865 0.0012114 -0.00035566 -0.0012501 0.0042331 -0.00017239 -0.00066282 0.0018231 -0.00094118 
domin 0.00085869 -0.0014766 0.00123 0.00045808 0.00013967 0.00010946 2.0844e-05 0.0032264 0.00061701 0.0043869 1.3454e-05 -0.0021756 -0.003463 -0.0024859 0.0011098 -0.00081579 6.0836e-06 0.00090839 -0.00051334 0.00092305 -0.00034163 0.0016897 0.0017584 0.0003811 0.0031875 -0.00018275 0.0015448 0.0019357 -0.0036108 0.0050621 -0.0010961 0.0025666 -0.00082895 -0.0006576 -0.00058511 0.00010216 -0.00023018 0.00060351 -0.0011662 -0.0017301 0.0006249 -0.00035161 0.00062267 0.0021676 0.0019121 -0.00041854 0.0011702 -6.8939e-05 0.0036004 0.0019819 0.0020565 0.0032513 -0.0029871 0.0029894 0.00011812 -0.0022287 -0.0019397 -7.5597e-05 0.00070604 0.0015226 -0.0010858 0.00021646 0.0029383 -0.0012482 -0.00041478 0.0021444 -0.00028216 0.0045045 -0.00031133 0.0017564 0.00062518 -0.0014339 0.0010042 0.00043824 -0.0026578 0.0013185 0.0012558 -0.00049821 -0.00011364 -0.00074957 -0.0009351 -0.00021496 0.00091465 0.00062725 -7.9881e-05 -0.0010222 -0.00016901 0.00047819 -0.00057815 -0.0003422 0.0023139 0.00081484 0.00098158 0.00031068 -0.00058845 0.0017681 0.00013354 0.002069 0.0044632 -0.00062562 
deep -0.0031784 -0.0012977 -0.0024129 -0.000908 0.001119 -0.0011983 -0.0014969 0.00044766 -0.0031327 0.0014491 -0.0010152 0.00029408 -0.0010088 -0.0016749 -0.00083182 -0.0018582 -0.00089152 -0.0044506 0.0021089 -0.0022612 -0.0027923 0.0017133 -0.00081869 0.00031714 0.0024968 -0.0014399 -0.0030412 0.00045153 -0.0036136 0.0026229 -0.00043057 -0.0012467 -0.00022006 0.00059629 -0.00048043 3.7776e-05 0.0018399 -0.002826 -0.001835 -0.0013304 -0.00050027 0.0032196 -0.001718 0.00020749 -0.001271 0.003157 -0.00061033 -0.00036843 0.0014665 0.0037651 0.0024205 0.00060923 -0.00038651 -0.0021245 -8.3968e-05 -0.001509 -0.00031189 -0.0015669 -0.00054304 0.0030876 -0.00011392 0.0014886 1.6077e-05 0.0020558 0.00034095 0.0021605 -0.00097218 0.0013774 -0.00010683 -0.0016575 0.00092872 0.00093788 0.00094782 -0.00082072 -0.00078242 0.00031799 -0.0036428 0.0019246 0.0025485 -0.0017336 -0.0030769 0.0030584 -0.0021149 0.00085657 -0.0027843 0.00052351 3.8991e-05 0.00080454 -0.0019357 -0.0008052 -0.0025884 -0.00091325 0.00017282 -0.0018145 0.00065197 -0.0011689 -0.0031768 0.0001063 -0.00086508 0.0017566 
temperatur 0.00041709 -0.00046449 -0.00086151 0.002134 -0.0013442 0.0011813 0.00015954 0.00029419 0.0010001 0.0054148 -0.0021511 0.0041787 0.0027907 -0.00064109 0.00081439 0.0015121 0.00046335 0.0010191 -0.0010799 -0.00364 -0.0006957 -0.0013812 0.0022753 -0.00099859 -0.0018165 -0.0011266 0.0035973 0.0028335 -0.00070483 0.0049252 -0.00076253 0.001366 -0.0017021 -0.00015974 0.0024657 0.0013105 0.0007517 1.021e-05 -0.00050028 -0.0016656 1.0236e-06 0.00096643 -0.00080699 -0.00098195 -0.00060359 0.0034643 0.00079406 0.00039339 0.0019353 0.0017362 -0.00098722 0.0040918 -0.0042328 0.0012825 0.00012643 -0.0026218 -0.0020297 -0.0023701 0.0013006 -0.00091939 0.0014433 0.00066596 -0.0012312 0.0017391 -0.00061092 0.0010189 0.00025326 0.0015072 0.0019547 -0.00076837 -0.00081605 8.2051e-05 -0.00071274 -0.0011801 0.0003265 0.00018438 -5.8344e-05 0.0016153 -0.0027906 -0.00026023 -0.0018926 0.001159 0.0032129 -0.00065028 -0.0010672 -0.0027582 -0.0015192 0.0027956 -0.0024965 -0.0014904 0.00064944 -0.0015223 -0.00055696 -0.0031082 0.0025008 0.0035928 -0.0020217 0.0025333 0.001805 -0.0015861 
balanc -0.0018459 -0.00069727 -0.0036952 0.0029864 -0.00069507 0.0024244 -0.0019593 0.0008023 0.00041339 0.0044321 -0.0015902 8.3399e-05 0.0033969 0.0026633 -0.002501 -0.0019127 -0.00098838 0.00040902 0.00097952 -0.002178 -0.0029039 0.0018875 0.0010744 -0.0015105 -0.00086153 -0.00084784 0.0021651 -7.5834e-06 -0.00072422 0.0022235 -0.0027556 0.0019578 -0.00067437 0.00092859 -0.00104 0.00079052 0.0010546 -0.00021569 0.0012718 -0.0044515 0.0039321 -0.00017466 0.0033987 -0.0016581 0.0010519 -2.4762e-05 -0.0013688 -0.0015267 -0.00013377 0.00037955 0.0011399 0.0012314 -0.0032254 0.0027351 -0.00072105 -0.0017194 -0.00028535 -0.0015324 -6.0281e-05 0.00062467 -0.00033125 0.0009186 0.00031433 0.00057832 -0.0010999 0.0016692 -0.0014432 0.0025886 0.001586 0.0024546 0.00022819 0.0012611 0.0018235 -0.00074524 0.00075386 -0.0002274 0.0010698 0.0026991 -0.0018948 -0.0027173 -0.0025888 -0.00067887 0.0014316 -0.00067177 -0.003312 -0.0022344 0.0015059 0.0010696 -0.0041944 -0.002666 -0.00032542 0.00060974 0.0013223 -0.00068757 -0.00012276 0.00081028 -0.0022424 -0.0010014 -0.00071837 -0.001622 
fizzi -0.00045297 0.0014025 -0.0014117 -0.00058596 0.00077897 0.0014905 -0.0018905 0.0026145 0.00097127 0.0065007 -0.0014638 0.0015699 0.0020697 0.0034314 -0.0013004 -0.00036493 0.0020131 0.0014372 -0.0017438 -0.0058788 -0.003525 -0.0017221 0.0028131 -0.0005653 -4.8322e-05 -0.00064228 0.0037 0.0014745 -0.0014739 0.0034485 -0.00022855 0.0015555 0.00061479 0.0017878 0.0018413 0.00015864 0.0037822 -0.003673 -0.0011486 -0.00039286 -0.00019169 0.00054725 0.0006094 1.9976e-06 0.0011616 0.001324 -0.0018254 0.0019608 0.0024854 0.0036472 0.0014005 0.0036704 -0.0040112 0.0015522 -0.001697 -0.00020059 -0.0012644 -0.0017714 0.0027239 -0.0019985 -0.00048067 0.00059218 -1.542e-05 -5.2024e-05 0.0015554 0.0023342 0.001301 0.0028718 0.0026121 0.0021452 0.00020709 -0.00042491 -0.0015016 -0.0010608 0.003464 -0.0015122 0.00149 0.0015114 -0.0011333 0.0027733 0.0001346 0.00055464 0.0019204 0.00054729 -0.00354 -0.0037956 -0.0011058 0.00020206 -0.00047555 0.00057576 -0.0012992 -0.0029466 0.0010199 -0.00085957 0.0025315 -0.00035026 -0.0042018 0.001705 0.0013328 -0.0017478 
lace 0.00043776 -0.0033287 -0.0021477 -0.00029323 -0.0031986 0.00057117 0.00016733 0.00085529 0.0013765 0.002171 -0.0042151 0.0028433 0.0018207 -0.0015264 -0.00010201 0.0038759 -0.0016059 -0.00088588 0.0019373 -0.0019532 0.0018392 0.00020885 -0.00067969 0.0031308 -0.00013166 -0.0028628 0.0052864 0.0034656 -0.0013023 0.00649 -0.0038633 0.0011216 -0.0057257 0.001909 -0.0015336 0.00051275 0.0011601 0.00093744 -0.00081537 -0.001537 0.00086922 0.0039637 0.0010413 -0.0034355 -0.0012338 0.0006993 -0.00059775 -0.0021296 0.0036389 0.005068 -0.0030024 0.0027808 -0.0044021 0.0019234 5.1005e-05 -0.001511 -0.0021468 -0.0023697 0.002636 -0.0021418 0.0010975 0.00098686 0.0036917 -0.00085438 -0.00071043 0.0021486 -0.0015019 0.0035265 0.0012441 3.8598e-05 -0.00052604 0.0019204 0.0013628 -0.0047778 -0.0023589 -0.0024438 -0.00097385 0.0023487 -0.0040363 0.00096643 0.00022341 0.0017258 0.0014754 -0.0039167 -0.0010793 -0.0013874 7.8903e-05 0.0021666 -0.0013192 -0.00027829 0.00085664 -0.00059286 0.00095386 -0.002769 0.0013946 0.0016328 -0.0025121 -0.0008615 -0.00017182 0.00065794 
cloudi 0.0023905 0.0017154 -0.00096955 -0.0013237 0.00015637 0.0021918 -0.0007234 0.00055769 -0.00047601 0.0048358 -0.0021223 0.0014787 0.001253 3.0962e-06 -0.00081702 -0.00050121 0.0010811 -2.6876e-05 -0.00086127 -0.0017977 -0.0026211 -0.00050121 -0.0012568 -0.00010873 -0.00046969 0.00055899 0.0031949 -0.00055385 -0.0017267 0.0051024 -0.00063017 0.00085222 -0.0019249 0.00027846 0.00032584 -0.00096521 -0.00030917 -0.00047778 0.00073417 -0.0018606 2.2322e-05 -0.0013247 0.00039309 -0.0002397 -0.002657 -0.00052429 -0.0019485 -0.00015461 3.4365e-05 0.0015773 -0.0014924 0.00080424 -0.0036867 0.0010048 -0.0010435 -0.0018585 -0.0010855 -0.0020278 0.0021282 -0.0016948 0.00038621 0.002391 0.0010121 -0.00030696 0.00053155 -0.00037485 0.00016629 0.001786 0.0027605 0.0029237 -0.002506 0.0022311 -0.0035281 -0.00032428 0.0026632 -0.00012038 0.0004377 -0.00059634 -0.002541 -0.00072464 -0.00076285 0.0028924 0.00033361 0.00090834 -7.3656e-05 -0.001338 -0.00055768 0.0045045 -0.0044483 0.0017694 0.0020011 -0.00099272 0.00018042 -0.0011415 0.0016503 0.0028354 0.000599 0.0024528 -0.00012103 -0.0030945 
