dummy -0.039357 0.007690 0.040759 -0.086832 -0.037337 0.094077 -0.069726 -0.023249 -0.157424 0.106408 0.084338 0.044993 -0.025395 -0.023529 -0.114718 -0.179729 0.022931 0.002516 0.049100 -0.017969 -0.108363 -0.158780 -0.071089 0.005837 -0.198701 -0.042544 0.027852 0.143645 -0.106650 -0.075856 0.015705 -0.114633 -0.096111 -0.070706 -0.077978 0.080567 0.091076 -0.030510 0.023740 0.149107 -0.202521 0.080285 -0.109621 -0.096844 0.152495 -0.234999 -0.119630 0.100962 -0.133832 0.241164 -0.049327 -0.024763 -0.061221 0.080009 -0.107665 0.108305 -0.112807 0.024727 0.024378 0.110110 -0.204008 0.066395 -0.109149 0.017419 -0.069601 0.035661 -0.055017 0.097646 -0.128330 0.045487 -0.022975 0.016968 0.011846 0.042762 -0.034419 0.096337 0.039365 -0.023143 0.014299 -0.090042 -0.149193 0.086576 -0.167697 -0.096091 0.040343 -0.168275 0.057541 -0.033405 0.004022 0.032649 0.044490 -0.073177 0.011556 0.053013 0.036912 0.038314 0.052708 0.243118 0.054376 -0.085961
dark -0.013486 0.005300 0.000945 -0.013473 0.008467 0.004627 -0.007378 0.006652 -0.007179 0.000650 -0.002543 0.005755 -0.001529 -0.006257 -0.007208 0.003446 -0.015121 0.003919 0.003566 -0.008081 -0.003387 -0.000018 0.008468 0.001985 -0.000552 -0.002073 0.004814 0.017026 0.003921 -0.001374 -0.012945 -0.002454 0.008196 -0.016367 -0.002231 0.012040 0.005567 -0.007163 -0.000722 0.000749 -0.003287 0.002209 -0.005327 0.004383 0.004063 -0.010524 0.000319 0.002073 0.002662 0.003702 0.001112 -0.002987 -0.002515 0.006681 -0.003481 -0.006978 0.008385 -0.002652 0.004541 0.017756 -0.014362 -0.000293 -0.002724 -0.000949 0.011638 0.006810 -0.000032 0.005424 0.003001 0.001022 -0.012924 0.001860 0.003887 -0.002775 -0.012661 0.008927 0.001112 -0.019344 -0.000210 0.001794 0.006710 0.001044 -0.001865 -0.005392 -0.005244 -0.014248 0.002680 0.000264 -0.001837 -0.002313 -0.001008 0.004053 -0.006606 -0.004703 0.007982 0.004063 -0.000872 0.009235 -0.001280 -0.003455
malt 0.007887 0.012857 -0.000278 0.012644 0.003433 -0.015188 0.004535 0.000816 0.013112 -0.012070 -0.007156 -0.005592 0.016079 0.002731 0.009707 0.019316 0.005755 0.004267 -0.004794 0.002696 0.018490 0.015302 0.000145 -0.012443 0.020093 0.002719 -0.008593 -0.016652 0.012995 0.005527 -0.006205 0.019596 0.014105 0.008502 0.001006 -0.003839 -0.003989 -0.001639 -0.004971 -0.013960 0.020449 -0.008700 0.009424 0.006609 -0.007187 0.014944 0.015212 -0.001771 0.020086 -0.022860 0.003831 0.003572 0.008551 -0.002781 0.007267 -0.010093 0.015399 -0.002681 -0.005058 -0.011167 0.013045 -0.008720 0.013727 0.013161 0.005588 -0.003671 0.005704 -0.010835 0.007986 -0.002159 0.002666 -0.011679 -0.004497 -0.007382 0.008785 -0.014889 -0.016120 -0.009351 -0.004851 0.006021 0.005306 -0.003288 0.016433 0.006875 -0.001396 0.016132 0.000433 -0.004802 0.001237 -0.000422 -0.009444 0.006467 0.001431 0.001226 -0.013415 -0.014922 -0.009634 -0.022788 0.002668 0.005517
head -0.001814 0.006051 -0.009045 -0.006707 -0.012884 -0.003110 -0.000056 0.013610 0.007774 -0.009101 -0.009072 -0.004137 0.009413 -0.011221 0.012594 0.028364 -0.007618 -0.007735 -0.018114 -0.012186 -0.000092 0.013356 -0.009772 0.006825 0.014255 -0.001651 0.007508 -0.013385 0.020220 0.004621 -0.003777 0.004950 0.012333 0.011636 0.016500 -0.003566 -0.015972 0.007840 -0.007846 -0.013319 0.023140 -0.006636 0.025248 0.004585 -0.014276 0.030017 0.009145 -0.005453 0.011263 -0.014950 -0.006790 0.005669 0.005863 -0.021299 0.009648 -0.015447 0.029318 0.015983 0.008067 0.003724 -0.000185 -0.009358 0.005462 0.014288 -0.001215 0.006268 0.018060 -0.005434 0.012607 -0.022225 0.003320 -0.000277 0.006281 -0.017547 0.006715 -0.011315 -0.003801 -0.006787 -0.007063 0.010494 0.029460 0.000278 0.007685 0.005141 -0.011237 0.004858 -0.004100 0.009278 0.008369 0.001924 -0.005894 0.008162 -0.004767 0.006361 -0.001997 -0.014487 0.011192 -0.037882 -0.010183 0.003003
aroma 0.009645 0.009892 -0.004153 0.003220 -0.004262 -0.003806 0.003460 0.001742 0.011683 -0.011425 -0.008624 -0.005216 0.007821 -0.005523 0.006364 0.020021 -0.002831 -0.003559 -0.015423 0.004702 -0.001894 0.014804 -0.004247 -0.001854 0.013593 0.005229 0.000137 -0.007570 0.009073 0.007290 -0.007884 0.003232 0.018035 0.008857 0.006537 0.001259 0.000888 0.006018 -0.006000 -0.007516 0.012981 -0.002878 0.015513 0.014429 -0.008146 0.020112 0.004800 -0.002695 0.013152 -0.013394 -0.003182 0.009148 0.006030 -0.012413 0.001198 -0.012477 0.023864 -0.000693 0.008562 -0.001362 0.006707 -0.010684 0.012966 0.013934 0.010750 0.007904 0.017755 -0.007334 0.011858 -0.004225 0.000924 -0.007940 -0.003398 -0.019132 0.014052 -0.006663 -0.005812 -0.011640 -0.002858 0.006149 0.014064 0.007951 0.018925 0.012278 -0.002536 0.010750 0.001259 0.006954 -0.006990 -0.000728 -0.007856 0.010924 0.003160 0.005425 -0.010909 -0.009287 0.007893 -0.035310 0.001354 -0.005917
sweet -0.001558 0.006203 0.005424 0.014002 0.002108 -0.008376 0.000850 -0.000121 0.005343 -0.011047 -0.014550 -0.000654 0.011185 0.002463 0.012261 0.001234 0.009309 -0.003239 -0.010042 0.003490 0.010016 -0.000348 -0.000696 -0.005733 0.008209 0.009628 0.008248 -0.008496 0.011750 0.009868 0.004779 0.007835 0.000667 0.012335 -0.000707 -0.005056 -0.002790 0.005145 -0.004797 -0.012637 0.015540 0.002572 0.004375 0.000547 -0.009930 0.008916 0.007098 -0.011807 0.010292 0.000454 0.001121 -0.000233 0.006978 0.000375 0.000219 -0.004203 0.004883 -0.001443 -0.000509 -0.002897 0.013355 0.005098 0.005755 -0.005786 0.005915 -0.007049 0.009919 -0.006963 0.000414 -0.010337 0.008430 0.003782 0.002998 0.007410 0.002386 0.000910 -0.010208 -0.003913 -0.003980 -0.002659 -0.003495 -0.006439 0.012565 0.002701 0.001719 0.007486 0.007289 -0.001367 0.001467 0.001045 0.004255 0.005793 0.005121 -0.001179 -0.011320 -0.008873 -0.000328 -0.008486 0.004531 0.009117
beer -0.007716 -0.001451 0.000846 -0.005359 -0.005116 0.005671 -0.005840 0.001865 -0.019257 0.002862 0.012497 0.002752 0.000071 -0.002094 -0.003740 -0.032654 0.009127 -0.010514 0.013603 0.005777 -0.016237 -0.021275 -0.004400 -0.003152 -0.019532 -0.007911 -0.002694 0.014472 -0.017071 -0.005282 0.011171 -0.016846 -0.021848 -0.003048 -0.003865 0.006442 0.020444 -0.003288 0.004922 0.014481 -0.023753 0.007276 -0.013608 -0.006038 0.019308 -0.020121 -0.012853 0.001838 -0.013719 0.028524 -0.010967 0.003974 -0.009681 0.016935 -0.013292 0.010187 -0.027906 0.004236 -0.001346 0.008139 -0.022932 0.010957 -0.006078 -0.001079 -0.014948 0.005056 -0.011366 0.008317 -0.009489 0.003876 0.005243 -0.000015 0.004967 0.002432 0.000909 0.009635 0.002102 -0.002165 0.002695 -0.012467 -0.027047 0.008974 -0.011730 -0.013923 0.000952 -0.014678 -0.002192 -0.002434 0.008421 -0.003021 0.003370 -0.004622 0.009451 -0.006529 0.001861 0.002132 0.004939 0.029986 0.017318 -0.002084
flavor 0.008334 0.006378 -0.004402 0.011117 -0.008701 -0.005754 0.011141 -0.013026 0.005322 -0.001196 -0.004951 -0.011634 0.009054 0.002681 0.006326 0.007226 0.001164 0.001154 0.005242 0.002676 0.007237 0.001054 0.002690 -0.006002 -0.000510 0.002591 -0.000670 -0.005103 0.002807 0.006565 -0.001456 -0.001147 0.002841 0.007006 0.001000 -0.011259 0.001348 -0.002667 0.008078 -0.001491 0.005969 -0.003478 0.001354 0.001183 0.005344 -0.002138 0.006131 0.003283 0.012167 -0.013370 0.003765 -0.003068 0.002629 -0.003670 0.000965 0.004443 0.005824 -0.004517 -0.000022 -0.004542 0.008195 -0.002122 0.006129 0.009774 0.004502 -0.000773 0.004102 -0.006874 0.006471 -0.000032 -0.002397 -0.012956 0.001635 -0.006011 0.008581 -0.001489 -0.013787 0.001867 -0.004637 0.005262 0.009363 0.006695 0.004697 0.015659 0.006757 0.005680 -0.001497 -0.008831 -0.003542 -0.002591 0.001836 -0.000993 0.004299 0.007015 -0.004558 0.003032 0.002024 -0.005436 0.003533 0.002195
bitter 0.009247 0.003171 0.005953 0.004434 -0.003301 -0.004242 -0.000818 -0.005245 -0.011226 0.003519 -0.002158 -0.000885 0.007003 -0.000723 -0.000404 -0.017625 0.007631 -0.004242 0.007046 0.006755 -0.001809 -0.014052 -0.006234 0.001906 -0.011753 -0.001681 0.003001 0.005499 0.005642 -0.000508 0.007847 0.004996 -0.020869 0.011393 -0.008150 -0.008491 0.001722 0.005151 0.008393 0.000807 -0.006274 -0.005068 -0.004553 -0.009803 0.019083 -0.017786 -0.010802 0.010296 -0.002660 0.013713 -0.004705 -0.003886 -0.001426 0.007069 -0.002335 0.019139 -0.014554 -0.000387 -0.010612 0.006447 -0.014736 0.009533 0.002803 -0.003006 -0.005326 -0.002332 -0.008310 0.001807 -0.008983 -0.004755 0.007284 0.004755 0.005897 0.009354 0.001275 -0.001881 0.001423 -0.000471 0.001836 -0.015531 -0.008688 0.004881 -0.003497 -0.001674 -0.004222 -0.007829 0.009754 0.000150 -0.004459 0.006629 0.010221 -0.003271 0.008191 0.002432 -0.009511 0.009219 -0.005281 0.015399 0.012219 0.001339
brown -0.000156 -0.002349 -0.004587 -0.017257 -0.002761 0.005778 -0.009737 0.009764 0.000892 0.006495 -0.003229 0.009843 -0.001827 -0.004026 -0.001792 0.001462 -0.011475 0.000997 0.003459 -0.018760 -0.006172 0.000783 0.004589 0.011481 0.003234 -0.004769 0.001986 -0.000181 0.001780 -0.002655 -0.002151 -0.002482 0.007068 -0.005581 -0.000487 0.007430 -0.010145 -0.001391 0.000739 -0.001311 0.002678 -0.009770 0.000937 0.005381 0.006845 0.004586 0.006250 0.006381 0.006462 0.006330 0.001326 0.005985 -0.003636 -0.004233 -0.001559 -0.004576 0.015613 0.002220 0.001982 -0.002378 -0.001873 -0.000861 0.000319 0.006336 0.004532 0.001768 -0.005868 0.003717 -0.000700 -0.008706 0.002385 0.005685 -0.004799 -0.006687 -0.007045 -0.001460 0.006483 -0.002783 0.001378 0.006006 0.017978 -0.000811 0.000478 -0.001870 -0.010245 -0.008126 -0.007730 -0.004606 0.004364 -0.003089 0.005262 0.004097 -0.008551 -0.003018 0.001477 -0.008182 -0.003816 0.000852 -0.004784 0.000208
bottl -0.011380 0.002664 -0.002109 -0.017946 0.006060 0.017025 -0.018894 0.008187 -0.013137 0.007654 0.015531 0.004285 -0.008472 -0.001804 -0.015512 -0.019076 0.006640 -0.001035 -0.002945 -0.012137 -0.015128 -0.014418 -0.003471 0.005283 -0.030456 -0.010806 0.000341 0.023832 -0.019123 -0.010015 -0.003408 -0.015256 0.003138 -0.019892 -0.007004 0.021434 0.016624 0.000866 0.001121 0.026328 -0.027143 0.005823 -0.009936 -0.014240 0.017485 -0.026008 -0.008260 0.018085 -0.012373 0.037294 -0.001949 0.000685 -0.014851 0.014604 -0.019493 0.009645 -0.008925 0.000800 0.014982 0.014823 -0.033893 0.005507 -0.023540 0.000284 -0.007167 0.008456 -0.005855 0.018368 -0.020742 0.012168 -0.001889 0.008875 -0.000274 0.004966 -0.008611 0.018611 -0.000450 -0.002308 -0.000894 -0.001786 -0.022131 0.023358 -0.023287 -0.014912 -0.002037 -0.022668 0.013010 0.006081 -0.001058 -0.000099 0.009597 -0.011466 -0.005745 0.013919 0.000225 0.003605 0.013819 0.031234 -0.001795 -0.017281
caramel 0.005708 0.010456 -0.005026 0.008789 0.001082 -0.014894 0.009130 -0.002423 0.015558 -0.005590 -0.006746 -0.010161 0.008949 0.001656 0.003199 0.006182 -0.001231 0.005164 -0.010755 0.001027 0.006417 0.018241 -0.006664 -0.011456 0.015054 0.003588 -0.004277 -0.005929 0.005305 0.010218 0.001487 0.013126 0.005647 0.007027 -0.001073 -0.006524 -0.009645 0.008043 -0.001415 -0.014321 0.010429 0.001616 0.009546 0.012636 -0.003877 0.007167 0.007908 -0.008810 0.018167 -0.012206 0.001319 0.001982 0.008467 -0.009531 0.002786 -0.011944 0.011833 -0.002557 -0.005457 -0.001608 0.015876 -0.011872 0.008876 0.005280 0.009315 -0.006006 0.005976 -0.004476 0.004549 -0.000864 -0.000209 -0.006127 0.003713 -0.006154 0.009785 -0.003043 -0.012146 -0.002958 -0.005624 0.005586 0.007493 0.002805 0.007725 0.010170 -0.007870 0.011527 0.001405 -0.001409 -0.001964 -0.002039 -0.010759 0.008678 -0.002737 -0.002506 -0.006526 -0.002917 -0.001829 -0.020786 -0.007606 0.006700
chocol 0.016087 0.005786 -0.007329 0.006751 -0.008183 -0.014655 0.006300 -0.008601 0.009235 -0.005128 0.000729 -0.013261 0.005413 0.006270 0.009960 0.010360 0.003972 -0.005310 -0.003212 0.000379 0.011138 0.013956 0.001005 -0.006963 0.011414 0.002327 -0.001608 -0.009603 0.006202 0.004018 -0.002001 0.009184 0.003298 0.012875 0.004922 -0.010458 -0.010867 0.006114 0.000285 0.001310 0.013467 -0.005265 -0.003420 0.009948 -0.000949 0.009037 0.010441 -0.006594 0.010374 -0.015525 0.005410 -0.002479 -0.006197 -0.008114 0.013997 -0.002740 0.005677 -0.004004 -0.000360 -0.001865 0.009363 -0.004456 0.016871 0.001035 0.006132 -0.002538 0.007808 0.001194 0.001824 -0.006063 -0.008197 -0.007358 0.006873 -0.002252 0.009553 -0.012581 -0.004215 -0.003298 0.003698 0.005612 0.012147 0.008554 0.003233 0.005285 -0.004329 0.014219 -0.009723 -0.005790 -0.003406 -0.000415 -0.005665 0.001360 -0.005010 -0.002759 -0.008900 -0.005658 -0.002374 -0.011923 -0.003368 0.001512
pour -0.019312 0.003270 -0.002095 -0.010306 0.007579 0.010423 -0.016840 0.005034 -0.010331 0.012381 0.007019 0.005650 -0.008201 -0.007210 -0.017776 -0.013709 -0.001051 0.007003 -0.001865 -0.001662 -0.009787 -0.007217 -0.008279 0.002032 -0.011701 -0.004941 -0.001697 0.018484 -0.011161 -0.011697 -0.010370 -0.018770 0.004816 -0.014039 -0.012547 0.021117 0.012353 -0.007497 0.003716 0.015826 -0.015409 0.010403 -0.003312 -0.004478 0.004552 -0.018959 -0.007373 0.017744 -0.008656 0.026485 -0.003573 0.001636 -0.006096 0.012297 -0.002116 0.005950 0.004111 0.003016 0.008980 0.019169 -0.023194 -0.000581 -0.012718 -0.002998 0.004561 0.000786 0.002072 0.004689 -0.011107 0.007118 -0.005571 0.002069 0.003483 -0.000296 -0.004847 0.015634 0.007814 -0.015001 -0.001368 -0.011585 -0.010697 0.017944 -0.017839 -0.010719 0.004039 -0.021345 0.006676 0.003679 -0.003351 -0.002577 0.005627 -0.006112 -0.005521 0.005437 0.006077 0.006666 0.006485 0.022281 -0.003734 -0.007398
medium 0.001860 0.001809 0.006554 0.000316 -0.001504 -0.010329 -0.000676 -0.005967 0.011811 -0.007199 -0.009533 -0.002637 0.002386 0.005165 0.009623 -0.004555 -0.008179 0.002707 -0.010948 -0.006048 0.009529 0.002515 0.013382 -0.004052 0.009239 0.004155 0.009864 0.000486 0.016055 0.001665 0.008589 0.003784 -0.006890 -0.002772 0.002145 -0.014835 -0.006456 0.005230 -0.002618 -0.009583 0.014265 0.000335 -0.001911 0.002582 0.005307 0.008492 -0.001903 -0.013337 0.008966 -0.015244 0.004503 -0.012613 0.007229 -0.005568 0.015603 -0.001490 0.006105 -0.006248 -0.005787 -0.000569 0.005611 0.005770 -0.003522 -0.012057 0.003849 -0.002738 -0.009105 -0.008499 0.006001 -0.010838 0.005626 0.008749 -0.006594 0.017281 0.002349 -0.008672 -0.005900 0.003752 -0.001553 0.006234 0.010244 -0.008529 0.014001 0.004664 -0.006130 0.006225 0.005364 0.007073 -0.001329 -0.000054 -0.004797 -0.000257 -0.006770 -0.007323 -0.009735 0.003139 -0.003921 -0.011844 0.005821 0.005690
tast 0.006414 -0.000117 0.004392 0.004341 -0.001224 -0.007304 0.002646 0.006023 0.002705 -0.004021 -0.008931 0.002156 0.006490 -0.003391 -0.000502 -0.004682 0.001032 0.001951 -0.006469 0.000692 0.003931 0.004976 -0.002878 -0.009093 0.000176 0.009622 0.001661 -0.007191 0.005623 0.010058 -0.001584 0.000592 -0.000979 0.004950 0.002764 -0.012371 0.001218 0.006607 0.000628 -0.011788 0.010444 0.000053 0.001521 0.006891 -0.009685 0.008078 -0.001088 -0.004746 0.006480 -0.001652 0.003429 -0.004427 0.000549 -0.003899 0.004337 -0.001951 0.002241 -0.005568 -0.003369 -0.006284 0.014204 -0.001093 0.010410 -0.005404 0.004681 -0.003454 0.008541 -0.005149 0.002004 -0.004209 -0.000035 0.007360 -0.006153 0.008074 -0.002666 -0.006579 -0.003601 -0.010860 -0.001006 0.001351 0.002362 0.003318 0.012143 -0.003348 -0.002346 -0.003230 0.001209 -0.002303 -0.003932 0.001028 0.003271 -0.000431 0.003144 -0.006757 -0.001913 0.001282 0.000163 -0.007435 -0.003517 0.004328
finish 0.007943 0.001553 0.003818 -0.003210 -0.006283 0.007343 0.000571 -0.004200 -0.013052 0.004158 0.004532 0.003178 0.006895 -0.004685 -0.010792 -0.019467 0.004875 -0.010456 0.010670 0.008000 -0.007244 -0.016558 -0.007512 -0.005713 -0.022061 -0.007154 0.002625 0.014458 0.000226 -0.009099 0.005478 -0.004324 -0.014956 0.002545 -0.004457 -0.000726 0.002392 0.004160 0.009938 0.007182 -0.016542 0.001830 -0.005777 -0.011260 0.010401 -0.019376 -0.019040 0.007744 -0.009579 0.024741 -0.006542 0.001064 0.000867 0.007624 -0.009559 0.020135 -0.024137 0.009087 -0.006670 0.002219 -0.016640 0.018934 -0.003687 -0.009943 -0.006522 -0.008713 -0.006683 0.003842 -0.009483 -0.003492 0.009179 0.002050 0.001098 0.003544 0.006856 0.003627 -0.007207 -0.006657 0.004433 -0.012737 -0.021217 0.000695 -0.016933 -0.007293 -0.002803 -0.007956 0.010214 -0.005171 0.002955 0.008708 0.010368 -0.004251 0.006500 -0.001392 -0.006491 0.011247 0.000163 0.027244 0.012792 -0.005388
color -0.010708 -0.003500 -0.010913 -0.008274 0.000779 0.002982 -0.002390 0.008212 -0.003553 0.004916 -0.001649 -0.002764 0.003871 -0.010520 0.000697 0.003163 -0.009338 0.001952 0.002805 -0.016648 -0.003292 0.005105 -0.000181 0.010318 -0.007030 -0.000560 -0.001042 -0.005823 0.008463 -0.006349 0.000979 0.002454 -0.005515 -0.002278 -0.002402 -0.003575 -0.006267 0.003896 -0.000422 -0.000122 0.003801 -0.007365 -0.000266 0.005525 0.006975 0.008196 0.005169 -0.003121 0.000461 -0.001598 -0.003054 -0.003182 -0.002674 -0.002826 0.006052 0.002451 0.011601 0.007547 0.007621 0.007385 0.004511 0.004113 -0.005112 0.015881 -0.003854 -0.000534 0.007508 0.000733 0.002511 -0.011465 0.003890 0.012625 0.008735 0.001247 -0.004996 0.003803 0.003618 -0.002995 -0.000971 0.011128 0.013815 -0.000093 -0.006513 -0.007432 -0.002875 0.000706 -0.007971 0.008536 0.010124 0.001478 -0.003558 0.002561 -0.008255 -0.001207 0.006427 -0.004582 0.006109 -0.005179 -0.007252 0.004076
nice -0.008761 -0.001333 0.003281 -0.004035 -0.000938 0.004155 0.006647 0.000013 -0.003845 0.005925 0.005248 -0.002861 -0.005007 -0.000213 -0.007448 -0.011685 0.003670 0.003171 0.000283 0.004199 -0.002404 -0.009911 -0.006382 -0.001859 -0.005701 -0.006035 -0.006124 0.007655 -0.011914 0.005011 0.000264 -0.014272 0.000913 -0.002703 -0.005398 0.008620 0.000643 0.001714 0.004159 0.009779 -0.009329 -0.002015 0.002353 -0.005282 0.000923 -0.004561 -0.005646 -0.002901 -0.007829 0.014043 -0.004947 0.000096 -0.003138 0.004954 0.003607 0.007007 -0.005578 0.000687 0.003793 0.004824 -0.011080 0.002707 0.001494 0.006865 -0.002906 0.004604 -0.001599 -0.001833 -0.002527 0.010131 0.004865 0.004302 0.006603 -0.000094 -0.001328 0.009048 0.000463 -0.001413 -0.001337 -0.003634 -0.014512 0.006986 -0.005229 -0.003794 -0.001596 -0.001795 -0.000723 -0.000491 0.009521 0.002964 0.002645 -0.006621 -0.005519 -0.000743 0.004053 -0.001890 -0.002531 0.016115 0.001934 -0.003062
not -0.001667 0.004348 -0.001554 0.003728 -0.001552 0.006478 -0.002921 -0.006477 -0.015281 0.007001 -0.000209 0.002214 0.004273 0.000032 -0.000307 -0.007172 0.001995 -0.003320 0.006163 0.001642 -0.011974 -0.014313 -0.003059 -0.000301 -0.001725 -0.000592 0.007197 0.010672 -0.001484 -0.006843 0.011869 -0.006933 -0.003332 0.000179 -0.006046 -0.004974 -0.000615 -0.000739 0.000623 0.010352 -0.006597 0.007767 -0.007923 -0.012975 0.011907 -0.005694 -0.005874 0.008786 -0.014370 0.010710 -0.008598 -0.001185 -0.001946 0.005966 -0.005267 0.000922 -0.016987 -0.002235 -0.006269 0.010844 -0.001866 0.007690 -0.008798 -0.003651 -0.002673 -0.004945 -0.004077 0.010164 -0.011721 0.006129 -0.002068 -0.002535 -0.006047 0.000606 -0.001443 0.004585 -0.001986 0.005320 -0.006133 -0.006538 -0.008495 -0.002085 -0.006637 -0.003967 0.006404 -0.010123 0.000615 -0.008291 0.005634 0.005052 0.009326 -0.004251 -0.000246 -0.000850 -0.008635 0.004410 0.006162 0.019671 0.010251 -0.003577
bodi 0.000982 -0.001934 0.008001 -0.001341 0.001801 -0.004209 0.002936 -0.006806 0.008736 -0.010044 -0.002982 -0.003575 -0.001266 0.002740 0.014794 0.000382 -0.003333 -0.001843 0.003080 -0.005224 0.003495 0.007347 0.011169 -0.007636 0.004140 0.002537 0.009250 0.007097 0.007973 0.000098 0.010205 0.004202 -0.005882 -0.001394 0.005603 -0.009012 -0.008962 0.007985 -0.001576 -0.005750 -0.001313 0.002270 -0.002851 -0.000397 0.002630 0.009700 -0.001164 -0.011082 0.000305 -0.006554 0.000158 -0.005022 0.003440 -0.010689 0.011043 -0.006337 -0.006361 -0.009543 -0.004982 -0.003396 0.000973 0.009487 0.001273 -0.009401 0.006366 -0.004682 -0.003686 0.001201 0.007664 -0.012191 0.005701 -0.001677 -0.001247 0.011084 0.011694 -0.001866 -0.002231 0.007126 0.002993 0.010074 -0.000799 -0.007272 0.013926 0.005379 -0.005072 0.002813 0.012497 0.004819 0.002680 0.001855 -0.004774 0.004411 -0.009674 -0.005755 -0.002962 -0.000609 -0.008562 -0.003319 0.004105 0.001288
good 0.002887 0.001445 0.007718 -0.006208 -0.000601 0.004651 0.003798 0.003504 -0.005330 -0.000643 -0.003566 -0.006935 -0.003649 -0.004889 0.007783 -0.013250 0.002840 -0.010990 0.003750 0.010418 -0.002405 -0.010663 -0.000299 -0.005002 -0.008954 -0.007583 -0.007246 0.000060 -0.010339 0.005605 0.000260 0.002826 -0.008894 0.008631 0.007933 0.006642 0.003199 0.002056 -0.005642 0.007494 -0.014724 0.000324 0.004057 -0.000233 0.012217 -0.003464 -0.001803 0.004332 -0.003815 0.011715 -0.005712 0.001241 0.002997 0.010300 -0.008176 -0.002522 -0.006627 -0.003325 0.001737 0.002640 -0.010713 0.004087 -0.007923 -0.002588 -0.007121 -0.003045 0.003121 -0.005135 -0.001412 -0.003524 0.001330 0.000602 0.004374 0.000066 0.002674 -0.001662 0.009645 0.001647 -0.004422 -0.005578 -0.008439 0.000227 -0.004989 -0.004461 -0.004713 -0.012170 0.000155 0.001751 -0.002991 -0.000613 0.004488 -0.006320 -0.000041 -0.001753 0.005762 0.005473 0.008283 0.005914 0.006918 0.005616
bit 0.005664 0.002116 -0.001596 0.003383 0.009888 -0.003374 -0.000367 -0.001892 0.005343 -0.002466 -0.002396 0.005462 0.003739 0.004306 0.013279 0.007099 0.002092 -0.005904 0.001377 0.006571 0.005676 0.010069 -0.001260 -0.003928 0.009398 0.002343 0.008778 -0.005043 0.002976 0.000916 -0.000242 0.007499 0.000609 0.004770 -0.000619 -0.003824 -0.000447 -0.002357 0.000475 -0.012801 -0.001692 -0.003825 0.010157 -0.003337 -0.008334 0.001490 0.008095 0.000895 0.004874 -0.007121 -0.002795 0.006530 0.001855 -0.011809 0.000167 -0.008012 0.000939 -0.002954 -0.002266 -0.007413 0.012548 -0.006632 0.011219 -0.005988 -0.004273 -0.001508 0.006385 0.004107 0.001423 -0.003123 0.004050 -0.010553 -0.002992 -0.005911 -0.004776 -0.004991 -0.001822 -0.004693 -0.004494 -0.002254 0.004644 -0.005956 0.004145 -0.005226 -0.000828 0.008336 0.005021 -0.005135 0.008571 0.006183 0.006582 0.009033 -0.006208 -0.000663 0.002635 -0.002309 -0.013210 -0.005285 0.000781 0.013176
hop 0.012292 0.012020 -0.002999 0.006868 0.000117 -0.002793 -0.007928 -0.002008 0.000564 -0.007204 -0.008610 -0.003154 0.011741 0.002127 0.001151 0.005734 -0.000941 -0.002981 0.001211 -0.000595 0.004581 0.009626 -0.004297 0.000223 0.009221 0.001633 0.006716 -0.001646 0.012059 -0.001797 0.000834 0.013889 0.005075 -0.001958 -0.002050 -0.006798 0.004860 0.001778 0.004770 -0.007900 0.007193 -0.009226 0.007680 -0.000665 0.002323 0.002865 -0.002043 0.007889 0.000978 -0.013025 -0.002260 0.006128 -0.007505 -0.003976 0.002724 0.002320 0.001811 0.004524 -0.002199 -0.000043 0.009771 -0.007742 0.010134 0.010810 0.003027 0.005849 0.001240 -0.003457 -0.004028 0.001088 -0.003984 -0.004044 -0.002320 -0.005654 0.006857 -0.012169 -0.005062 -0.004649 -0.008331 -0.007803 0.005618 -0.003542 0.005972 0.001717 0.000734 0.005342 -0.002033 0.003779 -0.000567 -0.002483 -0.004439 -0.008037 0.005519 0.003648 -0.009323 0.002558 -0.000517 -0.017635 0.008453 0.004066
coffe 0.015112 0.001621 -0.003712 0.005707 -0.009022 -0.012774 0.007146 -0.003201 0.013385 -0.000717 0.003075 -0.013791 0.005624 -0.000768 0.012302 0.007612 0.002313 0.002250 0.000505 0.005552 0.008945 0.015025 0.000286 -0.002876 0.014316 0.001420 -0.003273 -0.013481 -0.001724 0.004390 -0.002132 0.003953 0.008958 0.010577 0.003581 -0.001837 -0.007045 0.005565 -0.003773 -0.007126 0.010726 -0.002239 0.000223 0.008064 -0.000800 0.008937 0.007906 -0.004461 0.010325 -0.008873 0.003655 -0.001579 -0.002471 0.000948 0.006613 0.000222 0.005090 -0.003394 -0.002324 -0.006387 0.013544 0.002498 0.013687 -0.005333 0.004833 0.004923 0.011114 -0.006590 0.009893 -0.001613 0.000293 0.000727 -0.000732 0.006559 -0.000816 -0.006663 0.002327 -0.006176 -0.000297 0.000372 0.014059 0.007709 0.007490 0.006784 -0.000973 0.002309 -0.006163 -0.001065 -0.003048 -0.000943 -0.000881 0.004263 0.005717 -0.000523 -0.005652 0.003935 0.004933 -0.017871 -0.006067 0.008611
light 0.006423 -0.001018 -0.003217 -0.002248 -0.007761 -0.005241 0.004889 0.000662 0.008673 -0.006270 -0.008228 -0.003713 0.009790 -0.004154 0.010112 0.009273 -0.003009 0.009036 -0.010457 -0.002810 0.003764 0.011173 0.005213 0.005507 0.005706 -0.000799 0.003842 -0.008256 0.006311 0.005035 -0.000032 0.012151 0.010150 -0.003727 -0.003389 -0.007247 -0.006593 0.003097 -0.001036 -0.012675 0.010020 0.002856 0.013192 0.008820 -0.003292 0.009927 0.003931 0.001650 0.007873 -0.014519 -0.001148 -0.001263 0.005888 0.002313 0.004139 -0.002665 0.003339 0.000446 0.005862 -0.002815 0.007205 -0.003233 0.000819 0.000828 0.008747 -0.002493 -0.001704 -0.002245 -0.000825 -0.005947 -0.001140 0.006738 -0.002336 -0.005917 0.008422 0.002439 0.003744 -0.000114 -0.001321 0.008825 0.003125 -0.009892 0.005043 0.002874 -0.007224 0.009701 -0.011418 0.003226 0.000745 -0.005802 -0.000086 -0.002794 -0.008205 -0.009206 -0.005232 0.001563 -0.001055 -0.011394 -0.001064 0.001718
carbon -0.004612 0.002334 -0.001105 -0.001439 -0.004390 -0.000697 0.004993 0.000311 -0.003755 -0.003190 0.001450 0.003412 0.004403 0.007822 0.003657 0.002588 0.000296 -0.002929 -0.007210 0.002560 0.000855 -0.005689 0.007666 -0.001294 -0.001108 -0.003880 0.000769 0.003259 0.011369 0.002434 0.002859 -0.000717 -0.000508 -0.002930 0.006726 -0.004598 0.000268 0.000861 0.003713 0.007160 -0.002623 0.004235 0.005544 -0.000748 0.003427 0.004550 -0.000792 0.000791 0.002176 -0.009092 -0.005426 -0.007039 -0.005467 -0.000559 -0.004390 -0.000908 0.000914 0.005404 -0.001036 0.004571 0.001981 0.004765 -0.006045 -0.001236 0.001525 -0.003372 -0.010642 0.004877 0.007286 -0.003397 0.000753 -0.003638 -0.003831 0.002388 0.010803 -0.004887 0.001180 0.002154 -0.001728 0.000007 0.007022 -0.000406 0.011928 0.005907 0.002825 0.003465 0.008002 0.005961 -0.000698 -0.003141 -0.003564 -0.000694 -0.004731 0.000598 -0.004767 0.009180 -0.001319 -0.010974 0.009530 0.003558
quit 0.001025 -0.002472 0.008821 -0.001255 -0.000705 -0.007198 0.007074 -0.005462 0.006530 -0.009437 -0.003629 0.006337 -0.001663 0.009883 0.000726 -0.005164 0.008822 0.002169 -0.000803 0.005968 0.003933 -0.000229 -0.005051 -0.004432 0.004893 0.002354 -0.009107 -0.005067 0.000238 0.008023 -0.001905 0.009959 0.004264 0.006011 0.002397 0.003375 0.003155 0.000505 -0.000456 0.004261 -0.002516 -0.008792 0.001246 0.001089 -0.000175 0.005653 0.004392 -0.001306 0.007818 0.002464 0.007006 0.005606 -0.002227 -0.002462 0.006164 0.001055 -0.009753 -0.002744 -0.003439 -0.005267 0.006533 -0.000399 0.002724 0.001172 0.006947 -0.002097 -0.001437 0.001175 0.000939 0.003577 0.002479 0.000555 0.006521 -0.007577 0.002269 0.000784 -0.006040 -0.000626 -0.007275 0.004924 0.001301 -0.004030 0.007259 0.004766 -0.003899 -0.001860 0.002658 0.000718 0.005004 0.000832 0.005826 0.002128 0.004724 -0.001054 -0.008833 -0.010400 -0.001380 0.004828 -0.004888 -0.001367
malti 0.000840 0.002858 -0.004526 -0.001111 -0.005186 -0.004405 0.007112 0.006083 0.001216 -0.004455 -0.006113 -0.002927 0.000897 -0.000382 0.000551 0.003415 -0.001707 0.001276 -0.004984 0.004750 -0.005264 0.001083 -0.005829 0.001348 -0.002329 0.004886 0.004138 -0.007288 0.003679 0.008316 0.006213 0.002742 0.004676 0.003175 -0.002412 -0.010971 0.000799 0.002342 -0.007755 -0.007155 0.001189 -0.007918 0.001314 0.003623 -0.001663 0.010414 0.007813 -0.002909 0.000477 0.003911 0.003525 -0.000968 0.003825 -0.006439 -0.001983 -0.000583 0.003551 0.001793 0.000343 -0.006793 -0.003243 0.000363 0.003104 0.000532 -0.003756 0.005913 0.006047 0.001463 -0.003581 -0.001764 0.002953 0.002249 0.001044 -0.002555 0.000821 -0.001962 -0.003670 -0.004102 -0.000460 -0.001603 0.000678 0.003127 0.004205 0.000068 -0.000302 0.005471 -0.000907 -0.002596 0.000203 -0.000253 -0.001077 -0.004267 0.002634 0.005148 -0.003963 -0.007876 0.005786 -0.012443 -0.009494 -0.004527
roast 0.004242 0.002347 0.005001 0.008753 -0.004544 -0.010303 0.006099 -0.001374 0.007090 -0.011650 -0.000546 -0.006002 0.009058 -0.002242 0.003992 0.012972 -0.002367 0.001022 -0.002848 0.001083 0.003977 0.004685 -0.002269 -0.003443 0.013028 -0.001080 -0.005279 -0.006587 0.006006 0.004707 -0.002606 0.001779 0.009183 0.007904 0.007890 0.002146 -0.004132 -0.000650 -0.000903 -0.005647 0.013085 0.000402 0.004052 0.006934 -0.002474 0.009354 0.011695 -0.001748 -0.001564 -0.002905 -0.005827 0.004312 0.010193 -0.002930 0.004581 -0.012715 0.004655 -0.002533 0.006355 -0.005426 0.006128 -0.005153 0.007807 -0.001315 0.000850 -0.001320 -0.000524 0.001870 0.006853 -0.002496 -0.003287 -0.000750 -0.004141 -0.004287 0.003601 -0.007763 -0.001393 -0.004069 -0.005556 0.001597 -0.001663 0.006843 0.007193 -0.004658 -0.004766 0.003887 0.004892 -0.002055 -0.004880 -0.005829 -0.011752 -0.000342 0.005166 0.001185 -0.007646 -0.007364 -0.005991 -0.009051 0.005082 -0.005832
amber -0.000301 0.000824 -0.006208 -0.010301 0.008885 0.010038 -0.005210 -0.000668 -0.010190 0.000202 0.008317 -0.004766 -0.004751 -0.006676 0.002390 0.005808 -0.006363 0.000528 0.005037 -0.010343 -0.001907 0.010252 0.002150 -0.001310 0.003376 0.001514 -0.001895 0.003586 0.000762 -0.009256 -0.008399 0.005368 0.001221 -0.009920 0.000658 0.003521 0.006237 0.000201 0.003321 0.000522 -0.001793 -0.005649 0.003501 0.000194 0.007561 0.004683 -0.004475 0.001308 -0.001332 0.001216 0.001983 0.002174 -0.002739 0.000921 -0.003289 0.002170 0.004124 0.002545 0.007707 0.009444 -0.005109 0.004965 -0.004074 0.006789 0.001001 -0.002921 0.000604 0.003375 -0.000252 -0.005664 -0.006263 0.002227 0.002499 0.000947 -0.003938 0.005108 -0.002833 -0.004459 -0.003183 -0.003508 0.002501 0.000637 -0.004734 -0.004047 -0.003958 0.000730 -0.005786 -0.000593 0.002596 0.003471 0.004213 0.009465 -0.003599 -0.006250 0.004257 0.000331 0.000077 0.001085 -0.000542 0.009211
tan 0.001917 -0.004120 -0.005865 -0.006699 -0.007428 -0.002789 -0.008955 0.014590 0.004100 -0.005678 0.003173 -0.005464 0.005711 -0.012631 0.011385 0.009450 -0.005684 -0.000803 -0.003783 -0.013354 -0.000718 0.008155 -0.007075 0.009792 0.001149 0.000064 0.005193 -0.006289 0.013728 -0.003338 -0.004624 0.000182 0.005279 -0.000025 0.000033 -0.007365 -0.013635 0.011375 -0.001583 -0.002829 0.003301 -0.003403 0.006821 0.000336 -0.008247 0.014515 0.007828 -0.002756 0.005428 -0.008204 -0.006226 -0.003591 0.005951 -0.005377 0.010076 -0.008843 0.013313 0.011761 0.008817 0.000882 -0.001638 -0.005081 0.005359 0.006772 -0.001530 0.000644 0.001705 -0.001108 0.000627 -0.016687 0.010289 0.004357 0.002031 -0.011528 -0.005181 -0.008671 0.003563 -0.001431 0.003042 0.012208 0.012306 0.002076 0.002306 0.002815 -0.011949 0.001728 -0.010648 -0.004485 0.013663 0.002413 -0.003362 0.007953 -0.002032 0.002801 0.008649 -0.000340 0.000560 -0.009930 -0.015017 -0.003283
fruit -0.002250 0.000116 -0.000772 -0.004455 -0.002003 -0.001208 0.002556 0.006003 0.004312 -0.007959 -0.000368 -0.007543 -0.003387 0.006109 0.013024 0.015620 -0.006010 0.002197 -0.000526 0.003315 0.007814 0.013627 0.000963 0.001872 0.012492 -0.005344 0.009830 -0.000252 0.001801 0.002600 0.005974 0.003143 0.005851 -0.002272 0.006736 -0.013060 -0.009788 0.004342 0.005729 -0.007429 0.005831 -0.006446 0.005447 0.010179 -0.004037 0.004761 0.007523 0.002171 0.008239 -0.010463 -0.002138 -0.002726 0.011665 -0.002206 -0.001132 -0.009491 0.011941 0.003081 -0.001272 -0.002459 0.008908 -0.002093 0.005914 -0.000653 0.010649 0.006535 0.001345 -0.000828 0.004666 0.007724 0.001583 -0.008426 -0.003224 -0.002489 0.000204 -0.004188 -0.005369 -0.000183 -0.006457 0.010778 0.010353 -0.007232 0.008659 0.002859 0.002133 0.007477 0.001652 0.000720 -0.000800 0.008067 -0.006789 -0.000830 -0.006975 -0.002436 -0.004277 0.003581 -0.003338 -0.005119 -0.004769 -0.000116
nelson -0.001777 -0.008813 0.001542 -0.000325 -0.001596 -0.001561 -0.000749 -0.004420 0.007332 0.011722 -0.006070 -0.000887 -0.005063 -0.001398 -0.003484 0.002678 -0.007464 -0.001196 -0.006544 0.000223 0.004322 0.011365 0.002890 0.002996 -0.006850 0.002262 0.001401 -0.010742 0.008109 -0.004042 -0.002700 -0.003365 0.002397 -0.004979 0.009480 0.002542 0.001813 -0.006759 -0.010065 0.003183 0.011944 0.008433 -0.000491 -0.009462 -0.012037 -0.003759 0.005289 0.002208 -0.002416 0.010229 -0.003761 0.011374 0.000580 -0.002181 0.002917 -0.004009 0.001881 -0.004432 -0.003827 0.000495 0.000014 -0.003498 0.014194 0.000704 -0.006569 0.001683 -0.002710 0.003606 -0.000421 -0.007491 0.010275 -0.009440 0.000434 0.008333 -0.001141 0.004404 -0.001617 0.010916 0.004419 0.003846 -0.009646 -0.005386 0.004150 -0.003722 0.002686 0.009792 -0.004722 0.002023 -0.000942 -0.005992 0.000220 -0.000028 0.007663 -0.002799 0.008528 0.000969 -0.009973 -0.000150 -0.006712 0.007016
note 0.002114 0.000938 0.007385 0.002787 0.005036 -0.009107 0.012329 -0.000233 0.005541 -0.012827 -0.000621 -0.005289 0.004465 0.002575 0.009778 0.012230 0.001034 -0.001891 -0.007276 0.005334 0.010398 0.013070 0.000989 0.004452 0.003853 0.007613 -0.003641 -0.012154 0.005461 0.005204 -0.001387 0.003525 0.001755 0.003117 0.003232 0.001817 -0.001785 0.008429 -0.000424 -0.012984 0.011870 -0.002543 -0.002205 0.000993 -0.005616 0.007260 0.007426 -0.008844 0.010728 -0.009488 0.004830 0.006337 0.004554 -0.007977 0.007730 -0.010259 0.010866 -0.007590 -0.003671 -0.001183 0.013430 0.001143 -0.001512 -0.004415 0.001238 -0.007136 0.009868 0.003009 0.005678 -0.003576 0.002148 -0.003330 -0.000925 -0.001767 0.000422 0.000904 -0.007136 -0.002310 0.001251 0.005279 0.007198 -0.002555 0.008381 0.002948 0.004868 0.000358 0.004448 -0.002400 -0.002111 0.001862 -0.001640 0.004093 0.009511 0.001500 -0.004164 -0.000575 0.002524 -0.002776 0.001448 -0.001458
off -0.000525 -0.004593 -0.008747 -0.006498 0.002539 -0.003286 -0.001451 0.002778 0.001122 -0.005518 -0.012813 -0.000592 -0.002293 -0.002754 -0.007259 0.009338 0.005266 0.002713 -0.006815 -0.001142 0.001943 0.008174 -0.000581 -0.001852 0.010715 -0.004938 0.006535 -0.000966 0.002609 0.004056 -0.006710 0.001566 -0.006808 0.012013 -0.003951 0.003238 -0.004612 -0.000498 0.001752 -0.001289 0.017701 0.004129 0.001053 0.005522 -0.018397 0.011426 0.008287 -0.002510 0.008618 -0.013705 0.002870 0.006009 -0.005100 -0.009893 -0.001673 0.000727 0.007380 -0.004619 0.013743 -0.004951 0.010232 -0.001889 0.009412 -0.003902 0.004704 -0.005668 0.008037 -0.008365 0.011114 -0.003644 -0.007047 -0.004231 0.005901 -0.007647 0.002039 -0.001704 0.007423 -0.003336 -0.003810 0.002794 0.007722 -0.005481 0.002265 0.009454 0.000841 0.007867 -0.001226 0.006280 0.001766 -0.001740 0.000024 0.002324 -0.006575 0.002185 -0.005552 0.004747 0.000894 -0.004777 -0.004721 -0.000569
lord 0.001912 -0.012650 0.009346 -0.003765 0.001900 0.004106 -0.005125 0.001568 -0.006995 0.007940 -0.000742 0.008655 0.002775 -0.005401 -0.006619 -0.006899 -0.008334 0.000288 -0.006520 0.000390 -0.005992 0.011285 -0.004615 -0.000261 -0.011709 0.006402 0.000699 -0.006463 0.001490 -0.000957 0.004818 -0.013558 -0.005889 -0.007463 0.004185 0.001435 0.003321 -0.009965 -0.009291 0.001990 0.008572 0.003526 -0.002489 -0.011849 -0.001896 -0.017621 0.000864 0.006644 -0.011106 0.014897 -0.005974 0.008484 0.001999 -0.003134 -0.002951 -0.004289 -0.003942 -0.004129 -0.000718 -0.002480 -0.001474 -0.003053 0.005785 0.006496 -0.011008 0.002836 -0.010556 0.001158 -0.006854 -0.006040 0.007241 -0.010104 -0.002804 0.015698 -0.002648 0.004869 0.005264 0.012836 0.010481 -0.005213 -0.006539 0.003173 -0.006238 -0.003031 0.002907 0.000270 0.003233 0.005742 -0.010543 -0.001176 0.001358 0.007668 0.010564 0.002691 0.008178 0.002740 -0.008725 0.009024 -0.000174 -0.002591
al 0.001439 0.006079 -0.002422 0.001569 0.000513 0.009067 0.005392 0.006200 -0.005661 -0.002899 0.006415 -0.007141 -0.000103 -0.001055 -0.001081 -0.011134 0.002265 -0.005293 0.000762 0.003785 0.007378 -0.006493 -0.001676 0.009094 -0.008148 -0.004428 0.006805 0.001234 0.007697 -0.006757 0.000853 -0.006020 0.003582 0.001760 -0.001750 0.003060 0.004466 -0.007189 0.000043 0.006046 -0.003173 -0.006620 -0.006868 0.006223 0.005239 -0.003448 -0.004980 -0.002874 0.002303 0.008396 -0.000162 -0.002866 0.004340 0.002072 -0.005199 0.001585 -0.001908 0.005979 0.003245 0.008336 -0.011390 0.005391 -0.006792 -0.009426 0.000632 0.006319 -0.002645 0.002920 0.002301 -0.003205 0.000733 0.004082 0.008460 0.000655 0.004819 -0.002532 0.004936 -0.004254 -0.001178 -0.004142 0.002692 -0.002709 0.003292 0.006127 0.002190 -0.002288 -0.001816 -0.000301 0.008120 -0.000251 0.006117 0.007456 -0.000722 -0.002627 -0.003462 -0.001338 -0.002936 0.001043 0.001269 -0.009662
creami 0.003120 0.000888 -0.003183 0.007412 0.006031 0.000934 0.006039 0.006298 0.006331 -0.003449 -0.006129 -0.008370 0.003537 0.001777 0.004408 0.006591 0.001777 0.000306 -0.006134 -0.002709 0.001722 0.004830 -0.000109 0.002261 0.006268 0.003433 0.000743 -0.010558 0.009336 -0.002403 0.001361 -0.002048 0.004106 0.000646 -0.000640 0.001623 -0.000784 0.000647 -0.001097 -0.010991 0.013471 -0.006011 0.006402 -0.001160 -0.007432 0.013590 0.010326 -0.006243 0.009940 -0.012247 0.007101 -0.003233 0.003040 0.001160 -0.003263 0.002639 0.006793 0.000367 0.000118 -0.008439 0.013861 0.006141 0.002124 -0.004031 0.002078 0.002599 0.001601 -0.000998 0.012035 0.000288 -0.002879 0.008071 0.001718 0.002262 -0.001377 -0.009185 -0.000149 0.000351 -0.006189 -0.000045 0.004442 -0.004104 0.001422 0.007742 0.002740 0.001584 -0.002982 -0.003577 -0.001664 -0.000989 -0.002983 -0.000669 0.004223 0.002182 -0.007454 -0.005816 0.004944 -0.008133 0.001628 0.005094
littl -0.003313 -0.000428 -0.003532 -0.000271 0.002358 -0.003642 0.002875 -0.005185 0.008013 0.004533 -0.001194 -0.008870 0.004483 0.003210 0.003341 0.007117 0.005809 -0.008309 -0.000108 0.006718 0.003977 -0.002218 -0.001465 -0.004111 0.002944 0.007042 0.003291 -0.000375 -0.003929 0.003823 -0.004420 0.004872 0.006877 0.006690 0.003015 -0.005528 0.002110 0.002736 0.001604 -0.012125 0.007419 0.003442 0.007110 0.005693 -0.002305 0.004309 -0.001899 -0.001726 0.006550 -0.010652 -0.002497 -0.004051 0.004475 -0.006312 0.010043 -0.002452 0.001758 0.008312 -0.006710 -0.008046 0.008062 -0.004038 0.008835 -0.002347 -0.001586 0.001187 0.005807 -0.006449 0.003844 0.002946 -0.003254 -0.007609 0.008600 -0.001879 -0.000601 -0.000779 -0.002779 -0.003082 -0.007126 -0.001394 0.001556 -0.002843 -0.002577 0.002485 -0.004439 0.003008 -0.004874 0.002550 0.000403 -0.000712 0.005211 0.004901 0.001028 -0.006915 0.005244 0.000415 -0.009344 -0.004516 -0.009583 0.005689
red -0.008688 0.003969 -0.000492 -0.007072 -0.003731 0.003282 -0.007208 0.006752 0.001281 0.002338 0.005906 0.007532 -0.003550 0.003104 0.000752 0.001801 -0.001949 0.000641 0.005402 -0.006230 -0.009053 -0.006844 0.005273 0.006245 0.002859 -0.011502 -0.004430 -0.000848 0.006341 0.004265 -0.005847 -0.004749 0.003718 -0.009720 0.005142 0.005226 -0.002131 -0.000639 -0.005063 -0.001178 -0.000339 0.002189 -0.008785 0.002787 0.003350 0.004477 -0.005601 -0.001344 0.002713 -0.003548 -0.002315 0.000565 0.002910 -0.000714 -0.002355 -0.000430 0.005684 -0.002789 -0.004406 -0.000356 -0.004762 0.001241 0.003499 -0.005144 -0.008795 0.000889 0.000718 -0.001638 0.001308 -0.000550 0.006215 -0.005014 -0.007687 0.002383 -0.001402 0.000771 0.001406 -0.002609 0.007402 0.002555 0.007010 -0.003141 -0.002459 -0.002275 -0.003190 -0.003564 -0.000108 -0.004988 -0.000285 0.004042 -0.002327 0.004614 -0.002676 -0.001361 0.005859 -0.005831 -0.002227 0.000311 0.003186 -0.002483
toffe 0.009337 -0.002982 -0.005633 0.005127 0.003611 -0.002771 0.004723 -0.001602 0.007914 0.004032 -0.003447 0.001413 0.003529 0.000600 0.005611 0.008379 -0.002196 0.006247 0.000260 0.004115 -0.002927 0.007168 0.004802 -0.003567 0.008909 -0.000993 0.003149 -0.005286 -0.001664 0.002563 -0.003863 0.005997 0.005162 0.002021 0.001468 -0.004973 0.003477 0.005818 0.007328 -0.007749 0.012186 -0.008813 -0.000759 0.008761 -0.004586 0.008629 0.000953 0.003994 0.003108 -0.002648 0.007755 0.001968 -0.000050 -0.000535 0.003413 -0.003325 0.004464 0.000893 -0.002667 -0.010425 0.007285 -0.006333 0.006796 -0.004663 0.001553 -0.005081 -0.000181 -0.006897 0.007968 0.001848 0.001490 -0.002326 -0.003251 0.001062 0.005649 -0.001191 -0.009698 -0.003238 -0.006572 0.005939 0.002728 -0.000059 0.004115 0.001090 -0.001493 0.000841 -0.000713 0.000297 -0.000406 0.001987 -0.003973 0.008242 0.004323 0.000803 -0.002501 -0.006019 -0.007369 -0.011126 0.005777 -0.002962
ml -0.000165 -0.002680 0.000856 -0.012491 0.000854 0.008911 -0.011992 -0.005147 -0.009507 0.005139 0.006865 0.005533 -0.009494 0.005197 -0.010095 -0.006912 0.005017 -0.001213 -0.000732 -0.011081 -0.004697 -0.013444 -0.003373 0.007465 -0.019910 -0.008162 -0.001046 0.005481 -0.008017 0.001941 -0.000812 -0.017467 -0.002940 -0.011656 -0.009070 0.014783 0.008470 -0.001377 -0.002348 0.015973 -0.020120 0.003627 -0.006387 -0.008483 0.013650 -0.015360 -0.009140 0.009980 -0.014243 0.022446 0.001195 0.008501 -0.001989 0.002313 -0.018055 0.006987 -0.002416 -0.001964 0.001816 0.005350 -0.015630 0.004014 -0.016550 -0.004675 -0.004187 0.006704 0.002321 0.008812 -0.015546 0.015590 -0.004228 0.004589 -0.004109 0.004918 -0.005224 0.011420 -0.000238 -0.008802 0.004210 0.005303 -0.012214 0.008326 -0.017254 -0.012566 0.004937 -0.018172 0.005051 0.008055 -0.006414 0.004287 0.007169 -0.009817 -0.010012 0.002820 -0.000487 -0.000993 0.013046 0.016039 -0.007874 -0.017027
palat 0.001135 0.008065 0.004973 0.007633 -0.002736 0.001906 0.003389 -0.008621 -0.005617 -0.000817 0.005123 -0.002697 0.001412 0.000626 -0.002387 -0.002985 0.000917 -0.000073 -0.004679 -0.000627 -0.004478 0.000569 0.002373 0.000985 -0.000735 0.001101 0.005962 0.003506 0.005760 0.000443 0.010969 0.002118 -0.001156 0.004290 -0.002405 -0.009099 -0.003752 0.001971 0.007646 0.002271 -0.002304 0.005706 -0.005128 -0.005714 0.003078 -0.007024 -0.004689 -0.003146 -0.004830 -0.003456 0.004311 0.002946 0.000706 -0.006834 0.000726 -0.001345 0.002214 0.006762 -0.007162 -0.001500 -0.004861 -0.000061 0.004907 -0.000357 -0.009268 0.001463 -0.006380 -0.003156 -0.000427 0.002278 0.000551 0.002500 0.002539 -0.002012 0.001387 0.001680 0.000587 0.004643 -0.002292 -0.001320 -0.001087 -0.006770 0.002142 -0.004961 0.004871 0.000257 0.004328 0.003152 0.001808 0.005952 0.000284 0.000815 0.001359 -0.000232 0.003307 0.005969 0.000674 0.005782 -0.005096 0.002218
strong 0.002401 -0.006142 0.001220 0.008281 0.004143 -0.002638 0.006042 0.002385 0.011334 0.003435 0.001044 -0.006695 0.002360 0.008776 0.006403 0.003500 0.000042 -0.006120 -0.001050 0.000947 0.006291 -0.003253 -0.001231 0.003101 -0.002586 -0.002991 -0.000570 0.004217 0.001122 0.000455 -0.007213 0.009197 0.010094 0.004310 0.003435 0.002691 -0.000746 0.002589 -0.002302 -0.003641 0.007076 0.001402 -0.002360 0.002380 0.003885 0.005965 0.008241 -0.006393 0.006814 -0.009508 -0.003058 -0.008413 0.003474 -0.006174 0.008116 0.000773 0.002154 0.005208 0.007288 0.002957 0.005628 -0.008333 0.000056 -0.004892 -0.001136 -0.004577 0.000227 -0.003750 0.006490 -0.005179 0.003208 -0.001607 -0.001372 -0.004680 -0.004415 -0.005341 -0.001545 -0.005082 0.007932 -0.008657 -0.000233 -0.007268 0.000318 -0.001482 -0.004998 0.011288 0.000027 0.003802 -0.005639 -0.002027 0.001228 0.010330 -0.005299 -0.002242 -0.001105 -0.001119 -0.006264 -0.002437 -0.002184 0.001587
great -0.004291 -0.003925 0.005481 0.004531 0.005287 0.003599 0.005126 -0.003144 0.000257 0.002365 0.003789 0.001130 0.002301 0.005222 0.004596 0.000654 -0.000254 -0.001921 0.000155 0.001146 -0.001197 -0.009135 -0.001935 -0.003321 0.000517 0.005371 0.003422 0.002700 -0.003369 0.005622 0.000989 -0.006154 -0.003372 -0.002153 0.003661 0.006980 0.000028 -0.003608 0.001766 -0.003493 -0.006711 0.000245 -0.007012 0.001334 0.000763 0.003417 0.000585 0.006759 0.003680 0.001776 0.010717 -0.003865 -0.001609 -0.001903 -0.005555 -0.007747 -0.003344 0.004485 0.001456 -0.000770 0.008603 0.005966 0.001970 -0.000182 -0.004289 -0.002761 -0.004041 0.005063 0.007409 0.002962 0.002574 0.003021 0.009589 -0.007941 -0.003618 -0.002565 0.001257 0.006808 0.003212 -0.001857 0.004582 -0.002749 -0.000342 0.004851 -0.000031 0.008049 -0.001499 -0.000733 0.004255 -0.000619 0.000566 0.002020 -0.001291 -0.007683 0.005605 -0.003575 -0.004965 -0.003345 -0.000489 0.001025
hint 0.009119 -0.005997 -0.002153 0.009564 -0.000687 -0.006056 0.002082 -0.001521 0.002545 -0.007895 -0.001297 -0.000840 -0.006739 0.008084 0.009682 0.005754 0.003189 0.000518 0.000804 -0.001084 0.007828 0.001930 0.002096 -0.007402 0.004304 0.010650 -0.004411 -0.001349 0.012759 0.006376 0.007951 0.008894 0.006382 0.002520 0.001524 -0.009047 -0.012764 -0.001607 -0.006298 -0.004503 0.010888 -0.006549 0.001220 0.006526 -0.008755 0.009814 0.007476 -0.005297 0.010413 -0.014178 -0.001918 -0.002894 -0.002723 -0.014003 0.006578 0.003561 0.001319 -0.008354 0.004449 -0.010585 0.002571 0.002107 0.012365 0.000926 0.005529 0.005353 0.004952 0.001693 0.005191 -0.007748 -0.001287 0.005012 0.003658 -0.000274 0.004676 -0.006081 0.001561 0.010097 -0.002076 -0.001235 0.006674 0.000644 0.002867 0.003587 -0.003601 0.007035 0.002474 0.000556 0.001436 -0.003761 -0.003516 0.006509 0.002822 0.005119 0.001791 0.000720 0.000926 -0.004612 -0.002661 0.006502
on 0.006051 -0.002511 0.006465 -0.005016 -0.006565 0.005291 -0.003079 0.001212 0.002821 -0.002546 0.000963 -0.000223 0.002227 -0.001865 -0.006648 0.002918 -0.000805 -0.000696 -0.004957 0.000151 -0.003471 -0.002762 0.005526 -0.000166 0.004428 -0.000335 0.001392 -0.004811 -0.005627 0.003785 -0.007460 -0.007282 -0.005005 -0.004308 -0.002162 -0.005894 0.005211 0.001643 -0.006042 0.002350 -0.002334 0.002249 0.008338 -0.002225 -0.001629 -0.002267 0.006652 0.001498 0.003058 0.002689 -0.005307 0.007097 0.000356 -0.000508 0.008965 -0.006578 -0.008777 0.000806 -0.004810 -0.002814 -0.006333 0.000988 -0.006783 0.001000 -0.002291 -0.003220 -0.004472 -0.002909 -0.001494 0.003883 0.003229 -0.002122 -0.000043 0.007598 0.002959 -0.003862 -0.000044 0.007655 0.000592 -0.004387 -0.003297 -0.004123 0.004673 0.000877 -0.000762 -0.001490 0.005583 0.003185 -0.007045 0.006046 0.008913 -0.009749 -0.003201 0.008071 -0.003154 -0.006311 -0.002675 -0.003668 -0.000782 -0.001123
slightli -0.000490 0.001346 -0.008262 -0.004091 -0.001940 -0.003441 0.002542 0.004791 0.005345 0.003021 -0.006518 0.005741 0.006473 0.000898 0.010151 0.002933 0.008836 -0.004510 -0.000046 0.001561 0.012595 0.004553 0.000223 0.002504 0.002819 0.004305 -0.008496 -0.002470 0.003692 0.004500 -0.002036 0.012702 0.000302 0.004434 0.001759 -0.003138 -0.002054 -0.008231 -0.008604 0.002986 0.007266 0.001077 0.003544 -0.002280 -0.007114 0.000041 0.007660 -0.005307 0.006245 -0.012008 0.006081 -0.004452 -0.006090 0.003031 -0.000367 0.002236 0.006391 0.000585 -0.001669 -0.005332 0.008080 0.001544 0.008919 -0.005184 0.001414 0.003890 0.001756 0.005189 0.000027 0.007796 0.003829 -0.002810 -0.002932 -0.007896 -0.000162 -0.005588 -0.000134 -0.000608 -0.001741 0.001416 0.000697 -0.010232 0.002804 -0.002479 -0.000558 0.002608 0.004671 -0.005553 -0.005425 0.000419 0.007785 0.002059 -0.007181 -0.005282 0.001906 -0.001944 -0.010203 -0.008902 0.007590 0.004634
white 0.002144 -0.008015 -0.002204 0.001000 -0.006109 -0.001347 0.002869 0.003426 0.003511 -0.008456 -0.008051 -0.004827 -0.000338 -0.006298 -0.004043 0.017881 -0.000064 -0.007044 -0.011541 -0.004058 0.002543 0.006151 -0.004253 0.001781 0.006633 -0.005298 0.006440 -0.008178 0.005849 -0.006345 -0.002637 0.006968 -0.003709 0.012756 0.004308 -0.000711 -0.004928 0.006358 0.003474 -0.007030 0.024882 -0.000197 0.014523 0.007711 -0.012360 0.017099 0.006939 -0.003833 0.003317 -0.011029 0.005793 0.001082 0.000309 -0.014488 0.004746 0.002685 0.010812 -0.004038 0.005373 -0.000144 0.003063 -0.002874 0.008971 0.003720 0.003588 0.001616 0.011239 -0.001800 0.011725 -0.015388 -0.003228 -0.000853 0.001844 -0.004020 -0.004206 -0.008731 0.008649 -0.001033 0.000678 0.006785 0.020395 -0.004480 -0.002204 0.007997 0.001106 0.002093 0.001687 -0.000714 0.007963 0.001510 -0.001964 0.000894 -0.010224 0.003159 0.001282 -0.006433 0.002511 -0.017578 -0.009076 0.005870
alcohol 0.006218 0.002488 -0.001990 0.004036 0.002589 -0.003052 0.004324 -0.002007 0.002882 -0.001520 -0.007263 -0.002061 -0.003156 0.006811 -0.004386 0.003569 0.007082 -0.002674 0.001451 0.000517 -0.002396 0.001874 0.006909 0.007642 -0.001832 0.004674 -0.000146 -0.006733 -0.000278 0.004797 0.000144 0.000032 0.008191 -0.002171 -0.005837 -0.009990 -0.000710 0.007374 0.000162 -0.002127 -0.003590 -0.001079 0.009361 0.000540 -0.006989 -0.001682 0.005686 -0.003001 0.004893 -0.000943 -0.006300 0.000826 -0.000332 0.001057 -0.003282 -0.003144 0.000499 0.004869 0.000228 0.001282 0.004866 -0.006487 -0.002966 0.005240 -0.000380 -0.002415 0.006577 0.005667 0.000415 0.005186 0.007373 0.004449 0.006805 0.003301 -0.002074 0.001225 -0.011103 0.003304 -0.004678 -0.003426 -0.000911 -0.008830 0.000862 -0.000917 -0.001244 -0.002025 0.000904 -0.006793 0.003134 0.001060 0.005600 -0.002041 0.000922 0.000624 -0.001602 0.003730 -0.000150 -0.008444 -0.003641 -0.002672
tap -0.001598 0.000221 -0.000856 -0.007108 -0.000809 0.007227 -0.014436 0.002140 -0.013154 0.001195 0.002475 0.010583 -0.003800 -0.000304 -0.000789 -0.010373 -0.005346 -0.001373 -0.007289 0.005017 -0.008698 -0.004234 -0.007933 -0.006525 -0.007591 0.001981 0.001621 -0.000306 -0.002077 0.000911 0.004632 -0.010686 -0.003756 -0.001998 -0.005354 0.011669 0.012745 -0.010642 -0.007145 -0.001426 -0.008593 -0.002555 0.002592 -0.005691 0.006663 -0.018395 -0.005511 0.004871 -0.010468 0.010485 -0.004171 0.002945 -0.003734 0.001375 -0.008533 0.004447 0.005404 -0.007062 0.003584 0.009433 -0.015897 -0.001465 -0.011790 -0.000820 -0.005884 -0.002738 -0.005023 0.007623 -0.010890 -0.003665 0.007839 0.000528 0.000561 0.006754 -0.003988 0.010929 0.002794 -0.004364 0.010195 -0.008024 -0.002755 0.010179 -0.009051 -0.005953 -0.001287 -0.006019 0.006424 -0.005781 -0.009043 -0.004202 0.003938 0.004218 0.003926 -0.000835 0.000339 0.003614 0.006277 0.008495 0.000033 -0.001711
roasti -0.005075 -0.003199 0.004758 0.007836 0.000846 0.000928 0.007231 0.003133 0.010767 -0.000329 0.001008 -0.005140 -0.003167 0.002701 0.011982 0.006176 0.002859 0.002159 0.003215 0.010214 0.007344 -0.001022 -0.004765 -0.006850 0.014991 0.007815 -0.002651 -0.005416 0.006448 -0.000700 -0.003063 0.001601 -0.000132 0.000752 0.001895 -0.009569 0.001200 -0.008129 -0.001667 -0.007969 0.007169 -0.005460 0.005349 -0.002166 -0.010940 0.008656 0.002579 -0.005500 0.005233 -0.007503 0.009838 0.003034 0.004690 -0.000523 -0.004252 0.001968 -0.004994 0.001721 -0.006420 -0.006075 0.006657 -0.000622 -0.000605 0.006479 -0.000220 0.004107 0.003426 -0.004961 0.004627 0.000221 0.003780 0.001308 -0.002576 0.004699 0.004524 -0.006993 -0.001292 -0.000535 -0.005819 0.013158 0.004129 0.001801 0.008171 0.001144 0.000005 0.001283 -0.006026 -0.003467 -0.001012 0.003944 0.002977 0.005287 -0.002629 -0.005234 0.004777 -0.003916 0.002275 -0.004341 -0.005794 -0.005260
s -0.006067 -0.005356 -0.010049 -0.003399 -0.002739 -0.004329 0.009966 0.004271 0.006699 -0.000892 0.001322 -0.006972 0.002673 0.002832 0.002982 0.006502 -0.004925 0.004692 0.000108 0.003906 0.004573 0.000121 0.008521 0.004813 0.002480 0.005253 -0.006396 -0.001209 -0.003125 0.008675 0.002228 -0.005958 0.009482 0.001570 0.000218 -0.000906 0.003063 -0.001737 0.008381 -0.006633 0.003288 0.001972 -0.000080 0.004401 0.001068 -0.001468 0.003442 -0.001363 -0.000845 -0.005596 0.002663 0.001157 0.004850 -0.006639 0.009510 -0.002143 0.000695 -0.009157 -0.003655 -0.001475 0.006369 0.004920 0.007014 -0.009949 -0.004282 -0.005563 -0.002025 -0.001125 0.003148 0.001937 0.000195 -0.000534 0.004566 -0.001443 -0.002904 -0.001228 -0.005148 -0.000825 0.003750 -0.001087 -0.004434 -0.003766 0.006707 -0.003776 0.000299 0.005503 -0.004201 0.003472 0.002039 -0.003397 -0.000191 0.000227 0.003812 -0.006058 0.004508 0.001234 0.003198 -0.002128 0.003713 0.000069
hazi -0.001419 0.007193 -0.003030 -0.004434 0.002332 -0.002925 0.002089 0.001137 -0.002951 0.000580 -0.002768 0.005741 -0.003187 0.002669 0.002074 0.008427 -0.006738 -0.000562 0.005278 -0.001509 -0.001301 0.002455 0.005734 0.006699 0.008340 0.003481 0.001386 -0.000155 0.001518 0.003103 0.004344 0.001345 0.003479 -0.004754 0.005304 -0.005731 0.001049 -0.003115 -0.001273 -0.003739 0.001781 0.002448 0.008184 0.008008 -0.002425 0.004577 0.007631 -0.001677 0.003925 -0.009942 0.008694 0.000665 -0.000426 0.001939 0.008244 -0.001202 0.009276 0.002211 0.006266 -0.001556 -0.002889 -0.000842 -0.007315 -0.001218 0.001356 0.002667 0.004675 -0.004804 0.008192 0.007346 0.005679 0.001269 0.001271 -0.002118 -0.005723 0.006954 -0.000968 0.000229 0.001283 0.007463 0.003654 -0.002295 0.004461 0.001265 -0.009752 0.007632 -0.002893 0.009110 -0.005626 -0.001467 -0.001721 -0.001836 -0.008576 -0.008701 -0.000630 -0.008275 -0.007051 -0.004717 0.006744 -0.000175
sydnei -0.008422 -0.001552 0.001128 -0.001645 0.002242 0.001547 -0.003103 -0.003973 0.006583 -0.004087 -0.001626 -0.005808 -0.003439 -0.001997 0.007473 0.000435 -0.003395 -0.005698 0.000769 0.004241 0.009302 0.005376 0.008150 -0.001242 0.002087 0.003296 -0.000662 -0.001466 -0.003749 0.003174 -0.002693 -0.003627 0.007472 -0.001143 0.000703 -0.001003 -0.000559 0.002990 -0.001812 0.002021 -0.002165 0.003973 -0.004800 0.000795 0.001692 0.004671 0.007745 0.003498 0.001047 -0.001330 0.000941 0.000011 0.000572 -0.002933 0.001121 -0.006834 -0.005921 0.001986 -0.003146 -0.000587 0.006183 0.002885 0.004723 0.005318 0.002465 -0.003417 0.002422 -0.005122 0.005951 0.004210 0.009230 0.006255 0.001320 -0.004336 0.003485 -0.004858 -0.003028 0.002133 -0.000840 0.001639 -0.001145 0.006828 0.001991 0.008720 0.000999 0.005071 -0.000571 -0.004053 -0.005046 0.001862 0.006892 0.002823 -0.004199 -0.001520 0.005691 0.009855 -0.000666 0.002917 -0.004934 -0.001306
t -0.003935 0.000574 0.001875 0.006222 0.003027 -0.000719 0.002342 -0.004390 -0.004047 -0.000114 0.006487 -0.001671 0.000106 -0.002150 0.000835 0.007107 0.007020 0.005605 0.000314 -0.002674 -0.000345 0.002699 0.002025 -0.008750 0.010460 -0.004097 0.000554 -0.003072 -0.000458 -0.003230 0.001042 -0.000517 0.001286 -0.004770 0.000825 -0.007659 0.002103 0.003823 -0.000341 -0.006379 0.002249 0.004345 0.006266 0.005370 -0.002092 0.000415 0.008553 -0.006427 -0.003974 -0.000473 -0.000180 0.001692 -0.000438 -0.010279 -0.000694 -0.000402 -0.000658 -0.001895 -0.001439 0.000227 0.008279 -0.002655 0.004807 0.001695 0.002405 -0.006996 -0.004679 0.006216 0.000083 0.004750 0.003059 -0.003308 -0.007608 0.004351 -0.002559 -0.009805 -0.000991 0.008150 -0.001692 -0.002196 0.003396 0.000022 0.006961 0.000069 0.001907 0.006038 -0.004859 -0.000400 -0.004605 -0.004035 0.001062 0.000561 0.002433 0.004559 -0.007095 -0.005133 -0.002067 -0.001312 0.003982 0.005151
clear -0.000604 -0.001654 -0.001269 -0.002389 0.005035 -0.001996 0.000627 0.006958 -0.004785 0.008010 0.002752 0.010639 0.000455 0.003412 -0.000157 -0.006567 -0.002153 -0.001129 -0.004762 -0.003626 -0.001457 0.001940 0.004866 -0.007845 0.006353 0.004810 0.003682 0.003935 -0.005120 0.001512 -0.006257 0.000651 0.006307 -0.006175 0.007880 0.008298 0.004542 0.003807 0.001402 0.006358 -0.001362 -0.004698 -0.006574 0.005415 -0.000784 -0.004222 -0.000574 -0.004359 0.001035 -0.008278 -0.003734 -0.002112 -0.002922 0.004271 0.004996 -0.006667 0.003890 0.007087 0.002219 -0.005547 -0.001268 0.001249 -0.003505 -0.002981 0.007256 0.006100 0.003652 -0.003925 0.002806 0.001724 -0.001905 -0.003050 -0.002045 -0.004112 -0.008947 -0.001915 -0.001050 -0.006538 0.001024 -0.002543 0.000198 0.005681 0.003967 -0.001068 -0.001087 -0.007477 0.002381 0.009739 -0.006230 -0.003706 -0.003255 0.004736 -0.004318 -0.002851 -0.001973 0.006448 0.002555 0.006104 -0.001590 -0.002609
realli -0.000361 -0.003557 -0.000363 0.006818 0.002587 -0.001452 0.000075 -0.000698 -0.006943 0.002792 -0.003445 -0.002434 0.009683 0.008536 -0.005129 0.007973 -0.004004 0.007718 0.002526 0.005998 -0.007591 0.003221 0.001795 -0.001843 0.001160 -0.001452 0.000854 -0.000390 -0.005670 0.003407 -0.001540 -0.002079 -0.000710 -0.002852 -0.001130 -0.000247 0.001308 -0.004850 0.010019 0.006463 0.003007 -0.003495 -0.004815 0.000373 0.002232 0.000810 0.000127 0.000209 0.004074 0.001985 -0.007947 -0.004301 0.003398 -0.003540 0.001512 -0.008487 -0.002940 0.001290 -0.003964 -0.006531 0.003103 0.000691 0.000735 0.002001 -0.003306 0.002722 -0.009681 -0.007748 -0.002326 0.001287 0.002884 -0.000194 -0.002937 -0.001082 -0.004231 -0.007780 -0.002767 0.001792 -0.006971 -0.006155 0.001359 -0.002694 0.008377 -0.001209 0.001063 0.001845 0.002218 -0.003351 0.005129 -0.004803 -0.005399 0.000370 -0.007040 -0.003214 0.000439 0.004069 -0.000799 -0.002155 -0.005824 0.008743
copper -0.006238 -0.001581 0.003452 -0.002867 0.008154 -0.003892 0.000557 -0.003229 0.004910 -0.009071 -0.001250 -0.004369 0.002553 -0.000262 0.008548 0.003397 -0.004637 -0.000351 -0.002456 0.004404 -0.000220 0.003022 -0.001205 -0.003940 0.003456 -0.006526 -0.000945 0.005406 -0.000179 -0.002744 0.007172 0.003027 -0.004008 0.003307 -0.004867 0.002059 -0.000715 0.000947 0.000288 0.000862 0.003355 -0.005598 -0.005264 -0.005351 -0.003749 0.005172 0.005387 0.000512 0.000932 0.000048 -0.002550 -0.003952 0.003000 -0.001733 0.001849 -0.000007 -0.000845 0.000987 -0.005798 0.000003 0.009263 -0.005753 -0.000931 0.002779 0.003623 -0.007778 0.004297 0.007459 -0.000828 -0.006440 0.003008 -0.004896 -0.004703 0.002842 0.001357 -0.003833 0.000123 -0.002597 -0.000806 0.000173 0.002685 -0.006821 0.002423 -0.002672 0.007114 0.000758 0.003485 0.003356 -0.002535 0.001785 0.000643 0.001005 -0.002097 0.000996 -0.001269 -0.000352 0.002262 0.001730 -0.005521 0.007763
dry 0.000892 -0.000310 0.000467 -0.005482 0.003064 -0.002630 -0.002779 0.000834 0.010433 -0.007332 -0.001432 -0.005115 0.005324 0.003602 0.007907 0.006234 0.000682 0.001929 -0.000977 -0.002777 -0.000914 -0.000096 0.005232 -0.003518 -0.002184 0.005966 0.000899 -0.009710 0.001108 0.008688 -0.004468 0.007148 -0.005681 0.005836 0.005054 -0.007263 0.005797 0.007943 0.004077 -0.006223 -0.002189 -0.006573 0.007017 0.007546 -0.004818 0.002003 0.005379 -0.007392 -0.001329 -0.006878 -0.004542 -0.005100 -0.004413 0.004361 0.002838 -0.001860 0.004626 0.000644 -0.001021 0.001180 0.009111 -0.005042 0.005547 0.005161 0.002135 -0.003388 0.007276 0.002120 -0.001850 0.001147 0.003471 -0.004246 -0.005296 -0.003367 0.002149 0.002132 -0.002086 0.001349 -0.006124 -0.004137 -0.001328 -0.002382 0.009840 0.006700 -0.008769 0.005916 -0.003460 0.005471 -0.004079 -0.001252 0.000658 -0.005215 -0.001373 -0.006785 0.001232 -0.000152 -0.008146 -0.006210 -0.006965 0.005416
lot 0.003227 0.005463 -0.002686 0.001551 0.002912 -0.002502 0.005498 -0.003568 0.005879 0.004167 -0.003719 0.000001 -0.007645 -0.000597 -0.001208 0.002529 -0.002707 0.004952 -0.001646 -0.002610 0.002279 -0.001122 0.003132 0.003926 0.011381 0.000710 -0.000341 -0.009648 0.007309 -0.003155 -0.006050 0.009366 0.009301 0.001815 0.002373 -0.000570 -0.007671 0.005787 -0.004643 -0.011112 0.010088 0.000408 -0.002969 -0.001927 -0.002288 0.005872 0.011869 -0.008136 0.003211 -0.010800 0.006602 0.000964 0.000450 0.003485 -0.001663 -0.007942 0.005466 -0.002658 0.002110 -0.004685 0.007783 -0.005694 -0.005007 -0.001998 0.008571 0.000788 0.001064 0.003391 0.001752 0.008179 -0.008472 -0.003600 -0.003373 0.003211 -0.002612 -0.000957 -0.002980 0.006698 -0.001707 0.007762 0.007456 0.002957 -0.001789 0.004469 -0.005140 0.002337 0.001782 -0.001968 -0.001098 -0.003914 0.002352 0.000643 0.000046 0.000186 -0.002163 -0.000931 -0.008695 -0.016882 -0.002397 -0.000839
small 0.004384 -0.002177 -0.004733 0.002702 -0.004301 -0.004237 0.006566 0.002460 0.008166 -0.001863 0.002251 0.001965 0.000554 -0.004481 -0.000276 0.003946 -0.007316 0.007394 -0.007980 -0.005903 -0.004212 0.006287 0.001134 -0.000935 0.002769 -0.001551 0.001620 -0.006140 0.006748 0.000484 0.002406 0.002667 -0.000150 -0.002338 0.008800 -0.001300 -0.003090 0.001221 -0.002426 -0.001833 0.005015 -0.008026 0.011869 0.003286 -0.000615 0.009406 -0.002472 -0.007955 0.009868 -0.006677 -0.002548 -0.001623 0.001721 -0.008556 0.002260 0.005133 0.001973 0.001839 -0.005582 0.001762 0.006671 0.002473 0.002905 0.005295 0.000768 -0.008664 0.001690 0.001859 0.000940 -0.002370 -0.001932 -0.003564 -0.003109 -0.000923 0.006993 -0.003013 0.005575 -0.003607 -0.000667 0.002165 0.006318 0.001958 0.006628 -0.001109 -0.006560 0.007367 -0.011700 0.006671 -0.001543 -0.009520 0.002164 -0.000329 0.005022 -0.001436 0.004875 -0.003369 -0.000394 -0.005263 -0.002602 -0.000122
toast -0.002210 -0.001209 0.004880 0.005176 -0.003934 -0.000679 0.007938 0.007211 0.010322 -0.001977 -0.003833 -0.007998 -0.002660 0.005405 0.004284 0.007157 -0.000207 0.003987 -0.008420 0.005657 0.013755 0.005915 0.005315 -0.001782 0.008096 -0.002705 0.000834 -0.005323 0.000061 -0.001590 0.002020 0.003152 0.001598 0.003308 -0.003711 -0.010124 -0.008731 0.005732 -0.001254 -0.012696 -0.000622 -0.009013 0.003061 0.005043 -0.006206 0.004722 -0.001658 -0.004302 0.001246 -0.008295 0.005042 -0.001128 0.010999 -0.001739 0.003751 -0.010830 0.008818 -0.007320 -0.003474 -0.004364 0.012813 -0.002660 -0.000602 -0.000811 0.006254 -0.006442 0.001969 -0.006615 0.008647 0.000738 0.003294 -0.007851 -0.003208 0.002446 -0.002251 -0.005958 -0.001429 0.008768 -0.000025 0.000256 0.007154 -0.009517 0.002443 0.005146 -0.004230 0.009878 -0.008181 -0.005440 0.001702 -0.004756 -0.001940 0.006503 0.007529 -0.001696 0.003054 0.004115 0.003010 0.000332 -0.000763 0.008019
<unk> -0.000004 0.000824 0.000191 -0.001547 -0.000868 0.000237 -0.000237 0.000284 -0.000935 0.000240 0.000067 -0.000792 0.001328 -0.000179 0.000515 -0.000745 -0.000039 -0.000351 -0.001049 -0.000395 -0.000797 -0.000640 -0.000928 -0.000533 -0.001326 -0.000338 0.001372 0.000767 0.000745 0.000137 0.000071 -0.000923 -0.000020 -0.000415 -0.000484 -0.000049 0.000955 0.000695 0.000136 0.000397 -0.000551 0.000055 -0.000095 -0.000312 0.002006 -0.001565 0.000336 0.000832 0.000360 0.002167 -0.001024 -0.000055 -0.000222 -0.000552 -0.000642 0.000199 0.000430 0.000475 0.000508 0.001461 -0.001712 0.000968 0.000042 0.000619 -0.000361 0.000189 0.000379 0.001449 -0.000681 -0.000601 0.001084 -0.000329 0.000487 0.000304 0.000097 0.000116 -0.000741 -0.001575 -0.000868 -0.000822 -0.000428 0.001320 -0.000587 -0.001022 -0.000957 -0.001528 0.001098 -0.000123 0.000019 0.000380 0.001280 0.000144 -0.000575 0.000141 -0.000566 0.000009 0.000278 0.001331 0.000348 -0.000564
